{"name":"nn21.5","initialization_type":"xavier","training_iterations":0,"input_dimensions":{"vertical":6,"horizontal":6},"output_dimensions":{"vertical":3,"horizontal":3},"deep_layers":8,"neurons_per_layer":25,"weights":[[[-0.09759753423383498,0.10121896407553573,-0.1763636332908261,0.1705693455441049,0.14992719544641067,0.14829755201764536,0.08999253156626343,0.11842075582361425,0.03494679797241215,-0.06663430908729363,-0.08347395785120208,-0.06301287924559289,0.17238006046495527,0.1231286146178252,-0.01176964698552741,0.0468975164500246,-0.027522866796925633,0.02770393828901067,-0.17292327494121038,0.1651372007815538,-0.004345715810040889,-0.15155683887517601,-0.11661004090276388,-0.16350755735278846,0.12222325715740003],[-0.025531080383990223,0.038387156322027854,0.11534254045816861,-0.07532574070737541,-0.013942504890547854,-0.1397871918896486,0.1783554197037615,0.14739219455722016,-0.0698935959448243,0.13308754668250225,-0.17998506313252685,-0.15753219811398225,-0.03711965587743259,0.029514653209861044,0.02353929397105482,0.08437931531162728,-0.06029680686431734,0.09288967543962401,-0.0030782153654456304,-0.13960612039756357,0.166042558241979,0.17455291836997572,0.09832182020217513,-0.11027253867978756,-0.09687324826549483],[-0.05486466210176623,-0.1645939863052987,-0.13326861817458727,0.01973679263726904,0.08492252978788238,0.05196751822840563,-0.047983945402534825,0.01792607771641867,0.08184431442243675,0.09288967543962401,0.06337502222976296,-0.10085682109136565,-0.1578943410981523,-0.1377954054767132,0,-0.13562254757169276,0.11498039747399853,-0.07568788369154549,0.12493932953867556,0.10302967899638608,-0.10375396496472623,0.04309501511623882,-0.03313608305156178,-0.042551800639983706,0.06518573715061333],[-0.10266753601221601,-0.013218218922207705,0.021185364573949338,-0.1665857727182341,0.10809968077476712,0.15463505424062166,-0.1426843357630092,0.0005432144762551112,0.13417397563501246,-0.06409930819810311,-0.06772073803980386,-0.005794287746721186,-0.019917864129354076,-0.05287287568883082,0.11353182553731823,-0.017563934732248595,-0.1352604045875227,-0.11860182731569928,-0.16006719900317276,0.014666790858888003,0.09053574604251853,0.1689397021153396,0.08818181664541305,-0.1685775591311695,0.07496359772320534],[0.043276086608323855,0.15698898363772712,-0.1280175449041212,-0.006337502222976298,-0.03639536990909245,-0.1568079121456421,-0.10773753779059704,0.047259659434194676,-0.15717005512981216,-0.0019917864129354074,0.020642150097694226,0.006156430730891261,-0.009053574604251853,-0.17364756090955052,0.03440358349615704,-0.0356710839407523,0.051786446736320595,0.11389396852148831,0.1568079121456421,0.09397610439213423,0.1803472061166969,-0.17998506313252685,-0.01484786235097304,0.08781967366124298,-0.09777860572592002],[-0.09270860394753898,0.1426843357630092,-0.015753219811398222,-0.08365502934328713,0.14630576560470995,0.1470300515730501,0.10665110883808682,0.03440358349615704,0.17527720433831587,-0.02697965232067052,-0.1133507540452332,0.06735859505563378,0.1788986341800166,-0.05414037613342608,-0.03802501333785778,0.13888183442922342,0.009234646096336889,-0.13562254757169276,-0.16966398808367975,-0.09633003378923972,0.1182396843315292,0.08619003023247764,0.024444651431480006,0.1401493348738187,0.01358036190637778],[0.1578943410981523,-0.1309146887774818,0.050700017783810385,-0.06047787835640238,-0.04291394362415378,0.07550681219946045,0.059934663880147274,-0.0840171723274572,0.06283180775350786,-0.09506253334464446,0.11896397029986935,0.027885009781095708,-0.09415717588421928,-0.016115362795568296,0.17509613284623082,0.17726899075125127,-0.15427291125645157,0.12493932953867556,-0.1294661168408015,-0.01539107682722815,0.0664532375952086,0.1377954054767132,0.06772073803980386,-0.16097255646359795,-0.014123576382632891],[-0.021728579050204446,-0.0713421678815046,-0.03023893917820119,0.02028000711352415,0.03367929752781689,0.1680343446549144,0.018288220700588744,0.12729325893578106,0.011226432509272298,-0.021185364573949338,0.051062160767980445,0.060658949848487416,-0.13163897474582195,-0.08419824381954223,0.08818181664541305,-0.1119021821085529,-0.06337502222976296,-0.09850289169426017,-0.13163897474582195,0.09850289169426017,-0.025168937399820155,-0.05214858972049067,-0.02028000711352415,0.1300093313170566,0.044543587052919116],[0.10773753779059704,-0.17654470478291112,-0.11860182731569928,0.01973679263726904,-0.11516146896608358,-0.12204218566531498,0.02716072381275556,-0.1720179174807852,-0.10465932242515141,-0.021728579050204446,-0.09614896229715468,0.02643643784441541,-0.023177150986884745,-0.1539107682722815,0.11552361195025365,0.17419077538580566,-0.005794287746721186,0.05486466210176623,-0.0036214298417007415,0.10465932242515141,-0.050700017783810385,0.054502519117596154,-0.024625722923565043,-0.10176217855179084,-0.12584468699910076],[0.13616576204794786,0.09252753245545393,0.10991039569561749,-0.1616968424319381,0.08383610083537216,-0.11661004090276388,-0.05830502045138194,0.05142430375215052,0.015572148319313186,0.08854395962958313,-0.057761805975126826,-0.10737539480642697,0.1642318433211286,0.018650363684758815,0.12548254401493067,0.05323501867300089,0.019193578161013927,-0.057218591498871714,-0.09904610617051528,0.13544147607960771,-0.0420085861637286,0.0027160723812755558,0.10176217855179084,-0.17672577627499617,0.009777860572592001],[0.14775433754139022,-0.17437184687789067,0.04961358883130016,0.09886503467843025,-0.17310434643329542,-0.1459436226205399,-0.1251204010307606,0.13942504890547855,-0.1338118326508424,-0.060658949848487416,-0.11570468344233868,-0.023177150986884745,-0.10520253690140653,0.06609109461103853,-0.011226432509272298,0.1504704099226658,0.04418144406874904,0.13218218922207706,0.07116109638941957,-0.13670897652420297,-0.15409183976436652,0.0874575306770729,0.045267873021259265,0.03386036901990193,0.030057867686116152],[-0.1343550471270975,-0.07405824026278016,-0.02480679441565008,-0.0566753770226166,-0.12493932953867556,-0.01176964698552741,0.09596789080506965,-0.1626021998923633,-0.11389396852148831,-0.10719432331434194,-0.04490573003708919,-0.04381930108457897,-0.16531827227363885,-0.024625722923565043,0.02353929397105482,-0.05830502045138194,-0.10972932420353246,-0.12240432864948506,0.08999253156626343,0.07188538235775972,-0.07985252800950135,0.07423931175486519,-0.04635430197376949,-0.029876796194031118,-0.05033787479964031],[-0.02842822425735082,0.07731752712031083,0.0698935959448243,0.07605002667571556,-0.05015680330755527,-0.15155683887517601,-0.11570468344233868,-0.008329288635911704,-0.032773940067391705,-0.03947358527453808,0.17726899075125127,0.11425611150565838,0.1358036190637778,0.11316968255314816,-0.10846182375893719,0.0005432144762551112,-0.1329064751904172,0.16694791570240416,0.003983572825870815,-0.141597906810499,0.15572148319313187,0.0966921767734098,-0.1329064751904172,0.13761433398462816,0.046535373465854526],[-0.11733432687110402,-0.023901436955224894,-0.09361396140796416,0.050700017783810385,0.14377076471551944,-0.05595109105427645,0.08492252978788238,0.04490573003708919,-0.06464252267435823,-0.17455291836997572,-0.10701325182225689,0.01484786235097304,0.06391823670601808,0.10846182375893719,-0.0825686003907769,0.1691207736074246,0.010321075048847113,-0.11552361195025365,-0.0038025013337857783,-0.15952398452691766,0.10791860928268208,-0.07043681042107942,-0.17183684598870017,0.10194325004387586,-0.09343288991587913],[0.12330968610991025,-0.07930931353324623,0.05196751822840563,0.0957868193129846,0.035490012448667264,-0.0986839631863452,-0.14250326427092416,-0.10302967899638608,-0.019374649653098965,-0.06862609550022905,0.16676684421031915,-0.1314579032537369,0.1616968424319381,0.07949038502533128,0.0952436048367295,-0.11733432687110402,0.009415717588421926,-0.08437931531162728,-0.062288593277252745,-0.15210005335143112,-0.06627216610312356,0.12349075760199528,-0.034765726480327115,-0.008872503112166816,-0.141597906810499],[-0.04852715987878994,0.09144110350294371,0.1225854001415701,-0.17238006046495527,0.04001679975079319,-0.02408250844730993,-0.06916930997648416,0.04381930108457897,0.0454489445133443,-0.02969572470194608,0.03730072736951763,0.07369609727861008,0.04762180241836475,0.1401493348738187,0.132001117729992,0.05432144762551112,-0.1627832713844483,0.08021467099367142,-0.08763860216915793,0.06916930997648416,0.06826395251605898,0.09506253334464446,0.17853649119584655,0.10465932242515141,0.12077468522071973],[-0.17618256179874106,0.026074294860245335,0.026074294860245335,0.12602575849118577,0.13453611861918255,0.0860089587403926,0.006156430730891261,-0.03947358527453808,0.03386036901990193,-0.036938584385347556,0.17455291836997572,-0.014485719366802966,0.09307074693170905,-0.15427291125645157,0.1435896932234344,-0.13218218922207706,-0.10991039569561749,-0.13652790503211795,0.08872503112166816,0.0009053574604251854,-0.024444651431480006,0.01720179174807852,-0.060115735372232304,0.1539107682722815,-0.10610789436183171],[0.1691207736074246,0.10212432153596089,-0.13163897474582195,0.1671289871944892,0.02770393828901067,0.1372521910004581,-0.0805768139778415,-0.049432517339215123,0.10067574959928062,0.1435896932234344,0.04019787124287823,0.15898077005066255,0.036214298417007414,0.12095575671280476,-0.1401493348738187,-0.11588575493442373,0.08981146007417838,-0.16731005868657425,0.00742393117548652,-0.0995893206467704,-0.0845603868037123,-0.07007466743690935,-0.057761805975126826,0.17799327671959142,0.012131789969697484],[-0.0981407487100901,-0.09126003201085868,0.11606682642650876,0.09433824737630431,-0.06554788013478341,0.17002613106784978,-0.1387007629371384,0.06409930819810311,-0.05884823492763705,-0.11316968255314816,-0.15083255290683587,-0.15771326960606727,0.09162217499502875,-0.0923464609633689,-0.15155683887517601,-0.0923464609633689,-0.1377954054767132,0.11552361195025365,-0.13761433398462816,0.06084002134057245,-0.041646443179558526,-0.07460145473903526,0.015210005335143113,0.11045361017187261,-0.04418144406874904],[0.05142430375215052,-0.15191898185934608,-0.17328541792538046,0.1446761221759446,0.12964718833288652,-0.04907037435504505,-0.17238006046495527,0.17654470478291112,-0.18107149208503706,-0.08329288635911705,0.01285607593803763,0.0048889302862960005,0.13906290592130846,-0.1622400569081932,0.11009146718770253,-0.04363822959249393,0.10049467810719558,-0.13417397563501246,-0.0825686003907769,-0.1587996985585775,-0.036757512893262526,-0.08274967188286193,-0.01285607593803763,0.1211368282048898,-0.07098002489733453],[0.08130109994618165,0.1216800426811449,0.04291394362415378,0.16586148674989395,0.022996079494799707,0.15517826871687676,0.019555721145184002,-0.09687324826549483,0.010140003556762076,-0.06319395073767793,0.07152323937358965,-0.1622400569081932,0.01792607771641867,-0.1694829165915947,-0.017745006224333632,0.11606682642650876,-0.07532574070737541,-0.17799327671959142,0.11027253867978756,0.02915251022569097,-0.1256636155070157,0.09795967721800505,0.13109576026956682,-0.1455814796363698,-0.03259286857530667],[0.15318648230394136,-0.141597906810499,-0.03241179708322163,0.026255366352330372,-0.10248646452013097,-0.15463505424062166,0.12892290236454637,0.03295501155947674,0.02154750755811941,0.0018107149208503707,0.04273287213206874,0.09832182020217513,-0.11461825448982846,-0.033498226035731854,-0.15028933843058076,-0.0995893206467704,-0.13598469055586282,0.04816501689461986,0.16042934198734285,-0.13055254579331171,0.017745006224333632,-0.003983572825870815,0.1162478979185938,-0.08908717410583823,0.02915251022569097],[-0.03295501155947674,-0.13743326249254312,0.09995146363094047,0.07840395607282105,0.12584468699910076,0.052510732704660744,0.015210005335143113,-0.13055254579331171,-0.12874183087246135,0.05486466210176623,-0.0021728579050204447,-0.15083255290683587,0.17907970567210166,-0.15191898185934608,-0.0972353912496649,-0.10610789436183171,-0.1294661168408015,-0.03367929752781689,0.063556093721848,0.14340862173134936,0.09795967721800505,0.13326861817458727,-0.12729325893578106,-0.022452865018544595,0.08709538769290283],[-0.09488146185255943,0.11787754134735913,0.1265689729674409,-0.1231286146178252,-0.15517826871687676,0.1734664894174655,-0.03458465498824208,-0.049432517339215123,-0.006156430730891261,-0.15916184154274757,0,0.161153627955683,-0.10610789436183171,0.1803472061166969,-0.16622362973406402,0.014304647874717928,-0.009596789080506964,0.06772073803980386,0.025531080383990223,-0.14992719544641067,0.05015680330755527,-0.1539107682722815,-0.16006719900317276,-0.0805768139778415,-0.15481612573270667],[0.021909650542289483,-0.11208325360063794,-0.12421504357033543,0.04852715987878994,-0.060115735372232304,-0.15608362617730195,0.17437184687789067,-0.14684898008096506,0.16332648586070345,-0.04074108571913334,0.059934663880147274,0.025350008891905192,0.0981407487100901,-0.05142430375215052,-0.03856822781411289,-0.05088108927589542,-0.04707858794210964,-0.021728579050204446,-0.12928504534871646,0.04816501689461986,0.1720179174807852,0.11099682464812771,-0.1329064751904172,-0.005251073270466075,0.1314579032537369],[-0.14431397919177455,-0.15137576738309097,0.1251204010307606,0.06591002311895348,-0.008510360127996741,-0.03711965587743259,0.14576255112845485,0.05794287746721186,0.012312861461782522,-0.10574575137766164,-0.10882396674310726,-0.12928504534871646,-0.005251073270466075,0.0468975164500246,0.17002613106784978,0.1435896932234344,0.10918610972727734,0.09071681753460356,-0.029514653209861044,0.0825686003907769,-0.146486837096795,-0.03313608305156178,-0.13055254579331171,-0.005251073270466075,-0.1691207736074246],[0.12222325715740003,-0.10755646629851201,0.02969572470194608,0.16061041347942787,-0.1162478979185938,-0.16586148674989395,0.048708231370874974,-0.05631323403844653,0.1196882562682095,0.17382863240163557,0.010683218033017186,-0.10737539480642697,0.1300093313170566,-0.1504704099226658,-0.051786446736320595,-0.010683218033017186,0.033498226035731854,-0.07315288280235498,0.1176964698552741,-0.12530147252284562,0.015028933843058076,-0.05468359060968119,0.17708791925916625,-0.07713645562822578,-0.07949038502533128],[0.1231286146178252,0.055770019562191415,0.11154003912438283,-0.03947358527453808,0.04182751467164356,-0.1176964698552741,-0.11135896763229779,0.09107896051877364,0.1553593402089618,-0.146486837096795,-0.06898823848439913,0.0420085861637286,-0.13037147430122667,-0.01720179174807852,-0.17038827405201987,0.18089042059295202,-0.14033040636590371,0.13037147430122667,0.06102109283265749,-0.14540040814428476,0.04780287391044979,-0.09614896229715468,0.0693503814685692,0.063556093721848,-0.0010864289525102223],[0.04345715810040889,0.023901436955224894,-0.07315288280235498,0.06464252267435823,-0.0018107149208503707,0.05232966121257571,-0.10085682109136565,0.05613216254636149,-0.058486091943466975,-0.0860089587403926,0.13598469055586282,0.17002613106784978,0.023901436955224894,0.05866716343555201,-0.14865969500181542,-0.02281500800271467,-0.013037147430122667,-0.08963038858209335,0.08492252978788238,0.0014485719366802965,-0.1763636332908261,-0.042370729147898675,0.16350755735278846,-0.05902930641972209,0.15481612573270667],[0.1490218379859855,0.03331715454364682,0.10791860928268208,0.08383610083537216,0.0615643073089126,-0.1446761221759446,-0.1162478979185938,0.008691431620081779,0.055045733593851266,-0.1783554197037615,0.17419077538580566,-0.01358036190637778,0.03241179708322163,-0.056494305530531565,-0.1251204010307606,-0.13037147430122667,-0.1329064751904172,-0.1216800426811449,0.08781967366124298,0.02915251022569097,0.09651110528132475,-0.1010378925834507,-0.041646443179558526,-0.17853649119584655,0.12837968788829127],[-0.06717752356354875,-0.05902930641972209,0.13888183442922342,0.1749150613541458,-0.1343550471270975,-0.08510360127996741,-0.011950718477612447,0.11787754134735913,0.09940824915468535,0.02969572470194608,0.1383386199529683,-0.055226805085936304,0.10484039391723646,0.08419824381954223,-0.10574575137766164,0.023177150986884745,0.040378942734963265,-0.030420010670286227,-0.018469292192673778,-0.15028933843058076,-0.018107149208503707,-0.0693503814685692,0.08075788546992653,-0.053053947180915856,-0.14829755201764536],[0.11642896941067883,-0.044543587052919116,-0.10719432331434194,0.0005432144762551112,-0.016839648763908446,0.09451931886838935,0.0796714565174163,0.07442038324695023,0.15318648230394136,-0.13797647696879825,0.15662684065355706,0.10809968077476712,-0.10737539480642697,0.019555721145184002,0.08039574248575646,-0.049251445847130086,0.10647003734600179,-0.1680343446549144,0.17328541792538046,-0.13888183442922342,-0.01973679263726904,0.16531827227363885,-0.06953145296065423,-0.05830502045138194,0.15554041170104682],[0.10647003734600179,-0.17183684598870017,-0.14721112306513512,0.04418144406874904,0.03748179886160267,0.02136643606603437,-0.10954825271144741,0.10321075048847111,-0.1265689729674409,0.1383386199529683,0.1338118326508424,-0.11860182731569928,0.0483460883867049,-0.04780287391044979,0.16984505957576476,-0.09651110528132475,0.14666790858888004,0.12457718655450549,-0.14033040636590371,0.010683218033017186,-0.10140003556762077,-0.17871756268793157,0.05830502045138194,0.15572148319313187,-0.15409183976436652],[0.12276647163365513,-0.11425611150565838,0.16350755735278846,0.08619003023247764,-0.016115362795568296,-0.15807541259023736,0.1372521910004581,0.047983945402534825,0.15698898363772712,-0.0727907398181849,-0.17147470300453008,-0.07568788369154549,0.14829755201764536,0.0986839631863452,-0.03530894095658223,-0.15427291125645157,0.0981407487100901,-0.0468975164500246,-0.063556093721848,0.13616576204794786,-0.036214298417007414,-0.02408250844730993,0.16984505957576476,0.05884823492763705,-0.13127683176165186],[0.018831435176843853,0.1162478979185938,-0.0693503814685692,0.14105469233424386,-0.06047787835640238,0.15409183976436652,0.0995893206467704,0.016115362795568296,0.04218965765581364,-0.1559025546852169,-0.06753966654771883,-0.15572148319313187,-0.12964718833288652,-0.06482359416644326,0.01176964698552741,0.08166324293035172,0.14938398097015557,0.01285607593803763,-0.00742393117548652,-0.04092215721121838,-0.16586148674989395,-0.11280753956897809,0.024987865907735118,0.09071681753460356,-0.023901436955224894],[0.16061041347942787,0.18107149208503706,-0.06735859505563378,-0.06862609550022905,-0.12095575671280476,-0.03259286857530667,-0.07496359772320534,0.17219898897287023,0.1510136243989209,0.10266753601221601,0.12457718655450549,-0.04707858794210964,0.13960612039756357,-0.08763860216915793,-0.07242859683401483,-0.14721112306513512,-0.08709538769290283,-0.09071681753460356,0.03458465498824208,-0.06084002134057245,0.05359716165717097,-0.08510360127996741,0.07930931353324623,0.1631454143686184,0.014485719366802966]],[[0.0636,0.049,0.14980000000000002,0.1688,-0.129,-0.0242,0.07840000000000001,-0.1216,0.003,0.05360000000000001,0.0304,0.05600000000000001,0.1412,0.0322,0.11000000000000001,0.164,0.1384,0.083,0.0422,0.1342,-0.13720000000000002,-0.024,0.07980000000000001,0.0666,-0.032],[-0.0436,-0.19440000000000002,-0.050800000000000005,-0.11599999999999999,-0.0704,-0.15580000000000002,0.13060000000000002,0.12,-0.0346,-0.13240000000000002,-0.0766,-0.1814,-0.1212,-0.06899999999999999,0.04680000000000001,0.17620000000000002,-0.0416,-0.1446,-0.1402,-0.10420000000000001,-0.19820000000000002,0.0524,-0.1182,0.1174,0.0736],[-0.18320000000000003,-0.027600000000000003,-0.018,-0.17900000000000002,-0.1378,0.1318,0.052000000000000005,0.0204,0.129,-0.08960000000000001,0.18100000000000002,-0.0476,-0.083,-0.1966,0.1824,0.16620000000000001,0.1878,-0.0164,-0.051800000000000006,-0.0044,-0.1638,-0.13520000000000001,-0.1564,-0.042,-0.18100000000000002],[-0.05580000000000001,-0.10400000000000001,0.1456,0.032,0.11080000000000001,-0.1514,-0.0646,0.1446,0.0954,-0.1456,-0.1288,-0.10060000000000001,-0.053000000000000005,-0.0296,-0.065,0.062,-0.0374,0.10320000000000001,-0.054000000000000006,0.0044,0.0858,-0.07600000000000001,0.0106,-0.1166,-0.014000000000000002],[0.1562,-0.073,-0.063,-0.0342,-0.0948,0.023200000000000002,-0.0058000000000000005,0.061,0.11040000000000001,-0.072,-0.07840000000000001,0.039200000000000006,0.0446,-0.1918,0.1236,0.07880000000000001,0.1572,0.10400000000000001,-0.062400000000000004,-0.18020000000000003,0.188,-0.0106,0.014000000000000002,0.10620000000000002,0.0218],[-0.08020000000000001,-0.17820000000000003,0.1328,0.1456,0.127,-0.0932,0.0634,-0.135,-0.0086,0.06680000000000001,0.05460000000000001,0.0588,-0.08900000000000001,0.1898,0.041,-0.1794,-0.1192,0.098,-0.19440000000000002,-0.10540000000000001,-0.094,-0.1746,0.1754,0.041,-0.1456],[-0.025800000000000003,-0.1388,0.0854,-0.0716,-0.0902,0.1912,-0.1038,-0.0446,0.17820000000000003,-0.050800000000000005,0.067,0.0864,-0.0412,-0.015600000000000001,0.0368,-0.1246,0.026400000000000003,-0.05580000000000001,0.06820000000000001,0.1824,0.0292,0.0716,-0.0592,0.1794,-0.12440000000000001],[-0.10900000000000001,-0.0442,0.10060000000000001,-0.0762,-0.13560000000000003,0.055200000000000006,-0.10600000000000001,-0.1298,0.1884,-0.10820000000000002,-0.12240000000000001,0.08800000000000001,-0.014000000000000002,0.1272,-0.10420000000000001,-0.17720000000000002,0.11100000000000002,-0.062400000000000004,0.0842,-0.1218,-0.08040000000000001,-0.1564,-0.06,-0.1034,0.171],[0.1308,0.046200000000000005,-0.0344,-0.049800000000000004,0.17980000000000002,0.0376,0.1182,0.06860000000000001,-0.0356,0.1452,-0.016,0.134,0.013600000000000001,-0.06520000000000001,-0.15460000000000002,0.095,-0.014000000000000002,0.08020000000000001,-0.0888,-0.0664,0.1942,0.1268,-0.19740000000000002,-0.18480000000000002,0.17220000000000002],[0.0212,0.08360000000000001,-0.1232,0.10860000000000002,-0.17500000000000002,-0.004,0.1942,-0.09040000000000001,0.07600000000000001,-0.099,-0.196,-0.0122,-0.006600000000000001,0.06899999999999999,0.12480000000000001,0.1958,-0.149,0.068,0.10260000000000001,-0.1826,0.032400000000000005,0.134,0.0362,0.1206,-0.1644],[0.0732,-0.1188,0.18100000000000002,-0.0852,0.0888,0.0988,0.1554,0.045200000000000004,0.0144,-0.006600000000000001,-0.014199999999999999,-0.04020000000000001,-0.052000000000000005,0.0282,0.003,0.11200000000000002,0.0514,-0.11599999999999999,-0.0188,0.1496,0.0474,0.13340000000000002,0.15960000000000002,-0.0108,-0.1438],[-0.1704,-0.015,-0.1406,0.14880000000000002,-0.10640000000000001,0.1176,0.0738,-0.0296,0.1166,0.0734,-0.1718,0.0978,-0.1216,-0.025400000000000002,-0.1716,-0.10840000000000001,-0.16180000000000003,0.193,-0.169,0.169,0.1684,0.07900000000000001,-0.1706,-0.1456,-0.0038],[-0.1404,-0.1668,-0.1698,0.0698,0.0492,-0.1516,0.18020000000000003,-0.0584,0.14880000000000002,-0.11140000000000001,0.1292,-0.1816,-0.0786,-0.18120000000000003,-0.0684,0.0018,0.0126,-0.13060000000000002,0.06720000000000001,0.1932,0.031,-0.1018,-0.10620000000000002,-0.1754,-0.1318],[-0.1534,0.127,0.10560000000000001,0.06580000000000001,0.1906,-0.014000000000000002,-0.142,0.056999999999999995,0.0606,-0.1422,0.0772,-0.1686,0.0842,-0.1602,0.015,-0.0974,-0.191,0.1882,-0.0194,-0.026600000000000002,0.0242,0.0432,-0.06280000000000001,-0.04000000000000001,-0.1452],[0.10880000000000001,0.08100000000000002,0.17620000000000002,-0.1632,0.17400000000000002,0.13620000000000002,-0.0952,0.0184,-0.15900000000000003,-0.10600000000000001,-0.1386,0.06999999999999999,0.06,-0.0684,-0.0092,0.10760000000000002,-0.10260000000000001,0.034,0.084,0.0742,0.006600000000000001,-0.0738,0.0106,0.15900000000000003,0.024800000000000003],[-0.124,0.13740000000000002,0.040400000000000005,-0.1936,0.1302,0.19540000000000002,0.0422,0.11699999999999999,-0.1888,0.10520000000000002,0.10960000000000002,-0.1318,0.05460000000000001,-0.025,0.13660000000000003,-0.1416,0.09040000000000001,0.1826,0.0204,-0.1484,-0.1424,0.1926,-0.17500000000000002,0.014000000000000002,-0.148],[-0.05560000000000001,-0.1172,0.0938,0.001,0.0534,-0.15580000000000002,0.0776,0.026000000000000002,0.09920000000000001,-0.1644,-0.15680000000000002,0.0762,0.11699999999999999,-0.1428,-0.17880000000000001,0.10320000000000001,0.18720000000000003,-0.08120000000000001,-0.012,-0.1634,-0.18500000000000003,0.1132,-0.12,0.1142,-0.17700000000000002],[0.045000000000000005,0.006600000000000001,0.095,0.0332,-0.04680000000000001,0.0472,0.1396,0.1402,0.0882,0.1278,0.10220000000000001,0.042800000000000005,0.098,-0.1776,-0.1962,0.1628,-0.16080000000000003,-0.18720000000000003,-0.164,0.0038,0.1348,0.026400000000000003,-0.0172,-0.0708,-0.1878],[0.0984,0.1004,0.0766,-0.193,-0.0366,0.057999999999999996,0.18020000000000003,-0.11100000000000002,-0.1708,0.0354,-0.15660000000000002,0.13640000000000002,-0.15080000000000002,0.07640000000000001,-0.0164,0.18420000000000003,0.028999999999999998,-0.13460000000000003,-0.09140000000000001,0.17420000000000002,0.0512,-0.05260000000000001,0.027200000000000002,-0.0236,-0.0994],[-0.0088,0.11499999999999999,-0.0494,0.013200000000000002,0.0092,-0.18300000000000002,-0.049800000000000004,0.17720000000000002,0.1232,-0.163,0.0016,0.1584,0.07880000000000001,0.1236,0.0608,0.028399999999999998,0.083,-0.0038,-0.046000000000000006,-0.0354,0.005000000000000001,0.128,0.07680000000000001,-0.1152,0.1156],[-0.08900000000000001,-0.13060000000000002,-0.1138,0.167,0.122,-0.0004,0.1708,0.015600000000000001,-0.16720000000000002,0.191,-0.13620000000000002,0.0786,-0.165,0.1962,0.1146,0.15300000000000002,0.0814,0.06999999999999999,-0.0396,-0.196,0.03,-0.0302,0.027800000000000005,0.1776,-0.1532],[0.014000000000000002,-0.0666,0.10020000000000001,0.18560000000000001,0.16920000000000002,0.1726,0.1156,-0.0408,0.0954,-0.16180000000000003,0.1628,-0.073,-0.0742,-0.10720000000000002,0.1642,0.10600000000000001,-0.11240000000000001,0.06760000000000001,0.19820000000000002,0.1634,-0.0968,0.09960000000000001,0.053200000000000004,-0.0072,0.10560000000000001],[0.0944,0.0008,-0.05620000000000001,-0.0966,-0.194,0.1744,0.194,0.197,-0.1718,0.0222,-0.1166,-0.15280000000000002,0.1218,0.1348,-0.0852,0.11120000000000002,-0.16000000000000003,0.1696,0.005000000000000001,-0.003,-0.165,0.1216,0.1844,-0.17520000000000002,-0.0888],[0.1688,0.0092,-0.12760000000000002,0.005000000000000001,-0.10720000000000002,0.0524,0.1774,-0.007000000000000001,0.1502,0.1748,0.0482,-0.18600000000000003,0.1952,-0.124,0.1038,-0.1492,0.0616,-0.0238,-0.1506,-0.0386,0.1562,0.049,-0.1496,0.07540000000000001,-0.067],[-0.0088,-0.098,-0.1152,-0.0864,0.07440000000000001,0.11259999999999999,0.10740000000000001,0.0666,0.1494,-0.1166,-0.0238,0.0286,0.015600000000000001,0.0708,0.0262,0.055400000000000005,0.0364,-0.0756,-0.1676,-0.09140000000000001,-0.191,-0.0766,0.19820000000000002,0.032400000000000005,0.0388]],[[0.17820000000000003,-0.118,-0.12560000000000002,0.10260000000000001,0.06760000000000001,-0.0282,-0.1886,0.1912,-0.1044,-0.118,0.0714,0.1462,0.0166,-0.1178,0.1048,0.10760000000000002,0.0514,0.11140000000000001,-0.0944,0.1166,0.1882,0.18220000000000003,0.0588,0.18400000000000002,-0.038000000000000006],[0.0728,-0.11499999999999999,0.1522,-0.0058000000000000005,-0.18200000000000002,-0.019200000000000002,0.062,0.1424,0.13360000000000002,0.008,0.0082,-0.0656,0.1196,0.18180000000000002,0.017,-0.099,-0.0488,0.13340000000000002,0.1932,-0.051800000000000006,-0.10880000000000001,0.07800000000000001,-0.0194,-0.08900000000000001,-0.027200000000000002],[-0.189,0.0964,-0.18420000000000003,0.049,0.1004,0.1748,-0.15100000000000002,0.0872,0.07680000000000001,0.1516,-0.0252,0.1242,0.1824,-0.1258,0.10960000000000002,-0.1514,0.11299999999999999,-0.10940000000000001,0.126,-0.0948,0.0378,-0.1378,-0.1132,0.1402,-0.17920000000000003],[-0.1348,-0.19820000000000002,-0.05480000000000001,-0.041800000000000004,0.0026,-0.0712,-0.0588,-0.06520000000000001,0.1206,-0.1652,0.1544,-0.1232,-0.0182,-0.062200000000000005,0.054400000000000004,0.095,0.0954,0.09060000000000001,0.021,0.0762,0.10840000000000001,0.1048,-0.04580000000000001,-0.049,0.002],[0.1068,0.0514,-0.0026,-0.16620000000000001,-0.1442,0.145,0.0048000000000000004,0.06820000000000001,0.10420000000000001,0.1882,0.1718,-0.10320000000000001,0.1642,0.043800000000000006,0.1048,0.1262,-0.0946,-0.16160000000000002,-0.15900000000000003,0.009800000000000001,0.0748,-0.0718,0.1448,0.0476,0.19820000000000002],[-0.0656,-0.0566,-0.06620000000000001,-0.1134,-0.1882,0.014199999999999999,0.1806,0.13560000000000003,-0.1166,0.0016,0.0848,-0.10980000000000001,-0.032400000000000005,-0.0792,-0.08700000000000001,-0.0488,-0.17620000000000002,0.1328,-0.1736,-0.1024,-0.05560000000000001,0.013200000000000002,0.0738,0.1298,0.10400000000000001],[0.1438,0.072,-0.1184,-0.0776,-0.1694,-0.118,-0.12380000000000001,-0.0472,0.10540000000000001,-0.15480000000000002,-0.0588,0.0398,0.19740000000000002,0.0364,-0.046400000000000004,0.0824,0.1646,0.1564,0.1696,-0.0948,0.1442,0.09240000000000001,-0.09160000000000001,-0.129,-0.06480000000000001],[-0.196,0.19240000000000002,0.0734,0.0786,0.060200000000000004,0.18380000000000002,-0.142,0.0918,0.1542,-0.0874,0.0692,0.1516,-0.1878,0.0282,-0.0206,-0.0728,0.040600000000000004,-0.0036,-0.0158,-0.003,0.0842,-0.1164,-0.1024,0.15560000000000002,-0.016200000000000003],[0.0862,0.10120000000000001,0.1232,-0.14880000000000002,-0.06999999999999999,0.043800000000000006,0.13360000000000002,0.0572,0.1268,-0.188,-0.0604,-0.163,-0.1544,0.0946,0.0524,0.1748,-0.1176,-0.1158,0.17320000000000002,0.0236,0.0262,0.0298,-0.010000000000000002,0.1444,0.18500000000000003],[-0.19840000000000002,-0.0034000000000000002,-0.07640000000000001,0.027200000000000002,0.12380000000000001,-0.0108,-0.07880000000000001,0.13540000000000002,-0.07600000000000001,-0.09620000000000001,0.1494,-0.10800000000000001,-0.0796,-0.1748,-0.0908,0.1516,0.12840000000000001,0.1068,0.198,0.1134,-0.1684,0.0302,-0.032600000000000004,0.13260000000000002,0.1426],[-0.0606,0.1628,0.0756,-0.1978,0.18660000000000002,0.0724,0.1216,0.11359999999999999,-0.12040000000000001,0.033600000000000005,-0.033600000000000005,0.10820000000000002,-0.0888,0.0018,-0.013200000000000002,-0.1628,0.0182,-0.0952,-0.0422,-0.0988,0.18580000000000002,-0.08020000000000001,0.13,-0.0692,0.127],[0.09100000000000001,-0.1476,-0.0978,-0.1152,-0.05580000000000001,0.0898,0.0826,-0.1262,0.146,0.0684,-0.1514,0.0204,-0.033,0.1342,-0.07440000000000001,0.0826,-0.042,-0.043800000000000006,0.0776,-0.1504,0.11040000000000001,-0.1756,0.137,-0.041800000000000004,0.0634],[0.1468,-0.131,-0.1272,-0.0368,0.15100000000000002,0.036,0.1876,0.127,-0.15100000000000002,-0.0954,-0.10120000000000001,-0.0918,-0.0014000000000000002,-0.1676,-0.18380000000000002,0.009800000000000001,-0.0286,-0.0762,0.0664,0.0922,0.1386,0.17500000000000002,0.1262,-0.1434,-0.1384],[0.0342,0.1048,0.06680000000000001,0.061200000000000004,0.10620000000000002,0.0782,0.0872,0.06899999999999999,0.19,-0.15980000000000003,-0.1162,-0.10980000000000001,0.12340000000000001,-0.037,-0.1242,-0.1348,0.038400000000000004,0.0074,0.043000000000000003,0.16920000000000002,-0.1658,-0.096,-0.056999999999999995,0.1468,-0.039400000000000004],[-0.09000000000000001,-0.07500000000000001,-0.15800000000000003,-0.1282,-0.1892,-0.15400000000000003,-0.0174,-0.0976,-0.098,-0.0188,-0.1406,0.0008,-0.1208,0.13260000000000002,0.13240000000000002,0.12760000000000002,0.08100000000000002,0.15800000000000003,-0.1014,0.0414,0.1464,-0.0998,0.198,-0.0732,0.1886],[-0.0128,0.038000000000000006,0.0716,0.0068000000000000005,-0.163,-0.10320000000000001,-0.0494,-0.046200000000000005,-0.0176,0.11499999999999999,-0.046200000000000005,0.0574,-0.034,0.1864,-0.05260000000000001,0.0756,0.1058,-0.034,0.1078,0.1506,0.18280000000000002,-0.034999999999999996,-0.004200000000000001,-0.11499999999999999,-0.010000000000000002],[0.0466,-0.0344,-0.16180000000000003,0.032,-0.1476,-0.1794,0.0782,0.1694,-0.1656,0.13260000000000002,0.040400000000000005,0.0832,-0.1824,0.0874,0.049800000000000004,0.0868,-0.04000000000000001,-0.039400000000000004,0.10720000000000002,-0.132,-0.10460000000000001,-0.188,-0.018600000000000002,-0.1368,0.15200000000000002],[-0.1714,-0.1418,0.0834,-0.0484,0.0608,0.06480000000000001,-0.050800000000000005,0.0474,-0.14980000000000002,-0.083,0.1504,-0.10020000000000001,-0.0958,0.1632,0.1968,0.12960000000000002,-0.0416,0.15860000000000002,-0.1402,-0.06480000000000001,0.0708,0.0524,0.0048000000000000004,0.012,-0.0364],[0.0408,0.12860000000000002,-0.16040000000000001,0.16820000000000002,-0.17800000000000002,-0.012,0.056999999999999995,-0.1218,-0.11180000000000001,0.0874,0.0762,-0.05280000000000001,-0.08040000000000001,-0.0758,0.0762,-0.19440000000000002,-0.15700000000000003,0.14780000000000001,0.0364,-0.0446,0.1452,-0.048,0.07980000000000001,0.1886,-0.040400000000000005],[-0.0092,0.0522,-0.1552,0.15700000000000003,0.0512,0.17,-0.055200000000000006,-0.062400000000000004,0.1978,-0.0328,-0.18460000000000001,-0.12140000000000001,0.1492,0.17300000000000001,-0.12560000000000002,-0.0346,-0.1176,-0.1278,-0.1128,-0.1454,0.1048,-0.1714,0.124,-0.16820000000000002,-0.015600000000000001],[0.06480000000000001,-0.1648,-0.0144,-0.135,0.11359999999999999,0.0576,0.1402,0.0522,0.10360000000000001,-0.148,0.15880000000000002,-0.10540000000000001,-0.085,0.15700000000000003,0.1308,0.09720000000000001,-0.06580000000000001,-0.0838,0.1666,0.006600000000000001,0.056799999999999996,-0.0368,-0.085,-0.013200000000000002,0.0302],[0.13040000000000002,-0.0074,-0.18400000000000002,0.098,0.1572,0.0854,0.1402,-0.15080000000000002,-0.08080000000000001,-0.1222,0.043000000000000003,0.15860000000000002,0.0222,-0.016,0.1158,0.024,0.0958,-0.1724,-0.0094,-0.1776,-0.08560000000000001,0.024,-0.0606,0.18400000000000002,0.0028000000000000004],[0.13360000000000002,0.0364,-0.08360000000000001,0.142,0.10840000000000001,0.0316,-0.021400000000000002,0.1634,0.0976,-0.0302,0.0174,0.15700000000000003,0.165,0.1132,-0.144,-0.0858,-0.16160000000000002,-0.18400000000000002,-0.0208,-0.036,0.032400000000000005,-0.0598,0.1384,-0.07900000000000001,0.10900000000000001],[0.149,-0.16140000000000002,-0.0146,-0.019600000000000003,-0.0902,-0.10840000000000001,-0.1382,0.10400000000000001,0.15580000000000002,0.10500000000000001,0.013000000000000001,0.1492,-0.022000000000000002,0.0436,-0.028999999999999998,-0.1656,-0.19820000000000002,0.065,0.11120000000000002,0.10600000000000001,-0.17720000000000002,0.1938,0.05600000000000001,0.0772,0.10880000000000001],[0.0728,0.0874,0.0524,0.0838,0.034999999999999996,-0.1236,-0.1826,0.0064,0.0748,0.1392,0.18100000000000002,-0.041,-0.027800000000000005,-0.0842,0.08900000000000001,-0.0238,0.059,0.1202,0.0426,-0.18380000000000002,0.0414,-0.16720000000000002,-0.168,-0.024,0.0756]],[[-0.0122,0.126,-0.1044,-0.0246,-0.072,0.0588,-0.0974,-0.10160000000000001,-0.018600000000000002,0.0882,0.0834,0.1496,-0.050600000000000006,0.0756,-0.1322,-0.095,-0.1312,-0.0614,0.0606,-0.15480000000000002,-0.0712,0.0014000000000000002,-0.0426,0.1482,-0.18560000000000001],[0.126,0.1492,-0.0698,-0.0684,0.018600000000000002,-0.1904,-0.08560000000000001,-0.193,0.019200000000000002,-0.12480000000000001,0.0574,0.08700000000000001,0.1704,0.094,-0.1308,0.0016,-0.0024000000000000002,0.0474,-0.1882,-0.033400000000000006,0.0228,0.08760000000000001,0.18000000000000002,-0.15760000000000002,0.0762],[-0.10260000000000001,0.1516,0.06380000000000001,0.1878,0.10120000000000001,0.15860000000000002,0.09260000000000002,0.1674,-0.1686,-0.0706,0.0762,-0.0436,-0.0588,-0.0634,-0.051800000000000006,0.0358,-0.0884,0.19740000000000002,-0.0718,-0.1502,-0.1966,0.0148,0.0504,-0.1718,-0.1318],[0.013600000000000001,-0.1148,0.09620000000000001,0.09000000000000001,0.0208,0.051800000000000006,0.0974,-0.13440000000000002,-0.07840000000000001,0.07940000000000001,0.15800000000000003,0.1646,-0.17700000000000002,0.1406,-0.0848,-0.08080000000000001,0.038000000000000006,-0.1756,0.071,0.0974,-0.13240000000000002,-0.0378,-0.046400000000000004,-0.1766,0.0732],[0.0714,-0.05600000000000001,0.1592,-0.0852,0.198,-0.1436,-0.006,-0.17700000000000002,-0.0824,0.1152,-0.13,-0.1922,-0.054200000000000005,-0.085,0.1418,0.15180000000000002,-0.18220000000000003,0.15080000000000002,-0.0474,0.11499999999999999,0.11040000000000001,-0.0328,-0.1328,-0.12840000000000001,-0.013000000000000001],[0.0826,0.10060000000000001,0.0746,-0.1736,-0.16920000000000002,-0.1664,-0.1438,0.18460000000000001,0.1636,0.123,0.18020000000000003,0.0644,-0.0832,0.0948,-0.18700000000000003,-0.0854,-0.0966,0.03900000000000001,0.1696,-0.040400000000000005,0.062,-0.021,0.0076,-0.0408,0.0912],[0.10200000000000001,0.034,-0.08860000000000001,0.1184,0.1656,0.132,-0.19340000000000002,0.0964,0.006200000000000001,0.1656,0.11160000000000002,0.050600000000000006,0.07440000000000001,0.12760000000000002,0.1496,-0.025,-0.13660000000000003,0.027400000000000004,-0.0502,-0.062,-0.003,0.18400000000000002,-0.0938,-0.15660000000000002,0.041],[0.0208,0.060200000000000004,0.1726,0.0584,0.1878,-0.11060000000000002,0.0702,-0.10360000000000001,0.0976,-0.0322,0.1968,-0.1966,-0.1746,0.1928,0.1554,-0.1034,-0.1014,0.144,0.015600000000000001,0.083,-0.0236,0.16000000000000003,-0.134,-0.1502,-0.044800000000000006],[0.1174,-0.13260000000000002,0.08940000000000001,0.062400000000000004,-0.1648,-0.1574,-0.1158,0.0048000000000000004,0.15940000000000001,-0.1,0.1988,-0.08860000000000001,0.1058,0.141,-0.08120000000000001,0.168,0.15180000000000002,-0.10300000000000001,0.1592,-0.06520000000000001,-0.038000000000000006,0.1412,0.0636,-0.1642,-0.1396],[0.0018,0.1432,0.0074,0.1564,-0.16080000000000003,0.0342,0.1174,-0.0706,0.18120000000000003,0.05560000000000001,0.0304,0.10760000000000002,0.19640000000000002,-0.0604,-0.1678,-0.026400000000000003,-0.10220000000000001,0.07900000000000001,-0.15880000000000002,0.0472,0.08940000000000001,0.10660000000000001,-0.019000000000000003,-0.15940000000000001,-0.05580000000000001],[0.1708,0.06480000000000001,0.046200000000000005,0.0188,-0.036,0.0922,0.1272,0.0154,-0.18380000000000002,0.08600000000000001,-0.0408,0.0148,0.064,0.1236,0.0492,0.0828,-0.05620000000000001,0.1466,-0.1628,0.1756,-0.18420000000000003,-0.051800000000000006,-0.0902,0.0054,0.0088],[0.0656,-0.0684,0.0956,-0.0948,0.1014,-0.11020000000000002,-0.10880000000000001,-0.17600000000000002,0.121,-0.15600000000000003,0.17320000000000002,0.08020000000000001,0.1018,0.049,0.050600000000000006,-0.050800000000000005,0.027600000000000003,-0.04580000000000001,0.128,0.1462,0.0322,-0.073,0.10600000000000001,-0.06520000000000001,0.07440000000000001],[-0.08000000000000002,-0.1544,-0.044000000000000004,-0.10840000000000001,-0.18080000000000002,-0.08020000000000001,-0.1198,0.17300000000000001,0.0696,0.019000000000000003,-0.10060000000000001,0.022000000000000002,-0.16060000000000002,-0.1764,0.13660000000000003,0.0956,0.1778,0.0094,0.0932,-0.0634,-0.0022,-0.16620000000000001,-0.0308,0.0386,-0.08360000000000001],[-0.1962,-0.083,0.144,-0.11299999999999999,0.05480000000000001,0.0882,-0.12560000000000002,-0.1892,0.19340000000000002,-0.1394,-0.0978,0.16140000000000002,0.0152,-0.0742,-0.0292,0.1328,-0.1932,0.07540000000000001,-0.051800000000000006,0.1622,0.198,0.0708,-0.0446,0.1758,-0.0018],[0.17600000000000002,-0.1814,-0.0228,0.1776,-0.1904,0.1864,-0.03,-0.0574,0.135,-0.1428,0.18700000000000003,0.0436,-0.0842,-0.097,0.008400000000000001,-0.149,-0.10640000000000001,-0.022000000000000002,-0.023400000000000004,-0.060200000000000004,0.044800000000000006,-0.18380000000000002,0.1448,0.028399999999999998,0.19840000000000002],[-0.09140000000000001,0.03,-0.18700000000000003,0.0868,-0.047,0.1428,-0.07800000000000001,0.1398,0.1132,0.0684,0.027800000000000005,0.1922,0.043800000000000006,-0.032600000000000004,0.06420000000000001,-0.03900000000000001,0.1444,0.1426,-0.1274,-0.08800000000000001,-0.18620000000000003,-0.1424,0.1986,0.09340000000000001,-0.1444],[0.1216,-0.1686,0.049600000000000005,-0.0472,0.0182,0.0738,-0.0466,0.0946,-0.0756,0.17880000000000001,0.05600000000000001,-0.009,0.19440000000000002,0.0348,-0.17200000000000001,-0.0174,0.17980000000000002,-0.041800000000000004,-0.15780000000000002,-0.06760000000000001,0.1044,-0.0858,-0.06780000000000001,-0.08600000000000001,-0.1634],[0.1986,-0.0322,0.037200000000000004,0.0756,-0.083,-0.1622,0.1446,0.0738,-0.0994,0.09100000000000001,0.085,-0.0004,-0.0218,-0.06899999999999999,0.18120000000000003,0.0742,0.18680000000000002,-0.072,0.05480000000000001,0,0.0956,0.1472,-0.015600000000000001,-0.1998,-0.13799999999999998],[0.082,-0.019200000000000002,0.06760000000000001,-0.09000000000000001,0.0072,0.126,0.0634,-0.011000000000000001,-0.006200000000000001,0.1708,-0.051000000000000004,0.1438,-0.19140000000000001,0.0574,0.0666,0.1328,-0.125,0.006200000000000001,0.1988,0.1028,0.189,0.1196,-0.11299999999999999,-0.0152,-0.1506],[0.0524,-0.0656,-0.07800000000000001,0.0998,0.1664,-0.13899999999999998,0.0048000000000000004,0.012,0.09260000000000002,-0.0572,0.0976,0.1226,0.061200000000000004,0.1436,-0.1778,-0.18580000000000002,0.1458,-0.19640000000000002,0.049,0.08960000000000001,0.1008,0.18200000000000002,-0.050800000000000005,0.07640000000000001,0.1758],[-0.1874,-0.1612,0.1218,0.15400000000000003,-0.09200000000000001,-0.11220000000000002,-0.074,0.1704,0.0848,-0.0002,-0.0618,-0.1522,-0.06760000000000001,0.17120000000000002,0.167,0.0772,0.0396,0.1698,0.1714,0.0918,0.15480000000000002,0.05380000000000001,-0.08860000000000001,0.0646,0.10840000000000001],[-0.141,0.13899999999999998,0.1048,-0.1886,0.137,0.1132,-0.1466,-0.002,0.038400000000000004,-0.0786,-0.0952,-0.13640000000000002,0.1038,-0.0072,0.142,-0.1426,-0.1438,0.1162,-0.1458,0.1338,-0.0564,-0.17500000000000002,-0.060200000000000004,-0.1466,-0.18680000000000002],[-0.0374,0.1976,-0.1756,0.095,0.0762,-0.1882,-0.18460000000000001,0.0158,-0.033400000000000006,0.18380000000000002,-0.1942,-0.027200000000000002,0.0352,0.0006000000000000001,-0.027600000000000003,0.0882,0.0476,-0.0016,0.10560000000000001,0.1998,0.05260000000000001,-0.0298,0.1718,-0.0288,-0.16000000000000003],[0.048,-0.034,-0.0082,0.16060000000000002,-0.1962,0.0594,0.166,-0.16080000000000003,0.0714,0.006,0.041,0.0726,0.10620000000000002,-0.15960000000000002,-0.0734,0.033,0.10560000000000001,0.09360000000000002,0.043800000000000006,-0.15700000000000003,-0.021,-0.17620000000000002,0.18720000000000003,0.1824,-0.024800000000000003],[-0.012400000000000001,-0.03900000000000001,-0.1958,0.021400000000000002,-0.1414,0.0626,-0.013400000000000002,0.1584,-0.0824,0.1138,0.1796,-0.1834,0.17720000000000002,-0.09300000000000001,0.1464,-0.0024000000000000002,-0.1008,-0.17900000000000002,0.05460000000000001,-0.1142,-0.0758,0.05280000000000001,-0.1988,0.1328,-0.05380000000000001]],[[0.12,0.12940000000000002,0.08700000000000001,0.0188,0.026800000000000004,-0.12240000000000001,-0.10500000000000001,-0.192,0.17880000000000001,-0.1936,0.0242,0.1058,-0.1976,0.1288,0.0718,-0.12480000000000001,-0.19940000000000002,-0.0522,0.0984,0.1158,-0.0074,0.19640000000000002,-0.1774,-0.148,-0.1602],[-0.1312,-0.1768,0.0584,-0.0476,0.011000000000000001,-0.1638,0.1258,0.146,0.18600000000000003,-0.0826,0.1526,-0.193,0.1184,-0.1,-0.044800000000000006,-0.15900000000000003,0.1496,0.1378,0.1626,-0.1458,-0.1966,0.0184,0.0174,-0.13260000000000002,0.17820000000000003],[-0.1202,0.1986,-0.0262,-0.0746,0.1562,0.10720000000000002,-0.07500000000000001,-0.196,0.042,-0.0158,0.17880000000000001,-0.1962,0.144,-0.09060000000000001,-0.066,0.031400000000000004,-0.1382,-0.0824,-0.016,-0.0814,-0.0614,-0.0616,0.1636,-0.1562,0.1216],[-0.0108,-0.0708,0.142,0.10720000000000002,-0.1348,-0.10160000000000001,0.0614,-0.1786,0.07840000000000001,0.13440000000000002,-0.148,0.10900000000000001,0.1254,-0.1664,-0.09260000000000002,-0.1892,-0.1058,-0.0194,0.10860000000000002,0.09260000000000002,0.1278,-0.10740000000000001,-0.08860000000000001,-0.129,0.15100000000000002],[-0.16200000000000003,0.0902,0.0356,-0.0524,-0.16620000000000001,0.16920000000000002,0.15780000000000002,-0.051000000000000004,-0.1134,-0.0608,0.027600000000000003,-0.033800000000000004,0.14980000000000002,-0.0948,0.006,-0.028000000000000004,-0.127,0.0654,0.18560000000000001,0.16140000000000002,0.0816,0.0718,-0.1192,-0.145,-0.1516],[-0.065,0.1288,-0.10600000000000001,-0.0366,0.1188,0.1916,-0.020000000000000004,-0.11080000000000001,0.1784,-0.1942,0.15280000000000002,-0.0102,0.09360000000000002,-0.18280000000000002,0.06720000000000001,-0.143,-0.0292,0.11180000000000001,0.0708,0.0012000000000000001,-0.0826,0.1486,0.0732,0.1218,0.145],[-0.1166,0.0766,0.0144,0.10640000000000001,0.0238,-0.0852,0.08080000000000001,-0.1646,0.0704,0.0878,0.1034,0.1654,-0.1132,0.0472,0.0772,-0.0238,0.031200000000000002,-0.1172,0.022600000000000002,0.1976,0.060200000000000004,-0.0094,-0.0772,-0.188,-0.12040000000000001],[0.0722,0.0852,0.0052,-0.1186,0.12240000000000001,-0.0474,0.0918,-0.1966,-0.15360000000000001,0.18580000000000002,0.1018,-0.17920000000000003,0.17880000000000001,0.0364,-0.1274,-0.11599999999999999,0.10740000000000001,-0.0054,-0.193,0.0746,-0.16180000000000003,0.17400000000000002,0.0094,0.11299999999999999,-0.10260000000000001],[0.07880000000000001,0.1552,-0.13040000000000002,-0.014000000000000002,0.049600000000000005,-0.0752,-0.0074,-0.1678,-0.0848,0.04020000000000001,-0.09000000000000001,0.1796,0.1192,0.1684,-0.0032,0.063,-0.013800000000000002,0.0966,0.1496,-0.0966,0.1404,0.145,0.10060000000000001,-0.1766,0.062400000000000004],[0.13,-0.0504,-0.11100000000000002,-0.10760000000000002,0.0514,-0.10540000000000001,0.15800000000000003,0.0004,0.0772,-0.1888,-0.0716,0.0106,-0.0604,-0.17620000000000002,0.19140000000000001,0.0902,-0.1342,0.1746,-0.0942,-0.025400000000000002,-0.1128,-0.012400000000000001,-0.084,0.15780000000000002,0.0698],[0.07940000000000001,-0.1892,0.14980000000000002,-0.001,-0.006200000000000001,-0.1048,0.022600000000000002,-0.0922,-0.0018,-0.12860000000000002,0.15880000000000002,-0.18720000000000003,-0.0148,-0.0726,0.05560000000000001,-0.1476,-0.1844,0.1658,0.0902,-0.0974,-0.0396,-0.11220000000000002,0.15800000000000003,0.17320000000000002,0.0968],[-0.192,-0.169,-0.1696,-0.0398,-0.0004,0.1486,-0.13660000000000003,-0.009800000000000001,0.1332,0.0756,0.0712,-0.0356,0.0988,0.0292,0.1656,-0.049800000000000004,-0.1428,-0.1542,0.0482,0.05160000000000001,-0.08660000000000001,-0.0968,-0.05580000000000001,0.1584,-0.0006000000000000001],[-0.12440000000000001,0.1952,-0.10860000000000002,0.0826,0.1544,-0.0286,0.0072,0.1804,-0.18680000000000002,-0.1388,-0.034,-0.009800000000000001,-0.1156,0.15360000000000001,-0.0494,0.1312,0.1208,-0.08100000000000002,0.10640000000000001,0.11100000000000002,-0.12480000000000001,-0.0968,-0.054200000000000005,-0.1078,-0.1232],[0.07940000000000001,-0.133,0.0692,0.164,0.1778,-0.146,0.08100000000000002,0.0316,0.10260000000000001,-0.13540000000000002,0.1928,0.1376,0.125,0.073,0.1184,-0.1694,0.049600000000000005,0.1728,-0.0194,-0.0246,-0.048600000000000004,-0.19,0.07740000000000001,-0.074,-0.0908],[0.054200000000000005,0.07540000000000001,-0.08040000000000001,-0.0502,-0.13060000000000002,0.031200000000000002,0.051800000000000006,0.1162,-0.1406,0.060200000000000004,0.0534,0.1876,0.10620000000000002,0.0492,-0.0228,-0.054400000000000004,0.0716,0.1986,-0.0504,0.1068,-0.0758,0.016,-0.1262,0.0632,-0.1264],[-0.06620000000000001,0.0864,-0.05560000000000001,-0.14780000000000001,-0.06720000000000001,0.12440000000000001,-0.1142,0.10620000000000002,0.012400000000000001,-0.06899999999999999,-0.15560000000000002,-0.1626,0.13999999999999999,0.1184,0.1504,0.1918,-0.039400000000000004,0.0786,0.004200000000000001,-0.16920000000000002,-0.18600000000000003,0.16820000000000002,-0.132,-0.12760000000000002,0.0796],[-0.043800000000000006,0.17200000000000001,-0.0594,-0.0454,0.06620000000000001,0.0522,-0.012400000000000001,0.0942,-0.1134,-0.18520000000000003,-0.0694,0.0596,0.054400000000000004,0.1414,0.015600000000000001,0.066,0.0288,0.0776,0.12940000000000002,-0.13240000000000002,-0.0436,0.17980000000000002,0.1148,0.07780000000000001,0.13899999999999998],[-0.039200000000000006,-0.0502,0.0194,-0.048600000000000004,-0.014199999999999999,-0.0076,-0.194,-0.0054,0.0244,0.0436,-0.033400000000000006,0.10020000000000001,0.1794,0.0032,0.11080000000000001,0.1896,0.0564,-0.041,0.1834,-0.1778,-0.0436,0.021,-0.006600000000000001,-0.0178,0.0032],[0.13040000000000002,0.0386,0.1396,-0.1642,-0.137,0.071,-0.0814,0.1572,-0.047,0.0052,0.009600000000000001,0.15280000000000002,-0.0578,0.0046,0.07980000000000001,0.005600000000000001,-0.0304,0.0932,0.0332,0.13660000000000003,0.0756,-0.0356,0.1854,0.1648,-0.0606],[-0.05360000000000001,-0.1952,-0.145,0.10620000000000002,-0.1736,0.15780000000000002,-0.06760000000000001,0.1492,-0.1152,0.1896,-0.06780000000000001,0.11020000000000002,-0.13899999999999998,0.0708,-0.05380000000000001,0.08020000000000001,0.1232,-0.1028,0.0252,-0.1906,0.0534,0.15800000000000003,0.13260000000000002,0.1666,0.024],[-0.0298,0.195,-0.0738,0.17500000000000002,-0.13340000000000002,-0.0862,-0.0332,0.13040000000000002,0.13620000000000002,-0.08100000000000002,-0.0092,0.10760000000000002,-0.06720000000000001,-0.101,0.0782,-0.0184,-0.08080000000000001,-0.0596,-0.0616,0.033,-0.0046,0.09280000000000001,-0.0716,-0.1694,0.09260000000000002],[0.09060000000000001,0.1778,-0.0494,0.1164,0.038200000000000005,-0.193,0.07700000000000001,0.0728,0.0144,-0.11359999999999999,0.025400000000000002,-0.17880000000000001,-0.0454,-0.08660000000000001,0.034999999999999996,0.1152,0.0052,-0.09340000000000001,0.016,-0.0144,0.0814,0.1642,-0.15380000000000002,-0.05600000000000001,-0.18300000000000002],[-0.18600000000000003,-0.0762,0.07900000000000001,-0.0158,0.022400000000000003,0.18220000000000003,-0.028399999999999998,-0.167,0.15960000000000002,-0.0286,-0.19540000000000002,-0.0504,0.15860000000000002,0.1704,-0.10520000000000002,0.0688,-0.0426,-0.1142,0.06620000000000001,0.0484,0.12760000000000002,-0.1694,0.149,-0.0308,-0.0104],[-0.0734,-0.03,0.0188,0.085,-0.053200000000000004,-0.07780000000000001,0.1854,-0.13260000000000002,-0.1164,-0.11200000000000002,0.10400000000000001,-0.0596,-0.1004,-0.19540000000000002,-0.1332,-0.1746,0.1708,0.0504,0.0152,-0.0228,-0.1926,-0.1468,0.15780000000000002,-0.0912,-0.13620000000000002],[-0.0292,-0.1216,-0.12940000000000002,-0.0566,-0.1642,0.11699999999999999,0.0604,-0.11499999999999999,0.17020000000000002,-0.0424,-0.09280000000000001,-0.0256,0.0832,-0.1826,-0.0752,0.1876,0.0236,-0.19940000000000002,0.0376,-0.1456,0.1038,0.10260000000000001,0.0176,0.1138,0.071]],[[0.10220000000000001,0.0466,0.09300000000000001,-0.023000000000000003,0.10920000000000002,-0.038200000000000005,-0.0122,-0.1148,0.1014,-0.1212,0.05280000000000001,-0.0342,-0.0016,0.0948,-0.13560000000000003,-0.07800000000000001,-0.1218,-0.1834,0.1392,-0.16920000000000002,-0.1134,-0.1534,0.0364,0.1166,0.17520000000000002],[0.0694,0.0454,0.013000000000000001,-0.10060000000000001,-0.1904,-0.1434,-0.0566,-0.0604,-0.0504,-0.08760000000000001,-0.1552,-0.1684,-0.1988,0.0988,0.071,-0.0032,0.1718,-0.13360000000000002,0.0964,-0.17820000000000003,0.192,0.1342,0.0086,0.094,0.0294],[-0.020200000000000003,-0.0758,0.028000000000000004,-0.1282,0.0674,-0.06,0.0342,0.005000000000000001,-0.048600000000000004,-0.05280000000000001,0.0206,-0.0078000000000000005,0.1232,0.0868,0.049,0.052000000000000005,0.1714,0.08020000000000001,-0.18480000000000002,-0.1756,0.1394,0.13540000000000002,0.18660000000000002,0.1634,0.0388],[0.15480000000000002,0.034999999999999996,-0.18620000000000003,0.0006000000000000001,-0.1168,-0.13240000000000002,-0.1592,0.10840000000000001,-0.002,0.1668,0.1412,-0.1898,-0.09040000000000001,-0.0206,0.027400000000000004,0.062400000000000004,0.1454,-0.125,-0.0478,0.0782,-0.129,-0.17620000000000002,0.011600000000000001,0.056799999999999996,0.13260000000000002],[0.021400000000000002,0.11299999999999999,0.016800000000000002,-0.0396,0.0302,0.09100000000000001,-0.12,-0.15400000000000003,-0.0298,-0.1164,0.040400000000000005,-0.12940000000000002,0.062400000000000004,-0.033800000000000004,-0.0854,-0.1452,0.18200000000000002,-0.026800000000000004,0.11359999999999999,-0.1664,-0.10880000000000001,0.1958,-0.1738,-0.10880000000000001,0.1398],[-0.192,-0.09060000000000001,0.1734,0.053200000000000004,-0.15600000000000003,-0.0434,-0.068,-0.06820000000000001,-0.125,0.0488,-0.10760000000000002,0.0644,0.1734,0.0728,-0.13340000000000002,-0.0806,0.1612,0.11180000000000001,-0.13260000000000002,-0.027800000000000005,-0.10560000000000001,-0.12340000000000001,0.12940000000000002,0.0074,-0.0322],[-0.08100000000000002,0.0666,-0.1288,-0.15400000000000003,0.1806,-0.0732,-0.0288,0.063,0.0288,-0.026600000000000002,0.1888,-0.1382,-0.09820000000000001,-0.11259999999999999,0.032600000000000004,0.0772,-0.0814,0.1446,-0.11140000000000001,0.062400000000000004,-0.17320000000000002,0.0938,0.062400000000000004,-0.07540000000000001,-0.098],[0.18200000000000002,0.1876,0.0594,-0.1338,0.1676,-0.063,0.1996,-0.10320000000000001,0.13560000000000003,0.10880000000000001,0.005000000000000001,-0.0738,-0.0086,-0.1998,-0.1436,0.0716,0.062200000000000005,0.0244,0.0834,0.027800000000000005,-0.07800000000000001,-0.055200000000000006,0.0352,-0.1424,-0.0208],[-0.06620000000000001,-0.18220000000000003,-0.1658,0.013600000000000001,-0.0664,-0.08000000000000002,0.0436,-0.0004,-0.0524,0.1428,-0.17400000000000002,0.15380000000000002,0.1392,-0.1636,-0.0616,-0.0222,-0.09920000000000001,0.0216,0.1444,0.0504,-0.1652,-0.1998,-0.11040000000000001,0.196,0.0388],[0.17620000000000002,-0.0606,-0.056999999999999995,0.13240000000000002,-0.0024000000000000002,0.1242,-0.0584,-0.0708,-0.013800000000000002,0.16180000000000003,0.1184,0.1192,0.18680000000000002,-0.1878,0.0814,0.10500000000000001,-0.0364,0.16160000000000002,-0.1678,-0.022400000000000003,-0.1882,0.171,0.16040000000000001,0.09200000000000001,-0.1168],[-0.1902,-0.11399999999999999,0.0374,-0.0246,-0.0494,0.17820000000000003,0.0396,-0.1736,-0.0816,0.0004,0.033,-0.0352,0.1888,-0.016800000000000002,0.0954,0.03,-0.13240000000000002,0.1602,0.1262,0.0826,-0.09000000000000001,0.066,0.1544,-0.0246,-0.1816],[-0.023200000000000002,0.1412,-0.059,0.0364,-0.1456,-0.0514,-0.045000000000000005,-0.06580000000000001,0.16200000000000003,-0.07780000000000001,-0.1686,-0.12380000000000001,0.06,-0.0296,0.099,0.0442,0.1496,-0.17300000000000001,-0.060200000000000004,-0.1146,-0.1622,0.145,0.1178,-0.08700000000000001,0.051800000000000006],[0.13240000000000002,0.1282,-0.08040000000000001,-0.1404,-0.17200000000000001,0.05,-0.1524,-0.044800000000000006,0.129,0.0474,0.17900000000000002,-0.15080000000000002,0.0824,-0.0698,-0.028399999999999998,-0.0752,0.07940000000000001,0.11499999999999999,-0.1908,-0.1826,0.0058000000000000005,0.0074,0.19840000000000002,0.127,0.0824],[0.028000000000000004,-0.17200000000000001,-0.07640000000000001,-0.0244,-0.0018,-0.0052,-0.1674,-0.09920000000000001,0.08100000000000002,-0.061,-0.1904,-0.048600000000000004,0.0848,-0.1884,0.1262,-0.18280000000000002,0.09160000000000001,0.1152,-0.028999999999999998,-0.06680000000000001,0.0174,0.12040000000000001,0.0714,0.1078,0.1864],[0.17720000000000002,0.1908,0.048600000000000004,-0.1338,-0.0052,0.18620000000000003,0.1196,-0.06580000000000001,0.163,-0.0946,-0.1626,0.0356,-0.1494,0.0758,0.1678,0.048,-0.15700000000000003,0.14880000000000002,-0.121,0.046000000000000006,0.1376,0.025800000000000003,0.09620000000000001,-0.196,0.11240000000000001],[-0.18480000000000002,-0.062400000000000004,0.0976,-0.129,-0.0854,0.13460000000000003,0.19440000000000002,0.16240000000000002,-0.10360000000000001,-0.10160000000000001,0.1668,0.1894,0.1948,-0.09200000000000001,-0.10120000000000001,-0.05500000000000001,-0.1492,-0.006200000000000001,0.189,0.13740000000000002,0.167,0.1584,0.036,-0.0036,-0.17020000000000002],[0.11240000000000001,0.048600000000000004,0.021400000000000002,-0.0814,0.0742,-0.036,0.0022,0.123,0.13660000000000003,-0.08560000000000001,-0.013600000000000001,-0.15000000000000002,0.189,0.0126,0.0832,-0.1986,0.1216,-0.13999999999999999,0.1884,-0.1834,0.1144,0.0758,0.10900000000000001,-0.07640000000000001,0.15460000000000002],[0.1474,0.0222,-0.0208,-0.0078000000000000005,0.1378,0.1458,0.050800000000000005,-0.1232,-0.10860000000000002,0.1948,0.07700000000000001,0.1918,0.0432,-0.1642,-0.0304,-0.08560000000000001,0.1648,0.1882,-0.1386,-0.008400000000000001,0.1068,0.1612,-0.099,0.192,-0.0704],[0.004,0.13799999999999998,0.1562,0.164,-0.0028000000000000004,0.0012000000000000001,0.1138,0.1058,-0.0252,0.1554,0.1912,-0.1628,-0.016,-0.034999999999999996,0.1774,0.1182,0.10260000000000001,0.10500000000000001,0.17900000000000002,-0.0298,0.032600000000000004,-0.0892,-0.052000000000000005,-0.0348,0.049800000000000004],[0.0714,0.1706,0.1698,0.048600000000000004,-0.032400000000000005,-0.0242,-0.0792,0.10880000000000001,0.0106,-0.143,-0.0044,-0.0572,-0.18220000000000003,0.1748,-0.11060000000000002,-0.166,-0.1178,-0.1642,0.0994,-0.0684,0.0426,-0.12840000000000001,0.1922,-0.005000000000000001,0.048],[0.022400000000000003,-0.1922,-0.19940000000000002,0.1966,0.016,0.1968,-0.001,0.0344,-0.0584,0.0942,0.12340000000000001,0.15400000000000003,0.1202,0.0984,0.0386,0.0092,-0.18560000000000001,0.15400000000000003,0.0262,0.1526,0.08000000000000002,-0.08600000000000001,0.1574,-0.05380000000000001,-0.05460000000000001],[0.073,0.143,-0.0514,-0.030600000000000002,-0.1392,0.18400000000000002,-0.05500000000000001,-0.168,0.0228,0.1494,0.042,0.031200000000000002,-0.023400000000000004,-0.0054,0.0732,0.0038,0.13160000000000002,0.1432,-0.1916,-0.05600000000000001,-0.039400000000000004,0.0964,0.15980000000000003,0.169,0.1384],[0.0862,0.10900000000000001,0.1532,-0.12840000000000001,-0.1664,-0.1408,-0.0708,0.1786,0.1444,-0.1482,-0.07780000000000001,0.1176,0.048,0.11160000000000002,-0.0356,-0.10740000000000001,-0.0852,-0.05360000000000001,-0.13260000000000002,0.0734,-0.1128,0.15980000000000003,-0.0244,-0.163,0.0708],[-0.1676,-0.1274,0.0636,-0.044000000000000004,0.15460000000000002,-0.0684,-0.0208,0.0966,-0.1644,0.046400000000000004,-0.17500000000000002,-0.0308,-0.056999999999999995,0.0608,-0.18420000000000003,-0.032400000000000005,-0.19340000000000002,0.17720000000000002,-0.1998,0.18400000000000002,-0.08000000000000002,-0.1874,0.05380000000000001,-0.051800000000000006,0.0874],[-0.0806,0.025400000000000002,-0.1274,-0.1968,0.0922,-0.165,0.017,0.1436,-0.16920000000000002,0.1574,-0.061,-0.0368,0.1242,0.1756,-0.056999999999999995,-0.0414,0.001,-0.0444,0.1554,0.1466,0.005600000000000001,0.0974,0.13799999999999998,-0.196,0.0128]],[[-0.09860000000000001,-0.14780000000000001,0.19440000000000002,-0.0092,-0.0912,0.1156,-0.17120000000000002,-0.19340000000000002,0.0632,-0.0308,-0.07840000000000001,0.072,0.1714,-0.041800000000000004,-0.1998,-0.073,0.1268,0.09240000000000001,0.0762,-0.003,0.1184,-0.10460000000000001,0.17720000000000002,0.063,-0.05460000000000001],[-0.06480000000000001,-0.1188,0.11160000000000002,0.16240000000000002,0.06720000000000001,0.1198,0.101,0.10460000000000001,0.1688,-0.1774,0.189,-0.134,0.0814,0.0028000000000000004,-0.014199999999999999,-0.09300000000000001,-0.1656,-0.18320000000000003,0.16140000000000002,-0.1018,-0.0588,0.0442,-0.13260000000000002,0.1942,0.0026],[0.09360000000000002,-0.17800000000000002,-0.11220000000000002,-0.12140000000000001,0.1078,0.1424,-0.195,-0.1766,-0.16720000000000002,0.1332,-0.1486,0.0026,0.1704,0.0222,-0.1144,-0.11499999999999999,-0.16200000000000003,0.1708,0.07540000000000001,-0.1908,0.11499999999999999,0.1018,0.17620000000000002,0.005600000000000001,0.10660000000000001],[0.0598,0.1382,0.05460000000000001,-0.1464,0.1232,0.1038,-0.0238,0.1494,-0.0172,-0.049800000000000004,-0.0316,-0.11120000000000002,-0.1008,-0.1148,-0.082,-0.1708,0.06860000000000001,-0.0818,0.1492,0.1226,-0.0424,-0.1966,-0.13540000000000002,-0.10640000000000001,0.1602],[0.0698,0.045000000000000005,-0.19820000000000002,0.0588,0.0476,-0.1728,0.0776,-0.0166,0.0714,0.05160000000000001,-0.10920000000000002,-0.1258,0.0646,0.0772,0.09280000000000001,-0.06420000000000001,-0.10860000000000002,-0.1834,0.0298,-0.1216,0.1666,-0.0998,-0.066,0.08940000000000001,-0.11499999999999999],[-0.025800000000000003,0.1426,-0.0572,0.1716,0.0388,-0.18620000000000003,0.10640000000000001,0.1626,0.1928,0.015600000000000001,-0.0776,0.0596,0.1542,-0.1638,0.188,-0.05,-0.004200000000000001,-0.1646,0.1192,0.12340000000000001,-0.134,-0.11259999999999999,0.07600000000000001,0.11599999999999999,0.031200000000000002],[0.0036,-0.008400000000000001,-0.025800000000000003,0.17700000000000002,0.0878,-0.0344,0.06,-0.0358,0.1212,-0.1474,-0.16240000000000002,-0.001,0.1756,-0.0422,-0.08940000000000001,0.1766,-0.1562,0.11200000000000002,0.1222,-0.1966,-0.012,-0.1776,-0.09360000000000002,-0.18300000000000002,0.1824],[0.05580000000000001,-0.1274,0.0958,-0.06780000000000001,0.1388,0.168,-0.17700000000000002,-0.027800000000000005,-0.024800000000000003,0.1458,0.0726,0.024,0.1534,-0.1814,-0.025,-0.16920000000000002,0,-0.1138,0.0956,-0.18720000000000003,0.038400000000000004,0.0316,0.17500000000000002,0.041,-0.1322],[0.061200000000000004,-0.0032,-0.043000000000000003,-0.006,0.027200000000000002,-0.1854,-0.15100000000000002,-0.1282,-0.17920000000000003,-0.0608,-0.1192,-0.09040000000000001,-0.1512,0.0918,-0.0362,-0.1162,-0.1894,-0.0818,-0.0252,0.043800000000000006,0.1174,0.0092,-0.0252,-0.19840000000000002,-0.0878],[-0.0046,-0.1202,-0.1402,0.05380000000000001,-0.14880000000000002,0.1516,-0.0108,0.195,-0.066,-0.1442,0.0748,0.17800000000000002,-0.0632,-0.163,-0.0238,0.15100000000000002,-0.071,0.17020000000000002,0.07600000000000001,-0.033,-0.1824,0.016200000000000003,-0.0522,-0.1184,-0.040600000000000004],[-0.011600000000000001,-0.15980000000000003,-0.1654,0.09160000000000001,-0.0366,-0.17880000000000001,-0.2,-0.11000000000000001,0.09280000000000001,-0.0566,0.1262,-0.0692,0.1014,-0.019200000000000002,-0.015600000000000001,-0.1246,-0.0832,-0.0262,0.041800000000000004,-0.074,0.0584,-0.1386,0.168,0.07500000000000001,-0.045200000000000004],[0.0732,-0.13540000000000002,-0.1158,0.1482,0.0316,-0.11100000000000002,0.004,-0.0282,-0.0874,0.0692,-0.1726,0.1218,-0.197,-0.1416,-0.1816,-0.0564,-0.09360000000000002,-0.011600000000000001,0.10660000000000001,-0.0634,-0.0634,-0.10020000000000001,-0.027000000000000003,-0.1178,0.1218],[-0.0864,0.196,0.1018,-0.1322,0.16080000000000003,0.1716,0.0072,-0.1452,-0.1192,-0.097,0.10860000000000002,0.12760000000000002,-0.146,-0.1426,0.0436,0.13040000000000002,0.016800000000000002,-0.0474,-0.0146,0.1664,0.046000000000000006,0.1728,-0.1218,-0.0288,0.0966],[-0.0922,-0.148,0.0488,-0.16140000000000002,0.050800000000000005,0.1632,0.15680000000000002,-0.002,-0.0164,-0.13460000000000003,-0.18380000000000002,0.0344,0.06480000000000001,-0.0204,-0.12240000000000001,0.08760000000000001,-0.0106,-0.10300000000000001,-0.0432,-0.06580000000000001,0.13460000000000003,-0.033800000000000004,-0.056999999999999995,0.0396,-0.125],[0.197,0.030600000000000002,-0.12840000000000001,0.1446,0.1398,-0.1048,-0.1206,-0.0108,-0.06420000000000001,-0.13060000000000002,-0.1298,-0.12560000000000002,0.11299999999999999,0.1668,-0.1044,0.0236,-0.0736,-0.0454,-0.0358,0.18300000000000002,0.1622,0.0912,0.17880000000000001,0.008,-0.013600000000000001],[-0.0416,0.11080000000000001,-0.0308,0.009,0.1684,0.0872,0.1332,0.1778,-0.1472,0.1274,-0.050800000000000005,0.037200000000000004,-0.050800000000000005,0.1426,0.18580000000000002,0.1308,0.06480000000000001,-0.165,0.0762,-0.0358,0.10620000000000002,0.010000000000000002,0.1512,-0.0574,-0.0058000000000000005],[0.1342,0.18660000000000002,-0.0746,0.046000000000000006,-0.1142,0.0654,-0.0714,-0.17620000000000002,0.16000000000000003,-0.0044,-0.015600000000000001,-0.1474,-0.1252,0.0208,-0.1462,-0.1926,0.1202,-0.06420000000000001,-0.0014000000000000002,-0.026800000000000004,-0.0022,-0.15940000000000001,-0.0716,0.08900000000000001,-0.0434],[-0.1836,-0.1206,0.1946,-0.1462,-0.134,-0.16180000000000003,0.1504,-0.07640000000000001,0.194,0.038000000000000006,0.1438,0.0412,0.0282,0.1228,0.12660000000000002,-0.19340000000000002,0.027000000000000003,0.07940000000000001,-0.0594,-0.1726,-0.13440000000000002,0.1756,0.0956,-0.09000000000000001,-0.05500000000000001],[-0.0286,-0.027200000000000002,-0.0054,0.16140000000000002,0.11180000000000001,0.17300000000000001,-0.0892,0.009800000000000001,0.10740000000000001,-0.1756,0.0118,0.0692,0.015,-0.08360000000000001,0.1034,-0.083,-0.07500000000000001,-0.18220000000000003,-0.0868,-0.15600000000000003,-0.17900000000000002,-0.1936,-0.1412,-0.062,0.1988],[0.1292,-0.0976,-0.028399999999999998,-0.1592,-0.05620000000000001,-0.042,0.1014,-0.10460000000000001,-0.198,-0.0184,0.0078000000000000005,-0.048600000000000004,0.0978,0.1162,-0.1622,0.1806,0.1412,0.10160000000000001,-0.13720000000000002,-0.171,-0.1194,-0.04020000000000001,0.0434,-0.018600000000000002,0.015],[-0.1384,0.1794,0.1592,-0.07440000000000001,0.1402,-0.040400000000000005,-0.11140000000000001,-0.197,0.0696,0.15460000000000002,-0.1948,0.1956,-0.0922,-0.1666,0.1844,-0.1376,-0.028000000000000004,0.19,0.16240000000000002,0.0296,0.027400000000000004,0.007000000000000001,0.12140000000000001,-0.188,-0.0722],[0.025,0.1664,-0.191,0.1532,0.1976,-0.09060000000000001,0.0076,-0.1696,-0.0664,0.1786,0.1582,0.028000000000000004,-0.1766,-0.026000000000000002,-0.07600000000000001,0.1756,-0.1754,0.1166,-0.0082,0.0614,0.0374,0.194,-0.0002,0.0308,0.18500000000000003],[0.1756,-0.0146,-0.08700000000000001,-0.10760000000000002,-0.13620000000000002,0.0796,0.0814,0.05380000000000001,-0.1312,0.1008,-0.17900000000000002,0.0128,-0.03900000000000001,-0.012,-0.08900000000000001,0.0376,-0.03900000000000001,-0.0388,-0.1884,-0.1168,0.063,-0.10740000000000001,0.0998,-0.1228,-0.17500000000000002],[0.0104,0.043000000000000003,0.1554,0.0244,-0.1754,-0.1464,0.11100000000000002,-0.05560000000000001,0.1236,0.1164,0.1436,0.026000000000000002,-0.1172,0.0076,0.12760000000000002,0.12960000000000002,-0.17200000000000001,-0.011600000000000001,0.18600000000000003,-0.1154,-0.0918,-0.15400000000000003,-0.1502,0.084,-0.05620000000000001],[-0.11240000000000001,0.1902,-0.09920000000000001,0.059,0.1318,-0.026800000000000004,0.0644,-0.0106,0.1474,0.0482,-0.031400000000000004,0.06280000000000001,-0.0332,-0.032600000000000004,-0.15080000000000002,-0.085,-0.0524,-0.071,0.1322,-0.0228,-0.0158,0.1592,0.0054,0.0164,0.027400000000000004]],[[0.095,-0.1912,-0.1142,-0.1436,0.0858,0.198,0.09240000000000001,0.0356,-0.1656,0.11399999999999999,0.10120000000000001,0.015,-0.15480000000000002,-0.10540000000000001,0.024800000000000003,-0.06380000000000001,0.18680000000000002,0.1574,-0.1014,0.0304,0.013600000000000001,-0.13240000000000002,-0.0188,0.16620000000000001,-0.1522],[0.1544,-0.1646,-0.030600000000000002,-0.0106,0.1288,0.13520000000000001,0.1004,0.084,-0.0484,-0.09240000000000001,-0.1396,0.1522,0.011200000000000002,-0.19840000000000002,0.0656,0.056999999999999995,0.08020000000000001,-0.0082,0.132,-0.1746,0.194,0.11499999999999999,-0.10740000000000001,0.0818,-0.0322],[-0.12940000000000002,0.04680000000000001,-0.1492,0.1482,0.07680000000000001,-0.09820000000000001,-0.1958,0.012400000000000001,0.19240000000000002,0.12,0.0966,-0.0592,0.127,0.09140000000000001,-0.0832,0.0854,0.10740000000000001,0.023200000000000002,0.0102,-0.11259999999999999,-0.0172,0.049800000000000004,0.0114,-0.065,0.055200000000000006],[-0.1212,-0.17500000000000002,0.08460000000000001,-0.0158,-0.18080000000000002,0.1876,-0.1918,-0.0356,0.1656,0.039200000000000006,-0.07900000000000001,0.0206,-0.0024000000000000002,-0.15360000000000001,0.1648,0.09100000000000001,0.129,0.002,-0.1942,-0.006600000000000001,0.1704,0.1312,-0.014000000000000002,-0.1554,-0.0728],[0.1876,-0.18220000000000003,-0.032,-0.1156,0.1628,-0.1258,0.11200000000000002,0.1636,0.0852,-0.0902,0.19640000000000002,-0.1628,0.15600000000000003,0.16920000000000002,-0.1628,-0.059,-0.1,0.17420000000000002,-0.19820000000000002,-0.0076,-0.0422,-0.1684,-0.08940000000000001,-0.031,0.1746],[0.1736,0.099,0.06999999999999999,0.1268,-0.0256,-0.195,-0.040400000000000005,-0.0958,-0.12760000000000002,-0.028399999999999998,-0.119,-0.07900000000000001,-0.0694,0.033,0.0696,-0.0492,0.10660000000000001,-0.0228,-0.1218,-0.18380000000000002,-0.0606,0.134,0.16240000000000002,-0.1584,0.0696],[-0.166,-0.004200000000000001,-0.026000000000000002,0.18200000000000002,-0.0218,0.0074,0.012400000000000001,0.1748,0.028399999999999998,-0.15680000000000002,0.1388,-0.0102,-0.05360000000000001,0.0596,0.1754,0.040400000000000005,-0.1878,-0.10980000000000001,0.18300000000000002,-0.0588,0.1638,-0.0566,0.012400000000000001,-0.1342,0.09060000000000001],[0.046200000000000005,0.097,-0.0472,0.0908,-0.07740000000000001,-0.0882,0.1268,-0.019600000000000003,-0.15200000000000002,-0.016,-0.17700000000000002,0.1262,-0.12340000000000001,-0.0762,-0.041,-0.002,0.0636,-0.027000000000000003,0.07740000000000001,-0.1058,-0.0122,-0.004200000000000001,0.0832,0.062200000000000005,-0.0932],[0.1274,-0.12380000000000001,0.0818,0.054400000000000004,0.0422,-0.1386,-0.129,0.10420000000000001,0.0688,-0.0456,0.048600000000000004,-0.0938,0.1988,0.1728,-0.10060000000000001,-0.1144,-0.15800000000000003,0.1178,0.10500000000000001,-0.142,-0.0444,0.015600000000000001,-0.0152,0.1756,0.0614],[-0.05460000000000001,0.0474,-0.131,0.1134,-0.0994,-0.0684,-0.024,0.19740000000000002,-0.1784,-0.16920000000000002,0.10820000000000002,0.1154,-0.1386,-0.1564,0.1622,0.10740000000000001,0.095,0.13520000000000001,-0.126,-0.0824,0.0704,-0.07900000000000001,-0.030600000000000002,0.0184,0.168],[-0.146,0.13520000000000001,-0.0244,0.0118,-0.0008,0.025400000000000002,-0.0126,0.1176,0.10600000000000001,-0.0218,0.06480000000000001,-0.189,0.0294,0.1162,-0.10940000000000001,0.09860000000000001,0.0594,-0.17400000000000002,0.05480000000000001,0.10860000000000002,-0.1024,-0.1674,0.040400000000000005,-0.08020000000000001,0.18380000000000002],[-0.122,0.0816,0.0302,-0.09620000000000001,-0.16160000000000002,0.1874,-0.17920000000000003,0.1418,0.13040000000000002,-0.1182,-0.13160000000000002,-0.0092,0.1746,0.1936,-0.1144,0.1152,-0.1458,-0.1048,0.10540000000000001,0.0718,-0.1966,0.05380000000000001,0.05280000000000001,-0.0862,0.1382],[0.163,-0.1938,-0.145,-0.10840000000000001,-0.1696,0.04680000000000001,0.1152,-0.11240000000000001,0.1844,-0.0524,-0.1622,0.1444,-0.1424,-0.062400000000000004,0.13520000000000001,-0.1378,-0.09920000000000001,-0.1642,0.041800000000000004,-0.1938,0.09280000000000001,-0.17980000000000002,-0.06860000000000001,0.1386,-0.1726],[-0.0716,-0.17520000000000002,-0.0106,0.041800000000000004,0.0396,-0.0882,0.0006000000000000001,0.023400000000000004,-0.0182,-0.0166,-0.1278,0.0674,0.098,0.038000000000000006,0.0748,0.08080000000000001,0.2,-0.0072,-0.07600000000000001,0.14880000000000002,-0.1814,-0.1,-0.0302,-0.013600000000000001,-0.10640000000000001],[0.1414,0.14780000000000001,0.137,-0.0872,0.142,-0.0946,0.0594,-0.1704,-0.0478,-0.1696,0.0008,-0.1446,-0.17120000000000002,-0.1708,0.023200000000000002,0.0494,-0.11499999999999999,0.0502,-0.0108,0.025400000000000002,-0.0956,0.0762,0.022400000000000003,0.055200000000000006,-0.0092],[-0.1738,0.17200000000000001,0.1906,0.0102,0.04020000000000001,-0.17880000000000001,0.1698,-0.133,-0.1188,0.19240000000000002,-0.006,0.06999999999999999,-0.1844,0.056799999999999996,-0.06820000000000001,-0.12380000000000001,-0.024800000000000003,0.048600000000000004,0.1278,0.0376,0.013200000000000002,0.023200000000000002,-0.1264,0.10540000000000001,0.1188],[-0.1522,0.13660000000000003,-0.11200000000000002,-0.09360000000000002,-0.1952,0.041,0.0974,0.0868,0.0386,-0.0044,-0.013600000000000001,0.09300000000000001,0.06,-0.053000000000000005,0.1574,-0.0734,-0.0474,-0.11160000000000002,-0.18300000000000002,0.0456,0.1282,-0.0072,0.0948,0,0.005600000000000001],[-0.1826,0.11220000000000002,-0.101,0.1658,-0.013000000000000001,0.16080000000000003,0.1684,-0.007000000000000001,0.06720000000000001,-0.12,0.195,0.1192,-0.0366,0.0722,0.1332,0.1926,-0.13640000000000002,-0.1212,0.08700000000000001,0.15460000000000002,-0.17900000000000002,0.17880000000000001,0.1998,-0.13060000000000002,-0.0578],[-0.0918,-0.09240000000000001,-0.12,-0.0022,-0.0422,0.0432,0.006600000000000001,0.1406,-0.15600000000000003,0.11000000000000001,-0.07880000000000001,-0.0434,-0.0948,0.083,-0.07600000000000001,0.168,-0.10500000000000001,-0.0946,0.06899999999999999,-0.12940000000000002,-0.18560000000000001,-0.18460000000000001,-0.192,-0.12660000000000002,-0.0606],[0.1938,-0.1068,0.0054,-0.040600000000000004,0.0476,0.12840000000000001,0.07880000000000001,-0.10500000000000001,0.1804,0.0076,0.054200000000000005,-0.1162,-0.064,-0.09060000000000001,-0.07780000000000001,-0.085,-0.1516,0.026400000000000003,0.17900000000000002,0.054200000000000005,-0.15080000000000002,-0.15680000000000002,-0.023000000000000003,0.08600000000000001,-0.06420000000000001],[-0.0028000000000000004,-0.08960000000000001,0.18460000000000001,-0.064,0.10620000000000002,-0.06899999999999999,-0.0346,0.11259999999999999,-0.0328,0.1602,0.13660000000000003,0.003,0.1806,-0.011600000000000001,-0.0378,0.0698,0.1706,-0.0872,0.049600000000000005,0.18700000000000003,-0.141,-0.1902,0.09000000000000001,-0.0188,0.1402],[-0.0146,0.10160000000000001,-0.0046,0.055400000000000005,-0.1164,-0.18700000000000003,0.1212,0.15300000000000002,0.020200000000000003,-0.0008,0.0344,-0.14980000000000002,-0.027200000000000002,-0.1146,0.0978,-0.19340000000000002,0.071,0.18320000000000003,-0.12140000000000001,0.07980000000000001,-0.0346,0.0714,-0.044800000000000006,-0.10060000000000001,0.1018],[-0.006200000000000001,0.1178,0.054400000000000004,-0.0228,0.0514,0.040600000000000004,-0.0444,0.10800000000000001,-0.1242,-0.046000000000000006,-0.1684,-0.15600000000000003,-0.0488,0.0594,0.06680000000000001,0.135,0.046200000000000005,0.12040000000000001,0.0874,0.06780000000000001,0.0524,0.17900000000000002,-0.1426,-0.1936,0.1206],[-0.0908,-0.1,-0.18520000000000003,0.149,0.198,0.1836,0.188,-0.1394,0.047,0.11160000000000002,-0.0956,0.0752,0.0736,0.0164,-0.1198,-0.11599999999999999,0.10920000000000002,0.07600000000000001,0.192,-0.015,-0.17920000000000003,0.0634,-0.1956,-0.19820000000000002,-0.0586],[0.0484,0.1462,-0.0922,-0.10020000000000001,-0.030600000000000002,0.0606,0.1684,-0.0342,0.04580000000000001,0.1676,0.06760000000000001,0.18420000000000003,-0.0692,0.0968,0.0086,0.0596,0.11220000000000002,0,-0.1194,-0.1718,-0.17880000000000001,0.1494,-0.1474,-0.1574,0.19720000000000001]],[[-0.2420505537862603,-0.13921544877085512,0.037835557505667944,0.056510800633465585,-0.004365641250653993,-0.21609924190737267,0.03662287938048628,0.12175288376823915,-0.08003675626198989],[0.15643547814843478,0.11229399439182217,0.227255880659044,-0.00654846187598099,0.1794763625268864,0.07615618626140855,0.20761049503110102,-0.20736795940606467,0.21609924190737267],[0.21609924190737267,-0.19499864252921173,0.1411557337711458,0.04171612750624927,0.20809556628117368,-0.056995871883538246,-0.19402850002906638,-0.217796991282627,0.1646816893996701],[-0.037835557505667944,-0.20445753190562868,0.08440239751264386,0.23380434253502497,0.20057696190504737,0.014794673127216312,-0.05360037313302959,-0.01236931687685298,-0.09652917876446053],[-0.09143593063869752,-0.2376849125356063,-0.15983097689894343,-0.011884245626780317,0.15401012189807145,0.19475610690417539,0.17462565002615973,-0.18869271627826706,0.08003675626198989],[0.12272302626838448,0.08876803876329786,0.046324304381939595,-0.012611852501889315,-0.12490584689371148,0.11690217126751248,-0.016492422502470645,0.2420505537862603,-0.21100599378160967],[0.05360037313302959,-0.19766653440461135,0.014309601877143644,-0.15570787127332578,-0.013581995002034646,0.1765659350264504,0.13873037752078246,0.051902623757775254,-0.018432707502761304],[-0.23792744816064265,-0.06645476125995524,-0.021100599378160965,-0.11714470689254881,0.018917778752833972,0.12175288376823915,-0.23477448503517032,0.23428941378509763,0.05966376375893791],[-0.01794763625268864,0.040018378130994944,0.1979090700296477,-0.21876713378277235,-0.0683950462602459,0.11496188626722183,-0.09095085938862486,0.18723750252804905,0.08658521813797086],[0.1537675862730351,0.030559488754577955,0.14406616127158178,-0.024011026878596964,-0.16662197439996076,0.22240516815831735,0.20203217565526535,0.07591365063637222,-0.01139917437670765],[0.10065228439007817,0.21658431315744534,0.07300322313593623,-0.10065228439007817,0.09313368001395186,0.23307673565991596,-0.049719803132448254,0.14455123252165444,-0.03080202437961429],[0.05335783750799326,0.24229308941129662,-0.09313368001395186,0.07397336563608155,-0.04680937563201226,0.0875553606381162,-0.14309601877143643,-0.14673405314698143,0.22774095190911664],[-0.12175288376823915,0.12126781251816648,-0.010186496251525986,0.22555813128378968,0.11520442189225816,0.05820855000871991,0.0676674393851369,0.023283420003487966,0.06475701188470091],[0.19499864252921173,-0.1700174731504694,-0.1993642837798657,0.01139917437670765,-0.13315205814494682,0.18505468190272206,-0.21634177753240902,0.22192009690824469,0.11205145876678584],[0.0235259556285243,-0.15861829877376177,-0.03080202437961429,-0.0009701425001453318,-0.22240516815831735,0.0839173262625712,-0.008003675626198989,-0.03953330688092228,0.01067156750159865],[-0.07518604376126321,0.05626826500842925,0.06402940500959191,-0.14843180252223578,-0.10647313939095017,-0.2289536300342983,-0.16831972377521506,-0.01236931687685298,-0.18262932565235873],[-0.010914103126634983,0.1411557337711458,0.0933762156389882,-0.09943960626489651,-0.24011026878596964,-0.20081949753008368,0.16880479502528772,0.23525955628524298,-0.19693892752950237],[-0.054327980008138585,-0.13800277064567346,-0.22604320253386234,-0.01697749375254331,-0.1346072718951648,0.13848784189574612,-0.10914103126634984,0.12757373876911116,-0.1671070456500334],[-0.03152963125472329,-0.010186496251525986,0.04147359188121294,0.22070741878306302,-0.10792835314116818,0.07809647126169922,0.20009189065497468,-0.22289023940839,0.05481305125821125],[0.12296556189342081,0.13145430876969247,-0.16807718815017875,-0.009216353751380652,0.16371154689952477,-0.22240516815831735,0.08173450563724421,-0.19039046565352138,0.22289023940839],[0.20761049503110102,0.14309601877143643,-0.057966014383683574,0.17996143377695906,-0.12078274126809382,-0.01697749375254331,0.20833810190621002,-0.11981259876794849,0.04123105625617661],[0.2325916644098433,0.17050254440054208,0.19596878502935705,-0.10986863814145884,-0.16080111939908875,0.06718236813506424,-0.0019402850002906637,0.1661369031498881,0.1700174731504694],[-0.05602572938339292,-0.054085444383102255,-0.10914103126634984,-0.12175288376823915,0.15255490814785344,0.14018559127100044,0.12078274126809382,0.14309601877143643,0.22192009690824469],[0.09943960626489651,-0.11011117376649517,0.09943960626489651,0.1443086968966181,-0.23307673565991596,-0.1030776406404415,-0.15255490814785344,0.07324575876097256,0.07348829438600889],[-0.10429031876562317,0.014309601877143644,0.04874966063230293,-0.09822692813971486,-0.21003585128146435,0.1411557337711458,0.11787231376765782,0.18869271627826706,-0.05360037313302959]]]}