{"name":"nn21.4","initialization_type":"xavier","training_iterations":0,"input_dimensions":{"vertical":6,"horizontal":6},"output_dimensions":{"vertical":3,"horizontal":3},"deep_layers":8,"neurons_per_layer":25,"weights":[[[0.12910397385663142,0.08003359950158638,-0.09795967721800505,-0.027522866796925633,0.12530147252284562,-0.05884823492763705,-0.055770019562191415,-0.17962292014835676,-0.17382863240163557,-0.004345715810040889,-0.0957868193129846,-0.16097255646359795,0.11353182553731823,0.11570468344233868,0.1705693455441049,-0.012675004445952596,-0.0581239489592969,0.02571215187607526,0.09180324648711378,0.09705431975757987,-0.03458465498824208,0.15372969678019646,-0.1251204010307606,0.16242112840027825,0.1559025546852169],[0.053778233149256005,-0.18016613462461187,-0.14721112306513512,-0.05287287568883082,0.09451931886838935,0.14286540725509425,0.05794287746721186,-0.01484786235097304,0.11787754134735913,-0.002897143873360593,-0.1674911301786593,0.13055254579331171,0.0420085861637286,0.05142430375215052,-0.13363076115875736,-0.11298861106106313,0.10230539302804594,0.07496359772320534,0.10067574959928062,-0.06482359416644326,-0.009596789080506964,0.0009053574604251854,0.018288220700588744,-0.16441291481321366,0.05051894629172535],[-0.1490218379859855,-0.05703752000678668,0.15228112484351616,-0.15662684065355706,-0.04707858794210964,-0.17382863240163557,-0.0972353912496649,0.1167911123948489,-0.08546574426413749,-0.029514653209861044,-0.0796714565174163,0.13797647696879825,-0.17726899075125127,0.15372969678019646,0.05866716343555201,-0.1430464787471793,0.14992719544641067,0.1441329076996895,-0.14521933665219974,-0.15626469766938697,-0.16242112840027825,0.10375396496472623,-0.07786074159656593,-0.17654470478291112,0.062107521785167714],[0.0497946603233852,-0.09886503467843025,-0.02154750755811941,0.01901250666892889,0.15626469766938697,-0.014485719366802966,0.10592682286974668,0.021728579050204446,0.0966921767734098,-0.027885009781095708,0.08546574426413749,-0.06808288102397393,-0.03259286857530667,0.006518573715061334,0.1421411212867541,0.18089042059295202,-0.061383235816827565,-0.17238006046495527,-0.002535000889190519,-0.1642318433211286,-0.15771326960606727,0.04092215721121838,0.14395183620760446,-0.02353929397105482,0.13127683176165186],[-0.034041440511986966,0.1665857727182341,0.0036214298417007415,-0.1640507718290436,-0.12330968610991025,0.0698935959448243,-0.045267873021259265,-0.12819861639620622,0.006880716699231408,-0.09759753423383498,0.07786074159656593,0.15988612751108772,0.02046107860560919,0.17256113195704031,0.11389396852148831,0.17256113195704031,-0.17328541792538046,0.10610789436183171,0.0468975164500246,0.04961358883130016,-0.15318648230394136,0.0805768139778415,0.08763860216915793,-0.10502146540932149,0.0018107149208503707],[-0.05703752000678668,0.07188538235775972,-0.13544147607960771,0.025168937399820155,0.05613216254636149,0.13417397563501246,-0.15264326782768622,0.029333581717776006,-0.11733432687110402,-0.0468975164500246,0.0952436048367295,-0.0048889302862960005,0.11353182553731823,0.1559025546852169,0.14721112306513512,-0.02897143873360593,-0.13218218922207706,0.02281500800271467,-0.10375396496472623,-0.1691207736074246,0.07387716877069511,-0.127112187443696,0.01285607593803763,-0.1387007629371384,-0.16350755735278846],[-0.09415717588421928,0.13652790503211795,-0.13942504890547855,-0.14938398097015557,-0.1406925493500738,0.006156430730891261,-0.06446145118227319,-0.08220645740660683,0.08691431620081778,-0.17672577627499617,0.049975731815470235,0.10809968077476712,0.12910397385663142,0.026617509336500447,-0.023720365463139857,-0.10176217855179084,-0.06663430908729363,0.15065148141475082,0.1430464787471793,-0.0016296434287653334,-0.12294754312574017,0.15916184154274757,0.13797647696879825,-0.1470300515730501,-0.10121896407553573],[0.08510360127996741,-0.12367182909408032,-0.13960612039756357,-0.018107149208503707,-0.045992158989599415,0.027522866796925633,0.1055646798855766,-0.02969572470194608,0.03530894095658223,-0.09614896229715468,-0.1323632607141621,-0.15173791036726106,-0.06953145296065423,0.17473398986206076,0.047983945402534825,0.10936718121936238,-0.12475825804659052,-0.0679018095318889,-0.028066081273180745,0.16350755735278846,0.15264326782768622,0.04744073092627971,-0.015572148319313186,0.005251073270466075,-0.1689397021153396],[-0.031144296638626372,-0.16839648763908446,0.13055254579331171,0.10266753601221601,0.0952436048367295,-0.13562254757169276,0.166042558241979,0.07351502578652505,0.1636886288448735,0.08691431620081778,0.015028933843058076,-0.1671289871944892,0.06591002311895348,-0.02697965232067052,-0.08510360127996741,0.1450382651601147,0.17147470300453008,-0.03802501333785778,0.1510136243989209,0.05830502045138194,0.033498226035731854,0.16097255646359795,-0.03259286857530667,0.03367929752781689,0.04852715987878994],[-0.06898823848439913,-0.10701325182225689,-0.09651110528132475,-0.1196882562682095,0.04816501689461986,-0.059210377911807124,0.033498226035731854,0.05558894807010638,-0.09687324826549483,0.009958932064677038,0.10719432331434194,0.1314579032537369,-0.15517826871687676,0.015210005335143113,-0.1211368282048898,0.05051894629172535,0.06373716521393304,-0.0796714565174163,0.11733432687110402,-0.12584468699910076,0.10846182375893719,0.16549934376572387,0.011226432509272298,-0.015210005335143113,0.13037147430122667],[0.036033226924922376,0.17907970567210166,0.0727907398181849,0.02842822425735082,0.13037147430122667,0.057218591498871714,0.07749859861239586,0.020642150097694226,0.1597050560190027,-0.16386970033695855,0.16640470122614906,0.16006719900317276,-0.10375396496472623,0.02697965232067052,-0.12276647163365513,0.04436251556083408,0.013942504890547854,0.07713645562822578,0.16495612928946876,0.12131789969697483,0.03947358527453808,0.0468975164500246,0.027885009781095708,0.13308754668250225,0.06373716521393304],[-0.12729325893578106,0.1631454143686184,-0.055226805085936304,-0.061383235816827565,-0.15155683887517601,-0.17726899075125127,0.02770393828901067,-0.07586895518363053,0.07659324115197068,-0.07387716877069511,-0.14938398097015557,0.10429717944098134,-0.1182396843315292,0.11262646807689305,-0.17763113373542136,-0.1450382651601147,-0.14051147785798876,-0.022271793526459558,0.04816501689461986,-0.059753592388062236,0.13127683176165186,0.12638790147535586,-0.10140003556762077,0.10357289347264119,-0.06627216610312356],[-0.16930184509950966,0.07061788191316445,-0.03458465498824208,0.11353182553731823,0.15463505424062166,-0.1265689729674409,-0.10465932242515141,0.1294661168408015,-0.028247152765265782,-0.08437931531162728,-0.04508680152917423,-0.0820253859145218,0.10846182375893719,-0.08093895696201157,0.02136643606603437,-0.07206645384984475,-0.06572895162686845,0.14721112306513512,-0.04617323048168445,0.1450382651601147,0.14630576560470995,-0.09488146185255943,0.030601082162371264,-0.036938584385347556,-0.01973679263726904],[-0.14721112306513512,0.01792607771641867,0.07514466921529038,-0.15861862706649246,0.07423931175486519,-0.1426843357630092,0.11878289880778432,0.16042934198734285,-0.1426843357630092,0.10900503823519231,-0.09995146363094047,0.03494679797241215,0.1587996985585775,0.010864289525102223,-0.07550681219946045,0.14865969500181542,-0.0054321447625511115,0.1626021998923633,-0.09795967721800505,-0.09651110528132475,-0.002535000889190519,0.09180324648711378,-0.09506253334464446,0.06681538057937868,-0.1329064751904172],[0.16767220167074431,-0.03494679797241215,-0.09053574604251853,-0.05613216254636149,0.15264326782768622,-0.028790367241520894,-0.032773940067391705,-0.16061041347942787,-0.05088108927589542,0.09977039213885543,0.15807541259023736,0.05703752000678668,-0.043276086608323855,0.1015811070597058,-0.1167911123948489,0.15210005335143112,-0.05685644851470164,-0.13906290592130846,-0.055045733593851266,0.17817434821167646,0.02046107860560919,0.14105469233424386,0.011950718477612447,-0.17726899075125127,-0.034222512004072],[-0.16097255646359795,-0.0615643073089126,-0.04309501511623882,0.031506439622796444,-0.0903546745504335,0.01484786235097304,0.008510360127996741,-0.0995893206467704,-0.017745006224333632,0.08673324470873275,0.012493932953867559,-0.1720179174807852,0.07206645384984475,0.14920290947807052,0.1640507718290436,-0.05269180419674578,0.13326861817458727,-0.07297181131026995,0.053778233149256005,-0.17165577449661512,0.05269180419674578,0.1616968424319381,0.11389396852148831,-0.12330968610991025,0.03657644140117749],[0.03639536990909245,-0.026074294860245335,0.05830502045138194,-0.023177150986884745,-0.13942504890547855,0.13761433398462816,-0.18052827760878196,0.14340862173134936,-0.15336755379602637,-0.03711965587743259,0.13055254579331171,-0.1640507718290436,0.0420085861637286,0.06265073626142281,-0.11715325537901898,0.03874929930619793,-0.04309501511623882,0.06337502222976296,-0.08329288635911705,0.10683218033017186,-0.17600149030665602,-0.06084002134057245,-0.17274220344912536,-0.1470300515730501,-0.07170431086567468],[-0.08293074337494698,-0.18089042059295202,-0.09850289169426017,-0.06337502222976296,-0.036214298417007414,-0.09886503467843025,0.012493932953867559,-0.021909650542289483,0.07206645384984475,-0.161153627955683,-0.17618256179874106,-0.08220645740660683,-0.06536680864269838,0.10520253690140653,-0.0698935959448243,-0.13761433398462816,0.05902930641972209,0.028790367241520894,0.04581108749751438,-0.14033040636590371,0.0937950329000492,-0.10140003556762077,-0.01901250666892889,0.13906290592130846,0.03096322514654134],[-0.06554788013478341,0.16984505957576476,0.005251073270466075,-0.03512786946449719,0.14340862173134936,0.09886503467843025,-0.09633003378923972,0.03784394184577274,-0.0874575306770729,-0.17871756268793157,0.10411610794889631,0.07930931353324623,-0.036033226924922376,0.0030782153654456304,0.11733432687110402,-0.07369609727861008,-0.1285607593803763,-0.015753219811398222,-0.09397610439213423,-0.07677431264405571,0.020098935621439114,-0.057761805975126826,-0.10140003556762077,-0.09614896229715468,0.05051894629172535],[-0.17907970567210166,-0.14485719366802965,0.13670897652420297,0.08039574248575646,-0.1680343446549144,0.013399290414292742,-0.08474145829579735,-0.07840395607282105,-0.17292327494121038,0.13471719011126757,-0.009777860572592001,0.17274220344912536,-0.04508680152917423,-0.1470300515730501,0.024444651431480006,-0.059934663880147274,-0.0972353912496649,-0.13761433398462816,0.13019040280914165,0.10719432331434194,-0.010864289525102223,0.036033226924922376,-0.055045733593851266,0.022271793526459558,0.031325368130711406],[-0.09904610617051528,0.004164644317955852,-0.12675004445952592,0.15065148141475082,-0.06880716699231408,-0.12765540191995112,0.0664532375952086,0.13815754846088327,0.023177150986884745,0.05794287746721186,-0.014666790858888003,0.055770019562191415,0.11950718477612447,-0.0483460883867049,0.03947358527453808,0.0210042930818643,-0.1446761221759446,-0.17274220344912536,0.16586148674989395,0.0903546745504335,-0.10465932242515141,-0.03874929930619793,-0.026617509336500447,-0.13761433398462816,-0.06808288102397393],[-0.10230539302804594,-0.13960612039756357,0.09216538947128386,-0.17582041881457097,-0.0908978890266886,-0.1481164805255603,0.03730072736951763,-0.1265689729674409,-0.17075041703618993,-0.016115362795568296,-0.06482359416644326,-0.11298861106106313,0.01176964698552741,0.07713645562822578,0.06735859505563378,0.10248646452013097,-0.06591002311895348,-0.058486091943466975,0.1323632607141621,-0.1225854001415701,-0.16622362973406402,0.12005039925237958,0.005794287746721186,0.029333581717776006,0.04182751467164356],[0.03096322514654134,-0.15499719722479172,-0.16531827227363885,0.01792607771641867,0.12005039925237958,-0.034222512004072,-0.14920290947807052,0.13254433220624712,0.17582041881457097,-0.07804181308865098,-0.13562254757169276,0.11208325360063794,-0.019374649653098965,0.01176964698552741,0.06518573715061333,0.06373716521393304,0.024444651431480006,-0.07170431086567468,-0.05341609016508593,-0.11208325360063794,0.10954825271144741,0.005613216254636149,0.07605002667571556,-0.02281500800271467,-0.10520253690140653],[0.08130109994618165,-0.10429717944098134,-0.16839648763908446,0.10266753601221601,0.07514466921529038,0.036757512893262526,0.08854395962958313,-0.1720179174807852,-0.14431397919177455,-0.023177150986884745,0.1578943410981523,-0.040378942734963265,-0.05015680330755527,-0.055770019562191415,-0.12385290058616535,0.10665110883808682,-0.14920290947807052,0.031325368130711406,-0.04852715987878994,-0.12294754312574017,-0.08347395785120208,-0.03241179708322163,0.034765726480327115,-0.12837968788829127,0.10972932420353246],[-0.0021728579050204447,0.17582041881457097,0.10031360661511055,0.02697965232067052,-0.18052827760878196,0.09886503467843025,0.16441291481321366,0.13960612039756357,-0.1685775591311695,-0.0036214298417007415,-0.1167911123948489,0.09759753423383498,0.021728579050204446,0.06120216432474253,0.06953145296065423,-0.09886503467843025,-0.17618256179874106,0.14884076649390046,-0.007786074159656593,-0.0811200284540966,-0.06753966654771883,0.1426843357630092,-0.1578943410981523,0.09162217499502875,-0.02426357993939497],[0.08963038858209335,0.004707858794210963,-0.0811200284540966,0.1642318433211286,-0.1481164805255603,0.12330968610991025,-0.056494305530531565,-0.059210377911807124,-0.10773753779059704,0.10972932420353246,0.06446145118227319,0.07822288458073601,0.0894493170900083,-0.0957868193129846,-0.10357289347264119,-0.012675004445952596,0.10991039569561749,-0.006699645207146371,-0.08926824559792328,0.034765726480327115,0.11570468344233868,-0.1432275502392643,-0.10737539480642697,-0.17364756090955052,0.055770019562191415],[-0.15065148141475082,-0.0030782153654456304,0.0811200284540966,0.008691431620081779,-0.08293074337494698,-0.05124323226006548,-0.13055254579331171,0.08673324470873275,0.17093148852827497,-0.063556093721848,0.027885009781095708,-0.00742393117548652,0.12530147252284562,-0.17256113195704031,0.11298861106106313,-0.045992158989599415,-0.022996079494799707,-0.005613216254636149,-0.13598469055586282,0.014304647874717928,-0.05595109105427645,-0.027341795304840596,-0.07043681042107942,-0.1392439774133935,-0.14105469233424386],[-0.025168937399820155,-0.14141683531841395,-0.1176964698552741,0.06192645029308268,-0.0957868193129846,0.13073361728539676,-0.15717005512981216,-0.17310434643329542,-0.13507933309543765,-0.12530147252284562,0.039654656766623116,-0.05142430375215052,0.16930184509950966,0.15608362617730195,0.02480679441565008,-0.1455814796363698,0.1015811070597058,-0.1694829165915947,-0.062288593277252745,0.04363822959249393,0.1470300515730501,0.12149897118905988,0.059934663880147274,0.06572895162686845,-0.029876796194031118],[-0.0030782153654456304,0.15372969678019646,-0.1182396843315292,0.022633936510629633,0.0986839631863452,-0.13652790503211795,0.1734664894174655,-0.00796714565174163,-0.1450382651601147,-0.051786446736320595,-0.1495650524622406,0.009777860572592001,-0.13761433398462816,-0.0698935959448243,0.1792607771641867,0.02408250844730993,-0.09777860572592002,-0.003440358349615704,0.16640470122614906,-0.15753219811398225,0.04707858794210964,-0.030420010670286227,0.06681538057937868,0.11443718299774343,-0.12530147252284562],[-0.15191898185934608,-0.15916184154274757,0.16731005868657425,0.08039574248575646,0.10484039391723646,0.0796714565174163,0.04888930286296001,0.0894493170900083,0.12095575671280476,0.1300093313170566,0.04961358883130016,-0.0981407487100901,0.14087362084215885,0.0952436048367295,-0.12837968788829127,-0.015572148319313186,0.04581108749751438,-0.11878289880778432,-0.1627832713844483,-0.1358036190637778,0.11787754134735913,0.13616576204794786,-0.06627216610312356,0.12675004445952592,0.02028000711352415],[0.17473398986206076,0.03241179708322163,0.11787754134735913,-0.07170431086567468,-0.10176217855179084,-0.10140003556762077,0.12457718655450549,-0.07550681219946045,-0.1691207736074246,0.01901250666892889,-0.12910397385663142,0.08763860216915793,-0.13272540369833216,-0.06446145118227319,0.15010826693849572,-0.034041440511986966,0.15916184154274757,0.025531080383990223,-0.12095575671280476,-0.17473398986206076,-0.05160537524423556,0.09560574782089958,0.04707858794210964,0.05033787479964031,0.136890048016288],[0.1265689729674409,0.06373716521393304,-0.05033787479964031,-0.17618256179874106,-0.10284860750430104,-0.09850289169426017,0.08836288813749808,-0.13363076115875736,-0.02046107860560919,0.056494305530531565,0.12892290236454637,-0.17256113195704031,-0.07804181308865098,-0.06898823848439913,-0.11172111061646786,0.15771326960606727,-0.03512786946449719,0.18089042059295202,-0.10484039391723646,0.17147470300453008,0.12349075760199528,0.1792607771641867,-0.1444950506838596,0.15137576738309097,0.1803472061166969],[0.0776796701044809,0.10628896585391674,-0.06518573715061333,-0.12928504534871646,0.16821541614699945,-0.17328541792538046,0.1568079121456421,0.1383386199529683,0.09288967543962401,-0.11552361195025365,0.02028000711352415,0.1763636332908261,0.06880716699231408,-0.03802501333785778,-0.05739966299095675,0.068445024008144,0.05758073448304179,0.07387716877069511,-0.12530147252284562,0.1674911301786593,0.10665110883808682,0.01104536101718726,-0.009596789080506964,0.022271793526459558,0.009958932064677038],[0.06953145296065423,0.0713421678815046,0.08691431620081778,-0.1191450417919544,0.10610789436183171,-0.11986932776029455,0.11262646807689305,0.0972353912496649,0.11407504001357335,0.04581108749751438,0.04182751467164356,0.1691207736074246,0.09433824737630431,-0.013942504890547854,0.04273287213206874,-0.17310434643329542,0.01285607593803763,-0.17708791925916625,-0.06283180775350786,-0.0747825262311203,-0.014485719366802966,-0.17075041703618993,-0.026617509336500447,-0.046535373465854526,-0.01792607771641867],[-0.16350755735278846,0.12982825982497156,-0.1455814796363698,0.13326861817458727,0.015572148319313186,0.1001325351230255,0.04780287391044979,-0.05595109105427645,0.06428037969018816,0.10411610794889631,0.161153627955683,-0.08727645918498786,0.1481164805255603,-0.04581108749751438,0.024987865907735118,-0.06663430908729363,0.11986932776029455,-0.15608362617730195,-0.1182396843315292,0.17455291836997572,0.01973679263726904,-0.13996826338173365,0.17002613106784978,0.1792607771641867,-0.0820253859145218],[0.16966398808367975,-0.11172111061646786,-0.02643643784441541,-0.017563934732248595,-0.00018107149208503707,0.068445024008144,-0.09361396140796416,-0.02281500800271467,-0.04707858794210964,-0.07116109638941957,0.08582788724830756,-0.09922717766260032,-0.07985252800950135,-0.07894717054907616,-0.032773940067391705,-0.15499719722479172,-0.17473398986206076,0.02697965232067052,-0.04291394362415378,-0.009234646096336889,-0.13544147607960771,-0.003983572825870815,0.14377076471551944,0.10683218033017186,0.10049467810719558]],[[-0.0902,0.062,0.061,0.18080000000000002,0.1424,0.05360000000000001,-0.0742,0.11599999999999999,-0.1582,0.0878,0.10220000000000001,0.0354,-0.1896,0.050800000000000005,0.0718,-0.10200000000000001,-0.046400000000000004,-0.142,-0.1688,0.133,0.0524,0.038000000000000006,0.1018,-0.024,0.0158],[0.03900000000000001,-0.118,0.10260000000000001,0.005600000000000001,0.1986,-0.07840000000000001,0.0256,0.0952,-0.19340000000000002,-0.0712,0.1874,0.10980000000000001,-0.1,0.0434,0.0432,0.13460000000000003,-0.11020000000000002,0.041800000000000004,-0.19240000000000002,-0.0594,0.19340000000000002,-0.1834,0.0076,-0.10880000000000001,-0.0572],[0.12760000000000002,0.1158,0.1748,0.025,-0.032,-0.1552,0.1938,0.09920000000000001,-0.09260000000000002,-0.0732,-0.17020000000000002,-0.1494,-0.1408,-0.0236,0.1952,0.1512,0.12860000000000002,0.10760000000000002,0.17980000000000002,-0.15660000000000002,-0.0478,-0.1958,0.13,-0.0966,-0.0018],[0.1382,-0.1628,-0.0288,0.05160000000000001,0.18380000000000002,0.0178,-0.045000000000000005,0.05260000000000001,0.0872,0.0022,0.0492,0.0122,-0.15080000000000002,-0.06720000000000001,-0.17980000000000002,-0.18200000000000002,-0.15200000000000002,-0.005000000000000001,0.1278,0.0454,-0.1014,0.16200000000000003,-0.10460000000000001,-0.13899999999999998,0.033400000000000006],[-0.0154,-0.15400000000000003,0.1454,0.1462,-0.05280000000000001,-0.19540000000000002,0.1254,0.0432,-0.07740000000000001,0.0626,-0.11399999999999999,0.048600000000000004,-0.0746,-0.0154,0.0388,-0.06480000000000001,0.07980000000000001,0.17120000000000002,-0.096,-0.0148,-0.0522,0.0828,-0.0238,-0.166,0.1168],[0.1888,0.0318,-0.013400000000000002,0.16240000000000002,-0.15700000000000003,0.006600000000000001,0.096,0.1384,0.062,0.0378,-0.041,-0.0566,-0.1922,0.1574,0.0298,-0.020200000000000003,0.0796,0.1386,0.056799999999999996,-0.0422,0.1938,-0.1322,-0.148,-0.1482,0.0492],[0.11000000000000001,-0.0984,-0.1806,-0.15560000000000002,-0.12240000000000001,0.1454,-0.17,-0.0178,0.011200000000000002,-0.19820000000000002,0.050600000000000006,-0.050600000000000006,-0.1208,-0.0074,0.07880000000000001,0.0702,-0.0252,0.1446,0.0842,-0.094,0.013800000000000002,-0.0024000000000000002,-0.19820000000000002,-0.1484,0.06620000000000001],[-0.13240000000000002,-0.0356,-0.0596,0.17,-0.13899999999999998,0.046000000000000006,0.1916,-0.10420000000000001,-0.0604,-0.19240000000000002,0.1942,0.1646,0.15680000000000002,0.08000000000000002,0.11160000000000002,0.0128,-0.0188,0.0832,0.0422,0.10880000000000001,0.1142,-0.0522,-0.1776,0.0364,0.026800000000000004],[0.0024000000000000002,-0.10940000000000001,0.005000000000000001,-0.1912,-0.1464,-0.123,0.0422,-0.0426,0.11259999999999999,0.13460000000000003,-0.15800000000000003,0.09860000000000001,0.101,0.189,0.0076,0.17120000000000002,0.149,0.0946,0.0364,0.1282,-0.12480000000000001,-0.06620000000000001,0.013200000000000002,0.10400000000000001,0.049800000000000004],[-0.03,0.1406,0.0054,-0.15900000000000003,0.0426,-0.1886,-0.0722,-0.0736,-0.022400000000000003,-0.0694,-0.1584,-0.094,0.0374,-0.0046,0.19240000000000002,0.016800000000000002,0.09100000000000001,0.0698,0.08700000000000001,-0.05480000000000001,-0.0236,0.08940000000000001,-0.0626,0.1196,-0.18000000000000002],[-0.05280000000000001,0.06899999999999999,-0.1438,0.13540000000000002,0.1412,0.1322,0.1764,-0.0566,-0.1698,-0.028000000000000004,-0.0882,0.0704,0.19840000000000002,-0.13240000000000002,0.0204,0.0102,-0.0114,-0.08040000000000001,0.14780000000000001,0.0814,0.0974,-0.18600000000000003,0.018,-0.12040000000000001,0.056999999999999995],[0.053000000000000005,0.0218,-0.016,0.1412,0.12340000000000001,-0.0724,0.0966,0.1142,-0.15680000000000002,-0.09040000000000001,-0.16140000000000002,-0.0766,-0.1228,-0.1962,0.1638,-0.14880000000000002,0.004,-0.045200000000000004,0.0626,-0.1246,0.1898,-0.17500000000000002,0.1894,-0.0242,-0.06720000000000001],[0.09260000000000002,0.06520000000000001,-0.1222,0.0842,0.07700000000000001,0.057999999999999996,0.0942,-0.05460000000000001,-0.1694,0.025,-0.0752,0.0892,0.1592,-0.0882,0.1908,-0.09140000000000001,0.18220000000000003,-0.10200000000000001,-0.18500000000000003,0.0388,-0.0046,0.1048,0.1678,0.0822,-0.15500000000000003],[0.05620000000000001,-0.1482,-0.15180000000000002,0.0158,-0.09060000000000001,0.056799999999999996,0.001,0.0636,-0.17900000000000002,-0.053200000000000004,-0.15180000000000002,0.08460000000000001,-0.09260000000000002,-0.12240000000000001,-0.1698,-0.1654,0.16720000000000002,-0.192,0.037,0.0766,-0.17220000000000002,0.1718,-0.12380000000000001,0.045200000000000004,0.145],[0.1646,0.016200000000000003,0.10620000000000002,0.0348,-0.0308,0.15300000000000002,-0.1264,-0.09260000000000002,-0.1956,0.013000000000000001,0.10200000000000001,-0.124,0.046400000000000004,-0.04680000000000001,-0.0604,0.15300000000000002,0.1684,0.0422,0.027800000000000005,-0.1378,-0.1202,-0.1826,0.0436,0.011600000000000001,0.191],[0.17600000000000002,0.169,-0.1292,0.0422,-0.037200000000000004,0.17400000000000002,0.0826,-0.1502,-0.1358,0.06420000000000001,0.1308,0.08860000000000001,-0.0736,-0.06380000000000001,-0.0088,-0.1896,0.197,-0.15180000000000002,-0.0348,-0.15200000000000002,-0.0018,0.18560000000000001,0.006600000000000001,0.1348,0.0736],[0.10720000000000002,0.032,-0.0218,0.08360000000000001,-0.0282,0.15200000000000002,0.15580000000000002,-0.1444,0.0012000000000000001,0.10980000000000001,0.0918,-0.143,0.048,0.06760000000000001,0.096,0.17500000000000002,-0.12440000000000001,0.13740000000000002,0.1622,0.1024,-0.1008,0.13620000000000002,0.07800000000000001,0.19340000000000002,0.15360000000000001],[-0.039400000000000004,-0.013200000000000002,-0.0584,0.1394,0.009600000000000001,-0.0782,-0.015600000000000001,-0.1202,-0.167,-0.0082,-0.0174,0.09300000000000001,-0.1172,0.024,0.0144,0.1458,-0.10500000000000001,-0.09960000000000001,-0.0978,-0.052000000000000005,-0.16240000000000002,0.0806,-0.0818,-0.16000000000000003,0.0282],[-0.11299999999999999,-0.0294,-0.10460000000000001,-0.0494,-0.16180000000000003,-0.19540000000000002,0.1592,0.15300000000000002,-0.135,0.11359999999999999,-0.19920000000000002,0.1574,0.08120000000000001,0.08760000000000001,-0.10880000000000001,-0.0604,0.1512,0.0194,0.0366,-0.0988,0.12440000000000001,-0.1462,-0.0282,0.1646,0.15800000000000003],[-0.0566,0.04020000000000001,0.18020000000000003,-0.17500000000000002,-0.0698,-0.1564,0.145,0.131,0.10400000000000001,0.1438,0.0584,-0.13899999999999998,-0.15460000000000002,-0.192,-0.10200000000000001,0.006,-0.1526,-0.0902,-0.0512,-0.0786,-0.0204,0.0436,-0.006,0.1128,-0.1946],[-0.0724,0.122,-0.09040000000000001,-0.006200000000000001,-0.1946,-0.07640000000000001,-0.1938,-0.19240000000000002,0.049800000000000004,0.0294,-0.08040000000000001,-0.0356,-0.17500000000000002,0.0242,0.1176,0.006200000000000001,0.008400000000000001,-0.1406,-0.082,-0.013400000000000002,0.1258,-0.1172,-0.0586,-0.06620000000000001,0.197],[0.0154,-0.18220000000000003,0.1806,0.09000000000000001,-0.1694,-0.1796,0.0172,-0.040400000000000005,0.043000000000000003,-0.1394,-0.1446,0.1232,-0.0942,0.17300000000000001,0.131,0.0432,0.0772,0.0604,0.16080000000000003,0.12040000000000001,-0.055200000000000006,-0.0398,0.0756,0.10980000000000001,-0.013800000000000002],[-0.1696,0.0534,-0.1582,0.17120000000000002,0.052000000000000005,-0.1734,0.11060000000000002,-0.19340000000000002,-0.0698,0.1226,0.0114,0.0854,-0.18000000000000002,0.11240000000000001,-0.1452,-0.015600000000000001,-0.10560000000000001,-0.1892,-0.05160000000000001,-0.0174,-0.0826,-0.1246,0.10980000000000001,0.16160000000000002,0.1516],[0.1562,0.07540000000000001,0.1936,0.0728,-0.1502,-0.15900000000000003,-0.0154,-0.033600000000000005,0.041,0.1378,-0.0104,0.09240000000000001,-0.1572,0.06480000000000001,0.004,0.0064,0.0776,-0.1252,-0.1686,-0.024,-0.1492,0.131,0.021400000000000002,-0.1208,0.11180000000000001],[0.16000000000000003,-0.1836,-0.0398,-0.10460000000000001,0.1044,-0.1496,0.1146,-0.0216,0.09820000000000001,-0.18120000000000003,-0.07880000000000001,-0.1698,-0.1942,-0.1216,-0.08600000000000001,0.1574,-0.0824,-0.097,0.018,0.1216,-0.1466,0.044000000000000004,-0.13540000000000002,0.06860000000000001,0.19440000000000002]],[[-0.1784,0.0246,-0.129,0.05620000000000001,0.17900000000000002,-0.020000000000000004,-0.0328,0.128,-0.0868,0.052000000000000005,-0.1784,-0.0488,-0.1456,0.062400000000000004,-0.046200000000000005,0.066,-0.1892,-0.1216,-0.1874,-0.011000000000000001,0.1826,-0.0636,-0.1938,-0.0608,-0.1058],[-0.19720000000000001,0.118,0.12340000000000001,0.0942,-0.08660000000000001,0.08960000000000001,0.019000000000000003,-0.1512,0.0322,-0.0742,0.1638,0.1222,0.051800000000000006,0.065,0.0664,-0.123,0.0488,0.1932,-0.0984,-0.12,0.048,-0.1442,0.10160000000000001,0.0902,-0.08080000000000001],[0.0004,0.063,0.13160000000000002,-0.1736,-0.18620000000000003,0.1636,0.16040000000000001,-0.16620000000000001,0.1986,0.0586,-0.0792,-0.12860000000000002,-0.0984,0.17700000000000002,-0.143,0.1502,0.033800000000000004,0.1768,0.1738,0.1438,0.1158,0.0868,0.07940000000000001,-0.15900000000000003,0.0666],[0.1584,-0.14880000000000002,0.09200000000000001,-0.10740000000000001,-0.1888,-0.11040000000000001,-0.1432,-0.10620000000000002,0.19140000000000001,0.12960000000000002,0.020200000000000003,-0.0416,-0.17520000000000002,0.0572,0.1388,-0.1158,-0.1416,0.048600000000000004,0.062400000000000004,-0.0834,0.0378,-0.0408,-0.10840000000000001,-0.1542,-0.1714],[0.15560000000000002,-0.051000000000000004,-0.1382,0.0478,-0.1378,-0.0318,0.1726,-0.060200000000000004,-0.0422,-0.1806,-0.012,-0.1252,0.0596,0.1442,0.1302,0.08080000000000001,0.06720000000000001,-0.0582,0.0086,-0.125,-0.10920000000000002,0.0198,0.0492,0.14780000000000001,-0.09060000000000001],[-0.0786,-0.08560000000000001,0.0792,-0.10020000000000001,-0.1658,0.10620000000000002,0.148,-0.0618,-0.13,0.1412,0.0592,0.15900000000000003,-0.027600000000000003,0.094,0.0002,-0.0198,-0.008,0.12340000000000001,0.1,-0.141,-0.1906,-0.1532,0.17020000000000002,0.1554,-0.1778],[-0.014000000000000002,-0.1706,-0.1756,0.006,0.07740000000000001,-0.0702,-0.1758,-0.0032,0.1922,0.12380000000000001,-0.11120000000000002,0.0594,0.13140000000000002,0.0792,-0.08020000000000001,-0.0064,0.054400000000000004,0.1452,-0.06860000000000001,0.1272,0.1312,0.06480000000000001,-0.1768,-0.023400000000000004,0.1202],[0.0082,-0.17500000000000002,-0.0858,-0.05580000000000001,-0.19240000000000002,0.1058,0.0176,-0.032,-0.0172,-0.13640000000000002,0.13040000000000002,0.0262,0.18680000000000002,0.0918,-0.10840000000000001,-0.15380000000000002,0.0422,-0.18080000000000002,0.10620000000000002,0.1726,-0.06,0.1888,0.0352,0.19440000000000002,-0.1368],[-0.006,-0.0752,0.0174,0.055400000000000005,-0.008400000000000001,0.0728,-0.17700000000000002,0.005000000000000001,-0.10300000000000001,-0.025400000000000002,-0.09920000000000001,0.128,0.1958,-0.15400000000000003,-0.1658,0.0362,-0.171,0.18320000000000003,-0.1898,-0.1384,-0.026800000000000004,0.0322,0.0842,0.1312,0.10520000000000002],[0.06999999999999999,0.1312,0.020200000000000003,0.17720000000000002,-0.08600000000000001,-0.0244,-0.15400000000000003,-0.0582,0.1132,0.0664,0.0368,-0.13260000000000002,-0.0152,0.059,0.15180000000000002,0.144,0.1854,0.06999999999999999,-0.08560000000000001,0.0938,0.18520000000000003,0.08360000000000001,0.0052,0.06680000000000001,-0.15280000000000002],[0.0028000000000000004,0.07700000000000001,-0.0702,0.1626,-0.08460000000000001,-0.1632,-0.0308,0.0898,-0.033600000000000005,0.1448,-0.036,0.13160000000000002,-0.006200000000000001,0.144,0.1804,0.1184,0.06820000000000001,0.1166,0.1158,-0.0294,-0.0288,0.188,0.12340000000000001,-0.023000000000000003,-0.1506],[-0.10260000000000001,-0.129,0.1622,-0.1262,0.0816,-0.061,0.0154,0.14980000000000002,0.1466,-0.1424,-0.0742,-0.0396,-0.0348,-0.06780000000000001,-0.1322,0.0082,-0.0322,0.16620000000000001,-0.020000000000000004,0.18560000000000001,0.016,-0.1228,0.09860000000000001,0.0434,0.1392],[-0.0026,-0.19240000000000002,-0.038400000000000004,-0.1836,0.1638,-0.04000000000000001,0.1738,0.1232,-0.063,0.0074,0.1896,0.10620000000000002,0.1218,0.15980000000000003,0.1526,-0.0956,-0.1988,0.07600000000000001,-0.0158,-0.0574,0.1034,0.1008,0.0534,-0.09260000000000002,-0.0592],[-0.145,0.13740000000000002,0.0952,-0.1228,0.0176,0.149,-0.0148,0.0852,-0.027400000000000004,0.15960000000000002,0.0772,-0.07900000000000001,0.10220000000000001,0.19940000000000002,-0.19920000000000002,-0.1338,0.027600000000000003,0.1878,-0.0122,-0.0762,-0.0246,0.17400000000000002,0.119,-0.1162,0.0222],[-0.0144,0.0634,-0.040400000000000005,-0.1128,-0.1308,-0.1882,-0.020000000000000004,-0.1544,-0.1628,0.1412,-0.0026,0.10200000000000001,-0.05500000000000001,-0.0988,-0.18720000000000003,0.1178,-0.08960000000000001,0.045200000000000004,-0.031,-0.10600000000000001,-0.12440000000000001,0.0348,-0.020000000000000004,0.1444,0.028999999999999998],[-0.07880000000000001,0.1908,0.041800000000000004,0.18580000000000002,-0.1312,-0.006600000000000001,-0.1658,0.0432,-0.04020000000000001,-0.15180000000000002,-0.1716,0.0002,0.1288,0.038000000000000006,-0.1272,-0.1888,0.19440000000000002,-0.1678,0.15280000000000002,-0.1258,0.1724,0.026800000000000004,0.1166,0.18620000000000003,0.0182],[0.0076,0.141,0.0874,-0.049800000000000004,-0.1458,-0.15280000000000002,0.04580000000000001,0.10020000000000001,-0.0032,0.1412,-0.010000000000000002,-0.1952,0.101,-0.136,-0.0766,-0.19340000000000002,0.07740000000000001,0.10420000000000001,0.030600000000000002,0.1694,-0.1172,0.0726,0.1448,0.1146,-0.1946],[0.1864,-0.1666,-0.1432,0.15960000000000002,-0.1912,0.0286,-0.0592,0.1394,0.025,0.0216,-0.166,0.024800000000000003,0.12560000000000002,0.0316,-0.044800000000000006,-0.18180000000000002,0.10820000000000002,-0.027600000000000003,0.0408,-0.1434,-0.09280000000000001,-0.1192,-0.1418,-0.0166,0.1176],[0.18600000000000003,-0.1998,-0.10820000000000002,0.1376,0.1142,-0.17400000000000002,-0.04580000000000001,-0.1438,-0.0446,0.06720000000000001,0.0576,-0.18720000000000003,0.054000000000000006,0.1642,0.08040000000000001,-0.046400000000000004,-0.024800000000000003,0.08560000000000001,-0.064,0.044800000000000006,0.0492,-0.10700000000000001,0.15960000000000002,0.13540000000000002,-0.053000000000000005],[0.0852,0.10840000000000001,-0.101,-0.08660000000000001,-0.0318,0.1708,-0.045000000000000005,0.020200000000000003,-0.191,-0.15600000000000003,0.0782,-0.16200000000000003,-0.17820000000000003,-0.1038,0.0716,-0.0922,0.17,0.1698,0.024,0.15560000000000002,-0.0852,0.08760000000000001,-0.1462,-0.132,0.1152],[-0.0608,0.13360000000000002,-0.133,-0.045000000000000005,-0.0964,0.15940000000000001,0.15860000000000002,-0.0714,-0.11399999999999999,-0.0058000000000000005,-0.08700000000000001,0.11140000000000001,0.013800000000000002,-0.0374,0.1466,0.18680000000000002,-0.17420000000000002,-0.0052,-0.15900000000000003,-0.12340000000000001,0.17820000000000003,-0.15700000000000003,0.13999999999999999,-0.16820000000000002,0.0014000000000000002],[-0.1144,-0.18020000000000003,0.0128,-0.10840000000000001,0.1174,0.19940000000000002,0.054000000000000006,-0.122,-0.0354,-0.05560000000000001,-0.15560000000000002,-0.05160000000000001,-0.043800000000000006,-0.0908,0.1008,0.0786,-0.0184,0.0684,-0.10320000000000001,0.1168,-0.1448,0.14880000000000002,0.013000000000000001,0.10420000000000001,-0.12840000000000001],[-0.1134,0.10020000000000001,0.1502,-0.0766,0.0012000000000000001,-0.08040000000000001,0.1766,0.1554,-0.17120000000000002,0.032600000000000004,0.12560000000000002,0.044800000000000006,0.1302,0.1236,-0.1212,-0.13660000000000003,0.0488,0.0048000000000000004,0.0292,-0.011000000000000001,-0.1506,0.1942,0.1998,0.1388,-0.15080000000000002],[-0.1,0.096,0.07780000000000001,-0.0494,0.05580000000000001,0.1416,-0.10960000000000002,0.0376,-0.0282,-0.0354,-0.1128,0.166,0.0078000000000000005,0.17200000000000001,-0.18280000000000002,0.06,0.0704,-0.129,-0.0228,0.0696,0.19140000000000001,-0.0782,0.0204,0.1744,0.0346],[0.1,-0.1674,-0.07900000000000001,0.10360000000000001,0.0834,-0.18680000000000002,-0.1474,0.08360000000000001,0.0976,0.1684,-0.045200000000000004,0.145,0.0848,0.11200000000000002,0.15980000000000003,0.18480000000000002,-0.10720000000000002,0.0236,-0.1138,0.1664,0.1724,-0.16240000000000002,0.0348,-0.0912,0.15480000000000002]],[[0.0388,-0.0736,-0.15360000000000001,0.09000000000000001,0.0502,0.1646,-0.0732,0.1382,0.13040000000000002,0.1754,0.1766,-0.15500000000000003,0.0154,-0.0366,0.1476,0.1894,0.18400000000000002,0.006200000000000001,-0.1182,0.0246,-0.1486,-0.0004,-0.0874,0.0026,0.0436],[-0.05600000000000001,-0.16620000000000001,-0.08860000000000001,0.11499999999999999,0.0188,0.003,-0.033,0.0476,-0.1138,-0.0412,0.0954,-0.19140000000000001,0.025800000000000003,-0.1962,0.0016,0.0932,-0.18300000000000002,-0.0878,-0.022400000000000003,-0.0702,-0.1472,-0.19840000000000002,-0.18020000000000003,-0.033,-0.0708],[-0.10460000000000001,0.099,0.1584,0.0942,0.1034,0.1476,-0.1134,0.0308,-0.166,-0.137,-0.11040000000000001,0.1154,0.0504,0.022600000000000002,0.0106,0.07840000000000001,-0.11100000000000002,-0.1476,0.0074,-0.08560000000000001,-0.10840000000000001,0.1446,-0.1058,0.17920000000000003,-0.0412],[0.026800000000000004,-0.027600000000000003,-0.052000000000000005,-0.1222,0.11499999999999999,-0.0178,0.15880000000000002,-0.055200000000000006,-0.072,-0.17020000000000002,0.13160000000000002,-0.0122,0.11000000000000001,0.0596,0.12480000000000001,-0.10840000000000001,-0.17920000000000003,0.1774,0.06580000000000001,-0.1382,-0.06520000000000001,0.10960000000000002,-0.1338,0.1264,0.10020000000000001],[0.08040000000000001,-0.0344,-0.0714,-0.0844,0.0726,-0.027600000000000003,-0.0348,0.15360000000000001,0.1674,-0.08560000000000001,0.1422,0.08660000000000001,-0.0408,0.129,-0.13260000000000002,-0.1394,-0.18200000000000002,-0.0882,-0.0606,0.1038,0.10620000000000002,-0.0884,-0.09260000000000002,-0.18100000000000002,-0.1222],[0.1512,-0.0358,0.065,-0.1428,0.043800000000000006,0.0892,-0.05380000000000001,-0.025,0.062,0.1952,0.0222,0.026800000000000004,0.0596,0.19,0.126,0.13,-0.1622,-0.0786,0.1222,-0.13520000000000001,-0.11220000000000002,0.1392,-0.119,0.13340000000000002,-0.1706],[-0.033400000000000006,-0.0014000000000000002,-0.0922,-0.0244,-0.0144,0.031200000000000002,0.0316,0.011200000000000002,0.0572,-0.1544,0.0718,0.1444,0.0782,-0.0732,-0.046200000000000005,-0.17920000000000003,-0.026800000000000004,0.0644,0.1426,-0.19,-0.11140000000000001,0.17500000000000002,-0.055400000000000005,-0.0878,0.013200000000000002],[-0.084,0.10540000000000001,-0.0868,-0.1398,0.0216,0.1278,-0.11100000000000002,-0.16180000000000003,-0.11399999999999999,0.0864,0.10600000000000001,0.13799999999999998,0.1384,-0.18200000000000002,-0.1192,-0.0566,0.036,-0.0022,0.1462,-0.0446,-0.004200000000000001,0.10520000000000002,-0.0598,0.022000000000000002,0.05260000000000001],[0.0424,-0.09260000000000002,-0.15300000000000002,-0.0114,-0.1696,0.09160000000000001,-0.1602,-0.13899999999999998,-0.057999999999999996,0.038200000000000005,0.0594,-0.004,-0.16620000000000001,0.1038,-0.15760000000000002,-0.0068000000000000005,-0.1502,0.0874,0.019000000000000003,0.0574,0.0984,-0.1262,-0.09060000000000001,0.0748,-0.1724],[-0.1898,-0.12380000000000001,0.1632,-0.1442,0.0756,0.11120000000000002,-0.16140000000000002,0.040600000000000004,0.101,-0.1928,0.1452,0.15940000000000001,0.0852,0.121,-0.042800000000000005,0.031400000000000004,-0.19720000000000001,-0.0578,-0.0942,-0.0018,0.129,0.08940000000000001,-0.1252,-0.1462,-0.006200000000000001],[0.0484,0.0252,0.16040000000000001,0.0818,-0.0198,-0.1664,0.0734,-0.09200000000000001,-0.004200000000000001,-0.06520000000000001,0.1564,0.055400000000000005,-0.0114,-0.1406,0.0488,0.0874,0.06580000000000001,-0.0884,-0.18400000000000002,0.0728,0.12140000000000001,-0.1718,0.0164,0.15280000000000002,-0.12],[-0.018,-0.007000000000000001,0.023400000000000004,-0.10220000000000001,0.1664,0.0044,0.0666,-0.0466,-0.1358,0.09160000000000001,-0.0198,0.046400000000000004,-0.12480000000000001,0.085,-0.1946,0.061,-0.0048000000000000004,-0.19740000000000002,-0.0726,-0.1642,0.1038,0.0782,0.05460000000000001,0.1442,-0.0068000000000000005],[0.018,0.0332,-0.1328,0.0058000000000000005,0.1252,0.1154,-0.0216,0.022600000000000002,-0.1156,-0.0182,-0.1236,0.17880000000000001,-0.025400000000000002,-0.10740000000000001,-0.1516,0.10980000000000001,-0.1688,0.0594,0.18720000000000003,0.1458,0.0364,-0.1196,0.06380000000000001,-0.043000000000000003,-0.1642],[0.19940000000000002,-0.17120000000000002,-0.1952,0.0426,0.13160000000000002,-0.004,-0.1384,-0.1484,0.19740000000000002,-0.16920000000000002,0.05600000000000001,0.10600000000000001,0.144,-0.039400000000000004,-0.1368,0.1636,0.006600000000000001,0.1854,0.0944,0.0012000000000000001,0.13,-0.026400000000000003,-0.028000000000000004,0.1206,-0.0664],[0.05560000000000001,0.1776,-0.0912,0.13460000000000003,0.0074,0.08000000000000002,0.15760000000000002,0.08020000000000001,0.04020000000000001,0.0352,0.16620000000000001,-0.17980000000000002,-0.13340000000000002,0.0108,-0.046400000000000004,0.10740000000000001,-0.15760000000000002,-0.1414,-0.0898,-0.0078000000000000005,0.0572,0.0118,-0.031,0.1634,-0.118],[0.07700000000000001,0.10500000000000001,-0.0002,-0.16720000000000002,0.037200000000000004,0.1138,0.1902,-0.127,0.15580000000000002,-0.1028,0.1178,-0.0956,0.0576,-0.17700000000000002,0.1178,0.0126,0.0644,0.001,-0.0128,0.1308,-0.1636,-0.10220000000000001,0.0958,-0.0088,-0.0722],[-0.060200000000000004,0.18180000000000002,0.0106,-0.07600000000000001,-0.049800000000000004,0.1474,0.164,0.15600000000000003,0.10560000000000001,-0.054400000000000004,-0.0206,-0.10800000000000001,-0.0974,-0.0694,0.13440000000000002,-0.10400000000000001,-0.05480000000000001,0.11100000000000002,0.1898,0.1526,-0.013600000000000001,-0.13160000000000002,-0.039200000000000006,-0.0294,0.0688],[0.0746,-0.0766,-0.06680000000000001,-0.1358,-0.1694,-0.026600000000000002,-0.0262,0.19640000000000002,-0.13160000000000002,-0.05380000000000001,0.15180000000000002,0.1622,-0.0164,-0.08800000000000001,-0.1164,-0.0002,0.123,-0.0964,-0.040600000000000004,0.1888,-0.12340000000000001,-0.08700000000000001,0.061200000000000004,0.017,0.066],[-0.011000000000000001,0.1456,-0.06520000000000001,-0.1332,-0.0606,0.0912,0.13460000000000003,-0.1138,0.15480000000000002,-0.099,0.1394,-0.0488,0.126,0.0436,-0.1988,0.0424,-0.0298,-0.17020000000000002,0.0026,-0.020000000000000004,0.1154,0.18580000000000002,0.1222,0.1382,0.1932],[0.004200000000000001,0.1448,-0.1448,0.126,0.1502,0.18120000000000003,0.1534,0.1564,-0.0032,-0.0016,0.1834,0.06899999999999999,-0.19140000000000001,0.18280000000000002,0.062,0.1902,-0.15660000000000002,-0.17720000000000002,0.06680000000000001,0.019000000000000003,-0.163,-0.0732,-0.099,0.0292,0.1384],[0.1978,-0.119,0.041800000000000004,0.1674,0.1658,0.0654,0.0514,0.040400000000000005,-0.1018,-0.0946,-0.0482,0.1418,-0.1376,-0.1708,-0.018600000000000002,-0.1282,-0.0954,0.18220000000000003,0.012400000000000001,0.1146,0.0408,-0.15760000000000002,-0.0008,-0.1138,0.1656],[-0.1738,-0.001,-0.1936,-0.1728,-0.122,0.1128,-0.002,-0.1826,-0.12660000000000002,-0.0654,-0.13360000000000002,0.1634,0.08460000000000001,0.0488,-0.1452,0.0822,0.049,-0.1188,0.018,-0.1774,-0.0256,-0.039200000000000006,-0.008400000000000001,0.15460000000000002,0.0492],[-0.06380000000000001,-0.0366,0.18660000000000002,-0.08460000000000001,-0.097,0.009800000000000001,0.014000000000000002,-0.1068,0.0076,-0.1946,0.1986,0.19640000000000002,-0.0184,-0.0282,-0.1938,0.074,0.07780000000000001,-0.11220000000000002,0.166,-0.133,0.10300000000000001,-0.013400000000000002,-0.023000000000000003,-0.0184,0.146],[-0.198,0.189,0.18180000000000002,-0.0494,-0.1526,-0.1138,0.042,0.012,0.027600000000000003,0.132,0.15680000000000002,0.1632,-0.11200000000000002,0.1254,-0.0852,0.1452,0.0614,-0.1544,-0.10880000000000001,0.028000000000000004,-0.1444,0.032400000000000005,-0.0398,0.042,-0.0482],[0.13340000000000002,0.189,-0.03900000000000001,-0.1908,-0.1482,0.0888,0.09040000000000001,-0.1184,0.129,0.1156,0.13240000000000002,-0.0664,0.1452,0.0172,0.008,0.0632,-0.1534,-0.0442,0.15800000000000003,-0.1484,-0.041,0.08940000000000001,0.1628,0.10760000000000002,-0.1728]],[[-0.0446,-0.12040000000000001,-0.0466,0.09240000000000001,0.1658,-0.133,0.10320000000000001,0.10700000000000001,-0.1784,0.08940000000000001,0.0122,-0.0716,0.08020000000000001,0.15500000000000003,-0.048600000000000004,0.1778,-0.0948,0.032600000000000004,-0.1176,-0.1298,-0.15480000000000002,0.0912,0.1398,0.11020000000000002,0.09960000000000001],[0.045200000000000004,0.1922,0.1786,0.0034000000000000002,-0.1144,0.06480000000000001,0.0026,-0.1192,0.0086,0.13,0.10760000000000002,0.16240000000000002,-0.073,0.0932,0.032,-0.16180000000000003,-0.027200000000000002,-0.0722,-0.08760000000000001,0.05380000000000001,-0.0008,0.15760000000000002,0.1926,0.13360000000000002,0.199],[0.1564,-0.1938,-0.1786,-0.1516,0.0286,0.13520000000000001,-0.06420000000000001,0.0426,0.1182,0.019200000000000002,-0.10020000000000001,0.05480000000000001,-0.13560000000000003,0.1454,0.0746,-0.1058,0.1988,-0.10600000000000001,-0.0212,0.10980000000000001,-0.062400000000000004,-0.0444,0.03,0.067,0.1392],[-0.10980000000000001,0.1724,-0.1164,0.0614,-0.0414,-0.1574,0.0228,-0.0228,-0.18400000000000002,0.11020000000000002,-0.1024,0.13720000000000002,-0.068,-0.1796,0.13899999999999998,-0.031400000000000004,-0.11359999999999999,0.1402,0.1388,0.1648,-0.0078000000000000005,0.1428,0.121,0.1864,0.0752],[-0.032600000000000004,0.0454,-0.17400000000000002,-0.07500000000000001,-0.0182,0.17020000000000002,-0.1144,-0.019600000000000003,-0.0426,-0.060200000000000004,0.1202,-0.1884,0.0446,-0.10460000000000001,-0.0694,-0.040600000000000004,-0.06999999999999999,-0.05580000000000001,-0.03,-0.1228,-0.1014,-0.17980000000000002,0.0072,0.15380000000000002,0.1886],[-0.05580000000000001,-0.0472,-0.005600000000000001,0.1278,-0.10640000000000001,-0.005000000000000001,-0.016,0.0246,0.027200000000000002,-0.1754,-0.19440000000000002,0.0088,-0.0706,0.0074,-0.0722,-0.1378,0.014199999999999999,0.10760000000000002,0.0514,-0.1932,0.005600000000000001,0.013400000000000002,-0.1492,-0.1392,-0.1916],[-0.0222,0.1302,0.0492,-0.1292,-0.0322,0.0978,-0.053000000000000005,0.1824,0.10560000000000001,0.044000000000000004,0.08020000000000001,-0.04580000000000001,-0.032400000000000005,-0.1726,-0.0238,0.034999999999999996,0.1882,-0.13899999999999998,0.1282,0.1542,-0.192,0.15100000000000002,-0.049,0.0052,-0.10820000000000002],[-0.1424,0.1634,0.1328,-0.1242,0.10940000000000001,-0.09100000000000001,-0.15300000000000002,0.0696,-0.0482,-0.1522,0.1198,-0.09360000000000002,-0.056999999999999995,-0.0588,0.12480000000000001,0.1048,-0.18200000000000002,0.1928,0.0618,0.16060000000000002,-0.1698,0.13460000000000003,0.1068,-0.15700000000000003,-0.061],[0.026800000000000004,0.03900000000000001,-0.0008,0.014000000000000002,-0.08660000000000001,-0.027600000000000003,-0.0716,-0.0366,-0.195,-0.1758,-0.137,0.08860000000000001,0.19540000000000002,-0.012,0.0368,0.08040000000000001,-0.052000000000000005,-0.0892,-0.167,-0.10300000000000001,0.009,0.1998,-0.0386,0.1252,-0.09260000000000002],[-0.08600000000000001,-0.0758,0.010000000000000002,-0.0712,0.13340000000000002,-0.14780000000000001,-0.0534,0.013400000000000002,0.18620000000000003,0.0478,0.10600000000000001,0.1222,0.0514,0.0082,0.08080000000000001,0.1726,0.0932,0.1388,0.06420000000000001,0.0728,-0.0842,-0.1524,-0.062,0.13060000000000002,-0.09040000000000001],[0.18400000000000002,-0.05480000000000001,-0.0502,-0.019000000000000003,0.0918,0.0256,-0.027400000000000004,-0.0692,0.1302,0.054000000000000006,0.0212,0.1922,0.1694,0.038200000000000005,0.1484,-0.06620000000000001,-0.0796,-0.1456,0.15200000000000002,-0.07680000000000001,-0.101,0.1444,0.08040000000000001,-0.0204,-0.0026],[-0.012400000000000001,-0.0022,-0.19920000000000002,0.08560000000000001,-0.07680000000000001,0.0236,-0.0742,0.0692,0.17980000000000002,0.0706,-0.050800000000000005,0.1714,0.1986,-0.1004,0.0262,0.19740000000000002,0.1426,-0.09720000000000001,0.09340000000000001,0.048,-0.05620000000000001,-0.17220000000000002,-0.0396,-0.1184,0.0414],[0.1152,0.043000000000000003,-0.1942,-0.10960000000000002,-0.1976,0.15380000000000002,0.1308,0.054200000000000005,-0.1744,-0.1612,-0.1184,0.197,-0.147,0.13540000000000002,-0.0978,-0.13340000000000002,0.022400000000000003,-0.0604,-0.1704,0.1696,-0.034,0.05280000000000001,-0.0608,0.1186,0.1146],[0.13520000000000001,0.12440000000000001,0.1198,-0.1418,0.1946,0.0974,-0.1938,-0.044000000000000004,-0.039200000000000006,-0.18000000000000002,0.036,0.1466,0.0076,0.06899999999999999,-0.0892,-0.165,0.016200000000000003,-0.025400000000000002,0.0806,0.1128,0.0728,0.171,-0.1874,-0.0482,-0.0318],[-0.0064,0.0474,0.194,-0.009800000000000001,-0.09140000000000001,-0.0036,0.1198,-0.1416,0.1942,0.047,-0.1198,-0.1462,0.0208,0.1184,-0.1358,-0.1264,-0.0814,0.136,-0.11180000000000001,0.033400000000000006,0.1342,0.0018,0.1158,-0.064,-0.12480000000000001],[0.15860000000000002,0.1216,-0.0722,0.1158,0.0616,0.055400000000000005,0.16100000000000003,-0.1946,-0.0892,0.10560000000000001,-0.1908,0.0626,0.1196,0.021400000000000002,-0.171,0.1274,0.0316,-0.1164,-0.126,-0.08960000000000001,-0.10800000000000001,-0.137,0.05480000000000001,-0.1962,-0.15100000000000002],[0.04580000000000001,0.05600000000000001,-0.1388,-0.1048,-0.12,-0.0738,0.118,0.1534,-0.0994,-0.0068000000000000005,0.0522,-0.10520000000000002,-0.0466,-0.0724,-0.15860000000000002,0.0434,0.10540000000000001,-0.054000000000000006,-0.1738,-0.037,0.0694,-0.0584,-0.15580000000000002,-0.0482,-0.1462],[-0.17220000000000002,0.09000000000000001,-0.0576,-0.0474,0.1656,-0.044000000000000004,0.0476,-0.0246,0.08660000000000001,0.09280000000000001,0.1686,0.084,-0.0712,-0.09300000000000001,0.18660000000000002,-0.1004,0.1706,0.11100000000000002,0.1134,0.1854,0.04000000000000001,0.0456,0.0046,-0.16100000000000003,-0.1698],[0.048600000000000004,0.1882,0.11140000000000001,-0.10160000000000001,-0.0826,0.096,-0.1152,0.062,-0.16060000000000002,0.17220000000000002,-0.0884,0.1148,0.0242,0.08800000000000001,-0.0688,-0.0884,-0.13660000000000003,0.15660000000000002,-0.026400000000000003,-0.1646,-0.048,0.19440000000000002,0.043800000000000006,-0.12,-0.1318],[-0.1178,-0.10260000000000001,-0.0476,-0.10160000000000001,0.1396,0.038400000000000004,-0.024,0.0988,0.0344,0.17120000000000002,0.1864,0.1738,0.062400000000000004,0.0286,0.13260000000000002,-0.08700000000000001,0.1516,0.134,0.05360000000000001,-0.17,0.08020000000000001,0.1434,0.1744,-0.060200000000000004,0.10520000000000002],[0.18280000000000002,0.05580000000000001,-0.1876,-0.18580000000000002,0.15680000000000002,-0.10640000000000001,-0.1164,-0.019200000000000002,-0.0318,0.11259999999999999,-0.06580000000000001,-0.17920000000000003,-0.022400000000000003,-0.1258,0.0908,-0.11160000000000002,-0.050800000000000005,0.019000000000000003,0.1018,-0.1864,0.1332,0.1976,0.1438,0.12380000000000001,0.0344],[-0.164,-0.1836,0.07440000000000001,0.1274,0.0684,0.011000000000000001,0.163,0.1494,-0.032400000000000005,0.1146,0.1168,0.0304,0.0604,-0.037200000000000004,-0.0434,-0.1252,0.050800000000000005,0.0408,0.061,0.0932,0.0158,0.0756,0.0396,-0.127,0.1146],[-0.0374,0.1824,-0.0492,0.064,-0.019000000000000003,-0.0026,-0.07940000000000001,-0.1408,0.13460000000000003,0.0322,0.11120000000000002,-0.191,-0.06520000000000001,-0.0738,0.0296,0.13460000000000003,-0.0364,-0.1814,-0.141,0.0094,-0.0732,-0.0218,0.1726,0.1696,0.1522],[-0.16080000000000003,0.06680000000000001,0.11359999999999999,0.10900000000000001,0.0022,-0.1952,0.0358,-0.022600000000000002,-0.0618,-0.0344,-0.020200000000000003,0.036,0.1308,-0.0932,0.0484,-0.136,-0.0368,0.055200000000000006,-0.0796,-0.019600000000000003,-0.0378,0.15800000000000003,0.074,0.10120000000000001,0.18220000000000003],[0.05480000000000001,0.06420000000000001,0.038200000000000005,-0.0228,-0.0246,-0.09140000000000001,0.028999999999999998,0.149,-0.09060000000000001,0.12380000000000001,-0.0206,-0.12840000000000001,0.10300000000000001,0.1132,0.1966,-0.0256,0.15000000000000002,-0.0758,0.0796,-0.015600000000000001,0.191,0.046200000000000005,0.1696,0.1394,-0.136]],[[0.1904,0.10940000000000001,-0.019000000000000003,0.0822,-0.0088,-0.10920000000000002,-0.1634,0.199,-0.08700000000000001,-0.0708,0.09820000000000001,0.18300000000000002,-0.050800000000000005,-0.19,-0.1408,-0.020000000000000004,-0.039200000000000006,-0.03900000000000001,-0.07940000000000001,-0.0022,-0.18180000000000002,0.1912,-0.07840000000000001,0.0366,-0.0216],[0.17920000000000003,-0.0374,0.10260000000000001,-0.15360000000000001,-0.192,-0.18280000000000002,0.1996,-0.1,-0.18580000000000002,-0.1232,0.06380000000000001,-0.033800000000000004,-0.1906,-0.18320000000000003,-0.0824,0.10980000000000001,-0.10940000000000001,0.10260000000000001,0.15660000000000002,0.0946,0.1236,0.0494,-0.06899999999999999,-0.09280000000000001,-0.0456],[-0.1714,-0.09720000000000001,0.0966,0.13899999999999998,-0.1922,-0.020200000000000003,-0.0726,0.18720000000000003,-0.0492,-0.11240000000000001,0.0318,0.10880000000000001,0.13560000000000003,0.1438,0.062,-0.18680000000000002,-0.098,-0.044000000000000004,-0.15400000000000003,-0.1044,-0.14780000000000001,-0.0286,0.067,-0.0576,-0.0786],[-0.0534,0.12480000000000001,0.13899999999999998,0.1826,0.1338,-0.1758,0.1468,0.18660000000000002,-0.10960000000000002,0.0566,-0.1806,-0.169,0.0818,0.0476,-0.1678,-0.1688,0.1394,0.0594,0.028999999999999998,0.0086,-0.18400000000000002,-0.17420000000000002,-0.19540000000000002,0.0654,0.119],[0.098,0.1562,-0.1698,-0.10260000000000001,0.0576,-0.0044,-0.08000000000000002,0.15960000000000002,0.1272,-0.019600000000000003,-0.0796,-0.025400000000000002,0.18120000000000003,-0.1738,-0.025400000000000002,0.1168,0.0022,0.1422,0.19240000000000002,-0.11160000000000002,-0.1716,-0.03,0.18380000000000002,-0.065,-0.15960000000000002],[0.135,-0.0082,0.0708,-0.0296,0.0674,0.1348,0.05500000000000001,-0.1274,-0.1492,-0.0714,-0.1904,-0.1796,0.1462,0.0644,-0.045000000000000005,0.1794,-0.0416,0.18400000000000002,-0.06,0.11499999999999999,-0.043800000000000006,-0.1302,-0.016,0.0852,0.11259999999999999],[0.133,-0.06620000000000001,-0.07940000000000001,-0.06720000000000001,-0.0716,0.0092,0.023000000000000003,-0.10160000000000001,-0.044800000000000006,0.0252,-0.0918,0.0898,-0.017,-0.060200000000000004,0.046400000000000004,-0.1834,0.011000000000000001,0.1142,-0.0482,0.06280000000000001,-0.0064,-0.0946,-0.0868,-0.169,0.1216],[0.012,0.1416,-0.0608,-0.1718,-0.0454,-0.0708,-0.0076,0.17200000000000001,-0.10600000000000001,-0.13899999999999998,0.0586,0.16240000000000002,-0.0412,0.1928,0.0002,0.1282,-0.1746,-0.1882,-0.1794,0.118,0.004,-0.0494,-0.0868,-0.13899999999999998,-0.1906],[0.1158,0.12240000000000001,0.1916,-0.0208,0.1432,-0.1458,-0.15680000000000002,-0.1876,0.0684,0.007000000000000001,-0.1658,-0.019000000000000003,0.1376,-0.032,0.0126,-0.0292,-0.0826,-0.127,-0.0728,0.027400000000000004,0.0626,-0.0262,-0.13340000000000002,0.12840000000000001,-0.1194],[-0.1882,0.13560000000000003,-0.13520000000000001,-0.1218,-0.10320000000000001,-0.18720000000000003,-0.0792,0.0712,0.15680000000000002,0.1462,-0.11599999999999999,0.0884,0.10920000000000002,0.10200000000000001,0.1218,-0.03,0.0416,0.15480000000000002,0.10060000000000001,-0.07640000000000001,-0.0344,0.009800000000000001,0.0038,-0.06,-0.0154],[-0.188,0.049600000000000005,0.12,0.1904,0.0832,0.15880000000000002,0.062400000000000004,-0.053200000000000004,-0.15380000000000002,-0.15860000000000002,0.1746,-0.15560000000000002,0.05560000000000001,0.14980000000000002,0.017,-0.1988,-0.1272,0.18480000000000002,-0.066,0.0362,-0.1222,0.0938,-0.0908,-0.0646,0.1834],[-0.021,-0.1952,-0.0346,0.0426,-0.1444,-0.07680000000000001,0.1418,-0.0952,0.0002,-0.05,0.0688,-0.18300000000000002,-0.18120000000000003,0.1686,-0.015,-0.0958,-0.0608,0.1422,0.013200000000000002,0.043800000000000006,-0.0852,-0.039200000000000006,0.023000000000000003,0.050800000000000005,0],[0.17600000000000002,-0.0998,0.0466,-0.0772,-0.0482,-0.12,0.05580000000000001,0.0376,-0.0348,0.1912,0.164,-0.197,0.098,0.13720000000000002,0.019600000000000003,0.1424,-0.1156,-0.062,0.0144,0.041800000000000004,0.1814,-0.0228,-0.0024000000000000002,0.09160000000000001,-0.13540000000000002],[0.1884,-0.15600000000000003,-0.0574,0.12660000000000002,-0.0054,0.119,-0.066,-0.1816,0.08100000000000002,-0.0944,0.040600000000000004,0.1636,-0.0072,0.0102,0.0796,0.064,0.0068000000000000005,-0.19740000000000002,0.0634,-0.1888,-0.1814,-0.1888,0.1154,0.15280000000000002,0.1432],[-0.09920000000000001,-0.09360000000000002,-0.08120000000000001,0.06760000000000001,-0.1668,0.0308,0.168,0.07840000000000001,-0.03,-0.064,0.0718,-0.1274,0.0696,-0.1312,-0.1726,0.067,0.046200000000000005,0.0354,-0.0806,-0.041800000000000004,0.1404,-0.10020000000000001,0.135,-0.1144,-0.020200000000000003],[0.0882,0.054000000000000006,0.1156,0.1154,0.1184,0.0262,-0.15900000000000003,-0.17820000000000003,-0.0522,-0.17600000000000002,-0.1912,0.0344,0.0014000000000000002,-0.0148,-0.048600000000000004,-0.1258,-0.0874,-0.023400000000000004,0.0872,0.0864,0.0058000000000000005,-0.021,-0.1404,-0.10460000000000001,-0.0592],[0.1426,0.08960000000000001,0.0412,0.0884,0.0956,0.1524,0.0604,-0.09200000000000001,-0.13660000000000003,-0.1718,0.1144,0.0844,-0.0786,-0.1278,-0.0824,-0.006,0.0348,-0.0422,0.1628,-0.0752,0.0494,0.038200000000000005,0.16920000000000002,-0.1804,-0.07880000000000001],[-0.1622,-0.13060000000000002,0.0118,0.0712,0.0746,-0.1644,0.0666,-0.07780000000000001,0.045000000000000005,-0.18100000000000002,-0.0212,-0.0604,0.041800000000000004,-0.1236,-0.15200000000000002,0.0502,-0.0466,0.1626,0.025800000000000003,-0.1342,-0.1406,-0.1514,-0.13040000000000002,-0.043800000000000006,-0.166],[-0.032400000000000005,0.15400000000000003,0.17700000000000002,-0.003,-0.0874,0.040400000000000005,-0.0104,0.10720000000000002,-0.095,0.10540000000000001,-0.07440000000000001,0.1932,0.17900000000000002,-0.0758,0.037,0.18480000000000002,0.046400000000000004,-0.1404,0.16140000000000002,0.1194,-0.1976,0.0814,0.10220000000000001,-0.0246,-0.11220000000000002],[0.0728,-0.1028,0.032600000000000004,-0.15360000000000001,-0.0806,-0.0514,0.0878,-0.10300000000000001,-0.11299999999999999,-0.0942,0.07980000000000001,-0.026000000000000002,0.051000000000000004,-0.0354,0,0.12140000000000001,0.10360000000000001,0.0154,0.1814,0.07500000000000001,-0.05620000000000001,0.12340000000000001,-0.0122,0.16060000000000002,0.1652],[0.0092,-0.0818,0.0592,-0.197,-0.0584,-0.063,-0.07640000000000001,-0.10300000000000001,-0.051800000000000006,-0.16100000000000003,0.013000000000000001,0.097,-0.134,-0.026400000000000003,0.1162,-0.0722,0.07800000000000001,0.18620000000000003,0.19140000000000001,-0.17220000000000002,0.19740000000000002,0.0824,-0.16180000000000003,-0.1884,-0.0712],[-0.122,0.1768,0.1412,0.0368,0.1164,-0.09920000000000001,-0.038000000000000006,0.0106,-0.0956,0.15900000000000003,0.0102,0.1626,0.1758,0.11100000000000002,-0.1298,0.06720000000000001,0.1024,0.1412,0.15180000000000002,0.1844,0.085,0.0692,0.09280000000000001,-0.0998,0.0104],[0.0158,-0.1686,0.0454,0.15560000000000002,-0.0052,0.16180000000000003,-0.0584,-0.0816,-0.1724,0.1714,-0.006200000000000001,-0.0054,-0.13660000000000003,0.1442,-0.0188,-0.0512,-0.1738,0.1522,0.0454,-0.10220000000000001,0.1668,-0.1228,-0.025,-0.1466,-0.1376],[-0.18000000000000002,0.18000000000000002,0.1152,-0.1148,-0.1986,0.10760000000000002,0.016200000000000003,0.1892,-0.0032,-0.1416,0.1962,0.08100000000000002,-0.1824,-0.0292,-0.16720000000000002,0.1254,-0.13640000000000002,-0.0702,-0.0354,-0.11000000000000001,-0.082,-0.0048000000000000004,-0.119,-0.1768,-0.068],[0.12380000000000001,-0.1476,-0.022000000000000002,-0.0974,0.0656,-0.0178,-0.1388,-0.1646,0.0376,-0.028999999999999998,0.013200000000000002,0.1916,-0.11140000000000001,0.022400000000000003,-0.1504,0.0188,0.1514,-0.0304,0.125,-0.07540000000000001,-0.1514,0.0738,-0.1778,-0.0814,-0.11060000000000002]],[[0.0494,0.1318,0.15980000000000003,-0.07680000000000001,-0.0854,-0.0632,-0.1162,0.030600000000000002,0.1154,0.0878,0.0074,0.0814,0.0838,0.1348,0.05280000000000001,-0.033600000000000005,0.0238,0.15760000000000002,0.1764,0.0422,0.08700000000000001,-0.0366,0.07540000000000001,0.0582,-0.0822],[-0.1378,-0.0598,0.09300000000000001,-0.10860000000000002,0.05,-0.1404,0.1414,-0.064,0.1642,0.0198,-0.10860000000000002,-0.1184,-0.19540000000000002,0.0828,0.054000000000000006,-0.0524,0.18680000000000002,-0.065,0.0712,-0.024800000000000003,0.17900000000000002,-0.0654,-0.040400000000000005,-0.1654,-0.122],[-0.0478,0.043800000000000006,0.0048000000000000004,-0.017,-0.09920000000000001,0.0446,-0.051800000000000006,-0.0012000000000000001,0.008,0.09240000000000001,0.0398,0.0688,0.0872,-0.1544,-0.0032,-0.06780000000000001,-0.0592,0.15680000000000002,-0.07740000000000001,-0.1932,0.0092,0.1628,0.1138,-0.1634,0.15880000000000002],[0.13060000000000002,0.0322,0.06820000000000001,0.0114,-0.0016,0.19820000000000002,-0.023000000000000003,-0.08100000000000002,-0.0734,-0.1454,-0.15500000000000003,-0.007000000000000001,0.1648,-0.0454,-0.04000000000000001,-0.09620000000000001,-0.1236,-0.17920000000000003,0.1228,0.0504,-0.0714,-0.1766,-0.1278,0.10420000000000001,0.1962],[0.12960000000000002,-0.049800000000000004,0.0598,-0.18380000000000002,0.049800000000000004,-0.0604,0.1386,0.0344,0.1664,-0.1554,-0.0146,-0.15660000000000002,0.133,0.10640000000000001,-0.08020000000000001,0.0046,0.0058000000000000005,-0.0092,0.1178,-0.1904,0.1524,0.13260000000000002,-0.1894,-0.0054,-0.031400000000000004],[-0.021,0.0702,-0.1676,-0.1942,0.0786,0.0204,-0.003,0.0888,0.1942,-0.0262,-0.16200000000000003,0.1978,0.054200000000000005,-0.1748,-0.0792,-0.1428,-0.17720000000000002,0.046400000000000004,-0.012400000000000001,0.1382,0.0502,0.14980000000000002,0.1448,-0.1806,0.1476],[0.006,0.0028000000000000004,-0.0666,0.0086,0.0442,-0.1876,0.0582,0.1794,0.07880000000000001,0.198,-0.1926,0.0978,0.1582,0.062,-0.0376,0.0174,0.13999999999999999,-0.0534,-0.1196,0.1976,-0.1844,-0.0026,-0.1626,0.09000000000000001,0.0102],[-0.10220000000000001,0.06999999999999999,0.08120000000000001,-0.06720000000000001,0.1938,0.013400000000000002,-0.0716,-0.004,0.0712,-0.030600000000000002,0.1768,0.0032,-0.1572,0.0164,-0.09360000000000002,-0.1714,-0.149,-0.1674,-0.08960000000000001,0.025,0.0728,-0.0954,-0.0732,0.0348,-0.06780000000000001],[-0.15880000000000002,0.1216,-0.0046,0.166,-0.18500000000000003,-0.0984,-0.1584,-0.1322,-0.0472,0.0724,-0.135,-0.1544,-0.011000000000000001,-0.0706,0.1696,0.094,0.0146,-0.1378,-0.1888,-0.1744,0.125,-0.15100000000000002,0.164,-0.0734,0.1492],[0.041800000000000004,-0.1378,-0.0632,-0.1512,-0.0976,0.1748,0.0742,-0.0002,0.10120000000000001,0.10700000000000001,-0.033600000000000005,-0.0766,0.0068000000000000005,-0.0434,0.050800000000000005,0.16160000000000002,-0.17800000000000002,-0.16720000000000002,0.16000000000000003,0.055200000000000006,0.1948,0.16140000000000002,-0.0218,-0.014000000000000002,0.05360000000000001],[0.1186,-0.0844,0.1876,0.0666,0.1534,-0.0344,0.059,-0.0594,0.0342,0.12960000000000002,-0.056999999999999995,-0.15780000000000002,0.147,0.049600000000000005,-0.10540000000000001,0.1794,-0.0578,-0.15360000000000001,-0.16040000000000001,0.025,0.15800000000000003,-0.188,-0.061,-0.0378,0.11000000000000001],[0.13260000000000002,-0.0634,0.169,-0.11140000000000001,0.17720000000000002,-0.05380000000000001,0.1582,0.0838,0.07680000000000001,-0.1824,-0.1666,-0.041800000000000004,0.073,0.1756,0.09040000000000001,0.14980000000000002,-0.17820000000000003,0.124,0.0036,-0.0178,-0.08000000000000002,0.1746,-0.0674,0.07800000000000001,0.125],[0.1674,-0.0824,-0.045200000000000004,0.1394,-0.1544,0.056799999999999996,0.14880000000000002,0.15580000000000002,-0.0018,0.1718,0.1602,0.097,-0.15580000000000002,-0.1844,0.0344,0.10920000000000002,-0.066,0.18300000000000002,-0.054400000000000004,-0.014199999999999999,0.044800000000000006,-0.191,0.010000000000000002,-0.1174,0.13899999999999998],[-0.1696,-0.061,0.0408,-0.05260000000000001,0.1252,0.09200000000000001,0.1678,-0.1206,0.0842,0.1148,-0.04020000000000001,-0.047,-0.098,0.1726,0.0514,-0.024800000000000003,0.08360000000000001,0.0878,0.056799999999999996,-0.17220000000000002,-0.012400000000000001,0.1128,-0.1208,-0.18120000000000003,-0.11140000000000001],[-0.137,0.18180000000000002,-0.1816,0.143,0.1142,-0.10400000000000001,-0.037,-0.050800000000000005,-0.18500000000000003,0.1512,0.1886,-0.0702,0.0358,-0.023200000000000002,-0.15580000000000002,0.0592,0.12760000000000002,0.0614,0.12,-0.016800000000000002,0.0608,-0.11240000000000001,-0.0144,-0.1894,-0.132],[0.0834,0.15380000000000002,0.1208,-0.031400000000000004,0.1388,0.1574,-0.10660000000000001,-0.094,0.1932,0.018600000000000002,-0.0608,-0.18660000000000002,0.123,0.18420000000000003,-0.18500000000000003,0.0188,0.059,-0.149,-0.1948,-0.08100000000000002,-0.0874,0.1524,-0.0994,-0.0578,0.0446],[0.0746,-0.05480000000000001,-0.0968,-0.15960000000000002,-0.038400000000000004,0.121,-0.189,-0.0152,0.193,-0.1236,-0.143,-0.1368,-0.13799999999999998,0.17320000000000002,-0.021400000000000002,-0.1446,-0.0584,-0.034999999999999996,-0.0028000000000000004,0.09140000000000001,-0.1014,0.1676,0.15760000000000002,0.0858,0.0102],[-0.0822,0.10020000000000001,0.08360000000000001,0.1886,-0.026600000000000002,0.0738,-0.0964,-0.15960000000000002,-0.1774,0.1882,0.1252,0.0038,-0.05160000000000001,-0.1794,-0.10560000000000001,0.08940000000000001,-0.028000000000000004,0.0206,-0.149,0.021,-0.0054,-0.072,0.05360000000000001,-0.1526,-0.0888],[-0.0434,-0.12960000000000002,0.1978,-0.0064,-0.022400000000000003,-0.10320000000000001,-0.0064,-0.041,-0.1348,0.038200000000000005,-0.1386,0.18220000000000003,0.0474,0.1438,0.1716,0.1494,-0.0954,-0.16240000000000002,-0.1936,0.19920000000000002,0.0782,0.1652,-0.1278,0.189,-0.0316],[-0.0618,-0.0908,-0.085,-0.13899999999999998,-0.1212,-0.17920000000000003,-0.0146,0.195,0.1958,0.026400000000000003,0.028399999999999998,0.033,-0.0026,-0.0586,0.1978,0.09040000000000001,0.198,0.0594,-0.0792,0.12860000000000002,-0.0578,0.056799999999999996,-0.039400000000000004,0.10940000000000001,0.099],[0.0958,0.0108,0.0182,0.1824,0.0244,0.0712,-0.10900000000000001,-0.128,-0.17120000000000002,0.17120000000000002,0.027000000000000003,-0.0822,-0.061200000000000004,-0.15680000000000002,-0.11100000000000002,-0.11180000000000001,-0.10880000000000001,-0.13620000000000002,0.0228,0.0632,-0.12,-0.0974,-0.11599999999999999,-0.026600000000000002,-0.1938],[-0.0474,-0.05620000000000001,-0.0818,-0.0104,0.1188,0.1322,-0.1864,-0.0998,-0.197,-0.0016,-0.0252,0.1302,0.0228,0.10400000000000001,-0.04680000000000001,0.0632,-0.127,0.045000000000000005,0.08120000000000001,0.03900000000000001,-0.0494,0.039400000000000004,-0.1458,-0.0756,0.038400000000000004],[-0.050800000000000005,0.10800000000000001,-0.13340000000000002,-0.025,0.1696,-0.0322,-0.07940000000000001,-0.15380000000000002,-0.0052,-0.0228,0.07640000000000001,-0.13160000000000002,-0.044000000000000004,0.0212,0.12560000000000002,0.1902,-0.027200000000000002,0.0072,0.0756,-0.055200000000000006,0.0586,0.12840000000000001,-0.0828,-0.0828,0.0454],[-0.040600000000000004,-0.18300000000000002,0.1572,0.1888,0.11599999999999999,0.17620000000000002,0.015600000000000001,-0.17820000000000003,-0.1188,0.1978,-0.1634,0.1,0.0884,0.1236,-0.019200000000000002,-0.1154,-0.099,-0.07880000000000001,0.13160000000000002,0.0634,0.11299999999999999,-0.149,0.1424,0.0748,0.10660000000000001],[0.18200000000000002,-0.1152,0.0862,0.1698,-0.09160000000000001,0.0522,-0.048600000000000004,0.0572,-0.0346,-0.006200000000000001,-0.0222,-0.1622,0.1258,0.19640000000000002,0.15760000000000002,0.1154,0.0208,0.19440000000000002,-0.11020000000000002,-0.0158,-0.0952,-0.0588,0.15900000000000003,0.0692,-0.10620000000000002]],[[-0.11120000000000002,-0.0108,-0.064,-0.09360000000000002,-0.025400000000000002,0.0942,-0.1786,0.1302,-0.132,-0.027000000000000003,-0.1908,0.1584,0.0236,0.0444,0.15860000000000002,0.1208,0.12140000000000001,-0.0566,-0.1612,0.1184,-0.09060000000000001,0,0.13240000000000002,-0.10320000000000001,-0.042800000000000005],[-0.07800000000000001,0.0238,0.032400000000000005,0.18460000000000001,0.025800000000000003,0.18020000000000003,0.09920000000000001,-0.1254,-0.18180000000000002,-0.1078,0.10960000000000002,0.1392,-0.1698,0.15460000000000002,-0.031,0.0698,0.049600000000000005,0.1674,-0.18720000000000003,0.050600000000000006,0.1654,-0.008,-0.1422,-0.07640000000000001,-0.0122],[-0.07700000000000001,0.0318,-0.197,0.1456,-0.0034000000000000002,-0.18180000000000002,0.054000000000000006,-0.12480000000000001,0.0288,-0.0144,0.006,-0.0426,-0.143,0.062,-0.0948,-0.1764,0.169,0.12940000000000002,-0.028999999999999998,0.1404,0.18660000000000002,-0.11080000000000001,-0.0228,0.18380000000000002,-0.0432],[-0.0782,0.048600000000000004,-0.046400000000000004,-0.1194,0.0244,-0.023400000000000004,-0.0442,-0.19820000000000002,-0.009600000000000001,-0.064,-0.0872,0.1766,-0.06520000000000001,-0.062400000000000004,-0.13060000000000002,0.026600000000000002,0.042,0.0456,0.1376,0.032,-0.1148,-0.0838,-0.0722,0.049800000000000004,0.1434],[0.1292,0.1176,-0.0796,-0.18280000000000002,0.1622,0.1918,-0.1486,0.0726,-0.06420000000000001,-0.06520000000000001,-0.17920000000000003,-0.08020000000000001,-0.08600000000000001,-0.12960000000000002,0.15980000000000003,-0.0166,0.1688,0.04020000000000001,-0.1432,0.19920000000000002,0.10500000000000001,0.1188,-0.1202,-0.17620000000000002,-0.1826],[0.05160000000000001,0.1222,0.137,0.0976,-0.002,-0.1968,0.15300000000000002,0.15300000000000002,0.1778,-0.10840000000000001,-0.0308,-0.195,0.18600000000000003,-0.17020000000000002,0.0466,0.1164,-0.0178,-0.09300000000000001,0.129,0.039400000000000004,0.0166,0.013800000000000002,0.0422,-0.1902,-0.17200000000000001],[0.1916,0.0386,0.009600000000000001,-0.0414,0.0716,0.09360000000000002,-0.1398,-0.0614,-0.13999999999999999,0.08860000000000001,0.1198,0.0444,-0.026800000000000004,0.13660000000000003,-0.062400000000000004,-0.022400000000000003,0.1774,0.0012000000000000001,-0.18300000000000002,-0.11240000000000001,0.009800000000000001,-0.1894,0.05380000000000001,-0.15080000000000002,-0.168],[-0.17820000000000003,0.062400000000000004,0.11000000000000001,-0.15940000000000001,0.0874,-0.0006000000000000001,0.0146,0.026000000000000002,-0.011000000000000001,0.1442,0.0088,0.1132,0.1716,0.0634,0.042800000000000005,-0.072,0.0714,-0.0154,0.025400000000000002,0.026000000000000002,-0.1906,0.013000000000000001,-0.0632,-0.10960000000000002,0.0958],[0.022600000000000002,0.039400000000000004,-0.0298,0.0012000000000000001,-0.0912,0.1778,-0.142,0.189,0.08860000000000001,0.1694,0.07700000000000001,-0.0054,0.0898,0.0606,-0.0288,0.0828,-0.0292,0.1686,0.12940000000000002,-0.009600000000000001,-0.0034000000000000002,0.0456,-0.08860000000000001,-0.09300000000000001,0.0888],[0.0436,-0.039400000000000004,-0.09340000000000001,0.0432,0.11699999999999999,-0.0282,0.1564,-0.101,0.10660000000000001,0.13340000000000002,0.10860000000000002,0.15560000000000002,0.07880000000000001,-0.1158,0.0034000000000000002,-0.18580000000000002,-0.018600000000000002,-0.1312,-0.1706,0.028399999999999998,0.1876,0.0342,0.1128,-0.11200000000000002,0.0172],[0.1724,-0.11240000000000001,0.195,0.1896,-0.0958,0.0242,-0.0198,0.1656,0.1854,0.1922,-0.125,0.016,0.1198,-0.1724,-0.084,-0.038400000000000004,0.15500000000000003,0.1658,0.1716,0.11140000000000001,0.1572,-0.17,0.0178,0.1282,0.15180000000000002],[0.1448,0.0172,-0.1768,-0.0736,0.1704,0.098,-0.028399999999999998,-0.17200000000000001,0.1544,-0.05460000000000001,0.0174,0.19840000000000002,-0.0524,-0.1192,0.051000000000000004,-0.0884,0.18600000000000003,-0.1152,-0.0108,-0.071,0.0368,0.15600000000000003,0.15500000000000003,-0.13140000000000002,-0.0386],[0.132,-0.12480000000000001,-0.0958,0.10600000000000001,0.0184,0.16720000000000002,-0.0238,0.0238,-0.12240000000000001,-0.1996,-0.1396,0.037200000000000004,0.0004,0.0694,0.0632,0.033,-0.09100000000000001,-0.10740000000000001,-0.019600000000000003,0.06280000000000001,0.0606,0.1854,-0.05360000000000001,0.1236,0.1864],[-0.034999999999999996,-0.11140000000000001,0.0434,0.1292,-0.025,-0.17800000000000002,0.0396,-0.1278,-0.1592,-0.0722,-0.1024,0.1966,-0.16140000000000002,0.14980000000000002,-0.10460000000000001,-0.17220000000000002,-0.1446,-0.0252,-0.08040000000000001,0.0422,0.021,-0.1744,0.040600000000000004,0.013800000000000002,-0.06280000000000001],[-0.1844,-0.047,0.046000000000000006,-0.1278,-0.0332,0.101,0.05620000000000001,0.10460000000000001,0.0626,-0.0874,-0.1452,0.1544,-0.014000000000000002,0.10200000000000001,0.11000000000000001,0.10600000000000001,-0.018600000000000002,-0.19840000000000002,0.16000000000000003,-0.1482,-0.0206,-0.06780000000000001,-0.1676,0.0304,-0.1182],[0.13240000000000002,-0.1258,-0.1308,0.146,-0.0814,0.197,0.1176,0.19720000000000001,0.048600000000000004,-0.13440000000000002,0.19840000000000002,0.1648,0.10420000000000001,-0.1186,-0.0946,-0.1196,0.0488,-0.0694,0.13720000000000002,-0.10880000000000001,0.127,-0.0206,-0.1436,-0.1464,-0.0634],[0.1786,-0.0188,-0.0454,0.12760000000000002,0.12660000000000002,0.1844,-0.0472,0.07940000000000001,0.15000000000000002,-0.1472,-0.013800000000000002,0.07740000000000001,-0.023400000000000004,0.1648,-0.0032,0.1844,0.123,0.17020000000000002,0.028399999999999998,0.1444,0.0766,-0.037200000000000004,-0.009,-0.002,-0.10300000000000001],[-0.1654,0.10720000000000002,-0.0246,0.10900000000000001,-0.05280000000000001,0.1592,0.0594,0.1416,0.026800000000000004,-0.18520000000000003,-0.10120000000000001,0.071,0.0684,0.11160000000000002,0.1444,-0.0828,-0.1466,0.0178,-0.033600000000000005,-0.15700000000000003,-0.0322,0.1786,0.17120000000000002,-0.10500000000000001,0.10200000000000001],[-0.13799999999999998,0.0228,0.13160000000000002,-0.1584,-0.1962,0.1816,-0.10420000000000001,0.028000000000000004,-0.0174,0.0292,-0.1946,0.0342,0.10560000000000001,0.022600000000000002,0.03,-0.0412,0.14780000000000001,0.0484,-0.048,0.1544,0.0346,-0.04580000000000001,0.0814,0.15780000000000002,-0.0174],[-0.0242,0.0316,0.0806,-0.054400000000000004,-0.1626,-0.028999999999999998,-0.027200000000000002,0.1258,-0.15480000000000002,0.09100000000000001,-0.099,-0.0184,0.1908,-0.15760000000000002,0.041800000000000004,-0.0348,-0.0576,0.10220000000000001,0.10320000000000001,-0.0742,-0.0154,-0.096,-0.0734,0.08860000000000001,0.06760000000000001],[-0.014199999999999999,0.0966,0.0786,0.0646,0.1434,0.08360000000000001,-0.0618,-0.0288,-0.1466,0.0504,0.1228,0.05380000000000001,0.18580000000000002,0.07440000000000001,0.1938,0.1262,0.05460000000000001,-0.10880000000000001,-0.045200000000000004,0.0346,-0.1976,-0.13720000000000002,-0.07700000000000001,0.09040000000000001,0.13560000000000003],[-0.1138,-0.1484,-0.0746,0.0396,-0.05160000000000001,0.1966,-0.1322,-0.127,-0.07680000000000001,-0.132,-0.12940000000000002,-0.10700000000000001,-0.11220000000000002,-0.0944,0.17800000000000002,-0.027400000000000004,0.1038,-0.0806,0.11000000000000001,0.0792,0.1322,0.1728,0.1932,-0.0504,0.019600000000000003],[-0.10960000000000002,0.1582,0.059,0.071,0.09200000000000001,-0.1272,0.1216,-0.06580000000000001,0.1328,0.1628,-0.0504,0.0958,-0.1678,-0.0022,-0.0354,0.0566,0.013600000000000001,-0.146,-0.10160000000000001,-0.0726,0.10060000000000001,-0.05500000000000001,0.066,-0.167,0.03],[-0.16720000000000002,-0.10600000000000001,0.0164,0.12340000000000001,-0.13520000000000001,0.0494,-0.018,-0.10900000000000001,-0.17700000000000002,0.033600000000000005,-0.0832,-0.197,-0.11699999999999999,-0.1942,0.033800000000000004,0.1246,0.0046,0.09360000000000002,0.0588,-0.1916,-0.011600000000000001,-0.0772,-0.05360000000000001,-0.040400000000000005,0.1706],[0.0262,0.043800000000000006,0.028999999999999998,-0.055400000000000005,-0.10500000000000001,0.1922,-0.09100000000000001,0.0218,0.06380000000000001,-0.11020000000000002,0.046000000000000006,0.0308,0.10120000000000001,0.047,0.0848,0.127,-0.1312,-0.18580000000000002,-0.1182,0.09720000000000001,-0.07840000000000001,0.1834,0.16180000000000003,0.0578,0.07600000000000001]],[[0.21270374315686402,-0.10623060376591384,0.18214425440228607,0.056995871883538246,-0.01624988687743431,-0.1685622594002514,0.011884245626780317,-0.17268536502586906,0.10598806814087751],[-0.09361875126402452,0.1360624856453828,0.029104275004359956,-0.1743831144011234,0.10914103126634984,0.01697749375254331,0.0021828206253269966,-0.07179054501075456,-0.06985026001046389],[-0.08998071688847953,-0.2413229469111513,0.05263023063288425,-0.20858063753124634,-0.10065228439007817,-0.23016630815947997,0.19330089315395738,0.12029767001802115,0.12345063314349349],[-0.08925311001337054,0.11593202876736715,-0.03080202437961429,-0.025708776253851293,0.08415986188760753,-0.06184658438426491,0.2325916644098433,-0.015764815627361643,0.03395498750508662],[0.0004850712500726659,-0.06039137063404691,0.05384290875806592,0.16080111939908875,0.07494350813622688,-0.1845696106526494,0.09507396501424253,0.19354342877899372,-0.16443915377463375],[-0.16977493752543307,-0.19984935502993836,-0.1809315762771044,-0.2066403525309557,0.015279744377288977,-0.0419586631312856,0.08658521813797086,-0.14746166002209043,0.20736795940606467],[0.1377602350206371,-0.0014552137502179979,-0.11083878064160417,-0.08852550313826153,-0.025708776253851293,-0.20324485378044702,-0.016734958127506975,0.21173360065671867,0.09701425001453319],[0.14455123252165444,-0.20858063753124634,-0.12878641689429282,-0.0029104275004359957,0.09652917876446053,-0.1030776406404415,0.23938266191086063,0.11520442189225816,0.1501295518974901],[-0.23816998378567897,-0.010914103126634983,0.23938266191086063,-0.11350667251700383,0.11496188626722183,-0.05554065813332025,-0.14164080502121845,0.12684613189400215,0.21270374315686402],[0.12417824001860248,-0.14600644627187245,-0.14770419564712678,-0.20348738940548336,-0.20275978253037436,-0.18626736002790373,-0.1780211487766684,-0.10865596001627717,0.08197704126228054],[0.01139917437670765,0.10404778314058684,-0.03298484500494129,-0.05845108563375624,-0.11544695751729449,-0.07251815188586355,-0.21512909940722735,-0.07833900688673555,-0.06257419125937391],[-0.17826368440170473,-0.1447937681466908,-0.22022234753299033,-0.042928805631430936,-0.13509234314523746,-0.03249977375486862,0.21246120753182768,0.1411557337711458,-0.07955168501191721],[-0.17123015127565105,0.008731282501307986,-0.1183573850177305,-0.0897381812634432,-0.10550299689080483,-0.1610436550241251,0.15352505064799876,-0.03589527250537728,0.0036380343755449945],[0.19087553690359405,0.04220119875632193,-0.03880570000581328,0.21803952690766334,-0.18917778752833972,0.015279744377288977,-0.10841342439124084,0.20712542378102836,-0.03177216687975962],[-0.13290952251991048,-0.19596878502935705,0.0941038225140972,0.2102783869065007,-0.14818926689719944,-0.057480943133610914,0.023040884378451632,-0.22458798878364433,-0.07712632876155388],[-0.05845108563375624,-0.016734958127506975,0.16152872627419776,-0.17195775815076006,0.19378596440403006,0.10574553251584118,0.18796510940315805,0.20057696190504737,0.15619294252339844],[0.1925732862788484,0.12878641689429282,0.22458798878364433,0.006063390625908324,-0.025951311878887627,0.1831143969024314,0.22167756128320834,-0.19499864252921173,0.1920882150287757],[-0.07809647126169922,0.16274140439937942,0.226528273783935,-0.1588608343987981,-0.1183573850177305,-0.11447681501714915,0.13945798439589144,-0.14333855439647278,0.23113645065962532],[-0.23137898628466164,0.23210659315977064,0.04147359188121294,0.10841342439124084,0.12054020564305748,-0.21634177753240902,0.08003675626198989,-0.1338796650200558,0.007518604376126322],[-0.18190171877724973,0.008731282501307986,-0.21949474065788135,0.09701425001453319,0.07882407813680822,0.04899219625733926,-0.18117411190214072,0.07955168501191721,-0.16686451002499708],[0.20106203315512003,0.01819017187772497,-0.0853725400127892,-0.13363712939501948,-0.043413876881503596,0.14988701627245377,0.006063390625908324,-0.18626736002790373,-0.009216353751380652],[-0.0904657881385522,0.0036380343755449945,0.1751107212762324,-0.07858154251177188,-0.21949474065788135,-0.12151034814320281,0.24253562503633297,0.06960772438542756,0.18942032315337606],[0.19330089315395738,-0.05481305125821125,0.2405953400360423,-0.14624898189690877,-0.2405953400360423,-0.227255880659044,-0.23501702066020663,0.17608086377637774,-0.1258759893938568],[0.1617712618992341,0.03346991625501395,-0.1338796650200558,0.04147359188121294,0.06790997501017323,-0.23501702066020663,-0.1353348787702738,0.06815251063520956,0.010914103126634983],[0.07858154251177188,0.15692054939850744,0.02473863375370596,0.06427194063462824,-0.16007351252397978,-0.14382362564654544,-0.016007351252397977,-0.09361875126402452,0.1661369031498881]]]}