{"name":"nn256","initialization_type":"xavier","training_iterations":0,"input_dimensions":{"vertical":6,"horizontal":6},"output_dimensions":{"vertical":3,"horizontal":3},"deep_layers":8,"neurons_per_layer":25,"weights":[[[-0.021185364573949338,-0.18089042059295202,0.1530054108118563,-0.017745006224333632,0.10755646629851201,-0.042370729147898675,-0.1300093313170566,0.11986932776029455,0.05124323226006548,-0.027700317655796426,0.16731005868657425,0.03711965587743259,0.1119021821085529,-0.0715196187403754,0.037123276510646834,-0.14811285989234607,-0.025531080383990223,0.12385290058616535,-0.06282818712029362,-0.12964718833288652,-0.040378942734963265,0.014670411492102247,0.13851969144505336,-0.019555721145184002,-0.13417397563501246],[0.10302967899638608,0.03639536990909245,0.010683218033017186,-0.0595725208959772,-0.08003359950158638,-0.0038025013337857783,0.1636886288448735,0.10176217855179084,-0.025350008891905192,0.1307333961442986,-0.023901436955224894,0.031144296638626372,-0.053053947180915856,0.10502124426822333,0.05106193962688229,0.1068319591890737,0.005070001778381038,0.13037147430122667,-0.15499741836588987,-0.14666790858888004,-0.10049467810719558,-0.014304869015816082,0.14521933665219974,-0.05160537524423556,-0.09687324826549483],[0.0894493170900083,-0.10484039391723646,0.13743326249254312,0.07514466921529038,-0.15264326782768622,-0.061383235816827565,-0.01792607771641867,0.13960612039756357,0.05395930464134104,0.055939583992650366,-0.1689397021153396,-0.02136643606603437,0.10683218033017186,-0.14342012879297544,-0.16243263546190434,0.10464781536352534,-0.023177150986884745,-0.029333581717776006,0.1729117678795843,0.0860089587403926,-0.02842822425735082,0.15063997435312473,-0.013942504890547854,-0.039111442290368004,-0.00018107149208503707],[0.07260966832609987,-0.14540040814428476,-0.14974612395432566,-0.0889061026137532,-0.034765726480327115,0.10900503823519231,-0.16676684421031915,-0.022271793526459558,-0.1383386199529683,0.04635475747472558,-0.002535000889190519,0.10701325182225689,0.0010864289525102223,0.13507978859639375,-0.12222280165644393,-0.15499674172383562,-0.1778122052275064,0.15608362617730195,0.1725615874579964,-0.01484786235097304,0.17527720433831587,0.05558940357106247,0.1294661168408015,0.030057867686116152,-0.05051894629172535],[0.17799327671959142,-0.14395183620760446,-0.1553593402089618,0.027885009781095708,0.10972932420353246,-0.06753966654771883,0.0986839631863452,0.1314579032537369,-0.01665857727182341,0.08151762204565503,0.06446145118227319,0.0889061026137532,0.017382863240163558,0.05073546839119873,0.14326300084665267,-0.16111817734829464,-0.027341795304840596,-0.04309501511623882,-0.1174799477558007,-0.012493932953867559,-0.15644576916147201,0.052365111819964054,0.1392439774133935,-0.09596789080506965,-0.10121896407553573],[-0.05830502045138194,0.11081575315604268,-0.08763860216915793,-0.07930931353324623,0.07695538413614075,-0.15137576738309097,-0.17238006046495527,-0.17871756268793157,-0.09325181842379408,0.0344035826639095,-0.005613216254636149,-0.1338118326508424,-0.1323632607141621,0.003440357517368159,0.06301287841334534,0.034584654155994536,-0.15065148141475082,0.0923464609633689,-0.15535934104120935,0.02697965232067052,-0.05160537524423556,-0.13417397646726,0.015028933843058076,-0.01176964698552741,0.01720179174807852],[-0.02353929397105482,0.1055646798855766,0.01176964698552741,-0.06536680864269838,0.04128430019538845,-0.14775433754139022,0.05631323403844653,-0.06102109283265749,0.02697965232067052,0.1148113635583724,-0.12077468522071973,0.1481164805255603,0.03313608305156178,0.0811320660305555,-0.006506536138602433,-0.16784123558637046,-0.1225854001415701,0.059753592388062236,-0.10392299888035236,0.14630576560470995,0.07550681219946045,0.08710742526936173,-0.1680343446549144,0.03458465498824208,0.010140003556762076],[0.05142430375215052,-0.0664532375952086,-0.017745006224333632,0.004707858794210963,0.08148217143826668,0.10121896407553573,0.14232219277883915,-0.005070001778381038,-0.028066081273180745,0.1252659943439406,0.022452865018544595,0.004707858794210963,0.11081575315604268,-0.17748554042224135,0.17143922482562504,-0.01687512694281349,0.08872503112166816,0.02028000711352415,0.0671420453846437,0.055226805085936304,-0.03983572825870815,-0.011624053672347418,0.06880716699231408,0.0825686003907769,0.049975731815470235],[0.14087362084215885,0.044000372576664004,0.05124323226006548,-0.10538360839349156,0.08365502934328713,0.05287287568883082,0.1196882562682095,0.12059361372863468,0.034041440511986966,0.01213179153275812,-0.16477505779738374,0.10755646629851201,0.14865969500181542,-0.0939761028290736,0.10574575294072228,0.16260220145542395,0.11860182731569928,0.132001117729992,-0.09506253178158382,-0.07315288280235498,0.1689397021153396,0.177631135298482,0.09107896051877364,-0.14540040814428476,0.11986932776029455],[0.10846182375893719,0.16386970033695855,0.1426843357630092,-0.08872503112166816,-0.16966398808367975,-0.1680343446549144,-0.10284860750430104,-0.10864289525102223,-0.0468975164500246,0.10375396496472623,-0.17183684598870017,0.06880716699231408,0.11715325537901898,-0.166042558241979,-0.09777860572592002,-0.15173791036726106,0.10864289525102223,0.14865969500181542,0.13073361728539676,-0.10538360839349156,0.12602575849118577,-0.16187791392402315,-0.17998506313252685,0.16495612928946876,-0.022452865018544595],[-0.07550681219946045,-0.10701325182225689,0.06265073626142281,-0.12602575849118577,0.05486466210176623,0.07586895518363053,-0.03947358527453808,-0.0038025013337857783,-0.02353929397105482,0.04381930108457897,-0.09596789080506965,-0.0356710839407523,-0.06409930819810311,0.1798039916404418,0.10357289347264119,-0.09216538947128386,0.127112187443696,0.15608362617730195,-0.1568079121456421,0.16694791570240416,-0.04436251556083408,0.08166324293035172,-0.11588575493442373,-0.023901436955224894,-0.046535373465854526],[0.1397871918896486,0.15916184154274757,-0.17328541792538046,-0.1343550471270975,-0.13942504890547855,0.16332648586070345,0.009053574604251853,-0.10520253690140653,0.014304647874717928,-0.03494679797241215,-0.07786074159656593,0.13797647696879825,-0.16187791392402315,0.08619003023247764,-0.0693503814685692,0.07894717054907616,0.12693111595161097,0.15644576916147201,-0.08564681575622253,-0.009958932064677038,-0.026617509336500447,0.0952436048367295,-0.03512786946449719,0.030057867686116152,-0.026617509336500447],[-0.028609295749435857,-0.012131789969697484,-0.15409183976436652,-0.014485719366802966,0.0966921767734098,-0.030057867686116152,0.07206645384984475,-0.1240339720782504,-0.05739966299095675,0.04128430019538845,0.09614896229715468,0.1406925493500738,-0.07641216965988563,-0.12584468699910076,-0.0860089587403926,-0.008329288635911704,-0.018288220700588744,0.1582564840823224,-0.0908978890266886,-0.028066081273180745,-0.07496359772320534,0.05124323226006548,0.026074294860245335,-0.06808288102397393,-0.03530894095658223],[-0.028609295749435857,0.17563934732248596,0.13652790503211795,0.08474145829579735,-0.03585215543283734,-0.08781967366124298,0.13942504890547855,0.15481612573270667,-0.06772073803980386,0.10972932420353246,-0.09759753423383498,0.14033040636590371,0.003259286857530667,0.1680343446549144,0.02028000711352415,0.05830502045138194,0.12385290058616535,-0.1001325351230255,-0.17563934732248596,-0.05758073448304179,0.11787754134735913,-0.0027160723812755558,0.11135896763229779,-0.03711965587743259,-0.0615643073089126],[0.03494679797241215,-0.08474145829579735,0.06862609550022905,-0.1616968424319381,-0.15191898185934608,0.06102109283265749,0.04816501689461986,-0.048708231370874974,-0.1573511266218972,-0.11805861283944417,-0.12385290058616535,-0.10574575137766164,-0.07351502578652505,0.1705693455441049,0.00796714565174163,-0.06446145118227319,-0.13055254579331171,0.09433824737630431,0.05214858972049067,-0.14938398097015557,-0.09270860394753898,-0.15952398452691766,0.12439611506242047,0.16495612928946876,-0.07985252800950135],[-0.1265689729674409,-0.05884823492763705,0.15988612751108772,-0.05414037613342608,-0.031506439622796444,0.0713421678815046,0.028247152765265782,0.051786446736320595,0.08619003023247764,0.039654656766623116,0.10936718121936238,0.08673324470873275,-0.0566753770226166,0.1691207736074246,0.02643643784441541,0.16839648763908446,0.04273287213206874,0.11715325537901898,-0.07894717054907616,-0.14630576560470995,-0.0811200284540966,-0.030601082162371264,0.15626469766938697,0.17853649119584655,-0.04363822959249393],[0.08926824559792328,0.11117789614021276,-0.11661004090276388,0.0059753592388062235,0.08474145829579735,-0.011588575493442372,-0.1441329076996895,0.16586148674989395,0.1231286146178252,0.16676684421031915,0.16676684421031915,0.017382863240163558,0.17672577627499617,-0.17853649119584655,0.0023539293971054816,0.12493932953867556,0.10719432331434194,0.1720179174807852,-0.0468975164500246,-0.05015680330755527,-0.03748179886160267,0.062107521785167714,0.07442038324695023,-0.09144110350294371,0.1348982616033526],[0.10375396496472623,0.15554041170104682,-0.11081575315604268,-0.04888930286296001,-0.17219898897287023,-0.003440358349615704,-0.17509613284623082,0.14540040814428476,-0.05051894629172535,-0.17364756090955052,-0.02426357993939497,0.07061788191316445,-0.0483460883867049,0.0908978890266886,0.14540040814428476,0.16676684421031915,-0.17907970567210166,-0.11172111061646786,0.025168937399820155,0.012131789969697484,0.01050214654093215,-0.17328541792538046,-0.06772073803980386,-0.021728579050204446,-0.12421504357033543],[-0.1705693455441049,0.1607914849715129,-0.09180324648711378,0.11552361195025365,-0.13399290414292742,0.05015680330755527,0.043276086608323855,0.1636886288448735,0.12928504534871646,-0.0021728579050204447,0.039111442290368004,0.0820253859145218,-0.1444950506838596,0.013942504890547854,0.15318648230394136,-0.06953145296065423,-0.02915251022569097,0.15753219811398225,-0.11099682464812771,0.0894493170900083,-0.16586148674989395,0.12349075760199528,-0.12222325715740003,0.1343550471270975,-0.024625722923565043],[-0.13616576204794786,0.0595725208959772,-0.07405824026278016,0.04816501689461986,0.12023147074446461,-0.14576255112845485,0.02408250844730993,-0.057761805975126826,0.07387716877069511,-0.006337502222976298,0.15481612573270667,0.04381930108457897,-0.09940824915468535,0.07713645562822578,0.029333581717776006,-0.14286540725509425,-0.11027253867978756,0.1665857727182341,0.09361396140796416,-0.02716072381275556,-0.10991039569561749,-0.004345715810040889,0.008329288635911704,-0.0009053574604251854,-0.043276086608323855],[-0.15228112484351616,-0.01539107682722815,-0.12638790147535586,-0.09397610439213423,0.1626021998923633,-0.036757512893262526,0.02281500800271467,0.1309146887774818,-0.17600149030665602,0.09107896051877364,0.0840171723274572,-0.1616968424319381,0.13942504890547855,-0.09795967721800505,-0.03820608482994282,-0.010140003556762076,0.07442038324695023,0.0468975164500246,-0.08546574426413749,-0.04635430197376949,0.0776796701044809,0.02643643784441541,0.012312861461782522,0.03295501155947674,-0.09288967543962401],[0.03386036901990193,-0.07568788369154549,0.01593429130348326,-0.11389396852148831,0.15210005335143112,0.0805768139778415,0.038930370798282966,-0.11371289702940328,0.11461825448982846,-0.1627832713844483,0.008510360127996741,-0.041646443179558526,0.08184431442243675,0.047983945402534825,-0.1265689729674409,0.10755646629851201,-0.1616968424319381,-0.01104536101718726,-0.05884823492763705,0.08637110172456268,0.11280753956897809,0.049975731815470235,0.11950718477612447,0.08963038858209335,0.03367929752781689],[-0.12349075760199528,-0.15336755379602637,-0.02480679441565008,-0.11751539836318906,0.07568788369154549,0.1392439774133935,-0.15228112484351616,-0.1265689729674409,0.08528467277205246,-0.054502519117596154,0.10900503823519231,-0.12367182909408032,-0.17817434821167646,-0.11081575315604268,-0.006518573715061334,0.010683218033017186,-0.11027253867978756,-0.12874183087246135,0.1470300515730501,-0.06663430908729363,-0.1119021821085529,-0.04182751467164356,0.09651110528132475,-0.11298861106106313,0.01593429130348326],[-0.13652790503211795,0.05341609016508593,-0.007786074159656593,0.06428037969018816,-0.11262646807689305,-0.18107149208503706,0.020823221589779263,-0.10647003734600179,-0.08220645740660683,0.10882396674310726,-0.04490573003708919,0.07098002489733453,0.08492252978788238,-0.045267873021259265,-0.15626469766938697,-0.02643643784441541,0.05160537524423556,-0.07116109638941957,-0.07405824026278016,-0.17093148852827497,0.0018107149208503707,0.07858502756490608,-0.08437931531162728,-0.14992719544641067,-0.1015811070597058],[0.025168937399820155,-0.09216538947128386,-0.0007242859683401483,-0.1216800426811449,0.15173791036726106,0.1426843357630092,-0.1788986341800166,-0.08763860216915793,0.16694791570240416,0.1622400569081932,-0.0908978890266886,0.17183684598870017,0.06591002311895348,0.055045733593851266,0.010864289525102223,0.04218965765581364,-0.16821541614699945,-0.09216538947128386,-0.059210377911807124,0.0845603868037123,-0.17274220344912536,0.1616968424319381,0.09633003378923972,0.11552361195025365,0.0903546745504335],[-0.10574575137766164,-0.08582788724830756,0.11280753956897809,-0.063556093721848,-0.06772073803980386,0.020098935621439114,-0.17563934732248596,0.07098002489733453,0.13109576026956682,-0.17183684598870017,-0.1455814796363698,0.18107149208503706,-0.05703752000678668,0.03947358527453808,-0.15554041170104682,-0.0805768139778415,-0.17944184865627172,0.03639536990909245,-0.06898823848439913,0.008148217143826667,0.0860089587403926,0.0825686003907769,-0.017745006224333632,-0.02426357993939497,0.13019040280914165],[0.08311181486703201,0.042370729147898675,0.13670897652420297,-0.13652790503211795,0.12928504534871646,-0.05287287568883082,0.08637110172456268,-0.010321075048847113,-0.03259286857530667,-0.10357289347264119,-0.047259659434194676,0.025893223368160297,0.17274220344912536,0.16694791570240416,0.013218218922207705,0.10212432153596089,0.06609109461103853,0.005613216254636149,0.1251204010307606,-0.07206645384984475,-0.07822288458073601,-0.1231286146178252,-0.07605002667571556,0.03947358527453808,-0.05160537524423556],[0.10447825093306638,-0.12837968788829127,0.15010826693849572,-0.056494305530531565,0.05051894629172535,0.14431397919177455,-0.04291394362415378,0.10574575137766164,0.026255366352330372,-0.12041254223654965,0.036938584385347556,-0.06916930997648416,-0.03748179886160267,-0.1251204010307606,-0.15717005512981216,-0.05196751822840563,0.17419077538580566,-0.12330968610991025,-0.1671289871944892,0.09777860572592002,0.010683218033017186,-0.06482359416644326,-0.03802501333785778,-0.15173791036726106,0.1626021998923633],[-0.01593429130348326,0.04617323048168445,-0.1334496896666723,-0.06428037969018816,0.17618256179874106,0.14033040636590371,-0.10791860928268208,0.025893223368160297,0.14196004979466906,0.08999253156626343,0.12149897118905988,0.13797647696879825,0.1446761221759446,0.006518573715061334,0.003440358349615704,-0.12892290236454637,0.08130109994618165,0.1421411212867541,0.1539107682722815,-0.010864289525102223,-0.15264326782768622,0.14250326427092416,0.07098002489733453,0.13453611861918255,0.1397871918896486],[-0.11751539836318906,-0.1426843357630092,0.1734664894174655,-0.18052827760878196,-0.03874929930619793,-0.1323632607141621,-0.08021467099367142,-0.1300093313170566,-0.11516146896608358,0.12439611506242047,-0.04273287213206874,0.1231286146178252,0.06826395251605898,0.13163897474582195,-0.024444651431480006,0.04852715987878994,-0.06808288102397393,0.14087362084215885,0.05613216254636149,-0.13888183442922342,0.18107149208503706,0.004526787302125927,0.0018107149208503707,0.1426843357630092,-0.07170431086567468],[0.10791860928268208,-0.1240339720782504,-0.1265689729674409,-0.025168937399820155,-0.051062160767980445,-0.1705693455441049,-0.04309501511623882,-0.1640507718290436,-0.10284860750430104,0.04436251556083408,-0.026074294860245335,-0.1674911301786593,0.06808288102397393,-0.1231286146178252,-0.015028933843058076,-0.014123576382632891,-0.07460145473903526,0.12294754312574017,-0.051062160767980445,-0.004345715810040889,-0.019555721145184002,0.10882396674310726,-0.030057867686116152,0.07315288280235498,0.13254433220624712],[0.1231286146178252,0.022996079494799707,-0.04472465854500415,0.15554041170104682,0.16441291481321366,0.017382863240163558,-0.07659324115197068,-0.059934663880147274,-0.06029680686431734,-0.09759753423383498,0.1196882562682095,0.0923464609633689,0.1798039916404418,-0.0952436048367295,0.0018107149208503707,-0.12330968610991025,-0.06572895162686845,0.17002613106784978,0.06808288102397393,-0.09397610439213423,-0.10194325004387586,-0.11407504001357335,-0.04363822959249393,-0.01720179174807852,0.08655217321664771],[0.1348982616033526,-0.15898077005066255,0.1573511266218972,-0.054502519117596154,0.04381930108457897,-0.0908978890266886,-0.010140003556762076,0.141778978302584,0.01358036190637778,-0.0762310981678006,-0.10429717944098134,0.1631454143686184,0.1446761221759446,-0.034765726480327115,0.022633936510629633,0.1539107682722815,0.11697218388693395,-0.012131789969697484,-0.10665110883808682,0.12330968610991025,0.014666790858888003,-0.1573511266218972,0.12294754312574017,-0.17654470478291112,0.10049467810719558],[0.05142430375215052,-0.16640470122614906,-0.07677431264405571,0.10918610972727734,-0.05196751822840563,-0.02426357993939497,-0.059753592388062236,0.17256113195704031,0.06699645207146371,0.05631323403844653,0.14377076471551944,0.049975731815470235,-0.04128430019538845,-0.012312861461782522,0.07460145473903526,0.17708791925916625,-0.07858502756490608,0.1280175449041212,-0.11552361195025365,0.17093148852827497,0.1754582758304009,0.015210005335143113,0.17147470300453008,0.17183684598870017,0.08419824381954223],[0.06174537880099764,-0.04852715987878994,-0.14521933665219974,0.16097255646359795,-0.05160537524423556,0.12276647163365513,-0.038930370798282966,0.11226432509272298,-0.07659324115197068,-0.041646443179558526,-0.03259286857530667,0.1430464787471793,0.08492252978788238,0.05395930464134104,0.10972932420353246,0.17075041703618993,-0.17147470300453008,0.15644576916147201,-0.10991039569561749,-0.0698935959448243,0.006337502222976298,-0.0009053574604251854,-0.15028933843058076,0.17672577627499617,-0.06699645207146371],[-0.18052827760878196,-0.09542467632881453,-0.14721112306513512,-0.16767220167074431,-0.059934663880147274,0.13670897652420297,0.08908717410583823,-0.026617509336500447,0.027341795304840596,-0.1406925493500738,0.049251445847130086,0.0903546745504335,-0.12837968788829127,-0.0007242859683401483,0.16531827227363885,-0.16187791392402315,-0.11570468344233868,0.1754582758304009,-0.057761805975126826,-0.09488146185255943,0.08564681575622253,0.1348982616033526,0.15572148319313187,-0.02046107860560919,-0.050700017783810385]],[[0.00179094642489856,-0.05261154865486219,0.06478868790226065,0.02138892525695913,0.1639893566066516,-0.07640958944140935,-0.005810412782882842,0.0781888095811274,0.1375882225466513,-0.19220862416944678,0.013788783065117102,0.17938924606181908,0.19659074246169228,-0.14401131031700887,-0.15560981041796382,-0.16881190470284727,-0.024211066312492476,-0.10261081028729827,-0.09461094823079338,-0.04441062989891702,0.02299020458236306,0.19779035163182465,-0.08921009769171331,-0.03600979354276917,-0.06621230261141578],[0.10899951574682656,-0.13660061770889123,-0.07100060505630416,0.13219940763948962,-0.04400056928762739,0.1289994870845795,-0.04900055695360233,0.11899940146903823,-0.09180062994674859,-0.08740046128541899,-0.08380059996600707,-0.15400057520146263,0.1125995048372526,0.1657993950392148,-0.007400524734907966,0.10019936324699154,0.19359940809041074,0.10079942178456296,0.01299941440630777,-0.06760056856691025,-0.07360052393257771,0.09619948393273303,-0.029000540100467827,0.010999476167704313,-0.18820065803615024],[-0.17099284022956204,-0.07679086706554904,-0.02819105414263089,-0.12239124184548963,0.0022084170431442415,-0.1487924164553049,0.19300823466436012,0.09860884978581522,-0.062190686126537026,0.030406820186042655,0.1362088706029261,-0.060591495545218865,-0.1471926789316994,-0.12139105554840059,-0.11199224170210452,0.15740941450521143,-0.08659124851262832,0.19100854901692313,-0.0029913418942763637,0.15240840636175762,-0.026192253564698415,-0.1955923698547008,-0.045192014519599706,-0.19899225504738577,-0.05539027081979502],[0.04760021869705531,-0.13419972103234834,0.057200273252858175,0.15500026751993373,0.18300025710251103,-0.07639976835881773,-0.15259974846965402,-0.09279972965099452,0.06260028449448744,-0.026199791675789934,0.11780027095468304,-0.05319974022939943,0.0032002236237781527,-0.12899972678959162,0.18980023697906045,0.10240028756830813,-0.10899973268373002,0.19860026113176185,-0.07339973553609473,0.1304002567743258,0.0872002366167147,-0.03939976693539118,0.17740024391840428,0.1294002365714257,0.15220029718013087],[-0.10157809898668736,0.033227936743851536,-0.0531726354580919,-0.03837320967339655,-0.09157425329143201,0.15742319731284915,0.11262518896719441,0.06082706757548425,0.13742849021733247,-0.02057913772573412,0.1426271342966292,0.11842601428568315,-0.15617760557646806,0.12942736019241383,0.010623731865600115,0.14562879803990234,0.08862676993393445,0.13522615059686627,0.1430264842887129,0.15922571422883025,-0.16837630442090085,-0.18477666014051158,-0.11377557320559677,0.1494236910437052,-0.08957023940042852],[0.05239999356981684,0.047599991797760074,0.1817999919658631,-0.08200000786565662,-0.034200007559664035,0.033799993189257166,0.11299999260438508,-0.010800007953615987,-0.018800008364742295,-0.09200000612517434,0.15319999203335674,-0.1086000076378075,-0.10160000657501414,-0.1278000080329664,0.13159999303231223,-0.14980000845511918,-0.14200000785966618,0.1397999923221715,0.1327999922241994,-0.07400000754971063,-0.051800006957034066,-0.14980000685259462,0.05819999282828076,-0.023000006955702465,0.17839999126227285],[-0.010983745886560065,0.0248207335960228,0.06702030890455597,-0.15098011723029822,0.00981910833431149,-0.08858278383019705,0.011418694329325914,0.14782009009334338,-0.03777885563631542,0.13621548319232266,-0.0963798619494742,-0.004180693179313287,0.13621662029566292,0.14482030570184865,-0.022982387105328083,-0.0811786271820301,0.07241986763428998,0.0402194079857005,-0.06098034436080916,-0.07098091587018113,0.09761758596420088,0.015417321962535676,0.13661812864459316,-0.17838241740179728,0.08602208719341574],[-0.09511143747882825,0.15282320572403185,0.0920104402488216,0.16419763178946353,-0.004025645237346289,0.17091747972846635,0.045161910139762555,0.18180387577339596,-0.11796444751046696,-0.023734609715722846,0.015205304956735943,-0.04561967996129986,-0.13630043092134056,-0.0011896558178141475,0.02092940439461716,0.09644241931660774,-0.016802823153168354,0.1757833608337469,0.11739080474620839,-0.1312263735529142,-0.17607140507537575,-0.0572793403775701,-0.1088550933111883,0.1697284937502152,0.13686389185178555],[0.10339999880463234,0.17679999847519912,0.04459999850642969,0.07459999853777112,-0.11880000140526586,-0.14820000126612048,-0.17920000137482542,-0.10340000147733205,0.12319999844499026,-0.11900000113867294,-0.07060000148100294,0.16219999858012782,-0.0014000012222983918,-0.09280000149333245,-0.19280000129529662,0.14119999842818914,-0.13000000146111587,0.019799998572687865,-0.0862000014455252,-0.03100000140349496,0.18659999870668395,-0.15560000127390075,-0.05700000133322616,-0.18320000129306857,0.0669999983756522],[-0.15600000000000003,0.09820000000000001,-0.0664,0.0864,-0.1884,0.09200000000000001,-0.09200000000000001,0.0388,0.062,0.1078,-0.0176,-0.032,-0.065,-0.13340000000000002,0.1676,-0.052000000000000005,-0.18080000000000002,-0.18680000000000002,-0.15900000000000003,0.1392,0.15180000000000002,0.0152,-0.033800000000000004,0.0146,0.12380000000000001],[0.0626,-0.0374,0.1864,0.1938,0.015600000000000001,0.126,-0.026800000000000004,0.0472,0.10740000000000001,-0.0152,-0.0004,-0.17920000000000003,0.08900000000000001,-0.10420000000000001,-0.1438,0.16060000000000002,0.05580000000000001,0.1134,0.0878,-0.1406,-0.1494,0.1396,0.14880000000000002,-0.0732,-0.013000000000000001],[0.15460000000000002,-0.0842,-0.1172,0.046400000000000004,-0.0296,0.17020000000000002,0.1724,0.1726,0.07700000000000001,-0.17700000000000002,-0.1654,-0.037,-0.13640000000000002,-0.1446,-0.026800000000000004,-0.07740000000000001,-0.0884,0.1874,0.0174,-0.149,0.09300000000000001,-0.16920000000000002,0.0212,0.0566,-0.0734],[0.1194,-0.17720000000000002,0.1494,0.083,-0.056799999999999996,0.1926,-0.101,0.1522,0.0998,-0.023000000000000003,-0.0614,0.0298,0.1592,0.011600000000000001,0.1132,-0.132,0.05280000000000001,0.11240000000000001,0.0176,-0.0522,0.11040000000000001,-0.132,-0.14980000000000002,0.1886,-0.13899999999999998],[-0.050800000000000005,0.002,0.11499999999999999,-0.1936,-0.0484,0.0322,-0.0294,-0.0484,0.0298,-0.10700000000000001,0.0388,0.1506,-0.082,-0.046000000000000006,-0.1428,0.0344,0.18100000000000002,-0.0872,-0.025,0.10800000000000001,-0.1778,-0.0176,0.0386,0.1584,0.0832],[-0.16720000000000002,0.119,-0.194,-0.04680000000000001,0.19820000000000002,-0.008400000000000001,0.11100000000000002,0.009800000000000001,0.1948,0.1912,0.16180000000000003,0.165,-0.032400000000000005,-0.1554,-0.1014,0.094,-0.049600000000000005,-0.10740000000000001,0.12380000000000001,0.09260000000000002,0.0702,-0.0666,-0.10420000000000001,-0.0108,-0.044800000000000006],[0.1622,-0.013800000000000002,-0.1138,0.18280000000000002,0.1804,0.05500000000000001,0.10700000000000001,0.12480000000000001,-0.0644,-0.057999999999999996,-0.17320000000000002,-0.0014000000000000002,0.062,0.1482,-0.15460000000000002,0.038000000000000006,0.064,-0.0878,-0.0436,0.06820000000000001,0.134,0.1678,0.1292,0.1464,0.044000000000000004],[-0.06580000000000001,0.0302,0.16920000000000002,-0.032,-0.1472,-0.17220000000000002,0.030600000000000002,-0.09860000000000001,-0.1534,-0.08360000000000001,0.133,-0.0466,0.11699999999999999,-0.18100000000000002,0.09360000000000002,-0.0106,0.18380000000000002,0.119,0.022400000000000003,-0.1384,0.10740000000000001,0.07800000000000001,-0.0762,0.13640000000000002,-0.10200000000000001],[0.052000000000000005,0.1626,-0.0862,-0.10020000000000001,0.1884,-0.0018,0.033600000000000005,0.096,0.08040000000000001,0.13160000000000002,0.15500000000000003,-0.060200000000000004,0.1038,0.055200000000000006,0.1744,-0.10200000000000001,-0.18620000000000003,0.19540000000000002,0.0246,-0.1144,0.018600000000000002,0.15480000000000002,-0.1422,-0.10520000000000002,0.13799999999999998],[-0.1976,-0.0184,-0.0734,0.013400000000000002,0.082,-0.0948,0.0892,-0.046400000000000004,0.025400000000000002,-0.18300000000000002,-0.0454,0.12340000000000001,-0.0416,0.0688,0.021,-0.194,-0.1278,-0.1998,0.016800000000000002,-0.10320000000000001,-0.027400000000000004,-0.1348,0.09820000000000001,-0.1358,0.1154],[-0.028399999999999998,0.1522,-0.124,0.0354,0.054400000000000004,-0.0038,-0.071,-0.1264,-0.1998,-0.15880000000000002,-0.0832,-0.149,0.095,0.15660000000000002,0.08960000000000001,0.0988,0.0294,0.1516,-0.021400000000000002,0.038000000000000006,0.1996,0.166,-0.1564,0.12560000000000002,0.063],[-0.05580000000000001,0.07840000000000001,0.11000000000000001,0.10600000000000001,0.1996,0.025,0.1512,0.1206,0.061200000000000004,0.0208,-0.0158,-0.008,-0.0582,-0.0356,-0.09060000000000001,-0.15700000000000003,0.1744,-0.040600000000000004,-0.1554,0.09820000000000001,0.09200000000000001,0.16080000000000003,-0.1506,0.1466,-0.0436],[0.07800000000000001,0.0608,0.16620000000000001,-0.121,0.1996,-0.0954,0.0222,-0.129,0.0848,0.0534,0.10520000000000002,0.0582,-0.193,0.0038,0.0378,-0.18100000000000002,0.19840000000000002,-0.1468,0.054400000000000004,0.1048,-0.1428,0.0766,0.0356,-0.0126,0.1434],[-0.044000000000000004,0.15180000000000002,-0.13040000000000002,-0.0068000000000000005,0.1738,-0.0858,-0.037200000000000004,0.1826,-0.09140000000000001,0.026000000000000002,-0.1918,0.12660000000000002,-0.0354,0.1134,-0.027800000000000005,0.12240000000000001,-0.16160000000000002,0.18020000000000003,0.194,0.005000000000000001,-0.1908,-0.08800000000000001,-0.07540000000000001,-0.0106,-0.1698],[-0.1758,0.03900000000000001,-0.188,0.15600000000000003,-0.1452,0.1656,-0.1188,-0.17820000000000003,-0.0344,0.1656,-0.10600000000000001,-0.0068000000000000005,-0.17220000000000002,-0.1806,0.18460000000000001,-0.1918,0.18480000000000002,0.0206,-0.060200000000000004,-0.0408,0.023000000000000003,0.025400000000000002,-0.026400000000000003,-0.022000000000000002,0.09140000000000001],[0.17720000000000002,-0.08900000000000001,-0.0488,-0.0182,0.0118,0.0488,-0.13060000000000002,0.0734,0.046000000000000006,-0.10800000000000001,0.1454,-0.18500000000000003,0.10640000000000001,-0.1348,-0.1648,0.1776,-0.1688,-0.0212,0.0868,-0.0938,0.12140000000000001,-0.0598,0.0352,0.1746,-0.1492]],[[-0.16757803666688775,-0.1901760764777305,-0.1639805465853053,0.08922828523834418,-0.10937234872878449,0.1468236067715268,-0.17057519951533198,0.17342712502635554,-0.14177974275247293,-0.18877864323961738,-0.03297303964930981,0.08722108752949988,0.073225865109701,-0.10237705327949079,-0.05557421833003441,0.16462907576774372,-0.010777637193788027,0.12162790064024179,0.17641787042808338,0.08442492403558562,-0.1225727563827815,-0.07577403572573772,0.005822826608502078,0.08281929275358617,-0.12417820459583889],[0.16139787602810418,0.11199768647001296,0.04019811875469519,-0.07100273533428726,-0.10880267401768619,0.03339771709942108,0.06399760166790106,0.19779737698585712,-0.020201958985470128,0.005197934688118984,0.13919739279144835,0.09319796072671058,-0.014802501291252835,0.1611977809291781,-0.1392024932241525,-0.08500281177915467,0.01819783739584829,0.13979730186148456,-0.1382017281660638,-0.13980241028884147,-0.16420263460048498,0.08079748911463518,-0.004402207451151082,-0.12020186571495227,0.008997892269743001],[0.1830380736408054,-0.024358528324812778,-0.19916627728338102,-0.02995096728135275,0.14064793382118485,0.0724409225628991,-0.12195700805135483,-0.022752977240813585,-0.11196488388678373,0.06043702215384915,0.01124673603479151,0.13363655546620448,-0.16075516255839759,0.0220397783508865,0.16364469277731822,-0.13534959685387307,0.12403876611986156,-0.11495163395332093,-0.13116902144782477,0.18304320603361068,0.06624722709527152,-0.036954990701711536,0.13743957017980557,-0.04236655585867787,0.04043778255558584],[-0.13460040061283746,0.041999563630840654,-0.09480035483522671,0.060799484075406425,0.08479949563160506,0.09699956941019669,-0.18700045236920185,-0.07380049486703308,-0.11040036949268697,0.0029996104500723303,0.13539950823972471,-0.09900038464131426,0.022999528215594183,-0.08420041854981065,-0.1804004702607598,0.09679946965302089,-0.19680040789833456,0.13059949108784985,-0.02140032595794708,-0.10220045461526568,0.004199503071665193,-0.08140047358940537,0.1487995836374197,0.013799648100798607,-0.07180039755153557],[-0.12897665417235646,0.16522542930155973,0.0020206777702368667,0.17923006568037592,0.07042939148769314,0.0016250926904829877,-0.13357363871587077,-0.017771172089657773,2.1532395681486e-5,-0.13517729897031752,0.134828657322097,0.15802241475780202,0.18382749307970178,-0.18657560888134606,0.1770274044612148,-0.00016909416255632596,0.13802377048564649,0.12422965675882189,0.10541899529223203,0.15642649293669647,-0.024371041635307504,0.16222759864910172,0.05542426328964715,-0.08417949276377211,-0.07577683274664514],[0.005199987715490495,0.01419998661871499,-0.1150000108812713,0.14919998417957536,0.06619998453287641,-0.1608000132038074,0.04719998612748567,-0.14480001518972474,0.14899998866991432,-0.19700001194541966,0.030799984920308998,0.018399988204787426,0.0031999855326531666,0.06899998716547825,0.11459998557961813,0.02279998373688319,-0.06380001250778201,-0.05480001560577341,0.025599990004729477,0.1777999860596884,0.184599984761654,0.19899998547784425,-0.06100001276797078,0.1713999892095557,-0.07800001219088543],[0.16298976433356455,-0.08182899858971648,-0.0995862100606538,-0.11747074973174997,0.11793531945254619,-0.11462596680158536,0.09436260745805897,-0.18785963308616305,-0.039193904916842354,-0.05000442937243091,0.1677419324332856,0.02459814796569036,0.1413524163589959,-0.1852196487779201,0.1305532148765353,-0.010878316453239634,-0.05761405956740824,-0.03886706803487926,0.1738289421131615,-0.15763857597184314,-0.03126077889658174,0.12915146674976266,0.08058150132732654,-0.1857846727739825,0.04579137195106453],[-0.10435556419407152,0.12377334856943534,0.030279368137174675,0.060660200925890265,0.16421850563150617,0.08795251768205287,0.17823102158787507,-0.16761612889863114,0.04593223401994187,-0.1085954561937235,0.07337306819592203,0.13038683705328308,-0.014098961556126315,-0.17509089092889332,0.12269555141138103,0.09031218990320265,-0.015329292290131656,-0.19296509316811372,-0.014624737300109724,-0.07856085101205112,0.1869916971103166,0.04830756107078389,-0.05749879114208593,0.003868803595141704,-0.01836660862954594],[-0.15820001246260776,0.05879998642519096,0.13899998896168703,0.16799998395015947,-0.14520001568990373,-0.013600013395125888,0.04259998592769442,-0.06300001538858808,0.18939998850544437,0.11499998788160697,0.033999984701985855,0.0551999880344367,-0.06340001467650469,0.11139998697938844,-0.01480001462920593,0.12439998350167648,-0.1476000126893056,-0.09120001583153499,0.13219998985982082,-0.1920000141426209,-0.0940000154587125,-0.08980001473287831,-0.013600012952355911,-0.007400010947303923,0.028799987632728095],[0.0374,-0.0978,0.1432,0.1152,0.11299999999999999,-0.1138,0.1442,0.12660000000000002,0.048600000000000004,-0.1014,0.18580000000000002,0.12560000000000002,-0.12340000000000001,-0.0534,-0.0154,-0.0144,0.1262,-0.038400000000000004,0.054000000000000006,0.1892,-0.0488,-0.0174,-0.1474,0.0582,0.041800000000000004],[0.049,-0.15400000000000003,-0.0944,-0.143,-0.1726,0.18700000000000003,0.1502,0.15760000000000002,-0.0386,0.18480000000000002,-0.0228,-0.0298,0.0586,0.097,-0.09000000000000001,-0.15280000000000002,-0.049,0.16620000000000001,-0.0342,0.020000000000000004,-0.067,0.001,0.0714,-0.0956,-0.18480000000000002],[-0.14880000000000002,-0.12560000000000002,-0.017,-0.15380000000000002,0.0888,0.0164,0.0298,-0.03,-0.005600000000000001,0.194,-0.16920000000000002,-0.0974,0.1698,0.0182,0.05160000000000001,0.0038,0.15480000000000002,0.1472,-0.1058,0.1908,-0.0698,-0.037,0.021,0.061200000000000004,0.19540000000000002],[-0.13899999999999998,-0.025800000000000003,0.0838,0.2,-0.1684,0.021,0.0004,0.1728,-0.065,0.0068000000000000005,-0.1796,0.1554,-0.0052,0.1236,-0.003,-0.15960000000000002,0.193,-0.0792,-0.1414,0.15780000000000002,-0.0378,0.083,-0.17620000000000002,0.04020000000000001,-0.0262],[0.023000000000000003,0.0076,0.071,0.05280000000000001,-0.1986,0.16200000000000003,0.1766,0.0346,-0.0956,-0.16180000000000003,-0.06520000000000001,0.044000000000000004,0.1988,-0.1432,-0.10460000000000001,0.08800000000000001,0.1138,-0.052000000000000005,-0.18120000000000003,-0.0606,-0.1242,0.032,-0.0946,-0.0918,-0.042],[-0.033400000000000006,-0.073,0.1412,0.064,0.1666,0.0514,0.1434,-0.0014000000000000002,-0.166,-0.0716,0.014199999999999999,0.13640000000000002,-0.10820000000000002,0.127,-0.032600000000000004,0.07740000000000001,-0.0068000000000000005,0.051800000000000006,-0.1668,-0.126,-0.0494,-0.049800000000000004,0.13140000000000002,-0.0422,0.049600000000000005],[-0.07740000000000001,0.1476,0.06999999999999999,0.0398,0.06620000000000001,0.1018,-0.10200000000000001,0.121,-0.1996,0.1278,0.06520000000000001,-0.1422,0.1228,-0.16720000000000002,-0.12660000000000002,-0.13240000000000002,-0.0242,0.07980000000000001,-0.1186,0.1658,0.06420000000000001,-0.18400000000000002,-0.12140000000000001,0.16160000000000002,0.0068000000000000005],[-0.0374,0.0616,-0.021,0.0806,-0.17600000000000002,0.015,-0.1854,-0.1038,-0.09340000000000001,0.19340000000000002,-0.1162,0.15100000000000002,0.121,0.164,-0.0816,-0.038200000000000005,0.0332,-0.11499999999999999,-0.0164,-0.002,-0.12,-0.1168,-0.061200000000000004,0.1726,-0.1814],[-0.18580000000000002,-0.0198,0.1884,-0.101,0.0762,-0.049,0.1178,0.073,0.0766,0.0332,-0.07640000000000001,0.053000000000000005,-0.0416,-0.0028000000000000004,-0.1174,0.1178,-0.0194,0.10020000000000001,-0.095,0.15280000000000002,0.0742,-0.15380000000000002,-0.18620000000000003,-0.0712,-0.0068000000000000005],[0.15280000000000002,0.1414,-0.17720000000000002,0.08660000000000001,-0.082,0.10520000000000002,-0.1048,-0.0692,-0.0034000000000000002,-0.022000000000000002,-0.1018,0.0416,-0.1322,0.05580000000000001,0.0726,-0.008400000000000001,0.1312,0.16200000000000003,0.0184,0.03,0.033600000000000005,0.1502,-0.121,-0.016,0.08020000000000001],[-0.0018,-0.050600000000000006,0.166,0.1044,-0.036,-0.1152,0.0718,0.096,-0.0758,-0.036,0.12760000000000002,0.0414,-0.1768,-0.072,0.068,-0.0176,0.10060000000000001,-0.13340000000000002,-0.1492,-0.065,0.026600000000000002,-0.0828,-0.0772,0.1446,0.0184],[0.1938,-0.031,0.0242,-0.13340000000000002,0.0328,-0.06720000000000001,0.1426,0.1382,-0.0106,0.0994,-0.0208,0.1804,0.1174,-0.17600000000000002,-0.0004,-0.129,-0.0534,0.19440000000000002,-0.0696,-0.123,-0.048600000000000004,-0.1582,-0.1058,0.11100000000000002,0.08600000000000001],[0.18300000000000002,-0.04680000000000001,0.08100000000000002,0.0126,0.1572,-0.016800000000000002,0.1226,-0.0288,0.16180000000000003,0.027400000000000004,-0.1534,-0.1024,0.1024,-0.07700000000000001,-0.18080000000000002,-0.015,-0.1426,0.1878,-0.1156,-0.1246,-0.11699999999999999,0.1228,-0.15940000000000001,-0.0826,0.15580000000000002],[0.1416,-0.14880000000000002,-0.0008,0.0588,-0.17500000000000002,0.1654,0.13040000000000002,0.1966,0.040600000000000004,-0.04000000000000001,0.1128,0.0848,0.10260000000000001,-0.18460000000000001,-0.05380000000000001,-0.08860000000000001,-0.1932,-0.143,-0.1466,0.1008,0.18600000000000003,-0.0144,-0.0484,-0.18600000000000003,0.038400000000000004],[-0.0176,-0.0698,-0.18180000000000002,0.1156,-0.1912,0.1468,-0.03,0.048,0.11299999999999999,0.1902,-0.0188,0.10200000000000001,0.0604,-0.0636,-0.096,-0.1034,-0.1648,-0.17020000000000002,0.040400000000000005,-0.0572,-0.0828,0.13,0.10920000000000002,0.009,-0.15680000000000002],[-0.045200000000000004,0.0054,0.004,0.1246,0.1988,-0.0038,0.022400000000000003,-0.07980000000000001,-0.0086,0.1958,-0.03900000000000001,0.1664,-0.038400000000000004,-0.1936,-0.1764,0.0512,-0.042800000000000005,-0.1368,0.1264,-0.1312,0.198,0.10020000000000001,0.1312,-0.0308,-0.08900000000000001]],[[0.09666963014642944,-0.004317778521550182,0.08888147070558512,0.03906753649769242,0.05149934865094221,0.07608981960248368,-0.15352421699464394,-0.0925143784156513,0.02927702123400769,-0.09230842379021102,0.0038732586450200045,-0.036315444562887114,0.08427725743192616,0.1560701072745458,0.11288300994022882,0.02767719019978158,-0.000335018249460401,-0.023523420544601676,-0.14331410563043634,-0.00992554468203822,-0.19272016987260177,0.10687660146143947,0.18547749238283903,0.06246895094139319,-0.07211693135857218],[0.032811892858048655,-0.17918595650222954,-0.11038608474961088,-0.11098846467192347,0.07121696883727151,-0.14418465867644276,-0.16978705583603793,0.07821462229179288,-0.018186844668321087,0.16661564130672238,0.023412512639825984,0.02901444217610649,-0.13798680436175706,0.1540119744017835,-0.18498582180624082,-0.12218681584032239,0.1602110989841313,-0.041186920151311,-0.10018532912123655,-0.09758728295703252,0.1964136350562521,0.1968130836255062,0.09141323575934518,-0.05718822309942236,0.10501418823498415],[0.11636387604064106,0.1285573437536808,0.02355773322402383,-0.005235037652447952,0.035548458237761656,-0.09604659801465863,-0.024839315290772997,0.12955557605557558,-0.18363995829895205,0.011152490573122726,0.04436199364666242,-0.18884386702730457,0.01495991909280613,0.18876362860366655,-0.0050430652478650195,-0.07024004601827381,-0.19223371224030245,0.010560270842954656,-0.14184456163852222,-0.04023862716358811,-0.0778414156146166,-0.1996397405388708,-0.18544020281570078,-0.14923577149148384,-0.14184309567307662],[-0.03779972616771224,-0.1487996766540127,-0.0355996796049008,-0.19239973440859193,-0.19159960929975933,-0.02659964678002518,-0.01839970201390166,-0.15459966306906378,-0.076799697109001,-0.040599639866813274,-0.1917997119016183,-0.09839966747941094,-0.09819969617614768,0.007000275703182604,0.09780032644385087,0.02300030355893347,0.08180025554356377,-0.06859969884340528,0.16700033778480214,-0.10259970719669664,-0.06159968605864938,-0.0831996987588571,0.08400030474878127,-0.05199972884439984,-0.1663996733269465],[0.13437455405949486,-0.08503004763217548,0.02577022684597887,0.08517531867784646,-0.09523630674419269,-0.11643282479405064,-0.04982769741783785,-0.11883127565315958,-0.13462814751494523,0.030166533608039392,-0.05062677219888374,0.13356909915795023,-0.13882823356225324,-0.07642562067804508,-0.030430335968101793,0.025571790972155548,0.10797625223639751,-0.1710279858676959,-0.12983139024015805,0.01797279040237603,-0.11542917374326762,0.001372005954586626,0.11917168064058319,-0.18842519810998914,-0.04943035753240298],[-0.043999604336889396,-0.10579953281978265,-0.11099953707245691,-0.027999616292911516,-0.14299943550724442,-0.10699948970097532,0.06480043027223428,0.1268004882421906,-0.021199562403269243,-0.1877994796780525,0.06640041625224896,0.171000480409278,0.1298004389712382,-0.15339960167048086,0.014200471636916453,0.03440043858498286,0.16580036918301044,0.02820043511057293,-0.19099951199356566,-0.05619957695759227,0.15040045358971157,0.18540043521934982,-0.11819955968597946,-0.03459960824205082,0.1346004719570193],[-0.010865304774464643,0.022178219571745778,-0.07301244994245956,-0.14523928892560733,0.14436537712202915,0.09028379434169446,-0.13874178078383978,-0.047463967770231756,-0.0011571574624713358,0.07906196627767574,0.07228960218851789,-0.026650786168104998,-0.16396009149939617,0.044128764173446265,0.07856842033389204,-0.08155925615560272,0.17899245904841538,0.1284483335106512,0.046932574284010264,-0.1663252694258719,0.0346079371908523,0.09284805941861408,0.03703698902219314,-0.05865686592607198,0.07556769033240056],[-0.10722791958121981,-0.048926631566180656,0.10344347549642056,0.16868874468513545,-0.1380447705180792,-0.1794241240329187,0.19881712792434575,0.07040827385868935,-0.17333365218309485,0.0064457982860489415,0.14431654407961889,0.18876629558461464,0.023675742704242577,0.0883910873841836,-0.0058952355112093045,-0.052126932798888026,0.09538703824186968,0.10884875358962408,0.0704196034177822,0.0895641879880949,0.027978165693624428,-0.04275036603901802,-0.00731490557483317,-0.04125494774014849,-0.03649289498980717],[-0.010599903742310623,0.009600113665314679,-0.16819988737307767,-0.14939990663434685,-0.11259986265745722,-0.07139987582878389,-0.04119989522304788,-0.14099988170064004,0.06780010647771327,-0.023999873401996434,-0.02539989872510868,-0.17299988310691952,0.004400106803004821,0.19580009691898395,0.17340011475619468,0.1672001067102228,-0.05039991016579468,-0.08719989413392859,0.16320011874446333,0.0600001029295604,0.0682001103595538,0.1854001058971124,-0.1719998928724893,0.1062000953204862,-0.0973998851621435],[-0.0664,0.1572,0.0818,-0.1014,0.1442,0.046400000000000004,0.1452,-0.0966,0.08080000000000001,-0.052000000000000005,0.0308,0.0864,0.1946,0.1058,0.095,0.1288,0.016200000000000003,0.11699999999999999,-0.11060000000000002,0.0884,0.1886,-0.0696,-0.08120000000000001,-0.1128,-0.10820000000000002],[-0.0478,0.08600000000000001,-0.0322,-0.0578,0.04000000000000001,-0.16140000000000002,0.1978,-0.13240000000000002,-0.033800000000000004,-0.051800000000000006,0.042,0.0064,-0.0718,0.1724,0.13999999999999999,-0.15960000000000002,0.0364,-0.0834,-0.06999999999999999,-0.05620000000000001,0.18560000000000001,0.06820000000000001,-0.0014000000000000002,0.08660000000000001,0.027400000000000004],[0.1172,0.13360000000000002,-0.05460000000000001,-0.1726,0.1442,0.13240000000000002,0.0524,-0.1368,-0.005000000000000001,0.1494,-0.1674,-0.167,-0.0322,-0.0922,-0.10740000000000001,-0.062,0.0888,0.0792,-0.0522,-0.0414,-0.0144,-0.0488,0.1686,-0.10840000000000001,-0.1894],[0.1876,0.1882,-0.13799999999999998,-0.0262,0.10420000000000001,0.0454,0.12340000000000001,-0.1564,-0.1958,0.1938,-0.1714,-0.1078,0.13540000000000002,0.028999999999999998,0.11180000000000001,0.1574,-0.038000000000000006,0.1196,0.0994,0.13520000000000001,0.0298,0.1394,-0.0446,-0.192,-0.1744],[-0.0576,0.05460000000000001,0.198,0.1384,-0.134,-0.0574,0.1532,0.1694,-0.1254,0.07640000000000001,0.057999999999999996,-0.0674,-0.055400000000000005,0.19640000000000002,-0.1262,0.0878,0.0442,0.0702,0.13640000000000002,0.1172,-0.1154,0.1386,-0.1876,-0.1786,-0.11180000000000001],[0.096,0.06760000000000001,0.16820000000000002,0.073,-0.045200000000000004,0.0218,0.0106,0.0968,0.192,0.101,-0.1328,-0.0172,0.101,-0.11699999999999999,-0.0522,0.1956,0.038400000000000004,0.132,0.15460000000000002,0.0352,-0.149,-0.05280000000000001,0.0502,0.1222,0.0282],[-0.1024,-0.09820000000000001,0.0364,0,0.15980000000000003,0.1638,-0.06,-0.011600000000000001,0.1358,0.011200000000000002,-0.06480000000000001,-0.0078000000000000005,-0.0868,-0.12480000000000001,-0.0604,0.0918,-0.0898,-0.0068000000000000005,-0.020000000000000004,-0.1298,0.009600000000000001,-0.10260000000000001,-0.021400000000000002,0.1956,0.1758],[0.1574,-0.15460000000000002,-0.11140000000000001,0.09340000000000001,-0.09920000000000001,-0.038400000000000004,0.028000000000000004,0.196,0.08120000000000001,0.0222,0.0148,0.1724,-0.0582,0.013200000000000002,-0.0444,0.1544,0.1806,-0.094,-0.1322,0.1068,0.048600000000000004,-0.017,0.0446,-0.1038,0.0172],[-0.1876,0.0018,0.1312,0.1008,-0.1926,0.09960000000000001,-0.0524,-0.08940000000000001,0.11020000000000002,-0.0256,0.10540000000000001,0.18380000000000002,0.1018,0.0714,0.1504,0.10120000000000001,0.12440000000000001,0.1134,-0.1492,-0.025800000000000003,-0.165,-0.18180000000000002,-0.048600000000000004,0.1456,-0.10940000000000001],[0.09620000000000001,-0.0488,0.0476,-0.196,-0.19720000000000001,0.17800000000000002,-0.1814,0.1816,0.06780000000000001,0.10940000000000001,0.057999999999999996,0.1562,0.0614,-0.10620000000000002,0.0684,-0.1584,-0.0038,-0.0094,0.0482,0.0352,-0.07440000000000001,0.1312,-0.1758,-0.1646,-0.1916],[0.13340000000000002,-0.0576,0.009800000000000001,0.0308,0.1008,0.0296,0.004,0.08460000000000001,-0.1688,-0.025,0.0128,0.16080000000000003,-0.08940000000000001,0.18020000000000003,0.0346,0.1418,-0.06520000000000001,0.054400000000000004,-0.16200000000000003,-0.0684,-0.13660000000000003,-0.0822,0.10820000000000002,0.0738,-0.131],[-0.0018,-0.165,-0.122,-0.0442,-0.0818,0.0606,0.0666,-0.1468,0.1496,-0.192,0.05580000000000001,0.0714,0.0482,-0.1044,-0.08960000000000001,-0.13520000000000001,-0.1156,0.0244,0.1228,0.07680000000000001,0.08100000000000002,-0.0222,-0.06760000000000001,-0.023000000000000003,0.1146],[-0.1906,-0.1526,0.15100000000000002,0.10400000000000001,0.134,-0.0956,-0.023400000000000004,-0.060200000000000004,0.17200000000000001,0.08860000000000001,-0.1328,0.0646,-0.1198,-0.0144,0.0032,-0.016200000000000003,-0.17200000000000001,-0.012400000000000001,0.0952,-0.006200000000000001,-0.18420000000000003,0.1884,-0.0854,0.12340000000000001,0.006],[0.1308,0.0958,0.07900000000000001,-0.15940000000000001,0.1986,0.19,0.16100000000000003,0.063,-0.1494,-0.0008,-0.1522,0.1626,-0.07840000000000001,-0.08120000000000001,-0.13060000000000002,0.10400000000000001,0.12960000000000002,-0.061,-0.04680000000000001,-0.0376,-0.11359999999999999,-0.15380000000000002,0.1258,0.018,0.043000000000000003],[-0.10120000000000001,-0.0666,0.09820000000000001,0.032,-0.1938,0.1318,0.1602,0.1184,0.1422,-0.13340000000000002,0.057999999999999996,-0.0684,0.0322,0.1218,0.034,0.0786,0.165,0.0698,-0.1938,-0.1192,0.0708,0.003,-0.066,0.084,-0.12440000000000001],[-0.0354,-0.1876,-0.1156,0.0616,-0.17900000000000002,0.0294,0.09100000000000001,-0.10020000000000001,0.0032,0.1952,0.027400000000000004,0.039200000000000006,-0.148,0.1552,0.0242,-0.0022,0.1516,-0.019000000000000003,-0.0598,-0.019200000000000002,-0.1804,-0.1262,0.0362,-0.0484,0.0386]],[[-0.144090934381551,-0.11452181819898291,0.09481920700427984,0.17559018114673358,0.13022325641976756,0.12648257692878287,-0.007886751842609242,0.16052116771465397,-0.013522694711224642,0.005159942915111295,-0.12490290750133813,-0.10673250159407692,-0.16606401392160416,0.12191855019378518,-0.05402818454412206,0.13029773936405886,-0.1696796802922881,0.16350749755227748,0.14247593014511972,-0.048696937771118935,0.059457068747096394,0.024086177056475047,-0.03787686485064038,-0.1680935087727174,0.09185831287942803],[0.05140658537297046,0.18080592731630934,-0.031995329265856104,0.1432040523053402,0.07140475706429701,0.1448060209724096,0.019206675040530603,0.09460684156461359,0.16440590869784755,-0.12019233051209172,0.13240633031818502,0.127005699738108,0.12480715904068615,0.14640678746394933,-0.015592077578974123,-0.007793655931038226,-0.06339317484173486,0.018806552007410823,0.13780587932584898,0.181006457465098,0.14260547751460953,0.17540609771743101,0.038206885178520215,0.19940653052991228,0.06820550401572449],[-0.17713899413628056,0.12165490979819076,0.04324326875797785,-0.00636246088022586,-0.13955593231169688,0.13445577728477076,0.12406182713073856,-0.17133659217345598,-0.02494526366877066,0.006071048010218185,-0.1197413579655641,0.16805280057699867,-0.1987336808602027,-0.04953712199196894,-0.16292660818198335,-0.1791412300286126,0.033663227362569575,-0.18433930401405865,-0.07794553454471599,-0.034140179200751304,0.08225074184738666,0.19205648762539884,-0.150936217143737,0.1572604976276189,-0.08094901251231658],[0.03300040114743091,-0.02139963893645503,0.04860028451294216,0.16180024682728683,0.12440028975280809,0.13120036676561903,0.031600406392214925,-0.12919958258444403,-0.02319964009344973,-0.16859953283517415,-0.1441996144132934,-0.19959965282184292,0.13900043606710885,-0.028999586542095626,-0.005399517412168766,0.08680038643709401,0.14440041575775653,0.09680039909683417,0.16160035814560178,0.12600039335255891,0.13120033363944503,0.19840037142635772,0.09520041940175779,-0.008599602197458462,-0.17839966474304858],[-0.05423406688455932,0.0919693373753294,0.07857583759807024,0.12677903628386641,0.0011753903093924482,0.01916885277258061,0.17016546129919966,-0.09503536794845316,0.03156943285410547,-0.03883967591713405,0.11796725166117826,0.05597051384024167,0.19056296454288146,-0.05943511231986635,-0.07924098379761474,0.06276718099399389,0.13736469281882702,-0.10663389494470552,0.1001695858328354,0.0785665946738792,0.068771663354981,0.049368455242788455,-0.09763561811678133,-0.008633783326342898,0.03617152637860169],[-0.1662032945923301,0.05039703456367666,-0.16480233654279364,-0.17760202658829155,0.13979762101945903,0.04719698782693725,-0.12320333081491193,0.1637965509164838,0.13479704478660262,0.11219616388597604,-0.11580316603388076,-0.1040028506878177,-0.19620358058894427,-0.01340339570102648,0.12479603672593084,0.15519682657958944,0.15559658529360246,-0.0324032771790364,-0.13600294164149834,0.0697967695327627,-0.15380273943279305,0.14979694999572685,0.03779655574812412,-0.09280326699081003,-0.006202752817940481],[0.1924988400514325,0.08562886046251492,0.19807714250794012,-0.18180066074132128,0.1160600925169426,-0.03018964325593451,0.05608120829126079,-0.022752038348927993,0.06863254810493062,0.15828464537312742,0.1769492440529065,-0.09352616507840156,0.1103855027512178,-0.1213410898044768,-0.15436533610391812,-0.05945347786575268,0.11105146097633045,0.09850543962868398,-0.05976165953259929,-0.14727588616369783,0.13411774335895765,0.001595198756081779,0.057639606720954424,-0.05909032225808615,0.12271250593044032],[-0.07200181738551299,-0.04082147545593546,0.1861590811859582,0.05875265323157986,0.014187900922278743,-0.13279021280072711,-0.05877185296013215,-0.15471640357732575,0.06537231327669492,0.06176006103506823,0.07451304962697501,0.03550256293045115,0.15238967550395321,0.18026564010814575,0.045644487125317997,-0.023082362367553597,0.06807822181259164,0.11538704807005255,-0.053237495396699315,0.20015548777749714,0.1876283855360438,0.13903540670590941,0.14449825831303115,0.16817987676398746,0.15923723105463336],[-0.049599844833032924,0.04120013966125511,-0.020199889945499448,-0.03759990451410408,-0.060599887907279534,0.11720014186865617,-0.03039984267344288,0.18040016106079695,-0.07279986077251721,0.12700018071588395,0.15280014916246085,-0.013999865696183058,0.17940016868937303,0.18760015992868306,0.02760018667222489,0.045000149483713024,0.16160016081605202,-0.03299984561529766,-0.10019986147067508,-0.06579984784611802,-0.1317998709318665,0.18240014368000446,-0.15579983776711645,0.0016001538756243467,0.09720012969187464],[-0.15860000000000002,0.1864,0.0078000000000000005,0.1132,0.0758,-0.18300000000000002,0.073,-0.0832,-0.11259999999999999,0.0826,0.189,0.049,0.033400000000000006,0.025,0.096,0.012,-0.1438,-0.15860000000000002,-0.0236,0.12440000000000001,0.1796,0.019200000000000002,-0.16160000000000002,0.1262,-0.132],[0.12340000000000001,0.027200000000000002,0.0762,0.0082,-0.0408,-0.17120000000000002,0.043800000000000006,-0.09340000000000001,0.148,-0.062400000000000004,0.15600000000000003,-0.194,0.0596,0.0834,-0.119,-0.12040000000000001,0.0712,-0.1188,-0.0956,0.010000000000000002,-0.0756,-0.1718,-0.0164,0.04680000000000001,-0.002],[0.0736,0.0078000000000000005,0.0978,-0.053200000000000004,0.18480000000000002,0.1216,-0.024,-0.15000000000000002,0.1512,-0.1322,0.061200000000000004,0.13560000000000003,0.04680000000000001,-0.048,0.1966,0.031,-0.0172,-0.1178,0.1522,-0.1748,-0.0434,-0.1274,0.07600000000000001,-0.10940000000000001,0.0614],[0.0386,-0.0188,0.10820000000000002,-0.0414,-0.1246,-0.1308,-0.1368,-0.1592,0.0984,0.0072,0.15900000000000003,-0.1552,-0.15780000000000002,0.1376,0.0822,-0.1898,-0.1182,-0.061200000000000004,-0.007000000000000001,-0.1394,0.198,-0.1744,0.050600000000000006,0.10220000000000001,0.0218],[0.1928,0.17120000000000002,0.09280000000000001,-0.1246,0.0966,-0.18320000000000003,0.043800000000000006,-0.0912,0.0296,-0.16720000000000002,0.06480000000000001,-0.1628,0.0932,-0.020000000000000004,0.0968,-0.0576,-0.12760000000000002,-0.0426,-0.10120000000000001,0.1322,0.07640000000000001,-0.16180000000000003,-0.1274,-0.15500000000000003,0.0308],[-0.0594,0.1716,-0.1918,-0.1454,-0.18280000000000002,-0.0718,-0.18580000000000002,-0.0872,0.1168,-0.12660000000000002,0.1602,0.1246,0.023200000000000002,-0.1444,-0.1666,0.0446,-0.1348,-0.13640000000000002,0.1882,0.1948,-0.023400000000000004,-0.009,0.13520000000000001,-0.19440000000000002,-0.0396],[0.1144,0.0368,-0.0292,-0.15460000000000002,0.0466,-0.06680000000000001,0.19240000000000002,0.06899999999999999,-0.18120000000000003,0.0454,-0.1,-0.0704,0.195,-0.074,0.09160000000000001,0.048,0.1212,-0.1708,-0.0014000000000000002,-0.192,0.024800000000000003,-0.0362,0.09820000000000001,-0.0378,0.0776],[-0.042,-0.10660000000000001,-0.16140000000000002,0.0174,-0.15560000000000002,0.1806,0.0206,0.037,0.1806,0.07700000000000001,-0.05560000000000001,-0.15380000000000002,-0.027400000000000004,-0.1496,0.06999999999999999,-0.16080000000000003,0.1932,0.0946,-0.1466,0.0318,0.163,-0.0838,0.1332,-0.04580000000000001,-0.1898],[0.023000000000000003,-0.11599999999999999,0.1678,-0.13799999999999998,0.12760000000000002,0.063,0.0576,0.128,0.05580000000000001,0.0256,-0.1254,0.1894,0.0688,-0.133,0.1804,0.1794,0.0742,0.1834,-0.1008,-0.066,-0.012,-0.10940000000000001,0.1358,0.12240000000000001,-0.1638],[-0.1652,-0.003,0.1738,-0.09200000000000001,-0.1368,-0.072,-0.17420000000000002,0.084,-0.09620000000000001,0.1216,0.1864,0.10300000000000001,0.031400000000000004,0.0288,-0.015,0.1246,-0.10940000000000001,0.17120000000000002,0.08700000000000001,0.16180000000000003,0.067,0.19920000000000002,0.1186,-0.019600000000000003,-0.16920000000000002],[-0.07440000000000001,0.059,-0.15960000000000002,-0.1686,-0.032,-0.1634,-0.1904,0.085,0.135,0.0144,-0.0818,-0.149,-0.0164,0.0246,-0.1166,-0.1834,-0.1734,-0.0664,-0.10720000000000002,0.1758,-0.0766,-0.027200000000000002,-0.0218,0.0634,-0.1988],[-0.10420000000000001,0.08860000000000001,0.1978,0.048600000000000004,-0.1382,-0.124,-0.0884,-0.1484,-0.1142,0.1202,0.004,0.0236,0.0922,0.15460000000000002,0.038200000000000005,0.0436,0.10920000000000002,0.045200000000000004,-0.1232,0.1456,0.17300000000000001,-0.1958,0.0182,-0.028000000000000004,0.18200000000000002],[-0.1272,-0.015,-0.1028,-0.0704,-0.1574,0.19920000000000002,0.1534,-0.0416,-0.046200000000000005,-0.0752,0.17520000000000002,0.07840000000000001,-0.0154,-0.028399999999999998,0.1484,-0.034,-0.1228,0.189,0.19820000000000002,0.1426,0.1158,-0.049800000000000004,-0.1514,-0.0776,-0.18600000000000003],[-0.0756,-0.08020000000000001,0.053200000000000004,0.188,0.0868,0.168,0.09200000000000001,-0.0152,0.023200000000000002,0.1166,0.056799999999999996,0.18180000000000002,-0.006200000000000001,-0.0166,-0.11100000000000002,-0.1668,0.10840000000000001,-0.1744,-0.0588,0.059,0.10980000000000001,0.169,0.007000000000000001,0.023200000000000002,-0.12480000000000001],[-0.1436,0.012,-0.1186,0.168,0.07440000000000001,-0.1024,-0.1008,-0.18600000000000003,0.0608,-0.1844,0.0014000000000000002,-0.1288,0.025400000000000002,0.0884,-0.07600000000000001,-0.0198,0.0174,-0.033600000000000005,-0.10720000000000002,-0.026800000000000004,0.0884,-0.0026,-0.07780000000000001,0.0354,-0.053200000000000004],[0.199,-0.06760000000000001,-0.0322,0.1456,-0.1376,0.0746,-0.0374,-0.048,0.171,0.1764,0.0182,0.1918,0.1158,-0.0714,-0.0028000000000000004,-0.1392,0.15380000000000002,-0.0072,-0.0838,0.0852,0.0578,-0.143,0.0088,-0.050800000000000005,-0.083]],[[0.17926981735499892,0.10318736938265897,0.004210714255695634,0.16311040237520869,0.1711146251927803,0.14826334251922746,0.042514168579184754,0.06295613284361454,0.1265197326740949,-0.16392403864560104,0.08843497996583388,0.07668504276119646,0.14302276117918322,0.040035829990375534,0.045615432285052444,0.030876299673117006,0.03925453720319821,-0.10367678033226624,-0.009492507054417556,-0.01722250772180421,0.15249128208055998,-0.14132453004875736,0.11849632202527714,-0.18279598892703994,-0.008900832733785051],[-0.16662624534001821,-0.17892483443027474,0.13342329708648717,-0.10206029825623379,-0.13126384140483432,0.013779175098356205,0.16793650150847106,0.11630142514162285,-0.13086811290679487,-0.16543141670384534,0.055602949490355214,-0.1390390329363888,0.11941319548967266,-0.1509977633454385,0.10041934390465033,0.18796830364366268,-0.15961344648571543,-0.09027103941584712,0.16854214937775744,0.14725116417997647,-0.10504426440561593,0.07356899634050025,0.1639515113600655,-0.011571082513861448,0.051149125791743584],[-0.08102952593063141,0.12787048374000706,-0.18997924229585061,0.09013595802089322,0.1995323666670564,0.05177598543698705,-0.08546722941300909,0.1622970296724827,0.1833280175416138,-0.18043474488066893,-0.12139988425576095,0.13115753035098732,0.09001050976694576,-0.04000060731668924,-0.0017832569312197445,-0.05183503424181709,-0.1828165222107672,0.1349250522711238,-0.05766157012686127,0.012649014802717764,0.07275222263108667,0.0023656727557104886,-0.1746520654134427,-0.19177353997091054,-0.16045448585746966],[0.18524896641095911,-0.030816850105286193,0.14108203774425368,-0.08797376813123621,-0.11697613362096511,-0.14774741589192564,0.1342240916580642,-0.1367993139909537,0.07082101589001917,-0.12135448759216734,0.010868454346465302,-0.01835957204984242,0.1924752942577634,0.0572679784746524,-0.12812060099539083,0.19024532608853792,0.007657509233055114,-0.1351809379850273,0.0786278665567274,0.09450064176875728,-0.04776306437278522,-0.16575421176728994,-0.08476588415989046,-0.09711421029853766,0.15023252333542067],[-0.14192018235887585,-0.09937256212982264,0.05530612759751499,0.19886171899515417,0.07665983586687737,0.15348269312958565,0.02526000044656849,-0.16495858333433655,0.03125757174976963,-0.01492293800116186,0.009295318666318109,0.06587301563180974,0.0033007615499274327,0.1104949399704691,0.1433040289488342,0.15907691521986866,-0.010913389608212273,-0.031143983974911464,0.054063022723461314,-0.16527906488553606,0.09867023677953284,-0.044122718152211485,0.016267993653152842,-0.1780908869599326,-0.07973327348025705],[-0.021991650556547847,0.0376119758872641,-0.009793488505806221,0.022409593241706365,-0.045790277335976196,-0.14119185578786306,-0.08119031358870309,0.1146110465517301,0.03140988690701843,-0.16279147124925436,-0.1883927378765303,-0.12059119097736935,0.11620688423080162,0.08320728838344811,0.0902066591239394,-0.04739145854793141,-0.19379213100980575,0.019209993361046982,0.15420950766060762,-0.03199451099746603,0.08100900225250394,-0.06679148590400912,-0.18939084077742646,0.15640630389631752,0.014409247380347259],[0.06542975421449092,-0.1754602112391125,0.19527275512994843,-0.1577251087209094,0.1505003974686622,-0.1682093572193782,0.1650976301169938,0.05395112910394138,0.06713125034793897,0.021466860726121004,-0.1309806749323406,-0.06227828596094467,0.05894552108789966,-0.1671755406217624,-0.1890987462828314,0.005468905182323968,-0.11866254435532675,-0.05264768807901767,-0.09174268042205094,-0.16252791034286387,0.16075940092050292,-0.14953610722136704,-0.04621015631643911,-0.10216773359075551,0.09260702959128969],[-0.18675377092377252,0.04844629086006734,-0.06555071921510802,0.06183180436433078,-0.056011315859490755,0.09531222638841234,-0.005807042864198268,0.12816574511930254,-0.19146333469817978,0.14038333373224238,0.07120161890364884,-0.05510936474516744,-0.12467367171360529,0.03379294273823897,-0.04939884313184321,0.010179919902495334,-0.09319795408267995,-0.11429894853414412,-0.026538423933869053,0.06238844337841423,-0.06577304086541239,-0.15901164132460718,-0.14102446114281578,-0.15508230912183552,0.01594650213685602],[0.11839620866431082,-0.006805443884147691,-0.07900296146796913,0.0035956375539881753,-0.14820442186882027,-0.15380370068880264,-0.1564044169712479,0.008594997594176344,0.08799550678855265,0.055996121589447924,-0.004403302455746958,0.042195993930648455,0.1681968692511758,-0.04560331440286826,-0.1478030276513363,0.15939611698877992,-0.07700357714929439,-0.045204542308449606,-0.07660432125869998,0.10959750573164086,-0.058804093730414495,-0.057003871467742606,0.009195835520182967,0.14879713271011474,0.10519579554802332],[0.1834,-0.0244,0.1884,-0.0288,0.0032,-0.10940000000000001,0.13560000000000003,-0.09720000000000001,-0.1698,-0.1554,-0.18560000000000001,-0.074,0.0816,-0.0938,-0.054000000000000006,0.1328,0.08960000000000001,-0.18400000000000002,0.1878,0.0576,-0.046400000000000004,0.040600000000000004,-0.1376,-0.043000000000000003,0.1736],[-0.1034,-0.1612,-0.0054,0.13560000000000003,0.18580000000000002,-0.0852,0.13240000000000002,-0.0068000000000000005,-0.0454,-0.08900000000000001,-0.023200000000000002,0.07740000000000001,0.1318,-0.0618,-0.163,0.1212,0.0018,0.15980000000000003,-0.11220000000000002,0.15940000000000001,-0.11220000000000002,0.0826,0.0166,-0.1716,-0.1402],[-0.19920000000000002,-0.0792,-0.0454,0.12380000000000001,-0.17300000000000001,0.1474,0.15380000000000002,0.1626,0.0636,-0.0014000000000000002,0.1262,-0.168,0.006600000000000001,0.051800000000000006,-0.1068,-0.11599999999999999,0.15080000000000002,0.15400000000000003,0.012,-0.15480000000000002,0.13340000000000002,0.1902,0.0702,-0.0024000000000000002,0.0014000000000000002],[-0.163,0.064,0.0188,-0.0956,0.1058,0.0342,0.0298,-0.10060000000000001,-0.10760000000000002,0.127,-0.11080000000000001,0.04680000000000001,-0.05560000000000001,0.127,0.0348,0.1554,0.19820000000000002,-0.10400000000000001,-0.0966,-0.11599999999999999,-0.033600000000000005,-0.08760000000000001,-0.0776,-0.1328,-0.004],[0.0514,-0.1892,-0.17820000000000003,0.10420000000000001,0.1418,-0.12240000000000001,0.028000000000000004,-0.0412,0.0164,0.1438,0.09300000000000001,-0.1424,0.027400000000000004,-0.1948,-0.1068,0.033600000000000005,0.0262,-0.1416,-0.131,-0.12940000000000002,0.0174,-0.12760000000000002,0.1162,0.10360000000000001,0.011000000000000001],[-0.0718,0.06760000000000001,0.125,-0.1184,-0.1998,-0.0696,0.1254,0.17420000000000002,0.1666,-0.1648,-0.12040000000000001,0.1134,-0.0606,0.0424,-0.10160000000000001,-0.002,0.15180000000000002,0.1714,-0.1564,0.1358,0.1988,0.18000000000000002,0.05460000000000001,-0.1164,0.18560000000000001],[0.10660000000000001,0.0076,-0.1408,0.05500000000000001,-0.1922,-0.07500000000000001,0.1186,-0.1938,0.0422,-0.1484,0.0128,0.1534,-0.08940000000000001,-0.039200000000000006,-0.16080000000000003,-0.0478,-0.1766,-0.17320000000000002,0.1874,0.062400000000000004,-0.1312,0.0328,-0.1428,-0.1186,-0.1358],[-0.0952,-0.0322,0.06420000000000001,-0.1048,0.0444,-0.07500000000000001,0.07640000000000001,0.05500000000000001,-0.1878,-0.166,-0.0172,0.1028,0.0994,0.1288,0.1474,-0.05580000000000001,0.1542,-0.18660000000000002,-0.1602,0.0416,0.1,-0.1424,-0.1922,-0.17920000000000003,0.14980000000000002],[0.1666,-0.1398,-0.0482,-0.0838,0.10940000000000001,-0.15100000000000002,-0.0692,-0.11040000000000001,-0.1348,-0.1648,0.16040000000000001,0.015,-0.10560000000000001,0.17800000000000002,-0.0188,-0.149,-0.1902,-0.0888,-0.18100000000000002,0.1882,0.084,0.118,-0.19,0.1166,-0.1684],[-0.005600000000000001,0.1796,-0.146,-0.0838,-0.1386,-0.15280000000000002,0.1368,-0.0004,0.119,-0.1038,0.1876,-0.034,-0.031,-0.1564,0.0694,0.1708,-0.048,0.121,-0.15280000000000002,0.1996,-0.022600000000000002,-0.1044,-0.0656,-0.0864,-0.0092],[0.1968,-0.15280000000000002,-0.043800000000000006,-0.1302,-0.194,0.0194,0.043800000000000006,0.031400000000000004,-0.10900000000000001,0.1218,0.0044,-0.1004,-0.13,0.11240000000000001,-0.0572,-0.07440000000000001,-0.16620000000000001,-0.0158,0.0696,-0.013000000000000001,0.0988,-0.1156,0.0666,0.007000000000000001,-0.063],[0.1454,0.0608,0.1432,0.10020000000000001,0.19820000000000002,0.1998,-0.0974,-0.1696,-0.1612,0.1486,-0.1902,-0.13360000000000002,0.1902,-0.1572,0.1718,-0.0596,0.030600000000000002,-0.09280000000000001,-0.0346,0.0166,0.0616,-0.0034000000000000002,0.032600000000000004,-0.084,0.1386],[-0.1978,-0.1644,-0.0918,-0.10540000000000001,-0.0094,-0.1968,-0.0322,-0.053000000000000005,0.1824,-0.039400000000000004,-0.0198,-0.1432,0.137,0.07540000000000001,0.044000000000000004,0.1736,0.09060000000000001,0.1794,0.10420000000000001,-0.1804,-0.11060000000000002,-0.0022,-0.06280000000000001,-0.0114,-0.18620000000000003],[0.0644,0.0012000000000000001,-0.0878,-0.056799999999999996,-0.1402,0.12960000000000002,-0.06999999999999999,0.1172,0.1342,0.0898,0.11299999999999999,0.06380000000000001,-0.141,0.10460000000000001,-0.0736,0.1906,0.17320000000000002,0.048,-0.0884,-0.171,-0.0738,0.10620000000000002,0.14880000000000002,0.17700000000000002,-0.1748],[0.122,0.10120000000000001,-0.1312,-0.0842,-0.052000000000000005,-0.12380000000000001,-0.1402,-0.11160000000000002,-0.101,-0.0862,0.031400000000000004,-0.1196,-0.10920000000000002,0.0504,-0.0346,-0.0298,0.1908,-0.06480000000000001,0.1378,-0.0616,0.09000000000000001,0.11140000000000001,0.0828,-0.166,-0.1774],[-0.0854,0.0872,-0.18420000000000003,-0.067,0.1202,0.13,-0.13740000000000002,0.1132,0.027200000000000002,-0.169,-0.027000000000000003,-0.0146,0.0228,-0.0328,-0.1804,0.12040000000000001,-0.0732,0.1322,-0.1146,-0.10940000000000001,-0.0342,0.0074,0.1928,0.1182,-0.13640000000000002]],[[-0.0909140581003217,0.02088004252710248,0.09185279677243398,-0.07032861204934164,0.11701526050054392,-0.18249406161477827,-0.1880511307936022,-0.08464433383821458,0.1444708618929002,-0.0917157509468328,-0.160735834960855,0.14116593325418497,-0.04069857557395017,0.19873574437441321,0.0407378343705371,-0.03878564557043258,0.1655325873397919,-0.08458977853092169,0.01186822026139013,-0.16705372540452557,-0.10499841056010772,-0.1836569358952154,0.07136595629287162,0.06174216464485456,-0.06952815139543755],[0.002591441492119214,0.023502475409933585,0.04848689286958429,0.10249752418491456,0.09806540903738536,-0.006682690732488137,0.19794195025813963,-0.10905438813949934,0.040897238373730056,0.17250489241369873,0.16589340095242733,0.031037197798256935,0.042114719367077065,-0.08246564159244626,-0.07297887837572686,-0.02922066419178617,-0.029267447146722213,0.004976973464604569,0.05329572335949084,0.14674038693340524,-0.1955424029386295,0.11033854749081988,-0.019562785550052964,0.14633803470798298,-0.14010219523352563],[-0.030784091422867473,0.17964846840584658,0.0244719744803919,-0.10714406611286313,0.16890434560063106,-0.12257385390501066,-0.15541082020102961,-0.16301686931256917,0.16245640008264955,0.033044848426378434,0.17086217174224774,-0.1376530974603289,-0.18976996628586973,0.13540043311252764,0.19837113996551473,-0.1614673721226513,-0.1159968431510599,-0.17706380529217777,-0.15254132431102718,0.02319135318110113,-0.14168385417492121,-0.042405879681918446,-0.0800531144874616,0.059594897666103624,0.15365555049931182],[0.04879368073376937,-0.05644154278993582,-0.053664667189415954,-0.14064889055642113,0.002303448989709891,0.017180473419395072,0.036417051217724275,-0.11637754253800933,0.19655068713883603,0.058362045394679686,0.08734499153445928,-0.08793841629276634,-0.002223370985010735,-0.06079422547053171,0.18963772606171564,-0.14232747703417656,0.09220309510156562,0.18986901743268192,-0.1896515616458616,0.017214721562139598,-0.12130814310117008,0.19301199143953948,0.11386160884239813,0.13861123067308842,-0.09984847208531367],[0.1495027407525821,-0.09521648864302895,0.06257217809628518,0.13937990934692393,-0.01444345768994891,0.18119431551734758,-0.0019877050252182556,0.16461480903793818,0.00697971141400667,-0.18081472335997706,-0.09522308439477817,0.13213602430969107,-0.08120757357853818,0.16840671698593204,0.08852432825871273,-0.19516055863414475,0.06280540381969073,0.02523772414672543,-0.026621393235017717,-0.07658889445927375,-0.16144913485647136,-0.0017902344614838966,-0.05266396128508502,0.15100939367245889,0.1635801247191068],[-0.04058426154478388,0.1536114453282021,-0.022787950007495412,-0.052788363526293285,0.18681287291625628,-0.09178911449903931,0.0824099886432086,0.04400969399455632,0.016811657738403804,-0.001988640902524981,-0.09318819830154831,-0.19398603219466154,-0.13338901957765856,0.019410225505761925,-0.026985412232586714,0.02240849257847261,-0.053589704408497627,0.19180858519401875,0.04441171368992745,0.197409995646493,-0.024786819317853447,0.06861006480663331,0.10561396950781972,0.0858100858137693,0.19501163715718434],[0.01523952319675555,-0.15170139419266765,-0.02122197996987109,-0.18333969945085607,0.1332118751237204,-0.1743867611196865,-0.10939667380635676,-0.16576680160946988,-0.11334201369243764,-0.10808276630407139,-0.11117165981475609,-0.02960643989857751,0.13079325306665218,0.030745158060883532,-0.16093080681448088,0.10869309186195301,0.035531185513164136,0.0898748012802052,-0.1789537090799962,0.18599176890735233,0.08795137536059415,0.04317755668451501,0.11839366530240615,-0.0838264226675458,-0.09033764472469435],[0.09969337017913178,-0.08257100291807577,0.15432575262513862,0.131996194859106,0.07138343955575079,0.17172723502766418,0.14849032476288773,0.12851502985899468,0.012994271525001209,-0.1191550107245423,0.050968860531769744,0.11279652123411271,0.12831009150663011,-0.15115980794091421,-0.07990998262577792,0.06313816050854391,0.1792282290213293,-0.09107749431361872,-0.04361575816127385,0.10968012309584538,-0.043468333355790145,0.1918679420555576,0.030196624718012967,-0.0533354586962098,0.14259802017371573],[0.0022763716741467277,-0.16994437789503186,0.05885853329540256,0.08545654747992747,-0.06033744898845476,-0.06234715513057566,0.13964821911243383,-0.07795240777525807,-0.0991434029373741,-0.1681448322822808,0.17045731583888002,0.08546782147637833,0.030653330815123673,-0.06655034090870007,-0.06912917366482366,-0.08655874839887166,0.008849996403278843,0.12324169258822636,0.09325688116687518,-0.1687514687073365,0.19226400873949892,-0.02815112422434673,0.00026781748508463164,-0.08015102884002054,0.08405649072326908],[0.1394,0.1068,-0.17600000000000002,-0.15580000000000002,-0.15760000000000002,-0.0492,0.059,0.0862,-0.1626,0.05280000000000001,0.0994,0.17500000000000002,-0.1882,-0.133,0.192,-0.15480000000000002,0.0606,0.056799999999999996,-0.0078000000000000005,0.021400000000000002,-0.0032,0.0478,0.18400000000000002,-0.024,-0.0204],[-0.013400000000000002,0.19640000000000002,0.18000000000000002,0.032600000000000004,0.19240000000000002,-0.16820000000000002,0.19920000000000002,-0.137,0.09060000000000001,0.0088,-0.11000000000000001,-0.096,0.033400000000000006,0.013400000000000002,-0.1188,0.0194,0.19920000000000002,0.1602,-0.0022,0.0974,0.0654,-0.016200000000000003,0.1584,0.10940000000000001,0.1706],[0.1402,-0.0008,-0.0606,-0.020000000000000004,-0.0918,0.0158,-0.04000000000000001,-0.053000000000000005,-0.1668,0.06720000000000001,0.0108,-0.16240000000000002,-0.0118,0.06680000000000001,0.11299999999999999,-0.18220000000000003,0.123,-0.19340000000000002,-0.125,-0.008400000000000001,0.15680000000000002,0.15760000000000002,-0.15980000000000003,0.05500000000000001,-0.0348],[-0.1592,0.17420000000000002,-0.08960000000000001,-0.054400000000000004,0.17520000000000002,0.095,-0.1844,-0.15660000000000002,-0.025400000000000002,0.1386,0.13440000000000002,-0.1542,0.11020000000000002,0.13660000000000003,-0.18460000000000001,-0.0716,-0.0216,0.1652,-0.049800000000000004,0.0436,0.08360000000000001,0.0328,-0.1946,0.0948,0.09060000000000001],[-0.08860000000000001,-0.0748,-0.147,0.1302,0.148,0.17880000000000001,0.1192,0.043000000000000003,0.1918,-0.1384,0.10540000000000001,-0.082,0.1446,0.0872,-0.1158,0.1718,-0.15480000000000002,-0.0006000000000000001,-0.05260000000000001,0.17900000000000002,-0.16720000000000002,0.034,0.034999999999999996,0.0288,0.095],[-0.032400000000000005,0.1048,0.19,-0.10300000000000001,-0.10880000000000001,0.046400000000000004,-0.1958,0.0826,-0.08760000000000001,-0.194,-0.1464,0.0944,-0.1816,0.18200000000000002,0.16160000000000002,0.1132,0.099,0.1216,0.1998,0.1494,0.0984,-0.014000000000000002,0.0378,0.028999999999999998,-0.0026],[-0.05360000000000001,0.1358,-0.0366,-0.10500000000000001,0.0046,-0.1978,-0.0126,0.1258,0.0424,-0.08860000000000001,0.1024,0.048,0.16200000000000003,-0.12040000000000001,-0.1152,-0.10920000000000002,-0.0178,0.06720000000000001,0.062,-0.13060000000000002,-0.049600000000000005,0.0964,0.10700000000000001,-0.09060000000000001,-0.124],[0.05280000000000001,-0.1698,0.0654,-0.08560000000000001,0.1688,0.18020000000000003,0.1678,0.0958,0.15460000000000002,0.08760000000000001,-0.1704,0.19440000000000002,0.15880000000000002,0.0824,-0.0646,0.0386,0.0434,-0.1816,0.1786,-0.11399999999999999,-0.07880000000000001,-0.12380000000000001,-0.016200000000000003,0.10720000000000002,0.165],[-0.0952,-0.08040000000000001,0.17880000000000001,-0.1264,0.18000000000000002,0.030600000000000002,0.10220000000000001,-0.061,0.0122,0.0086,-0.07980000000000001,0.146,0.09360000000000002,-0.06780000000000001,-0.1184,-0.1768,0.0478,-0.10800000000000001,-0.0752,-0.1826,0.12560000000000002,0.1744,0.008400000000000001,-0.08800000000000001,-0.194],[0.0968,0.038000000000000006,-0.0604,-0.1202,0.06999999999999999,0.0434,-0.1658,0.067,0.0086,-0.15000000000000002,-0.0724,-0.0446,0.126,-0.12340000000000001,0.0078000000000000005,-0.0504,-0.124,-0.144,0.097,0.1744,0.1736,-0.1392,-0.027000000000000003,-0.0028000000000000004,-0.19340000000000002],[0.026600000000000002,-0.11200000000000002,-0.1426,0.1232,-0.0144,-0.0478,-0.1898,0.1396,-0.028999999999999998,0.15560000000000002,-0.13060000000000002,-0.15880000000000002,-0.039400000000000004,-0.17900000000000002,-0.18380000000000002,-0.1494,-0.1826,-0.1572,0.1496,-0.0626,0.16820000000000002,0.0514,0.149,0.1506,0.0504],[-0.08860000000000001,-0.054000000000000006,-0.0732,0.1958,0.14780000000000001,0.1724,-0.016,-0.1288,0.0172,-0.18020000000000003,-0.049600000000000005,0.1532,0.0028000000000000004,0.0432,0.043800000000000006,-0.034,-0.1736,-0.17320000000000002,-0.1456,-0.11259999999999999,0.09300000000000001,0.0694,-0.0164,-0.084,0.1246],[0.046000000000000006,-0.1978,0.0146,0.10620000000000002,-0.1212,-0.07800000000000001,-0.1748,-0.10620000000000002,0.002,-0.059,-0.16160000000000002,-0.07940000000000001,-0.1412,0.1186,-0.1398,-0.0108,-0.023200000000000002,-0.0144,-0.1208,0.0348,-0.045200000000000004,0.1038,-0.06,0.15680000000000002,0.1794],[0.0166,-0.055200000000000006,0.1642,-0.10920000000000002,0.066,-0.1134,0.12480000000000001,0.15700000000000003,0.1172,0.118,-0.121,0.17720000000000002,0.06,0.10660000000000001,-0.08760000000000001,-0.12660000000000002,-0.06,-0.0322,-0.1378,0.06820000000000001,0.193,-0.1416,0.0128,0.1978,-0.0704],[-0.195,-0.1174,-0.12340000000000001,0.15700000000000003,0.1174,0.07840000000000001,0.0174,0.095,-0.12240000000000001,-0.1166,-0.1288,0.1492,-0.1698,-0.101,-0.013400000000000002,0.032,0.0126,-0.199,-0.1208,0.0502,-0.0064,-0.0126,0.19720000000000001,-0.1202,-0.1554],[-0.0852,0.1656,0.0026,0.1396,0.0796,-0.1128,0.1034,0.145,0.0026,0.0674,-0.0828,0.04680000000000001,-0.021,-0.0374,-0.0412,-0.10620000000000002,0.055200000000000006,0.0596,-0.011200000000000002,-0.033400000000000006,0.065,0.16000000000000003,-0.006600000000000001,-0.1552,0.10900000000000001]],[[0.08022909469191315,-0.023444451108072032,0.09884267906554077,-0.17734358428314279,-0.1270640202521635,0.07252874787180677,-0.12967039113014867,-0.16584718435956813,0.14175116027371923,-0.16997850702462988,-0.005873508244429064,0.12964695462842363,0.022737387169436653,0.17550715939206357,0.10435082859054803,-0.1917427192433763,0.0012613127996478459,-0.052731973149473386,-0.12737343800238432,0.09898114612608763,0.019508605408133744,-0.008914540061896419,-0.16266615471934093,0.056913031825153365,-0.03749432187145289],[0.1860955358634208,-0.03759773472941629,0.034283490986093734,0.17149131083607447,0.06861981932443015,-0.09957362912274476,-0.0488153325493371,-0.07457526786466426,0.14638597308279797,0.03252274505571932,-0.06955128094744899,0.1840795802274503,-0.16980168191338507,0.07044577312427212,-0.15459348909037834,-0.13972972325157096,0.07750726230536144,0.010260652122506621,-0.11750212083561794,-0.11586132353831163,0.15942419209570605,0.13282468682980278,0.035021783102509654,-0.17980010462971993,0.13224708661285697],[0.13925170610752796,0.07849039174375844,-0.15533007154208583,0.13155717985478835,-0.0029358998045307216,-0.10994562903494241,0.08471806714820387,-0.13044445876465965,0.0038157172490076007,0.1267102386114205,-0.01207990124570387,0.19367568807210453,-0.05280278520337378,0.03422535893411211,-0.15231595239095475,0.020889569686168976,-0.17636748592394216,0.08770400425983883,0.15844828889618648,-0.04141274003352851,0.014558534550429558,0.12005866764510204,0.10846122253443176,-0.1313042770437857,-0.04337662808153332],[0.15094244295139364,0.015167858400840305,0.02273530766148023,0.19882086499845567,-0.10042169736148594,-0.11341778510704938,0.08239544977885745,0.18066210227610882,-0.09152275899643596,0.056639591396907676,0.10007645657908634,0.08613296416035088,0.07788458380445747,0.11299376690071823,-0.03942961302448973,0.14692741981986293,0.13131130520328316,-0.1332783033009176,0.021543852955533817,-0.1584318608017988,0.0742999906002185,-0.10918064749795464,-0.05842051809813968,0.138404589190837,-0.16560545497792176],[0.0855483577215901,-0.09762794698982438,0.04097423015601629,-0.18561733677424602,-0.038265320931013494,-0.08007916539658377,-0.04204158842000266,0.12154909575721348,0.09918151738983752,-0.18608408834902537,0.1220986312782143,0.03118243418064985,0.18875521796673853,-0.1003204146609288,-0.006836967810462717,-0.07039782388153497,-0.19162588875684794,-0.04877730814240608,0.12074348436131961,0.1604567177830778,0.023700220920877965,0.052873882281658686,0.04913057760244451,-0.0698734299452741,-0.016923235883789724],[0.008994820819639924,0.07441840170765823,-0.0019875769656536296,-0.09531022395182723,-0.19600698576575604,0.18998362251734488,-0.15473422781338267,0.060274406987938754,-0.0014468108751127214,-0.12835554610351194,0.07624020043040065,-0.0819820188739643,0.1443353224548517,-0.048644390199169905,0.19461227624980493,-0.022568616469733096,0.14015563097675024,-0.11815467756524002,-0.19700847560281645,-0.1578674032921696,-0.017502025138221532,0.12680843437848682,-0.020209762216520474,0.14044421278634472,0.1261536904108466],[-0.18687937677368838,0.0022838393525111103,0.05914399535679156,0.000912813939003373,-0.14354991186369656,-0.08316241090130298,0.043149083009138264,-0.19057569648670403,0.07453117871770744,-0.023347461502550897,0.09937875072780182,-0.17444859990458284,-0.03949257198284186,0.007000340178588919,-0.13632430645078727,0.03056922622598533,-0.11413369526938759,0.017987754137989285,-0.16988377391338827,0.03483787307058637,0.00685776494461859,-0.07532723032430086,-0.04315361312910682,-0.13907965282974163,0.1513977916029065],[0.09470440811909367,0.1897885846172212,0.1416748959553626,-0.012994062629558692,0.19183144947162403,0.10344740178892448,0.007122134720402534,-0.05084451747348534,-0.15156308341120042,0.04408261939059701,-0.18458621010483403,-0.04513459997184512,0.0836670685810503,0.010894753537866602,0.1013989438411467,0.12104271098693123,0.14255669134422144,-0.19018080177873203,0.039710079391595564,-0.12319033986130935,0.09233020993237272,0.08781956088471259,-0.002363790143391251,0.1417590649361413,-0.19190202824155292],[-0.026637980053448872,0.0728988635140701,-0.1476405056258947,-0.11428196501531657,0.025502632657943468,0.004304067138360756,-0.11221888942593392,-0.13133950565664299,-0.0012615337182185417,0.12972483081456074,-0.10773419413708347,0.012558622129571333,0.08054111271177239,-0.10289175101419895,-0.15390021996142747,0.10935660698598174,-0.12612159118417715,0.008754546850940481,0.052962553882638215,-0.09062866124523573,-0.07125330757080259,0.05978988303029313,0.14970307548719403,0.12658453457231503,0.12490852443954882],[0.1804,0.1338,-0.08660000000000001,0.0188,0.0322,0.10960000000000002,-0.074,-0.010000000000000002,0.022000000000000002,0.08860000000000001,0.041800000000000004,0.198,-0.006200000000000001,-0.0878,0.1932,-0.05260000000000001,0.011200000000000002,-0.0346,0.0578,-0.15700000000000003,-0.0082,-0.0304,0.1758,-0.1748,-0.10600000000000001],[-0.12660000000000002,-0.0048000000000000004,0.07900000000000001,0.18560000000000001,-0.17800000000000002,0.1738,0.050600000000000006,0.0246,-0.018600000000000002,0.027800000000000005,0.013000000000000001,0.012400000000000001,0.15800000000000003,0.1418,-0.145,-0.17980000000000002,0.1404,-0.1542,-0.09860000000000001,0.1396,-0.1242,-0.0188,-0.0034000000000000002,-0.1406,-0.09720000000000001],[0.015,-0.15380000000000002,0.10600000000000001,-0.0772,0.0318,-0.1272,-0.05500000000000001,-0.0616,-0.026800000000000004,0.1658,0.11060000000000002,-0.1322,-0.10620000000000002,0.1896,0.16180000000000003,-0.0698,0.022000000000000002,0.1696,-0.1684,-0.1778,-0.0208,-0.1146,-0.012400000000000001,0.1448,-0.10980000000000001],[0.08600000000000001,0.17420000000000002,-0.05,-0.0442,0.14980000000000002,-0.168,-0.18460000000000001,-0.0172,0.050800000000000005,0.13060000000000002,0.1156,0.18120000000000003,0.08120000000000001,0.1452,-0.0016,0.18660000000000002,-0.06280000000000001,-0.1298,-0.1254,-0.10620000000000002,0.166,-0.07600000000000001,-0.09160000000000001,0.18420000000000003,0.006],[0.1152,-0.15980000000000003,0.021400000000000002,-0.0706,0.023200000000000002,0.18380000000000002,-0.17880000000000001,-0.0446,-0.0694,-0.1878,-0.04580000000000001,-0.0304,0.1428,0.0204,-0.0938,-0.025400000000000002,0.0666,0.15760000000000002,-0.0674,0.0014000000000000002,-0.0376,0.1206,-0.1264,0.1938,0.10600000000000001],[0.0492,-0.19140000000000001,-0.11499999999999999,-0.16160000000000002,-0.05560000000000001,-0.011600000000000001,-0.12560000000000002,-0.1966,-0.032600000000000004,0.06860000000000001,0.037200000000000004,0.17920000000000003,0.1212,-0.0188,-0.0036,-0.0432,-0.0752,-0.0216,-0.049800000000000004,0.1926,0.11240000000000001,-0.049600000000000005,-0.1554,0.133,0.1268],[-0.1888,0.0194,-0.0632,-0.1144,0.0656,-0.056999999999999995,0.1142,-0.1806,0.0616,0.1796,-0.15780000000000002,0.18400000000000002,0.13899999999999998,0.0484,0.17220000000000002,0.13460000000000003,-0.055400000000000005,0.0626,-0.0356,-0.054000000000000006,-0.17120000000000002,0.0696,-0.06420000000000001,0.0246,0.11240000000000001],[0.1724,-0.018600000000000002,0.1882,0.08700000000000001,0.10460000000000001,-0.038200000000000005,-0.0442,-0.016,-0.192,0.0172,0.148,0.025800000000000003,0.09920000000000001,-0.1696,0.034,0.1278,-0.0034000000000000002,-0.0408,0.1534,-0.0796,0.0058000000000000005,-0.1968,-0.1592,0.1814,-0.05280000000000001],[0.14780000000000001,0.063,0.0828,0.0408,0.04000000000000001,-0.1436,-0.1068,-0.0118,-0.008400000000000001,0.026800000000000004,0.06899999999999999,-0.0654,-0.1728,-0.0892,0.0282,0.012400000000000001,0.08660000000000001,0.1292,-0.026800000000000004,-0.15800000000000003,-0.1584,0.1332,-0.10720000000000002,-0.0328,0.0884],[0.1476,0.1182,-0.1282,-0.1698,0.15380000000000002,0.1804,-0.0488,0.09340000000000001,0.06380000000000001,-0.1428,-0.06520000000000001,-0.1998,-0.0298,0.16040000000000001,-0.1864,-0.0864,0.050600000000000006,0.0634,0.1694,-0.0618,-0.056799999999999996,-0.0828,0.013000000000000001,-0.167,-0.026800000000000004],[0.0796,0.121,-0.2,-0.1492,-0.07880000000000001,-0.0584,0.1748,0.136,0.0322,-0.18300000000000002,-0.0748,0.131,-0.0892,-0.011200000000000002,0.16140000000000002,0.0282,-0.17800000000000002,0.0074,0.0106,0.025400000000000002,0.025,-0.045000000000000005,0.0692,0.09060000000000001,-0.05380000000000001],[0.10400000000000001,0.0832,0.0004,0.16040000000000001,0.16140000000000002,-0.1834,-0.1228,0.1382,-0.09360000000000002,-0.050800000000000005,-0.027400000000000004,0.135,0.16720000000000002,-0.145,-0.066,-0.045000000000000005,0.1328,-0.0348,0.18560000000000001,-0.1574,-0.021400000000000002,-0.0598,-0.199,-0.18280000000000002,-0.0364],[-0.0094,0.0758,-0.17220000000000002,-0.199,0.169,0.1542,0.16000000000000003,0.1194,0.0422,0.0386,0.05280000000000001,-0.18020000000000003,-0.1148,-0.11240000000000001,0.038000000000000006,0.0332,0.15760000000000002,0.040400000000000005,0.1698,0.17520000000000002,-0.1222,0.0222,0.061,0.15900000000000003,0.15000000000000002],[0.0022,0.1968,-0.119,0.054000000000000006,-0.013000000000000001,0.123,-0.18020000000000003,0.0598,-0.15940000000000001,0.1402,0.031,0.04680000000000001,0.19440000000000002,-0.11080000000000001,-0.10540000000000001,0.1208,0.1222,-0.064,-0.044000000000000004,0.0852,-0.052000000000000005,0.07840000000000001,0.1172,-0.1156,0.1626],[-0.0262,0.19540000000000002,0.1694,-0.0474,-0.1298,0.18000000000000002,-0.0858,-0.1268,0.08960000000000001,-0.0146,-0.17700000000000002,-0.1854,-0.13,-0.19740000000000002,-0.0316,0.062400000000000004,-0.12440000000000001,0.0732,0.0608,0.08660000000000001,0.065,0.0014000000000000002,-0.1388,0.06280000000000001,0.1878],[0.0052,-0.0108,-0.1398,-0.042800000000000005,-0.0256,0.0966,-0.07700000000000001,0.2,-0.15000000000000002,-0.1652,-0.1272,0.033400000000000006,-0.05360000000000001,-0.1206,0.08860000000000001,0.13640000000000002,0.18520000000000003,-0.1996,0.18000000000000002,0.07800000000000001,-0.1976,-0.0758,-0.0592,0.17620000000000002,0.0618]],[[-0.19499752618702607,0.1138653843562649,-0.10039401137065669,0.025798957957448784,0.05080434896358712,-0.04339756306029057,-0.07622013668808568,-0.10029928368763724,0.004416107051199335],[0.08635887540989712,0.14895063635262493,-0.0034459804965653543,-0.0999751822192804,-0.018830692554781203,-0.08614998654719037,0.23164818918233027,0.04799415034011831,-0.10861244063147273],[0.0016373239722935703,0.0871624682392625,-0.0017122469559575607,-0.14252232252628888,-0.14205668933059673,-0.18191566522648717,-0.030714072036491243,-0.031906685973196514,0.005818260715647135],[-0.12580102182088393,0.1902526589841983,0.1836179274249319,-0.24857126676127742,-0.22613457584173824,0.20568930317749293,0.09029924768824123,-0.01911025393616847,0.0556457063521773],[0.1606697128475936,0.17308916541293642,0.07546059923369555,0.12431927437282816,0.16028026292650338,-0.034651098827128635,-0.023532370124226678,-0.08427981160847495,0.08420416847430642],[-0.18745173245683666,-0.1453723751853,-0.0009225126900761541,-0.09494758830724788,0.005237295055210129,0.053163504369913836,-0.19091666614816077,0.23686129216213006,-0.08432347158435047],[-0.10494335274257507,-0.22724322905868466,-0.04787820228214436,-0.1394321491328688,-0.11401791965199994,0.08721467306858285,-0.15938719119640907,-0.0763541555967282,0.21308501299108246],[-0.12511818270231548,0.23157156981675492,0.2121007165016393,-0.06980034867587369,0.23046744973468386,0.040386201955020316,-0.20094564263311424,0.1140665729718394,0.04441946701395396],[0.11945092366386215,0.11366987001471848,-0.013021659066191724,-0.24147326035012176,-0.035448775987876116,0.103153532482581,-0.11363256632562223,0.167948943610289,-0.08351904779601596],[-0.05966376375893791,-0.22774095190911664,0.07542857938629956,-0.15546533564828943,0.007276068751089989,0.22701334503400766,0.17486818565119605,-0.007276068751089989,0.14333855439647278],[0.08221957688731688,0.17826368440170473,0.12102527689313015,-0.04535416188179427,-0.19839414127972035,0.14382362564654544,0.21731192003255434,-0.07882407813680822,-0.11423427939211282],[-0.05360037313302959,0.10016721314000551,0.18335693252746774,-0.0036380343755449945,-0.15789069189865276,0.01794763625268864,-0.20081949753008368,0.12708866751903847,-0.10040974876504184],[-0.05263023063288425,-0.12757373876911116,-0.13339459376998314,0.14964448064741745,-0.1772935419015594,0.0955590362643152,0.09701425001453319,-0.028134132504214624,-0.06354433375951923],[0.12975655939443814,0.0977418568896422,-0.12151034814320281,-0.23040884378451632,-0.13266698689487413,0.13945798439589144,-0.17559579252630506,0.211248529406646,-0.16686451002499708],[0.07785393563666289,-0.00485071250072666,-0.060148835009010575,0.09264860876387919,-0.038078093130704274,0.06645476125995524,-0.03031695312954162,-0.038078093130704274,0.13266698689487413],[0.1971814631545387,0.040503449381067605,0.051902623757775254,-0.0861001468878982,0.08852550313826153,-0.04899219625733926,0.0033954987505086616,-0.17705100627652307,0.1845696106526494],[-0.13581995002034647,0.0962866431394242,0.09531650063927886,-0.22313277503342635,-0.10356271189051418,-0.2030023181554107,-0.11423427939211282,0.14770419564712678,-0.12466331126867515],[-0.1486743381472721,-0.1603160481490161,-0.0235259556285243,-0.016734958127506975,-0.03589527250537728,0.07906661376184455,-0.22846855878422564,0.06305926250944657,-0.0839173262625712],[-0.05529812250828392,0.1343647362701285,0.07858154251177188,-0.0962866431394242,-0.21149106503168236,0.03080202437961429,-0.12054020564305748,0.028376668129250958,-0.10938356689138617],[0.1421258762712911,-0.03589527250537728,0,0.22749841628408032,0.05068994563259359,-0.12830134564422016,0.13727516377056445,-0.09167846626373387,0.1370326281455281],[0.11859992064276682,-0.04462655500668527,0.23089391503458898,-0.05942122813390158,-0.2059127456558467,-0.03104456000465062,0.029104275004359956,0.225800666908826,0.11787231376765782],[-0.09798439251467853,-0.11011117376649517,0.1685622594002514,-0.03371245188005029,0.037350486255595276,0.11156638751671318,0.17899129127681374,0.21440149253211835,0.17098761565061474],[-0.19766653440461135,0.04074598500610394,0.006063390625908324,0.15206983689778078,0.209793315656428,0.12805881001918382,-0.11374920814204016,0.06742490376010057,-0.0897381812634432],[-0.07373083001104522,0.10356271189051418,0.1925732862788484,0.22046488315802668,0.07712632876155388,-0.011641710001743983,0.021100599378160965,0.1654092962747791,-0.20081949753008368],[-0.1595884412739071,0.22022234753299033,0.02522370500377863,-0.04220119875632193,-0.13945798439589144,-0.028861739379323622,-0.08052182751206255,-0.1360624856453828,-0.0029104275004359957]]]}