{"name":"nn_13","initialization_type":"xavier","input_dimensions":{"vertical":6,"horizontal":6},"output_dimensions":{"vertical":3,"horizontal":3},"deep_layers":8,"neurons_per_layer":25,"weights":[[[0.07985252800950135,0.01050214654093215,-0.1294661168408015,-0.1504704099226658,-0.09198431797919883,0.10484039391723646,0.059934663880147274,-0.06391823670601808,-0.1651372007815538,-0.1788986341800166,0.017563934732248595,-0.002535000889190519,-0.16731005868657425,-0.1055646798855766,-0.13019040280914165,-0.060658949848487416,0.08021467099367142,0.05739966299095675,0.07496359772320534,0.017020720255993483,-0.11280753956897809,-0.17600149030665602,-0.12747433042786607,-0.08311181486703201,-0.07007466743690935],[0.038387156322027854,0.02046107860560919,0.0966921767734098,-0.07876609905699113,-0.10809968077476712,0.13598469055586282,0.11733432687110402,0.12982825982497156,0.1783554197037615,-0.012675004445952596,0.05486466210176623,0.005794287746721186,0.16875863062325455,-0.038930370798282966,0.04635430197376949,-0.10140003556762077,0.15409183976436652,0.08021467099367142,-0.029333581717776006,-0.09361396140796416,0.01720179174807852,-0.0796714565174163,-0.10085682109136565,-0.1798039916404418,-0.07025573892899438],[-0.17274220344912536,-0.09904610617051528,-0.027522866796925633,-0.09144110350294371,0.13109576026956682,0.17238006046495527,0.11606682642650876,-0.1334496896666723,0.022633936510629633,0.007605002667571557,0.14250326427092416,-0.1640507718290436,0.18089042059295202,0.09433824737630431,-0.1441329076996895,-0.12548254401493067,-0.1314579032537369,-0.024444651431480006,-0.025893223368160297,-0.06862609550022905,0.12729325893578106,-0.1553593402089618,0.17256113195704031,0.09542467632881453,-0.1231286146178252],[0.05414037613342608,0.14721112306513512,0.019917864129354076,0.11172111061646786,-0.06283180775350786,0.15010826693849572,0.12222325715740003,0.1495650524622406,-0.1406925493500738,-0.029333581717776006,-0.13743326249254312,-0.10321075048847111,0.07405824026278016,-0.02842822425735082,-0.1689397021153396,-0.14829755201764536,-0.08075788546992653,0.06536680864269838,0.10665110883808682,-0.0030782153654456304,0.17944184865627172,0.02426357993939497,-0.1568079121456421,-0.05631323403844653,-0.1461246941126249],[-0.09433824737630431,0.10773753779059704,-0.015572148319313186,0.036938584385347556,-0.068445024008144,0.07840395607282105,-0.08293074337494698,-0.08637110172456268,-0.13163897474582195,-0.05794287746721186,0.141778978302584,0.17817434821167646,0.17364756090955052,0.062288593277252745,0.006156430730891261,0.12693111595161097,-0.1182396843315292,-0.17183684598870017,-0.023901436955224894,-0.08220645740660683,0.14340862173134936,-0.127112187443696,0.030420010670286227,-0.1133507540452332,0.07043681042107942],[0.12819861639620622,-0.0811200284540966,0.11588575493442373,-0.1490218379859855,0.04418144406874904,0.1470300515730501,0.10339182198055616,0.1387007629371384,0.06084002134057245,-0.17093148852827497,-0.014123576382632891,-0.07423931175486519,0.09126003201085868,-0.15572148319313187,-0.17437184687789067,0.014485719366802966,0.07206645384984475,0.13851969144505336,0.09307074693170905,0.01901250666892889,-0.04182751467164356,-0.1459436226205399,0.12439611506242047,0.020098935621439114,-0.10357289347264119],[-0.12330968610991025,0.12421504357033543,0.1280175449041212,0.04309501511623882,0.16966398808367975,-0.16821541614699945,-0.0014485719366802965,-0.029876796194031118,0.04074108571913334,-0.10302967899638608,-0.1363468335400329,0.1225854001415701,0.12910397385663142,0.025168937399820155,-0.1616968424319381,0.003259286857530667,-0.1691207736074246,0.036757512893262526,0.1421411212867541,0.0972353912496649,0.06808288102397393,-0.0820253859145218,-0.05051894629172535,-0.05558894807010638,0.004526787302125927],[-0.16296434287653336,0.05269180419674578,-0.059210377911807124,0.04617323048168445,0.030420010670286227,-0.0840171723274572,-0.05739966299095675,-0.05902930641972209,-0.07786074159656593,-0.06681538057937868,-0.002535000889190519,0.1343550471270975,-0.1689397021153396,0.019374649653098965,0.1627832713844483,0.018650363684758815,-0.15644576916147201,-0.1426843357630092,0.0356710839407523,0.09288967543962401,-0.1788986341800166,0.13326861817458727,-0.180709349100867,0.0468975164500246,0.11298861106106313],[-0.05395930464134104,0.14431397919177455,0.13942504890547855,0.059210377911807124,-0.03856822781411289,-0.07170431086567468,0.15572148319313187,-0.11787754134735913,0.14865969500181542,-0.14775433754139022,-0.06880716699231408,-0.05884823492763705,-0.04345715810040889,0.052510732704660744,0.10502146540932149,-0.17618256179874106,0.06862609550022905,-0.1792607771641867,-0.09216538947128386,-0.15427291125645157,-0.0889061026137532,-0.1645939863052987,0.17726899075125127,-0.004164644317955852,0.10230539302804594],[-0.10683218033017186,-0.11787754134735913,-0.07188538235775972,0.1421411212867541,0.06916930997648416,-0.10719432331434194,0.09651110528132475,-0.07749859861239586,-0.053053947180915856,-0.1582564840823224,0.10628896585391674,-0.14431397919177455,-0.127112187443696,-0.1147993259819135,-0.06663430908729363,-0.024987865907735118,-0.17998506313252685,-0.17075041703618993,-0.17310434643329542,0.04345715810040889,0.14576255112845485,-0.007786074159656593,-0.0889061026137532,-0.13163897474582195,0.12584468699910076],[-0.05468359060968119,-0.02716072381275556,-0.0966921767734098,-0.17455291836997572,-0.08655217321664771,-0.1530054108118563,0.12928504534871646,0.16839648763908446,-0.1162478979185938,-0.11661004090276388,-0.09633003378923972,-0.05758073448304179,0.15916184154274757,0.013037147430122667,0.04363822959249393,0.12620682998327082,-0.03874929930619793,0.1309146887774818,0.0356710839407523,-0.08093895696201157,0.10411610794889631,0.0952436048367295,0.15626469766938697,0.010864289525102223,-0.01176964698552741],[-0.10429717944098134,0.003440358349615704,-0.07605002667571556,-0.05739966299095675,0.08564681575622253,-0.07423931175486519,-0.12095575671280476,0.05558894807010638,0.12837968788829127,0.01792607771641867,-0.0054321447625511115,-0.03657644140117749,-0.026617509336500447,0.009596789080506964,-0.13326861817458727,0.18016613462461187,-0.1568079121456421,0.039654656766623116,-0.04762180241836475,-0.01050214654093215,-0.1539107682722815,-0.11642896941067883,0.14793540903347527,0.16586148674989395,0.15662684065355706],[-0.05015680330755527,-0.011950718477612447,-0.004345715810040889,-0.07804181308865098,0.12439611506242047,-0.04581108749751438,-0.11027253867978756,-0.10411610794889631,-0.1626021998923633,0.08021467099367142,0.1665857727182341,-0.15753219811398225,-0.17147470300453008,-0.08437931531162728,0.060658949848487416,-0.17274220344912536,-0.17473398986206076,0.1783554197037615,-0.018650363684758815,0.026255366352330372,0.15409183976436652,0.03313608305156178,-0.14938398097015557,-0.15517826871687676,0.009053574604251853],[-0.11353182553731823,-0.06627216610312356,-0.13471719011126757,-0.10701325182225689,0.01593429130348326,-0.12693111595161097,-0.11986932776029455,-0.1001325351230255,-0.02408250844730993,-0.003440358349615704,0.0679018095318889,0.0059753592388062235,-0.10864289525102223,-0.006880716699231408,0.1490218379859855,-0.14576255112845485,-0.1490218379859855,0.10809968077476712,0.05902930641972209,-0.002535000889190519,0.04563001600542934,0.042370729147898675,-0.02480679441565008,-0.1607914849715129,-0.11751539836318906],[-0.08220645740660683,-0.17038827405201987,0.1749150613541458,-0.13996826338173365,0.06717752356354875,-0.09053574604251853,-0.05631323403844653,0.07442038324695023,-0.09904610617051528,-0.15554041170104682,0.013218218922207705,-0.02697965232067052,-0.13037147430122667,0.0581239489592969,0.08818181664541305,-0.06554788013478341,-0.10429717944098134,0.13960612039756357,0.06862609550022905,-0.1582564840823224,-0.18107149208503706,-0.1607914849715129,-0.03186858260696652,0.04888930286296001,0.09633003378923972],[-0.08908717410583823,0.1147993259819135,-0.15228112484351616,-0.08437931531162728,-0.02028000711352415,0.1544539827485366,-0.030420010670286227,-0.1539107682722815,-0.11389396852148831,0.15771326960606727,0.020098935621439114,-0.10484039391723646,0.002535000889190519,0.15662684065355706,-0.10936718121936238,0.04146537168747349,-0.1607914849715129,0.015753219811398222,-0.14666790858888004,-0.17726899075125127,0.16531827227363885,0.1421411212867541,0.12837968788829127,0.11878289880778432,-0.1372521910004581],[-0.09795967721800505,-0.16785327316282936,0.1763636332908261,0.019917864129354076,-0.0021728579050204447,0.07423931175486519,0.15481612573270667,-0.035490012448667264,-0.03530894095658223,0.1490218379859855,0.002535000889190519,0.07061788191316445,0.05794287746721186,0.1671289871944892,-0.011950718477612447,-0.0981407487100901,0.12294754312574017,0.10701325182225689,0.10592682286974668,0.08184431442243675,0.030601082162371264,0.09343288991587913,0.02281500800271467,-0.10701325182225689,-0.10266753601221601],[-0.11842075582361425,-0.011407504001357335,-0.014666790858888003,0.02697965232067052,0.03802501333785778,-0.027885009781095708,0.049251445847130086,0.06102109283265749,0.07695538413614075,-0.056494305530531565,0.17129363151244506,-0.1323632607141621,-0.15010826693849572,0.040378942734963265,-0.141597906810499,-0.07840395607282105,-0.09977039213885543,-0.1435896932234344,0.17726899075125127,-0.04436251556083408,-0.06554788013478341,0.1133507540452332,0.0595725208959772,-0.06591002311895348,0.17292327494121038],[0.09180324648711378,0.07695538413614075,-0.1578943410981523,0.1329064751904172,-0.04363822959249393,0.0307821536544563,-0.11715325537901898,0.09596789080506965,-0.01901250666892889,-0.13507933309543765,0.17093148852827497,0.1309146887774818,-0.1182396843315292,0.1162478979185938,-0.1372521910004581,0.11570468344233868,-0.0307821536544563,-0.02770393828901067,-0.0023539293971054816,0.1553593402089618,-0.061383235816827565,0.09977039213885543,-0.021909650542289483,-0.03367929752781689,0.09777860572592002],[0.12276647163365513,0.16875863062325455,0.1294661168408015,-0.1481164805255603,-0.1788986341800166,-0.04490573003708919,-0.17817434821167646,-0.10321075048847111,-0.062288593277252745,0.053778233149256005,0.017563934732248595,0.04780287391044979,-0.053778233149256005,-0.07731752712031083,0.1240339720782504,-0.062288593277252745,0.1720179174807852,0.13127683176165186,0.07804181308865098,0.08365502934328713,0.1582564840823224,-0.1377954054767132,-0.1251204010307606,0.15173791036726106,-0.14938398097015557],[0.15517826871687676,0.01720179174807852,0.06446145118227319,0.17853649119584655,-0.09614896229715468,0.1553593402089618,-0.05323501867300089,-0.14938398097015557,-0.0981407487100901,0.004707858794210963,-0.10610789436183171,-0.12530147252284562,0.0007242859683401483,0.12131789969697483,-0.13326861817458727,0.15662684065355706,-0.16821541614699945,0.10067574959928062,0.0845603868037123,-0.11208325360063794,0.17998506313252685,0.06627216610312356,0.0036214298417007415,0.11878289880778432,-0.09850289169426017],[0.10321075048847111,0.022633936510629633,0.11932611328403943,0.004526787302125927,0.06826395251605898,0.09144110350294371,0.009053574604251853,0.0693503814685692,-0.1167911123948489,0.011226432509272298,-0.14884076649390046,-0.03512786946449719,0.0937950329000492,0.07858502756490608,0.13960612039756357,0.08093895696201157,0.10791860928268208,-0.1740097038937206,-0.1432275502392643,-0.13507933309543765,0.022633936510629633,-0.07659324115197068,-0.1348982616033526,-0.04309501511623882,-0.15119469589100595],[-0.09506253334464446,-0.1450382651601147,0.00036214298417007413,0.1412357638263289,-0.08347395785120208,-0.07731752712031083,0.009777860572592001,0.15662684065355706,-0.1348982616033526,0.004164644317955852,0.13218218922207706,-0.05939144940389216,-0.015572148319313186,-0.04581108749751438,0.16622362973406402,0.022271793526459558,0.04563001600542934,0.06681538057937868,0.16640470122614906,0.047983945402534825,0.16296434287653336,-0.051062160767980445,0.08981146007417838,0.17364756090955052,0.0036214298417007415],[0.11371289702940328,0.16930184509950966,-0.07550681219946045,0.1435896932234344,0.17328541792538046,-0.02046107860560919,-0.018469292192673778,0.06102109283265749,0.05486466210176623,-0.05414037613342608,-0.17853649119584655,0.05414037613342608,-0.14974612395432566,-0.13073361728539676,0.14087362084215885,-0.16875863062325455,0.02426357993939497,-0.17871756268793157,-0.05613216254636149,0.07043681042107942,0.09126003201085868,-0.1314579032537369,-0.0966921767734098,0.1343550471270975,0.11733432687110402],[-0.016115362795568296,0.08582788724830756,-0.12204218566531498,0.15282433931977127,0.09053574604251853,0.11805861283944417,-0.04888930286296001,-0.07605002667571556,0.11298861106106313,0.058486091943466975,0.1616968424319381,0.003440358349615704,-0.127112187443696,0.08691431620081778,0.038930370798282966,0.009415717588421926,-0.007605002667571557,-0.12747433042786607,0.10194325004387586,0.027522866796925633,-0.025168937399820155,0.025531080383990223,-0.0747825262311203,-0.05613216254636149,-0.17654470478291112],[-0.12729325893578106,0.12475825804659052,0.06246966476933778,0.10411610794889631,-0.17708791925916625,0.0048889302862960005,-0.14232219277883915,-0.0981407487100901,0.12349075760199528,0.02209072203437452,0.15119469589100595,0.1387007629371384,-0.06627216610312356,0.04780287391044979,-0.031506439622796444,0.08474145829579735,0.12837968788829127,0.03494679797241215,-0.1294661168408015,-0.1656804152578089,0.06916930997648416,-0.132001117729992,-0.0762310981678006,0.022452865018544595,0.019193578161013927],[-0.01539107682722815,0.1432275502392643,-0.036757512893262526,0.12149897118905988,-0.12584468699910076,-0.07514466921529038,0.14576255112845485,-0.11787754134735913,-0.16622362973406402,0.1597050560190027,0.007061788191316446,0.08981146007417838,-0.12837968788829127,-0.1539107682722815,-0.11606682642650876,0.1426843357630092,-0.07605002667571556,0.042551800639983706,-0.12222325715740003,0.16821541614699945,-0.00036214298417007413,-0.16350755735278846,-0.1225854001415701,0.15264326782768622,0.01647750577973837],[-0.14286540725509425,-0.01792607771641867,0.07369609727861008,0.06772073803980386,-0.18016613462461187,0.09433824737630431,-0.01104536101718726,-0.09850289169426017,0.17183684598870017,-0.0995893206467704,0.1412357638263289,0.10936718121936238,-0.17437184687789067,-0.016115362795568296,0.1285607593803763,-0.02969572470194608,0.08800074515332801,-0.035490012448667264,-0.12747433042786607,0.08419824381954223,0.026074294860245335,-0.09415717588421928,-0.1256636155070157,0.16531827227363885,0.11842075582361425],[0.15228112484351616,0.041103228703303414,0.0038025013337857783,0.1446761221759446,0.049251445847130086,0.07188538235775972,0.09307074693170905,-0.09162217499502875,-0.1470300515730501,-0.04907037435504505,-0.09506253334464446,-0.03512786946449719,-0.1343550471270975,-0.031325368130711406,-0.06627216610312356,0.03313608305156178,0.09397610439213423,-0.009053574604251853,-0.09795967721800505,0.1481164805255603,0.059934663880147274,0.10176217855179084,-0.060658949848487416,0.17238006046495527,-0.02915251022569097],[0.08854395962958313,-0.08727645918498786,-0.043276086608323855,0.11986932776029455,-0.14793540903347527,-0.1510136243989209,-0.08800074515332801,0.02842822425735082,-0.12077468522071973,0.09307074693170905,0.06898823848439913,0.1441329076996895,-0.1338118326508424,0.07206645384984475,-0.10954825271144741,-0.07641216965988563,0.042551800639983706,-0.08582788724830756,-0.0762310981678006,0.013761433398462817,0.004707858794210963,0.11135896763229779,-0.16694791570240416,0.07586895518363053,0.1265689729674409],[0.004164644317955852,0.03241179708322163,0.16097255646359795,-0.05902930641972209,-0.14232219277883915,0.0059753592388062235,0.06862609550022905,-0.027522866796925633,-0.15028933843058076,-0.13888183442922342,-0.1734664894174655,-0.0811200284540966,-0.03331715454364682,-0.12783647341203616,-0.10900503823519231,-0.12729325893578106,-0.14775433754139022,0.03259286857530667,-0.06391823670601808,-0.03458465498824208,-0.07315288280235498,0.1626021998923633,-0.13942504890547855,-0.10864289525102223,0.14196004979466906],[-0.059210377911807124,0.10230539302804594,-0.05160537524423556,-0.15626469766938697,0.04472465854500415,0.13851969144505336,0.141778978302584,0.16531827227363885,0.031144296638626372,-0.017563934732248595,-0.14865969500181542,-0.1455814796363698,-0.1803472061166969,-0.0805768139778415,0.08510360127996741,-0.01484786235097304,0.15499719722479172,0.04218965765581364,-0.10194325004387586,0.08655217321664771,-0.10755646629851201,-0.10520253690140653,-0.1645939863052987,-0.023901436955224894,0.08619003023247764],[0.08908717410583823,0.0650046656585283,0.0707989534052495,-0.09126003201085868,0.11425611150565838,-0.1798039916404418,0.02209072203437452,0.17907970567210166,0.15137576738309097,0.11298861106106313,0.1626021998923633,-0.15771326960606727,0.05124323226006548,-0.13652790503211795,0.03313608305156178,0.057218591498871714,-0.014666790858888003,0.08546574426413749,0.08238752889869187,-0.038387156322027854,0.04816501689461986,0.13906290592130846,0.1300093313170566,0.04907037435504505,-0.005613216254636149],[-0.013399290414292742,-0.09687324826549483,0.10936718121936238,0.006880716699231408,0.022633936510629633,0.17618256179874106,-0.16061041347942787,0.1211368282048898,-0.06319395073767793,0.03748179886160267,-0.1559025546852169,0.031506439622796444,0.07442038324695023,-0.09687324826549483,-0.06627216610312356,-0.025893223368160297,-0.07749859861239586,0.08963038858209335,-0.11986932776029455,0.006699645207146371,0.03748179886160267,0.13308754668250225,-0.002897143873360593,0.15173791036726106,0.17907970567210166],[-0.13326861817458727,-0.031325368130711406,0.04707858794210964,0.005794287746721186,-0.08655217321664771,0.04074108571913334,0.11787754134735913,-0.11842075582361425,-0.059753592388062236,0.11878289880778432,0.08872503112166816,0.12729325893578106,-0.0566753770226166,0.17509613284623082,0.03023893917820119,-0.015028933843058076,0.16966398808367975,0.06826395251605898,0.14377076471551944,-0.07351502578652505,-0.16622362973406402,-0.07152323937358965,-0.07061788191316445,0.09795967721800505,0.08673324470873275],[0.08274967188286193,0.1455814796363698,-0.11606682642650876,-0.006156430730891261,-0.1510136243989209,-0.006518573715061334,0.08003359950158638,-0.060658949848487416,-0.1309146887774818,-0.0454489445133443,-0.06518573715061333,0.0845603868037123,0.11950718477612447,-0.12874183087246135,-0.10321075048847111,-0.0845603868037123,0.15626469766938697,0.1524621963356012,0.14775433754139022,-0.021185364573949338,-0.17708791925916625,0.06246966476933778,0.0054321447625511115,0.13670897652420297,0.12457718655450549]],[[0.09140000000000001,0.0078000000000000005,0.17,-0.0578,-0.0064,-0.0052,-0.1468,-0.0038,0.13899999999999998,0.0054,0.1676,0.1338,-0.1634,-0.0354,0.1922,-0.16100000000000003,-0.1734,0.0054,0.1182,-0.044800000000000006,0.0472,-0.11060000000000002,0.06580000000000001,-0.1464,-0.033600000000000005],[0.1386,0.0006000000000000001,-0.1274,-0.1144,-0.0072,0.10820000000000002,0.1156,-0.0152,-0.1166,-0.135,0.013400000000000002,0.18480000000000002,-0.13640000000000002,0.0318,-0.11359999999999999,-0.17720000000000002,0.12440000000000001,-0.10400000000000001,0.1878,0.014000000000000002,-0.07740000000000001,-0.10880000000000001,-0.007000000000000001,0.07680000000000001,0.1766],[0.049,-0.1678,0.13899999999999998,-0.13140000000000002,0.06420000000000001,-0.1178,0.1986,-0.0282,0.1886,-0.1448,-0.1966,0.10740000000000001,-0.1396,0.1338,0.197,-0.06420000000000001,-0.025800000000000003,0.0148,0.17020000000000002,-0.021400000000000002,0.1378,-0.0146,-0.0636,0.1216,0.09920000000000001],[-0.1004,-0.011600000000000001,0.1188,0.07500000000000001,0.1746,0.0944,0.046200000000000005,-0.16060000000000002,-0.016800000000000002,0.1922,-0.1184,0.0484,-0.1386,0.1878,0.0606,-0.10120000000000001,-0.12760000000000002,0.0902,0.0586,-0.1484,0.09720000000000001,-0.0966,0.09060000000000001,-0.09340000000000001,-0.19340000000000002],[0.0912,-0.1542,0.18400000000000002,0.0574,0.1412,0.19,0.07800000000000001,-0.0882,0.1876,0.1434,-0.0472,0.015,0.1164,-0.0146,-0.1726,0.1634,-0.1154,0.0762,0.0618,-0.118,0.026600000000000002,-0.1622,0.0654,-0.0968,0.050600000000000006],[0.169,0.1198,-0.0898,0.1786,0.0376,0.018,0.1942,-0.025400000000000002,-0.1258,0.0252,-0.0606,0.0728,0.1436,0.09060000000000001,-0.0126,0.096,0.192,-0.018,-0.1824,0.0212,-0.046000000000000006,-0.0292,-0.13899999999999998,0.1166,0.053200000000000004],[-0.027000000000000003,-0.10640000000000001,0.0294,-0.1292,0.15800000000000003,-0.028999999999999998,-0.028399999999999998,0.13260000000000002,0.18660000000000002,-0.1894,0.1474,0.1882,0.001,0.1384,0.06999999999999999,-0.0714,-0.141,-0.13360000000000002,-0.07440000000000001,-0.09140000000000001,0.05160000000000001,0.10800000000000001,-0.1404,-0.038000000000000006,0.1804],[0.1442,0.020000000000000004,-0.12440000000000001,-0.08100000000000002,0.137,0.004,0.1664,0.15660000000000002,-0.0092,0.17820000000000003,0.025,0.0184,-0.0228,0.1144,-0.1544,-0.0828,0.11359999999999999,0.1754,-0.1526,-0.1486,-0.068,-0.1178,0.040600000000000004,0.10260000000000001,0.13899999999999998],[0.15780000000000002,-0.1824,-0.141,-0.1348,-0.047,0.1892,0.0398,0.13660000000000003,0.1902,0.1278,-0.19140000000000001,-0.09040000000000001,0.168,0.18500000000000003,-0.11399999999999999,-0.134,0.0968,0.1676,-0.0152,0.033400000000000006,-0.0398,-0.0922,-0.13440000000000002,0.05600000000000001,0.0118],[0.0366,0.0108,0.168,0.1408,-0.12960000000000002,0.0352,0.1774,-0.0286,0.0114,-0.050800000000000005,-0.13899999999999998,0.012,0.10720000000000002,0.08020000000000001,0.0366,0.0246,-0.10900000000000001,0.0782,-0.188,0.1502,-0.1402,-0.0578,-0.09340000000000001,-0.168,-0.027800000000000005],[-0.082,-0.0762,0.1298,-0.08360000000000001,-0.18480000000000002,-0.0344,0.06,0.1,0.1946,0.001,0.10940000000000001,0.13799999999999998,-0.10060000000000001,-0.0216,0.1956,-0.0198,-0.0696,0.10120000000000001,0.1368,-0.149,-0.17200000000000001,0.1144,-0.0194,0.05620000000000001,-0.0654],[0.044800000000000006,-0.199,0.1242,-0.0758,0.014199999999999999,-0.053200000000000004,-0.0832,0.0656,0.0782,0.05480000000000001,0.129,-0.1328,0.0872,0.16160000000000002,0.15860000000000002,0.0408,0.07600000000000001,0.0424,0.0946,-0.0912,0.0714,0.15300000000000002,-0.0704,0.072,-0.18580000000000002],[0.083,-0.1544,0.12760000000000002,0.0922,-0.08960000000000001,-0.1416,-0.1718,-0.030600000000000002,0.1462,0.1464,-0.08080000000000001,0.1542,0.18660000000000002,0.12240000000000001,-0.08940000000000001,-0.060200000000000004,-0.07900000000000001,-0.1664,0.082,0.06680000000000001,-0.1694,-0.15800000000000003,-0.18220000000000003,0.037200000000000004,0.0828],[-0.0014000000000000002,0.1892,-0.09060000000000001,-0.1226,-0.1138,0.07440000000000001,-0.1222,0.028999999999999998,-0.1634,0.0974,0.083,-0.1704,0.0414,0.1666,-0.1176,-0.13260000000000002,0.0026,-0.09360000000000002,-0.08760000000000001,0.124,-0.16920000000000002,0.0014000000000000002,-0.0594,-0.1684,0.0862],[0.001,0.044800000000000006,0.022600000000000002,0.16000000000000003,-0.0012000000000000001,0.19920000000000002,0.0332,0.0292,0.1264,-0.1628,0.1496,0.0482,-0.1302,-0.0296,-0.1382,-0.18620000000000003,0.18080000000000002,-0.0008,-0.1574,0.014000000000000002,0.1422,0.018,-0.1522,-0.11020000000000002,-0.0898],[-0.06999999999999999,-0.191,-0.0718,-0.1464,0.045000000000000005,-0.148,0.0718,0.1938,0.1926,0.1736,0.0174,-0.143,-0.1394,0.13720000000000002,0.2,0.012,0.18200000000000002,-0.044000000000000004,0.167,-0.1572,-0.06820000000000001,0.0304,-0.061,0.006600000000000001,0.1506],[-0.056999999999999995,-0.022600000000000002,0.0964,-0.17500000000000002,-0.07440000000000001,-0.07440000000000001,0.027800000000000005,0.1458,0.1182,-0.0584,-0.1956,-0.094,-0.1158,-0.18520000000000003,0.0984,-0.1192,0.1896,-0.1648,0.10400000000000001,-0.13660000000000003,-0.1516,0.0082,-0.049800000000000004,-0.0634,-0.061],[0.1288,0.1338,-0.19,-0.0572,-0.09160000000000001,-0.023000000000000003,0.018,0.024800000000000003,-0.023000000000000003,0.1208,-0.1634,0.10600000000000001,0.17200000000000001,-0.1734,-0.0828,0.1948,0.0344,0.10620000000000002,0.0242,0.1452,0.13720000000000002,0.1882,0.1252,-0.09280000000000001,-0.003],[0.1458,0.18180000000000002,-0.0734,-0.0948,-0.1328,-0.0572,0.1996,0.0106,-0.1632,-0.15580000000000002,-0.1668,-0.10900000000000001,0.1312,0.1674,-0.0588,-0.0572,-0.1436,-0.07900000000000001,0.1554,-0.0396,-0.12380000000000001,0.0106,0.0444,-0.1756,0.085],[0.17220000000000002,0.10740000000000001,-0.167,0.1228,-0.126,-0.1976,-0.13440000000000002,0.0164,-0.1696,0.014000000000000002,0.0432,0.06280000000000001,0.09280000000000001,0.1894,-0.1494,0.13140000000000002,0.1888,0.11060000000000002,0.1886,-0.0028000000000000004,0.0908,-0.1198,-0.0534,0.0046,-0.1262],[0.0666,-0.192,-0.10820000000000002,0.10760000000000002,-0.1388,0.1378,0.141,-0.0854,-0.1216,0.0684,0.0308,0.0238,0.1688,-0.0966,0.007000000000000001,0.0654,-0.03900000000000001,-0.1162,-0.1504,0.0166,-0.135,-0.0888,-0.131,-0.08080000000000001,0.0058000000000000005],[-0.0504,0.1976,-0.11080000000000001,-0.08660000000000001,-0.0238,0.0422,-0.0854,0.1188,0.192,-0.171,0.0884,-0.1232,0.1888,0.1194,-0.0858,0.06780000000000001,0.18620000000000003,-0.0932,-0.001,0.1778,0.0216,0.1718,0.12440000000000001,-0.17980000000000002,0.1142],[0.15900000000000003,0.19,-0.0396,0.12140000000000001,-0.08360000000000001,-0.17300000000000001,-0.1376,0.085,-0.1392,0.0188,0.1502,0.10260000000000001,0.011000000000000001,-0.1494,0.1768,-0.15800000000000003,0.04020000000000001,-0.054200000000000005,-0.13999999999999999,0.1746,0.10020000000000001,0.1302,-0.1704,-0.046000000000000006,-0.0736],[0.08360000000000001,-0.0466,0.071,-0.0252,0.1,-0.1674,0.1884,-0.0204,0.1038,0.15460000000000002,0.0572,0.0064,0.097,-0.10160000000000001,0.015,-0.1544,-0.1884,-0.0216,-0.17700000000000002,0.015600000000000001,-0.0172,0.0228,0.09920000000000001,0.049800000000000004,0.0178],[-0.1652,-0.1422,0.1158,-0.19240000000000002,0.193,-0.0046,-0.0782,-0.145,-0.1894,0.011000000000000001,-0.17800000000000002,0.1656,0.10020000000000001,0.1,0.0494,0.1996,0.0198,-0.0076,0.0002,-0.1644,0.065,-0.1942,0.0702,0,0.1144]],[[-0.049,-0.046400000000000004,-0.0422,-0.062200000000000005,-0.15480000000000002,-0.061200000000000004,0.0844,0.1388,-0.006,-0.1572,-0.0576,-0.1836,0.0998,-0.1458,0.1896,-0.15200000000000002,0.06280000000000001,0.128,-0.15460000000000002,0.0476,-0.1422,0.15960000000000002,-0.0028000000000000004,0.05480000000000001,-0.041800000000000004],[0.061200000000000004,-0.1908,-0.074,-0.124,0.1572,-0.043800000000000006,0.1492,-0.0174,-0.050800000000000005,0.0176,0.0422,-0.028999999999999998,-0.0732,0.1592,-0.0004,-0.0594,0.0182,0.1844,-0.15500000000000003,0.1208,0.08700000000000001,0.1708,-0.006600000000000001,0.1726,0.0422],[0.061,-0.15280000000000002,0.18200000000000002,-0.05620000000000001,0.008,-0.005000000000000001,-0.1724,0.018,-0.18660000000000002,-0.1128,-0.0634,-0.169,-0.011200000000000002,0.1766,-0.0692,0.1274,-0.027200000000000002,0.15600000000000003,-0.1936,-0.15880000000000002,-0.1718,0.1454,0.1646,0.10120000000000001,-0.0898],[0.1676,0.144,0.16180000000000003,0.0564,-0.1642,-0.1378,-0.0674,-0.0742,-0.0188,-0.18580000000000002,-0.1014,-0.048600000000000004,-0.004200000000000001,0.0298,0.1476,-0.0792,0.0476,-0.1402,-0.1424,-0.1922,-0.009600000000000001,0.15800000000000003,-0.15580000000000002,0.061,-0.0182],[0.056999999999999995,0.1908,0.097,0.0072,-0.0826,0.0598,0.1656,-0.0756,-0.13160000000000002,0.0702,0.0938,0.0256,0.1044,-0.15580000000000002,-0.016,0.05560000000000001,0.07880000000000001,-0.11240000000000001,-0.14880000000000002,0.0244,-0.1292,-0.013600000000000001,0.08120000000000001,-0.10320000000000001,-0.10920000000000002],[0.012,-0.1796,-0.0694,0.145,0.0698,0.18660000000000002,-0.0176,-0.1258,-0.17420000000000002,-0.0354,0.06820000000000001,0.12660000000000002,-0.1922,0.1386,-0.1484,0.0582,-0.13140000000000002,0.1744,-0.05500000000000001,0.0644,0.1864,0.021400000000000002,0.13340000000000002,0.05380000000000001,0.1228],[-0.1644,0.146,-0.1516,0.0094,0.15000000000000002,-0.0824,-0.0342,-0.1422,-0.1756,-0.0656,0.1004,-0.1482,-0.0614,0.0352,-0.059,-0.19720000000000001,0.14980000000000002,0.09960000000000001,0.1274,-0.11060000000000002,0.13040000000000002,0.08760000000000001,-0.07880000000000001,-0.1258,-0.18420000000000003],[0.0898,-0.1512,-0.0998,-0.19540000000000002,-0.050800000000000005,-0.1226,0.1504,0.034999999999999996,-0.0734,0.05480000000000001,0.0742,0.12440000000000001,0.12940000000000002,0.0938,-0.0442,0.1048,-0.1986,-0.13260000000000002,0.0288,-0.0286,0.1474,0.1778,0.0446,0.051000000000000004,-0.006],[0.0454,-0.1278,-0.1756,-0.18320000000000003,-0.0892,0.134,-0.039200000000000006,0.010000000000000002,-0.0488,-0.0692,-0.022000000000000002,0.1128,-0.13140000000000002,0.1378,0.1666,0.1338,-0.062,-0.1446,0.1794,0.12,0.0826,-0.099,0.16060000000000002,0.0122,-0.147],[0.11140000000000001,0.15280000000000002,-0.19240000000000002,-0.08900000000000001,0.13140000000000002,0.0606,-0.1396,-0.0472,0.07840000000000001,0.0298,0.07540000000000001,-0.1004,0.0594,-0.16060000000000002,0.15180000000000002,-0.09160000000000001,0.08040000000000001,-0.1592,0.194,0.0852,0.18380000000000002,0.1424,0.0596,0.1156,-0.10760000000000002],[-0.0732,-0.19540000000000002,-0.0292,-0.148,0.0594,0.0874,-0.001,0.1786,0.1774,0.1182,-0.1904,0.09360000000000002,-0.1784,-0.1986,0.13560000000000003,0.074,-0.1894,-0.0572,0.0282,-0.12380000000000001,-0.1388,-0.0368,-0.006,-0.028000000000000004,0.07880000000000001],[0.023000000000000003,-0.125,0.1574,-0.0034000000000000002,0.17,-0.0834,0.06760000000000001,-0.147,-0.074,0.041800000000000004,-0.0884,-0.0432,-0.1666,-0.0698,-0.18720000000000003,0.1774,0.15180000000000002,0.0262,0.134,-0.0874,0.09720000000000001,-0.1218,-0.09160000000000001,0.0872,0.022400000000000003],[-0.1824,-0.0868,-0.06520000000000001,-0.1474,-0.18660000000000002,0.1888,-0.0036,0.169,0.1416,-0.1384,-0.13460000000000003,-0.059,-0.1468,0.1534,-0.15580000000000002,-0.0874,0.049800000000000004,-0.06420000000000001,-0.062400000000000004,-0.15200000000000002,0.1206,-0.17700000000000002,-0.1298,-0.018600000000000002,-0.1282],[0.142,-0.18560000000000001,0.12660000000000002,0.023200000000000002,0.12240000000000001,0.17320000000000002,0.1668,0.07500000000000001,-0.05560000000000001,-0.05600000000000001,0.1998,-0.1188,-0.0006000000000000001,-0.0236,-0.15080000000000002,-0.0748,-0.10900000000000001,0.08040000000000001,0.133,-0.049800000000000004,-0.13740000000000002,0.1,-0.0776,0.1262,0.0476],[0.10020000000000001,0.0708,0.17300000000000001,0.19540000000000002,0.127,-0.0456,-0.0728,-0.0376,0.15480000000000002,-0.193,0.07500000000000001,-0.12560000000000002,-0.07500000000000001,0.1764,0.17420000000000002,0.1512,-0.11240000000000001,-0.19540000000000002,-0.17220000000000002,-0.15460000000000002,-0.10740000000000001,0.0848,-0.0636,0.0574,-0.062200000000000005],[0.020000000000000004,-0.18220000000000003,0.19140000000000001,-0.1236,-0.0164,0.1458,-0.15600000000000003,0.15880000000000002,-0.0378,-0.0852,0.10640000000000001,0.1394,-0.1776,-0.07780000000000001,0.0534,0.1902,0.0108,0.1418,-0.025,-0.043000000000000003,-0.1534,-0.049,-0.0902,0.123,0.127],[-0.1206,0.0858,-0.038400000000000004,0.13440000000000002,0.023200000000000002,0.18120000000000003,-0.0888,-0.0104,-0.041800000000000004,0.1486,-0.08860000000000001,-0.08960000000000001,0.13899999999999998,-0.1448,0.0776,-0.0756,-0.1896,0.118,0.11599999999999999,0.0832,0.062400000000000004,-0.18680000000000002,0.0082,0.17600000000000002,0.048600000000000004],[0.021400000000000002,0.0088,-0.0238,-0.012400000000000001,-0.1936,-0.15180000000000002,-0.030600000000000002,0.044800000000000006,-0.027200000000000002,-0.1008,0.0148,-0.04020000000000001,-0.12240000000000001,0.073,-0.0204,0.055200000000000006,0.18300000000000002,0.0596,0.07640000000000001,-0.0828,0.021,0.0388,-0.192,-0.17300000000000001,-0.09300000000000001],[0.063,0.15700000000000003,-0.1174,-0.06480000000000001,0.033600000000000005,-0.1232,0.0892,0.18320000000000003,-0.1274,0.0596,-0.019600000000000003,0.18480000000000002,0.1816,0.07500000000000001,-0.1936,-0.0086,0.13260000000000002,0.0018,-0.044800000000000006,-0.0014000000000000002,-0.07780000000000001,-0.1024,0.0346,-0.0238,0.1444],[-0.16140000000000002,0.0456,0.10760000000000002,0.098,0.0106,0.0466,-0.0118,0.0118,-0.09960000000000001,-0.18280000000000002,-0.015,0.1634,-0.188,0.034999999999999996,-0.18100000000000002,0.0746,-0.0358,-0.006600000000000001,-0.1436,-0.1308,0.1768,-0.1014,-0.11060000000000002,-0.042800000000000005,-0.09280000000000001],[0.11020000000000002,-0.1898,0.0908,-0.019600000000000003,0.0608,0.0674,0.1726,-0.019000000000000003,0.0828,-0.1218,0.19740000000000002,0.19140000000000001,-0.10640000000000001,-0.1814,0.1188,-0.038200000000000005,-0.0482,-0.016800000000000002,-0.0022,-0.0318,0.165,-0.09960000000000001,-0.051800000000000006,0.08900000000000001,0.129],[0.1246,-0.009600000000000001,-0.15480000000000002,0.2,0.023000000000000003,0.038000000000000006,-0.0946,0.19640000000000002,-0.0022,-0.1048,-0.199,-0.10900000000000001,-0.022400000000000003,-0.11240000000000001,-0.1162,0.1146,-0.1584,0.094,-0.1688,-0.1456,0.1386,-0.0328,0.0922,0.1918,-0.15780000000000002],[0.0368,0.0858,-0.023400000000000004,-0.06820000000000001,0.10820000000000002,0.135,0.148,0.08040000000000001,-0.019200000000000002,-0.0118,-0.0052,-0.07740000000000001,0.0144,0.0848,-0.1318,0.0756,0.1434,-0.0012000000000000001,0.19540000000000002,-0.17320000000000002,-0.1786,-0.08700000000000001,-0.12660000000000002,0.06720000000000001,-0.1278],[-0.1904,-0.0328,0.0616,-0.07800000000000001,-0.16060000000000002,0.1584,0.0424,0.0736,0.043000000000000003,0.169,0.1814,0.0878,0.1458,0.17720000000000002,-0.052000000000000005,-0.1918,0.0626,0.060200000000000004,-0.0022,0.0494,0.0434,-0.0848,0.10200000000000001,-0.0146,0.1194],[0.0908,-0.1246,0.1402,-0.17720000000000002,0.1896,0.1768,-0.1774,0.1246,0.045000000000000005,-0.0128,-0.1424,-0.0488,-0.11140000000000001,0.1552,-0.1694,-0.17620000000000002,-0.0316,0.11499999999999999,-0.137,0.10760000000000002,0.0044,0.1758,0.10160000000000001,0.0684,-0.1208]],[[0.072,-0.1766,0.1978,0.0302,0.19840000000000002,0.1646,-0.13440000000000002,0.0064,-0.1472,0.07880000000000001,-0.0734,-0.1834,0.1186,-0.0884,-0.10540000000000001,0.192,-0.14980000000000002,-0.143,-0.10260000000000001,-0.0696,0.1298,0.0442,0.1806,-0.1612,0.0034000000000000002],[0.1466,-0.16100000000000003,-0.1564,-0.011000000000000001,-0.1496,-0.15800000000000003,0.027400000000000004,-0.09360000000000002,0.1474,-0.1358,-0.15180000000000002,0.13240000000000002,0.1408,0.0184,0.0172,-0.1704,0.1904,-0.1428,0.143,0.0824,0.18460000000000001,-0.071,-0.1348,-0.09360000000000002,0.13740000000000002],[-0.05,-0.066,-0.11240000000000001,-0.1976,0.09860000000000001,0.1504,0.0072,-0.0014000000000000002,0.0364,-0.009,-0.13140000000000002,-0.0524,-0.1874,0.147,0.0028000000000000004,0.1338,0.1236,-0.0696,0.0762,0.1648,0.095,-0.032,0.10940000000000001,-0.0702,0.1496],[-0.12660000000000002,0.0446,-0.0012000000000000001,0.05560000000000001,-0.1502,0.013800000000000002,0.15080000000000002,-0.038200000000000005,-0.0194,0.0238,0.1744,0.1168,0.15380000000000002,0.1746,-0.15680000000000002,-0.0566,0.194,0.0854,0.09260000000000002,0.122,0.08100000000000002,-0.0838,0.1564,0.07680000000000001,0.1708],[0.08660000000000001,0.15360000000000001,0.0786,-0.023400000000000004,-0.0352,-0.1376,0.0588,-0.1152,0.063,-0.0358,0.0222,-0.0238,0.0082,-0.13520000000000001,0.0244,-0.013600000000000001,0.0874,0.1252,-0.07740000000000001,0.1512,0.13360000000000002,-0.1262,-0.0308,0.063,0.07700000000000001],[0.1652,-0.18180000000000002,-0.19940000000000002,-0.006,-0.071,-0.18680000000000002,0.18520000000000003,0.006200000000000001,0.0688,-0.12140000000000001,0.1804,-0.0296,-0.06899999999999999,0.1938,0.049600000000000005,0.16920000000000002,-0.10920000000000002,0.17520000000000002,-0.0434,0.1932,0.0302,0.083,-0.1402,0.0204,-0.0586],[-0.1734,-0.033,-0.019200000000000002,-0.18660000000000002,0.17320000000000002,0.12,0.07680000000000001,0.136,0.1024,-0.17420000000000002,0.0198,0.1034,-0.1398,-0.0938,0.0964,0.0032,0.0594,-0.19920000000000002,-0.18600000000000003,-0.0998,-0.122,0.1384,-0.16100000000000003,0.0848,-0.0968],[0.0164,0.004,-0.1626,0.10660000000000001,0.1958,-0.0386,0.0514,-0.17900000000000002,0.10560000000000001,-0.019000000000000003,-0.1358,-0.09000000000000001,0.0054,-0.17400000000000002,0.13360000000000002,-0.0118,-0.18720000000000003,0.1146,-0.167,-0.004,-0.0606,0.07800000000000001,-0.0702,0.0698,0.007000000000000001],[0.17520000000000002,0.1834,-0.19340000000000002,0.16160000000000002,-0.15180000000000002,0.0888,-0.1756,-0.099,0.1636,0.1228,0.1,-0.13899999999999998,0.1744,0.1688,-0.05600000000000001,0.13440000000000002,0.039400000000000004,-0.1654,-0.11120000000000002,-0.0396,0.166,-0.1896,-0.0286,0.17620000000000002,0.0182],[-0.1464,-0.0456,-0.10600000000000001,0.04580000000000001,0.165,0.022600000000000002,0.1744,0.0358,0.1648,-0.0878,-0.1274,-0.08040000000000001,-0.05480000000000001,-0.132,-0.013400000000000002,0.0344,-0.16140000000000002,-0.0166,-0.1154,0.171,-0.15080000000000002,-0.006200000000000001,-0.019200000000000002,0.010000000000000002,0.0786],[-0.168,-0.0592,-0.0244,0.1952,0.05500000000000001,-0.0608,0.1058,0.0718,0.1564,0.11200000000000002,-0.10500000000000001,0.0026,0.0242,-0.1232,0.127,-0.1948,-0.12940000000000002,0.18600000000000003,-0.11100000000000002,0.10400000000000001,-0.1438,0.1412,0.044000000000000004,0.09340000000000001,-0.1222],[-0.0566,-0.07840000000000001,0.095,0.10700000000000001,0.1904,0.1892,0.19840000000000002,0.026400000000000003,0.101,0.1128,0.05600000000000001,-0.1896,-0.0938,-0.0016,0.1706,-0.034,-0.11040000000000001,-0.10540000000000001,-0.009800000000000001,0.17620000000000002,0.1714,-0.194,0.1814,0.1258,0.028999999999999998],[0.10320000000000001,-0.0188,-0.0454,0.13560000000000003,-0.1184,-0.0456,-0.018,-0.0176,-0.1468,-0.1542,0.1008,0.0304,-0.15180000000000002,-0.09160000000000001,0.0908,0.13640000000000002,0.1584,0.1952,-0.1142,-0.1898,0.047,-0.0328,-0.05460000000000001,0.10880000000000001,0.051000000000000004],[0.0786,-0.026800000000000004,0.1918,-0.06760000000000001,0.0618,0.17620000000000002,-0.045200000000000004,-0.0292,0.1882,-0.0454,-0.1892,0.0882,-0.0118,-0.10120000000000001,0.09300000000000001,0.09280000000000001,0.0514,-0.1666,0.06380000000000001,0.1424,-0.1656,-0.047,0.128,0.1382,-0.001],[-0.053200000000000004,0.09960000000000001,0.18280000000000002,0.1902,0.096,-0.06680000000000001,0.007000000000000001,-0.1,-0.149,-0.1648,-0.062200000000000005,-0.1264,-0.061,-0.15600000000000003,-0.10940000000000001,-0.0786,0.0908,-0.1448,-0.11259999999999999,0.0654,-0.06280000000000001,0.09200000000000001,0.0892,0.09140000000000001,-0.0316],[-0.1654,0.08900000000000001,0.17700000000000002,-0.023200000000000002,0.16000000000000003,-0.12560000000000002,0.1178,-0.17200000000000001,0.07640000000000001,0.13899999999999998,-0.040400000000000005,-0.1168,-0.0988,-0.1484,-0.1222,0.1154,-0.053200000000000004,0.1966,0.189,-0.0456,-0.168,-0.18020000000000003,0.07840000000000001,0.18220000000000003,-0.0346],[0.16100000000000003,-0.08100000000000002,0.062400000000000004,-0.08020000000000001,-0.006,0.1274,-0.1376,0.011600000000000001,0.0708,0.0822,0.13560000000000003,0.1844,0.0736,0.12040000000000001,-0.1426,-0.05500000000000001,-0.1574,-0.1724,-0.1686,-0.0476,0.0298,-0.0246,-0.13,0.13340000000000002,0.027600000000000003],[0.044800000000000006,-0.1746,0.006,0.1736,0.1176,0.146,-0.039200000000000006,0.1584,0.0818,0.07500000000000001,-0.031,-0.1492,0.0158,-0.11599999999999999,0.0366,-0.08460000000000001,-0.118,-0.039400000000000004,0.199,-0.1342,-0.0604,0.1678,-0.0054,-0.1626,0.1268],[-0.031400000000000004,-0.1452,0.008,0.1422,0.013800000000000002,0.1512,0.0766,0.0246,-0.15380000000000002,-0.07900000000000001,-0.0308,-0.1784,0.1988,0.1194,-0.1786,0.034999999999999996,0.0412,-0.15000000000000002,-0.0994,-0.1952,0.136,0.0146,-0.1018,0.15580000000000002,0.0674],[-0.1218,0.17200000000000001,-0.10540000000000001,-0.13660000000000003,-0.1988,-0.1268,0.1888,-0.0026,-0.1132,0.0646,-0.16080000000000003,-0.1834,0.05620000000000001,0.032,-0.13340000000000002,0.0442,0.134,-0.1194,-0.10500000000000001,-0.0838,-0.05500000000000001,-0.0842,-0.1968,0.0128,0.1676],[-0.0228,-0.021400000000000002,-0.0018,-0.13040000000000002,0.046000000000000006,-0.06860000000000001,-0.0576,0.022000000000000002,0.0716,-0.07880000000000001,-0.0998,0.1716,0.129,0.1816,-0.0104,-0.1452,0.04680000000000001,0.025400000000000002,0.074,0.06620000000000001,0.0074,0.11299999999999999,-0.128,0.0014000000000000002,-0.05360000000000001],[0.0942,0.1274,-0.016,-0.17980000000000002,0.0474,0.18320000000000003,-0.062200000000000005,0.0646,0.1068,-0.016200000000000003,0.189,-0.0108,0.1348,0.0436,0.1156,0.16080000000000003,0.0416,0.009600000000000001,-0.0606,0.11120000000000002,-0.17520000000000002,-0.0076,0.1282,0.040400000000000005,0.0646],[-0.1898,-0.0152,0.033400000000000006,-0.18120000000000003,0.1892,0.0828,-0.1254,-0.118,-0.0386,-0.06999999999999999,-0.0712,-0.1138,0.18660000000000002,-0.1432,-0.1534,-0.0844,-0.16080000000000003,-0.1814,-0.0664,-0.0302,0.004200000000000001,-0.1844,-0.18080000000000002,0.12960000000000002,0.09040000000000001],[-0.0594,0.0068000000000000005,0.0712,0.07980000000000001,-0.1312,-0.1472,-0.0022,-0.1232,0.10800000000000001,-0.0706,-0.014000000000000002,-0.0592,-0.1948,-0.10420000000000001,-0.1916,0.17800000000000002,0.1878,0.1348,-0.1024,0.003,0.027600000000000003,-0.1726,-0.1044,0.1448,-0.0038],[0.05260000000000001,-0.163,-0.126,0.11180000000000001,0.11100000000000002,0.10260000000000001,-0.11240000000000001,0.1562,-0.056799999999999996,0.07540000000000001,-0.194,0.13720000000000002,0.0198,-0.051800000000000006,-0.0446,-0.199,-0.1806,0.020000000000000004,0.10460000000000001,-0.0758,-0.1186,-0.0946,0.1208,0.10520000000000002,0.1668]],[[-0.08460000000000001,0.1348,0.1948,-0.1202,0.1332,0.0664,-0.1996,0.0818,-0.17320000000000002,0.033,-0.041800000000000004,-0.027600000000000003,-0.0826,-0.16200000000000003,0.0818,-0.1948,-0.0044,-0.1714,-0.12940000000000002,-0.0286,-0.1144,0.06380000000000001,0.18580000000000002,0.1144,-0.1584],[-0.10800000000000001,0.0842,-0.1208,0.17120000000000002,0.1446,-0.024,-0.0206,0.044800000000000006,-0.08600000000000001,-0.1426,-0.12960000000000002,0.0654,-0.0502,0.0228,-0.1892,-0.1458,0.18400000000000002,0.1632,0.043800000000000006,-0.0688,-0.19940000000000002,0.026000000000000002,-0.0706,-0.0094,0.0416],[0.0578,0.17120000000000002,0.023000000000000003,-0.09720000000000001,-0.0688,0.061200000000000004,-0.084,0.17700000000000002,-0.11180000000000001,0.023400000000000004,-0.066,-0.0704,-0.039200000000000006,-0.18480000000000002,0.006600000000000001,0.09960000000000001,0.0968,0.10220000000000001,-0.1172,-0.043000000000000003,0.09260000000000002,-0.038000000000000006,0.027800000000000005,-0.16920000000000002,-0.15080000000000002],[-0.0242,-0.0164,0.08760000000000001,-0.0566,0.1444,-0.1562,0.1208,-0.1942,0.196,-0.1222,-0.10540000000000001,0.1172,-0.016,-0.1484,0.0646,0.1308,-0.17700000000000002,-0.0722,0.043000000000000003,0.048,0.16100000000000003,-0.1318,-0.0674,0.07940000000000001,0.0838],[0.026000000000000002,-0.0964,0.144,-0.1414,0.13720000000000002,0.0038,0.1758,0.164,0.031400000000000004,0.09040000000000001,0.11699999999999999,-0.12660000000000002,-0.19840000000000002,0.1188,0.1428,0.0776,0.082,0.026000000000000002,0.030600000000000002,0.062200000000000005,-0.0466,0.0106,0.10640000000000001,0.06480000000000001,-0.0706],[0.10520000000000002,0.0888,-0.15660000000000002,-0.1182,-0.1512,0.1958,0.0082,-0.18620000000000003,-0.034,-0.08700000000000001,0.1378,-0.047,-0.194,0.0256,-0.0252,0.0086,0.0958,0.0364,0.1956,-0.0832,0.0514,-0.053200000000000004,-0.10660000000000001,0.10160000000000001,0.143],[0.0838,0.1044,-0.17720000000000002,0.011200000000000002,-0.1532,0.1998,-0.05560000000000001,-0.1242,0.1936,-0.0732,-0.1318,0.08120000000000001,0.07740000000000001,-0.06680000000000001,-0.10260000000000001,-0.0766,0.1688,0.132,0.17320000000000002,0.13360000000000002,-0.15560000000000002,0.072,0.062,-0.17700000000000002,-0.1816],[0.0354,0.019200000000000002,-0.1146,0.05500000000000001,0.1976,-0.0256,0.1646,-0.1646,-0.0932,0.07600000000000001,-0.1958,-0.055400000000000005,0.1814,-0.146,0.0598,0.036,-0.1824,0.0752,0.189,0.17800000000000002,-0.13560000000000003,0.040400000000000005,-0.051000000000000004,-0.17420000000000002,-0.0948],[0.08020000000000001,0.15600000000000003,0.08020000000000001,-0.1584,0.0824,0.10920000000000002,0.193,-0.0432,0.047,-0.1454,0.1058,0.031,0.0154,-0.1888,-0.09300000000000001,-0.10360000000000001,-0.0816,-0.166,-0.094,-0.15180000000000002,-0.1014,0.0954,0.05280000000000001,-0.064,-0.09720000000000001],[0.08100000000000002,-0.15980000000000003,0.042800000000000005,0.0524,0.10400000000000001,0.0454,0.18720000000000003,-0.10800000000000001,0.0012000000000000001,0.026000000000000002,-0.137,0.17,0.018600000000000002,-0.15080000000000002,-0.1492,-0.11020000000000002,0.122,-0.1922,-0.0722,-0.1414,-0.028999999999999998,-0.08000000000000002,-0.0236,-0.0998,-0.1474],[-0.1826,-0.0702,0.0964,-0.0868,0.1216,-0.042,0.1274,-0.0594,0.0122,0.1836,-0.06760000000000001,-0.068,0.0182,0.1184,0.1786,-0.050800000000000005,-0.19740000000000002,0.1342,0.17300000000000001,-0.066,0.11599999999999999,0.1544,-0.0664,-0.049800000000000004,-0.0178],[-0.128,-0.15800000000000003,0.05380000000000001,0.0586,0.18100000000000002,0.0946,-0.16620000000000001,0.141,-0.11060000000000002,0.1502,-0.1554,0.0946,-0.0832,-0.0482,0.0912,0.129,0.15680000000000002,0.038400000000000004,-0.1532,0.0782,-0.1976,0.10980000000000001,0.07980000000000001,-0.004200000000000001,0.031400000000000004],[-0.09360000000000002,-0.1242,-0.1918,0.03900000000000001,0.13899999999999998,0.1182,-0.198,0.0494,-0.13740000000000002,0.0436,-0.1048,-0.1128,-0.0698,-0.027400000000000004,-0.13899999999999998,0.1426,0.1562,-0.145,-0.1932,-0.10220000000000001,0.0454,0.101,0.13240000000000002,0.0472,-0.0828],[-0.0724,-0.1178,-0.1516,0.13,0.15600000000000003,0.06820000000000001,0.018,-0.08040000000000001,0.0236,-0.08020000000000001,-0.1956,0.0474,0.1864,-0.1524,-0.062400000000000004,-0.13240000000000002,-0.0022,0.045200000000000004,0.1282,0.044000000000000004,-0.024800000000000003,-0.0424,0.1748,0.1034,-0.0814],[-0.0358,0.11399999999999999,-0.0176,-0.12960000000000002,0.10120000000000001,-0.1168,-0.040600000000000004,-0.0068000000000000005,0.0864,0.13240000000000002,0.1968,0.15680000000000002,-0.1196,-0.042,0.031200000000000002,0.1794,0.1382,-0.1212,-0.017,0.1946,-0.193,0.0826,0.11160000000000002,0.08900000000000001,0.189],[0.0252,0.1472,-0.04000000000000001,0.1574,-0.0814,0.0586,-0.11040000000000001,-0.06420000000000001,0.0078000000000000005,-0.06280000000000001,0.0354,-0.198,-0.13660000000000003,0.08100000000000002,0.1058,-0.1268,0.1628,0.15480000000000002,0.1738,0.001,-0.1688,0.1928,-0.0236,0.1424,-0.1202],[-0.1646,-0.0748,0.1716,0.0088,-0.1724,-0.0044,0.1312,0.019600000000000003,0.123,-0.0716,0.11040000000000001,-0.1182,-0.0522,-0.0572,0.026600000000000002,-0.084,0.10820000000000002,-0.031200000000000002,0.12940000000000002,-0.1044,0.1766,0.06820000000000001,0.12660000000000002,0.0604,0.17600000000000002],[0.15800000000000003,-0.1068,-0.123,-0.0422,0.119,0.0666,0.03,-0.046400000000000004,-0.1426,-0.0436,-0.039400000000000004,0.1442,-0.0898,0.0164,0.0918,0.1912,0.041800000000000004,0.0838,-0.08560000000000001,-0.0318,0.12240000000000001,-0.17720000000000002,0.018600000000000002,0.0374,-0.144],[0.053200000000000004,-0.051800000000000006,-0.0076,-0.1946,0.1844,-0.055200000000000006,0.1926,-0.0114,-0.10980000000000001,0.135,0.1164,-0.097,0.1302,-0.1492,-0.0688,-0.12140000000000001,0.0016,-0.1834,0.0656,-0.0814,0.051800000000000006,-0.0572,-0.0874,-0.15600000000000003,0.1208],[-0.191,0.18020000000000003,0.0198,-0.0758,0.005600000000000001,-0.09240000000000001,-0.095,0.1582,-0.1844,-0.1312,-0.13140000000000002,-0.1666,-0.17120000000000002,0.0252,0.14780000000000001,0.08040000000000001,0.15860000000000002,0.054000000000000006,0.0688,0.0208,-0.17220000000000002,-0.0848,0.0032,-0.03900000000000001,-0.0386],[0.1388,0.0824,-0.028000000000000004,-0.09960000000000001,0.0218,-0.1506,-0.18300000000000002,-0.027800000000000005,-0.0006000000000000001,0.1232,-0.0666,0.1272,0.0356,-0.033800000000000004,-0.18020000000000003,-0.085,-0.031200000000000002,0.1962,-0.17600000000000002,-0.1128,0.05580000000000001,-0.11040000000000001,-0.0752,-0.10760000000000002,0.10700000000000001],[0.1308,0.0888,-0.16080000000000003,-0.1966,-0.1876,0.1434,0.1252,0.166,0.1906,0.0492,0.1652,-0.009600000000000001,-0.13899999999999998,-0.1218,-0.1268,-0.0502,0.1668,-0.099,0.19920000000000002,0.0346,0.0286,-0.18400000000000002,0.136,0.0522,0.13799999999999998],[0.15700000000000003,-0.12040000000000001,0.10200000000000001,-0.060200000000000004,-0.17,0.17400000000000002,-0.133,0.13640000000000002,-0.08040000000000001,-0.0388,0.1854,-0.13560000000000003,-0.0782,-0.10640000000000001,-0.1796,-0.0188,0.0942,0.121,0.18560000000000001,0.0636,0.0128,0.023400000000000004,0.049600000000000005,0.1068,-0.10920000000000002],[-0.1274,0.0596,-0.0632,0.1806,0.042,0.1142,0.0102,-0.0796,-0.08560000000000001,-0.0416,-0.1226,-0.11699999999999999,-0.1486,-0.07600000000000001,-0.18080000000000002,-0.0956,0.084,0.0414,0.11399999999999999,-0.0154,-0.1916,0.1636,-0.1416,-0.013400000000000002,0.0238],[-0.0308,-0.15880000000000002,0.1748,0.12140000000000001,-0.1264,-0.0422,-0.012,0.028000000000000004,-0.0346,0.028999999999999998,-0.0422,0.027600000000000003,0.0584,-0.05500000000000001,-0.0328,0.1194,-0.0786,-0.06899999999999999,0.1958,-0.0118,0.1206,0.0018,0.0172,-0.0666,-0.08020000000000001]],[[-0.12340000000000001,0.1894,-0.08860000000000001,-0.1612,-0.0862,-0.13640000000000002,-0.0908,-0.13640000000000002,0.18000000000000002,0.1254,0.019200000000000002,-0.011600000000000001,-0.0006000000000000001,-0.024800000000000003,0.06680000000000001,0.1644,0.1298,0.0758,-0.1554,0.1738,0.0072,-0.1928,-0.006,0.1428,0.040600000000000004],[-0.066,-0.1472,0.043000000000000003,0.08800000000000001,0.1184,-0.1896,0.1864,0.053200000000000004,-0.0108,-0.10960000000000002,-0.18200000000000002,0.19740000000000002,0.1922,-0.07600000000000001,-0.06780000000000001,-0.06680000000000001,-0.1418,-0.0166,0.0364,0.193,0.17220000000000002,0.1384,0.0738,0.13,-0.12940000000000002],[0.0878,-0.1412,0.10740000000000001,0.020000000000000004,0.0738,0.0328,0.0356,-0.1206,-0.16920000000000002,-0.13640000000000002,-0.0626,-0.033,-0.134,0.0006000000000000001,-0.15080000000000002,0.1824,0.098,0.036,0.071,-0.055200000000000006,0.0474,0.13,-0.1718,0.1028,-0.023000000000000003],[-0.0034000000000000002,-0.13520000000000001,0.1298,-0.1958,0.0292,-0.1254,-0.197,0.1414,0.0006000000000000001,-0.0758,0.10360000000000001,-0.1744,-0.1664,0.0018,0.037,0.07680000000000001,-0.148,0.0782,-0.123,-0.033800000000000004,0.1384,0.1184,-0.0598,-0.007000000000000001,0.06],[-0.003,0.045200000000000004,0.1928,-0.1154,0.1174,-0.1936,0.0322,0.12380000000000001,-0.0492,0.0844,-0.026600000000000002,-0.016,0.071,0.1942,-0.18400000000000002,0.026600000000000002,0.0178,0.1524,0.1582,0.1966,0.1532,-0.008400000000000001,-0.0968,0.0416,-0.1678],[0.0002,0.1582,-0.0012000000000000001,0.1804,0.163,-0.13460000000000003,0.1738,-0.15480000000000002,-0.12560000000000002,-0.0872,-0.039400000000000004,0.054400000000000004,-0.15380000000000002,0.0596,-0.05500000000000001,-0.1544,0.1754,0.1736,0.1132,0.073,-0.009800000000000001,0.018,0.19740000000000002,0.18420000000000003,-0.046200000000000005],[0.046200000000000005,0.12340000000000001,-0.0366,-0.11200000000000002,-0.0858,0.0656,-0.15780000000000002,0.08560000000000001,0.062200000000000005,-0.189,-0.09000000000000001,-0.0862,-0.119,0.196,-0.19720000000000001,-0.1008,-0.10600000000000001,-0.16620000000000001,0.1666,0.0442,-0.1292,-0.11120000000000002,-0.06420000000000001,0.0838,0.135],[0.17020000000000002,0.0796,-0.0052,0.015,-0.064,-0.041800000000000004,-0.1138,0.0524,0.1676,-0.0236,-0.1186,-0.05260000000000001,-0.15180000000000002,-0.195,-0.188,0.1864,0.028999999999999998,0.09040000000000001,0.0878,-0.0026,-0.046400000000000004,0.08080000000000001,-0.06999999999999999,-0.1182,0.071],[-0.039200000000000006,-0.07940000000000001,0.11120000000000002,-0.0256,0.05280000000000001,0.0242,0.0634,-0.15680000000000002,0.1764,0.0752,-0.1584,-0.1784,-0.1676,-0.0974,-0.0848,0.013400000000000002,-0.16060000000000002,-0.026400000000000003,0.028399999999999998,0.0708,-0.1018,0.1492,-0.0654,-0.018,-0.1208],[0.11040000000000001,0.147,0.018600000000000002,0.08080000000000001,-0.10960000000000002,-0.1704,0.062,-0.1948,-0.16000000000000003,-0.0782,-0.17120000000000002,-0.0942,0.15380000000000002,0.03,0.1152,0.137,-0.0998,0.0332,-0.083,-0.1428,0.13799999999999998,-0.1726,0.12940000000000002,-0.135,0.127],[-0.15660000000000002,-0.0004,-0.039200000000000006,0.1152,0.0718,0.028000000000000004,-0.1632,-0.0358,0.15280000000000002,-0.16820000000000002,-0.15100000000000002,-0.1704,0.097,-0.0576,0.165,0.0882,0.1874,-0.0128,0.065,-0.1134,-0.064,0.1394,-0.1322,-0.1882,-0.10460000000000001],[0.1644,0.0188,-0.1152,-0.0844,0.0476,0.124,0.137,-0.06860000000000001,0.0858,-0.143,-0.1312,-0.0208,0.006,-0.16720000000000002,-0.0244,-0.063,-0.082,-0.09140000000000001,0.13740000000000002,0.09140000000000001,0.0588,-0.0416,-0.0414,0.056999999999999995,-0.094],[0.0282,0.07700000000000001,-0.0714,0.1426,-0.10200000000000001,0.1184,-0.0688,-0.0736,0.166,0.1958,-0.09820000000000001,-0.10820000000000002,-0.1188,-0.09100000000000001,-0.1172,0.09040000000000001,-0.1246,-0.096,0.13740000000000002,0.0206,-0.1184,-0.0736,0.14980000000000002,0.1796,0.027600000000000003],[-0.1946,0.19940000000000002,-0.0346,0.17600000000000002,0.18560000000000001,0.1926,0.033800000000000004,-0.0374,0.0698,0.0006000000000000001,0.0998,-0.064,0.1734,0.10860000000000002,0.1592,0.07940000000000001,0.0592,-0.1332,0.0074,0.1212,-0.0442,-0.0966,0.1212,0.005600000000000001,0.0844],[0.07540000000000001,0.046400000000000004,0.0024000000000000002,-0.1642,-0.05500000000000001,-0.18460000000000001,-0.0618,0.0746,-0.097,0.18520000000000003,-0.11359999999999999,0.1424,0.0954,0.16100000000000003,0.15580000000000002,0.16140000000000002,0.0614,-0.1612,-0.12340000000000001,-0.046000000000000006,-0.168,-0.06680000000000001,0.09060000000000001,-0.10520000000000002,0.0592],[0.165,0.006,-0.1464,0.0318,-0.1338,0.16080000000000003,0.09260000000000002,-0.019200000000000002,0.10980000000000001,0.1912,0.047,-0.198,0.06620000000000001,-0.16240000000000002,0.15760000000000002,-0.0184,0.1138,-0.0656,0.041800000000000004,-0.11599999999999999,-0.0076,0.0974,-0.13360000000000002,0.06620000000000001,0.08860000000000001],[-0.1068,0.143,-0.13520000000000001,-0.0626,-0.18480000000000002,-0.10400000000000001,0.1078,-0.15940000000000001,-0.19240000000000002,0.1746,0.19640000000000002,0.011000000000000001,-0.1834,-0.18580000000000002,0.14880000000000002,-0.1836,-0.096,0.1658,-0.1028,0.15200000000000002,-0.019000000000000003,0.1544,0.059,0.1198,0.043800000000000006],[-0.1014,-0.0024000000000000002,0.0604,0.027000000000000003,0.19940000000000002,0.1196,-0.05580000000000001,-0.16080000000000003,0.11299999999999999,-0.1438,0.1886,-0.1952,-0.0908,0.067,0.10920000000000002,0.1736,-0.10640000000000001,0.056799999999999996,-0.15980000000000003,-0.050600000000000006,-0.1582,-0.18120000000000003,0.1532,0.0824,-0.0792],[0.18180000000000002,-0.17920000000000003,0.10860000000000002,-0.129,0.10500000000000001,-0.0718,-0.0088,0.0308,-0.0352,0.004,-0.1698,-0.17820000000000003,0.1272,0.1258,0.0584,0.171,-0.15180000000000002,0.05480000000000001,0.1524,-0.1164,-0.18080000000000002,0.10960000000000002,0.119,-0.0482,-0.17320000000000002],[0.014199999999999999,-0.15940000000000001,0.011000000000000001,-0.09340000000000001,0.021,-0.11359999999999999,-0.148,0.1718,0.15900000000000003,-0.1174,-0.06620000000000001,-0.022600000000000002,0.03,-0.1946,-0.19840000000000002,-0.18180000000000002,-0.1348,0.1018,-0.027600000000000003,0.1806,0.12040000000000001,0.0726,0.1694,0.2,-0.0444],[0.1748,0.146,0.10500000000000001,-0.056799999999999996,-0.1936,0.0512,0.11699999999999999,0.05620000000000001,0.0454,-0.1948,-0.189,0.15460000000000002,0.16060000000000002,-0.17980000000000002,-0.1976,0.051000000000000004,-0.07740000000000001,0.1582,-0.1882,-0.1922,-0.1484,-0.05160000000000001,-0.1746,-0.17320000000000002,0.1302],[0.1534,0.0378,-0.1988,-0.1422,-0.1864,-0.002,0.15760000000000002,-0.17400000000000002,0.0322,-0.1384,0.197,-0.0626,0.18520000000000003,0.1396,0.068,0.0442,0.12380000000000001,0.011600000000000001,-0.11259999999999999,-0.0646,0.05360000000000001,-0.17520000000000002,0.1462,-0.15360000000000001,-0.066],[-0.040600000000000004,-0.1302,0.19340000000000002,-0.0588,0.1998,-0.046200000000000005,-0.1188,-0.12380000000000001,-0.13260000000000002,0.15380000000000002,-0.0978,-0.1584,0.006,0.1434,-0.1202,-0.0036,0.0608,0.054000000000000006,0.0244,-0.1898,0.1874,0.0534,0.10940000000000001,-0.19840000000000002,-0.08940000000000001],[-0.0354,0.13360000000000002,-0.1208,0.048,0.08960000000000001,-0.1898,0.16000000000000003,-0.1552,-0.05580000000000001,-0.1646,-0.10060000000000001,-0.1768,-0.023200000000000002,-0.13,-0.0108,0.1898,0.13240000000000002,-0.020200000000000003,0.1874,0.049600000000000005,-0.1874,-0.17300000000000001,-0.0634,0.1748,-0.037],[-0.18100000000000002,-0.1318,-0.148,0.0698,-0.0358,0.0026,-0.0728,-0.1514,0.011000000000000001,0.0108,-0.13,0.0706,-0.1784,-0.0442,0.08000000000000002,-0.0826,-0.1262,0.1428,0.049600000000000005,-0.07980000000000001,0.0978,-0.0596,0.032,-0.1564,-0.0898]],[[0.1236,0.031200000000000002,0.1894,0.1932,-0.11599999999999999,0.1192,0.15760000000000002,0.0122,-0.11359999999999999,-0.063,-0.0698,-0.11399999999999999,0.0466,-0.0204,-0.13160000000000002,-0.0074,0.0044,-0.0104,-0.0072,0.002,0.0194,0.04020000000000001,0.0748,0.09100000000000001,-0.15400000000000003],[0.0374,0.10600000000000001,-0.19,-0.1698,-0.1322,-0.1564,-0.1908,-0.0456,-0.16080000000000003,-0.1956,-0.1402,-0.10500000000000001,0.1014,-0.19440000000000002,0.1714,0.06420000000000001,-0.1958,0.149,-0.122,0.07440000000000001,-0.1206,0.0436,0.0844,0.18600000000000003,-0.1422],[-0.19340000000000002,-0.0482,0.06,-0.0298,-0.08860000000000001,-0.1796,0.084,-0.0848,0.12480000000000001,0.1472,0.126,0.082,0.10600000000000001,-0.12960000000000002,0.15180000000000002,0.13260000000000002,0.09060000000000001,-0.05620000000000001,0.0822,0.1796,0.0184,-0.0976,-0.06780000000000001,-0.026400000000000003,0.11040000000000001],[0.0094,-0.1668,-0.0436,0.13440000000000002,0.016,-0.196,-0.05460000000000001,0.1968,0.1514,-0.004200000000000001,0.1154,-0.0968,0.18580000000000002,-0.1378,-0.1452,-0.18120000000000003,-0.19640000000000002,0.0824,-0.131,-0.0176,-0.06680000000000001,0.1,0.18700000000000003,-0.11160000000000002,-0.027800000000000005],[-0.0286,-0.046400000000000004,0.1254,-0.1038,0.1446,0.027400000000000004,0.16000000000000003,0.0378,0.072,0.10800000000000001,0.1246,-0.026000000000000002,0.032400000000000005,-0.0068000000000000005,-0.1216,-0.0898,-0.1898,0.0014000000000000002,-0.0816,-0.1406,0.1708,-0.0044,-0.07780000000000001,-0.0908,0.0902],[-0.1292,0.119,0.129,0.0724,0.13520000000000001,-0.0408,-0.0858,0.0026,-0.1748,0.06,0.0586,-0.19640000000000002,-0.0086,-0.0178,-0.0332,-0.18420000000000003,-0.033600000000000005,0.03900000000000001,0.10160000000000001,-0.013600000000000001,-0.128,0.09240000000000001,-0.13460000000000003,-0.1388,0.0366],[0.17900000000000002,0.1394,0.1242,0.031200000000000002,0.1522,0.1218,-0.18620000000000003,-0.1472,-0.1654,0.10920000000000002,0.11040000000000001,-0.03,0.0244,-0.1564,0.0584,0.1748,-0.048,0.13560000000000003,-0.045200000000000004,0.10900000000000001,0.06420000000000001,0.17120000000000002,0.15100000000000002,0.1898,-0.025400000000000002],[-0.0174,-0.0442,0.19540000000000002,-0.06820000000000001,-0.1156,0.19640000000000002,-0.0968,-0.0594,-0.0492,-0.0152,-0.0164,-0.0824,0.1958,-0.08120000000000001,0.051800000000000006,-0.1686,-0.0118,-0.0194,0.1966,-0.0104,0.0288,-0.0908,0.0422,-0.18180000000000002,-0.009],[0.1144,-0.09000000000000001,-0.007000000000000001,-0.09360000000000002,0.034999999999999996,-0.013600000000000001,0.1008,0.13040000000000002,0.1292,0.0772,-0.17220000000000002,0.10700000000000001,-0.1226,0.127,0.0432,0.1784,0.08800000000000001,0.18600000000000003,-0.1836,-0.1494,-0.08560000000000001,-0.1902,0.06780000000000001,-0.036,0.09960000000000001],[0.0246,0.0758,-0.1464,-0.0212,0.0932,0.06999999999999999,-0.17020000000000002,0.141,-0.1834,0.015,0.057999999999999996,-0.121,0.1516,0.1986,-0.1766,0.032600000000000004,0.08040000000000001,-0.0736,-0.0918,-0.1252,0.063,0.027000000000000003,-0.132,0.1494,0.1584],[-0.062400000000000004,0.056799999999999996,0.09860000000000001,0.0976,0.1896,0.15360000000000001,0.19340000000000002,-0.0878,0.004,0.0288,-0.098,0.1252,-0.026400000000000003,-0.0376,0.1758,0.15080000000000002,0.1764,0.12,-0.013200000000000002,-0.1166,0.1182,0.1952,0.0294,-0.0708,-0.0148],[-0.07600000000000001,0.1018,0.0376,-0.193,0.0706,-0.14780000000000001,-0.09620000000000001,0.13160000000000002,0.18000000000000002,-0.09620000000000001,0.046400000000000004,0.1796,-0.18000000000000002,0.1176,-0.0212,0.11699999999999999,-0.004200000000000001,0.016,-0.1254,0.11599999999999999,0.10660000000000001,0.1884,0.016800000000000002,-0.0236,-0.0828],[0.10880000000000001,-0.09160000000000001,-0.19740000000000002,0.1612,0.17720000000000002,0.038200000000000005,-0.0964,0.0068000000000000005,0.1298,0.1562,0.0408,0.0942,-0.1456,-0.09960000000000001,-0.06580000000000001,0.13999999999999999,0.1684,-0.097,0.1146,0.046400000000000004,-0.0356,-0.1502,-0.0814,-0.025,-0.0948],[0.1382,0.0956,-0.0364,-0.12840000000000001,-0.018600000000000002,-0.0204,0.1922,0.19720000000000001,-0.1416,-0.18600000000000003,-0.11399999999999999,0.09160000000000001,-0.0474,0.1884,0.11699999999999999,0.038000000000000006,-0.10860000000000002,-0.0222,0.0718,-0.012,0.1514,0.048600000000000004,-0.031,-0.0246,0.0968],[0.019000000000000003,-0.041800000000000004,-0.027000000000000003,-0.1628,0.12960000000000002,-0.0242,-0.060200000000000004,-0.16140000000000002,-0.061200000000000004,0.1134,-0.083,-0.011000000000000001,-0.0606,-0.026000000000000002,-0.19920000000000002,-0.0952,0.07540000000000001,0.15980000000000003,0.12760000000000002,-0.023400000000000004,-0.06620000000000001,-0.1378,0.10820000000000002,-0.171,0.052000000000000005],[0.1948,-0.0348,-0.09300000000000001,0.0968,-0.1784,0.12140000000000001,-0.10920000000000002,0.066,0.10840000000000001,-0.16240000000000002,0.1718,0.1652,0.1004,0.1686,-0.1404,-0.13140000000000002,-0.024,-0.046000000000000006,0.0772,0.12560000000000002,0.0164,-0.0902,0.0102,0.0416,-0.11080000000000001],[-0.1368,-0.10860000000000002,0.0216,-0.1912,0.018600000000000002,0.0706,0.0512,-0.12760000000000002,-0.0748,-0.0352,-0.15360000000000001,0.19540000000000002,-0.1178,0.028999999999999998,-0.1166,-0.1424,-0.11259999999999999,0.023400000000000004,0.0054,-0.0588,-0.0932,-0.0446,0.021,-0.12960000000000002,-0.0626],[-0.1332,0.0006000000000000001,0.017,-0.1826,-0.0238,0.129,-0.1436,-0.10760000000000002,-0.18500000000000003,-0.0154,-0.0692,0.1452,0.1318,0.0002,0.16200000000000003,0.013000000000000001,0.064,0.0852,-0.1656,0.0416,-0.0144,0.121,-0.0222,-0.0476,-0.18560000000000001],[-0.0644,0.19920000000000002,-0.1008,-0.08560000000000001,0.163,-0.0328,0.12,-0.0692,0.1404,-0.1906,-0.018,0.1442,-0.1544,-0.015600000000000001,0.0578,0.1484,-0.18600000000000003,-0.1902,-0.004,0.07940000000000001,-0.064,-0.0872,-0.18400000000000002,0.0262,0.0434],[0.10940000000000001,-0.1198,-0.0012000000000000001,0.1338,0.09860000000000001,0.10820000000000002,-0.1142,0.0388,-0.1462,-0.0736,-0.026800000000000004,-0.06780000000000001,-0.15680000000000002,-0.057999999999999996,-0.1854,-0.0412,0.15780000000000002,-0.1506,-0.1208,-0.1328,-0.05,-0.1878,0.134,0.1636,-0.1184],[-0.054000000000000006,0.05460000000000001,-0.0722,0.0592,0.0656,0.17420000000000002,0.040400000000000005,-0.1008,-0.13340000000000002,-0.0654,0.1468,-0.1754,0.15080000000000002,0.1278,0.15460000000000002,0.013400000000000002,-0.08040000000000001,-0.0742,-0.04680000000000001,-0.1342,-0.16820000000000002,-0.146,-0.025400000000000002,0.11000000000000001,-0.1186],[-0.12140000000000001,0.1778,0.033,-0.1708,-0.0954,-0.1078,0.062200000000000005,0.06999999999999999,0.1592,-0.10460000000000001,-0.13360000000000002,0.1422,0.1774,-0.18120000000000003,-0.165,-0.0474,-0.038400000000000004,0.042800000000000005,-0.1268,0.1926,0.06420000000000001,0.0108,0.0718,0.010000000000000002,-0.1886],[-0.0446,0.1232,-0.1426,-0.0944,0.09040000000000001,-0.0988,0.11299999999999999,-0.09720000000000001,0.1958,-0.0342,0.08560000000000001,0.198,0.1834,-0.1442,0.1878,-0.19140000000000001,-0.0796,-0.0594,0.1956,0.10940000000000001,-0.1734,0.013600000000000001,-0.0198,-0.1646,-0.11120000000000002],[-0.0408,0.002,-0.1884,-0.1472,-0.1888,0.11240000000000001,-0.0072,0.1756,0.15180000000000002,0.1884,-0.008,-0.0746,0.006200000000000001,-0.0738,0.19940000000000002,-0.1418,-0.11220000000000002,0.11000000000000001,0.0108,0.0426,0.033600000000000005,0.118,-0.0826,-0.1936,0.10500000000000001],[0.1318,-0.15360000000000001,-0.0128,-0.0286,-0.031400000000000004,0.15300000000000002,-0.030600000000000002,-0.10940000000000001,0.11699999999999999,-0.1342,0.10720000000000002,0.1922,-0.0052,0.1764,-0.12340000000000001,-0.11160000000000002,-0.0988,0.0796,0.08560000000000001,-0.1956,0.1906,0.0698,-0.026800000000000004,-0.073,0.0766]],[[-0.09820000000000001,0.15280000000000002,0.1834,0.0872,0.1658,0.1154,-0.0188,0.097,0.137,-0.13140000000000002,-0.06680000000000001,-0.0476,-0.1148,-0.0742,0.19720000000000001,-0.0782,-0.15380000000000002,-0.18720000000000003,0.0398,-0.1668,0.10200000000000001,0.15500000000000003,0.13899999999999998,0.016,0.1402],[-0.07780000000000001,0.056799999999999996,0.1014,0.192,0.0834,-0.07840000000000001,-0.05600000000000001,0.019000000000000003,0.198,0.041,-0.060200000000000004,-0.10820000000000002,0.020000000000000004,-0.1694,-0.1836,0.0772,-0.015600000000000001,-0.15100000000000002,-0.0296,-0.1728,0.17520000000000002,0.0834,0.1262,-0.1956,0.0502],[-0.10200000000000001,0.099,-0.1496,0.1482,0.10360000000000001,-0.09920000000000001,0.0964,-0.1726,-0.0534,-0.13540000000000002,0.163,-0.09000000000000001,0.1666,0.025400000000000002,-0.1406,0.11100000000000002,0.0852,0.1486,-0.11359999999999999,0.101,0.048,-0.0368,0.009600000000000001,0.142,-0.10260000000000001],[0.1268,0.037200000000000004,-0.1602,0.12240000000000001,0.0502,-0.18500000000000003,0.16240000000000002,0.05,0.11120000000000002,-0.101,-0.0154,0.1542,0.1392,-0.08700000000000001,0.0028000000000000004,0.0296,-0.062200000000000005,-0.06860000000000001,-0.1328,0.0114,-0.038200000000000005,0.13620000000000002,-0.0704,0.10960000000000002,0.10160000000000001],[0.1968,0.127,-0.054200000000000005,-0.17020000000000002,-0.0444,0.10200000000000001,0.0726,0.1836,0.0816,-0.16200000000000003,-0.0318,0.09340000000000001,0.0736,0.025800000000000003,0.0238,0.0964,0.18400000000000002,-0.16920000000000002,0.17020000000000002,0.17320000000000002,-0.045000000000000005,-0.059,-0.1436,-0.0352,0.0636],[0.10880000000000001,-0.0828,0.013800000000000002,0.0454,0.002,0.1132,-0.012,-0.18280000000000002,0.013800000000000002,0.0712,0.015600000000000001,0.0352,-0.1938,-0.11020000000000002,0.1174,-0.1912,0.08000000000000002,0.0026,-0.18280000000000002,-0.0842,-0.10320000000000001,0.0166,-0.05280000000000001,-0.020200000000000003,-0.1654],[0.16240000000000002,-0.08660000000000001,0.16720000000000002,-0.09340000000000001,0.09060000000000001,-0.168,-0.1368,0.16160000000000002,0.15940000000000001,0.1998,0.0746,0.0456,0.1814,0.1302,-0.1978,0.1158,-0.0032,-0.1514,0.0054,0.027200000000000002,-0.1458,0.1894,0.0688,-0.12440000000000001,-0.1162],[0.1384,-0.06999999999999999,0.1008,-0.0148,0.1522,-0.1322,-0.019000000000000003,-0.07880000000000001,-0.054400000000000004,0.15680000000000002,0.004200000000000001,-0.0376,0.0016,0.0094,0.0772,-0.10980000000000001,0.1844,-0.16040000000000001,-0.049800000000000004,-0.18400000000000002,0.1638,0.1208,-0.002,-0.19840000000000002,-0.0304],[0.0346,0.19940000000000002,-0.045200000000000004,0.1378,-0.1456,0.1724,0.0026,0.0412,-0.1454,-0.0146,0.17880000000000001,0.17220000000000002,-0.18620000000000003,-0.18400000000000002,-0.0488,0.039400000000000004,0.0012000000000000001,0.0838,0.0356,-0.094,0.1152,0.11240000000000001,0.12960000000000002,0.013600000000000001,0.04020000000000001],[-0.049,-0.1162,0.1834,0.10700000000000001,-0.039200000000000006,0.1182,0.1156,0.1724,0.141,0.0618,0.18180000000000002,0.07800000000000001,-0.1332,-0.0016,-0.1254,-0.1718,-0.08960000000000001,0.10560000000000001,-0.1754,-0.0386,-0.1242,0.1816,0.09920000000000001,-0.0574,-0.0476],[0.1744,-0.1404,-0.0706,-0.0664,-0.011600000000000001,-0.096,0.0842,-0.0514,0.18380000000000002,-0.15500000000000003,-0.17600000000000002,-0.055400000000000005,0.0988,0.0852,-0.15200000000000002,-0.1386,0.13440000000000002,0.10920000000000002,0.038000000000000006,-0.1138,0.0828,-0.1422,-0.0028000000000000004,0.15480000000000002,0.1632],[-0.1684,-0.0456,0.0302,0.0572,0.1414,-0.1262,0.15880000000000002,0.06999999999999999,-0.10660000000000001,-0.0586,-0.198,0.09280000000000001,0.15980000000000003,-0.1922,-0.143,0.1014,-0.066,0.0482,0.03,-0.1758,0.14980000000000002,0.10860000000000002,0.0052,0.0582,0.1464],[0.0356,0.11399999999999999,-0.1398,0.08660000000000001,0.0076,0.17720000000000002,-0.17500000000000002,0.0396,0.17900000000000002,-0.11299999999999999,-0.1206,-0.1622,-0.002,0.15500000000000003,0.09040000000000001,0.1394,0.18580000000000002,0.09260000000000002,0.014199999999999999,0.1154,-0.1322,-0.1826,0.1766,0.1192,-0.013400000000000002],[-0.10020000000000001,0.1166,0.1398,0.005000000000000001,-0.08460000000000001,-0.1228,-0.0596,-0.1936,0.0822,0.191,0.1684,-0.18220000000000003,0.1452,0.030600000000000002,-0.1018,-0.1746,-0.1302,-0.1844,-0.0616,-0.1962,0.15900000000000003,-0.061,0.0888,0.148,0.0524],[-0.1898,0.1654,0.1664,0.0146,0.0772,0.10640000000000001,-0.0884,0.08080000000000001,-0.0444,-0.026600000000000002,-0.0732,-0.011000000000000001,-0.056999999999999995,0.038400000000000004,0.142,0.16720000000000002,-0.0824,0.18700000000000003,0.1146,0.0184,-0.15680000000000002,-0.18020000000000003,0.0122,0.1664,-0.1864],[-0.049,-0.0632,0.07840000000000001,-0.0828,0.0522,0.0978,-0.0476,0.10620000000000002,0.1194,-0.0766,0.0826,-0.1474,0.0832,0.19240000000000002,-0.009,0.0726,0.10320000000000001,-0.15480000000000002,0.004,-0.0152,-0.0762,-0.1402,-0.1636,-0.0852,0.0328],[-0.09200000000000001,0.0756,-0.12940000000000002,-0.0362,0.07800000000000001,-0.1462,0.0158,0.014000000000000002,0.0566,0.07980000000000001,0.063,0.1844,-0.17500000000000002,0.011200000000000002,-0.166,0.143,0.1218,0.0426,-0.1388,0.132,-0.09720000000000001,-0.18080000000000002,0.15280000000000002,-0.06720000000000001,0.143],[0.025,0.0322,-0.1502,0.0616,0.1492,0.1776,0.08940000000000001,0.0154,-0.030600000000000002,-0.013200000000000002,-0.1128,0.1024,0.0364,0.0878,-0.046000000000000006,0.011200000000000002,0.0868,-0.0282,0.18020000000000003,-0.0976,0.18120000000000003,0.07940000000000001,-0.133,-0.012400000000000001,-0.0998],[0.122,-0.0726,-0.08020000000000001,0.0646,0.0178,-0.013800000000000002,-0.17220000000000002,-0.0454,-0.032400000000000005,-0.0174,-0.11259999999999999,0.0216,-0.0342,0.0282,0.15940000000000001,-0.1428,-0.1708,0.1768,0.1426,-0.07980000000000001,-0.0994,0.1746,0.05380000000000001,0.1288,-0.146],[0.063,-0.16200000000000003,0.08960000000000001,0.147,-0.0166,0.0088,0.07680000000000001,-0.0154,0.0852,-0.16720000000000002,-0.1152,-0.0184,-0.1896,0.0826,-0.07900000000000001,-0.026600000000000002,-0.057999999999999996,-0.0736,-0.18300000000000002,-0.0206,-0.1626,-0.0014000000000000002,-0.1258,-0.0908,0.1328],[-0.141,-0.06680000000000001,-0.023200000000000002,0.025800000000000003,-0.0398,-0.0566,0.020200000000000003,-0.048,0.1658,-0.1406,0.0854,0.1726,-0.1728,0.006600000000000001,-0.0898,0.12440000000000001,-0.0728,0.1426,-0.1652,-0.1664,0.142,-0.066,-0.0666,-0.1612,-0.0512],[-0.0328,0.13240000000000002,-0.10800000000000001,-0.09860000000000001,-0.10940000000000001,-0.1532,-0.1382,-0.17900000000000002,-0.1936,0.15100000000000002,-0.1658,0.0634,0.0176,0.13040000000000002,0.0104,0.1038,0.046000000000000006,-0.1816,-0.1764,0.0332,0.1358,0.0644,-0.04580000000000001,0.15880000000000002,-0.13240000000000002],[0.1582,-0.18100000000000002,-0.17300000000000001,-0.19340000000000002,0.10620000000000002,-0.0206,-0.0878,0.1162,-0.0708,-0.053200000000000004,0.1724,-0.05600000000000001,-0.15680000000000002,0.1928,0.0078000000000000005,-0.006600000000000001,0.0932,-0.10840000000000001,0.1694,0.1024,0.0304,-0.17920000000000003,-0.15460000000000002,0.08100000000000002,0.037200000000000004],[-0.16620000000000001,-0.0388,-0.05600000000000001,-0.0902,-0.1404,-0.18300000000000002,0.027000000000000003,-0.18300000000000002,-0.0328,0.17420000000000002,0.1826,-0.1886,-0.119,0.11240000000000001,-0.1888,0.1922,0.1728,-0.001,-0.0614,-0.0076,-0.022400000000000003,0.1544,0.1688,-0.0188,0.0594],[-0.0942,-0.16240000000000002,-0.1438,-0.10560000000000001,-0.06420000000000001,0.039400000000000004,0.13240000000000002,0.1826,-0.1816,0.0008,-0.10260000000000001,-0.06760000000000001,0.05360000000000001,0.1378,-0.1896,0.10220000000000001,0.1452,0.039400000000000004,-0.1148,-0.05380000000000001,-0.0738,-0.1728,-0.1626,-0.0244,0.094]],[[-0.22240516815831735,-0.10574553251584118,0.014309601877143644,0.01552228000232531,-0.03880570000581328,0.0419586631312856,0.206155281280883,0.21270374315686402,0.17414057877608707],[-0.16807718815017875,-0.0036380343755449945,-0.06136151313419224,0.07567111501133589,0.00485071250072666,0.14624898189690877,0.06378686938455558,0.23477448503517032,-0.19524117815424805],[-0.16759211690010606,0.16322647564945209,-0.01309692375196198,-0.021100599378160965,0.08513000438775287,0.004123105625617661,-0.09361875126402452,-0.13994305564596413,0.20930824440635534],[-0.08682775376300719,0.17050254440054208,-0.019160314377870306,0.20275978253037436,0.2333192712849523,-0.198151605654684,-0.11908499189283948,0.1918456794037394,0.19887921252979301],[0.054327980008138585,-0.1840845394025767,0.2384125194107153,-0.12369316876852982,-0.16516676064974276,-0.18117411190214072,-0.19354342877899372,-0.19039046565352138,0.011641710001743983],[0.19742399877957503,-0.07348829438600889,0.004608176875690326,0.13873037752078246,0.17123015127565105,0.022555813128378965,-0.04511162625675793,0.011156638751671317,-0.21512909940722735],[0.056510800633465585,0.10089482001511452,0.18335693252746774,-0.15134223002267178,-0.09992467751496918,-0.05917869250886525,0.16274140439937942,0.19063300127855773,-0.11156638751671318],[-0.15764815627361645,-0.004608176875690326,0.15279744377288978,-0.05287276625792059,-0.15546533564828943,0.024981169378742295,0.206155281280883,-0.03031695312954162,0.09483142938920619],[-0.14358109002150912,-0.1299990950194745,0.03322738062997762,0.040503449381067605,0.19014793002848507,-0.0669398325100279,0.16298394002441577,-0.024011026878596964,-0.11035370939153151],[0.05020487438252092,-0.2318640575347343,0.12805881001918382,-0.06596969000988258,0.06718236813506424,0.16346901127448843,0.013581995002034646,-0.09070832376358853,-0.03589527250537728],[-0.1654092962747791,-0.18165918315221338,-0.08561507563782553,0.21294627878190034,0.24180801816122396,0.22289023940839,0.22846855878422564,0.02764906125414196,0.22628573815889869],[0.060148835009010575,-0.15692054939850744,0.05893615688382891,0.24011026878596964,0.10259256939036884,-0.16007351252397978,-0.10501792564073217,-0.08197704126228054,0.18796510940315805],[-0.22240516815831735,0.11156638751671318,-0.046081768756903264,0.13873037752078246,-0.12054020564305748,0.209793315656428,0.1581332275236891,-0.1889352519033034,-0.027891596879178294],[0.10501792564073217,-0.12927148814436548,0.12878641689429282,-0.08221957688731688,-0.01309692375196198,-0.18917778752833972,-0.13145430876969247,-0.008731282501307986,-0.12951402376940183],[0.22119249003313568,0.14697658877201777,-0.03541020125530461,-0.16589436752485176,0.10477539001569584,0.1413982693961821,0.17389804315105073,-0.025708776253851293,0.1421258762712911],[-0.0033954987505086616,0.1918456794037394,-0.06790997501017323,-0.03346991625501395,-0.03177216687975962,-0.032014702504795954,0.006790997501017323,-0.016007351252397977,-0.0007276068751089989],[0.025951311878887627,-0.09313368001395186,-0.17535325690126874,-0.24108041128611496,-0.226528273783935,0.006305926250944657,0.07179054501075456,-0.22846855878422564,-0.054327980008138585],[-0.0890105743883342,-0.10089482001511452,-0.034682594380195615,-0.06790997501017323,0.1030776406404415,-0.16880479502528772,0.016734958127506975,0.07736886438659021,0.23113645065962532],[0.1671070456500334,-0.11641710001743982,-0.11447681501714915,0.11156638751671318,0.1920882150287757,0.09143593063869752,0.08682775376300719,0.2405953400360423,0.06378686938455558],[0.07858154251177188,0.03880570000581328,0.02934681062939629,0.01552228000232531,0.13242445126983782,-0.06160404875922858,0.06621222563491891,-0.22458798878364433,0.21221867190679133],[-0.01067156750159865,0.16492422502470644,-0.1266035962689658,-0.13193938001976516,0.13848784189574612,0.0419586631312856,0.22555813128378968,0.0038805700005813274,-0.18190171877724973],[0.05044741000755726,-0.0839173262625712,0.21003585128146435,0.21658431315744534,-0.19669639190446606,-0.06208912000930124,0.17268536502586906,-0.02449609812866963,0.01552228000232531],[-0.23162152190969798,0.09749932126460586,0.05481305125821125,-0.040503449381067605,0.14624898189690877,0.1700174731504694,-0.06208912000930124,-0.05917869250886525,0.2015471044051927],[0.11399174376707649,-0.12757373876911116,-0.14527883939676345,-0.20494260315570134,0.034682594380195615,0.20057696190504737,0.1273312031440748,-0.04680937563201226,-0.19305835752892106],[-0.23016630815947997,0.051660088132738924,0.23744237691056996,0.223617846283499,-0.1273312031440748,0.017462565002615973,0.007276068751089989,-0.24229308941129662,0.022555813128378965]]]}