{"name":"","initialization_type":"xavier","training_iterations":0,"input_dimensions":{"vertical":6,"horizontal":6},"output_dimensions":{"vertical":3,"horizontal":3},"deep_layers":8,"neurons_per_layer":25,"weights":[[[0.0698935959448243,0.026255366352330372,-0.051062160767980445,0.12693111595161097,-0.09361396140796416,0.1455814796363698,-0.10538360839349156,0.06246966476933778,0.04563001600542934,0.12675004445952592,0.12222325715740003,0.0019917864129354074,-0.05232966121257571,0.07641216965988563,0.10465932242515141,-0.03856822781411289,-0.12892290236454637,0.16586148674989395,-0.05884823492763705,0.08075788546992653,-0.00742393117548652,-0.1642318433211286,0.11461825448982846,0.15517826871687676,-0.05866716343555201],[-0.16386970033695855,-0.12059361372863468,-0.028066081273180745,-0.1167911123948489,-0.11516146896608358,0.0713421678815046,0.0762310981678006,-0.08437931531162728,-0.09977039213885543,0.1763636332908261,-0.059210377911807124,0.13453611861918255,0.11135896763229779,0.04508680152917423,-0.1435896932234344,0.0698935959448243,-0.11642896941067883,0.1720179174807852,0.08582788724830756,-0.16042934198734285,-0.08709538769290283,0.03639536990909245,-0.17419077538580566,-0.04291394362415378,0.018469292192673778],[0.1582564840823224,-0.09977039213885543,0.15155683887517601,-0.0048889302862960005,-0.01593429130348326,0.1475732660493052,-0.17075041703618993,-0.09850289169426017,0.06373716521393304,0.1495650524622406,0.02028000711352415,-0.06265073626142281,-0.0468975164500246,-0.1446761221759446,-0.05866716343555201,-0.17038827405201987,0.12023147074446461,0.028066081273180745,-0.1627832713844483,-0.05939144940389216,0.0036214298417007415,-0.032049654099051555,-0.015028933843058076,0.1225854001415701,-0.10683218033017186],[0.1749150613541458,-0.07659324115197068,0.03186858260696652,-0.051062160767980445,-0.13815754846088327,-0.1651372007815538,-0.05323501867300089,0.10882396674310726,-0.08926824559792328,-0.09216538947128386,0.12222325715740003,0.00036214298417007413,0.040378942734963265,-0.12276647163365513,0.07930931353324623,0.09053574604251853,0.011950718477612447,0.038387156322027854,0.14865969500181542,-0.0713421678815046,0.016296434287653334,0.021185364573949338,-0.15137576738309097,-0.12765540191995112,-0.17437184687789067],[0.08093895696201157,0.02154750755811941,-0.06047787835640238,0.03730072736951763,0.1285607593803763,-0.03639536990909245,-0.1593429130348326,0.10284860750430104,-0.07025573892899438,-0.02770393828901067,-0.12131789969697483,-0.07749859861239586,-0.13996826338173365,0.013761433398462817,0.04182751467164356,0.003259286857530667,-0.07116109638941957,-0.02154750755811941,-0.12294754312574017,-0.16821541614699945,0.15861862706649246,-0.13055254579331171,-0.10339182198055616,-0.1338118326508424,0.013399290414292742],[0.17907970567210166,-0.1352604045875227,0.05703752000678668,0.15753219811398225,0.05269180419674578,0.01593429130348326,0.15898077005066255,-0.1430464787471793,-0.14431397919177455,-0.03856822781411289,-0.14051147785798876,0.14974612395432566,-0.1392439774133935,0.08963038858209335,0.14865969500181542,0.17726899075125127,0.1680343446549144,0.08148217143826668,0.17871756268793157,-0.04472465854500415,0.13163897474582195,0.1510136243989209,-0.1504704099226658,0.012675004445952596,-0.07170431086567468],[-0.037662870353687705,-0.11135896763229779,-0.05685644851470164,-0.1285607593803763,-0.052510732704660744,0.11298861106106313,-0.02028000711352415,-0.09270860394753898,-0.006699645207146371,-0.13507933309543765,0.049251445847130086,-0.006880716699231408,0.1251204010307606,0.07568788369154549,-0.11715325537901898,-0.04218965765581364,-0.07098002489733453,0.13507933309543765,-0.017563934732248595,0.019374649653098965,-0.005251073270466075,-0.1251204010307606,-0.09488146185255943,0.16767220167074431,-0.1792607771641867],[-0.07442038324695023,0.1640507718290436,0.14684898008096506,-0.15608362617730195,0.01050214654093215,-0.0664532375952086,0.011950718477612447,-0.07333395429444002,0.15028933843058076,0.1162478979185938,-0.06337502222976296,0.11298861106106313,-0.1749150613541458,-0.007605002667571557,-0.16187791392402315,-0.09433824737630431,0.1256636155070157,0.1300093313170566,-0.07297181131026995,-0.07025573892899438,-0.14051147785798876,-0.08474145829579735,0.10121896407553573,0.0860089587403926,-0.06536680864269838],[0.10701325182225689,0.12475825804659052,0.0030782153654456304,0.1674911301786593,-0.10991039569561749,-0.07568788369154549,-0.1568079121456421,-0.0014485719366802965,-0.136890048016288,-0.032773940067391705,-0.03820608482994282,0.0981407487100901,0.14431397919177455,-0.07840395607282105,0.17672577627499617,-0.041646443179558526,-0.11045361017187261,-0.07260966832609987,-0.059934663880147274,0.09886503467843025,-0.01484786235097304,0.06428037969018816,-0.11063468166395764,-0.11878289880778432,0.14540040814428476],[0.10665110883808682,0.1182396843315292,-0.011588575493442372,0.06808288102397393,-0.04762180241836475,-0.018650363684758815,-0.12041254223654965,-0.06536680864269838,0.11697218388693395,0.15608362617730195,-0.013761433398462817,-0.1705693455441049,0.024444651431480006,-0.03947358527453808,-0.10429717944098134,0.08999253156626343,0.04852715987878994,-0.12240432864948506,0.02046107860560919,-0.09977039213885543,0.007786074159656593,-0.16097255646359795,0.07188538235775972,-0.014123576382632891,0.09451931886838935],[0.04762180241836475,0.1329064751904172,0.13815754846088327,-0.012131789969697484,0.12783647341203616,-0.08311181486703201,0.0014485719366802965,0.038387156322027854,0.1651372007815538,-0.034041440511986966,0.017382863240163558,-0.08419824381954223,0.06916930997648416,-0.0722475253419298,0.1323632607141621,0.1444950506838596,-0.062107521785167714,-0.051786446736320595,-0.10375396496472623,0.005794287746721186,-0.08872503112166816,-0.09198431797919883,-0.17962292014835676,0.09071681753460356,-0.13707111950837306],[0.06609109461103853,0.038930370798282966,0.13417397563501246,0.14847862350973037,0.0016296434287653334,-0.07387716877069511,0.1616968424319381,0.03730072736951763,0.07260966832609987,-0.10465932242515141,-0.09252753245545393,0.04291394362415378,0.10918610972727734,-0.06826395251605898,0.15119469589100595,0.14920290947807052,0.1582564840823224,-0.05414037613342608,0.025531080383990223,-0.05486466210176623,0.10339182198055616,-0.12493932953867556,-0.07586895518363053,-0.06753966654771883,-0.1441329076996895],[0.15499719722479172,-0.034765726480327115,-0.06084002134057245,-0.10411610794889631,0.1495650524622406,0.17853649119584655,0.017020720255993483,-0.058486091943466975,0.17962292014835676,0.05015680330755527,-0.15427291125645157,0.1631454143686184,-0.11878289880778432,0.049975731815470235,-0.11244539658480801,0.14377076471551944,0.04418144406874904,-0.006880716699231408,0.05540787657802134,0.15608362617730195,-0.09633003378923972,-0.03023893917820119,-0.02643643784441541,0.17129363151244506,-0.06283180775350786],[0.05884823492763705,0.11697218388693395,-0.06319395073767793,-0.049975731815470235,0.08727645918498786,-0.14630576560470995,0.0566753770226166,0.018288220700588744,0.006699645207146371,-0.07188538235775972,0.059934663880147274,0.01484786235097304,-0.02408250844730993,0.05124323226006548,-0.16205898541610816,-0.05359716165717097,-0.12186111417322995,-0.004707858794210963,-0.013942504890547854,0.15952398452691766,0.1631454143686184,0.17672577627499617,0.1055646798855766,-0.17256113195704031,-0.009415717588421926],[0.06102109283265749,0.02353929397105482,-0.11353182553731823,-0.11208325360063794,-0.07749859861239586,0.0650046656585283,-0.11534254045816861,0.11661004090276388,-0.1803472061166969,0.0820253859145218,0.1323632607141621,-0.019917864129354076,-0.08709538769290283,0.1720179174807852,-0.17129363151244506,0.136890048016288,-0.12584468699910076,0.14485719366802965,-0.047259659434194676,-0.03458465498824208,-0.05758073448304179,-0.16061041347942787,0.059934663880147274,0.1001325351230255,-0.1182396843315292],[-0.09922717766260032,-0.0012675004445952594,-0.14920290947807052,0.17509613284623082,-0.04635430197376949,0.1749150613541458,0.09180324648711378,0.10936718121936238,0.026255366352330372,-0.0995893206467704,0.023901436955224894,-0.05142430375215052,-0.05015680330755527,-0.013399290414292742,0.06518573715061333,0.08510360127996741,0.012131789969697484,-0.07242859683401483,0.10194325004387586,-0.01176964698552741,0.16097255646359795,0.1530054108118563,-0.048708231370874974,0.08981146007417838,-0.06265073626142281],[0.08800074515332801,0.010140003556762076,0.05830502045138194,-0.1740097038937206,0.029514653209861044,-0.05269180419674578,0.06428037969018816,0.059210377911807124,-0.1803472061166969,-0.025350008891905192,0.03494679797241215,-0.13888183442922342,-0.12240432864948506,-0.05613216254636149,-0.11280753956897809,0.10628896585391674,-0.1622400569081932,-0.1300093313170566,0.15336755379602637,-0.161153627955683,-0.1510136243989209,-0.14540040814428476,0.17763113373542136,0.1392439774133935,-0.17763113373542136],[-0.1524621963356012,-0.17382863240163557,0.05830502045138194,0.032049654099051555,0.1504704099226658,-0.013218218922207705,0.1631454143686184,-0.04907037435504505,0.039111442290368004,0.10411610794889631,-0.05902930641972209,-0.1665857727182341,-0.12222325715740003,0.12023147074446461,-0.006518573715061334,-0.141778978302584,-0.024625722923565043,0.0820253859145218,-0.02408250844730993,0.050700017783810385,0.132001117729992,0.009053574604251853,-0.04309501511623882,-0.03096322514654134,-0.132001117729992],[-0.1680343446549144,-0.09162217499502875,0.13598469055586282,0.14377076471551944,0.09343288991587913,-0.02426357993939497,-0.13652790503211795,0.1783554197037615,-0.08818181664541305,-0.15916184154274757,-0.0860089587403926,0.03856822781411289,-0.1798039916404418,0.15644576916147201,0.0005432144762551112,0.1392439774133935,0.1015811070597058,-0.11552361195025365,0.062107521785167714,0.0747825262311203,-0.1481164805255603,-0.15626469766938697,-0.0791282420411612,0.15010826693849572,-0.002535000889190519],[-0.05287287568883082,0.08908717410583823,-0.04291394362415378,0.0957868193129846,0.13670897652420297,0.06047787835640238,0.0713421678815046,0.04780287391044979,0.14865969500181542,0.12765540191995112,0.16042934198734285,0.0707989534052495,0.11135896763229779,0.055045733593851266,-0.07242859683401483,-0.1674911301786593,-0.022271793526459558,0.05631323403844653,-0.049251445847130086,0.0454489445133443,-0.07568788369154549,-0.06464252267435823,-0.17582041881457097,-0.08709538769290283,-0.04291394362415378],[-0.055045733593851266,-0.0937950329000492,0.031144296638626372,-0.1309146887774818,0.04744073092627971,-0.11316968255314816,-0.1530054108118563,-0.08437931531162728,0.0615643073089126,-0.1524621963356012,0.049975731815470235,-0.16549934376572387,0.1530054108118563,0.1314579032537369,-0.08220645740660683,-0.14286540725509425,0.05794287746721186,0.05232966121257571,-0.046716444957939564,-0.11787754134735913,0.17799327671959142,-0.07460145473903526,0.054502519117596154,-0.10357289347264119,-0.10502146540932149],[-0.04074108571913334,0.07423931175486519,0.036757512893262526,0.14141683531841395,-0.1671289871944892,-0.17600149030665602,-0.004345715810040889,0.09180324648711378,-0.09107896051877364,-0.047259659434194676,-0.1568079121456421,-0.14250326427092416,-0.0059753592388062235,0.015753219811398222,0.06047787835640238,-0.0679018095318889,0.10647003734600179,0.15988612751108772,-0.15354862528811142,0.12186111417322995,-0.07858502756490608,0.12584468699910076,-0.07206645384984475,-0.01484786235097304,0.015572148319313186],[-0.023720365463139857,-0.03530894095658223,0.05794287746721186,0.08999253156626343,-0.023720365463139857,0.12005039925237958,0.13942504890547855,0.049432517339215123,0.17147470300453008,0.05015680330755527,0.00742393117548652,0.17219898897287023,0.11642896941067883,-0.10049467810719558,0.10121896407553573,0.08546574426413749,-0.07949038502533128,-0.09777860572592002,0.08148217143826668,0.09832182020217513,-0.009596789080506964,-0.04273287213206874,-0.04490573003708919,-0.02408250844730993,0.09832182020217513],[0.011588575493442372,-0.12095575671280476,0.10864289525102223,-0.07260966832609987,-0.08691431620081778,0.07586895518363053,-0.17708791925916625,-0.07550681219946045,-0.11733432687110402,0.11570468344233868,-0.17256113195704031,-0.13163897474582195,0.11262646807689305,-0.03241179708322163,-0.0747825262311203,-0.0903546745504335,0.06663430908729363,-0.11371289702940328,-0.07188538235775972,0.03820608482994282,-0.16350755735278846,0.10900503823519231,0.09940824915468535,-0.09795967721800505,-0.10520253690140653],[-0.10031360661511055,0.16151577093985306,-0.14684898008096506,0.1524621963356012,-0.13598469055586282,0.08238752889869187,-0.009053574604251853,-0.006337502222976298,0.054502519117596154,0.17219898897287023,-0.1162478979185938,0.1334496896666723,0.1597050560190027,-0.16151577093985306,0.053778233149256005,-0.043276086608323855,-0.14684898008096506,0.07333395429444002,0.07985252800950135,0.02154750755811941,-0.15517826871687676,-0.10628896585391674,0.02897143873360593,0.03494679797241215,-0.12077468522071973],[0.180709349100867,-0.002897143873360593,0.1363468335400329,0.06482359416644326,0.05558894807010638,0.045267873021259265,0.17183684598870017,0.06373716521393304,0.13308754668250225,-0.17600149030665602,-0.09415717588421928,0.06482359416644326,-0.1627832713844483,0.13743326249254312,0.12439611506242047,0.055770019562191415,0.14087362084215885,-0.028790367241520894,0.14630576560470995,0.12149897118905988,-0.1792607771641867,-0.06699645207146371,0.03657644140117749,0.015572148319313186,0.12982825982497156],[0.10520253690140653,-0.0972353912496649,0.13363076115875736,-0.03023893917820119,0.006337502222976298,-0.03711965587743259,0.09542467632881453,0.17672577627499617,0.10972932420353246,0.0664532375952086,-0.10809968077476712,0.07170431086567468,-0.07804181308865098,-0.06971252445273927,-0.020823221589779263,0.04816501689461986,-0.08546574426413749,0.15318648230394136,0.1256636155070157,-0.09596789080506965,0.07043681042107942,0.04128430019538845,-0.11878289880778432,0.09886503467843025,0.16640470122614906],[-0.12005039925237958,-0.08075788546992653,0.07568788369154549,0.014666790858888003,0.13019040280914165,-0.05414037613342608,-0.16205898541610816,0.0791282420411612,-0.15354862528811142,0.141778978302584,-0.08492252978788238,-0.13562254757169276,-0.09759753423383498,0.11950718477612447,-0.006518573715061334,0.1392439774133935,0.06265073626142281,0.12421504357033543,-0.12982825982497156,-0.08274967188286193,-0.024444651431480006,0.09307074693170905,0.022452865018544595,-0.1631454143686184,0.0009053574604251854],[-0.15717005512981216,0.11280753956897809,0.06428037969018816,-0.1309146887774818,-0.12276647163365513,-0.14286540725509425,-0.12602575849118577,0.061383235816827565,-0.0014485719366802965,-0.06518573715061333,-0.18089042059295202,0.01973679263726904,-0.16821541614699945,-0.06609109461103853,-0.017382863240163558,-0.13598469055586282,-0.14051147785798876,0.14377076471551944,-0.04780287391044979,0.1769068477670812,-0.06409930819810311,-0.08981146007417838,0.0010864289525102223,0.13055254579331171,0.1015811070597058],[0.04490573003708919,0.06971252445273927,0.006156430730891261,0.1568079121456421,0.1216800426811449,-0.06084002134057245,-0.07930931353324623,0.08872503112166816,-0.10411610794889631,0.027522866796925633,-0.12457718655450549,0.08908717410583823,-0.1495650524622406,0.13906290592130846,0.10882396674310726,0.13218218922207706,0.17238006046495527,0.017745006224333632,0.018107149208503707,0.05540787657802134,0.08727645918498786,0.04907037435504505,0.16821541614699945,0.02353929397105482,-0.11661004090276388],[0.14775433754139022,-0.09415717588421928,-0.10031360661511055,0.16097255646359795,0.1720179174807852,-0.15155683887517601,-0.17002613106784978,0.06536680864269838,-0.05160537524423556,0.13670897652420297,-0.11154003912438283,0.017020720255993483,0.056494305530531565,0.12276647163365513,-0.1251204010307606,0.09560574782089958,0.1656804152578089,0.11045361017187261,-0.06464252267435823,0.15191898185934608,0.15481612573270667,-0.12964718833288652,-0.04092215721121838,0.06337502222976296,-0.15191898185934608],[-0.03784394184577274,0.180709349100867,-0.11715325537901898,0.16205898541610816,0.11950718477612447,0.14485719366802965,0.023358222478969782,-0.018107149208503707,-0.05866716343555201,0.10031360661511055,0.05269180419674578,-0.17093148852827497,0.1607914849715129,-0.007242859683401483,-0.127112187443696,-0.14232219277883915,0.09614896229715468,-0.06808288102397393,-0.12837968788829127,0.14431397919177455,-0.034222512004072,-0.17944184865627172,-0.1627832713844483,-0.1240339720782504,-0.1387007629371384],[0.07116109638941957,-0.0762310981678006,-0.10194325004387586,0.025168937399820155,-0.012312861461782522,-0.05703752000678668,-0.09904610617051528,0.07315288280235498,-0.06319395073767793,0.14847862350973037,-0.15155683887517601,0.10755646629851201,-0.12693111595161097,0.0937950329000492,-0.13019040280914165,-0.13037147430122667,-0.15753219811398225,0.049251445847130086,0.15861862706649246,0.0747825262311203,0.15952398452691766,-0.11262646807689305,0.006699645207146371,-0.1559025546852169,0.11697218388693395],[0.003259286857530667,0.14087362084215885,0.06953145296065423,-0.03657644140117749,0.15354862528811142,-0.005613216254636149,0.04563001600542934,-0.042370729147898675,0.1001325351230255,-0.11009146718770253,0.10194325004387586,0.1622400569081932,0.14684898008096506,-0.1401493348738187,0.09433824737630431,0.16296434287653336,0.007786074159656593,0.10121896407553573,-0.047259659434194676,-0.0405600142270483,0.10846182375893719,-0.13326861817458727,-0.0796714565174163,0.09904610617051528,0.12928504534871646],[-0.1504704099226658,-0.015028933843058076,-0.03856822781411289,-0.004526787302125927,-0.013399290414292742,-0.059210377911807124,-0.1607914849715129,-0.14250326427092416,-0.1387007629371384,0.15644576916147201,-0.07188538235775972,0.17907970567210166,0.015028933843058076,-0.025531080383990223,-0.07260966832609987,0.011588575493442372,0.01973679263726904,-0.06301287924559289,0.009415717588421926,0.11063468166395764,0.0012675004445952594,-0.059210377911807124,-0.1441329076996895,0.08818181664541305,-0.0664532375952086],[-0.027341795304840596,-0.127112187443696,0.07152323937358965,0.14865969500181542,0.12276647163365513,-0.15028933843058076,-0.09560574782089958,-0.13906290592130846,-0.0581239489592969,0.1372521910004581,0.08926824559792328,0.11642896941067883,-0.07025573892899438,0.0986839631863452,-0.025893223368160297,0.04436251556083408,-0.16097255646359795,-0.13453611861918255,-0.060115735372232304,-0.13942504890547855,-0.14576255112845485,0.02897143873360593,0.13906290592130846,0.11733432687110402,-0.16477505779738374]],[[-0.15980000000000003,-0.19920000000000002,-0.1906,-0.0664,0.018600000000000002,-0.119,0.16620000000000001,0.0396,0.11359999999999999,0.1688,-0.19240000000000002,0.1896,0.0932,0.1678,0.1574,0.09100000000000001,-0.10640000000000001,-0.1142,0.18480000000000002,0.19820000000000002,-0.11020000000000002,0.17520000000000002,0.017,0.1754,0.1512],[0.0472,0.1212,0.011200000000000002,0.1368,-0.1826,-0.006200000000000001,0.1178,-0.1198,0.1968,0.11240000000000001,0.08360000000000001,0.027400000000000004,0.13720000000000002,0.1706,-0.18460000000000001,0.1476,0.0412,0.1442,-0.11180000000000001,0.013600000000000001,0.15180000000000002,0.0206,-0.0128,-0.1008,-0.16160000000000002],[-0.132,-0.13160000000000002,0.0666,0.1526,-0.1438,-0.1486,-0.1164,-0.1386,0.0888,0.1158,-0.019000000000000003,0.08020000000000001,0.0534,-0.0424,-0.0004,-0.044000000000000004,-0.1058,-0.08760000000000001,0.026000000000000002,-0.1502,-0.1684,-0.09960000000000001,-0.0636,-0.013400000000000002,0.1416],[0.1444,-0.16140000000000002,0.014000000000000002,-0.12380000000000001,0.0074,0.0376,-0.1686,0.19,0.015,0.18700000000000003,-0.15860000000000002,0.019600000000000003,-0.0388,-0.0758,0.0502,0.028399999999999998,-0.0188,0.1728,-0.0074,-0.1854,0.18620000000000003,-0.004200000000000001,-0.0218,-0.17900000000000002,0.1552],[0.056999999999999995,0.1454,0.0704,-0.10420000000000001,-0.192,0.13520000000000001,-0.07780000000000001,0.1434,0.1814,0.13240000000000002,-0.17220000000000002,-0.041800000000000004,-0.147,0.1152,-0.1192,-0.03,-0.1706,-0.1836,-0.015600000000000001,-0.0488,-0.0332,0.1504,-0.1424,0.034999999999999996,0.0014000000000000002],[-0.1552,-0.1738,-0.12480000000000001,0.1388,-0.128,0.05580000000000001,-0.084,0.191,0.026400000000000003,-0.094,-0.039400000000000004,0.015600000000000001,0.168,0.10920000000000002,0.083,0.10760000000000002,-0.15200000000000002,-0.0988,-0.1456,-0.05260000000000001,-0.024800000000000003,-0.199,0.0118,-0.08800000000000001,-0.0742],[0.1044,-0.13040000000000002,0.06999999999999999,-0.008400000000000001,-0.11180000000000001,0.09340000000000001,0.0736,0.0736,0.049,0.125,-0.07600000000000001,0.121,-0.09340000000000001,0.037200000000000004,-0.071,-0.145,0.131,0.0342,-0.0848,-0.0078000000000000005,0.1418,-0.0564,-0.041800000000000004,0.1216,-0.06860000000000001],[-0.1252,-0.146,-0.11080000000000001,0.1332,0.1168,-0.033800000000000004,0.1552,0.18320000000000003,0.0374,0.0238,-0.18080000000000002,-0.053000000000000005,0.065,-0.13540000000000002,0.18300000000000002,0.1382,0.18620000000000003,-0.004200000000000001,0.1182,0.1216,-0.1034,-0.13,0.011200000000000002,-0.004,-0.1342],[-0.0358,-0.1908,0.10620000000000002,0.0692,0.05620000000000001,0.0048000000000000004,0.1416,-0.1976,0.015,0.0714,0.1522,-0.0968,0.0604,0.10740000000000001,-0.051000000000000004,-0.05480000000000001,-0.121,0.15580000000000002,0.1876,-0.0006000000000000001,0.16100000000000003,-0.08460000000000001,0.08460000000000001,0.037,-0.033],[-0.18200000000000002,-0.1132,0.1696,0.07640000000000001,-0.06760000000000001,0.1686,-0.0684,-0.1724,0.1288,-0.05480000000000001,-0.16000000000000003,0.0706,0.18520000000000003,-0.15460000000000002,-0.1254,-0.15580000000000002,-0.17,-0.13640000000000002,0.1766,0.0748,0.032,0.144,0.15980000000000003,0.0956,0.0294],[0.056799999999999996,0.006200000000000001,-0.020000000000000004,-0.083,0.0684,0.0492,0.1724,-0.053000000000000005,0.0078000000000000005,-0.0424,-0.1452,-0.032400000000000005,0.1754,-0.0058000000000000005,-0.10760000000000002,-0.1028,0.18200000000000002,0.15600000000000003,0.18080000000000002,-0.040600000000000004,-0.0158,0.10260000000000001,-0.133,-0.17600000000000002,-0.0032],[-0.0704,0.0956,-0.1008,0.19540000000000002,-0.1232,0.1592,0.0154,-0.12940000000000002,-0.1988,0.16200000000000003,-0.1448,0.127,-0.07980000000000001,0.0476,-0.0008,-0.03,0.0994,0.1302,0.0772,-0.1902,-0.0708,-0.1142,0.17,-0.0482,0.0242],[0.1718,-0.1522,-0.0842,-0.1778,0.137,0.12480000000000001,-0.0302,0.046000000000000006,0.09200000000000001,-0.06760000000000001,0.122,0.0212,0.15700000000000003,-0.1208,-0.19840000000000002,-0.08660000000000001,0.16140000000000002,-0.1936,0.05620000000000001,-0.131,0.1422,-0.09340000000000001,0.020000000000000004,-0.018600000000000002,0.1212],[0.0074,-0.10620000000000002,-0.1502,-0.027000000000000003,-0.0004,-0.0714,0.1226,-0.0858,-0.0322,-0.027000000000000003,0.0412,-0.0342,-0.0614,-0.06380000000000001,0.1202,0.1166,-0.1998,-0.0172,0.11060000000000002,0.03900000000000001,0.1916,-0.1656,0.0892,0.045000000000000005,-0.0776],[0.1736,0.1024,0.0236,0.1744,-0.08800000000000001,0.12040000000000001,0.188,-0.064,-0.18100000000000002,0.11160000000000002,0.1998,0.0146,0.1948,0.0396,0.137,-0.0004,0.050600000000000006,0.0102,-0.0182,0.053000000000000005,0.16920000000000002,-0.0872,0.0954,0.0036,-0.0654],[-0.0474,0.08700000000000001,0.0332,-0.0442,0.198,-0.16620000000000001,0.1706,-0.1786,-0.15480000000000002,-0.0396,-0.0834,0.0994,-0.123,-0.082,-0.131,-0.011600000000000001,0.1514,0.1908,0.1648,-0.026400000000000003,0.0974,-0.1824,0.002,0.13899999999999998,0.124],[-0.1906,0.066,0.0884,-0.0822,0.1434,-0.1758,-0.062400000000000004,0.10160000000000001,0.0888,0.056999999999999995,0.17320000000000002,0.1188,-0.07540000000000001,0.125,-0.1434,0.046400000000000004,-0.0616,0.0004,0.13620000000000002,0.1942,-0.028999999999999998,-0.0374,0.10200000000000001,-0.10860000000000002,-0.0298],[0.16620000000000001,0.15460000000000002,0.0842,0.122,-0.0044,0.1926,-0.096,-0.08900000000000001,0.05600000000000001,-0.13520000000000001,-0.1392,-0.1078,-0.1678,-0.0946,0.0782,0.0898,0.1386,0.11499999999999999,-0.11699999999999999,-0.0968,0.1718,-0.1172,0.18400000000000002,0.13899999999999998,0.0578],[-0.1552,0.096,0.0492,-0.0872,-0.1718,0.0832,0.119,0.095,0.0892,-0.0424,0.13440000000000002,-0.031400000000000004,0.18460000000000001,-0.002,0.1216,0.16140000000000002,0.0444,-0.18120000000000003,-0.17820000000000003,-0.199,0.1328,0.0964,-0.1412,0.04020000000000001,-0.1482],[0.08700000000000001,0.0206,0.1806,-0.0038,0.0656,0.0514,-0.0664,0.0172,-0.072,0.1458,0.1378,0.11599999999999999,0.0724,-0.1044,0.1,-0.06860000000000001,0.1252,-0.1424,0.1348,0.199,0.039200000000000006,0.0034000000000000002,0.0422,0.057999999999999996,-0.10520000000000002],[-0.06280000000000001,0.0426,0.0212,0.1484,0.07440000000000001,-0.1666,0.0816,0.12960000000000002,-0.1332,-0.1156,-0.1474,-0.1476,-0.0454,-0.0024000000000000002,0.0716,0.0958,-0.097,-0.0302,0.042800000000000005,0.1612,-0.08000000000000002,-0.0944,0.10160000000000001,-0.014199999999999999,-0.1916],[0.0478,-0.0702,0.11100000000000002,-0.054200000000000005,0.17500000000000002,0.055400000000000005,-0.0148,0.166,-0.1714,-0.0126,0.049600000000000005,0.17820000000000003,0.032400000000000005,-0.006600000000000001,0.062400000000000004,-0.18320000000000003,-0.11120000000000002,-0.044800000000000006,0.1938,0.023200000000000002,0.15180000000000002,-0.1444,-0.19240000000000002,-0.10560000000000001,-0.133],[-0.0738,-0.18120000000000003,-0.1676,0.10640000000000001,-0.17520000000000002,0.0346,0.0016,-0.18080000000000002,0.033,0.0534,-0.1406,0.053000000000000005,-0.0378,0.18520000000000003,0.0046,-0.10620000000000002,-0.0212,0.0164,0.10880000000000001,0.0756,-0.12860000000000002,-0.0578,0.067,-0.05600000000000001,0.039400000000000004],[0.1892,0.1926,-0.1886,-0.1886,-0.15660000000000002,0.033,-0.1882,-0.1996,-0.0636,0.1728,0.0328,0.10200000000000001,-0.022600000000000002,0.05380000000000001,-0.101,0.1206,0.0644,0.0714,0.19720000000000001,-0.17500000000000002,0.026800000000000004,0.0872,0.13260000000000002,-0.13060000000000002,0.013800000000000002],[-0.0922,-0.031200000000000002,0.1384,0.18080000000000002,0.12440000000000001,0.193,0.1246,0.07800000000000001,-0.1572,-0.1444,-0.122,-0.17980000000000002,0.1468,0.1644,-0.17,0.09620000000000001,-0.0728,0.0756,-0.0772,-0.008400000000000001,-0.1154,-0.0488,-0.1,0.0988,0.18100000000000002]],[[0.11220000000000002,0.15860000000000002,-0.1904,-0.11240000000000001,0.1694,-0.1462,-0.0806,-0.1142,-0.13340000000000002,-0.043000000000000003,-0.0696,-0.1836,-0.1962,-0.10980000000000001,-0.0466,0.15660000000000002,0.0146,-0.1766,-0.1164,0.16060000000000002,-0.0958,0.0396,-0.0176,-0.0342,0.0376],[-0.015,-0.1926,-0.1078,-0.11060000000000002,-0.12480000000000001,-0.2,0.07780000000000001,0.0454,0.043800000000000006,0.0222,-0.198,-0.118,0.0606,0.06480000000000001,0.09140000000000001,0.0436,-0.1906,-0.0588,0.1464,-0.10420000000000001,0.0216,-0.1484,0.18580000000000002,0.0008,0.16040000000000001],[-0.17820000000000003,-0.0772,0.0436,-0.15600000000000003,0.15280000000000002,0.0748,0.1452,-0.127,-0.1132,0.08940000000000001,-0.1698,-0.05580000000000001,0.1182,-0.12480000000000001,0.1524,0.0076,0.18520000000000003,0.0862,0.05560000000000001,-0.033800000000000004,0.09140000000000001,0.168,0.1708,-0.10420000000000001,0.1018],[0.15180000000000002,0.19540000000000002,0.016800000000000002,-0.1188,-0.18620000000000003,0.1544,-0.19,0.015600000000000001,0.0892,0.051800000000000006,0.0888,0.049,0.038400000000000004,0.06720000000000001,-0.17020000000000002,0.15700000000000003,-0.03900000000000001,-0.10400000000000001,-0.1716,0.05580000000000001,0.0182,0.18100000000000002,-0.18080000000000002,0.1928,0.1778],[-0.0504,-0.0726,-0.16240000000000002,-0.1628,0.1176,-0.014199999999999999,0.0206,-0.1942,0.0524,-0.039200000000000006,-0.1976,0.062400000000000004,0.1684,-0.022600000000000002,-0.018,-0.19720000000000001,0.1378,-0.15960000000000002,0.10880000000000001,-0.1038,-0.0776,0.0218,-0.149,-0.0594,-0.1882],[0.1652,-0.1158,0.1302,0.0476,0.0994,0.0148,-0.074,-0.17120000000000002,0.0732,0.027000000000000003,0.1738,0.0644,0.16000000000000003,0.062,0.052000000000000005,-0.1898,0.1454,0.055400000000000005,-0.039400000000000004,-0.1146,-0.0286,-0.1902,0.030600000000000002,0.0252,0.0814],[-0.1436,-0.10500000000000001,-0.1408,0.1656,-0.0674,0.127,0.0884,0.1912,0.027400000000000004,0.13160000000000002,-0.1482,0.0342,0.1768,0.17120000000000002,-0.0398,0.09820000000000001,0.1216,-0.18020000000000003,0.08460000000000001,-0.11200000000000002,-0.1704,-0.1216,0.038000000000000006,0.0184,0.0144],[-0.09060000000000001,0.1602,0.0874,-0.1194,0.05260000000000001,0.1706,-0.0878,-0.1404,0.0032,-0.013800000000000002,0.07880000000000001,0.0478,0.06280000000000001,0.0356,-0.15080000000000002,0.1414,-0.1254,-0.17980000000000002,0.0362,-0.033800000000000004,-0.0492,-0.0878,0.0342,-0.1138,0.0466],[0.1416,-0.13520000000000001,0.1514,-0.08960000000000001,-0.09140000000000001,-0.0998,-0.18560000000000001,-0.019600000000000003,-0.08800000000000001,0.0446,-0.16100000000000003,-0.13340000000000002,0.0034000000000000002,-0.1258,0.06580000000000001,0.1262,-0.0724,0.18380000000000002,-0.0072,0.1648,0.1014,-0.049800000000000004,0.0126,0.002,-0.143],[0.062200000000000005,-0.073,0.1626,-0.039200000000000006,0.1384,-0.1804,0.10900000000000001,0.08460000000000001,0.0414,0.1384,0.0714,-0.07800000000000001,-0.071,0.09720000000000001,-0.013400000000000002,0.1342,-0.005600000000000001,0.0772,0.10800000000000001,0.17720000000000002,-0.08000000000000002,-0.11140000000000001,-0.07900000000000001,-0.0736,0.0822],[0.0454,-0.0988,0.05160000000000001,0.1622,-0.13560000000000003,0.1756,-0.1408,-0.1376,-0.09920000000000001,0.15200000000000002,-0.1152,0.1502,-0.1288,-0.10820000000000002,0.05280000000000001,-0.021400000000000002,-0.08080000000000001,0.050800000000000005,-0.0108,0.0052,0.1254,-0.1466,-0.0524,-0.171,-0.1146],[-0.1906,-0.18220000000000003,0.1932,0.15360000000000001,-0.1328,-0.06899999999999999,-0.10840000000000001,0.0606,0.0714,-0.1814,-0.0828,0.1158,-0.0102,0.15280000000000002,-0.027800000000000005,-0.17420000000000002,-0.18320000000000003,-0.045000000000000005,0.040400000000000005,0.0208,0.0204,-0.13799999999999998,0.0598,-0.135,0.09300000000000001],[-0.1376,-0.0828,-0.0618,0.1564,0.1378,0.0988,-0.0322,0.15460000000000002,-0.003,-0.018600000000000002,-0.1502,0.0146,0.126,-0.10960000000000002,-0.0346,-0.10740000000000001,0.1684,0.049600000000000005,-0.047,-0.0244,0.1184,0.192,0.1786,-0.0636,0.012400000000000001],[-0.1196,0.0938,-0.164,-0.171,-0.06899999999999999,0.06720000000000001,0.1404,0.1572,-0.17720000000000002,-0.0626,-0.06760000000000001,-0.0434,0.1836,0.1796,-0.0154,-0.09340000000000001,-0.0912,0.009600000000000001,0.10660000000000001,-0.10220000000000001,0.19740000000000002,-0.1174,-0.1916,-0.1574,-0.094],[-0.0128,0.0378,-0.009600000000000001,0.012400000000000001,0.0298,0.010000000000000002,0.1716,0.027200000000000002,-0.038000000000000006,-0.0036,0.0074,-0.005000000000000001,0.0294,0.121,0.1422,0.0374,-0.0328,0.12940000000000002,-0.0646,0.1194,-0.031400000000000004,0.18100000000000002,-0.09040000000000001,0.1968,0.06720000000000001],[-0.12040000000000001,-0.1826,-0.1632,-0.1028,-0.1198,-0.1462,-0.0386,-0.1338,-0.0436,0.032400000000000005,-0.0578,0.020200000000000003,0.0702,-0.18220000000000003,-0.16160000000000002,-0.0726,-0.10260000000000001,0.1814,-0.1886,-0.023400000000000004,0.0296,0.031400000000000004,0.061,0.1404,-0.1394],[0.0534,0.1192,0.1438,-0.020000000000000004,0.0076,-0.1626,-0.0504,-0.0288,0.09920000000000001,0.163,-0.06999999999999999,0.1968,-0.15380000000000002,-0.11259999999999999,-0.16040000000000001,0.17300000000000001,0.006,-0.062200000000000005,0.1134,-0.1182,0.0038,0.06620000000000001,-0.036,0.0966,-0.1642],[-0.17820000000000003,0.0792,-0.095,-0.0088,-0.0092,0.067,0.013200000000000002,-0.0776,0.1246,-0.1824,-0.1222,0.135,0.12480000000000001,-0.1958,0.0222,0.18280000000000002,-0.166,-0.1194,-0.1474,0.07440000000000001,0.0482,-0.0256,-0.1368,0.018,-0.1228],[-0.18560000000000001,-0.197,0.0024000000000000002,-0.18500000000000003,-0.0738,-0.15380000000000002,0.1078,0.13060000000000002,0.10600000000000001,0.0792,0.0218,-0.1038,-0.11699999999999999,-0.18560000000000001,-0.1504,0.1694,-0.126,0.1674,-0.0674,0.0376,0.05620000000000001,-0.15000000000000002,-0.1348,0.027800000000000005,-0.135],[0.0152,-0.1796,0.1172,-0.1034,-0.019600000000000003,0.037200000000000004,-0.0028000000000000004,0.128,-0.09360000000000002,-0.1922,0.15000000000000002,0.0352,-0.0864,0.07980000000000001,-0.136,0.1694,-0.1174,0.0086,-0.0434,0.0656,0.0008,-0.056799999999999996,-0.1208,0.1212,0.15280000000000002],[-0.027200000000000002,0.0154,-0.1902,0.1544,0.08080000000000001,0.0696,-0.0776,-0.0442,-0.0296,-0.145,0.0262,-0.1384,-0.1254,0.1874,-0.11699999999999999,-0.1162,-0.0626,-0.085,-0.0502,0.083,-0.0576,0.19,-0.09000000000000001,-0.08940000000000001,-0.0178],[-0.08360000000000001,-0.11020000000000002,0.0228,0.1194,-0.10620000000000002,0.005600000000000001,-0.1166,-0.11359999999999999,-0.1044,-0.0976,-0.0058000000000000005,-0.0356,-0.1706,0.17220000000000002,0.0656,-0.07680000000000001,0.056799999999999996,-0.1298,-0.0198,-0.10600000000000001,0.1456,0.020000000000000004,0.17620000000000002,0.17500000000000002,-0.032600000000000004],[0.0064,0.07840000000000001,-0.1164,-0.0656,0.13040000000000002,-0.0052,-0.0412,-0.122,-0.013600000000000001,-0.059,0.11220000000000002,-0.031400000000000004,0.0666,0.1932,0.08700000000000001,0.134,0.0246,0.1312,0.1432,0.2,-0.19540000000000002,-0.094,-0.0004,-0.0946,-0.0126],[0.1998,-0.169,-0.1446,-0.09240000000000001,0.1318,0.15560000000000002,-0.0208,0.1908,-0.053000000000000005,-0.168,0.0332,0.025800000000000003,-0.0386,0.068,0.034,0.1318,0.0416,-0.07780000000000001,-0.09200000000000001,-0.1376,-0.09240000000000001,-0.0734,0.09720000000000001,-0.0426,0.0698],[0.0848,0.1378,-0.049,-0.1444,-0.15780000000000002,-0.16180000000000003,-0.09620000000000001,0.19440000000000002,0.1524,0.13540000000000002,0.0854,0.0164,0.13440000000000002,0.1784,-0.0534,0.0148,0.0058000000000000005,-0.1142,0.1534,0.1008,-0.0938,-0.0436,0.0434,0.17220000000000002,0.19720000000000001]],[[0.18080000000000002,0.0864,-0.1494,0.147,0.0698,-0.0118,-0.19340000000000002,0.1534,0.038000000000000006,0.0674,-0.05580000000000001,0.12380000000000001,-0.009800000000000001,0.1824,-0.0386,-0.1504,-0.18380000000000002,0.1258,-0.1824,0.1446,0.0204,-0.1678,-0.1958,0.10060000000000001,-0.015],[0.1348,-0.1882,0.027400000000000004,0.0074,0.17900000000000002,-0.136,0.049800000000000004,0.13160000000000002,0.188,0.08460000000000001,0.07600000000000001,-0.082,0.11100000000000002,0.0772,-0.064,0.1162,-0.0484,0.1674,0.082,0.1406,0.15460000000000002,-0.09040000000000001,-0.061,-0.0152,0.10800000000000001],[0.0766,-0.08560000000000001,0.06780000000000001,-0.0514,-0.0362,-0.1744,0.193,0.15480000000000002,0.1746,-0.098,-0.0908,-0.10820000000000002,0.11499999999999999,-0.0772,0.1716,-0.027200000000000002,0.1446,-0.06899999999999999,0.06860000000000001,0.1524,-0.0564,0.1728,-0.1194,-0.006,0.18580000000000002],[0.1,-0.17900000000000002,0.13640000000000002,-0.1636,-0.04580000000000001,0.1134,-0.18380000000000002,0.1522,-0.1998,0.1268,0.1506,0.1674,0.10400000000000001,0.17500000000000002,-0.027000000000000003,0.0852,-0.044800000000000006,0.09960000000000001,-0.137,-0.060200000000000004,0.10600000000000001,-0.118,0.17500000000000002,-0.1878,-0.1824],[-0.1242,0.1028,0.0158,0.0396,-0.131,0.1068,-0.11359999999999999,0.0864,0.16140000000000002,0.08100000000000002,0.0146,0.1648,0.1554,0.0044,0.0348,-0.059,0.1014,0.0626,0.13340000000000002,0.09060000000000001,0.1376,-0.024,-0.194,-0.1826,0.05460000000000001],[-0.0344,0.0038,-0.13,0.0698,-0.11020000000000002,0.13560000000000003,-0.1602,-0.023000000000000003,-0.13360000000000002,-0.0154,-0.1534,0.0104,-0.10360000000000001,-0.0294,-0.066,0.12040000000000001,0.0776,-0.1144,0.0878,0.0868,0.1506,0.08900000000000001,0.1468,-0.026800000000000004,-0.0688],[-0.1178,-0.1128,-0.0114,-0.071,0.16200000000000003,-0.057999999999999996,0.1512,0.137,0.05380000000000001,-0.037,0.0932,-0.085,0.1654,-0.18500000000000003,-0.1996,-0.09920000000000001,0.1458,-0.072,-0.0146,-0.0492,0.0796,-0.1154,0.0776,0.1638,-0.09100000000000001],[0.166,-0.17720000000000002,0.0604,-0.06580000000000001,0.1156,0.0702,0.062400000000000004,-0.18320000000000003,-0.0618,-0.15880000000000002,0.1348,0.1216,-0.1412,-0.0212,-0.0868,-0.06380000000000001,0.07640000000000001,0.10600000000000001,0.1674,-0.1492,-0.09260000000000002,0.071,-0.0346,0.032600000000000004,-0.0228],[0.1462,0.12380000000000001,0.0574,0.0148,-0.10260000000000001,0.0332,0.18200000000000002,-0.016,-0.1274,0.15700000000000003,-0.131,0.1932,-0.049800000000000004,0.0732,-0.0348,-0.0586,-0.0176,0.028999999999999998,0.18000000000000002,-0.146,-0.16240000000000002,0.1778,0.1452,0.11699999999999999,-0.14780000000000001],[0.0296,0.1292,0.0978,0.1184,0.121,0.066,0.005600000000000001,-0.043800000000000006,0.1978,0.0524,0.012,0.0898,-0.0118,-0.10920000000000002,0.0342,0.1444,0.192,-0.1564,-0.0052,0.0374,-0.0188,0.19840000000000002,-0.11399999999999999,-0.1504,-0.19920000000000002],[0.0644,-0.1854,-0.1534,0.1008,-0.1486,0.193,0.055400000000000005,0.0238,-0.0818,0.0796,0.054200000000000005,0.1198,0.1432,0.19140000000000001,-0.0634,0.0286,0.0716,0.0932,-0.1958,-0.027600000000000003,-0.0944,-0.07700000000000001,-0.1156,0.0974,0.05360000000000001],[0.040400000000000005,-0.0302,0.048600000000000004,-0.14780000000000001,-0.19440000000000002,0.13160000000000002,-0.048,0.11040000000000001,0.16140000000000002,0.1216,0.1138,-0.09100000000000001,0.1936,-0.17820000000000003,0.062400000000000004,0.027000000000000003,0.1194,-0.0302,0.011200000000000002,-0.0426,-0.0898,-0.17500000000000002,-0.015600000000000001,0.09860000000000001,-0.0564],[-0.16100000000000003,-0.0074,0.042,0.025800000000000003,-0.2,-0.1888,0.0228,0.1766,-0.11699999999999999,0.010000000000000002,-0.1506,-0.0578,-0.1882,-0.192,0.031200000000000002,0.1648,0.15700000000000003,0.019600000000000003,0.022400000000000003,-0.0114,0.045000000000000005,0.129,-0.0716,0.1154,-0.0806],[0.10420000000000001,-0.006600000000000001,0.09300000000000001,-0.0322,0.040400000000000005,-0.07840000000000001,-0.11200000000000002,-0.192,-0.028000000000000004,-0.19240000000000002,-0.0058000000000000005,-0.18620000000000003,-0.10020000000000001,0.1942,-0.0584,-0.03900000000000001,-0.0358,0.1422,0.024800000000000003,0.06,0.06280000000000001,-0.09860000000000001,0.0152,-0.10420000000000001,-0.18300000000000002],[-0.033600000000000005,-0.0514,0.13899999999999998,-0.018,-0.1948,0.1212,0.1906,-0.12960000000000002,0.1738,0.194,-0.13360000000000002,-0.10880000000000001,0.1928,-0.1784,-0.0704,0.0376,-0.0828,-0.0818,-0.17880000000000001,0.0376,0.0256,-0.0308,-0.1956,0.11040000000000001,0.05600000000000001],[0.165,-0.0072,0.04020000000000001,-0.1968,0.026000000000000002,0.04680000000000001,-0.1664,0.0294,-0.148,0.0172,0.1888,0.0352,0.15380000000000002,-0.038200000000000005,0.0476,-0.0194,0.1368,-0.016800000000000002,-0.15940000000000001,0.12480000000000001,0.05620000000000001,-0.1174,-0.0046,0.009600000000000001,-0.0514],[0.168,0.09620000000000001,0.149,-0.0414,-0.1492,-0.1424,-0.128,-0.16100000000000003,0.0422,-0.12560000000000002,0.0944,-0.046200000000000005,0.1152,-0.09100000000000001,0.0862,-0.1218,-0.0292,-0.1468,0.0364,-0.08100000000000002,-0.188,-0.0008,-0.027000000000000003,-0.1524,-0.17520000000000002],[-0.07540000000000001,0.08080000000000001,-0.1844,-0.1158,0.1706,-0.1738,-0.0442,-0.125,-0.0182,0.18200000000000002,0.06720000000000001,0.015600000000000001,-0.0946,0.0998,-0.062200000000000005,0.0302,0.0474,0.021,0.018,0.1468,-0.0956,-0.0864,-0.18500000000000003,0.036,0.0776],[-0.1512,0.144,0.1028,0.046000000000000006,-0.0256,-0.17980000000000002,-0.0974,-0.1908,-0.1014,-0.197,-0.04020000000000001,-0.0944,0.1686,-0.1796,0.1932,0.17800000000000002,-0.1252,-0.0182,-0.0088,-0.1322,-0.1436,0.149,0.1502,0.0436,0.098],[-0.1854,-0.17320000000000002,0.13740000000000002,0.0848,-0.11200000000000002,0.1262,0.0016,-0.0586,0.0342,0.129,0.18000000000000002,0.0968,0.07680000000000001,-0.122,0.16140000000000002,0.0348,0.08020000000000001,-0.0348,-0.189,-0.1988,-0.1388,0.0008,-0.131,-0.1532,-0.1412],[0.0376,0.17520000000000002,0.07500000000000001,-0.0618,-0.1014,0.033400000000000006,-0.1318,-0.1232,0.08560000000000001,0.12840000000000001,-0.1724,-0.129,0.1864,0.17420000000000002,-0.11399999999999999,0.025,0.0054,-0.0978,0.0008,0.0758,-0.0188,0.056999999999999995,-0.1708,-0.1138,-0.1494],[-0.07680000000000001,0.06720000000000001,-0.18700000000000003,-0.17,-0.1908,0.0688,-0.0298,-0.09960000000000001,-0.13899999999999998,0.012,-0.0944,-0.0184,0.025400000000000002,-0.1198,-0.142,-0.09140000000000001,-0.15080000000000002,0.1688,0.136,0.0368,-0.1644,-0.0216,0.039200000000000006,0.1952,0.05160000000000001],[-0.002,0.0082,-0.0432,-0.08940000000000001,-0.11259999999999999,-0.05580000000000001,0.195,0.1226,0.14880000000000002,-0.168,-0.1418,-0.11180000000000001,-0.0424,-0.0634,0.05600000000000001,-0.09160000000000001,0.1332,0.0342,-0.10740000000000001,-0.1044,0.08000000000000002,-0.15700000000000003,-0.18660000000000002,0.1694,-0.17500000000000002],[0.0588,-0.068,-0.0938,0.07800000000000001,-0.0328,0.12660000000000002,0.0828,-0.06520000000000001,0.049800000000000004,0.10600000000000001,-0.09920000000000001,-0.031400000000000004,-0.134,0.13560000000000003,0.0092,-0.1946,-0.1524,0.1966,-0.0218,-0.1654,-0.1408,0.007000000000000001,0.0364,-0.17820000000000003,0.011200000000000002],[0.1464,-0.18680000000000002,-0.045200000000000004,-0.1386,-0.0566,0.043800000000000006,-0.054400000000000004,0.1932,0.04000000000000001,0.16160000000000002,0.1202,-0.0028000000000000004,0.1446,-0.15800000000000003,-0.0728,0.0262,0.0082,0.1416,0.0718,0.19840000000000002,-0.1208,-0.1912,0.031400000000000004,-0.1612,-0.18100000000000002]],[[-0.0608,0.1158,0.0958,0.04680000000000001,-0.1492,-0.017,0.1268,-0.0604,-0.11200000000000002,-0.1436,-0.0976,0.1878,-0.0822,-0.04000000000000001,0.0872,-0.17120000000000002,0.043800000000000006,0.0684,-0.10560000000000001,-0.1694,-0.15180000000000002,0.1784,0.12940000000000002,-0.08900000000000001,0.17300000000000001],[0.1666,0.042,0.0296,0.0946,-0.056799999999999996,-0.11000000000000001,-0.15500000000000003,0.0014000000000000002,0.09860000000000001,0.1638,0.0852,-0.06860000000000001,0.06720000000000001,0.1962,0.025400000000000002,0.1384,-0.0902,0.026400000000000003,0.16240000000000002,0.026800000000000004,-0.122,-0.046400000000000004,0.0472,-0.10300000000000001,0.1902],[-0.06860000000000001,0.1884,0.0604,0.030600000000000002,0.15280000000000002,-0.1378,0.11200000000000002,-0.1756,-0.0092,0.1254,0.131,-0.1078,-0.132,0.0666,0.1612,-0.1262,-0.18620000000000003,-0.1,0.1228,-0.1456,0.06899999999999999,0.0494,-0.19140000000000001,-0.056799999999999996,-0.1898],[0.1198,0.1514,0.0354,-0.09300000000000001,-0.11220000000000002,0.1428,0.19820000000000002,0.0722,-0.1632,-0.0166,-0.1442,-0.031400000000000004,-0.0616,0.0108,0.0302,0.0184,0.1542,-0.17200000000000001,0.1784,0.0246,-0.0684,0.039400000000000004,-0.1902,0.0792,0.1412],[-0.0398,0.05500000000000001,-0.0728,0.096,-0.09060000000000001,-0.0712,-0.165,-0.1502,0.0692,-0.014000000000000002,-0.18020000000000003,0.1988,0.0854,0.1922,-0.0582,-0.072,-0.08000000000000002,-0.09340000000000001,0.1274,-0.009800000000000001,-0.1816,-0.0786,0.1182,-0.1826,-0.1176],[0.0006000000000000001,-0.1958,-0.026600000000000002,-0.19740000000000002,0.046000000000000006,0.1428,0.048600000000000004,-0.0872,-0.1956,0.0386,0.13999999999999999,-0.10840000000000001,-0.1212,0.147,-0.018,0.0666,0.049,0.18680000000000002,-0.0476,0.12240000000000001,-0.09000000000000001,0.11259999999999999,0.15300000000000002,0.188,-0.1476],[0.18580000000000002,0.1574,-0.1494,-0.0058000000000000005,-0.0882,0.12660000000000002,-0.0088,-0.1968,-0.1386,-0.07540000000000001,0.1348,0.026000000000000002,-0.033400000000000006,0.08080000000000001,0.1774,0.0998,-0.0146,-0.0918,-0.08360000000000001,0.0762,0.0756,0.05280000000000001,0.119,-0.126,-0.1686],[0.015,0.1484,-0.1484,0.031400000000000004,0.1814,0.17400000000000002,-0.0246,0.126,-0.0152,-0.1484,-0.022600000000000002,0.1078,-0.0574,0.07440000000000001,0.0012000000000000001,-0.0454,-0.0298,-0.13899999999999998,0.0286,0.012400000000000001,0.096,0.0864,-0.05380000000000001,-0.0834,0.025400000000000002],[-0.053000000000000005,0.062400000000000004,0.18500000000000003,0.1686,0.0858,-0.05500000000000001,-0.08120000000000001,-0.06820000000000001,0.06760000000000001,-0.1298,-0.13340000000000002,-0.10460000000000001,-0.005600000000000001,0.006600000000000001,0.0184,-0.038400000000000004,0.18460000000000001,-0.0102,-0.06580000000000001,0.1938,0.1474,0.008400000000000001,0.019000000000000003,-0.1904,-0.023200000000000002],[-0.1246,0.0228,-0.0816,-0.18480000000000002,-0.1908,0.1584,0.0654,-0.0442,-0.034,-0.19340000000000002,0.0858,-0.0378,0.0592,0.0386,0.1396,-0.167,0.16060000000000002,0.054000000000000006,0.1648,0.0918,-0.1444,0.166,-0.15100000000000002,0.1152,0.0892],[0.022000000000000002,0.1734,-0.0378,0.1816,0.0354,-0.0054,-0.06,-0.1544,0.051800000000000006,0.1308,-0.1854,0.10860000000000002,-0.018,0.0974,-0.0828,-0.1428,-0.13260000000000002,-0.06860000000000001,-0.1816,0.11020000000000002,0.1246,0.1424,0.1724,0.001,0.149],[0.0346,-0.11160000000000002,0.17920000000000003,-0.0004,-0.0426,-0.039200000000000006,-0.024800000000000003,0.1572,-0.18500000000000003,-0.18120000000000003,0.0616,0.16040000000000001,0.08800000000000001,-0.14780000000000001,-0.07880000000000001,-0.1526,0.19940000000000002,0.0022,0.1186,-0.099,-0.1824,0.014199999999999999,-0.06280000000000001,-0.09060000000000001,-0.0752],[0.1058,-0.1526,0.1018,0.0994,0.1674,0.052000000000000005,-0.05360000000000001,-0.16620000000000001,-0.1912,-0.028000000000000004,-0.026600000000000002,0.11220000000000002,-0.1222,0.13060000000000002,-0.1878,-0.1668,0.0826,-0.031200000000000002,0.11599999999999999,-0.005600000000000001,0.13260000000000002,0.13620000000000002,0.10420000000000001,0.1562,-0.1976],[0.135,0.143,-0.1034,-0.1274,0.124,-0.07500000000000001,-0.023200000000000002,0.0512,0.09000000000000001,-0.014199999999999999,-0.0756,-0.011200000000000002,-0.2,-0.09200000000000001,0.06280000000000001,0.03,-0.1196,-0.022400000000000003,-0.1164,0.0864,0.1864,0.125,-0.1816,-0.15560000000000002,0.10720000000000002],[-0.1444,-0.1564,-0.197,0.0396,-0.17700000000000002,-0.0586,0.07940000000000001,0.09720000000000001,0.1418,0.0734,0.191,-0.0376,0.1542,-0.1014,0.1312,-0.05,-0.1836,-0.1166,-0.0908,-0.057999999999999996,-0.07900000000000001,0.1764,0.0068000000000000005,-0.10160000000000001,0.0048000000000000004],[0.1166,0.1874,0.034999999999999996,-0.129,-0.11240000000000001,-0.1674,-0.14980000000000002,0.1506,0.1228,-0.08660000000000001,-0.0332,-0.10520000000000002,0.0298,0.1876,0.16920000000000002,-0.0036,0.12340000000000001,-0.0442,0.09360000000000002,-0.1402,-0.0024000000000000002,-0.047,-0.166,0.143,-0.1716],[-0.1894,-0.1446,0.0752,0.046200000000000005,-0.037200000000000004,0.023200000000000002,0.0594,0.1024,0.0816,0.047,-0.05360000000000001,-0.083,-0.13240000000000002,-0.0724,0.1516,0.1408,-0.0024000000000000002,-0.027200000000000002,0.1272,-0.0832,-0.18200000000000002,-0.1932,-0.0814,-0.1144,0.0854],[-0.0442,0.0666,-0.1464,0.038200000000000005,-0.1168,0.15380000000000002,0.18500000000000003,-0.0984,-0.147,-0.05480000000000001,0.15400000000000003,-0.039200000000000006,-0.027600000000000003,-0.1622,0.0884,-0.1948,0.12380000000000001,-0.1654,-0.0208,0.1804,0.1298,0.05380000000000001,0.1432,-0.0664,0.167],[0.0792,-0.0012000000000000001,-0.0158,-0.1128,0.1166,-0.0852,-0.024800000000000003,0.0036,0.0454,0.15900000000000003,-0.118,0.043800000000000006,-0.0842,0.1342,-0.0694,0.1584,-0.0892,-0.1262,-0.013400000000000002,-0.0862,-0.0702,-0.0752,0.1796,0.1218,-0.0322],[0.0524,0.05360000000000001,-0.0748,0.0482,0.1658,0.10300000000000001,-0.0792,0.038400000000000004,0.0178,0.0698,-0.056999999999999995,-0.1264,-0.062200000000000005,0.10020000000000001,-0.1748,-0.1926,0.11020000000000002,0.195,0.06820000000000001,-0.1384,0.032400000000000005,0.13620000000000002,-0.0198,0.0432,-0.0436],[0.083,-0.1744,0.0488,-0.15600000000000003,-0.0596,-0.0796,0.1482,-0.101,0.0108,0.0076,-0.1428,0.18620000000000003,-0.06820000000000001,-0.0576,-0.0176,0.1728,0.11100000000000002,-0.0646,0.10860000000000002,0.18280000000000002,-0.0432,-0.0626,0.1656,0.11140000000000001,-0.1626],[0.17420000000000002,-0.044000000000000004,0.15300000000000002,-0.15280000000000002,0.1978,0.1986,0.1524,-0.13040000000000002,-0.1674,-0.0826,0.044000000000000004,0.096,0.027400000000000004,-0.066,0.1398,-0.0022,-0.1218,0.1154,-0.005600000000000001,-0.0408,-0.0262,-0.13999999999999999,-0.0592,-0.18200000000000002,0.195],[-0.067,0.0304,-0.13040000000000002,-0.07600000000000001,0.0054,0.19940000000000002,0.0304,-0.059,-0.09000000000000001,0.0454,0.18200000000000002,0.0608,0.142,0.1786,0.022400000000000003,0.09160000000000001,-0.09160000000000001,0.016,-0.1532,-0.1246,-0.1302,0.07780000000000001,0.10360000000000001,-0.0852,-0.06620000000000001],[0.0634,0.026800000000000004,-0.032600000000000004,-0.1776,-0.1208,-0.0758,0.038400000000000004,-0.027800000000000005,0.1966,-0.1476,-0.084,0.0374,0.1816,0.1384,0.05560000000000001,-0.1938,-0.08700000000000001,0.032600000000000004,0.1282,0.13240000000000002,0.15360000000000001,-0.032400000000000005,0.073,-0.0604,-0.197],[0.10320000000000001,-0.08020000000000001,-0.08940000000000001,-0.0044,0.18000000000000002,-0.0492,-0.17,-0.020000000000000004,0.19640000000000002,-0.025800000000000003,-0.0998,-0.05160000000000001,0.1048,-0.027600000000000003,-0.044800000000000006,0.15100000000000002,-0.0522,0.098,0.0574,0.08600000000000001,0.1068,-0.0114,-0.1388,0.18500000000000003,-0.18120000000000003]],[[-0.10420000000000001,-0.06680000000000001,-0.11499999999999999,0.05160000000000001,-0.16200000000000003,-0.07980000000000001,0.1328,0.1154,0.0762,0.0898,-0.1436,-0.1416,0.13799999999999998,-0.13260000000000002,-0.011000000000000001,-0.15000000000000002,0.068,0.0994,-0.10300000000000001,-0.0194,0.1522,-0.1142,-0.1898,0.1048,-0.123],[0.1422,-0.1278,-0.13720000000000002,0.0746,-0.0038,-0.1252,-0.1418,-0.1282,-0.0396,0.128,-0.0574,0.1514,-0.0994,-0.10840000000000001,0.1522,0.14780000000000001,0.18480000000000002,-0.0588,-0.15680000000000002,-0.0816,-0.05500000000000001,0.1748,0.0454,-0.13720000000000002,-0.1998],[0.0636,0.17900000000000002,-0.1258,0.0878,-0.1946,0.15660000000000002,-0.09820000000000001,0.0032,-0.165,-0.15800000000000003,0.10820000000000002,0.15980000000000003,0.0762,-0.1476,0.10840000000000001,0.18380000000000002,0.066,0.1626,-0.18480000000000002,0.0126,-0.10660000000000001,0.0024000000000000002,0.193,0.0822,0.1688],[0.0292,-0.15760000000000002,0.1806,-0.074,0.016800000000000002,0.1706,-0.1724,0.1532,0.0816,-0.0578,-0.1068,-0.023000000000000003,-0.1196,-0.0456,0.18120000000000003,0.066,0.1736,-0.10620000000000002,-0.0984,0.1008,-0.0252,-0.13620000000000002,0.1332,0.021400000000000002,0.1196],[-0.04580000000000001,-0.06999999999999999,0.137,0.1768,-0.0892,-0.1684,0.017,-0.033400000000000006,0.0598,-0.1574,-0.1454,-0.0206,-0.03900000000000001,-0.1744,-0.1426,0.0208,-0.1384,-0.1078,0.1962,0.0728,0.06580000000000001,0.049600000000000005,0.1464,-0.13540000000000002,-0.17620000000000002],[-0.0414,-0.167,0.0492,-0.1898,-0.0204,-0.0484,-0.1484,-0.071,0.167,-0.046400000000000004,-0.0172,-0.0968,0.15660000000000002,-0.05600000000000001,-0.09060000000000001,0.0046,-0.0286,-0.08600000000000001,0.0826,-0.0064,0.0984,-0.0912,-0.0824,0.0408,0.15080000000000002],[-0.0948,0.12340000000000001,0.1814,0.1158,-0.0534,-0.1636,-0.0592,0.15900000000000003,-0.0442,0.0472,0.06860000000000001,0.193,-0.0028000000000000004,0.012400000000000001,-0.18280000000000002,-0.0484,0.1196,-0.0012000000000000001,-0.009600000000000001,0.1824,-0.0746,-0.09160000000000001,-0.0298,0.10740000000000001,-0.1034],[0.0072,-0.1376,-0.09100000000000001,0.0356,-0.0984,-0.11299999999999999,-0.1406,-0.0944,0.0978,0.0182,0.1898,-0.04000000000000001,0.07600000000000001,0.1778,-0.031200000000000002,-0.1632,0.124,0.1664,-0.12560000000000002,0.1408,0.1886,0.0442,-0.18520000000000003,0.07940000000000001,0.0946],[0.128,0.1826,-0.0354,-0.13560000000000003,-0.1942,-0.11140000000000001,-0.004200000000000001,0.0878,0.19820000000000002,0.0068000000000000005,-0.08860000000000001,-0.1876,-0.1448,-0.094,-0.16000000000000003,-0.16140000000000002,-0.1138,-0.0574,-0.0694,0.1414,-0.0288,0.11060000000000002,0.15680000000000002,-0.191,-0.071],[-0.0038,0.07880000000000001,0.15860000000000002,-0.0256,-0.11259999999999999,-0.16200000000000003,-0.0888,-0.18500000000000003,0.1744,-0.10700000000000001,0.1348,-0.1738,-0.15960000000000002,0.1966,-0.0352,0.09260000000000002,-0.1572,-0.13740000000000002,0.1824,-0.018600000000000002,0.1144,0.1274,-0.051000000000000004,0.1382,0.17500000000000002],[0.1338,0.0694,-0.0728,-0.1996,-0.07900000000000001,-0.09060000000000001,0.021,-0.1734,-0.074,0.0082,0.10940000000000001,-0.16720000000000002,0.15940000000000001,-0.1834,-0.12340000000000001,0.028999999999999998,0.06380000000000001,-0.192,-0.1464,0.037200000000000004,-0.11359999999999999,-0.0626,-0.09100000000000001,-0.16140000000000002,0.10640000000000001],[-0.054400000000000004,0.1836,-0.024,0.0596,0.19720000000000001,-0.17980000000000002,-0.13640000000000002,-0.011200000000000002,-0.0998,-0.1744,-0.0228,0.134,-0.033400000000000006,0.021,-0.1978,-0.17600000000000002,-0.1814,-0.18680000000000002,-0.1236,-0.041,-0.13720000000000002,0.125,0.08700000000000001,-0.1912,-0.1976],[0.003,-0.09240000000000001,-0.1232,-0.1218,0.063,-0.08120000000000001,-0.1534,0.1736,-0.08660000000000001,0.0208,-0.18380000000000002,-0.040400000000000005,-0.128,-0.15500000000000003,0.06380000000000001,0.13899999999999998,-0.16100000000000003,0.10940000000000001,0.0882,-0.1946,0.044000000000000004,0.15800000000000003,0.0456,0.132,-0.1678],[0.0368,0.1564,0.0068000000000000005,-0.0504,0.0694,0.0104,0.1408,0.0644,0.06420000000000001,0.0046,-0.0012000000000000001,-0.05280000000000001,0.10160000000000001,0.010000000000000002,-0.052000000000000005,-0.1644,0.13,0.072,0.05500000000000001,0.15800000000000003,0.065,0.134,-0.1454,-0.1044,0.085],[0.0442,0.0694,-0.1912,-0.1192,0.053200000000000004,-0.085,-0.0364,-0.11399999999999999,-0.15380000000000002,-0.0736,0.0748,-0.04680000000000001,0.022600000000000002,-0.15780000000000002,0.12380000000000001,0.0238,-0.06580000000000001,-0.013600000000000001,0.18200000000000002,-0.001,-0.0618,0.06720000000000001,0.09920000000000001,0.1466,-0.199],[0.0126,-0.10400000000000001,-0.0354,0.18720000000000003,-0.1998,-0.0396,0.18460000000000001,-0.009,0.048600000000000004,-0.18100000000000002,-0.12560000000000002,-0.1512,-0.0114,0.050800000000000005,-0.0466,-0.0664,-0.134,0.0842,0.19240000000000002,0.119,0.1202,-0.046400000000000004,0.0034000000000000002,0.0574,-0.1212],[0.0424,0.1194,0.0366,0.16040000000000001,0.1696,-0.08940000000000001,-0.1312,0.05,-0.15800000000000003,0.1942,-0.1952,-0.1922,-0.06580000000000001,0.1652,0.043000000000000003,0.0114,-0.09260000000000002,-0.0364,0.11080000000000001,-0.1254,0.085,0.042,-0.0842,-0.10600000000000001,-0.1976],[0.1018,0.063,0.1246,0.1492,-0.05560000000000001,-0.0728,-0.09300000000000001,-0.1168,-0.13260000000000002,-0.11259999999999999,-0.0424,-0.022600000000000002,0.1746,-0.17920000000000003,-0.0944,-0.1646,-0.14780000000000001,0.0714,0.08860000000000001,0.0246,0.12480000000000001,0.1182,-0.19740000000000002,0.13360000000000002,-0.0618],[-0.046200000000000005,-0.10880000000000001,0.18560000000000001,0.045200000000000004,-0.1794,0.1388,-0.133,0.0606,0.0572,-0.0034000000000000002,-0.066,-0.18460000000000001,0.149,-0.143,0.12960000000000002,-0.15200000000000002,0.1844,0.17600000000000002,0.004,0.18660000000000002,0.1018,-0.1454,-0.1268,-0.1222,-0.149],[-0.13620000000000002,0.0478,0.1264,-0.1154,0.0366,-0.0514,-0.015600000000000001,0.1382,0.0444,0.0074,0.0956,0.0102,0.023400000000000004,-0.13799999999999998,0.1562,0.1506,-0.06420000000000001,0.0238,0.04680000000000001,0.10360000000000001,-0.1132,-0.025,-0.15880000000000002,-0.0606,0.0208],[0.023000000000000003,-0.1494,0.0386,-0.08800000000000001,0.1318,0.098,0.1302,0.1382,0.1952,-0.118,-0.05160000000000001,0.047,0.0102,-0.08940000000000001,-0.0386,-0.1258,0.1612,0.0664,0.11000000000000001,0.141,-0.1392,0.0322,-0.1422,-0.13740000000000002,-0.0076],[0.11499999999999999,-0.0898,0.1424,0.0074,-0.05560000000000001,0.15200000000000002,0.09260000000000002,0.18420000000000003,-0.15760000000000002,-0.1696,0.031,0.007000000000000001,-0.10260000000000001,0.1572,-0.1018,0.17200000000000001,-0.12760000000000002,-0.1804,0.0302,-0.016200000000000003,-0.11299999999999999,0.144,-0.127,-0.1652,0.10320000000000001],[-0.13799999999999998,0.0126,0.13660000000000003,-0.0212,0.0432,0.0408,0.1978,-0.10600000000000001,-0.1408,-0.1206,-0.18660000000000002,0.1392,-0.08940000000000001,0.0182,-0.1532,-0.19240000000000002,-0.0376,-0.053000000000000005,-0.0308,-0.11040000000000001,-0.0346,-0.0352,-0.1148,0.192,0.1178],[0.17300000000000001,-0.0954,0.0144,0.0148,0.1698,-0.1428,-0.11160000000000002,0.08040000000000001,-0.019600000000000003,0.18500000000000003,-0.0818,0.10160000000000001,0.08100000000000002,0.0504,-0.1612,0.0854,-0.10540000000000001,0.1,-0.037200000000000004,-0.021400000000000002,0.061200000000000004,0.1592,0.0502,-0.15880000000000002,-0.1194],[0.06280000000000001,0.0892,0.1826,-0.19440000000000002,0.19720000000000001,-0.0294,0.0748,-0.16100000000000003,0.1208,0.0064,0.15660000000000002,-0.0068000000000000005,-0.0048000000000000004,-0.18200000000000002,0.027400000000000004,-0.19740000000000002,0.025800000000000003,0.06580000000000001,0.0356,-0.1998,0.034999999999999996,-0.0786,0.10560000000000001,0.1164,-0.0782]],[[0.0026,-0.013200000000000002,-0.0524,0.1674,-0.1962,0.0722,-0.122,0.122,-0.15780000000000002,0.13040000000000002,-0.082,0.0238,-0.17220000000000002,-0.032400000000000005,-0.1746,-0.07880000000000001,0.0848,-0.1464,0.1198,-0.17420000000000002,-0.0912,-0.122,0.1998,-0.0502,-0.06820000000000001],[-0.1666,-0.021,-0.10840000000000001,-0.17880000000000001,-0.12940000000000002,-0.11699999999999999,-0.09280000000000001,0.0524,-0.016800000000000002,-0.020000000000000004,-0.0374,-0.011200000000000002,-0.0832,-0.074,-0.07780000000000001,-0.188,-0.0188,0.053000000000000005,-0.07840000000000001,0.0752,0.17800000000000002,0.07440000000000001,-0.0208,-0.1694,0.0444],[-0.044800000000000006,0.0182,-0.1642,-0.0576,-0.1522,0.1698,0.1912,-0.1902,0.0064,-0.0946,0.0026,-0.0246,0.038400000000000004,-0.1472,0.13440000000000002,0.1416,0.07780000000000001,-0.09960000000000001,-0.17420000000000002,0.031,0.1898,-0.0674,-0.0882,0.1308,-0.1516],[0.17620000000000002,-0.061,0.06280000000000001,-0.1358,0.1928,-0.097,-0.1928,0.0716,0.11180000000000001,0.0706,0.18020000000000003,0.0706,-0.1038,0.1998,-0.148,0.1024,0.1358,-0.0474,0.1378,-0.1218,0.18480000000000002,0.1844,0.145,-0.1634,0.131],[0.1058,0.0322,0.1592,-0.0818,-0.123,0.1986,0.14980000000000002,0.09140000000000001,-0.0164,0.1966,0.1226,-0.148,-0.1736,-0.1804,-0.14780000000000001,-0.050600000000000006,0.0474,-0.07700000000000001,0.0182,-0.1008,-0.011200000000000002,0.0736,-0.08020000000000001,0.1232,0.0354],[-0.0716,-0.15800000000000003,0.15580000000000002,-0.0756,0.1894,-0.054200000000000005,0.0822,0.1212,-0.1996,0.048,0.09100000000000001,-0.18180000000000002,0.15940000000000001,0.0874,-0.11359999999999999,-0.19440000000000002,-0.1368,-0.136,-0.0646,-0.042800000000000005,0.10540000000000001,-0.0922,-0.04580000000000001,0.054000000000000006,-0.10120000000000001],[0.055200000000000006,0.1664,0.13260000000000002,-0.09720000000000001,-0.0466,0.17500000000000002,-0.1684,0.1506,0.09300000000000001,-0.17320000000000002,-0.0318,0.1836,0.0564,0.0636,0.0426,-0.08000000000000002,0.18120000000000003,-0.061,-0.0466,-0.007000000000000001,0.13240000000000002,0.050600000000000006,0.049800000000000004,0.16200000000000003,-0.0014000000000000002],[0.0342,0.15780000000000002,-0.0484,-0.004,0.1562,-0.10600000000000001,-0.169,-0.048600000000000004,-0.10880000000000001,0.0724,0.16200000000000003,-0.0246,0.0596,0.0938,0.17400000000000002,0.1446,-0.05620000000000001,-0.0366,-0.060200000000000004,0.0358,-0.1602,0.1162,0.11200000000000002,0.11020000000000002,0.13440000000000002],[0.15380000000000002,0.17020000000000002,-0.031400000000000004,0.0446,-0.1408,-0.0158,0.0212,-0.12840000000000001,0.0792,-0.1418,-0.08600000000000001,-0.13540000000000002,0.10540000000000001,0.18020000000000003,0.1208,0.0476,-0.1564,-0.16080000000000003,-0.124,-0.164,-0.053000000000000005,0.1472,-0.1936,0.0318,-0.0882],[-0.13460000000000003,-0.0064,-0.1068,-0.06999999999999999,0.1978,0.1542,-0.15100000000000002,-0.0782,-0.039400000000000004,-0.0722,-0.0572,0.16140000000000002,0.046200000000000005,-0.1718,-0.1158,-0.10720000000000002,-0.098,0.18000000000000002,0.11200000000000002,0.0966,0.1184,0.0674,0.1768,0.1368,-0.18000000000000002],[-0.1512,-0.054000000000000006,0.1632,-0.1142,-0.09920000000000001,0.095,0.15100000000000002,-0.1164,0.007000000000000001,-0.0044,-0.06780000000000001,-0.041,-0.1948,-0.074,0.136,0.0898,-0.165,0.0698,0.15860000000000002,0.10760000000000002,0.11240000000000001,-0.0512,0.098,0.1308,0.10980000000000001],[-0.15680000000000002,0.1534,0.07640000000000001,-0.1668,0.0706,-0.1328,-0.0842,0.1242,0.15460000000000002,-0.0608,0.061200000000000004,0.18500000000000003,0.059,-0.0104,-0.1474,-0.0752,-0.143,0.0932,0.0358,0.1408,0.118,0.17920000000000003,0.0122,0.13,-0.0024000000000000002],[-0.0032,-0.0592,0.18580000000000002,0.053200000000000004,-0.163,-0.06760000000000001,-0.026600000000000002,0.1698,-0.0114,-0.013200000000000002,0.18460000000000001,0.1704,-0.0844,0.1134,-0.1674,0.11359999999999999,-0.1422,-0.15980000000000003,0.0964,0.1622,-0.038200000000000005,0.142,0.0822,-0.1156,0.1844],[0.13899999999999998,-0.09160000000000001,0.1572,0.17920000000000003,-0.16040000000000001,0.10020000000000001,-0.096,0.134,0.10980000000000001,-0.0862,0.19240000000000002,-0.08120000000000001,-0.0032,-0.193,0.08660000000000001,0.18020000000000003,-0.142,-0.13640000000000002,0.1746,0.0002,0.1908,-0.12040000000000001,0.1734,0.1516,-0.0436],[0.1408,-0.19820000000000002,-0.1634,-0.15080000000000002,-0.0388,-0.09200000000000001,0.0446,0.1436,0.04000000000000001,0.1778,-0.0512,0.167,-0.1068,0.0174,-0.1322,-0.1406,0.0722,-0.12860000000000002,-0.0244,0.023400000000000004,-0.13999999999999999,-0.08020000000000001,0.056999999999999995,0.041800000000000004,0.0318],[-0.19840000000000002,0.06760000000000001,0.17120000000000002,0.0512,0.0878,-0.1516,-0.0492,0.09000000000000001,-0.0412,-0.07740000000000001,-0.09160000000000001,-0.19140000000000001,-0.023000000000000003,0.0456,0.18320000000000003,-0.1908,-0.11399999999999999,-0.10260000000000001,-0.1824,0.0588,-0.18560000000000001,0.0728,0.1282,0.1524,-0.1028],[-0.1148,0.15780000000000002,0.071,-0.0342,-0.07880000000000001,0.027000000000000003,-0.09100000000000001,-0.18420000000000003,-0.08660000000000001,-0.13040000000000002,0.012,-0.1308,0.0242,0.11200000000000002,-0.1534,-0.1058,-0.1434,0.133,0.0598,-0.1412,0.0484,-0.0984,0.1386,-0.18200000000000002,-0.18280000000000002],[0.10020000000000001,0.15600000000000003,0.11499999999999999,0.004,0.0378,-0.0172,0.0206,-0.1526,0.020000000000000004,-0.1512,0.041800000000000004,-0.19,-0.0888,-0.022600000000000002,-0.018,-0.1338,-0.17800000000000002,-0.166,0.062400000000000004,0.027800000000000005,-0.022600000000000002,-0.0094,0.13240000000000002,-0.1174,-0.1464],[-0.1968,-0.08360000000000001,-0.1654,0.08040000000000001,0.0714,0.08900000000000001,-0.1264,-0.1714,0.05600000000000001,-0.15800000000000003,-0.10920000000000002,-0.0146,-0.125,-0.006200000000000001,0.0718,-0.1484,-0.1564,-0.1968,0.1884,0.19340000000000002,0.0854,-0.1874,-0.017,-0.0966,-0.0426],[0.11120000000000002,0.0092,-0.045200000000000004,0.0724,-0.1004,-0.1258,-0.17720000000000002,-0.0504,0.1978,-0.003,0.15860000000000002,-0.08040000000000001,-0.06760000000000001,0.167,0.0922,-0.0204,-0.1764,0.13140000000000002,-0.1664,-0.0646,-0.10800000000000001,-0.0376,0.08940000000000001,-0.0494,-0.0166],[-0.1332,-0.1192,0.1386,0.1348,-0.15880000000000002,-0.0154,-0.0444,0.0878,-0.0148,-0.19740000000000002,0.1438,0.09040000000000001,0.0786,-0.0436,0.1358,-0.1254,0.0414,0.05280000000000001,-0.0434,0.1666,-0.09960000000000001,0.0966,-0.0586,-0.1444,0.0946],[0.0656,-0.1176,-0.18460000000000001,-0.145,0.10600000000000001,-0.13799999999999998,0.1308,-0.0492,-0.0182,-0.145,0.025,-0.10300000000000001,0.0396,-0.15860000000000002,-0.0026,-0.15180000000000002,0.1486,-0.065,0.1896,-0.1028,-0.050800000000000005,0.0594,-0.0204,0.144,0.16000000000000003],[0.09360000000000002,-0.0328,-0.09620000000000001,0.051000000000000004,0.0504,0.15280000000000002,0.048600000000000004,0.0076,0.11220000000000002,0.1504,0.143,0.1888,0.046400000000000004,0.0152,0.1174,0.1544,-0.025800000000000003,-0.04020000000000001,0.07800000000000001,0.06480000000000001,-0.057999999999999996,-0.14780000000000001,0.1878,0.0216,0.0362],[0.0752,0.1484,-0.19240000000000002,0.0674,-0.1966,-0.1236,-0.1328,-0.023400000000000004,-0.0242,-0.049,-0.027800000000000005,0.1058,0.0174,0.169,-0.0842,-0.11259999999999999,0.0354,-0.024,0.18560000000000001,-0.1996,0.08960000000000001,-0.1756,0.1208,0.0376,-0.1424],[0.1404,0.1218,-0.1412,-0.0736,-0.008,0.10840000000000001,0.06760000000000001,0.1998,0.1132,0.005000000000000001,0.1634,0.0172,-0.0584,-0.0362,-0.1746,-0.0854,0.1178,0.0008,-0.1426,-0.1008,-0.033,0.0862,-0.0938,-0.17120000000000002,-0.08560000000000001]],[[-0.040600000000000004,0.0154,-0.004,0.0494,0.0772,-0.194,0.1236,0.1246,-0.17500000000000002,-0.0674,0.0618,0.09960000000000001,0.011600000000000001,-0.1272,0.1412,0.192,-0.1448,0.147,-0.09200000000000001,-0.1188,0.1684,-0.18660000000000002,0.1494,-0.18560000000000001,-0.083],[-0.027800000000000005,0.0948,0.2,-0.10720000000000002,0.08660000000000001,0.1322,-0.048600000000000004,-0.0328,0.013400000000000002,-0.18320000000000003,-0.15700000000000003,0.082,-0.0198,0.1996,0.13720000000000002,0.1434,-0.19940000000000002,0.125,0.142,-0.17120000000000002,-0.025,-0.16040000000000001,0.002,-0.0074,-0.15560000000000002],[0.15500000000000003,0.056999999999999995,-0.11359999999999999,-0.1312,-0.1176,0.1746,-0.1358,0.0948,0.1946,0.1434,-0.1906,-0.0834,-0.11699999999999999,-0.0946,-0.032400000000000005,0.09720000000000001,-0.06580000000000001,-0.0204,-0.1228,0.0472,-0.028999999999999998,-0.0398,0.009,-0.0262,-0.1448],[-0.1688,-0.1936,0.005600000000000001,-0.0292,-0.053200000000000004,-0.13640000000000002,0.15380000000000002,-0.17400000000000002,-0.11160000000000002,-0.0444,0.008400000000000001,-0.1232,-0.134,0.06,0.1154,0.0966,-0.0008,0.1176,0.1412,0.0834,0.18680000000000002,0.0512,0.0614,-0.043800000000000006,0.012],[-0.1068,-0.1168,-0.19920000000000002,0.0304,-0.1414,-0.11699999999999999,0.1268,-0.09260000000000002,0.10620000000000002,-0.0088,-0.0864,-0.1764,-0.0262,0.11180000000000001,-0.08560000000000001,0.0188,0.1768,-0.19,0.0454,-0.049800000000000004,0.099,0.0236,-0.1472,0.0366,0.171],[-0.06899999999999999,0.10420000000000001,-0.17220000000000002,-0.003,0.1174,0.0524,-0.0148,-0.05280000000000001,0.0696,-0.1656,0.0776,-0.1638,-0.16140000000000002,0.1492,-0.0048000000000000004,-0.026400000000000003,0.125,-0.0968,0.1516,-0.012400000000000001,0.194,0.13040000000000002,0.1172,-0.018,0.118],[0.1246,0.18460000000000001,0,-0.0364,-0.16180000000000003,0.041800000000000004,-0.0938,0.09960000000000001,-0.0002,-0.057999999999999996,0.09260000000000002,-0.1998,0.0048000000000000004,-0.1436,-0.009,-0.0004,-0.15460000000000002,0.1784,-0.167,0.040400000000000005,-0.068,-0.1446,-0.0564,0.12340000000000001,-0.05600000000000001],[-0.169,0.13640000000000002,-0.1516,0.046400000000000004,0.1836,-0.0644,0.0944,-0.15860000000000002,0.1014,-0.1172,-0.1152,-0.0262,0.12440000000000001,0.1494,0.0758,0.0834,0.15300000000000002,0.148,-0.07880000000000001,-0.04020000000000001,0.049800000000000004,-0.1966,-0.18480000000000002,0.1192,0.0492],[-0.012,0.149,0.1754,0.1174,0.1776,0.134,0.1038,-0.055400000000000005,-0.195,-0.0108,0.013600000000000001,-0.1414,-0.1534,0.1428,-0.10400000000000001,0.1512,0.1368,0.03900000000000001,0.0108,-0.1034,0.030600000000000002,0.12,-0.1166,0.1172,0.0318],[0.038400000000000004,0.1696,0.0352,0.066,0.10520000000000002,-0.12140000000000001,-0.195,0.032600000000000004,0.021,-0.18100000000000002,0.11359999999999999,0.1454,0.019200000000000002,-0.124,-0.05380000000000001,0.0366,0.09260000000000002,0.1666,-0.0654,0.034,0.1392,0.1626,-0.072,-0.1718,-0.04680000000000001],[-0.08900000000000001,0.0396,0.0472,-0.17820000000000003,0.10540000000000001,-0.094,0.10200000000000001,0.0504,0.18020000000000003,0.015,0.09820000000000001,0.12480000000000001,-0.0158,0.025400000000000002,0.11259999999999999,-0.18280000000000002,0.0102,-0.1728,0.05600000000000001,0.1656,0.1516,-0.1494,-0.055200000000000006,0.020000000000000004,-0.17220000000000002],[0.188,0.0154,0.1388,0.0584,-0.1654,0.07700000000000001,0.06780000000000001,-0.10760000000000002,-0.0726,0.1916,-0.1398,-0.0008,-0.18380000000000002,0.1338,0.1018,0.1308,0.0166,-0.0108,-0.1058,0.146,0.05160000000000001,0.0688,-0.0356,0.08960000000000001,0.05580000000000001],[-0.1726,-0.056799999999999996,-0.046400000000000004,-0.0888,0.10760000000000002,-0.0346,-0.11120000000000002,-0.1532,0.197,-0.0786,0.11699999999999999,0.1612,-0.053000000000000005,0.17520000000000002,-0.19140000000000001,-0.10640000000000001,0.1774,0.0534,0.0358,0.10460000000000001,-0.0976,-0.15860000000000002,-0.0932,-0.0364,-0.08860000000000001],[-0.0484,0.12560000000000002,-0.046400000000000004,0.18660000000000002,-0.044800000000000006,-0.16920000000000002,0.0564,0.10640000000000001,0.0598,-0.0698,-0.11100000000000002,-0.05620000000000001,0.1024,-0.0874,-0.15080000000000002,-0.16240000000000002,-0.0332,-0.0614,-0.1474,-0.021,-0.16180000000000003,-0.10800000000000001,0.0696,0.1428,0.1516],[-0.060200000000000004,0.1966,0.1824,-0.0954,-0.144,0.18620000000000003,0.16140000000000002,0.05560000000000001,0.0064,-0.06860000000000001,-0.0844,-0.0222,0.171,0.1718,-0.07940000000000001,0.1208,0.0216,-0.10420000000000001,-0.056799999999999996,-0.10060000000000001,0.099,-0.0362,0.08760000000000001,-0.1418,-0.0342],[-0.1068,-0.1554,0.050800000000000005,0.08660000000000001,0.15580000000000002,0.025,-0.0434,0.10660000000000001,0.072,-0.06820000000000001,-0.17520000000000002,-0.0352,-0.0874,-0.12,0.08460000000000001,-0.1658,-0.1592,0.0466,-0.1708,-0.0474,0.0824,0.059,0.0574,-0.17720000000000002,-0.1754],[-0.0732,0.19940000000000002,-0.133,0.128,0.038000000000000006,0.199,-0.18400000000000002,0.05460000000000001,-0.084,0.071,-0.1198,-0.0208,-0.016800000000000002,0.0724,-0.1152,0.0014000000000000002,0.0072,0.027000000000000003,-0.12140000000000001,-0.0968,-0.15700000000000003,0.14980000000000002,-0.0222,-0.09860000000000001,0.0426],[0.048,0.042,0.0606,-0.0386,-0.0734,0.09620000000000001,0.053000000000000005,-0.0238,-0.0216,-0.033800000000000004,-0.1068,-0.1778,0.0922,-0.1574,-0.12,0.10400000000000001,0.1468,-0.0028000000000000004,0.1592,0.0932,-0.0594,-0.124,0.0048000000000000004,0.12140000000000001,-0.10300000000000001],[0.1978,0.0534,-0.06780000000000001,0.0818,-0.05460000000000001,0.0036,0.056999999999999995,-0.15880000000000002,-0.1916,-0.15300000000000002,-0.0068000000000000005,0.012,0.15860000000000002,-0.0584,0.0354,0.023400000000000004,-0.013600000000000001,-0.011200000000000002,-0.05480000000000001,-0.016,0.1444,0.1668,-0.0848,-0.0244,0.12860000000000002],[0.1652,0.1184,-0.17820000000000003,0.146,0.1454,0.10740000000000001,-0.073,0.06680000000000001,0.050600000000000006,-0.1154,0.1394,-0.19740000000000002,0.05480000000000001,-0.18300000000000002,0.0016,-0.0626,-0.1928,-0.0932,0.1874,-0.049,-0.0732,0.1572,-0.0002,-0.054000000000000006,-0.12960000000000002],[0.15900000000000003,0.1152,-0.1392,0.1456,0.1584,0.1966,0.0014000000000000002,0.10060000000000001,0.0572,-0.1186,0.09340000000000001,0.021400000000000002,-0.123,-0.032600000000000004,-0.1524,-0.009600000000000001,-0.12840000000000001,0.10160000000000001,0.0954,-0.1648,0.026600000000000002,-0.054200000000000005,-0.0176,-0.1486,0.1458],[-0.0092,-0.09280000000000001,-0.1424,0.05620000000000001,0.08660000000000001,-0.09960000000000001,-0.0742,0.121,-0.026000000000000002,-0.0954,0.0476,-0.17920000000000003,-0.06860000000000001,0.0684,0.1184,0.10600000000000001,0.047,0.082,0.1414,-0.027400000000000004,-0.1194,-0.15560000000000002,-0.0212,0.0854,0.1142],[-0.06820000000000001,-0.15200000000000002,0.12660000000000002,0.0398,-0.1198,-0.0646,0.1562,-0.027000000000000003,0.046000000000000006,0.0076,0.10760000000000002,0.037,0.1794,-0.04020000000000001,0.0584,0.037,-0.07600000000000001,-0.1302,0.1948,0.16100000000000003,-0.08120000000000001,-0.12960000000000002,0.0082,0.15500000000000003,-0.033600000000000005],[-0.1028,0.0946,0.1446,-0.12960000000000002,0.0472,-0.16200000000000003,0.044000000000000004,0.043000000000000003,0.1298,0.11120000000000002,0.08360000000000001,0.008,0.06780000000000001,0.10740000000000001,-0.10620000000000002,0.1298,0.1956,-0.0476,0.10980000000000001,0.1282,0.1778,0.018,0.0298,-0.046400000000000004,0.060200000000000004],[0.19540000000000002,0.0288,-0.1854,-0.13,0.0844,0.15300000000000002,0.1714,0.050600000000000006,-0.0416,-0.008,0.0674,0.04580000000000001,-0.044000000000000004,0.17500000000000002,0.1806,-0.0282,-0.06280000000000001,0.1938,-0.18200000000000002,-0.050800000000000005,0.0252,0.198,-0.1208,-0.0298,0.1952]],[[0.210520922531537,0.0009701425001453318,0.10574553251584118,-0.1838420037775404,0.21973727628291767,-0.1273312031440748,-0.09458889376416986,-0.054327980008138585,-0.23816998378567897],[0.08634268251293453,-0.0213431350031973,0.21949474065788135,0.03080202437961429,-0.13242445126983782,0.0033954987505086616,0.07445843688615422,0.07203308063579089,-0.2362296987853883],[0.05020487438252092,-0.12223795501831182,0.008731282501307986,-0.09264860876387919,0.23089391503458898,0.13654755689545545,-0.06378686938455558,-0.10477539001569584,0.1544951931481441],[0.20275978253037436,0.17826368440170473,-0.056510800633465585,0.21149106503168236,-0.09313368001395186,0.048264589382230265,0.209793315656428,0.08634268251293453,-0.0019402850002906637],[-0.06572715438484623,0.09846946376475119,0.0705778668855729,-0.14843180252223578,0.06912265313535489,-0.09143593063869752,0.010914103126634983,0.19233075065381205,0.1971814631545387],[0.04802205375719393,-0.043413876881503596,-0.1671070456500334,0.05529812250828392,0.10113735564015085,-0.01309692375196198,0.16274140439937942,0.2156141706573,-0.16080111939908875],[0.15716308502354376,-0.08998071688847953,-0.01940285000290664,-0.04729444688208493,0.11981259876794849,0.214158956907082,-0.057723478758647244,0.16807718815017875,0.19524117815424805],[-0.2333192712849523,0.16734958127506974,0.16807718815017875,0.17341297190097807,0.010429031876562318,-0.0441414837566126,-0.1263610606439295,0.2095507800313917,-0.06936518876039123],[-0.10332017626547785,0.11471935064218548,-0.01964538562794297,-0.054085444383102255,0.010914103126634983,0.10356271189051418,-0.228711094409262,-0.15910337002383443,0.22604320253386234],[0.16516676064974276,-0.10938356689138617,0.21682684878248168,-0.1183573850177305,-0.21076345815657335,-0.11011117376649517,-0.22094995440809934,-0.214886563782191,-0.17753607752659573],[0.18214425440228607,0.14770419564712678,0.05893615688382891,0.1307267018945835,-0.034682594380195615,0.10210749814029618,0.17244282940083272,-0.23647223441042464,-0.015764815627361643],[0.17826368440170473,-0.004608176875690326,-0.023283420003487966,0.23380434253502497,0.16686451002499708,-0.21003585128146435,-0.19912174815482936,-0.0955590362643152,0.17826368440170473],[-0.2066403525309557,0.09458889376416986,-0.211248529406646,-0.06402940500959191,-0.11011117376649517,0.010186496251525986,-0.009943960626489652,-0.22628573815889869,0.18481214627768572],[-0.0941038225140972,0.11350667251700383,-0.10623060376591384,0.20372992503051968,-0.06669729688499157,0.18626736002790373,0.17535325690126874,-0.02473863375370596,-0.1624988687743431],[0.14188334064625477,0.209793315656428,-0.03274230937990495,0.08634268251293453,-0.017705100627652307,-0.030559488754577955,0.06621222563491891,-0.11035370939153151,-0.13994305564596413],[-0.06281672688441024,-0.11762977814262149,0.13290952251991048,0.14721912439705412,-0.227255880659044,-0.0009701425001453318,-0.049719803132448254,0.051660088132738924,0.06960772438542756],[0.12466331126867515,0.05505558688324758,-0.19596878502935705,-0.07300322313593623,-0.008731282501307986,0.06087644188411957,0.00024253562503633296,-0.17923382690185005,0.045839233131866934],[0.06208912000930124,-0.12078274126809382,-0.11932752751787581,-0.17923382690185005,-0.22192009690824469,-0.04511162625675793,0.05917869250886525,0.1132641368919675,0.12539091814378414],[0.19063300127855773,-0.028134132504214624,0.08294718376242588,-0.029589346254432623,-0.014309601877143644,-0.007518604376126322,0.07906661376184455,0.17899129127681374,0.034925130005231945],[-0.14164080502121845,0.23744237691056996,0.05578319375835659,-0.08246211251235322,0.10283510501540517,0.029104275004359956,0.004365641250653993,-0.07494350813622688,-0.14406616127158178],[-0.12466331126867515,-0.12005513439298482,0.009458889376416986,-0.11568949314233082,0.03904823563084961,0.03274230937990495,-0.17026000877550573,0.18796510940315805,0.08415986188760753],[0.14843180252223578,-0.0904657881385522,-0.06645476125995524,0.1574056206485801,0.001212678125181665,0.23453194941013397,0.05263023063288425,-0.15692054939850744,0.12417824001860248],[0.02692145437903296,-0.17777861315163207,0.03904823563084961,0.1707450800255784,0.01309692375196198,0.1457639106468361,0.09531650063927886,0.1316968443947288,0.019887921252979304],[-0.23307673565991596,0.1722002937757964,-0.1132641368919675,-0.14236841189632746,-0.0426862700063946,-0.08076436313709888,0.03395498750508662,0.22167756128320834,0.12417824001860248],[0.22943870128437097,-0.020130456878015637,0.18626736002790373,-0.08852550313826153,0.06136151313419224,0.15522280002325312,-0.03152963125472329,0.20930824440635534,-0.2355020919102793]]]}