{"name":"","initialization_type":"xavier","training_iterations":0,"input_dimensions":{"vertical":6,"horizontal":6},"output_dimensions":{"vertical":3,"horizontal":3},"deep_layers":8,"neurons_per_layer":25,"weights":[[[-0.14811932784055715,0.1798022267576057,-0.08257052857799949,-0.11733330955476667,-0.05468416738790943,0.008513393906232791,-0.00724627825709985,0.07079923239068192,0.06319216667742876,0.11063705318738155,0.03929664635178998,0.1731038760239697,-0.18089437535678093,0.03820176212940204,0.008871569599469529,-0.0803991363888791,-0.04400454852802253,-0.06917509982726361,0.016659396745520142,0.16404939072676522,-0.058308835796849645,0.14576145745253835,-0.15988452526154487,-0.16622323292300933,-0.16549746171105145],[-0.13725503831545494,-0.10031537149794627,-0.07659516933919326,-0.15318546498760452,0.031324791352483165,-0.003437324571379605,-0.059575939469675654,-0.099770113153423,-0.14938576503040485,-0.08003122797816246,0.13888596699855973,-0.14540087855361047,-0.024267534703223844,0.05395498194080026,0.0354890789359701,-0.12983165372809502,-0.07877027500834886,-0.06193224014386295,-0.073333134820743,0.17980261053816343,-0.13852350679052,-0.060660043524402636,0.12675164670906877,-0.015390680016172888,-0.1740078218390482],[0.10755361898351498,-0.14051324274082486,0.14358776503621157,-0.043456140784071104,0.13381125587261478,0.11570771722057446,0.04671302638424111,-0.06192617130765067,0.10067396553903145,0.05287524721225435,-0.08437518274229056,-0.09741693315107611,-0.14793936379730419,-0.045996481690140194,-0.0856477492689198,0.18088702668982856,0.13127265581029413,0.17762534388464152,-0.1651363813078566,-0.10067713070155813,-0.04563383135089705,0.12819752272028972,0.007425533425029309,0.1622404537192479,0.15300729286652873],[0.05993181656514987,0.16296257799369726,-0.005615144441858798,0.17835643702009835,0.15173733358903344,0.057402696769192414,-0.009056993177950206,-0.12186083518779753,-0.03259465263555612,0.10158347858312972,-0.14666377601954372,0.16260172948303758,-0.08021862575749994,0.08183999172189638,-0.0764131031725829,0.1712902376093216,0.08654799726528997,0.008685641769301512,-0.10320993101477409,-0.09723677235194242,0.03204583875358385,-0.031326461806626626,-0.039653054517080503,0.1588000953696322,0.04762368447303773],[0.1164261220956818,-0.08546750914697321,-0.06446337936949577,-0.031505422306458655,0.030057290907887887,-0.13688701423805208,-0.08293416194864511,-0.16187763493859147,0.12385111652591618,0.1591642130661709,-0.14485306109869334,-0.1003140770244367,-0.16803829941874332,-0.053058269881456635,0.07188444884506245,0.08111663455097395,-0.05179062268767912,-0.010689007883797452,-0.142683516289312,0.18070796799858863,-0.09017741840381585,0.05866606975963679,0.0492530480966727,0.14503866197116938,-0.11968637421353666],[-0.021007140396861277,0.008508595245160896,-0.11353375372454082,-0.118962952983532,-0.0143052246529462,0.15047344370090174,0.11805519426574604,-0.11280726058354566,0.16241934434002897,0.18071172062429033,-0.1573469940525609,-0.11679158280417506,-0.075691838455374,0.1644085921126735,-0.028067014785877878,-0.15644916306459547,-0.03151061557415497,-0.047446520777059985,-0.08691349672712076,-0.154455363850815,0.12928123000324981,-0.07025683260490942,-0.0411016264537608,0.15626509448044165,-0.04200670410905562],[-0.056135009861358894,-0.11244716146764373,0.04128237200816579,-0.10465830510881406,0.04544836773511606,-0.07351199200828927,-0.157173473703511,-0.1606101344939962,0.018829651116594116,-0.17726661922782794,0.025354141461242093,0.030419540260960363,-0.05613611731019039,-0.1667711669108593,-0.05070095129650755,-0.13236665461728556,-0.04617740643304298,-0.1439576260583843,0.15698980311142433,-0.08039712358803397,-0.06374098055940043,0.018649270008843255,0.11244699883435091,-0.12620643317221614,0.13236514276883452],[-0.08148501875326371,0.03874753442336221,-0.002718000568498192,0.00995994938101492,0.023538717192826554,-0.08184128064420097,-0.08311523344073014,-0.12620655099783915,0.07840217201257188,-0.05087871775247189,-0.17762700116608504,0.11335028363590705,-0.0048928850501248275,0.1479310863329351,-0.16749206369135702,-0.09904950007363793,-0.014127752333991352,-0.10701904167303634,-0.11950636530242745,-0.05504711469612865,0.16567659991234227,0.10302858532047104,-0.08473985604625445,-0.013942108079492591,0.05903118847439507],[0.12185826685823292,0.06029504198148162,-0.03857015600133555,-0.020641132781356455,0.015571571541084914,0.14232522655707508,-0.00326270543122905,0.09107923950420606,-0.03168929517513094,-0.1061055228384078,-0.08980732750484166,0.15970458560967699,-0.11462220925365697,-0.05686077121524242,-0.013219152434904992,-0.06337841613288561,0.10411193199753857,-0.0720722437006242,-0.021365616592337638,0.10049329700491806,-0.02118917991941688,0.04617213680576923,0.16604416049152185,-0.12982786301391688,-0.12258351808689726],[0.05504288627885386,-0.1530071756946924,0.09343096172865654,0.08546676158047484,0.14014875809559108,-0.16133166566953208,0.15010484836479687,0.06500494464396073,0.05830323639113248,-0.052870504165407284,0.061025225401994426,0.09397563398280807,0.17147074824070116,-0.11407936271411373,-0.10284954101699831,-0.08637449562768533,-0.009057750555610315,-0.07442617309772968,-0.04979384084968847,0.17056796444182654,0.02770012294354313,0.005612122578720731,0.032232327840679205,-0.03657604459012227,0.057401545045629734],[0.16404792451404676,0.1573493617390611,-0.06355802190907059,-0.011406486685019453,0.13779482869848558,0.12403700585648618,0.04091873863751992,-0.004888651300863982,0.11497861341374936,-0.15463268271719832,0.029337714287112907,-0.10972979461285862,-0.0863750564883912,0.1316346520452818,-0.02444558494417714,0.07912484813803855,0.0001768955407265041,0.02806029142240035,-0.0631931312639809,0.01828683959831139,0.15445016740306997,0.13906181224539196,0.03947518752408069,-0.07894677373802089,0.12494121159334841],[-0.10538645570848859,0.1144354181149077,0.0673566668684112,0.11389498583782566,-0.15101420117714853,0.1301934365873776,-0.026620927910198752,-0.00018079250665302307,0.09669039271316063,-0.020458707082185407,0.12385703315550207,0.12294707271641402,0.10501751064549297,-0.09035899725097388,-0.17256206546973804,-0.16007059290629622,-0.11661421685412161,0.14593783276976005,-0.15372887730649926,0.04073970461685596,0.1010340772379833,-0.07188647603367476,0.1799866653820697,-0.029695327890890844,-0.0021709758503472973],[-0.09651395259632178,0.01593252642064733,0.13272347551110933,0.15554142901738366,-0.16604313502020662,-0.048524126100554274,0.1624177098265794,-0.06500438667309588,-0.050339658859889766,0.16767457319416765,-0.17418664281646934,0.15807494218091164,-0.08909112886966675,-0.05667969972315738,0.0226330029979325,-0.17220238287599368,-0.17057352149546265,-0.0959736806558491,-0.11751457888949203,-0.0382074659322202,-0.1649599446349354,-0.044725752220919374,-0.12149736893951697,-0.1714743061934754,0.17274408550379777],[0.0910761132037766,0.1309129238946457,-0.05160730343145822,0.013581379222715661,-0.015934868081711524,-0.03838412254379219,0.014120157808934539,-0.16423156433569694,-0.1377971895369625,0.17020957408335816,0.04346129066974583,0.05884776451831122,0.1524582415717723,0.0843749926110869,0.130551612280614,-0.005254467173589248,-0.03078632960581486,0.05920458806102685,-0.1626013804186661,0.17455153726769734,0.15481231038724003,0.17183575231278367,-0.13127522951210902,-0.022814611191659433,-0.14449316862918718],[0.11606648180527165,0.07297163669826848,0.10447813171600914,0.11461826763119787,0.10882391410563615,-0.011769540844534332,-0.13163927251009097,0.031687498692256316,-0.1687586439622319,-0.17799321105109928,0.1300094543417801,0.1530053972661321,0.06627194427484076,0.020460770413918843,0.15807531990949347,0.08365461491189655,-0.08655241721936748,-0.16079170961397574,0.13489842339594788,-0.12693123621662694,0.0066992760710541475,0.07604985598463528,0.11498045961820066,0.1609725183556193,0.047078698875175636],[0.08654932590165068,-0.0027178372641113893,-0.09723731943688749,-0.140872603525822,-0.0925281092336823,0.10900807201342809,0.1316355561721231,-0.008147938158394659,0.023537509910805082,0.021730950573628227,-0.1808862880236157,-0.13417444604433817,-0.14105864709807278,-0.05523112778647708,-0.17600242381935374,-0.18071274300399046,0.020819045638420703,0.15499140737401187,-0.1530045913381591,-0.08800212625560552,0.09614514695168729,0.0016285497528499234,-0.16169524018239526,-0.16495573247841408,0.04237261120257166],[0.16803149733991757,0.010500381658096304,0.02245093683132196,-0.11932509596770208,0.1004941013289672,-0.13109272649133089,0.07423589318116705,-0.06446117219684076,0.10827896820660299,0.1629667143999567,-0.03892623822894603,-0.07098049530666069,0.11189822734472439,-0.10412043064943668,0.10339088846785889,0.0896269946789707,0.005971183287447737,-0.11734011672188348,0.08075870494362355,0.13145652215145853,0.1805244622633153,0.07767857642856586,-0.17527560208877302,-0.12711179063264133,-0.09469850830580154],[-0.15065432872974766,-0.1549989621076278,-0.0525126608918834,-0.16875761330691771,0.0583044436731537,0.176185595576977,0.07170089229197654,-0.035127590479065184,0.09723360718941573,0.007426302698910342,0.09814488127942682,0.030057397276790288,0.12602180372735686,0.027880687080555126,-0.02861022926213299,0.04345376419728564,-0.05142847970350905,0.1394192590546987,-0.16676602473662194,0.13833723885068994,0.09324800307832669,0.08745643700115786,0.12186271642277285,0.0890875709168935,0.11987120981496739],[0.12566076819201888,-0.06627393098595928,0.03566915575352964,0.01665959458816118,0.12240375187125668,-0.016474472001502313,-0.12023488931816274,0.017926356701850683,0.16097077240334867,0.16079385649493624,-0.13362662858942104,-0.054684061019007024,0.1291000190928025,-0.04146969438801427,0.15228019133081844,0.1184173619204916,-0.16133887539912575,0.020093145770658717,-0.15662602117985985,-0.07206783495212227,0.11733051152563663,-0.16043043566325935,-0.020097333371896287,-0.14775394073033554,0.03313796510623476],[-0.1508354002218327,-0.1323650255969982,-0.07206838203706734,-0.008328271319573822,-0.10538418517171994,-0.006515539936825244,0.005790869173022819,0.11045388915730503,0.08148038737801751,-0.10375159344130232,-0.13326448560525095,-0.04200905657305443,0.1569850288738982,-0.14902616068652566,-0.14811741403825804,0.11461486058670581,-0.09796385316936279,0.17146891315375024,0.04490654951078592,0.00778469305737909,-0.03313989839702949,-0.09325291209970912,-0.1517363081177182,-0.021909253731234247,-0.07695350208146791],[-0.10611074167682874,0.047801109027614065,0.13906097773408563,0.0945203361847267,0.059753015609833995,-0.14738916077898423,-0.04853057845248839,-0.11009118820227011,-0.0666360931475428,0.1289252738879697,0.13164310731515827,-0.16767267208007003,0.0865482184528192,0.07767534740394053,-0.16948385010429243,-0.0803991363888791,-0.04110740465466194,-0.07605581652649501,0.1597058754926999,0.14558009853409143,-0.007427746520954035,0.03929142010653782,0.13634843578957576,0.05595148786533167,0.12512228308543302],[-0.11769931717027113,-0.084381080194463,0.08039381429853387,0.0784049733891584,-0.06102166961088573,0.030423044448522285,0.07151982079989151,0.0736963762640425,-0.13671076058445225,-0.13525803306409936,0.16749526274799562,-0.015029404252383992,-0.10629292061774526,-0.16984938227630492,-0.14558241314906753,-0.012497326856990686,-0.026078470811603895,-0.16514299063233365,0.07496441719690236,0.14268295466073083,0.08582407190284017,0.11588466125850869,-0.17799167447004857,0.15662723746461174,-0.14684709802629264],[-0.06862894281522608,0.06065718496565169,0.14992526725918784,0.050519963608063136,0.14159733003227137,-0.11189914833031712,-0.056135581120059945,-0.10158082807427338,-0.1383404040132176,-0.008145845620402827,0.08184844699177347,0.026979181911344657,0.12547858925110175,0.14412858499914935,-0.09886596819112752,-0.14160130071362245,0.006695469255787885,-0.020285796964304548,-0.06934956199487217,-0.03531032205885961,0.033675482182349184,0.12041144856063461,0.11842235807315715,-0.05450212230654094,0.02354117602572795],[0.07749575129739883,-0.011590340376278218,-0.16224198509541604,0.004889947602633857,-0.03186915938519476,-0.15082951912859993,0.041280881621689997,0.15391104725771318,-0.08727824324523703,-0.04055764270362477,-0.10773340522126032,-0.06627263651244972,0.03657248663734859,0.11443286029720305,0.08546481075144022,-0.15137916128621443,0.02100011713050574,-0.1770937091099461,0.16006801847686997,0.07586757408135301,-0.015032749188525533,0.08691322252490274,0.07641377190942854,0.04418184087980426,0.03549189450334025],[-0.07732037443530786,0.0885421947467474,-0.10429910762820392,0.06047889567274017,-0.09651168205955313,-0.005972325460570134,0.057577315909343334,-0.1669476367169725,0.08039395842550728,-0.16748875865523596,0.13616989461728418,0.16785280275350364,0.1080957260109386,0.01158425279290159,0.12801661139142348,0.14720772916201166,0.15517409276551902,0.17581462896379113,-0.02534918941820846,0.16803296355263603,-0.1785403065413132,0.02281391432679911,0.04019947349242084,0.06880756380336935,-0.1492010274233981],[0.12729041162078422,-0.17183861087153626,-0.01086621771232483,0.04146638900381128,0.1535480485098838,0.09343592369411491,0.17762771516172252,0.007424210160918539,-0.002536784949440231,0.011409875524781175,-0.08763446959982121,-0.06337549263908912,-0.04328004137215275,-0.12530579522338578,-0.05848702545616414,-0.034406977399280295,0.10447407498170865,0.17074462718541009,-0.0689874190107021,-0.014849243453250541,0.17798946137412477,-0.08745862435298794,-0.1678516709132865,-0.032954614748421526,-0.06319206868300509],[-0.06862894281522608,0.17563758243964986,-0.14232412096606198,0.09560676513723693,-0.15010884371672334,-0.1647720240191478,-0.03332057311734527,0.13326889716001894,-0.11335253810548238,0.1758227903379943,0.0012716330139323122,0.13815707805155755,0.1296432335690576,-0.07207077655038513,0.13073268377269903,0.012490539050744431,0.11135479168094005,-0.007248649534181783,-0.057398843517260024,-0.0009067385627026832,0.017379047894696017,0.18107039840912056,0.18016773687415472,0.1691211704184793,-0.048525277824116954],[-0.13435789444209434,0.10157934217687008,-0.015393005014450758,0.023359239795307553,-0.017383440018391823,0.1081027145530029,-0.03857164638781135,-0.1528240603343396,0.11425432744540921,0.10882633826653118,-0.005428012193214097,-0.031506910032122276,-0.17057330030793383,0.0814778487377263,0.019011573156231757,0.10212092763283824,-0.1473963705085779,0.17889284432923677,0.07079977287894652,0.13544009497732934,0.16857374378570286,0.05667428334670138,0.1551798709664196,-0.16260180308130862,0.15554229375571924],[-0.14648968441179183,-0.06917107485931988,-0.08130302813340423,-0.13688903069995118,-0.05269238097497402,0.037122689655668256,0.04236731057420022,0.0726099473115323,-0.01829000476083848,0.14594599414396323,0.13870489550647472,-0.021004763491190164,0.06065499508465852,0.08383177813483178,0.014303714362020641,-0.026439831747538525,0.09342871396452139,-0.036220088267787685,0.17129445098614227,0.013760052296185316,0.07785692625109854,0.129465023164885,-0.11715165312947608,0.09162257180608402,-0.05033599274496733],[-0.17328581503645046,0.05287267408716499,0.07532560373518095,-0.06663429521187546,-0.03711971620354045,-0.08963026856523221,-0.08293108549419048,-0.12023148566389702,-0.009596802739721152,-0.032230652080284576,-0.05504559496198968,0.0908978740105385,-0.17129388584019375,-0.12856111292335906,-0.06591012899772487,-0.166586249727704,0.1343547680203701,-0.03567133952751327,-0.17201773077683374,0.1292849081452341,-0.12566403971758924,-0.1091863069104829,0.08220652808832084,-0.12548258878162646,-0.06500453923521816],[-0.05975643970305964,0.15988436262825162,0.010681289845794579,0.1756403646388228,0.06391765992778971,0.15554344547928275,0.05468017203598274,0.07351530477195747,-0.03567286800100176,-0.15336518227260304,-0.14105055976490755,0.08220598699728067,-0.059033261183550984,-0.05559327077064716,-0.17075135054888765,0.027700544385887555,-0.024992041859093678,0.12583889714832092,0.1636894483185707,-0.11027391978206508,-0.1263917168208225,0.05051785261581013,-0.14720952081559227,-0.002172461093965152,-0.1642299612664562],[0.029511805894864067,0.10972755932069674,-0.029878724381253753,-0.17600047299031918,-0.004527364080354238,0.11606986020474454,0.1023019744543478,0.015210284320575121,0.15916005748249828,-0.015026562319634236,0.020646282667031127,0.11190171169922675,0.045444989749515406,0.0541360534328853,-0.07116202990211684,0.16748773627553584,0.08147799548690894,-0.142327982629619,-0.04725883996049795,0.06880578589003657,0.11642515406521144,0.07079785972933446,-0.07188378010821682,-0.012674607634897334,0.1274762124825385],[0.025528233068993246,0.0948796969697237,0.09162024680780617,-0.0965100879649874,0.003258710079302348,0.09687628204373061,-0.03404485908568542,-0.16405049284361192,-0.061203948384991984,-0.06789943800846499,-0.08727232661565114,-0.16441338522253937,0.07405428549895164,0.06337069952922258,-0.09596882431776692,-0.06500805956165095,0.03747762291024414,-0.12114261805566925,-0.16006637952947556,0.15246081523332283,-0.12747814577333272,-0.06029790054023256,-0.14793380678393242,0.028428621068406056,-0.14684709802629264],[-0.04798679271753223,-0.10755823118134773,-0.015574076506535793,0.08546676158047484,0.13761375720640054,-0.14793237525523933,0.05649088695683311,0.14612497309805658,-0.1023071770882951,-0.01719942022465474,0.018111281777840608,-0.11280800997830424,-0.08510755604379593,0.1591575188422074,-0.1106356151766549,-0.17129702541556852,0.14901766203462777,-0.09180903633789324,-0.06337420275606594,0.11715187427674147,-0.14123957917179555,-0.1430475724230958,0.10140163781716367,-0.12928464853766178,-0.12421316151566258],[0.0358517583217675,0.16205878381444216,-0.07840409304501551,-0.12095574283738658,0.13453605829307483,0.17183696600556128,0.11262612595764955,-0.12258541506100251,-0.012675018105166785,0.1077376113014489,-0.14594348398867846,-0.0986839782024953,0.15517801438912807,0.005431791219568542,0.051605269365464265,-0.1613351764572379,0.03241151797649456,0.15354836970135052,-0.08039555578180496,-0.060659087051970255,0.13489783739277908,0.1767255790917906,0.10049474878890959,-0.11896401506656507,-0.03476560005701711],[-0.136890445127358,0.10991019409395175,0.13163883777362773,0.06446146505769136,-0.16640476155225678,-0.07804169307178983,0.15336721167678277,-0.05794289238664415,-0.07260968198531399,-0.15137569387223895,0.010683356664878761,0.01575320479524797,-0.08691457052856655,-0.03150679316577901,0.11063457578518625,-0.1607919619809828,0.14431370008504715,-0.09252778804221487,0.13453630532313401,0.1649559920859864,0.12457676234393195,-0.16332668304390902,0.12367189977579433,-0.1763636780575219,-0.06174525237768763]],[[-0.06280038020827243,0.14400663587921925,0.0488002421186621,-0.006605301324894395,-0.12359906204719638,0.11381657709606528,-0.18919359544011896,-0.1423933207074488,0.19800146641507602,-0.08379206604785784,0.08799197853805256,-0.17880306225356532,0.1214061452314106,-0.06001405911524865,0.16679508679512353,0.1376065950166081,-0.06999962252696652,-0.1530032660752266,-0.04800908588645441,-0.12558898450506287,0.034790265751316315,-0.01300304728481614,0.19158154529914337,0.047794830796270976,0.17418464034835776],[-0.1336006156413284,0.08200970440342328,0.11160043708006834,0.16139225601338414,-0.17279869184092445,-0.10017591847335745,-0.13699073747227683,-0.162190310849168,0.18400208471351026,0.03981146362543255,0.038388274147586644,-0.15720450490393761,-0.1185911008854854,0.05457959528007614,0.03219292668632539,0.07100960962395277,0.052800624034055915,-0.17120472644098308,0.18598674659323255,0.16441599327882125,-0.18921411838345722,-0.08040440430381243,0.04457318435452368,0.04319256670639531,0.03617778549728486],[0.011399634137133567,-0.19139277941491845,-0.1265998031139495,-0.022405775346660012,-0.017998928511430146,0.0990181667883673,0.15680705191009497,-0.17779266903589586,-0.1591983565298971,-0.06519125539731635,0.16559126795041873,-0.17280331062754592,-0.03759324296249804,0.056384577522132426,0.05179456423120583,0.08980720410426837,0.05500035301132132,-0.015603593759218907,0.08699008647400867,0.055812078985886034,-0.1298106858093055,-0.1746033575159714,0.03477978083614147,0.1721942741066378,0.10098308850657067],[-0.1626004677783857,-0.1805923265824041,-0.18239968087904054,-0.0978061261166305,-0.007398945333137578,0.14141909305951217,0.01400735709047503,0.11620768648546848,0.1234016675282091,-0.03319089115972269,-0.025009273380858302,-0.16700355363683142,-0.11239293531263099,0.19798381600114248,-0.12420562867235983,0.15820760969376765,-0.18199952956351245,0.1411962467589905,-0.09361049054447017,0.16681268315453793,0.06398879898033315,0.07639650081608072,-0.11022125873474238,0.008794082105054654,0.19458235559742024],[0.07539921470025594,0.08061053854543862,-0.04739936292389215,-0.06480839274490235,-0.19199870358345134,-0.0029741634334842187,-0.1759901439104454,-0.15478963208754226,0.05780214713198498,0.1812121767545628,0.13818727552774177,-0.16880494444297922,0.1646094924105981,-0.18802185460435164,-0.018007462546267415,-0.09558963268076569,0.11940081852592432,0.045594964685933284,0.1251856734456493,-0.1621828586808235,0.037584897084350845,0.16979531894698552,0.00817121707816942,0.18159217475697823,-0.09222363963915191],[-0.04500064842688657,-0.1489907129857368,0.02660050078728497,-0.13120740225484417,-0.16859881122630513,0.06122288572060916,0.14360876118157617,-0.11759080584939961,0.12020193564475398,0.12581083229786866,0.002788783281106878,0.034595662363304976,-0.12879157085264822,-0.12641937254958974,0.12579334205639153,-0.00899083846010769,-0.06819933124463994,0.06799552642159419,-0.19141264969601865,0.09681519018646935,-0.045413394754623956,-0.014004163103880597,-0.09402549061864279,0.03659301188168533,0.1019789871092055],[0.03859917014722711,0.02521100936695792,0.022000678816701442,-0.09300876604273182,-0.13839865594480125,0.01202696478297189,0.07941027972578896,-0.14958918150529227,0.18160223324470157,-0.161387301458915,-0.1638132919613621,0.05239483064269187,-0.05979009766479554,0.1091771942702142,-0.04680777796709844,-0.16978917537252786,0.07080086669744773,-0.1844052519775182,-0.051614960825382965,-0.18278211165154734,-0.15741575872592484,-0.07260488173835158,0.19236995927524486,0.07439184537217829,0.07457534419472246],[0.13359978617714935,0.050605004165278175,0.03340008118156058,-0.13780400827337078,-0.19899921516817343,0.07761269745715038,-0.023995043810696687,0.04840513308612727,0.08180117870233707,-0.17519384699582355,-0.10140605480168242,0.007997723424703231,-0.03559525870069126,-0.04361079182142943,0.04719615835796557,0.17000501596516387,-0.12259980327562182,0.03339747626725553,0.0961931070762687,-0.1799915516580466,0.14399251638118282,-0.09100236153030025,0.04078587242695082,-0.03260405231736715,-0.1384118851157205],[-0.016000813709229185,-0.027589691002244763,0.028800686647833213,0.08979179697670038,-0.12519878047910873,-0.08757484957028822,-0.11919043788627358,-0.01638991812591708,0.11000205443925408,0.1354118052221975,0.1641875565808054,-0.1562048568808155,-0.08319078154132536,-0.011621259358099711,-0.1314072144401604,-0.14998988550083894,-0.15199914418048785,-0.057004887208814276,0.1821860117464408,0.1740166791255991,-0.08361468425002216,0.18219546082303584,-0.10502802350207593,-0.0582075582886326,0.16457706489236187],[0.10839917198189314,-0.011989545207698673,0.061000700267326985,0.12819168136030068,-0.03659876621461683,0.05022549855320193,0.03300969246631732,0.10741022075041796,0.18120208069296964,-0.17658803438037904,0.029187380830592004,-0.1834049268348128,-0.10939065528688321,-0.14962155270958766,0.13539268878699462,0.09801025592259104,-0.007199128706710827,0.007395046005523901,-0.03941418450197753,-0.1609830904387999,-0.12201488642126282,-0.047404600916485344,-0.178428411717274,0.06399234076425393,0.015576752199095968],[-0.018200263778930227,0.19420579254895187,0.043000116574641985,-0.14340463752236904,0.04300089124838145,0.1812146541917221,0.09180570886806201,0.05600592034857174,-0.14239865174223268,-0.11979291551747423,-0.04080700750085737,-0.005602642623013747,0.03140546444215168,-0.0886124498749003,-0.1494044164729071,0.07340579682250133,0.08020024727358152,0.07219709208386767,-0.00860796983198036,-0.09479025210517365,-0.14380863084441994,-0.060802719451325156,-0.007616306519725519,0.05239534361991163,0.045386309701168005],[0.04999943244086177,0.10440884260291163,0.0684004073970431,0.017792944572539587,0.027401185049540328,0.1166219253696978,0.126008428623907,-0.1451911799505035,-0.06139810689411403,0.0910104302818959,-0.09101068409655454,0.14759589212299376,-0.12939190077822696,-0.15001857572313412,-0.2000064329002377,-0.11259124750500968,0.06860057650692118,-0.16840430134776735,0.14598792714457517,-0.046985439663619455,0.09638714820572156,-0.05100400749717561,0.05037558453256626,0.0007932406975136562,0.1723797853611743],[-0.08260054365192102,-0.08559170322028568,0.023800397759379702,0.032793381791434074,-0.10919890000359332,-0.11617945818867899,-0.18959211103399964,-0.10299173910025859,0.16080176500664864,-0.14539023952308577,0.08038997635640335,-0.1922038592154781,0.0018075828467680277,-0.05481739994040349,0.015393985103568358,-0.1615917943946704,-0.06799944558940516,-0.12060402642198607,0.03898867880210534,0.13541363984668314,0.1831879634460128,-0.13760375036720665,0.033377124037060196,-0.11240631848402989,0.05738107950132532],[0.14919935315805322,0.0758090342794291,0.14940050948089945,-0.19940719849384125,-0.17399886064390716,-0.05537778035687223,-0.17999150507273004,0.07060892276924884,0.10760186692841893,0.00641050010400716,-0.007410910219961136,-0.1704042267901002,0.15700817616230842,0.19958119641342484,-0.11720644668893448,0.06100890281816096,-0.08939933006545434,-0.040404338456429295,0.13578770361617754,-0.15898525433967556,0.036187001242367636,0.0865959641684864,0.11397524947867387,-0.1124067640091019,0.1455796254553307],[-0.09820001882760343,0.04800421109740082,0.06719984408303327,0.024796603475043557,-0.19179916802212163,-0.027988879928612473,0.1218044505089089,0.18000453229558,-0.0733988467092535,-0.10159444634063487,0.0107948918031117,0.1801981562676363,-0.1931957730883446,0.08879049852368509,0.18339646513051697,-0.07139568449421846,0.03619997104060178,0.11859774155669965,0.10999410802995305,0.04880742251776658,-0.13520661390209254,0.005997872074679238,0.03358764489298101,-0.17220375107716746,-0.057410670403598874],[-0.023800341990247158,0.12860587215746289,0.030000221970428884,0.1923953096326079,-0.15899917590917553,-0.18778534575075614,-0.18679434217853838,0.057005903251891726,0.12720129207186856,-0.15299299209603925,-0.06720709781061161,-0.17240271227945997,-0.19359457018946596,0.16658757342817065,0.13739566265767342,0.11300583272399047,-0.15059965926867575,-0.08080288552344113,-0.17080803701775107,-0.06339026306991888,0.12559139696536717,-0.141202691723703,-0.14041631466002794,0.11299543745571965,0.09418643113061126],[-0.10060047574959143,-0.19519178650814142,0.026800306943369913,-0.06460656064858684,-0.003998844730185331,-0.13317949624525588,-0.13439208200281003,0.07480826031725095,-0.03139819043117209,-0.18419019197411102,0.1879900721465413,0.0063962076285002285,0.16320759840268573,-0.1868173875606429,-0.06320607140021121,-0.10199184039908764,0.15720047359472442,0.07879596211271908,0.018188757345420793,-0.11478637604806705,-0.11681203803385841,-0.07220376708104806,0.154377173445266,0.19859361293964667,-0.01601898924362402],[-0.04260052574667781,-0.09999198137321205,-0.10099961503512664,0.07159360398118597,0.10700106258767664,-0.030780148202501342,0.04040762369052949,-0.1595920165823064,0.023601705199339747,-0.16999056762282408,-0.15200968735463227,0.13799627023144592,-0.11739267206216804,0.10038318477894792,-0.09760581243013158,-0.1349920699769797,-0.10439946362416351,0.06439610919575348,0.10238905892172873,0.0656131815836642,0.16078836792951398,-0.1918036241857592,0.10837789254748863,-0.07440610580858394,0.08418171577145828],[-0.0004000543918890571,-0.10699590012428856,0.06199989838860663,-0.1350033015746176,0.00760077162008565,0.10241072904508201,-0.12279572964966408,0.14340436498374218,0.0812010867207741,0.0534053228684405,0.09259502961007336,0.15359818882407278,0.09880406223003549,-0.05760915655311161,0.15619662609260812,-0.1449958196035174,-0.1183999846658794,-0.010402168668555343,0.09099428409356097,-0.06459284358239437,-0.10980636843626854,-0.06360204024890387,-0.06461192440714818,-0.0016035756894020195,-0.01741023889092137],[0.12819888553637102,-0.07818640287609414,-0.1779990370293515,-0.04601081357768655,-0.10819843527811449,-0.14156693866224435,0.011612540573287694,-0.04498675679828985,0.19480266860875595,0.17101547451122684,-0.1630164091386503,0.003993575431789335,0.07101209823855685,-0.007027933049892754,0.18959056161751864,-0.0571866834102411,-0.029598821546111174,0.17699358822807476,0.14178157326806431,0.10202191915652108,0.13558071284024617,-0.13740595109062237,-0.11343684282345771,0.11459011808056253,0.18536992033908756],[0.19239915964495397,0.09621122740083166,-0.1473993160562345,-0.09860894066742204,-0.09739862289734635,-0.11297248489558492,0.05701049375862998,0.15501104064834634,0.05940228360136496,-0.13818703605039637,0.10778644419108552,-0.19360526920041415,-0.0161898926977521,0.17657672682588735,0.16339205674332785,0.1388110426520386,0.08740087660483538,0.19939463883811917,0.1617847392878515,-0.10638174563963756,-0.04921608265840125,0.14679501629848477,-0.10703065323046268,0.1401916712136062,0.15697483088831576],[-0.0528010001758006,-0.17418768239227578,0.021800859170310005,-0.12580979757974808,-0.033198572345385334,0.04722997600055351,-0.18558862297319606,-0.0661879904894685,0.002202427169718702,-0.16578595959975115,0.07678513405980662,0.15639418404333935,0.04961097379626479,0.018574670524195352,0.1393914319631106,0.02421206922535808,0.13960105606390497,-0.16420581656979652,-0.16421669839429257,0.09601987510629544,0.15378250905572544,-0.13800539944005188,-0.046633403627657194,-0.19520897207755603,0.14997271129361653],[-0.15980032882970818,0.13520722793736198,0.13780014504166282,0.1405942133297938,-0.018198887611986576,-0.16258171377705696,0.1372071240179136,0.18160738779889724,-0.053398317408722765,-0.07159115927304989,-0.14460874393030224,-0.1972032972646863,-0.0853931810671529,-0.041015535634782434,-0.19640551141138984,0.011607233369186702,-0.1449996917841962,-0.18300362866472739,0.1315900551716975,-0.04318783605835581,-0.15221077009894562,0.1749966064309385,0.06237965199004126,0.1495941891383582,-0.1950170839193703],[-0.17360044692870147,0.028207027163779277,0.021200318027810902,-0.1608056075460512,0.1616009461522934,0.11741743511703161,0.15580670534190125,-0.14659298532205703,0.1328015086010689,0.10120829847735413,0.040791509050717815,0.020596737298518394,-0.074793557521652,0.12378522719948602,-0.10380511991794311,0.15080695801180638,0.011200453162023007,0.07179657825664107,-0.1988095966163,-0.15938842095460587,0.06998977864530932,0.10199681165726285,0.038980585184491434,0.05879461970875286,0.024783918411257152],[-0.14220036567952726,-0.06859339394073417,-0.18359977677194037,0.09859472070520933,0.09160094732351154,-0.03518346295067469,0.08660639795260758,-0.10319333383996476,-0.012598527435909704,0.07240792814139554,-0.1954079863728867,-0.1818030427025885,-0.026993863593989365,-0.04261402916805212,-0.07480491508571259,0.10080657281780682,-0.1087996396540579,0.08459673799751685,-0.03620905221360267,0.02841099078536368,0.10019028443429477,-0.154203044720224,-0.050418408678117775,0.17679482696397805,-0.06361534360199218]],[[0.02331123238848392,0.12913108920118782,-0.05293505378512361,-0.09034745650956318,-0.04629149129587202,-0.03231547773133269,-0.07432381213812564,0.0916584473026663,0.021120701342499257,-0.11211901195026808,0.02886086752737337,-0.1712660168784135,-0.11177477450914249,-0.016166685398606384,0.011820466469833169,-0.14155469050132852,0.08604388960723713,0.1942954934943274,-0.016068107781283293,-0.15762982837045167,-0.06526144790363342,-0.14478742801574165,-0.17224228454322074,0.05732752951724527,-0.11192890101266918],[-0.07469300820953535,0.11672605592076793,-0.1811374725799607,-0.10094950928505643,0.04431173260080197,0.19368117140690444,0.050873412478729174,0.11945643342357762,0.062323692167338705,0.06348584168339257,0.15866571266615914,-0.17626364416356835,-0.08817583689983088,0.054631972133755195,0.14201154538527705,-0.0015562312010845216,0.02304232483615471,-0.017100086919779593,-0.17226553421996715,0.019571193701551495,0.05653295909536656,0.1664118453722617,0.1785591501314354,0.1133300687627911,0.04786811604354949],[-0.10188761116041639,-0.00766758827779083,0.13086568630250772,-0.02734696635566048,0.0335072577830748,-0.08571474467979576,-0.1305228732453888,-0.046340701764873586,0.07351984017140581,-0.01051988998372193,0.11445890015206676,0.016933133354312093,0.01642537339960644,0.09783357881992856,0.1140221731339913,-0.12115400764674011,0.12324446879684647,0.10169490132699972,0.18833115831330352,-0.0860302690647537,0.17553963980759069,0.1958124221133736,0.1887570748081842,-0.15147347757847185,0.19747152911671018],[0.09209909979813806,-0.03228323698525631,0.10365790691704162,0.16704677387307426,-0.04168171866687145,0.19747520281206843,-0.15473202079215256,0.10025224002370423,0.03172932541665536,-0.15970578274530575,-0.07952431572436586,0.10934107130645256,0.04062239505872489,-0.0789703758186403,-0.16160398430110948,0.0676405133947331,0.09983918686063141,0.12510723376019345,0.1935393035625011,0.1433733351279417,-0.10807680368774347,0.019811007302778873,0.09016218929696564,-0.09166474062545904,-0.14573686920086626],[-0.0003317268508354821,-0.056519562864489954,0.15603990166673296,-0.19636778260481863,-0.05465633406405145,-0.16234820751569917,-0.08535314959432146,0.03703601859297101,-0.02384869439773557,0.12612716509147123,-0.18248570674947232,-0.15344061726490668,0.001615415221381976,-0.0677796006079935,-0.04766502738202625,-0.1381720639657907,0.1528270116944511,0.00933614851554561,0.053958181100539945,0.0921816142583133,0.10008483239328582,0.03700755017352447,-0.036626072848234846,-0.06744463194887082,0.03144345642634111],[-0.10709209857978272,0.1511271244667215,-0.0853369359467482,-0.07974908447055681,0.04131095902119704,0.10928185018003933,-0.015125952135852168,0.13785693200002916,0.03032304059035569,-0.1667151012200809,-0.027535469374359235,0.005535802023247602,0.02082435972476191,0.1308322376161282,0.1776132986148493,-0.06915584268120124,-0.06815730570510783,0.06849910021724241,-0.18726609349455361,-0.16862906132986455,-0.014065937794999692,-0.09538807562899827,-0.037441212850432844,0.07012945452371411,0.09306867125261524],[0.19090183444551911,-0.19088002745330473,0.17605952490739263,0.016248047084742045,-0.017084066123646102,-0.030722767070582916,-0.015730099812083807,0.0510537565973991,-0.18747263613114118,-0.07410859118474121,0.0028720929452419703,-0.11106060538372094,-0.06937702215474038,0.08943041633399582,-0.04879875599998454,0.12324169675712443,-0.11235969365244813,-0.02449517388232313,0.07773762044821789,-0.06862744102283166,-0.07567351294204307,-0.03458877556712293,0.030761083634019696,-0.07266660551927842,0.10746477751318062],[-0.015305092448354098,0.06371180485760249,-0.1811445127018216,-0.05535523091527805,0.021521599682554553,-0.0627280459789446,-0.09533482875586158,0.058450142591954315,-0.06326770176478029,0.0020988582192912435,0.017080702180962824,-0.12125651153098875,-0.14557860516360197,0.1822283330219518,0.13658745276149398,0.03103889756899927,0.04143758613528852,0.14351138652616727,0.13254185911633837,-0.1178255973118783,0.10491782152845329,0.02721041185707415,-0.1676363043648537,0.007337880679971282,0.07326031719264296],[-0.1286341747907083,-0.04560458644343537,0.041096844439835835,-0.08952168786045885,0.04526350032705813,-0.17827404518708462,0.0689136318841175,0.14108721804023994,0.1918817687794556,-0.16437729777214485,-0.17560760030708245,-0.13189847494360687,-0.10196243367703374,-0.19355036328233063,-0.18147153296927657,0.0750676212287079,0.1350654735603177,-0.02955562603065046,0.037098455796086914,0.07795548634956154,0.17240643040219242,0.00801864440839204,-0.09806310801463626,-0.003708127445549416,0.16790588655377756],[0.11769338116653887,0.16191004151942986,0.1640545387363322,0.11664409747192567,0.17072312052003266,-0.05692907720217579,0.02066399549178601,0.16244912516637464,0.165733418939741,0.14390017304516636,-0.16011692766946384,0.15754453893418466,0.13502115003656753,-0.029172051472842343,0.011184945309872333,-0.07416191164098802,-0.18936312463425198,0.14431238260823928,-0.08125718383041,-0.1466250724165649,0.09991623254197061,0.061010487552763476,-0.13043554652504685,-0.15086090041237488,-0.04534038492468329],[-0.05388068627139538,0.044740586632338965,-0.10173029277639989,-0.09974367577714453,0.07410166512982935,0.19089056747953698,-0.06131818058960147,-0.09713714676961227,-0.1396850840782062,0.17627257734890733,-0.17794958215441697,-0.19047092015388772,-0.0925730168669948,0.06803568102855663,-0.1593639000244261,0.1182487401049194,0.17504715869723014,-0.0033117748119532446,-0.09787307274985423,0.016767918990867575,-0.16845161308736098,-0.12178669861764453,0.00715451174473431,0.14432209815007394,-0.02792393814824236],[0.05987452526156237,0.02788780070440871,-0.06695644035705309,-0.009564835681497108,-0.12986151135566293,0.1398565264524622,-0.0021488501366963685,-0.11476066798160026,-0.018053155867795868,-0.031079482504777503,-0.09509358741246556,-0.07584434681553072,-0.1473831802179225,-0.11817773760900517,-0.05685270334053116,0.1932305073171541,-0.17577050721769186,0.09413033193333173,0.010154350042494351,0.12757992254843187,-0.14650742084617593,-0.1313917757069839,-0.16682847276522136,0.1465512652839472,-0.054552583111662445],[0.12450073588621802,0.1121187051963983,0.11985883947647427,-0.19015243388229172,0.07311704106399108,0.057676496940030894,0.062069047843524815,-0.19674698591309578,-0.13907182799336398,-0.038107660020420764,-0.12692617926075955,-0.03505984245112244,0.17462280647299705,0.1626301430899506,-0.04880053590275124,-0.04215889456089557,0.11703978958774297,0.17970552220917507,-0.02066168961548352,0.1879729422518639,0.08992535833229102,0.14961129076499124,-0.19063836242190962,0.1733342824517526,-0.17653571476718935],[0.09371784641088908,-0.11686114293755606,0.07166885108053063,-0.12974436934671799,0.06430286922145259,0.024689451234342435,-0.08351918417021391,0.0426620844836533,0.13111596164599318,0.12287415066864227,0.01585224840312823,0.1743299492207019,-0.019173350701583197,-0.0007647591816662442,0.1062331863451297,0.14704814437149882,0.021846580804979178,0.00648960844874993,0.09392782551956065,-0.11963168873762907,-0.1894534440331623,0.12581313296293417,0.149955067758511,-0.03607694816746168,-0.17332487889717843],[0.0647244002668593,0.14194658555261305,-0.023127329696388498,-0.008941267162187473,0.18349751311638537,-0.046305551940919995,0.08028528775431301,-0.10313449992673715,0.1211112936449366,0.14846709665703556,0.1750441105949062,0.19372607816458123,-0.17957185110069124,-0.03256278671448744,0.03524624390058498,0.09725078967528025,0.15964915285220563,-0.06931660651919586,0.021123815301340457,0.10316656875896878,0.061554760290538156,-0.097986093921571,0.11695259927540456,-0.1228811890109527,0.1476793459708478],[-0.1472829928750546,-0.03406214022593568,-0.11253162593396723,-0.09434477737533735,0.19370349984980673,0.006088784160134049,0.020080269864819526,0.09166169189343296,0.020716552746104334,-0.1255248801965699,-0.0803468059578422,0.10353041447284128,-0.09617356366557828,0.15803497312574294,0.07963140594663456,0.04184784484824582,0.13304627458415227,-0.025309505053961526,-0.029671666222103852,-0.014031489810771333,0.058745440233052164,0.18201298206974426,-0.15484465379005738,-0.01447645217232484,0.09067452299178054],[0.14490798228723611,0.19752724603022656,0.05306306917063403,0.08105099028837179,0.15831108690878912,-0.18131799375075344,0.15067400815437357,0.11025681667596231,0.1643230067455874,0.10548457927940792,0.18506476749486886,0.11833586015370748,-0.05357554777293352,-0.05816768487312543,0.11081383879123946,-0.09495594717778598,-0.1889573536646654,-0.12050129631772578,0.14513387385913984,0.02177100173672166,0.06273439185847338,0.16361211556637678,-0.007841112995293699,-0.06767043348655075,-0.04073107651838319],[0.1725095678451744,-0.08547089971605396,-0.13893598185209985,-0.16154828063602414,0.10150967516895915,0.18248315904120313,0.1472751471180473,0.041857737161754005,-0.03367813683077195,0.17708301205061536,0.14186259749212482,0.04873486060182565,-0.08137522936241655,0.1934327605363425,0.14481677156292702,0.18124477463782382,-0.027756684213976136,0.0892973917927532,0.027532894121091344,-0.0840294702768017,-0.11406375979273466,0.031212194196383748,-0.1256417875477234,0.16012844256354689,0.037869826074098535],[-0.12725996915842294,0.17976499043789002,0.04608182238823523,0.011466094251005773,0.16448453735267407,-0.03909373250143933,0.10609605244363583,0.18027381005275014,0.1877001357760211,0.11165051619455955,-0.08657564754587375,-0.1922832634751569,-0.06556835201106578,-0.04955813802214605,-0.17232300855870727,-0.08834275919102948,0.1296553688839895,0.17746890515473956,-0.05888576521922449,0.17516232534350915,0.014574089451386246,0.09161556116204203,0.10334657774980954,-0.08129147347154046,-0.011710786031139538],[0.1779050156424473,-0.13827625651039127,-0.09653865280275693,-0.030350419914135333,-0.16588652006879784,0.15607972914585858,-0.09212800072212401,0.003055296088186987,0.00132511593784408,0.026287809876474343,-0.13233160366486416,0.0399375951230646,0.10862376144894668,-0.1123685862761575,0.1916078668603739,-0.032357122287281805,-0.007358504898209123,-0.11149843133074223,-0.14066431367518228,0.011971776720231425,-0.11586935891080469,0.035011736195309485,0.04975998315424567,0.114931459417966,-0.12433302136148416],[-0.08448461290959364,0.06593597804880647,0.14786738398590124,0.046254495739758594,0.13530503629373544,-0.08271234761370433,-0.164520939498757,0.09086067513548873,-0.047482267372317095,-0.0743233911258595,-0.14574442496103937,0.18233148733881366,-0.19417385330857573,0.12283454377438079,-0.004971406579941375,-0.19995295925618364,-0.012354448480556198,0.02649168088596553,0.19212934349585548,-0.07923096645245782,-0.13505633762027452,-0.03658701007899077,0.028356099108902452,0.11532477607577822,0.02507369780912758],[-0.030501489351480907,-0.0408839217224147,-0.07654245268141961,0.0342465088734424,-0.0886811615590526,0.06407479005522022,0.09926753986083657,-0.10894812842070165,0.07572975433977085,-0.05850523956849673,0.17427654697988146,-0.07105853963632801,0.10622228923796463,-0.035970532433729344,0.0029949892579902394,0.0838402222366865,0.03703892497339806,0.04230766732107643,-0.11586032985448591,-0.17422647533355207,-0.1476774522036794,0.12141100843105186,0.06056246150636394,-0.020864295552102303,0.06806282891966138],[-0.131884653250081,-0.10886410553469836,-0.1337325815052385,0.02205442672735133,-0.1420951993898782,-0.11931250859370343,0.039279164944354863,0.08606087223486586,0.08611772836775353,0.10447697480819049,-0.06654484137969766,0.11893136495475094,-0.06157396523308615,0.17343445798626886,-0.08797201137087741,-0.015352785833611646,-0.08595435462992951,0.019892162847300696,0.013129345620547123,0.029568927322356324,-0.10605670435964501,-0.10758726615699014,0.17635593467454708,0.03432457504915478,0.06327339483544804],[0.059742553752762106,-0.19763203215284003,0.04308328882885677,-0.060332708404553057,0.06388249318213024,-0.1242918005248743,0.07009776510628486,-0.11352488948892675,0.12849834102524105,-0.08815222063452381,0.17462125036014836,-0.15988474411021053,0.1530322320899139,0.06884262613956613,0.14688205234115925,-0.14614175330886583,-0.09794364806124337,0.09986648330332618,-0.005287307672578463,0.022761662225240127,-0.06302273145902383,0.08961587524761913,0.15594563913142362,-0.19809309111422224,0.11549085853845478],[0.18216297181099994,-0.16540794557487304,0.030295172507426183,0.1446769694351545,0.13466587449664977,0.07192379980708825,-0.11748833580881635,0.023885696659535778,-0.13811619370286113,0.04662572269661754,0.19099601615408549,0.0487032334934565,0.03023692958735566,-0.03195121047514585,-0.08067713544038871,-0.07173356034688175,-0.018335663567307876,-0.06475298992271719,0.1777002053304741,0.06715626342146927,-0.003597091781982485,0.0390183473423539,0.19333799503587687,0.10449375472637709,-0.16509590927338785]],[[0.1591580220845723,-0.09527721705072943,-0.06769334859502173,-0.03683686631327029,-0.017164086746279752,0.11885489595386832,-0.03431011221389081,0.10944552669607355,-0.09408188505086036,0.06446417404793996,-0.0892495526670418,0.04398338595863154,0.09150545851367127,-0.13533385541275908,0.0756232565867305,-0.1116035339214373,0.14323128223932727,-0.07963681923621788,-0.19671952687132685,-0.02588847937976905,-0.14777841614572912,0.15936554517238527,-0.15351842832214369,-0.04385195697770328,-0.10942889873269628],[0.1050990275547338,0.11329770590480559,-0.07105482355820968,0.15538154706883262,-0.07872000316843612,-0.06991816880854441,0.09580497488518078,0.12434854750062228,0.0558776944946684,0.13058383842394286,-0.051536498877156785,0.03812231484630121,-0.029256025250547765,0.04390520457035728,0.15857474189102758,-0.10357205476946718,0.17818209959837333,-0.08260290008079967,-0.0386789785402793,0.08813395218189568,-0.18361126192180538,0.1801059016057794,0.1697842802575363,-0.11021675028766655,0.17738891730228792],[-0.03230562096433364,-0.03270433818890289,0.0389480143612287,0.08878303256821582,-0.19371681118041903,-0.021916165818821512,-0.11300157829749514,0.01814097129629494,0.05827465765581785,0.12399306180565611,-0.02352795942520728,-0.04428234042143101,-0.1732530317862397,0.18489273249998697,0.12597093190810338,-0.0923696854329298,-0.06822169723592135,-0.1780001062326499,0.05912404061292326,-0.17166424831348914,0.06878620397132952,-0.0544987011713806,0.09659222041541343,-0.13001402670919116,0.1271903184107514],[0.12737122368217857,0.12244325040009957,0.03842825904261847,-0.16137849752923328,-0.14282503783643194,-0.1918600441325906,0.11842128552144147,-0.05506141960719516,0.045190411776020796,0.19504268229677785,-0.15009228469586597,0.023990312031224308,0.13822733571772808,0.11035694986444615,0.13146966625113427,0.08929592876784154,0.15887570245446686,0.028470811151719743,0.06680852871944899,0.007382607361916074,0.04711768522179198,-0.19722312283655877,0.1596064940394486,0.02685942473234026,-0.1289724916562489],[-0.19871032399416422,-0.023221205020461867,-0.09297916887602647,0.040522030867181105,-0.16146226489921223,0.1689948656681292,-0.09492072650649797,-0.04133811173220267,-0.13399179925114496,-0.11680269959328249,-0.16530157687947075,-0.1652804463738603,0.18461954186988289,-0.06597487368388644,-0.07226848713780341,-0.003073688813269105,0.15354097428653973,-0.11431258544542779,0.10679012267042608,0.1940614473227384,-0.1695051565023555,-0.14210142810972715,-0.022347522980240026,0.1316695060163197,-0.0940686578155945],[0.002102968010317294,0.09149945796694407,0.1531428357377454,-0.005219709938936522,-0.1797226324755157,-0.0157198384045473,0.13021048355372225,-0.10764505961773174,0.14588021840140772,-0.1612239023549582,-0.011743630937629075,-0.09007378903346014,0.084341455214429,-0.00788430312849039,0.10977796687036145,-0.058774019751872235,0.03478528873268494,0.12639471169748656,0.10851852108459291,-0.045867574592283585,0.12459087014274621,0.06650977153722686,0.0007775948817110244,-0.06301904874349434,0.14658772838552359],[0.15987084974045726,-0.1493142713337807,0.00616358444755056,-0.11320965043195144,0.019501052280081595,-0.11650530639739641,-0.014235588180336342,-0.0018977807224824059,-0.060141618131540314,-0.008758991827273651,0.015717503194503154,0.17729314047203606,0.17136237577110625,0.05442831913751322,0.15195156874018337,0.13784298920482302,0.10575860304108195,0.07861330959450187,0.1591403957262438,-0.017455328859841055,0.019573048941211618,0.18327741033381292,0.06783333975107361,-0.17479993664003565,0.03359742548460173],[-0.002168794971143893,-0.05524599269016602,-0.023540789257590438,-0.10705975156226116,0.17958170460144696,0.05842167948975512,-0.09740502342671421,0.1997657029639135,0.0787679917809412,0.08151610794954382,-0.15858916307268195,0.07245886840051591,-0.012342241811246192,-0.10273459523771541,0.1632834151889326,0.16135762153074173,0.013292148990985977,-0.04027908423572947,-0.0795695144967706,-0.073916350053976,-0.19133776454177973,-0.13896063900356323,-0.17884557488806493,-0.09909555030852119,-0.16265099772479744],[-0.0009734568227158694,-0.10564803920130526,0.0330620679208271,0.10254173906827853,-0.0016150814843111582,-0.14737630754257608,-0.012011602995829325,-0.1826418997277041,0.06696493749145284,-0.16327462818525906,0.16741941921556566,-0.1613458085069557,0.014260763451205015,-0.026547116964595052,0.050279593928006655,0.13316000580933826,0.19048833648530913,-0.04547628544978328,-0.08536647623813666,0.033485454399893075,-0.1089403084331074,0.13163473977850876,0.06196239569808149,0.16890718254910045,0.03715040734048374],[0.0991222341291233,-0.043292424134613705,0.19133005710923487,-0.09482567331047202,0.16726267164603525,-0.062128766482836835,-0.102161650519352,0.12358666704895106,-0.15250643576145168,0.08213682504928514,0.0026190640690518505,-0.1710536869479475,0.188928840443452,-0.15183154893332393,-0.11660617771826542,0.16601559690291176,0.08020142440652857,0.17898377815894614,-0.05049489518994326,-0.15647485770804212,0.08900165238696017,0.12352934592303635,-0.11865610526434818,-0.07043060423200703,-0.12641809516700353],[-0.17531164956618028,0.10489312312772714,0.05875203141189826,0.1521849189101436,0.04608778615278386,-0.11531338044861639,0.1703896880684065,-0.046668975527039275,-0.02232953536451741,-0.04479461197461006,-0.1787162760250533,-0.1720886422040816,0.18355092685520025,-0.1951238138035084,-0.13483403068972102,-0.10096641309319421,-0.12382675924924638,0.18720333768259792,-0.11387174236393492,-0.021461957070638638,-0.11021717165638169,-0.13450483466816157,-0.04719722831527009,0.16298958286826795,-0.009207862623345582],[-0.18115759450884888,0.022273517964834944,-0.06901819013576825,0.13279928748251613,-0.09667818888551681,-0.15769252993480157,0.1671237150506998,-0.0021444225087976923,-0.03256084488326476,0.03109834014810909,0.1545713623418005,0.018863972666637478,0.09538087261880458,-0.10124890670571052,-0.004871799349074331,-0.13694202952027495,0.07153502932139778,-0.035170124289053764,0.1939596354727226,0.18775554176183765,-0.11924269204439705,-0.17215117509300057,-0.19751740877055252,-0.15678305042116533,0.15200601101892802],[-0.09823364618288524,0.04504119512045157,-0.1713685148098644,0.013423018460406264,-0.1098213381144209,-0.013257796126616843,-0.05478575664827535,-0.1180694427340586,-0.026612959964982967,-0.10274738855267791,0.17591712904784937,0.16038523433329516,-0.1585694738494517,0.056543612189713675,0.08386565804807168,0.1480985550888852,-0.11612837707077546,-0.06812641115162672,-0.12358808285985126,0.02458445451819178,0.17431496163930862,-0.07702806919070647,-0.044584993671807314,0.015862340632508774,0.1624289790755563],[-0.1660074364745147,-0.06606232096455691,-0.13331526427064203,0.18015227184887936,-0.0041890219698332955,0.1512394870029905,-0.1674608452786413,-0.1224979224375325,0.15134129655385484,0.11179480127485468,-0.0015145842203465826,0.17781863718539542,-0.08951694824122057,0.1839596694446464,0.15205161872336864,0.05417841092384959,0.05605981511680427,-0.04165702577199751,0.0926573048035456,-0.1291016952921362,0.028240643577954073,0.026600151721709948,-0.04377808056159053,0.07752757813981234,-0.13803932618225176],[-0.12986993079956458,-0.0920889382869781,0.14572537472876368,0.15417178099217485,0.006057463935721723,-0.10393206207798007,0.11404932752752772,-0.025600581760832145,0.19029861069629442,-0.09607863462549002,-0.19379511494891213,-0.014245922481756898,-0.12447619179209796,0.18958938715874082,-0.010399760866762586,-0.18838835201033333,-0.03439220901453356,0.19557897164900875,-0.16529989614296522,0.08652207626016648,-0.035394106629562674,0.07293705508493344,-0.05586940158549464,-0.11443515742759672,0.10717954865576156],[-0.10933318276083615,-0.000915908858970313,-0.03543354973445162,-0.12200841839082005,-0.1796956200389959,0.1548966640261088,0.1577584438811143,0.17249550492847726,0.09165544286989256,0.021249440212647717,0.17332564906047773,-0.02211121754392767,-0.17683493812516823,-0.08118294016317006,0.13614823639612939,0.0906452783476925,-0.07584485539789673,-0.13238449356716622,0.06914337516927575,0.18014617674134156,-0.10362925828818453,0.14247321895404408,-0.11655946532682974,0.04260252250447019,0.07499864428411464],[0.03598238258037232,0.05233319829820669,-0.061709071533062085,-0.08744448820563382,0.1946179572124138,0.1896438742658773,0.148724819688578,-0.08271449770506187,0.0159346647749086,-0.18238503505409032,0.07210409463485015,-0.014791542287953941,0.06248959750703446,-0.12946760742623334,0.04464327646607457,-0.1660164216466911,0.016851513217409693,0.07654908152621732,-0.19213610452822097,-0.18429776221729754,0.19683509757382653,-0.03440991787082914,-0.04236070171335641,-0.14266645438080275,0.17476374489049118],[0.1436478426256292,0.19296109005768344,0.045648388471932894,0.1773350661792003,0.003369311435835337,0.05261409435221959,0.032218892346152106,0.17679302828580667,-0.1604206431259628,0.1474824182536975,0.0935790136577368,-0.18472394032203596,0.019846910636288007,-0.16688926739055646,0.1444970937276433,0.12434877695134569,-0.08009400236007942,-0.047488649662710124,0.010419089451553098,0.12887732917346725,0.10547148916692298,0.1596561606980468,0.06172548570134271,-0.09190547691986717,-0.06025602445595831],[0.186572504161074,-0.1376710546358363,-0.007302775487435837,0.05235862638957422,-0.1755748865939632,0.17504828728879834,-0.09888929018802654,0.07966931278415074,-0.15707198776229228,0.13403484414523165,-0.08107726779482687,-0.10400164427854755,0.11509601565224083,0.17030560500040368,0.1128351635660629,0.1659887651360795,-0.034956661111536544,0.08375486206632951,0.0560705479491352,0.15650602123049895,-0.17737035905606724,-0.17221982819465056,0.13525637559742718,-0.1000606003919654,0.002966725336372542],[0.013083783232862717,-0.14350880179646355,0.018955059664506543,0.16918633161168942,-0.053708730425111685,-0.02871126328544315,0.10218308221780058,-0.1154764962651739,-0.026132698202392265,0.022414695758817105,-0.023707433948510874,0.05730659255545683,0.19555391681685036,-0.03853631808720893,0.1359622099700955,-0.043763953474967345,-0.17703058425509227,-0.09939407106852217,-0.0734685633344893,-0.18626023062075384,-0.17501972790446535,-0.184109475009909,-0.1887892399989788,0.127992322396917,0.035793517905806635],[-0.046176074047334384,-0.1697342381946602,-0.19580584098078796,0.06920499663883323,-0.12726396809902943,-0.0630839148021739,0.06989692157754594,-0.0029748879375674645,0.0774262842760093,0.12153610933524221,-0.16339268980793523,0.08064461825389278,0.14559299351334776,0.0501003903068894,0.17891298588756857,0.16086798410861874,0.16151951391032426,-0.18455968554996455,-0.16422741369243338,-0.19023748343312227,0.04794694114539992,-0.05276999592551041,0.023714984728727663,-0.05117194574250524,0.14921159714050117],[-0.1743773127716036,-0.03524961301646291,0.02486477334766103,0.1669429071913222,-0.008211930176964356,0.07402556818676592,-0.14061728291522377,0.03875170127238147,0.04976215560504924,0.015533386010334839,-0.14057283923012093,-0.1515499489197546,0.08026331931058463,0.18444216784971587,0.10867641115110814,-0.01863783262528448,0.0812850482619628,0.18732581291814207,-0.17856365945800812,-0.1871131116328789,-0.14114250665693914,-0.14416925016258134,0.11256925472726696,-0.103290467045397,-0.18384842522972789],[0.04296969941798245,-0.12447216948674704,0.14429928404854886,-0.04784053275307175,-0.19177247227152164,-0.013750298874650433,-0.1534934863297766,0.1430646236761213,-0.003074081058517369,0.06284077466411052,-0.09907147333418657,0.07699527185201421,-0.05770210367116253,-0.16550229249185677,0.161432842127185,0.0977903926594012,0.13724090858740676,0.17515634269173871,0.029472679076375824,-0.07509294565278425,0.069428017758761,-0.175822775578156,0.028061432932290086,0.008341129137696994,-0.13843242534625294],[-0.17009060844965782,0.10230205849880983,0.005738262001954582,0.07357834979386985,-0.10632797010261881,-0.19792299905081992,0.07581999356787893,-0.023234373498215288,-0.018715096391465055,0.08516267299621079,-0.0057566451029305256,0.01853316146723852,0.13053718137975967,-0.08426637655339889,0.011183274358078612,0.11582233936795425,-0.02200920468696252,-0.09520875206713802,-0.14928623094175394,0.00973004280761424,0.09819455004735694,0.017116451744870663,0.12976611933581075,-0.12662297833279076,0.16558578368989232],[-0.14506727444400552,-0.14028780436027244,-0.19947633341891785,0.01897096547778585,0.027055495232704962,0.03786672649706661,-0.08434686981799522,-0.07479623488298938,-0.11029959176834321,-0.06768398110765793,-0.048400175498868,-0.06784319230040269,0.11952208544866536,0.16859658979514797,0.12720242066302148,0.12681025458534956,0.12040998966765988,0.17217745486051533,-0.19170169683151583,-0.14347892549445224,0.11660736705877546,-0.16246027288921028,-0.08187401246675144,-0.10703674468977205,-0.027421256078991305]],[[-0.10375442862971129,0.021342857746824782,0.17780755848756355,0.07537650741456582,-0.11375759135934521,0.05531425617310567,0.05536729026539924,0.0007305743987142956,0.19571597467955373,0.1711025881544323,-0.047516504525143714,0.1207636200709787,-0.01627309082334855,-0.10763150250860308,0.033054263890059846,0.12478070904420502,0.08938033083641754,0.041537833587116824,-0.11736481757117002,-0.1894913890854984,-0.11527577197225165,0.19556983008244813,0.17415202087051507,0.19572494679401875,-0.03717605087114255],[-0.10133237300424551,0.02551629663595146,0.15973725171990544,0.1883247780330992,-0.0608383171130785,0.17773521282714755,0.09319950700554985,0.13071580575030275,-0.018132828569588245,0.018701893641388554,-0.13929492626203252,0.09752020890670186,0.11671010042466579,-0.18169249118809203,-0.04197330066761445,0.1807759402597904,-0.07303147208354054,-0.1942911108308706,0.03716285805577377,0.1181374738806172,-0.04075196586032225,-0.027992682389220196,0.11206737712862379,0.035273400048931564,-0.10857911675935536],[0.01513304489471439,-0.19033076777427674,0.03892352376158757,0.0678473213448613,0.014710224000213417,0.1538085016792701,0.049725564788527125,0.2015128567056071,-0.06384294716309262,-0.0693142497584314,-0.06362486628325353,0.10570913899816958,-0.010467900997072803,-0.15984155222197652,-0.0448058786973579,0.11802254887243226,-0.08508042010115374,-0.01568420581091321,-0.006621172881455013,-0.05729266492796146,-0.04390114487955803,0.18205534466283982,0.14805375925907446,-0.10781139336177882,0.17304772868675655],[-0.08481570703349343,0.011288313324582477,-0.0838505409314147,-0.17488113800790045,0.199194679944551,-0.1511147153060978,0.0869761235847483,0.04728130027513655,0.0895315579701333,-0.0209502691310948,-0.09215946401090938,-0.008995352223427983,-0.02622645112353389,-0.16260141348654894,-0.02674541565675403,0.035564105129733146,-0.1876418327243168,-0.02011879283509927,0.17508931997424765,0.16068474296609286,0.030517171169170666,-0.10491611849606303,-0.18474646030915798,0.012641023456541277,0.023130988005297237],[0.09842516079080782,0.06652760275152153,0.16346484869095057,-0.0006616583685444946,-0.17608310927161858,-0.1899176917678775,-0.020890573683245355,0.19209909992162583,-0.09788158521300427,0.1605129843616064,0.15065702646570037,0.18587477382676248,0.08086531790670583,-0.1644189647734173,0.15322234109790558,0.09612020127727802,0.03740064015785224,-0.07953326324482721,-0.03354149608695345,-0.05840107157032941,-0.009099206024267364,0.12340109585809676,-0.050022905537287145,-0.034706254688768964,-0.15401231901993537],[0.05695931643328404,-0.05334285646442314,-0.1335568896002672,-0.16457172119421076,-0.16608632582908128,-0.14976030520147318,0.05407808085430176,-0.07238232511306376,0.11891997077284065,-0.012720138996463468,0.10580405869019527,0.009421431795611161,0.08145044903297795,0.07000722106747242,0.1469896426919797,-0.04475085627001152,-0.18799937159239594,-0.18426992692308078,0.0979139226050442,-0.18371672958488738,0.19885428822210602,0.16576718311577804,-0.05092114321079419,0.08916618749321359,-0.03833651049457358],[0.179950054871255,0.18507700010598507,0.12448656200971753,-0.006139197001647535,0.022360745810150937,-0.19356757918277023,0.16806194174129482,-0.08857148959825079,-0.018450821746318163,0.08248479291327099,0.06819546085609213,0.084251793842182,-0.03973679362211112,-0.1097542348320586,-0.040389944592799244,0.06085561853652247,0.07901046488390179,-0.09405223588122376,0.20635838626588474,-0.20033021146694094,-0.010095383070217057,-0.1116515257671859,0.03993137307567495,0.1427994323023871,-0.0461318199617131],[0.13481630174794434,0.09422133259747997,-0.09171386359170121,-0.11124627608291718,0.19202496444850342,0.13270241088193951,-0.0681284349656339,0.13150914788377513,0.027428387173673335,0.14828008583963434,-0.12433629410218776,-0.027908271648990856,0.02455418997763731,0.051190765407813775,0.1879602345051807,0.045275931125167514,-0.08852733185972785,-0.13748735161599435,0.11876988814577258,0.018097371728802256,0.19833144419263476,-0.15027315856884185,-0.07818798157742446,0.12228972210774837,0.1542802125091405],[-0.15738765465091653,-0.12359313835117633,-0.08210422042662377,0.07752075090315656,-0.15185989659300322,0.16329245240496762,-0.12164853609010151,-0.19701062384863352,0.08361619176482142,-0.12011457589337164,-0.09554332965661362,0.15673598430066082,0.07101890135093897,0.12928075416945642,-0.037462852771788256,-0.09535534419730485,-0.007620138940032883,-0.1263309093864812,-0.037638004348431106,0.09315053309816246,0.031499702185959,-0.14314733754497275,0.14110182261801274,0.05606033790868835,-0.038338574655267264],[-0.03217788118334958,0.13400968409195688,-0.11596810239588808,-0.13824751375778224,0.04546618875132123,-0.19809015766973187,-0.03519869147599737,0.1036144031165199,0.012411853839723635,0.1162618909534353,-0.18732858313847936,-0.06418940275619892,0.11527196619537315,-0.032539889657934376,-0.18684326757283265,-0.18090552308998645,0.15095108725060366,0.07033794087826285,-0.17506741712815205,0.0422502066478608,-0.022693213587258804,0.19161180445808276,-0.10633170468547391,-0.16231729491147298,-0.19191072671537457],[0.17018616412574586,0.13777750284544782,-0.093234228215204,-0.16094830292693307,-0.15626611854669162,0.14244854266290208,0.07597151065678205,0.021638605755200564,-0.05459108730817801,0.03090027595441804,-0.12217875288018117,-0.1523075996152857,0.06642239733607334,-0.04261440179298441,-0.0803174331111707,0.01755235228045117,-0.02129269704780695,-0.01084408911160513,-0.046619399015026125,0.12529199834920182,0.14784681727819549,-0.12619249468803626,0.039420211393993466,-0.16859834072411925,-0.004794022730242817],[-0.01295937272082141,0.0811492385619052,0.03702391301866809,0.0027885899676254157,0.0490610195164454,-0.08969038175862491,-0.19164012027778182,0.19413399716792992,-0.03607279363513516,0.1855029604777712,0.1570787044410978,-0.07042603306420492,-0.10306913025762857,-0.18421719232429384,-0.015139120738932728,-0.07641801395504434,-0.03221677648309794,-0.19645552907319316,0.1528520052687879,-0.0710979629212894,0.10174228687709569,-0.1074388255243774,0.0863717798382215,0.02093702786873239,-0.02297523005130057],[0.18665171571762323,-0.1855714726719626,-0.004859123564571375,0.11900562823029229,0.014050368494403444,0.09195590573909009,-0.11601177399663928,-0.1132404022035184,0.20480532592134415,-0.17135645903527774,-0.08789018463265433,0.14483852748823695,-0.01133821741645784,-0.01786367950717319,0.04540056048677524,-0.17701723758998258,-0.07518177363443021,-0.15995729501812353,-0.14130749027781309,0.12731425495222254,-0.142865679018255,-0.10033492769646973,-0.06007564029344275,0.08492492064818956,0.012141775361314184],[-0.15069096865404205,0.11131408658257508,0.1116257198800336,0.16532348663951038,-0.048977538441035084,-0.018611477348430872,0.022685767820228405,0.08693759456711346,-0.09417362467928146,0.1530950275500716,0.11435244614908274,0.11077860227017342,-0.18703901245648608,0.18104855805658865,0.17144032775330684,0.1516359481945519,0.011941377506631455,-0.0294423464093038,0.1962835196421266,-0.1463265302146358,0.2016152941549739,0.11360925986292099,0.12537705441827934,-0.1285339558862565,-0.17814266958269628],[-0.12365917053205336,0.18498335463990437,0.04627252074550922,0.13312875365678187,0.022628513892051068,0.02765987624548737,0.09005986770931744,0.17426919910186933,-0.15692502320318985,-0.09817259549847926,0.0038068069816364226,-0.024440058145954128,0.12221138380483854,-0.030740675418989716,-0.1548222406078238,-0.06373786496012643,0.05485780396521637,0.07707442784336475,6.97948070726361e-5,0.13245504364406055,0.17357224868172222,-0.03878296042379239,0.15596702134497872,-0.0817616894543191,0.12158904286561283],[-0.1212001909765034,0.15785612299332732,-0.17109353466882296,0.11084745683103252,0.022047624021624933,-0.013105112144124857,0.020282898207433935,0.10775187462508062,0.0034824243164600613,-0.07934245432225592,-0.07274721910546908,0.010018512271648718,0.03422743865784662,0.04664325559047847,-0.19578701955334393,0.19273159788485036,-0.03334185207834388,0.014216112020817665,-0.057172896125568064,-0.07763740494502641,-0.1795699788206376,0.12884115221470957,-0.013120080897353156,0.1609738998809602,0.14031181761314004],[-0.10059130534791687,0.13606813228278955,0.09268654434708974,-0.021726882404876385,0.05591950535869011,0.07031012364241078,-0.10619092340786514,0.05627002736361103,-0.16791300433933395,-0.1545461037593613,-0.11793513574639866,0.1795694373066481,-0.19143887798656103,-0.11305519358438879,0.0710334492493856,0.034763576157586754,0.1177502721694914,-0.03054476864034893,0.07982434045215465,0.04871528933768702,0.14985217307653545,0.021722379396378506,0.022377907372095218,-0.12300366776875392,-0.041268764562035785],[-0.19744706224266675,-0.16352224340678662,-0.16634407330058784,-0.014122513539094996,0.19962623071927124,0.0886386261907747,0.12878476426952176,-0.18345947045485242,0.02114810692486648,-0.01132858050746003,0.04760075260700529,-0.1716112173639845,-0.0032109183142410317,0.04593640765639714,-0.07818078457346721,-0.11212063307083887,-0.19670456723669924,-0.05741736504187702,0.20814512055143805,-0.02358258541502166,-0.1778912676345069,-0.1543745166208058,0.031016237223021024,-0.09498887524852946,0.02328112920016046],[-0.0939311131807609,0.18869484070377313,0.05952925049726213,-0.05612124986913352,-0.09854317113118807,0.172130108198576,-0.10991269619389504,-0.10900769446650549,-0.02655710217219294,-0.15809329327040933,0.15470307393570695,-0.14084680559517926,0.07377048434454846,-0.049617971495402056,-0.1376036221459389,0.11974318932867802,-0.07772747025126821,0.20025819005998588,-0.030663176646082837,0.007197615755715215,-0.17240330064720147,0.13534237265726368,0.13553584658512932,0.1594309412005401,0.14380113306975162],[-0.16122382737369098,-0.07938993559934784,-0.02519765629401096,0.12451884217431418,-0.12252872836512424,-0.12435460015421504,-0.12972931780886104,0.025768017174603555,0.026652771880181312,-0.005903981662555738,-0.19538520471364776,0.15067745164149823,-0.10663116027741815,-0.158263925019703,0.18552438364557242,-0.00021272985933642848,0.0002082993586042718,0.16821815369332455,0.06963602208612046,-0.07957974260677417,-0.04407030189022972,0.17385717171347556,-0.17401368971200157,-0.05233479493951513,-0.10417288419096848],[-0.14095099808821146,0.027537654021668537,0.12459484818855332,0.07476710435204406,-0.1787718504678833,0.07971731296683034,-0.04722741627519662,0.16972763616279235,-0.03849277743164791,0.12290189612379511,0.10928680650982255,-0.11904462165370625,-0.18927646516386712,-0.11584258308246868,0.10824888091381901,-0.07722059017082175,0.11397789921051249,0.10433257296184571,0.104422144215766,-0.09048675652739939,-0.04388983813736898,-0.047224045529104045,0.18853673412900412,-0.016084527574002833,-0.15777696980458777],[-0.07036555631218842,0.18775562363454254,0.15464196314969872,-0.12379820597716244,0.016882105396489745,-0.1494964374304835,-0.005448813449829682,0.04033762157998418,-0.0076601143226525895,0.09410259218928001,0.006072585460809026,0.00858464738320678,-0.09686507477588525,-0.008201670210135004,-0.19133247319466304,0.11458278229447717,-0.13801406283173734,0.006951965016927889,-0.17412940005913444,0.0260941259764353,0.12956138033639847,0.0013510686993333824,0.15459345894307885,0.14215008409106336,0.1312252254140998],[0.16616642956675107,-0.16217197317987966,-0.024984634713800694,-0.15583229086954914,-0.14581370243424902,-0.184759970932348,0.18017455044826783,-0.0927102140093569,-0.18131803638081878,-0.18011584240418246,-0.16779221108524192,-0.005757922111218579,0.11770586464773039,-0.11013535327049309,0.03915139818612436,0.11081479742375451,-0.10189884523680591,-0.1691288541283409,-0.1313323991058907,-0.13364887357576194,0.11558154074426824,-0.06968772542035777,-0.03947638370825039,0.20150917886781491,-0.16495734442657378],[-0.060314461733636894,0.12527790828572175,-0.0035188783940723234,-0.0949564542164617,-0.17659946308897442,-0.016053524588667278,-0.10968934093507712,-0.035017244060334365,-0.15559089005781596,-0.15629215421844986,0.026719546191080575,-0.16147521149555535,0.07495979610658358,-0.12185937236549904,0.17337874555304647,-0.03285881325424943,-0.18653462715649094,-0.0863617396567274,-0.13531276673879084,-0.14818110000937598,0.12514579673381357,0.025369560678330252,0.11167800364827611,0.17479616251115057,-0.00339997757680145],[0.07282463791410874,-0.10959786217196167,0.017044716092490062,0.021322715164999135,-0.16461970832365086,0.06270868576373025,-0.18351361621234472,-0.07550155633581608,-0.031999531950691225,0.15907491899595116,-0.07332856665167407,0.19326259940420462,0.06914164392867818,0.04775409709362436,-0.19105947814138347,-0.028730601572770572,-0.05353692824784085,0.12509560553089424,0.06732753932842066,-0.11949036227583465,0.10368351201216927,-0.09745609082415518,-0.16163792169042662,-0.14134206230153576,-0.196324582223029]],[[-0.05502127909061776,0.03043745755118778,-0.1350225807215341,-0.06971703600637763,0.0934351180079083,0.22654481497322215,0.10624926245440763,-0.06683890635792977,-0.16000973054753778,-0.17873257254404507,0.09024562566244253,0.016317732611272538,0.087740944917218,-0.16702602296797178,0.2142777783813863,-0.04539478950338573,0.018732704735527524,-0.14123807744204459,-0.1452589917407997,-0.13860540291086682,0.01887654495817243,0.12339220548825937,-0.10650780317566405,0.12288924849991809,0.09244616555215938],[0.1947852000629112,-0.10853587402157455,0.19991595282694088,-0.035545224898501676,-0.09790251762827736,-0.12068752485619418,0.10996671809155797,0.041985945052829377,0.13085734661978363,-0.02620568729908999,0.04586807425394507,-0.14244624931659164,0.08939690898485626,0.18230043525919207,0.04382343648844962,-0.06733032678969347,-0.08457325562676017,-0.05006850737703701,-0.0014118464163113285,0.032303529638958106,-0.1639145025123596,0.19288132651914344,0.03805987220273163,0.2327498027156511,0.15315324309426293],[-0.007240387129315467,0.14159427500743874,0.04735176244743292,0.1469439167643972,-0.07195091431708106,0.06379611669377416,0.17874756006665374,-0.14014145074153334,0.1350588925145725,-0.048435531498857466,0.08924403949193235,0.12530469792044568,-0.10767006972143064,-0.03736824535263713,0.03172225652603905,0.13425670586484006,-0.18710044302359632,0.10856804988582401,-0.029009481625066183,0.09370107308732287,0.19296449529339665,0.08699659972276297,0.2103633581842115,-0.0017283471463067088,0.16058968452481087],[-0.1597915324443153,0.1353949970644537,-0.103208134041405,0.011381113103122854,0.060050108732157055,0.18361308368529553,0.09739552861365607,0.03446628642856583,0.10583215376707779,-0.11100376312011263,0.03343531373249829,-0.013901551270900885,0.11027264566299749,0.10792000832597903,-0.06655442336481361,-0.04069384284035988,0.00027479638699800775,8.707162086792736e-5,0.12740794311543074,0.024857356186056674,-0.08777180234517018,0.06671344958314196,0.08084955368821421,0.09780368828076728,0.16772871364839875],[-0.02416284591610334,0.14761069210069777,0.14488892981567483,-0.0110684765843066,0.18250220189133476,0.23876061085833805,0.05757310423200171,-0.10779630789908808,0.16735872672341615,0.1364526221982808,-0.13411397890901894,-0.04806951017600471,0.22515548589987308,0.21443973106713962,-0.0170816951391244,0.05315742512902133,-0.17334971772688604,-0.023708026142501257,0.11429435209203143,0.12839896281513166,0.03254870582861187,-0.034816208619221474,-0.1594539744666295,0.22445603912715537,-0.031480228039019106],[-0.11871013681732605,-0.046185200491571404,0.2114465949237094,0.027615037586955462,0.11238865319223665,0.09680298315127554,0.12409588100221436,-0.1047099468831013,-0.03747971982015069,-0.15647008427386033,0.03625952336288026,0.10994293608194987,0.0951921383581619,-0.05373480896881277,-0.008988478396032909,-0.12340150030694766,0.06237500780705539,-0.1275998534047158,-0.07770260137787154,-0.02441497449267002,0.173900480647403,0.003635389187943705,0.03320368243576594,-0.09477613534243798,0.018071212162949372],[-0.15537729573187542,-0.1429171754857214,-0.030742517670395958,-0.010132935999184156,-0.12355982508831109,-0.11871471895341248,-0.020278370045838368,-0.13656175086470768,0.19092450288294363,0.06064827989237496,-0.16880575488203955,-0.07612158088125409,-0.1040707568482488,-0.04748173608747757,-0.10491048132905414,0.01337315290628398,0.2050105169252095,-0.008038340051750026,0.09344907412960293,0.1951312317466766,-0.014954851140382596,0.07626926014897253,-0.040545103084233154,0.1584423168908535,0.03636146033482605],[0.2126186552029003,0.21692065584077763,-0.014432331180052447,-0.026183188206141253,-0.1394030574501987,-0.04082344966537261,-0.08478165962795205,0.07491101147576622,0.24319297432284842,-0.03657784343321187,-0.08601601535563647,0.0800714171136996,0.23540634475526367,-0.026827691090975842,0.11791274367145631,-0.11258419372172526,-0.12268602586493484,0.008841249759353444,-0.032680431123662416,-0.08728094919205533,0.10812603304576947,-0.04474553086638565,-0.03486850155032988,-0.07922489763976273,0.14604840514884254],[0.19381770340702043,0.12790930518050048,-0.023907375722062005,0.18503601114329102,0.18754812476496532,0.17178807510369437,-0.0673966721922892,0.09574705891042722,0.20588417893753902,-0.033669763858464014,-0.13072884794655032,0.09672957698691126,-0.00892455696152604,0.07581121253330886,-0.15217987586454804,-0.018338756377348754,-0.07647502537163303,0.21377996992154769,-0.07552177352364572,-0.10990808657556073,0.04068241391469388,-0.16845526321053453,-0.16906879754176557,0.1215327394600057,0.1447578289966557],[0.061851068529532156,0.09746162401020975,-0.15745784974133648,0.20117838120296103,0.1109007257762984,-0.13035273806182016,0.17141687565388605,0.035745282540515406,0.10990539128734897,0.07528971213497618,0.15472306691754883,0.013201382806149985,-0.16227582220166392,0.10355740672624589,-0.03671792960513331,0.07801969814389106,-0.16409273933027332,0.1422077230955325,0.14753524664059067,-0.1536912570417853,-0.06394405097127902,0.10165518629447022,-0.10850492194840773,-0.07989489841687095,-0.0906615193466119],[0.057910517974075884,-0.06594724955323052,-0.09933065214105147,0.00785896681256225,0.01680706202375485,-0.0942097708806645,-0.17639817632915453,0.1719406068062834,-0.018534032913850064,-0.16664032999503137,0.021004889326395246,-0.060926650492323015,-0.07911244405378733,0.06056248741737589,-0.06409620004560689,-0.12038488326215427,0.022684310925537535,-0.11363805516821324,0.02571105045122638,0.024755821175560196,0.19642983993374108,0.029943473955912008,0.155075404419323,0.23061695916587316,0.0602998344450452],[0.0014590945953125271,0.0445288731863621,-0.12390289512073088,-0.05700665283563361,0.05855726790151881,0.10900232210132986,0.058414800540981554,0.0671990487336328,0.24751845213888743,0.1422323356350102,0.10386799027933635,0.12614770794777888,-0.055730971488534266,0.1559648505646428,-0.13169065242910866,-0.092108436532535,0.13227918020886015,0.21453824828092258,-0.06701636347842956,0.2129841947013555,-0.07982478575986772,0.01542713292021185,0.10031925347990295,-0.1278446157897309,0.16046189454254126],[0.08919300915773394,0.0903142374198767,-0.1291679066788488,0.0005427348273647622,0.182986820528571,0.23989559273444166,-0.1082848154015472,-0.09821902576365035,-0.09410509655350895,0.20963589426754736,0.1403647945908599,0.1502406028812137,0.11045235354303352,-0.09376477983026886,-0.07025655409971415,0.08263207224284178,-0.05599210959101249,0.01021771486665027,0.03816193203158107,0.10623016733949152,-0.05060752161124474,-0.012148745253836992,-0.16202674939250158,0.16898795751624388,-0.14820560273757186],[0.15209110876199872,0.029404797669272873,0.1856850857698405,0.029810382187819635,-0.0043976025232957535,-0.09434516062781474,0.05092486783633978,0.08598359202835937,0.10128161392950007,0.20018139077400868,-0.06661100825482993,0.19902950932024424,0.01302894327142539,0.13395065759154018,-0.15581769640604054,0.045886853451783484,0.016253992212359108,0.18473825768512692,0.09547034131879528,-0.061667702706540393,0.13708023897502694,-0.117831028149744,0.048640828397227574,0.23511620158870505,0.023878082351124465],[-0.17039502390734118,0.20935057043754077,-0.006597314327701536,0.20670302460498483,0.12281555526744864,-0.09359033429397398,-0.12575162394495842,0.22029276962732222,0.03279739941378542,0.10454431594683894,0.14622582532639422,-0.11330883716928909,0.0238508024739368,-0.1427433841552284,-0.06134171185083773,-0.06518326407965018,0.19438715627398287,0.12592764452248714,0.18404578787433137,-0.16653469430319565,0.02945927840952549,0.20640388095476214,-0.15961949811052548,0.1004023234768004,0.11758100053171583],[0.212917859105435,0.0298446573193392,-0.02717578821191767,0.004959809903484645,-0.11476285350327502,0.15096544379176138,0.13658350514451228,0.0938009974843371,0.2171088610994457,-0.06116088692611349,-0.018974258803346522,-0.15109074611819945,0.006930395333845476,0.13023410110356531,-0.12453100493790105,-0.05740533914720084,0.10689636826353632,-0.15241816724864798,0.09580240919487804,-0.010919898441119083,-0.0609254540079716,-0.023868658111794387,-0.13241755096400612,0.039489632515711505,0.06326557462787501],[-0.09556002729999478,0.032221564867633924,-0.11547384244034471,-0.07131546796386466,0.07791486793803187,-0.1574137852345023,0.08175033180313364,-0.14956519671294843,0.16681925807570305,-0.18895151652630454,0.06488847166440177,0.21494708803311216,-0.09395494627001709,0.12651164237764292,0.11586387226087422,-0.04510226152881777,-0.1318030598725616,-0.06313311921492437,0.08337455237500353,0.034717507446039936,-0.11322613932097972,0.12536516421201008,0.12121841170211367,0.13194111524894292,0.205083168417866],[0.10620705279089743,0.13074953909283574,0.15926493652316814,0.059509774642382884,-0.1563829953271684,0.13370948855510967,-0.13969947953291603,-0.0876883854171549,0.19127384552762228,-0.06557987954962433,0.12797230097946252,0.03542773894688056,-0.0037713617072815714,0.06983710325268286,-0.11703021464883757,0.205746271652906,0.01111675890907763,0.043145515816663975,-0.02655993886733549,-0.05070705816625669,0.16153462060557067,-0.06600400522081624,-0.1110556237063113,-0.022295033198500725,0.003982639425498997],[-0.15385283175919587,0.16984348277198855,0.14172292588285665,0.017097292284536304,-0.02715656013553013,0.19297214632039905,0.10098493386765119,0.10712622747965975,0.2104598748691461,-0.06675473453760057,-0.0768358292596727,0.10043131492930868,-0.09953736386121698,-0.12982905068877904,0.15216254973354024,0.0836374197345261,0.13875074711623595,0.128159672192413,0.05847328032798996,0.1839955123981038,-0.0931018480342688,0.12303962823332616,-0.16908526877274038,0.021144106626661763,0.20516290214406943],[-0.13217917699368675,0.0140977309840193,-0.01609633865521252,0.22924555680175815,0.05914534289069113,-0.13943686282510148,-0.06751149364279821,-0.010911781000724778,-0.05750886606791891,0.08496485609630436,0.15620049303370778,0.08407811250712842,-0.13913262896490072,0.023365273729923336,0.19001844636378773,-0.16690730691939243,-0.029530330385085006,-0.06363299254165881,-0.10411717661945764,-0.16369874145815333,-0.1727110131854627,0.13468198235522827,-0.04670892384390556,0.16906911789529505,-0.0996516584149559],[0.06624814245428116,-0.022133017718188253,-0.03864120979660735,-0.06060633295187578,0.08079652898471014,0.20395088726642407,0.19133696976762235,0.06934304732764661,0.13969851455247045,0.03880059948273625,0.22241385175397946,0.08148534170275183,0.04130854969168119,0.14366704812094938,-0.11039873618953598,0.1278065951829509,0.09533420869172175,-0.056687700388303626,-0.12289894047441628,0.23602017830987046,0.0265667896582846,0.005806328978687009,0.1886177847934977,0.17229593104628216,0.08256292662104435],[-0.06987417809254573,0.0713743152788711,-0.13187219248805182,0.061614528621893726,0.09598068094027959,-0.06906937549838477,-0.08370395736601119,-0.16532868758655403,-0.11237781847981262,-0.01798836989350444,0.009658054897406895,0.21014829514175953,0.027417909623349616,0.17064044533108713,-0.15584349700183683,-0.05183654403392503,-0.017020241233880948,0.13677396566527183,0.0016984780981401464,0.01519848846129283,-0.06888432837516537,-0.11655717308851127,-0.000214468883221919,-0.09053603015092317,0.018386405866979146],[0.06938031639787576,-0.05055816837659288,0.011428773347537778,0.20753819165947746,0.005975522203366772,0.22235926659242639,0.05008413222388411,0.17671928453711178,0.05274292426603896,-0.15531011089179267,-0.07603145325058404,0.1580342327613334,0.20743272823226763,0.029043958918117577,0.1942124890123069,-0.17059633136363542,-0.020900798680021256,0.1522788287868981,0.08806052645535721,0.13915689646816512,0.058321333892014174,0.03895995360019977,0.19718888829298803,0.05998748887647423,-0.045597401968053654],[-0.13780205653432032,0.014881922306018359,0.20718352700511708,0.03636362698253508,0.08643961997698232,-0.06717506136083698,0.07844343658888257,-0.12605846068265714,0.2430640549293107,-0.15691827916484158,0.07376324084338245,-0.014765851585805973,-0.04857176983276994,0.15507305734907065,0.12850153353495417,0.012299570088955134,-0.10568190088267644,0.10711106968591845,-0.08869738799704074,-0.11502450916585998,0.11356323500817235,0.21375907837605915,0.11941541540733157,0.20911261998472622,0.08231636844256227],[-0.15822477222948653,0.058501103672536366,0.12428142221854727,-0.05106187556247883,-0.076432389604996,0.17357994771332103,-0.022665956676675633,0.20777226029159918,0.09455714922571595,0.10169545954276045,0.01588422458902411,-0.06284699568769013,-0.111186836107301,-0.046807623389884374,-0.10096247251757472,-0.10905184978072176,0.20410767232984484,-0.09797916784820762,-0.04466162953484119,0.12404401645799855,-0.17175227410509936,-0.03338575434119941,0.1883141995104457,-0.042730185272315965,0.0813783315614962]],[[-0.020843995936306443,0.13398346986481383,-0.07203966233752827,-0.00985203725162117,-0.08840600159964034,-0.0778417973092287,0.01690816265266334,0.077256584440586,0.22553591440763368,0.19385563017473723,-0.03317824330436085,-0.06343290461831776,0.12401029994869733,0.2578763350470684,0.002278222045859063,0.016549006637856394,0.3067004340346542,0.22281774470199658,0.016022915793462777,0.043711492813617234,0.014240850660553117,-0.0770347683978846,0.22963863219967123,0.24712576332108674,-0.0417981758336961],[-0.0990225226565707,-0.14094425122066115,0.2769223465044832,0.2189248701268564,0.2424361821280534,0.1654102551691059,0.056147032200120135,0.07917311663605842,0.28379674203119043,0.274019849454274,0.09352616157177408,0.26948809991084827,0.22396787111848376,0.10376274197165039,0.01539231609532786,0.044179666588164565,0.0024844495504479864,0.1841101300007475,-0.004104952607859388,0.22876483201004746,0.27098508965442264,0.24458524392944272,0.2343042953673796,0.2625883198927507,0.005807329783269879],[0.016760444047188582,-0.1449240341329007,0.02320892585625864,0.011957635113976904,0.06138451081537393,-0.0699977144703176,0.24277413700179926,0.12410324646290488,-0.08451479144979042,0.26808192724146074,0.10867903020617108,0.13546396383202805,0.05344331574973216,0.16450338113666874,0.020071163294300066,0.28452276729437487,-0.010676510381092954,0.21606540606715743,0.10708878596201603,0.14968475630615788,0.029965342353862005,0.2898599402705802,0.16200004119197417,0.07820324206033864,0.05371355381070848],[0.06280346031060713,-0.013495602097577487,-0.005560542860642823,0.0062305590490972776,0.0695039846613463,0.07596423659754044,0.22082478674933476,0.20628196148800526,0.1960242605912792,0.07150417105550891,-0.04015226191197041,0.21657608693440536,0.21222868440279177,0.04257159264710319,0.28292762912697317,0.08053440732433752,0.10083361204794164,0.22216150650557714,-0.003526286500947294,0.15438582225725514,-0.00497249743446906,0.2661136479161723,0.1343275626278385,0.26577047138787596,0.11249868023887881],[0.09396471284609696,-0.1474673097170427,0.032792166395331265,-0.08359862690985863,-0.04022162324522718,0.01999347862100777,0.12753815844397617,-0.07521944570778052,0.042130672341053714,0.12279166141186877,-0.08272108984140204,-0.0009881418976080939,0.0007244235102725805,0.151958644167479,0.30180025908755415,-0.06128986951357638,0.11563437691749082,0.25605651844178434,0.02148037359398457,-0.07115124154202172,0.039376719695664725,0.11811867903320174,0.1929066726361268,0.21313855482222116,0.08978699443065345],[0.11949644758957059,-0.0005700646929155308,0.199522082562053,0.04525719096620201,0.256840132382366,0.17929487518136153,0.11132657826633405,0.23633302450506596,0.20655760976628632,-0.023650952485868418,0.08220795443798033,-0.08953085125764614,0.1882896746868073,0.20158882123632332,0.12282356041744218,0.24383681397951615,0.2733150745410781,0.14668595887922442,0.08136297327943205,0.14052935715021925,0.20312288768086445,0.15017108127025955,0.1529778924598559,0.05193394501825863,0.21627480333661178],[0.18445379856588057,0.23375191711913085,0.08697571972090336,0.07080587164729991,0.21039373109103676,0.15684222310622883,0.13109461478556653,0.11010806409181984,-0.0566679888672486,0.07088374141918091,0.17170558686227252,0.06843984724558472,-0.07945197600552006,0.21269259497104567,-0.02960905911859762,0.15023006119944224,-0.05011066036142056,0.152806379703566,0.24010766963460173,0.046922536792601166,0.17314529227916928,0.2112098785202598,0.01521173567179,0.21464556168445084,0.022686952341944153],[0.18491269973074745,0.2090424373027994,-0.09698606223596598,0.07460841579456079,0.08347472525045818,0.18244839808316418,0.16526732704088465,0.058590346088080836,0.2887312525700439,0.06353816476131188,0.07360272715333414,0.046688479675083716,-0.0828723266574214,0.1661464304531867,0.15143272204964975,0.03981016966228211,0.041611770046028944,-0.05301000096288564,-0.11206513120632684,0.20932757992980452,0.1275353038809801,0.060195513978226686,0.20707598738150715,0.2231987314026998,-0.09437612531434408],[0.03747816070270169,0.21302652623681212,-0.03085372329340335,0.18341583324712438,0.27328835958890596,0.17966799545735745,0.2616137609182641,-0.03370462668158447,0.05407242194706131,0.1361856943579489,0.0018514679515202325,0.04050041481728008,0.028385372096804952,0.3587943992706015,0.3471513387887167,0.28223189184718617,0.3365761967582071,0.12348744454176855,0.25447617993759075,0.2233276513671235,0.1747323513240235,0.2976149201874901,0.26938295777524224,0.03249593782554705,-0.102761693875842],[-0.05364779258807253,-0.07957537997247421,0.26927024177723435,0.1726876106890922,-0.02928188665949061,0.048129904157699965,-0.030745604887858623,0.21422507057188273,0.1322523566679686,0.03110298600242225,-0.0035388058016599506,0.05831489471016639,-0.04153835184074808,-0.0828592357248058,0.13159877200125267,0.27745545237258273,-0.04457423462770826,0.10541085720960935,-0.03401395880729196,0.17924965308497787,0.03932658242073331,0.1158796015235482,-0.04708531230400439,0.07682668091218853,-0.011973874414053334],[0.13912286888296177,0.2279424159615764,0.2949174521636965,0.2495147388555303,-0.020799215452753247,0.01555485785683715,0.07681618124495658,0.23569262196036547,0.11630088301936202,0.1817561703408602,-0.008058505680626925,-0.0069208463128264605,0.16930666579120193,0.1052879435610937,0.2517005842793178,0.22340375548631616,0.03931947582648801,0.022927287924855173,-0.0884569391410131,-0.06613623511044955,0.06974523907717069,0.05210964397702031,0.008829032818422922,0.0011539984618041481,-0.01784652384338782],[0.11846356171202298,0.1185137855475819,0.04191888300164324,0.2560414693506995,0.23373965107690392,0.12112914446525556,0.007352765967504424,-0.060341167479419304,-0.06667354538369791,-0.057285190614355365,0.2301883040696885,0.17255848477705651,0.08233354665249366,0.15861406732170721,0.2111944858633348,0.19358345346995956,0.10355403084765377,0.28234568207742267,-0.07728449301346074,0.11086530920405235,-0.02094198126673961,0.287090107859216,-0.060802715397237764,-0.066006220727117,-0.04954454547309568],[0.248251516782554,0.18614879254878242,0.18809962590294696,-0.10453147317409886,0.282469143405437,-0.02274638823036686,0.04107968909887544,0.0723360405322306,0.2831421252210131,-0.043691446487021834,0.04501197591027349,0.0951373814459793,-0.05189891419526786,0.13370006447817767,0.20251036077040707,-0.01456184952108017,0.20012648568575242,0.24907914316728494,-0.03019609811003579,0.16695130048963372,0.06446600645887471,0.09045746344009097,0.20086234565121625,0.07493969541258612,0.024595795271822124],[-0.05963657908692845,-0.01265671439330782,0.19573652544499617,0.23715145609864127,0.2625466509419607,0.2556147525474781,0.11280882071276116,0.007245022763092851,0.20014616500823773,-0.014283417277027774,0.1853777536674793,0.20977380821483368,0.11578628822460242,0.22788435675211935,0.06991215953552032,0.1923767823242682,0.08222913137124457,-0.006913289872586028,-0.05249713440828214,0.13249044411582622,-0.06624891647354321,0.06560555485077992,0.09091011672811118,0.09966970210010695,-0.04300418067166484],[0.06748442217636291,-0.004518102054991214,-0.029897533521104917,0.11099144286086227,-0.02171899052015584,0.20179322554234763,-0.07887235370051875,-0.020426231738455817,0.18385173951425046,0.1575446122434666,-0.06092182059273561,0.004240625839020587,0.12346459293877073,0.12721051762477953,0.1391916271273341,0.05226877087514237,0.08126909516919682,0.12058414816202796,0.18640981802345133,0.14527682222382982,-0.027667183530928903,0.2814676349564734,0.1490926315253702,0.21574884530425098,0.16096830372721915],[0.22144756849780398,-0.005186059736451041,0.1311456836276256,0.11103035224624402,0.1266551152823961,-0.06828843452856576,0.1002088747338871,0.18622353009185091,-0.0651455418672722,0.009838972553833685,-0.05370206846738121,0.19707746317198852,0.25940443661113693,-0.03386723462999983,0.13709207306588253,0.2558389177081303,0.08712906396406495,-0.044894998173784215,0.031895705144346524,-0.08932155162958037,0.18367888519553316,0.04841343647657324,-0.03987600968649527,0.1525583084623046,-0.07828359896512824],[-0.05262415441498054,0.08962847307211527,0.013353351782071195,-0.10039049175191797,0.06143575801442325,-0.011962069687840915,0.19252382357568623,0.26431886256415643,-0.008652005121193684,0.14470255466370444,0.10026848314561243,-0.08672521354930718,0.2333335743256381,-0.01730503059023563,-0.06077852423169483,0.004889879455526277,0.1791352841596299,-0.0817662367753073,-0.07997175453060514,0.07512100567267614,0.19597233249851886,0.07289703734293669,0.09441015877160368,0.21032500730667741,0.033878668422350114],[0.26575257461265017,-0.03646844801517275,0.06884980360818173,-0.03165116736313435,-0.07168596832447129,0.24724401204141028,0.14911653882930423,0.29249057618066965,0.04899962696516172,0.12281875073375038,-0.06927531773803383,0.29021269680022166,-0.11440490794710981,0.06459581900016814,-0.08453285574163541,0.24993536306473763,0.3055183958303938,0.1729697208109139,0.2556410391677191,0.26520488961565286,-0.05152863008943792,0.22359381350697774,0.09371806386205245,0.2585801314669864,0.21669329897588796],[0.04807445662944895,0.12664428222530452,0.16545680044041366,-0.03745210968619736,0.18471348273765836,-0.03133686793069288,0.06193312344607807,0.20468715648611646,0.2710441249567752,0.1790610681158901,0.16062363645153957,0.1263560278421416,-0.10952917902334859,0.027728384471382046,-0.028589106481680768,0.027177260332136667,0.22919394107880633,0.12744755412218495,-0.05520880393591715,0.03242628875312455,-0.019131911354409212,0.18345492686086406,0.03992233672701495,0.22070269853480357,-0.09693807776349309],[0.0020156487715278465,0.07618723408890762,0.24209643880103787,-0.09098715378464371,0.24040174653089721,0.22246682457918276,0.13241887344652664,0.15491911454348925,0.11697576625715946,0.19890243347197514,-0.0551106736080547,0.22262117746576315,-0.06784130859884452,0.06542985789390136,0.1972004831226493,0.1609875029432794,0.192160267884473,0.09711649492521365,-0.06339188856957007,0.10596158586612126,0.04159476547674662,0.21324977963484315,0.11386751237037211,-0.056183023210710094,0.053539970172902455],[0.25813564190241933,-0.13985602020048224,0.04407138900930238,-0.025658909385569917,0.014916118634505808,0.13369605515148286,0.008781179282280907,0.15492172046984606,0.21440268153592215,0.12465987729534496,0.0005275362569018795,-0.011146168874495576,-0.10160008445346547,0.13065303142976561,0.006049265555624383,-0.015649512791691474,0.28908486807756023,-0.06709407688156173,-0.01387783411411121,0.185976366708541,-0.044551123533541036,-0.0885178697608762,0.17855897143503996,0.27479012635205613,0.03210008008414968],[0.016275336764627196,0.047146767722372925,-0.00867645436107281,0.05623452026580102,0.08434572768182823,0.16218483603326025,-0.05545948010975296,0.19412445620703686,0.16095563177964844,0.04281571145942348,0.03056233511506791,0.129179807568498,-0.0806147868681648,0.21852158196440988,-0.020739622777836652,-0.029652389751523345,0.3230519126740263,-0.08075411600977823,0.25228919284939566,-0.05410808479664564,-0.0031454809296044043,0.2517958053840251,0.10464137934836551,0.2843787635259479,0.16128359507828657],[0.11691191737747474,0.1907492515476936,0.06580019286584987,0.24244222754556297,-0.09667315136742875,-0.06004109884057187,-0.10948426568438603,0.24413101627895964,0.28046705534725863,-0.027385978705328363,-0.10028414862060961,0.2569690915148962,0.23078937051141352,0.25590246076443063,-0.059734488707552554,0.009095276996010548,0.28847878272723426,-0.10736450982044474,0.21633482265726428,0.14108087866932825,0.09818475213685912,-0.01090050160257039,-0.09358479717188453,0.2723324304535406,0.1596207150652569],[0.14759409178984317,0.10058112584210535,0.18957083002232258,0.13462139118105326,0.16587975065824245,0.14678988653639846,0.02572055166471488,0.20988560786930943,0.21037424582116449,0.0671878586399239,0.11223730155524854,0.01846282367749241,0.23952372898019347,0.23528596381174738,0.26007294464104425,0.1617409427306606,0.03255861117452336,0.2592171949209157,0.27086473046843973,-0.0020771698908534355,0.2827462683012712,0.2123961921147997,0.2523684464987671,0.18373015712414978,0.1833035449976076],[0.027819628860977844,0.0032489029071710585,0.31948960912799396,0.021136469530761117,0.32736005039010113,0.03225367107328945,0.07687945791112773,-0.08113091823257099,0.07765232693353549,0.13285239452796255,0.055927348187939555,0.300941985344782,0.05963816064894024,-0.022316239289592768,0.33781116961374436,0.20249836743564417,0.09162321191583038,0.20420679380762974,-0.0372775199451882,0.29914587150029703,-0.030909697316751077,-0.04158835559391661,-0.00904665405734331,0.1923599933015325,-0.07327480053882776]],[[0.20053323184462263,0.18151237196064818,0.24996081582932433,0.307836961477559,0.08707600140179596,0.08085657335997747,0.04174337696453883,0.07966973906881565,0.15113058304230342,0.3178475040008413,0.14204673659657197,0.1514218939722336,0.3454908303947117,0.10165653924400803,0.22958436596428894,0.0955483419725425,0.1304928863301387,0.29055843033240336,0.33637273758844444,0.11028911800100683,0.3842490053538184,0.12830857984228652,0.14790191905090894,0.13040505055362908,0.2547570702032952],[0.2927224194300212,0.29890062039733806,0.010155057769981133,0.0814920274342433,0.02281375739004291,-0.006002446428660879,0.11725694099461355,0.30070056867830397,0.05962605203300692,0.09242155518245118,0.1617726653082835,0.004603513216889882,0.27476235414763445,0.17681743884987636,0.014420361743259363,0.03499662930881925,0.3050367951835712,0.042387861741437285,0.1498085064109734,0.11789941567124447,0.14933811582604203,0.13699042316294888,0.10115976522491398,0.2645956524952553,0.14104024213887795],[0.1256129046972857,0.3262691280684228,0.33248945843922256,0.30962538231996384,0.2786739362255063,0.37563811201906105,0.05532897227607644,0.41474259587496587,0.12289116155308569,0.3630881422870168,0.2421854057579341,0.3408950253507804,0.029516749975231592,0.10225430060952746,0.3935035279836732,0.22173609268335548,0.14570504006101576,0.32077702167926236,0.17531636684459898,0.3398685930723849,0.2683954738014015,0.038234349532466266,0.022891298598201423,0.16573135768892797,0.22021907121942236],[0.19443924991349532,0.35644309775801264,0.3424091938848245,0.15247137968379904,0.29755956146582324,0.18351165499287445,0.04173179183979949,0.35766018642866876,0.0889356892978311,0.26470817022173476,0.21831955938291528,0.033353327066033486,0.3800267004471611,0.3811662325899672,0.1175361222392424,0.13112506042711894,0.002175961714490404,0.06140467461492168,0.17206675618328585,0.1246844760295938,0.20285103040917543,0.02734927667425399,0.1715133940283806,0.01443641715328927,0.21080084349649292],[0.14408445960638724,0.09234327685551393,0.38349860598824365,0.21900423214678102,0.22174068858951387,0.23411541237466554,0.3036637176210343,0.10532817645870075,0.09452185350582408,0.23188447485828773,0.3920142836340705,0.3887349659118732,0.16945661377343468,0.2722541819136094,0.17051077280972857,0.25244495277029494,0.3719269949988996,0.33659159308426945,0.23883933118507075,0.2289965825668249,0.041339691775298226,0.40595786439177145,0.3132655209872888,0.38599462828310604,0.2228376171260895],[0.08921595650223388,0.36835258405582677,0.23422312167832113,0.15162491711702003,0.33762755701956443,0.16724586668837324,0.015056236146726635,0.19354151987669563,0.16092985997953385,0.261707044841159,0.25659606079243824,0.07161293220807464,0.04264821284769623,0.4213122620286815,0.3395046765572023,0.036091034504750735,0.08355928077178826,0.1767491753989033,0.34858799720303857,0.3547864446712581,0.1301974053814286,0.3569644538704808,0.11366858105668151,0.038355987888485675,0.07144496226376873],[0.21057401953547905,0.18647037607369585,0.006127874541198409,0.19652843893600042,0.3828324219057549,0.2082214694032025,0.3098522913371138,0.24581800197598216,0.3073174741429738,0.0023601067425034258,0.2895180986116687,0.026272323966683556,0.2762317492401164,0.3578672621308766,0.3547654076257746,0.15840335394688745,0.12447610197020777,0.3157587794174146,0.12074652565057926,0.3249091864355126,0.016156905225162034,0.14077191568582348,0.21457847495591012,0.18665848213540184,0.14731838425646748],[0.3636726991877694,0.19091216119957222,0.08346780423528476,0.11437538812487381,0.1990881057092674,0.22005167459252245,0.13367224089555046,0.2540964844436761,0.31049735503696435,0.3202527761254794,0.4041865809189765,0.0790409886365716,0.042173939903346794,0.435562078277068,0.20903151358668054,0.17692338194388058,0.12005563782692387,0.3613494721060437,0.36544700677855946,0.10700733026609721,0.3655290047565938,0.24376722868270387,0.1466478304682488,0.2666357713456655,0.3464752835353224],[0.34821542095925484,0.206781438079817,0.05396618236652978,0.34394382241495064,0.41324471847998673,0.3384171655631657,0.20634919969832533,0.15430203242434756,0.298837107944382,0.3667777812434264,0.22833515079655067,0.15380241350513088,0.18668847396427798,0.29002220873435725,0.0856957375248209,