{"name":"","initialization_type":"xavier","training_iterations":0,"input_dimensions":{"vertical":6,"horizontal":6},"output_dimensions":{"vertical":3,"horizontal":3},"deep_layers":8,"neurons_per_layer":25,"weights":[[[-0.11606682642650876,-0.1285607593803763,0.06971252445273927,-0.038387156322027854,0.012312861461782522,0.1694829165915947,-0.028609295749435857,0.10140003556762077,0.17853649119584655,-0.042370729147898675,-0.04617323048168445,-0.16441291481321366,0.13670897652420297,0.1432275502392643,0.06554788013478341,-0.055770019562191415,-0.06862609550022905,0.019193578161013927,0.1216800426811449,0.13598469055586282,-0.0595725208959772,-0.161153627955683,-0.07043681042107942,0.10067574959928062,-0.10628896585391674],[0.022633936510629633,-0.0483460883867049,0.08329288635911705,-0.10375396496472623,0.04907037435504505,-0.1631454143686184,-0.15662684065355706,-0.005794287746721186,-0.07496359772320534,-0.1358036190637778,-0.0036214298417007415,-0.12584468699910076,-0.15427291125645157,-0.1383386199529683,-0.15282433931977127,0.07025573892899438,-0.011950718477612447,0.07387716877069511,0.03223072559113659,0.17364756090955052,-0.017020720255993483,0.0019917864129354074,0.012675004445952596,0.13888183442922342,-0.13670897652420297],[-0.025350008891905192,-0.0805768139778415,0.017020720255993483,0.09288967543962401,-0.05088108927589542,0.023901436955224894,0.057218591498871714,0.13652790503211795,-0.1481164805255603,0.13019040280914165,-0.07749859861239586,0.03331715454364682,0.10465932242515141,0.004526787302125927,-0.08546574426413749,-0.01647750577973837,-0.14033040636590371,0.12421504357033543,0.08274967188286193,0.10828075226685216,0.029514653209861044,0.0405600142270483,0.07786074159656593,-0.15861862706649246,0.07242859683401483],[-0.1798039916404418,-0.1587996985585775,-0.1406925493500738,-0.08546574426413749,-0.026617509336500447,0.16495612928946876,-0.15010826693849572,-0.055770019562191415,-0.05269180419674578,-0.03313608305156178,0.1421411212867541,-0.17183684598870017,-0.08238752889869187,-0.15481612573270667,-0.1720179174807852,0.1544539827485366,-0.05287287568883082,0.1539107682722815,-0.03313608305156178,-0.06663430908729363,-0.15662684065355706,0.02408250844730993,0.1432275502392643,0.017382863240163558,-0.10991039569561749],[0.132001117729992,0.12330968610991025,-0.0840171723274572,0.004526787302125927,-0.12602575849118577,0.007242859683401483,-0.0036214298417007415,0.14938398097015557,0.015572148319313186,-0.08311181486703201,-0.007786074159656593,-0.07297181131026995,-0.17075041703618993,-0.006337502222976298,-0.023177150986884745,-0.032773940067391705,0.04907037435504505,-0.07387716877069511,0.08800074515332801,0.13399290414292742,0.07858502756490608,0.16495612928946876,0.058486091943466975,-0.0007242859683401483,0.0995893206467704],[0.09560574782089958,-0.06373716521393304,0.16151577093985306,0.14884076649390046,0.02897143873360593,-0.038387156322027854,-0.0014485719366802965,-0.1055646798855766,-0.05884823492763705,-0.02897143873360593,0.0016296434287653334,0.13453611861918255,0.056494305530531565,-0.02028000711352415,-0.06572895162686845,0.042551800639983706,0.09922717766260032,0.10683218033017186,0.13562254757169276,-0.07116109638941957,-0.14377076471551944,-0.026617509336500447,-0.06753966654771883,0.0007242859683401483,0.10592682286974668],[-0.07822288458073601,-0.10900503823519231,0.09180324648711378,-0.020642150097694226,-0.04291394362415378,0.05595109105427645,0.12385290058616535,-0.08347395785120208,-0.03241179708322163,0.02028000711352415,0.09415717588421928,0.04816501689461986,0.07930931353324623,0.08546574426413749,-0.05196751822840563,-0.0468975164500246,0.03929251378245304,0.1539107682722815,-0.17219898897287023,0.16205898541610816,-0.10176217855179084,-0.06373716521393304,-0.06102109283265749,0.15499719722479172,0.07550681219946045],[0.07333395429444002,0.14829755201764536,-0.1495650524622406,0.01285607593803763,-0.013037147430122667,-0.16151577093985306,0.0840171723274572,-0.01358036190637778,-0.09470039036047438,0.15698898363772712,0.1524621963356012,-0.1176964698552741,-0.13363076115875736,-0.1674911301786593,0.08637110172456268,0.15318648230394136,-0.04744073092627971,0.02408250844730993,-0.13906290592130846,-0.09397610439213423,-0.034765726480327115,-0.02480679441565008,-0.02915251022569097,0.1251204010307606,0.03657644140117749],[-0.180709349100867,-0.11172111061646786,-0.007786074159656593,-0.10212432153596089,0.08383610083537216,0.10121896407553573,0.15771326960606727,-0.09506253334464446,0.13254433220624712,0.04961358883130016,-0.009053574604251853,-0.09542467632881453,-0.019193578161013927,0.04128430019538845,-0.11878289880778432,0.04617323048168445,-0.08781967366124298,-0.09180324648711378,-0.16042934198734285,0.16006719900317276,-0.08637110172456268,-0.05631323403844653,0.0820253859145218,0,0.01647750577973837],[-0.10393503645681126,0.012493932953867559,0.17219898897287023,0.1329064751904172,-0.0030782153654456304,-0.0018107149208503707,-0.04563001600542934,0.07822288458073601,-0.12457718655450549,-0.055045733593851266,-0.0776796701044809,-0.0664532375952086,0.039111442290368004,-0.09488146185255943,-0.14884076649390046,-0.06120216432474253,0.17708791925916625,-0.045992158989599415,0.10791860928268208,-0.056494305530531565,-0.10393503645681126,0.15372969678019646,0.027885009781095708,-0.004345715810040889,0.04001679975079319],[-0.0693503814685692,0.06301287924559289,-0.060658949848487416,-0.1323632607141621,-0.06609109461103853,-0.06953145296065423,0.12005039925237958,-0.13218218922207706,-0.11027253867978756,0.02897143873360593,-0.09977039213885543,0.11606682642650876,0.09614896229715468,-0.15807541259023736,-0.07369609727861008,-0.017745006224333632,-0.06518573715061333,-0.012131789969697484,0.029333581717776006,-0.018288220700588744,-0.09922717766260032,-0.15137576738309097,-0.08238752889869187,0.0903546745504335,0.18107149208503706],[0.09361396140796416,-0.05631323403844653,0.1363468335400329,-0.0210042930818643,0.17038827405201987,-0.054502519117596154,0.022452865018544595,0.06192645029308268,0.09651110528132475,0.007605002667571557,-0.0972353912496649,0.04563001600542934,-0.057218591498871714,-0.018288220700588744,0.1627832713844483,0.18107149208503706,-0.06047787835640238,-0.1348982616033526,-0.023177150986884745,-0.10972932420353246,0.07025573892899438,-0.004164644317955852,0.13471719011126757,-0.10665110883808682,0.15282433931977127],[0.04635430197376949,0.12059361372863468,0.02480679441565008,0.03856822781411289,-0.180709349100867,-0.04128430019538845,0.053053947180915856,-0.06536680864269838,0.029333581717776006,0.15155683887517601,-0.12439611506242047,0.002535000889190519,0.11932611328403943,-0.13453611861918255,-0.06627216610312356,-0.10592682286974668,0.16676684421031915,0.16531827227363885,0.12819861639620622,-0.12149897118905988,-0.12077468522071973,-0.11842075582361425,-0.08311181486703201,-0.004707858794210963,0.15644576916147201],[0.047259659434194676,0.002535000889190519,-0.08619003023247764,0.06699645207146371,-0.03802501333785778,-0.12005039925237958,-0.11534254045816861,-0.059210377911807124,0.07568788369154549,-0.13218218922207706,0.052510732704660744,0.12439611506242047,-0.03440358349615704,-0.16296434287653336,-0.127112187443696,0.10484039391723646,-0.026617509336500447,-0.14033040636590371,0.17419077538580566,-0.17002613106784978,-0.14340862173134936,-0.07876609905699113,0.17147470300453008,-0.14196004979466906,0.17165577449661512],[0.06826395251605898,-0.04074108571913334,-0.026255366352330372,0.007605002667571557,0.07442038324695023,-0.1694829165915947,-0.06029680686431734,-0.013399290414292742,-0.11353182553731823,-0.1294661168408015,-0.10918610972727734,0.11986932776029455,-0.07405824026278016,0.07369609727861008,0.09940824915468535,0.15210005335143112,-0.09651110528132475,0.023720365463139857,0.008329288635911704,-0.1352604045875227,-0.09904610617051528,0.1656804152578089,-0.049975731815470235,-0.07586895518363053,0.022271793526459558],[-0.12675004445952592,-0.09307074693170905,0.04273287213206874,-0.11081575315604268,0.11045361017187261,-0.1147993259819135,-0.06446145118227319,-0.14920290947807052,-0.00742393117548652,0.04472465854500415,0.026798580828585484,-0.01720179174807852,-0.09977039213885543,0.0650046656585283,-0.16151577093985306,-0.0018107149208503707,0.06862609550022905,-0.141597906810499,-0.07025573892899438,0.008329288635911704,0.03947358527453808,-0.07532574070737541,0.1616968424319381,0.13652790503211795,0.11570468344233868],[0.10864289525102223,0.1651372007815538,-0.007605002667571557,-0.1167911123948489,-0.12638790147535586,-0.01593429130348326,0.057761805975126826,0.0483460883867049,-0.1626021998923633,0.11787754134735913,-0.1338118326508424,0.12729325893578106,-0.01792607771641867,0.17238006046495527,-0.03929251378245304,-0.17618256179874106,-0.11389396852148831,0.055045733593851266,0.023358222478969782,0.10864289525102223,-0.11516146896608358,0.13906290592130846,-0.050700017783810385,-0.13109576026956682,0.04418144406874904],[-0.11407504001357335,0.08691431620081778,-0.17020720255993482,0.14485719366802965,0.1689397021153396,0.1568079121456421,0.009958932064677038,-0.10936718121936238,0.06609109461103853,-0.061383235816827565,0.012675004445952596,0.14377076471551944,0.060115735372232304,0.11298861106106313,-0.09017360305834846,-0.03784394184577274,0.10647003734600179,0.13598469055586282,-0.09633003378923972,-0.015753219811398222,-0.16205898541610816,0.003440358349615704,0.15916184154274757,-0.12023147074446461,-0.005070001778381038],[0.12620682998327082,0.15137576738309097,-0.031144296638626372,-0.1607914849715129,-0.051786446736320595,-0.07116109638941957,0.17672577627499617,-0.0713421678815046,-0.02480679441565008,-0.029876796194031118,-0.15137576738309097,0.021185364573949338,-0.018650363684758815,0.08220645740660683,-0.1656804152578089,-0.022452865018544595,-0.16930184509950966,-0.10176217855179084,-0.16966398808367975,-0.011226432509272298,-0.09633003378923972,-0.141778978302584,-0.09904610617051528,0.036938584385347556,0.08311181486703201],[0.15372969678019646,-0.027885009781095708,0.018650363684758815,-0.132001117729992,0.09343288991587913,0.11986932776029455,-0.007786074159656593,0.10719432331434194,-0.07550681219946045,0.025168937399820155,-0.17219898897287023,-0.10194325004387586,0.10140003556762077,-0.05232966121257571,0.14739219455722016,-0.07188538235775972,0.03512786946449719,-0.1749150613541458,0.0023539293971054816,0.0845603868037123,0.0027160723812755558,-0.14829755201764536,0.054502519117596154,0.17382863240163557,-0.11661004090276388],[-0.047259659434194676,0.16296434287653336,0.04490573003708919,-0.04363822959249393,-0.1539107682722815,0.10647003734600179,0.0679018095318889,0.07568788369154549,0.03929251378245304,0.13888183442922342,0.020823221589779263,0.09651110528132475,0.15028933843058076,0.02697965232067052,-0.023177150986884745,0.08293074337494698,-0.12240432864948506,-0.0908978890266886,-0.18016613462461187,-0.009958932064677038,-0.09198431797919883,-0.04363822959249393,-0.07061788191316445,-0.04563001600542934,0.1553593402089618],[-0.0923464609633689,-0.0005432144762551112,0.039654656766623116,-0.002535000889190519,-0.17600149030665602,0.09126003201085868,0.05866716343555201,-0.016296434287653334,-0.04309501511623882,-0.17509613284623082,-0.1763636332908261,-0.062288593277252745,-0.1680343446549144,0.17020720255993482,0.10321075048847111,0.0981407487100901,-0.09995146363094047,0.08673324470873275,0.06753966654771883,0.08872503112166816,0.030420010670286227,-0.05939144940389216,0.040378942734963265,0.10484039391723646,0.1459436226205399],[0.044000372576664004,-0.09560574782089958,-0.10538360839349156,-0.0937950329000492,-0.03440358349615704,-0.036033226924922376,-0.10484039391723646,-0.11154003912438283,0.14051147785798876,0.1631454143686184,-0.010683218033017186,-0.08818181664541305,0.062107521785167714,0.13254433220624712,-0.03856822781411289,0.15861862706649246,-0.11932611328403943,0.051786446736320595,0.11461825448982846,0.10610789436183171,0.1406925493500738,0.1607914849715129,0.12294754312574017,0.1455814796363698,-0.011588575493442372],[-0.17111256002036002,0.10791860928268208,-0.1314579032537369,-0.09687324826549483,-0.039654656766623116,-0.021185364573949338,-0.012131789969697484,0.04291394362415378,-0.07315288280235498,0.03023893917820119,-0.17020720255993482,0.141597906810499,0.14829755201764536,-0.12059361372863468,-0.07442038324695023,0.011226432509272298,-0.05214858972049067,0.04019787124287823,0.1578943410981523,-0.09470039036047438,-0.02046107860560919,-0.09307074693170905,-0.0995893206467704,-0.08293074337494698,0.045267873021259265],[-0.13127683176165186,-0.09542467632881453,0.08238752889869187,0.08492252978788238,0.10683218033017186,-0.1352604045875227,0.17509613284623082,-0.146486837096795,-0.14033040636590371,0.07460145473903526,-0.10031360661511055,-0.05214858972049067,0.1475732660493052,0.0019917864129354074,0.17799327671959142,-0.16151577093985306,0.003440358349615704,-0.1444950506838596,-0.12910397385663142,0.05794287746721186,-0.14033040636590371,0.1323632607141621,-0.07532574070737541,0.16694791570240416,-0.006156430730891261],[0.10212432153596089,0.02426357993939497,0.02571215187607526,-0.09126003201085868,0.06699645207146371,-0.13743326249254312,-0.05794287746721186,-0.10628896585391674,0.11570468344233868,0.042370729147898675,0.1481164805255603,-0.03331715454364682,-0.060115735372232304,0.06120216432474253,0.09651110528132475,-0.0030782153654456304,0.16767220167074431,0.14250326427092416,0.1783554197037615,-0.17944184865627172,-0.08673324470873275,-0.008329288635911704,-0.11244539658480801,0.0811200284540966,-0.11588575493442373],[0.1631454143686184,-0.11805861283944417,-0.08039574248575646,0.0894493170900083,-0.1251204010307606,-0.13815754846088327,0.14721112306513512,-0.16821541614699945,-0.01050214654093215,-0.16622362973406402,0.08872503112166816,0.017382863240163558,-0.12095575671280476,-0.047259659434194676,-0.036214298417007414,-0.1285607593803763,0.034041440511986966,-0.06591002311895348,-0.10248646452013097,0.17672577627499617,0.10719432331434194,-0.07098002489733453,-0.09614896229715468,0.022633936510629633,-0.09252753245545393],[0.11950718477612447,-0.1406925493500738,-0.13109576026956682,-0.030420010670286227,0.13996826338173365,0.05160537524423556,0.012675004445952596,-0.13598469055586282,0.01050214654093215,0.024987865907735118,0.12385290058616535,-0.028247152765265782,-0.1665857727182341,-0.11842075582361425,-0.15137576738309097,0.07605002667571556,0.06971252445273927,0.009234646096336889,-0.1280175449041212,-0.1196882562682095,0.1294661168408015,0.025350008891905192,-0.13326861817458727,0.15354862528811142,-0.17582041881457097],[-0.10375396496472623,0.09687324826549483,0.18107149208503706,-0.012312861461782522,0.17962292014835676,-0.06428037969018816,0.03313608305156178,-0.030057867686116152,0.04345715810040889,0.15318648230394136,-0.025350008891905192,0.13960612039756357,0.02353929397105482,0.1763636332908261,0.06047787835640238,0.17419077538580566,0.1504704099226658,-0.07822288458073601,-0.1455814796363698,-0.14775433754139022,0.15626469766938697,0.09705431975757987,-0.13761433398462816,0.05685644851470164,-0.0021728579050204447],[0.0014485719366802965,0.09470039036047438,-0.1461246941126249,-0.01050214654093215,-0.1444950506838596,-0.040378942734963265,-0.009415717588421926,0.01665857727182341,-0.11262646807689305,-0.10592682286974668,-0.12041254223654965,-0.037662870353687705,0.09886503467843025,-0.056494305530531565,-0.06029680686431734,0.06808288102397393,-0.141778978302584,0.055045733593851266,0.1524621963356012,0.06120216432474253,0.03947358527453808,0.15065148141475082,0.015028933843058076,-0.1597050560190027,0.1421411212867541],[-0.01901250666892889,-0.1392439774133935,-0.14087362084215885,0.16006719900317276,-0.07586895518363053,-0.008872503112166816,-0.05631323403844653,0.05033787479964031,0.02897143873360593,0.11099682464812771,0.09542467632881453,-0.02046107860560919,0.13037147430122667,0.1524621963356012,0.11280753956897809,-0.11443718299774343,-0.03802501333785778,0.02697965232067052,0.03530894095658223,0.1510136243989209,0.10194325004387586,-0.15427291125645157,0.0776796701044809,-0.11154003912438283,-0.1001325351230255],[-0.14250326427092416,-0.15499719722479172,-0.0016296434287653334,0.017020720255993483,-0.07749859861239586,0.03512786946449719,-0.15210005335143112,0.10140003556762077,-0.03585215543283734,0.10484039391723646,-0.13254433220624712,-0.020642150097694226,0.1240339720782504,0.10248646452013097,-0.13308754668250225,0.08908717410583823,-0.06283180775350786,-0.059934663880147274,-0.1740097038937206,0.04363822959249393,-0.07695538413614075,-0.1544539827485366,-0.015210005335143113,-0.13906290592130846,-0.10900503823519231],[-0.08655217321664771,-0.0811200284540966,0.16767220167074431,-0.07460145473903526,0.10339182198055616,-0.12638790147535586,0.07351502578652505,-0.16296434287653336,0.1694829165915947,-0.0776796701044809,-0.12837968788829127,-0.021728579050204446,0.14847862350973037,-0.0021728579050204447,-0.05540787657802134,-0.04001679975079319,-0.16767220167074431,-0.028609295749435857,0.08311181486703201,-0.1450382651601147,-0.11733432687110402,-0.10737539480642697,-0.08763860216915793,-0.1665857727182341,-0.05884823492763705],[0.04019787124287823,-0.020098935621439114,0.09451931886838935,0.17563934732248596,0.04907037435504505,0.15554041170104682,0.017563934732248595,0.0664532375952086,-0.1426843357630092,-0.03259286857530667,-0.06717752356354875,-0.045267873021259265,-0.1510136243989209,-0.01104536101718726,-0.13598469055586282,0.10538360839349156,0.061383235816827565,-0.0307821536544563,0.057218591498871714,-0.05287287568883082,-0.0860089587403926,-0.12349075760199528,0.17111256002036002,0.068445024008144,0.1372521910004581],[0.06084002134057245,-0.024625722923565043,0.13453611861918255,0.059210377911807124,-0.0483460883867049,0.14847862350973037,-0.031325368130711406,-0.16875863062325455,-0.1432275502392643,0.0903546745504335,-0.14431397919177455,0.17563934732248596,-0.05323501867300089,0.06536680864269838,0.15771326960606727,0.12729325893578106,-0.06482359416644326,-0.0805768139778415,-0.1387007629371384,0.12530147252284562,-0.11226432509272298,0.03585215543283734,-0.16821541614699945,-0.06699645207146371,0.07532574070737541],[-0.005794287746721186,0.05703752000678668,-0.10683218033017186,0.01665857727182341,-0.16061041347942787,0.026798580828585484,-0.0776796701044809,0.08999253156626343,0.026255366352330372,0.11751539836318906,-0.11932611328403943,0.1607914849715129,-0.10991039569561749,0.042370729147898675,0.11063468166395764,0.01285607593803763,0.06319395073767793,0.056494305530531565,0.036938584385347556,-0.12204218566531498,0.018288220700588744,-0.09633003378923972,-0.1720179174807852,-0.068445024008144,0.018650363684758815]],[[0.1734,-0.1988,0.1646,-0.1768,-0.0222,-0.1412,0.18100000000000002,-0.0878,0.1398,0.1048,-0.17120000000000002,0.0708,-0.083,-0.1926,0.06999999999999999,-0.07640000000000001,-0.1254,0.013800000000000002,-0.11359999999999999,0.031,-0.0838,-0.0818,-0.10460000000000001,0.049800000000000004,-0.0328],[-0.0422,0.1564,-0.1472,0.1678,-0.10540000000000001,0.19,-0.1544,0.028399999999999998,-0.15860000000000002,0.19820000000000002,-0.07540000000000001,-0.0434,-0.0046,-0.1462,0.06420000000000001,-0.10220000000000001,-0.0222,0.12840000000000001,-0.1222,0.0514,0.12,-0.0104,0.0564,-0.032600000000000004,0.1166],[0.0596,-0.1904,-0.1904,0.10540000000000001,0.055200000000000006,-0.1654,0.0494,0.0902,-0.1184,0.10920000000000002,0.1626,-0.098,-0.0696,-0.024800000000000003,-0.068,-0.0484,0.020200000000000003,-0.12660000000000002,-0.0888,0.18600000000000003,-0.1268,-0.042,0.1718,-0.0696,0.1196],[-0.11120000000000002,-0.098,0,0.0024000000000000002,0.16040000000000001,-0.09360000000000002,0.15900000000000003,-0.1674,0.1028,-0.0024000000000000002,0.07800000000000001,-0.0822,-0.1506,-0.13540000000000002,-0.17620000000000002,-0.04020000000000001,0.1186,-0.046000000000000006,0.040400000000000005,-0.168,0.137,-0.1644,-0.1208,-0.097,-0.1376],[0.1392,-0.046400000000000004,-0.0942,-0.034999999999999996,-0.11000000000000001,-0.009600000000000001,0.16180000000000003,0.17500000000000002,-0.17520000000000002,-0.17700000000000002,-0.06860000000000001,-0.0218,-0.062200000000000005,0.008,0.0344,0.022600000000000002,0.17980000000000002,-0.06580000000000001,-0.09920000000000001,0.03900000000000001,0.10400000000000001,-0.0414,-0.19820000000000002,-0.0782,0.1628],[0.0534,-0.012400000000000001,0.1896,-0.0218,0.0634,0.1892,-0.0874,-0.07600000000000001,-0.18100000000000002,0.062400000000000004,-0.0864,0.1282,0.13540000000000002,-0.1654,-0.0304,-0.1078,-0.1474,0.08020000000000001,-0.147,-0.0296,0.12,-0.125,0.0246,0.125,0.0466],[-0.059,0.18520000000000003,0.1886,0.019000000000000003,0.047,-0.1152,0.037,0.13640000000000002,0.07500000000000001,0.0882,-0.16000000000000003,0.0848,0.1574,0.06820000000000001,-0.013800000000000002,-0.0902,0.084,0.056799999999999996,-0.1626,-0.1638,0.0174,-0.1338,0.1716,0.0598,0.119],[-0.065,0.09820000000000001,0.13740000000000002,-0.1942,-0.1472,-0.0966,-0.0714,0.1446,-0.0938,0.07640000000000001,-0.1958,-0.0596,-0.0252,-0.060200000000000004,-0.0318,0.10620000000000002,0.0176,-0.0614,-0.038200000000000005,0.169,0.026600000000000002,0.0102,-0.128,0.08100000000000002,0.148],[-0.1414,0.0714,-0.08760000000000001,0.002,0.06720000000000001,0.046000000000000006,-0.013800000000000002,-0.028399999999999998,0.001,0.0208,0.12,0.027400000000000004,0.1384,0.0514,-0.18580000000000002,-0.1398,-0.09240000000000001,-0.0576,-0.1716,-0.0732,0.0166,0.15600000000000003,-0.13060000000000002,-0.1308,-0.0828],[0.18000000000000002,-0.10960000000000002,0.1174,-0.123,-0.0922,0.0966,-0.17200000000000001,-0.1526,0.0378,0.1806,0.033,0.0106,0.0604,0.054400000000000004,-0.11020000000000002,0.0364,-0.1926,0.0786,0.0414,-0.16160000000000002,-0.1196,-0.033800000000000004,0.0822,-0.0514,0.041],[0.08900000000000001,-0.062200000000000005,-0.17200000000000001,-0.19,-0.1272,0.189,-0.1622,0.0094,0.1912,0.1764,-0.1492,0.1028,-0.056799999999999996,0.06380000000000001,-0.17020000000000002,-0.0318,0.057999999999999996,0.16240000000000002,-0.0634,-0.05500000000000001,-0.18460000000000001,0.1416,0.0304,-0.0488,0.1892],[0.13720000000000002,-0.031200000000000002,0.169,-0.031200000000000002,0.011000000000000001,-0.09160000000000001,0.0172,0.0052,-0.012,-0.1048,-0.0154,-0.18520000000000003,-0.1472,0.07980000000000001,-0.0666,-0.040400000000000005,-0.0024000000000000002,-0.09340000000000001,0.0108,0.0332,-0.17820000000000003,0.15780000000000002,0.019200000000000002,-0.17720000000000002,0.1826],[0.1134,0.0424,-0.026400000000000003,0.05600000000000001,0.08960000000000001,-0.022600000000000002,-0.129,0.1396,-0.084,0.17700000000000002,0.1342,-0.1836,-0.1658,-0.011200000000000002,0.08600000000000001,0.1878,0.026400000000000003,-0.06520000000000001,0.0578,-0.2,-0.1436,-0.0712,0.007000000000000001,0.0822,0.1392],[-0.12940000000000002,-0.10760000000000002,0.020000000000000004,0.09140000000000001,0.0172,-0.1642,-0.1154,-0.1048,0.1892,0.1728,0.1464,0.1932,0.168,0.1168,-0.0454,0.0014000000000000002,0.1216,0.122,-0.16040000000000001,0.0434,0.11399999999999999,-0.0174,-0.0388,-0.0752,0.199],[0.026000000000000002,-0.0742,0.1058,-0.0782,0.0858,0.13799999999999998,0.040600000000000004,-0.03,-0.1938,-0.05560000000000001,0.1904,0.05620000000000001,-0.1024,0.0204,0.13660000000000003,0.025,-0.0594,-0.188,-0.07600000000000001,-0.0356,0.1232,0.0654,-0.1312,0.1776,0.1198],[-0.1998,0.1318,0.0704,-0.0038,-0.10200000000000001,-0.1888,0.1978,-0.09360000000000002,0.0028000000000000004,0.1426,0.07680000000000001,0.1414,0.0488,-0.1756,-0.048,0.16100000000000003,-0.068,0.0198,0.1894,0.049600000000000005,-0.14880000000000002,-0.13340000000000002,0.1774,0.056799999999999996,-0.0908],[-0.0898,0.10980000000000001,0.0618,0.1516,0.0072,0.0878,0.132,-0.1134,-0.0696,0.019200000000000002,-0.013400000000000002,-0.10020000000000001,-0.1378,-0.15880000000000002,-0.17820000000000003,-0.1864,-0.13,0.0296,0.0712,0.07600000000000001,0.17800000000000002,-0.027200000000000002,0.18580000000000002,0.1622,-0.0218],[0.18480000000000002,-0.0932,-0.09260000000000002,-0.03,-0.0636,-0.13740000000000002,0.0078000000000000005,-0.16000000000000003,0.11000000000000001,-0.0732,-0.1626,-0.040400000000000005,0.0064,0.12860000000000002,0.1414,-0.045000000000000005,0.0694,0.006600000000000001,0.0574,0.084,-0.18580000000000002,0.06999999999999999,0.0708,0.046000000000000006,-0.147],[-0.10260000000000001,0.1998,-0.10020000000000001,-0.136,-0.0796,0.07800000000000001,0.18600000000000003,-0.101,0.0184,-0.191,-0.059,0.1918,0.07680000000000001,0.048,0.04020000000000001,0.0102,0.15660000000000002,-0.1736,0.057999999999999996,-0.19940000000000002,-0.10900000000000001,-0.1638,0.19840000000000002,0.1464,0.013400000000000002],[0.18420000000000003,-0.1996,0.09820000000000001,-0.0078000000000000005,0.08800000000000001,0.048600000000000004,0.17620000000000002,0.124,0.0942,0.18220000000000003,-0.1514,0.050800000000000005,-0.0476,0.17920000000000003,0.1512,-0.0824,0.0704,0.0718,-0.05360000000000001,0.19840000000000002,-0.0574,-0.11259999999999999,-0.0086,-0.1834,-0.1932],[-0.019600000000000003,-0.1564,0.17220000000000002,-0.17700000000000002,0.0172,0.0776,0.0216,0.027600000000000003,0.042,0.10060000000000001,0.17400000000000002,-0.11359999999999999,0.0094,0.0126,-0.019000000000000003,0.1706,-0.1058,0.10860000000000002,0.0738,-0.08860000000000001,0.124,0.0534,-0.1196,-0.1476,-0.071],[-0.1418,0.1524,0.0674,0.1958,0.1646,-0.122,-0.071,0.198,0.0966,0.07780000000000001,-0.1996,-0.129,-0.0434,-0.15760000000000002,-0.118,-0.17800000000000002,0.0256,-0.1236,0.098,-0.17020000000000002,-0.10840000000000001,-0.0712,-0.073,0.0994,-0.09360000000000002],[0.0316,0.1142,0.0998,-0.0848,0.098,0.0586,0.0222,0.095,0.17720000000000002,0.1786,-0.0746,-0.0444,0.0618,0.0792,0.097,0.15680000000000002,-0.0024000000000000002,-0.15280000000000002,0.17980000000000002,-0.19240000000000002,-0.1958,0.1384,-0.1906,0.0698,0.1532],[-0.0968,0.18520000000000003,0.1622,0.08960000000000001,0.10300000000000001,-0.09360000000000002,0.046000000000000006,-0.11080000000000001,0.065,0.0414,0.1436,-0.16000000000000003,-0.05560000000000001,-0.0408,-0.0068000000000000005,-0.1404,0.1252,0.1654,-0.1998,0.0332,-0.021400000000000002,0.026400000000000003,-0.0578,0.1184,0.0792],[0.0838,0.1312,0.1192,0.1302,-0.0728,-0.040600000000000004,-0.008400000000000001,0.128,-0.16200000000000003,-0.1888,-0.1018,-0.1532,-0.13,0.169,-0.1486,-0.05620000000000001,-0.047,0.036,-0.10840000000000001,0.17880000000000001,-0.1996,-0.0708,-0.17900000000000002,-0.1522,0.051800000000000006]],[[-0.1156,0.0734,0.193,-0.19540000000000002,0.1708,-0.1192,0.0048000000000000004,-0.167,0.1404,0.17200000000000001,-0.049600000000000005,-0.0144,-0.1152,0.1418,-0.10360000000000001,-0.08860000000000001,-0.15000000000000002,-0.1902,-0.0944,-0.197,-0.0714,-0.041,-0.1158,-0.0102,-0.15500000000000003],[-0.15080000000000002,0.15280000000000002,-0.0832,0.0374,0.0828,0.0688,0.0932,-0.07780000000000001,0.037,-0.11259999999999999,0.061,-0.0862,0.12860000000000002,0.133,-0.0614,-0.041,0.1636,-0.10980000000000001,-0.1656,-0.13260000000000002,-0.14980000000000002,0.0772,-0.032600000000000004,0.1642,-0.0494],[-0.059,0.10360000000000001,0.16160000000000002,-0.12940000000000002,0.1482,-0.1714,0.1408,0.1282,0.0434,0.0182,0.1378,-0.061200000000000004,-0.1512,0.17920000000000003,-0.013800000000000002,0.15360000000000001,-0.094,0.061200000000000004,-0.1898,0.1292,0.18220000000000003,0.0806,-0.1132,0.0782,-0.0576],[0.1038,0.1572,-0.149,0.1922,0.1766,-0.098,0.12960000000000002,0.11220000000000002,-0.167,-0.1706,-0.0076,0.0514,0.18380000000000002,0.019200000000000002,0.1252,-0.0358,-0.044800000000000006,0.05500000000000001,-0.1282,0.0246,-0.1708,0.16240000000000002,0.05560000000000001,-0.027200000000000002,-0.04680000000000001],[0.09100000000000001,-0.025800000000000003,0.15200000000000002,0.10860000000000002,-0.013600000000000001,0.0178,-0.09860000000000001,-0.15600000000000003,-0.019000000000000003,-0.07780000000000001,0.17200000000000001,0.0398,0.1634,0.1132,0.06760000000000001,0.0036,0.027400000000000004,0.1902,-0.0092,0.1656,0.1552,-0.0182,0.13360000000000002,-0.1724,0.03],[-0.0178,-0.1794,0.08860000000000001,-0.0816,-0.065,0.0908,-0.1044,-0.0344,-0.1208,0.134,-0.10520000000000002,-0.0994,0.08900000000000001,-0.0572,-0.046200000000000005,0.10020000000000001,-0.1936,-0.0728,0.026400000000000003,0.0838,-0.12840000000000001,0.0816,-0.10980000000000001,-0.1466,0.0608],[0.12340000000000001,0.1182,0.1174,0.15860000000000002,0.1738,0.071,0.0874,0.1768,-0.1038,-0.023200000000000002,0.08020000000000001,0.11599999999999999,0.1878,-0.191,-0.0078000000000000005,0.11040000000000001,-0.196,0.13,0.063,-0.17700000000000002,0.0636,-0.0714,0.013400000000000002,-0.013200000000000002,-0.0832],[-0.1544,-0.19440000000000002,-0.11120000000000002,0.06380000000000001,0.1428,0.1668,0.15480000000000002,-0.09000000000000001,-0.12440000000000001,0.1908,0.025800000000000003,-0.1658,0.1434,0.0908,0.06760000000000001,-0.15480000000000002,0.082,0.0632,-0.0594,-0.188,-0.0092,0.0436,-0.0002,0.1656,-0.141],[-0.12,0.13040000000000002,0.10460000000000001,0.1274,-0.07800000000000001,-0.10220000000000001,0.0166,-0.0964,0.0482,0.1174,0.1462,0.1794,0.0176,0.1162,-0.17520000000000002,-0.072,-0.018,0.08000000000000002,0.09160000000000001,0.1882,0.16040000000000001,0.0718,0.1424,-0.0978,-0.0742],[-0.0018,-0.013000000000000001,0.013200000000000002,0.021,-0.0494,0.16720000000000002,-0.19840000000000002,-0.16920000000000002,0.0174,0.10540000000000001,0.0002,-0.074,0.1288,0.0072,0.0582,-0.0364,0.18600000000000003,-0.11200000000000002,0.1138,0.1706,0.0106,0.10560000000000001,0.1132,0.1,-0.14980000000000002],[0.06280000000000001,0.1138,-0.164,0.0712,0.04000000000000001,0.18700000000000003,-0.05620000000000001,0.143,0.1904,0.006600000000000001,0.1932,0.1198,0.18500000000000003,-0.06620000000000001,-0.12440000000000001,0.0484,-0.10520000000000002,-0.049600000000000005,-0.013000000000000001,0.17620000000000002,0.19440000000000002,-0.1312,0.0296,-0.098,0.042800000000000005],[-0.0094,-0.05620000000000001,0.17020000000000002,-0.16180000000000003,0.042800000000000005,-0.13520000000000001,-0.09960000000000001,0.0302,-0.04580000000000001,-0.1884,0.0148,-0.066,0.023400000000000004,0.014000000000000002,0.0692,-0.0172,-0.1652,-0.127,-0.0852,0.0978,-0.1506,-0.04580000000000001,0.0174,0.0712,-0.0978],[0.0908,-0.099,-0.083,0.039400000000000004,0.10020000000000001,0.144,0.11699999999999999,-0.10160000000000001,-0.003,0.0604,0.18400000000000002,0.09360000000000002,-0.1696,0.19940000000000002,0.11020000000000002,-0.1448,0.0994,-0.10260000000000001,-0.0594,0.145,0.11060000000000002,0.10160000000000001,-0.006,0.0596,0.0574],[0.1552,0.08080000000000001,-0.132,0.0618,0.1496,-0.18480000000000002,0.17220000000000002,0.15880000000000002,0.0414,-0.09720000000000001,0.18280000000000002,-0.027200000000000002,0.0738,0.10200000000000001,0.1804,-0.1656,0.16140000000000002,0.0704,0.17200000000000001,-0.0204,-0.18120000000000003,0.11299999999999999,0.11100000000000002,0.071,0.1396],[0.1192,-0.1018,0.1454,-0.1484,0.025,0.18720000000000003,0.0436,0.1394,-0.0868,-0.07600000000000001,0.045200000000000004,0.015,-0.10520000000000002,0.19920000000000002,-0.1368,0.09920000000000001,0.0328,-0.10640000000000001,0.05480000000000001,-0.034,-0.08960000000000001,0.031400000000000004,0.15780000000000002,0.11160000000000002,0.1342],[0.06760000000000001,0.0456,-0.046000000000000006,0.07540000000000001,0.18520000000000003,0.194,-0.12380000000000001,-0.06520000000000001,-0.1048,-0.0724,-0.10320000000000001,0.12440000000000001,-0.10720000000000002,-0.0704,0.1194,-0.1884,0.1434,0.17820000000000003,0.19,-0.1656,0.1446,-0.0228,-0.0354,0.0262,-0.0442],[0.1582,0.05160000000000001,-0.0242,-0.0852,0.04020000000000001,-0.16180000000000003,0.0308,0.18620000000000003,0.033400000000000006,0.1542,0.1222,-0.08120000000000001,-0.1826,0.11060000000000002,-0.1524,0.12380000000000001,0.031400000000000004,-0.1674,0.014199999999999999,-0.0362,0.1174,0.0674,0.1756,-0.0656,0.19820000000000002],[0.0074,0.018600000000000002,0.0854,0.1226,-0.15280000000000002,-0.11020000000000002,0.1332,-0.0954,-0.192,-0.0298,0.028000000000000004,0.038400000000000004,0.038000000000000006,-0.132,-0.027600000000000003,0.013200000000000002,0.09920000000000001,0.0718,-0.10400000000000001,-0.027800000000000005,-0.1652,0.0758,-0.0058000000000000005,-0.012400000000000001,-0.0666],[0.1706,0.1834,-0.198,0.1228,-0.032,0.0666,-0.026000000000000002,0.19440000000000002,-0.054000000000000006,-0.1242,0.15960000000000002,-0.018600000000000002,0.1446,0.10300000000000001,-0.1246,-0.0354,-0.166,-0.10620000000000002,-0.10460000000000001,0.008400000000000001,-0.119,0.040400000000000005,0.016200000000000003,0.1656,-0.1676],[0.096,0.028000000000000004,0.0772,0.1574,0.003,0.0488,-0.1786,0.13140000000000002,0.1968,0.0918,0.0478,-0.1844,0.04580000000000001,-0.083,-0.04680000000000001,-0.037200000000000004,-0.0436,0.0588,-0.0198,-0.0012000000000000001,-0.1956,0.0246,-0.022400000000000003,0.12480000000000001,-0.062200000000000005],[-0.18620000000000003,-0.1996,0.028399999999999998,0.0244,0.009,0.15380000000000002,-0.15560000000000002,0.12660000000000002,-0.09340000000000001,-0.194,0.013400000000000002,0.043000000000000003,0.13540000000000002,-0.0594,-0.1298,-0.17920000000000003,0.19140000000000001,-0.08040000000000001,0.0974,0.08660000000000001,0.0088,0.13260000000000002,-0.026000000000000002,-0.1936,0.06480000000000001],[0.0572,0.023000000000000003,0.15600000000000003,0.009600000000000001,-0.036,-0.1014,0.1358,-0.0198,-0.1134,-0.0758,0.022600000000000002,0.1258,-0.1708,0.006,-0.16820000000000002,-0.1208,0.0726,0.0572,-0.041,0.1956,0.18100000000000002,0.0912,-0.06420000000000001,-0.1634,0.020000000000000004],[-0.016800000000000002,0.09720000000000001,-0.06999999999999999,-0.1202,0.08660000000000001,0.1438,-0.0504,0.0122,-0.1456,0.171,0.059,0.053000000000000005,0.17320000000000002,0.0316,-0.1912,-0.128,0.026600000000000002,0.1288,0.0888,-0.0368,0.1458,0.0572,-0.15500000000000003,0.054200000000000005,-0.09920000000000001],[-0.098,0.1952,0.11140000000000001,0.0636,-0.1202,-0.0762,0.09920000000000001,0.07900000000000001,-0.1194,-0.0592,-0.0696,0.18000000000000002,0.1442,0.05260000000000001,0.0644,0.0888,-0.0592,-0.18680000000000002,0.041800000000000004,-0.0378,-0.18580000000000002,0.037200000000000004,-0.064,-0.0842,0.027600000000000003],[0.0766,0.06380000000000001,-0.09820000000000001,-0.1622,0.12840000000000001,-0.046200000000000005,0.05580000000000001,0.1186,-0.065,0.132,-0.0776,-0.1514,0.07640000000000001,-0.18200000000000002,0.0586,0.048600000000000004,0.03,-0.1776,0.12240000000000001,-0.17700000000000002,0.039200000000000006,0.0776,0.0006000000000000001,0.022400000000000003,0.0792]],[[0.0772,0.0594,-0.07600000000000001,-0.1784,0.048600000000000004,0.1342,-0.1414,-0.11399999999999999,-0.060200000000000004,-0.08040000000000001,0.0456,0.1714,0.15100000000000002,-0.12560000000000002,0.1632,0.1202,0.0308,0.006,-0.10920000000000002,0.18580000000000002,0.0262,-0.056799999999999996,-0.1348,-0.1844,0.0194],[-0.014000000000000002,0.0228,-0.0236,-0.0634,-0.13560000000000003,0.1882,-0.0244,-0.0598,-0.10740000000000001,-0.0582,-0.08560000000000001,-0.0466,-0.15360000000000001,0.1514,0.10460000000000001,-0.145,0.0292,0.084,-0.0206,0.142,0.06380000000000001,-0.0684,0.15580000000000002,0.1158,-0.1718],[0.005000000000000001,0.038000000000000006,-0.06820000000000001,-0.17120000000000002,-0.0868,-0.18080000000000002,0.12440000000000001,0.0908,0.0444,0.15400000000000003,-0.011200000000000002,0.08760000000000001,-0.15100000000000002,-0.07840000000000001,0.0828,0.0786,0.1876,-0.136,0.15380000000000002,0.0474,-0.1854,0.037,-0.002,0.0446,0.0522],[-0.1332,-0.032,-0.0742,-0.0584,0.0344,-0.0862,-0.024,-0.1268,-0.18720000000000003,-0.19440000000000002,0.10320000000000001,0.0964,-0.062200000000000005,-0.09200000000000001,-0.054200000000000005,0.10160000000000001,-0.19740000000000002,0.07840000000000001,-0.16080000000000003,0.0282,-0.0734,0.10660000000000001,-0.05380000000000001,-0.1932,-0.1784],[-0.08460000000000001,0.084,-0.142,0.0216,0.062200000000000005,0.05560000000000001,-0.1806,0.16000000000000003,-0.06780000000000001,-0.0218,-0.17620000000000002,0.0024000000000000002,-0.08360000000000001,0.0646,0.13660000000000003,0.1966,-0.0952,-0.098,-0.1388,-0.006,0.03,0.033400000000000006,0.1688,-0.038400000000000004,0.1156],[-0.18660000000000002,-0.149,0.0022,-0.12940000000000002,-0.032600000000000004,-0.1668,0.1654,0.15580000000000002,-0.0028000000000000004,-0.05600000000000001,-0.0244,-0.1152,-0.08940000000000001,-0.0282,-0.10060000000000001,0.1156,0.1908,0.0166,0.18380000000000002,0.038200000000000005,0.09160000000000001,0.0412,0.18660000000000002,0.0068000000000000005,-0.119],[0.1918,-0.1452,0.0664,0.1534,-0.0502,0.13260000000000002,0.0148,-0.143,0.122,0.19820000000000002,0.032,-0.0154,-0.016800000000000002,-0.1458,-0.18620000000000003,-0.0908,-0.0174,0.1502,-0.19920000000000002,-0.0194,-0.0176,-0.13799999999999998,-0.0674,-0.061,-0.10600000000000001],[0.06,0.0786,0.1254,-0.0694,-0.0294,-0.10300000000000001,0.0484,0.0858,-0.118,-0.124,0.099,-0.05480000000000001,0.142,-0.1376,-0.19740000000000002,-0.0128,-0.19840000000000002,0.0154,-0.1228,0.0736,-0.10600000000000001,-0.1756,-0.1202,0.141,0.0322],[0.17300000000000001,0.051000000000000004,0.147,-0.13160000000000002,0.15580000000000002,-0.13440000000000002,0.0396,-0.18220000000000003,0.0696,-0.0126,0.082,0.1158,-0.15580000000000002,0.1744,-0.1208,0.009,0.09240000000000001,0.09260000000000002,0.0666,-0.1228,-0.0012000000000000001,-0.06760000000000001,-0.096,-0.09260000000000002,0.1694],[-0.1628,0.1424,0.034,-0.1454,-0.0472,0.0332,0.099,-0.1718,-0.1938,0.17320000000000002,-0.07680000000000001,-0.0578,-0.0388,0.1674,-0.036,-0.023000000000000003,0.1142,-0.037200000000000004,-0.04580000000000001,-0.1044,-0.17320000000000002,-0.18620000000000003,0.06680000000000001,0.1272,-0.09040000000000001],[0.18380000000000002,-0.1644,0.17120000000000002,-0.15100000000000002,-0.1986,0.06760000000000001,-0.1232,-0.18120000000000003,-0.05,0.016,0.18080000000000002,-0.0818,0.12860000000000002,0.1542,-0.034999999999999996,-0.032400000000000005,0.0348,0.1706,0.1138,0.0252,0.1158,0.13540000000000002,0.0714,0.048600000000000004,0.062],[-0.19720000000000001,-0.062200000000000005,0.1412,0.0398,-0.171,0.15460000000000002,0.0014000000000000002,-0.142,-0.1756,-0.15380000000000002,-0.0826,0.12380000000000001,0.0466,0.0514,0.1434,-0.098,0.1638,0.1258,-0.12340000000000001,0.013800000000000002,0.10360000000000001,0.0078000000000000005,-0.027600000000000003,0.1658,0.0574],[0.1004,-0.17420000000000002,-0.12860000000000002,-0.011600000000000001,0.0606,0.0874,-0.031,0.1226,-0.15280000000000002,0.1222,-0.18600000000000003,0.0494,0.037200000000000004,-0.1368,-0.013400000000000002,0.17500000000000002,-0.0166,-0.13460000000000003,-0.011600000000000001,-0.006,-0.08460000000000001,-0.1164,-0.10720000000000002,-0.13540000000000002,0.019000000000000003],[-0.052000000000000005,-0.0018,-0.0654,0.0316,-0.1884,0.0694,-0.08700000000000001,0.0164,0.032400000000000005,-0.044000000000000004,-0.1274,-0.011000000000000001,-0.020200000000000003,-0.16620000000000001,0.0218,0.13720000000000002,0.0912,-0.16720000000000002,-0.0094,0.0958,-0.18180000000000002,0.0228,0.1552,-0.0456,-0.1894],[0.0892,-0.0534,0.1874,0.0174,0.1834,0.1308,0.136,0.008400000000000001,-0.034999999999999996,-0.17320000000000002,-0.1854,0.1402,-0.11200000000000002,0.1626,-0.0946,0.0976,0.1976,0.15080000000000002,0.1496,-0.10740000000000001,0.19840000000000002,0.11180000000000001,-0.129,-0.0032,0.15800000000000003],[-0.0932,-0.0242,0.12,-0.06680000000000001,0.1068,-0.08800000000000001,0.1628,-0.013200000000000002,-0.0844,-0.0776,-0.08360000000000001,0.0964,-0.15480000000000002,0.18280000000000002,0.020200000000000003,0.10660000000000001,0.013800000000000002,0.147,-0.013000000000000001,-0.046400000000000004,-0.15400000000000003,-0.0174,0.0742,-0.032400000000000005,-0.1746],[-0.1946,0.0088,-0.0076,-0.0694,-0.1298,-0.0148,0.1844,0.0952,0.017,0.1458,0.0436,-0.16140000000000002,-0.0482,0.13060000000000002,-0.0582,0.0052,0.0716,-0.016800000000000002,-0.19720000000000001,-0.009600000000000001,0.0574,0.1836,0.1432,-0.122,0.18400000000000002],[0.1844,-0.038000000000000006,0.1418,-0.1506,-0.1876,-0.10700000000000001,0.0484,0.11000000000000001,0.0626,0.033,-0.1408,0.1714,-0.0426,0.18220000000000003,0.08040000000000001,-0.051800000000000006,0.0482,0.049,-0.027600000000000003,-0.15580000000000002,0.0166,0.0212,0.06760000000000001,-0.121,-0.0688],[-0.16040000000000001,0.0522,0.0174,0.0432,0.1714,-0.0646,0.028999999999999998,0.040600000000000004,-0.1926,0.0772,-0.07880000000000001,0.009600000000000001,-0.0322,-0.0218,-0.0892,-0.0522,-0.05500000000000001,-0.1482,0.0194,0.0414,0.11000000000000001,0.1396,0.0208,0.0848,-0.1],[0.17600000000000002,0.0342,-0.057999999999999996,0.06280000000000001,-0.1654,0.039200000000000006,-0.1216,-0.1368,-0.10200000000000001,0.08000000000000002,0.1142,-0.146,0.0252,-0.0484,0.11120000000000002,0.13,0.13660000000000003,-0.013800000000000002,-0.1698,0.1392,-0.0584,-0.10800000000000001,0.1388,-0.022600000000000002,-0.06580000000000001],[-0.1582,0.08080000000000001,-0.0408,-0.19640000000000002,-0.10660000000000001,-0.11499999999999999,0.18000000000000002,0.0256,-0.1196,-0.1626,-0.0674,-0.10600000000000001,-0.1228,0.1956,-0.12860000000000002,0.1658,0.1312,-0.053200000000000004,0.0158,-0.1664,0.1044,0.0044,-0.17700000000000002,-0.127,0.062400000000000004],[0.1188,-0.039200000000000006,-0.05460000000000001,-0.10560000000000001,0.0772,0.026800000000000004,-0.10740000000000001,0.0128,-0.1018,0.0826,-0.1894,0.06420000000000001,-0.1562,0.1396,-0.08760000000000001,0.0038,0.13040000000000002,-0.17720000000000002,0.1452,0.17500000000000002,0.17220000000000002,-0.002,0.013000000000000001,-0.06280000000000001,-0.1468],[-0.16920000000000002,-0.1912,0.0322,-0.1218,-0.147,-0.008400000000000001,0.131,0.0816,0.1826,-0.0442,-0.1876,-0.11080000000000001,0.1584,0.013600000000000001,-0.0632,0.05580000000000001,0.1882,-0.05600000000000001,-0.12960000000000002,-0.0806,-0.1684,-0.007000000000000001,-0.055400000000000005,0.13620000000000002,-0.1216],[0.053000000000000005,-0.0814,-0.031,0.0974,-0.025400000000000002,-0.15100000000000002,0.022600000000000002,-0.06520000000000001,0.0204,-0.0474,-0.1342,-0.028000000000000004,0.18180000000000002,-0.1218,0.1854,0.1416,0.15500000000000003,-0.19940000000000002,-0.0396,0.10880000000000001,0.194,0.0566,0.0346,-0.041800000000000004,-0.14980000000000002],[0.119,0.1188,0.0058000000000000005,-0.04000000000000001,0.0028000000000000004,0.11499999999999999,-0.07940000000000001,-0.1414,-0.10020000000000001,-0.0978,-0.0666,-0.128,0.10460000000000001,-0.1492,0.0674,-0.17700000000000002,0.10760000000000002,-0.18520000000000003,-0.0878,-0.0588,0.19840000000000002,-0.12,0.1898,0.1836,0.053200000000000004]],[[0.0198,0.009800000000000001,-0.1312,-0.062200000000000005,0.0294,-0.08040000000000001,-0.1646,-0.12860000000000002,-0.0044,-0.018,-0.09620000000000001,0.143,0.096,-0.10600000000000001,0.047,-0.0002,-0.0782,-0.12960000000000002,-0.0006000000000000001,0.1688,0.1018,-0.18660000000000002,0.1274,0.13360000000000002,-0.06480000000000001],[-0.07880000000000001,0.10020000000000001,0.066,0.17800000000000002,0.1826,0.189,-0.1804,0.1836,0.18320000000000003,0.13660000000000003,-0.0938,0.10820000000000002,-0.1348,-0.1206,-0.1228,-0.1726,-0.0318,0.017,0.0584,-0.0366,0.11359999999999999,0.0594,-0.1386,0.0832,0.0122],[0.056999999999999995,0.0026,-0.0644,-0.1958,-0.03900000000000001,-0.11160000000000002,-0.08940000000000001,0.0626,-0.074,0.11259999999999999,0.0828,-0.16720000000000002,0.11180000000000001,0.1704,-0.13460000000000003,0.13460000000000003,-0.1302,-0.022400000000000003,0.1652,-0.1486,-0.13040000000000002,0.17500000000000002,0.0376,0.1192,0.18120000000000003],[-0.1044,0.10200000000000001,0.189,-0.09140000000000001,0.09340000000000001,0.001,0.0058000000000000005,0.09240000000000001,-0.0146,0.0094,0.1262,0.0346,-0.0488,-0.026400000000000003,0.0758,0.146,0.0206,-0.0204,-0.0086,0.1456,-0.15280000000000002,-0.1472,0.048600000000000004,-0.1196,0.0414],[-0.10200000000000001,0.118,-0.196,-0.1592,0.0512,-0.1874,-0.1886,0.1948,-0.1592,0.044000000000000004,0.031,-0.1332,-0.0176,0.015,-0.0166,-0.0598,0.010000000000000002,-0.082,-0.195,0.18480000000000002,0.08100000000000002,0.0194,0.1162,-0.0026,-0.022400000000000003],[0.034999999999999996,0.046200000000000005,-0.0304,-0.1154,0.1014,-0.033800000000000004,0.11699999999999999,0.0712,0.026000000000000002,-0.005000000000000001,0.10880000000000001,-0.05260000000000001,-0.032,-0.0944,0.1312,0.1492,0.05480000000000001,0.0766,-0.1466,-0.09040000000000001,0.07880000000000001,-0.18660000000000002,0.0702,-0.122,-0.10920000000000002],[-0.0854,0.0322,0.024,-0.1466,0.0484,-0.15400000000000003,0.0114,-0.0474,-0.0566,-0.0692,0.10120000000000001,-0.0008,0.18700000000000003,-0.1976,0.0242,-0.027400000000000004,0.0432,-0.19820000000000002,0.06380000000000001,0.1724,-0.07440000000000001,0.0966,0.10460000000000001,-0.137,0.12480000000000001],[0,0.08560000000000001,0.0974,-0.0772,-0.005000000000000001,-0.1268,0.1282,-0.0318,-0.07840000000000001,-0.19240000000000002,-0.0154,-0.1764,-0.055200000000000006,0.17980000000000002,0.15200000000000002,-0.061,0.023400000000000004,0.0398,-0.1416,-0.11160000000000002,0.06760000000000001,-0.1736,0.15700000000000003,-0.0012000000000000001,-0.041800000000000004],[0.11200000000000002,-0.04680000000000001,0.18420000000000003,0.0242,-0.1254,0.11299999999999999,0.1458,-0.13060000000000002,0.13799999999999998,0.123,0.1746,0.033400000000000006,-0.1534,-0.060200000000000004,-0.0166,-0.08900000000000001,0.15660000000000002,-0.025,-0.1564,0.025,-0.08460000000000001,0.0908,-0.1988,0.0238,-0.0422],[0.1148,0.0844,-0.07880000000000001,-0.0322,0.08660000000000001,-0.11140000000000001,0.1376,-0.1328,-0.196,-0.0086,-0.1328,-0.1432,0.0864,0.054200000000000005,0.0614,-0.07940000000000001,0.0664,-0.0822,-0.028999999999999998,-0.08080000000000001,-0.16720000000000002,0.15800000000000003,-0.0564,-0.0978,-0.10500000000000001],[0.1898,-0.0922,-0.1198,0.084,-0.0644,-0.1154,-0.0946,-0.0588,0.10940000000000001,-0.1414,-0.0072,0.0746,0.1378,-0.0724,-0.12040000000000001,0.0482,0.17120000000000002,0.0956,-0.0758,0.12,0.0728,-0.06620000000000001,-0.06820000000000001,-0.098,0.08040000000000001],[0.10740000000000001,-0.11000000000000001,0.098,-0.17,0.1864,0.096,0.0616,0.0938,0.08560000000000001,-0.11399999999999999,0.0118,-0.045000000000000005,0.10300000000000001,0.1182,-0.1836,-0.1216,0.17220000000000002,-0.0954,0.0504,0.09040000000000001,0.028000000000000004,0.0702,0.1034,-0.036,-0.1678],[0.1764,0.16180000000000003,0.10980000000000001,-0.0882,0.0762,-0.0294,-0.15560000000000002,0.17600000000000002,0.13799999999999998,0.1008,-0.053200000000000004,0.0608,0.13899999999999998,-0.12,-0.1978,0.0424,-0.16620000000000001,0.08860000000000001,0.19140000000000001,0.123,0.1668,-0.0442,-0.05280000000000001,-0.0974,0.10320000000000001],[0.10160000000000001,-0.1824,0.15480000000000002,0,-0.0884,-0.033800000000000004,-0.136,-0.073,-0.1446,-0.051000000000000004,-0.0422,0.0888,-0.0742,0.1468,-0.133,0.1892,0.15760000000000002,0.004200000000000001,0.11080000000000001,0.10420000000000001,0.1884,0.0154,0.1668,-0.0442,0.1268],[0.0046,-0.1138,0.0492,0.0832,0.1246,0.073,-0.15560000000000002,0.0006000000000000001,-0.006200000000000001,-0.1128,-0.09860000000000001,-0.0722,0.18120000000000003,-0.0302,-0.19740000000000002,0.09920000000000001,-0.1342,0.0606,0.1148,0.10540000000000001,0.10760000000000002,-0.16140000000000002,-0.0004,0.1592,-0.0286],[0.0014000000000000002,0.1638,0.129,-0.19,-0.09920000000000001,-0.012400000000000001,-0.1904,-0.0316,-0.0908,0.09300000000000001,-0.0586,-0.15200000000000002,0.07740000000000001,0.045200000000000004,0.1526,-0.0892,0.0474,-0.08960000000000001,-0.027000000000000003,0.1622,0.1768,0.1184,-0.054000000000000006,-0.12660000000000002,-0.037200000000000004],[0.1656,0.148,-0.18400000000000002,0.127,-0.1532,0.06380000000000001,-0.1636,-0.0524,0.1246,-0.0034000000000000002,0.1674,-0.1078,0.11140000000000001,-0.1544,0.1814,-0.1634,0.0862,-0.17,-0.16180000000000003,0.1698,0.12140000000000001,-0.15780000000000002,0.08960000000000001,-0.08900000000000001,-0.0236],[-0.0296,0.1634,0.1918,0.0646,-0.10920000000000002,-0.0376,-0.08860000000000001,0.1342,-0.018,0.004200000000000001,0.1134,0.0172,-0.1254,0.05360000000000001,0.013400000000000002,0.1756,-0.0964,0.046000000000000006,0.048600000000000004,-0.1916,-0.1426,-0.1506,-0.198,-0.1438,0.15460000000000002],[0.1936,0.050600000000000006,0.05580000000000001,-0.0618,0.0386,0.0476,0.15360000000000001,-0.13,0.119,0.1676,-0.08940000000000001,-0.08040000000000001,-0.1444,-0.0006000000000000001,0.0308,0.0704,-0.09360000000000002,0.1906,-0.1738,0.15900000000000003,-0.1926,0.1176,-0.0634,0.10800000000000001,0.0902],[0.0342,-0.1446,-0.0908,0.0482,-0.193,-0.09100000000000001,0.0078000000000000005,-0.15400000000000003,0.062200000000000005,-0.1318,-0.1988,0.0144,0.09920000000000001,0.0706,0.07780000000000001,0.0238,0.1894,-0.1358,-0.1328,-0.1768,0.11599999999999999,0.0434,-0.1358,0.0918,-0.0994],[-0.0736,0.0964,0.15940000000000001,0.0262,-0.0164,0.16240000000000002,0.06480000000000001,-0.0352,0.062,-0.191,-0.19,0.1764,-0.0708,0.015600000000000001,-0.0368,0.1,0.125,0.13720000000000002,0.1192,0.17520000000000002,0.0976,-0.0262,-0.0106,-0.18560000000000001,-0.0158],[-0.04000000000000001,0.1564,-0.1194,0.0828,0.09280000000000001,-0.0762,-0.1836,0.041800000000000004,-0.013200000000000002,0.013000000000000001,0.1218,-0.0332,-0.15300000000000002,-0.1132,0.0288,0.10660000000000001,0.0854,-0.0588,0.16920000000000002,0.1724,-0.1564,0.122,0.0984,-0.1038,-0.0998],[-0.027200000000000002,-0.1162,0.149,0.1906,-0.0674,-0.169,0.0346,-0.1386,-0.18400000000000002,0.1766,-0.0994,-0.15580000000000002,0.05260000000000001,-0.12240000000000001,0.1188,0.0294,0.1902,-0.027200000000000002,0.10360000000000001,-0.1192,-0.1426,-0.09920000000000001,0.0874,-0.0422,-0.032],[-0.1414,-0.0684,0.05360000000000001,0.0684,-0.14880000000000002,0.0198,-0.1068,0.13260000000000002,0.137,0.0194,0.014199999999999999,0.054200000000000005,0.09360000000000002,-0.19,0.0028000000000000004,0.11359999999999999,-0.0692,0.033,-0.1442,-0.13360000000000002,-0.020200000000000003,-0.0716,-0.1348,-0.0598,0.1636],[0.12380000000000001,0.1044,-0.0892,-0.09100000000000001,-0.0938,-0.1024,-0.1902,-0.051000000000000004,0.15080000000000002,0.1678,-0.197,0.027200000000000002,0.0626,0.15380000000000002,0.1778,0.028000000000000004,0.1894,0.053200000000000004,-0.143,-0.05460000000000001,-0.1704,-0.1644,-0.1368,0.11040000000000001,0.121]],[[0.002,0.1222,-0.16080000000000003,0.1058,-0.09280000000000001,0.0664,-0.129,0.09060000000000001,0.1322,-0.08900000000000001,0.0348,-0.1684,-0.096,0.0828,0.1014,0.1192,0.0194,0.027800000000000005,-0.18000000000000002,0.15900000000000003,-0.16720000000000002,-0.166,0.1658,0.14880000000000002,0.13899999999999998],[-0.17420000000000002,-0.1144,0.13560000000000003,-0.0858,-0.0444,-0.19140000000000001,-0.0118,0.1534,-0.008,-0.07740000000000001,0.022400000000000003,0.072,-0.1666,-0.10420000000000001,0.19240000000000002,-0.1216,-0.0322,-0.13040000000000002,-0.0422,-0.0874,-0.07700000000000001,-0.171,-0.0014000000000000002,0.1452,0.132],[-0.06620000000000001,-0.0294,0.0028000000000000004,-0.1486,-0.1684,0.10820000000000002,0.0694,0.0148,0.1744,0.13260000000000002,-0.0564,0.15480000000000002,0.18420000000000003,0.0386,0.1804,0.049,-0.1684,-0.17520000000000002,0.1432,0.07880000000000001,0.10740000000000001,-0.1156,0.17020000000000002,-0.10120000000000001,-0.0758],[-0.0344,-0.013400000000000002,-0.144,0.132,0.0932,-0.143,-0.1774,-0.11120000000000002,-0.1176,0.049800000000000004,0.06720000000000001,-0.09360000000000002,0.0386,-0.1814,0.0978,-0.039400000000000004,-0.13340000000000002,-0.08460000000000001,-0.15680000000000002,-0.1584,-0.0178,-0.13899999999999998,0.0054,0.12840000000000001,0.0022],[-0.166,-0.03900000000000001,0.0006000000000000001,0.053000000000000005,0.0092,0.06480000000000001,0.08800000000000001,-0.026000000000000002,-0.0166,-0.0776,-0.13140000000000002,0.0304,-0.18380000000000002,-0.0146,-0.132,-0.0504,-0.0424,0.0442,0.0688,0.0666,0.0852,0.191,-0.15580000000000002,0.19140000000000001,0.10560000000000001],[0.0722,-0.18120000000000003,0.0026,-0.09040000000000001,0.097,0.198,-0.1896,-0.055200000000000006,0.11259999999999999,-0.11140000000000001,-0.1448,-0.036,-0.1708,0.17420000000000002,-0.05580000000000001,0.16040000000000001,-0.0946,0.0252,-0.0822,-0.0968,0.0346,-0.015600000000000001,-0.1612,-0.1878,0.10720000000000002],[-0.0852,0.19540000000000002,0.18020000000000003,0.10520000000000002,-0.1882,0.0708,-0.0746,-0.17,0.1492,-0.08660000000000001,-0.169,-0.0298,-0.0006000000000000001,-0.18660000000000002,0.1288,-0.0424,-0.028999999999999998,0.12140000000000001,-0.0454,0.1226,0.07900000000000001,-0.08460000000000001,-0.027200000000000002,0.17620000000000002,0.1694],[0.0376,-0.167,-0.0942,-0.084,-0.011000000000000001,-0.17720000000000002,0.072,0.07440000000000001,-0.1078,-0.1646,0.0654,-0.0342,0.1554,-0.0454,-0.0716,0.0738,-0.0834,0.0182,-0.15000000000000002,-0.010000000000000002,0.10320000000000001,0.12,-0.0178,0.0436,0.0974],[-0.0446,0.0344,0.146,0.1734,0.0052,-0.0578,-0.0332,0.15660000000000002,-0.08080000000000001,0.0956,0.1658,0.046200000000000005,0.026800000000000004,-0.0582,0.05460000000000001,-0.085,-0.0446,0.0818,-0.11599999999999999,-0.0998,0.08100000000000002,0.1028,-0.18680000000000002,0.16180000000000003,-0.1278],[-0.0374,0.032600000000000004,-0.05260000000000001,-0.1804,0.1024,0.0106,-0.0356,0.1946,0.0288,0.0964,0.0094,0.073,-0.032600000000000004,0.034,-0.18300000000000002,0.10700000000000001,0.10360000000000001,-0.1602,0.13240000000000002,-0.0158,-0.11120000000000002,-0.10840000000000001,-0.15400000000000003,0.0974,0.13240000000000002],[-0.1168,-0.040400000000000005,-0.0436,-0.1774,0.008400000000000001,-0.0858,-0.1794,-0.0036,-0.1896,-0.12340000000000001,0.0922,-0.0922,0.1196,0.1292,-0.023200000000000002,0.19640000000000002,0.1358,-0.0118,-0.066,-0.0586,0.0416,-0.17020000000000002,0.10540000000000001,-0.027400000000000004,0.0956],[-0.08660000000000001,0.0358,-0.15360000000000001,-0.18480000000000002,-0.0588,0.0036,-0.1698,0.026800000000000004,-0.0058000000000000005,-0.074,0.006,0.1394,0.094,0.0304,-0.17200000000000001,-0.19820000000000002,-0.1696,-0.11040000000000001,0.0878,0.041800000000000004,0.199,-0.19540000000000002,0.0152,0.10740000000000001,0.053000000000000005],[0.026400000000000003,-0.10620000000000002,-0.1186,-0.03,-0.07980000000000001,0.016800000000000002,-0.0256,-0.05380000000000001,0.1402,0.07540000000000001,0.1652,-0.09820000000000001,0.0776,0.0994,-0.07640000000000001,0.194,-0.08120000000000001,-0.0746,0.119,0.18180000000000002,0.0294,0.146,-0.0228,0.15460000000000002,0.1582],[-0.15380000000000002,0.17020000000000002,0.0172,0.10520000000000002,-0.0816,-0.13340000000000002,-0.0792,0.1674,0.15760000000000002,-0.1058,-0.0956,0.0884,-0.0806,-0.1514,-0.16160000000000002,-0.08000000000000002,0.0646,-0.05560000000000001,-0.0466,0.1758,-0.07880000000000001,-0.038400000000000004,-0.1268,-0.1908,0.0492],[-0.05480000000000001,-0.036,0.049,-0.1908,0.07940000000000001,-0.0572,0.0864,0.1962,0.013800000000000002,-0.040400000000000005,0.1704,-0.025,-0.05580000000000001,0.1414,0.014199999999999999,0.08560000000000001,-0.054200000000000005,-0.1312,0.18480000000000002,0.1492,0.0842,-0.1522,0.13799999999999998,-0.1,0.18720000000000003],[0.15080000000000002,-0.0776,0.008400000000000001,-0.11180000000000001,-0.0188,0.0858,-0.1936,-0.039200000000000006,-0.0888,-0.0242,-0.0704,0.16820000000000002,0.10840000000000001,-0.1958,0.19240000000000002,-0.0238,0.12560000000000002,-0.1168,0.033600000000000005,-0.13560000000000003,-0.1918,-0.1398,-0.0958,-0.1806,0.013600000000000001],[-0.1834,0.1232,-0.009800000000000001,0.12840000000000001,-0.040400000000000005,-0.046000000000000006,-0.0844,-0.0044,-0.1226,-0.1332,0.13460000000000003,0.067,0.07500000000000001,0.046200000000000005,0.1398,0.1904,-0.099,-0.0702,0.1654,0.0844,-0.0282,-0.0358,0.1144,-0.1968,0.03900000000000001],[0.1908,0.1952,-0.009,0.198,-0.17520000000000002,0.011000000000000001,-0.05160000000000001,-0.19740000000000002,-0.0994,-0.1714,-0.0154,0.0578,0.1776,0.198,-0.0756,0.09620000000000001,0.13540000000000002,-0.1936,0.013000000000000001,0.0578,0.096,0.18300000000000002,-0.0238,0.1714,0.1422],[0.0772,-0.1696,0.1226,0.0012000000000000001,-0.08120000000000001,0.0012000000000000001,-0.1854,-0.15800000000000003,0.15700000000000003,0.0296,-0.10820000000000002,0.1246,0.0588,-0.0348,0.1218,0.0006000000000000001,0.10220000000000001,0.126,0.0756,0.049800000000000004,0.08800000000000001,0.0712,0.014199999999999999,-0.195,-0.163],[0.16180000000000003,-0.1864,0.1632,-0.016,0.11299999999999999,0.07500000000000001,0.0488,-0.0422,-0.11140000000000001,-0.07840000000000001,0.1004,0.1162,0.06999999999999999,-0.135,-0.08040000000000001,-0.10660000000000001,-0.17620000000000002,-0.15760000000000002,0.118,0.0908,0.1386,0.13560000000000003,0.1308,-0.15680000000000002,-0.10700000000000001],[-0.0344,-0.08960000000000001,0.09060000000000001,-0.1592,-0.15940000000000001,0.10540000000000001,-0.0242,-0.1048,0.1736,0.15300000000000002,-0.033600000000000005,0.1922,0.19,0.1348,0.0298,0.0094,0.1038,0.10460000000000001,-0.013600000000000001,0.048,0.122,-0.06780000000000001,-0.1474,0.12,-0.17400000000000002],[-0.148,0.011600000000000001,0.16100000000000003,-0.1144,-0.0632,0.098,-0.0182,-0.09820000000000001,-0.018,0.13640000000000002,0.163,0.0966,-0.014000000000000002,0.012400000000000001,0.1638,-0.17520000000000002,0.1582,-0.07740000000000001,-0.0004,-0.1206,0.18000000000000002,-0.045000000000000005,-0.12760000000000002,-0.002,-0.0148],[-0.1308,0.12340000000000001,0.1786,0.05380000000000001,0.043800000000000006,0.11240000000000001,0.05280000000000001,-0.0572,-0.0174,-0.0564,0.1952,-0.08800000000000001,0.15500000000000003,0.11299999999999999,-0.1758,-0.1916,0.16720000000000002,0.0378,0.016,0.1208,0.1634,0.0474,-0.0948,-0.013000000000000001,0.10920000000000002],[0.10900000000000001,0.04020000000000001,0.1956,-0.18460000000000001,-0.0216,0.10420000000000001,-0.18320000000000003,-0.1348,0.1138,0.10820000000000002,0.1898,0.085,-0.05620000000000001,0.1958,0.0022,-0.07500000000000001,0.17980000000000002,0.0742,0.1378,0.16180000000000003,-0.0206,-0.1172,-0.1484,-0.033800000000000004,-0.013200000000000002],[0.1452,-0.0102,0.0578,-0.0378,0.0884,-0.12960000000000002,-0.12480000000000001,-0.0118,0.1174,-0.0858,0.0188,0.07440000000000001,-0.0004,0.0122,-0.15460000000000002,0.1896,-0.08080000000000001,-0.09820000000000001,0.1426,0.1292,0.1554,0.1174,-0.0948,-0.0726,0.0434]],[[-0.1814,-0.0994,-0.0584,-0.0704,-0.016800000000000002,0.124,-0.1632,-0.1044,-0.011200000000000002,-0.1212,0.09860000000000001,-0.0302,0.12660000000000002,0.10860000000000002,0.08800000000000001,0.119,0.0626,-0.0012000000000000001,0.018,0.0038,0.0328,0.012,0.09040000000000001,-0.019600000000000003,-0.12140000000000001],[-0.1018,0.0484,-0.038400000000000004,-0.18320000000000003,0.05600000000000001,0.0076,-0.0358,0.141,-0.13440000000000002,-0.006,-0.16060000000000002,0.1332,0.08560000000000001,0.018,-0.0064,0.10300000000000001,-0.044000000000000004,-0.0148,-0.0236,0.16080000000000003,-0.07800000000000001,-0.13560000000000003,-0.1446,-0.1402,0.18220000000000003],[-0.1486,-0.056999999999999995,0.1958,-0.022400000000000003,-0.033800000000000004,-0.131,0.1058,-0.126,-0.0946,-0.10760000000000002,-0.026000000000000002,0.1038,-0.0966,-0.1834,0.15880000000000002,0.0724,-0.1432,0.054200000000000005,-0.0566,-0.064,0.099,0.0998,0.0944,0.1292,0.1476],[0.0694,-0.043000000000000003,-0.0616,-0.1418,0.1714,0.07740000000000001,-0.0218,0.0286,-0.0146,-0.042,0.18200000000000002,-0.0596,-0.17300000000000001,-0.0082,0.1728,-0.023200000000000002,-0.0564,0.12840000000000001,0.0674,-0.1584,-0.1044,-0.063,0.0442,-0.0596,0.08600000000000001],[-0.068,-0.034999999999999996,-0.1902,-0.10920000000000002,-0.0244,0.15580000000000002,0.06380000000000001,-0.049800000000000004,0.10020000000000001,0.1696,-0.0146,0.0752,-0.0942,-0.0688,0.1222,-0.1162,0.038400000000000004,-0.1698,-0.12840000000000001,-0.12860000000000002,0.1448,0.09720000000000001,-0.0242,-0.0964,0.1766],[-0.18400000000000002,-0.1636,0.09100000000000001,0.10920000000000002,-0.1768,0.124,-0.034999999999999996,0.1698,0.10960000000000002,-0.1864,-0.0614,-0.1254,-0.15960000000000002,-0.1936,0.18280000000000002,-0.052000000000000005,-0.11060000000000002,-0.05560000000000001,0.1938,-0.143,0.0988,-0.09920000000000001,-0.0478,-0.023000000000000003,0.1864],[0.1024,0.0586,0.013600000000000001,-0.027600000000000003,-0.0064,0.0076,0.1922,-0.0952,-0.1268,-0.094,0.1318,0.143,-0.1194,-0.12380000000000001,0.12960000000000002,-0.10720000000000002,-0.08600000000000001,0.1542,0.0566,-0.046000000000000006,-0.0952,0.074,0.1188,-0.06680000000000001,0.06680000000000001],[-0.1522,-0.016800000000000002,-0.0952,-0.10460000000000001,0.013000000000000001,-0.10540000000000001,-0.0576,0.16000000000000003,0.07640000000000001,-0.1404,-0.1368,0.17880000000000001,0.042800000000000005,-0.1028,0.10400000000000001,-0.1906,0.08660000000000001,0.10640000000000001,0.1174,-0.0632,-0.1766,-0.08040000000000001,-0.1288,-0.19720000000000001,0.1],[-0.19,0.10720000000000002,-0.0596,0.06280000000000001,-0.1532,-0.1222,-0.17620000000000002,0.034,0.16620000000000001,0.0524,0.024,0.13260000000000002,-0.1134,-0.17800000000000002,0.1804,-0.0872,-0.1178,-0.1402,0.05560000000000001,-0.1448,0.031400000000000004,0.135,0.1028,0.0456,-0.06899999999999999],[0.020000000000000004,-0.0772,-0.001,0.0024000000000000002,-0.006600000000000001,0.0746,0.1574,-0.09960000000000001,0.023400000000000004,-0.17880000000000001,0.1198,0.07680000000000001,0.001,0.06520000000000001,0.022000000000000002,-0.1342,0.10940000000000001,-0.08000000000000002,-0.08660000000000001,0.1154,0.12960000000000002,0.012,-0.0728,-0.1946,0.0454],[-0.17820000000000003,-0.006,-0.0388,-0.14780000000000001,-0.0076,0.1482,0.1776,-0.0244,-0.05480000000000001,0.1826,-0.1432,0.0588,0.051000000000000004,-0.07640000000000001,0.16080000000000003,0.1034,0.148,0.1552,0.1938,0.0766,0.1676,0.12340000000000001,0.15780000000000002,-0.10400000000000001,-0.073],[-0.15860000000000002,-0.11220000000000002,0.10660000000000001,-0.09140000000000001,0.13660000000000003,0.124,-0.19840000000000002,-0.07640000000000001,0.1816,-0.0634,0.05380000000000001,0.11040000000000001,-0.06,-0.0942,0.05160000000000001,-0.1318,0.1262,0.055400000000000005,-0.0598,-0.1704,-0.063,-0.0126,-0.0968,0.17320000000000002,0.0004],[-0.0918,0.12760000000000002,0.14780000000000001,-0.0032,-0.06760000000000001,-0.031,0.0626,-0.1612,-0.1946,0.0718,-0.1342,0.10720000000000002,-0.1222,-0.14980000000000002,0.1706,0.145,0.1144,-0.054200000000000005,-0.1526,-0.1068,0.0368,0.064,-0.046200000000000005,-0.1,0.0892],[-0.0736,0.0844,-0.17300000000000001,0.0436,0.06520000000000001,0.17120000000000002,-0.11599999999999999,0.07540000000000001,0.1392,-0.0008,-0.15760000000000002,0.1246,0.07700000000000001,0.0454,-0.06999999999999999,-0.1886,0.1454,-0.0522,0.1668,-0.13620000000000002,-0.10460000000000001,-0.1514,-0.0396,-0.15080000000000002,-0.10700000000000001],[0.054400000000000004,-0.1758,-0.0078000000000000005,0.168,-0.16000000000000003,-0.11000000000000001,-0.0114,-0.007000000000000001,-0.1174,-0.0684,0.13240000000000002,0.1912,-0.17400000000000002,-0.189,0.19820000000000002,-0.1416,-0.068,-0.06780000000000001,-0.13799999999999998,-0.1948,0.11120000000000002,-0.1176,-0.0014000000000000002,0.17300000000000001,0.1442],[-0.0746,0.13,0.13899999999999998,-0.15180000000000002,-0.06680000000000001,-0.0644,-0.12240000000000001,-0.15380000000000002,0.1522,-0.15460000000000002,-0.1512,-0.038200000000000005,0.042800000000000005,0.17500000000000002,0.17900000000000002,-0.0444,0.0604,-0.0004,0.001,-0.0038,-0.003,0.0614,0.132,0.0954,0.137],[0.10540000000000001,-0.19740000000000002,0.1412,0.10620000000000002,-0.17020000000000002,0.0762,0.0434,-0.13360000000000002,-0.1668,-0.039200000000000006,-0.10400000000000001,-0.15000000000000002,0.0988,0.065,-0.0294,0.1162,-0.028399999999999998,0.05600000000000001,0.0688,-0.08120000000000001,-0.1144,-0.1754,0.1824,-0.0494,0.0722],[0.0726,0.1466,0.16820000000000002,-0.017,0.0502,-0.0442,0.13340000000000002,0.07840000000000001,-0.009,0.1376,-0.016,-0.1228,0.0574,-0.0082,-0.1632,-0.012,0.08460000000000001,-0.10860000000000002,0.11160000000000002,0.1644,-0.0398,-0.021,0.0776,0.1646,0.171],[0.18320000000000003,-0.15860000000000002,-0.1164,0.0144,-0.044800000000000006,-0.1434,0.1008,0.148,0.1544,-0.1806,-0.1684,-0.0078000000000000005,-0.1494,0.19840000000000002,0.09140000000000001,-0.0674,-0.073,-0.1004,-0.048600000000000004,-0.19820000000000002,-0.0644,0.1452,0.0746,-0.0128,0.0122],[-0.1484,0.1004,-0.10160000000000001,-0.1776,0.15960000000000002,0.0184,-0.1226,0.1008,-0.0304,0.1836,-0.0294,-0.166,-0.1468,-0.1778,-0.1212,-0.1492,-0.0206,0.039200000000000006,-0.10120000000000001,0.055400000000000005,-0.1258,0.0332,-0.134,-0.0502,-0.1328],[0.004200000000000001,0.0596,-0.0728,0.13060000000000002,-0.10260000000000001,0.1888,-0.0782,0.167,-0.10720000000000002,0.1756,-0.023000000000000003,0.025400000000000002,-0.17800000000000002,0.06620000000000001,0.0476,-0.13540000000000002,-0.1674,0.0942,0.0064,0.13540000000000002,0.10560000000000001,0.0262,0.0304,-0.13560000000000003,0.1342],[-0.033400000000000006,-0.10560000000000001,-0.0728,0.0144,-0.009600000000000001,-0.0524,-0.04020000000000001,-0.18280000000000002,0.10720000000000002,0.13140000000000002,0.059,0.13240000000000002,-0.1592,-0.10660000000000001,-0.06580000000000001,-0.0398,-0.0644,0.1968,-0.09340000000000001,0.056799999999999996,0.1164,0.0826,-0.0018,-0.027400000000000004,-0.0834],[0.1864,-0.0002,-0.056999999999999995,-0.1744,-0.05560000000000001,-0.19840000000000002,0.10840000000000001,0.1648,-0.020200000000000003,0.1028,-0.1656,0.0814,-0.13540000000000002,-0.15200000000000002,0.0746,-0.1432,0.0088,0.039200000000000006,0.11100000000000002,0.0756,0.199,-0.123,-0.1696,-0.11259999999999999,-0.0922],[0.1874,0.1916,0.17200000000000001,-0.09160000000000001,0.033400000000000006,-0.12380000000000001,-0.15900000000000003,0.1776,0.060200000000000004,0.1128,0.028999999999999998,-0.0222,-0.0944,-0.13360000000000002,-0.023000000000000003,-0.1736,-0.17500000000000002,-0.06760000000000001,0.1278,-0.1162,-0.1778,0.1282,-0.1388,-0.1512,0.0236],[-0.074,-0.11299999999999999,0.197,-0.1844,0.0414,0.0426,0.15600000000000003,-0.17800000000000002,0.0742,0.020000000000000004,-0.009,-0.198,-0.1172,0.019200000000000002,-0.039400000000000004,-0.1506,-0.1212,0.1164,0.0984,-0.1318,0.13560000000000003,0.0696,-0.1734,-0.17120000000000002,-0.10740000000000001]],[[0.1902,-0.1746,-0.15560000000000002,-0.003,0.1936,0.0574,-0.10540000000000001,0.08080000000000001,-0.18660000000000002,0.0286,0.133,0.18460000000000001,-0.055400000000000005,-0.1878,0.0702,0.1134,0.0002,0.08960000000000001,0.0052,-0.051000000000000004,-0.0594,0.126,-0.08100000000000002,0.0698,0.1884],[-0.1516,0.1048,0.0908,0.12560000000000002,-0.0718,0.025,0.1386,-0.13999999999999999,0.1438,0.0726,-0.17220000000000002,-0.1242,-0.17900000000000002,-0.037200000000000004,0.17,-0.0674,-0.15480000000000002,0.014000000000000002,0.15760000000000002,0.1634,-0.17980000000000002,0.1422,-0.1348,0.1686,-0.18500000000000003],[-0.198,0.1956,0.0052,-0.1864,0.1704,-0.064,-0.0476,-0.18580000000000002,0.1996,0.1402,-0.11060000000000002,0.1004,0.15360000000000001,0.05500000000000001,-0.050600000000000006,0.15680000000000002,-0.0252,0.122,0.0522,-0.18420000000000003,-0.1836,-0.17220000000000002,-0.015,0.1464,0.08460000000000001],[-0.1602,-0.17200000000000001,-0.0796,-0.1226,0.0944,0.1952,-0.08700000000000001,0.126,-0.11160000000000002,-0.06760000000000001,0.07800000000000001,0.07840000000000001,-0.168,0.08900000000000001,-0.09620000000000001,0.06380000000000001,-0.1028,-0.08560000000000001,-0.0072,-0.033,-0.1696,-0.0044,-0.0036,-0.1368,0.021],[-0.1144,-0.18720000000000003,0.1274,-0.18560000000000001,-0.15600000000000003,0.017,0.188,-0.11359999999999999,0.1888,-0.1764,0.1448,-0.10960000000000002,-0.1144,-0.05600000000000001,-0.1492,0.0792,0.0564,-0.062,0.023000000000000003,0.0352,-0.0188,0.016800000000000002,-0.16180000000000003,-0.09000000000000001,0.014000000000000002],[0.1754,0.0364,0.024800000000000003,-0.0766,-0.0246,-0.122,0.1396,0.0592,0.0862,0.07680000000000001,0.1254,-0.1744,-0.024800000000000003,-0.054400000000000004,0.10840000000000001,0.0086,0.0302,0.17900000000000002,-0.0988,-0.1142,0.054000000000000006,-0.131,0.142,0.0874,0.006],[-0.1572,-0.1128,0.08760000000000001,-0.1678,0.17920000000000003,-0.062200000000000005,-0.0054,-0.137,-0.16140000000000002,-0.1302,0.03,-0.06720000000000001,-0.033,-0.0444,0.0956,0.1048,-0.1446,-0.0356,-0.1172,0.18620000000000003,-0.171,-0.10220000000000001,-0.0776,0.1014,-0.1778],[-0.16200000000000003,0.0206,-0.0918,-0.054400000000000004,0.009600000000000001,-0.1162,0.05280000000000001,0.0946,0.037,-0.0988,0.0742,-0.2,-0.025400000000000002,-0.052000000000000005,0.004200000000000001,-0.1424,-0.14780000000000001,-0.0956,0.0344,-0.0286,0.08120000000000001,0.05560000000000001,-0.16240000000000002,-0.1228,0.1274],[-0.1504,-0.1956,-0.15300000000000002,0.09060000000000001,0.1968,0.1806,-0.027000000000000003,-0.1492,0.18460000000000001,-0.19920000000000002,0.039400000000000004,-0.0422,0.1666,0.17980000000000002,0.10560000000000001,-0.026000000000000002,0.1424,0.1438,-0.0614,-0.11359999999999999,0.0482,0.031200000000000002,-0.19840000000000002,0.0858,0.1484],[0.1726,0.101,0.13740000000000002,-0.09340000000000001,0.1382,-0.09160000000000001,0.13999999999999999,-0.18600000000000003,0.06520000000000001,-0.1676,0.0616,0.136,0.046000000000000006,-0.10420000000000001,-0.0222,-0.1426,0.1282,0.11080000000000001,-0.0818,0.1464,0.0048000000000000004,0.0592,-0.1552,0.095,-0.09620000000000001],[0.082,-0.0994,-0.06680000000000001,0.0654,-0.1058,0.0834,-0.0158,0.0912,0.0752,0.1156,0.0534,0.0854,-0.0218,-0.1966,-0.11100000000000002,0.19440000000000002,0.0908,-0.0408,0.12660000000000002,0.10700000000000001,-0.011000000000000001,0.1644,-0.083,-0.17420000000000002,-0.0942],[-0.145,0.1564,-0.1174,-0.144,0.1696,0.13720000000000002,-0.10560000000000001,0.050800000000000005,0.17120000000000002,-0.1198,-0.016200000000000003,0.17020000000000002,0.0574,-0.05580000000000001,-0.11100000000000002,0.10500000000000001,0.13340000000000002,-0.1644,-0.124,-0.1892,-0.020000000000000004,-0.0666,0.1034,0.1948,0.0298],[0.1358,-0.0512,0.1134,0.0492,-0.0088,-0.12840000000000001,-0.0352,-0.10540000000000001,-0.0838,0.15500000000000003,-0.0016,-0.0978,0.0364,-0.15940000000000001,0.0476,-0.0716,-0.1486,0.028999999999999998,0.1904,0.15580000000000002,0.1406,0.0052,0.1358,0.1988,0.1242],[-0.16180000000000003,-0.0366,0.1048,-0.1258,0.12560000000000002,-0.1454,-0.0946,-0.033400000000000006,0.10420000000000001,0.06580000000000001,0.0956,0.13999999999999999,0.163,0.0594,-0.1638,0.10160000000000001,-0.0354,-0.17900000000000002,0.1864,0.13899999999999998,-0.1196,-0.06,0.0786,0.0158,0.0444],[0.0182,0.0072,-0.0172,0.0674,-0.10600000000000001,-0.09060000000000001,-0.0346,0.06899999999999999,-0.12040000000000001,-0.016200000000000003,0.041,0.1562,0.1938,0.0912,0.1826,0.1464,0.15180000000000002,0.118,-0.16100000000000003,-0.0956,-0.025400000000000002,0.0414,-0.13740000000000002,-0.0874,-0.06680000000000001],[0.043800000000000006,0.1694,-0.1232,0.148,0.09160000000000001,-0.125,-0.0102,-0.15760000000000002,-0.08800000000000001,-0.13160000000000002,0.15480000000000002,0.0164,0.1804,0.038400000000000004,-0.0416,0.13640000000000002,0.10920000000000002,0.1272,0.149,0.0052,-0.0432,-0.0352,-0.11200000000000002,-0.1164,-0.16080000000000003],[-0.1388,0.0466,-0.15080000000000002,0.0318,-0.033400000000000006,-0.067,-0.066,-0.1942,0.1928,-0.1446,0.0146,-0.061,0.1708,-0.0748,0.13160000000000002,0.0932,-0.18200000000000002,0.0604,-0.1004,0.011600000000000001,-0.1412,-0.15180000000000002,0.1676,-0.144,0.09000000000000001],[-0.15200000000000002,-0.039400000000000004,-0.06820000000000001,0.033,-0.0598,0.1264,-0.13620000000000002,-0.1208,-0.19540000000000002,-0.037,-0.19940000000000002,0.062200000000000005,0.0902,0.17520000000000002,0.052000000000000005,0.10540000000000001,0.0578,0.08000000000000002,0.198,-0.13640000000000002,-0.11140000000000001,-0.1698,0.15600000000000003,-0.045200000000000004,-0.06999999999999999],[-0.0016,-0.0688,-0.1474,-0.10920000000000002,0.1312,0.1018,0.0576,0.008400000000000001,-0.1388,-0.1282,-0.1288,0.0574,-0.033,-0.1644,0.15400000000000003,-0.1322,-0.0702,0.0038,-0.042,0.1158,-0.0632,0.0596,0.027800000000000005,0.1916,-0.1778],[0.1202,-0.11180000000000001,0.08120000000000001,0.16820000000000002,-0.1406,-0.049,-0.147,0.0484,-0.1602,-0.1628,-0.17200000000000001,-0.06760000000000001,-0.06760000000000001,-0.0376,-0.013200000000000002,0.0952,-0.1406,-0.1456,0.0478,-0.07540000000000001,-0.12940000000000002,0.041,0.10640000000000001,0.1322,-0.1966],[-0.1824,0.0872,0.007000000000000001,0.12960000000000002,-0.06820000000000001,-0.0522,0.1464,0.13620000000000002,-0.17900000000000002,-0.048600000000000004,-0.0884,-0.1738,-0.0076,0.1396,-0.05260000000000001,-0.044800000000000006,-0.055400000000000005,0.10660000000000001,0.1652,0.1766,-0.101,0.0388,-0.050800000000000005,-0.07700000000000001,-0.1322],[0.062400000000000004,0.039200000000000006,-0.16100000000000003,0.1406,0.051800000000000006,-0.006200000000000001,-0.018,0.10460000000000001,0.0086,0.0166,-0.083,0.0388,0.13160000000000002,0.046400000000000004,0.1706,0.054400000000000004,0.12960000000000002,0.16140000000000002,0.0102,-0.0238,0.0104,-0.0888,-0.19140000000000001,0.1778,-0.0514],[0.1526,0.0198,-0.016,0.12760000000000002,-0.1348,-0.0198,0.06620000000000001,0.0708,0.1502,-0.0952,0.10800000000000001,-0.17800000000000002,0.1642,0.18180000000000002,-0.0322,-0.1888,0.08940000000000001,-0.0752,-0.16820000000000002,-0.12960000000000002,-0.0374,0.0848,0.08000000000000002,0.131,0.1636],[0.1406,-0.009800000000000001,0.084,-0.10880000000000001,0.12440000000000001,0.08100000000000002,-0.1442,0.1426,-0.0304,0.1318,0.0564,-0.003,-0.0564,0.08760000000000001,0.025400000000000002,-0.14980000000000002,0.1658,-0.1058,-0.027400000000000004,-0.1908,0.1764,0.19440000000000002,-0.19720000000000001,0.0632,0.1696],[0.013800000000000002,-0.1384,-0.1246,-0.13460000000000003,-0.1684,-0.1794,-0.1312,-0.1704,-0.1454,0.046200000000000005,0.1676,-0.1438,0.08120000000000001,-0.0228,0.06999999999999999,0.042800000000000005,0.1738,0.06780000000000001,0.0354,0.049600000000000005,-0.1468,0.16820000000000002,-0.042,-0.0842,-0.098]],[[-0.10429031876562317,-0.22749841628408032,-0.01794763625268864,-0.015279744377288977,0.21682684878248168,-0.08779789626315253,-0.15861829877376177,-0.11714470689254881,0.2325916644098433],[-0.2398677331609333,0.01552228000232531,0.18553975315279472,-0.08294718376242588,-0.040260913756031275,-0.18699496690301273,-0.051902623757775254,-0.09313368001395186,-0.023283420003487966],[0.01139917437670765,0.09434635813913353,0.20106203315512003,-0.07300322313593623,-0.14721912439705412,-0.1595884412739071,0.03929077125588594,-0.21609924190737267,-0.043656412506539934],[-0.10137989126518718,-0.043656412506539934,-0.227255880659044,-0.14455123252165444,-0.004123105625617661,0.17317043627594172,0.007761140001162655,0.11859992064276682,0.0705778668855729],[0.005093248125762993,-0.037835557505667944,-0.22701334503400766,-0.1523123725228171,-0.12102527689313015,-0.15279744377288978,0.04899219625733926,-0.214886563782191,-0.07470097251119055],[0.021100599378160965,-0.15643547814843478,-0.1110813162666405,-0.214158956907082,-0.23453194941013397,-0.14091319814610945,0.1707450800255784,-0.20785303065613736,0.19596878502935705],[-0.06063390625908324,0.0220707418783063,-0.22264770378335366,0.18287186127739505,-0.1559504068983621,0.021828206253269967,-0.08294718376242588,-0.20445753190562868,-0.01964538562794297],[-0.20324485378044702,-0.21755445565759068,-0.13654755689545545,-0.11156638751671318,-0.0448690906317216,-0.09216353751380653,0.20712542378102836,-0.11302160126693117,-0.20470006753066503],[0.07494350813622688,-0.02619384750392396,0.11762977814262149,-0.02522370500377863,0.2355020919102793,0.18553975315279472,-0.05869362125879258,-0.15279744377288978,0.10259256939036884],[0.1838420037775404,-0.0977418568896422,-0.11496188626722183,-0.21973727628291767,-0.14406616127158178,0.01697749375254331,-0.015037208752252644,0.043898948131576264,-0.026436383128960295],[-0.014794673127216312,-0.12320809751845715,0.12490584689371148,0.14285348314640012,0.20906570878131903,0.057966014383683574,-0.18626736002790373,0.06645476125995524,-0.13581995002034647],[-0.23865505503575163,0.22483052440868068,-0.17195775815076006,-0.17389804315105073,-0.19524117815424805,0.08343225501249854,0.057723478758647244,0.01697749375254331,-0.042928805631430936],[0.12005513439298482,-0.23574462753531564,-0.1074432818910955,0.20809556628117368,0.1624988687743431,-0.14091319814610945,0.05578319375835659,-0.16152872627419776,-0.10986863814145884],[-0.11568949314233082,0.048264589382230265,0.07567111501133589,0.12126781251816648,-0.19499864252921173,0.1867524312779764,-0.23283420003487965,0.012126781251816649,-0.23428941378509763],[-0.18650989565294004,-0.018432707502761304,-0.054085444383102255,0.03565273688034094,-0.2355020919102793,-0.08100689876213521,-0.223617846283499,-0.03152963125472329,0.14382362564654544],[0.1722002937757964,-0.16080111939908875,-0.11544695751729449,0.0875553606381162,0.03346991625501395,0.09240607313884286,-0.16152872627419776,-0.023768491253560634,0.0426862700063946],[-0.13654755689545545,0.06888011751031856,-0.04729444688208493,0.225800666908826,0.12708866751903847,-0.20372992503051968,0.06111897750915591,0.18723750252804905,0.08876803876329786],[-0.01236931687685298,-0.1443086968966181,0.14721912439705412,0.03856316438077694,0.09822692813971486,-0.03444005875515928,-0.21876713378277235,-0.06621222563491891,0.15255490814785344],[0.16831972377521506,-0.12539091814378414,-0.020615528128088305,0.08052182751206255,0.008731282501307986,-0.0955590362643152,0.12296556189342081,-0.0007276068751089989,0.18917778752833972],[-0.21221867190679133,-0.19499864252921173,0.13921544877085512,-0.05263023063288425,0.03613780813041361,0.24035280441100598,-0.1595884412739071,0.1132641368919675,-0.1874800381530854],[0.2022747112803017,0.05311530188295692,0.19451357127913904,0.23210659315977064,-0.17850622002674107,-0.10817088876620451,-0.16443915377463375,0.1258759893938568,-0.015037208752252644],[0.09386128688906085,-0.11350667251700383,-0.17414057877608707,-0.17559579252630506,0.214886563782191,-0.09968214188993285,0.1096261025164225,-0.1993642837798657,0.18869271627826706],[0.22943870128437097,-0.1772935419015594,-0.18578228877783107,0.10089482001511452,-0.22410291753357167,0.13048416626954715,-0.0941038225140972,0.12345063314349349,0.1671070456500334],[-0.23210659315977064,0.13193938001976516,-0.13242445126983782,0.22022234753299033,0.05529812250828392,0.0875553606381162,0.00485071250072666,0.17123015127565105,0.0038805700005813274],[0.08246211251235322,0.07979422063695354,0.24035280441100598,-0.10089482001511452,0.006790997501017323,0.0477795181321576,0.21343135003197303,0.24229308941129662,-0.13654755689545545]]]}