{"name":"","initialization_type":"xavier","input_dimensions":{"vertical":6,"horizontal":6},"output_dimensions":{"vertical":3,"horizontal":3},"deep_layers":8,"neurons_per_layer":25,"weights":[[[-0.06301287924559289,-0.1285607593803763,0.02480679441565008,0.12620682998327082,0.08075788546992653,0.014304647874717928,0.00796714565174163,-0.051062160767980445,-0.016115362795568296,-0.10284860750430104,-0.1578943410981523,-0.12964718833288652,-0.10954825271144741,-0.028609295749435857,0.07260966832609987,-0.05395930464134104,-0.0210042930818643,0.01539107682722815,0.010683218033017186,0.008510360127996741,0.11244539658480801,0.12023147074446461,0.16731005868657425,0.06916930997648416,0.017745006224333632],[0.062288593277252745,0.14521933665219974,-0.1392439774133935,-0.10266753601221601,-0.05613216254636149,0.027885009781095708,-0.0483460883867049,-0.13363076115875736,0.042551800639983706,-0.10828075226685216,0.14992719544641067,0.01358036190637778,0.13707111950837306,0.09596789080506965,-0.03440358349615704,-0.11715325537901898,0.161153627955683,0.11878289880778432,-0.17618256179874106,0.06120216432474253,0.10991039569561749,0.0054321447625511115,-0.06428037969018816,-0.020098935621439114,-0.09542467632881453],[-0.009958932064677038,-0.1539107682722815,0.1343550471270975,-0.16731005868657425,0.0021728579050204447,-0.17473398986206076,0.0707989534052495,-0.0054321447625511115,0.020098935621439114,-0.13906290592130846,0.11009146718770253,0.17708791925916625,0.17726899075125127,-0.16767220167074431,-0.04128430019538845,-0.1798039916404418,-0.009596789080506964,0.0650046656585283,-0.11425611150565838,-0.14232219277883915,-0.05866716343555201,0.08510360127996741,0.03331715454364682,-0.07206645384984475,-0.12837968788829127],[0.05939144940389216,0.04617323048168445,-0.10031360661511055,-0.1573511266218972,-0.026798580828585484,0.12367182909408032,0.11932611328403943,0.1539107682722815,-0.06717752356354875,-0.11407504001357335,-0.07333395429444002,0.14775433754139022,-0.04436251556083408,-0.008510360127996741,0.007061788191316446,0.13960612039756357,-0.15372969678019646,-0.0972353912496649,-0.1412357638263289,0.14286540725509425,0.003259286857530667,-0.13055254579331171,-0.13109576026956682,-0.11226432509272298,-0.16622362973406402],[0.05884823492763705,-0.08727645918498786,-0.09940824915468535,0.09252753245545393,-0.18016613462461187,0.03096322514654134,-0.025893223368160297,-0.1593429130348326,-0.0405600142270483,0.04490573003708919,0.17763113373542136,-0.1459436226205399,-0.15662684065355706,0.0307821536544563,-0.12077468522071973,-0.05395930464134104,-0.06862609550022905,0.10991039569561749,0.17745006224333632,-0.11407504001357335,0.02969572470194608,0.10212432153596089,-0.021728579050204446,0.049975731815470235,-0.0747825262311203],[-0.08854395962958313,0.042370729147898675,0.05214858972049067,0.07061788191316445,-0.04635430197376949,-0.07369609727861008,0.0497946603233852,-0.07170431086567468,-0.06428037969018816,0.0923464609633689,0.08166324293035172,-0.06391823670601808,0.0021728579050204447,-0.15916184154274757,0.007061788191316446,0.12964718833288652,0.17962292014835676,-0.06084002134057245,-0.029876796194031118,-0.12874183087246135,-0.006699645207146371,0.10176217855179084,-0.02770393828901067,0.11063468166395764,-0.08184431442243675],[-0.03820608482994282,-0.0566753770226166,0.09759753423383498,0.05232966121257571,0.005613216254636149,-0.038930370798282966,-0.12584468699910076,0.09288967543962401,0.13417397563501246,0.045267873021259265,0.07514466921529038,-0.036938584385347556,0.08619003023247764,-0.039111442290368004,0.16785327316282936,0.005251073270466075,-0.09741646274174995,0.02281500800271467,-0.01901250666892889,-0.08274967188286193,-0.007242859683401483,-0.1622400569081932,0.035490012448667264,0.1426843357630092,0.0966921767734098],[0.15372969678019646,-0.05613216254636149,0.02154750755811941,0.1015811070597058,-0.13507933309543765,0.14485719366802965,0.17382863240163557,-0.12276647163365513,0.034041440511986966,0.13616576204794786,-0.007242859683401483,0.14829755201764536,-0.17708791925916625,-0.06283180775350786,0.02408250844730993,-0.01484786235097304,-0.08093895696201157,-0.12729325893578106,-0.10647003734600179,-0.07460145473903526,-0.022271793526459558,-0.044000372576664004,0.16966398808367975,0.02281500800271467,0.12439611506242047],[0.05558894807010638,0.08727645918498786,-0.0497946603233852,0.006337502222976298,0.012312861461782522,0.12023147074446461,0.053053947180915856,-0.15065148141475082,-0.17944184865627172,0.04707858794210964,-0.05739966299095675,0.15626469766938697,-0.15717005512981216,-0.1803472061166969,0.02353929397105482,-0.18052827760878196,0.01665857727182341,-0.07116109638941957,-0.06373716521393304,-0.029514653209861044,-0.1645939863052987,-0.016839648763908446,0.08347395785120208,0.053778233149256005,-0.019374649653098965],[0.04907037435504505,-0.17219898897287023,-0.0986839631863452,-0.07007466743690935,0.09288967543962401,0.1265689729674409,0.026074294860245335,0,0.002897143873360593,0.08546574426413749,-0.063556093721848,0.053778233149256005,0.15807541259023736,0.180709349100867,0.16097255646359795,-0.01901250666892889,-0.04635430197376949,-0.16042934198734285,0.14087362084215885,-0.10882396674310726,0.0811200284540966,0.005251073270466075,-0.1294661168408015,-0.05758073448304179,-0.1383386199529683],[0.14775433754139022,0.1430464787471793,0.06808288102397393,-0.03947358527453808,-0.17527720433831587,0.13127683176165186,0.002897143873360593,-0.05902930641972209,0.05160537524423556,0.1329064751904172,0.0420085861637286,0.01358036190637778,-0.1167911123948489,-0.06663430908729363,0.07351502578652505,-0.04019787124287823,0.04707858794210964,-0.002535000889190519,-0.018831435176843853,0.16441291481321366,0.022996079494799707,0.024987865907735118,-0.07641216965988563,0.17618256179874106,0.17763113373542136],[0.12005039925237958,-0.06337502222976296,-0.014666790858888003,-0.15572148319313187,0.03241179708322163,0.12928504534871646,0.03639536990909245,0.06880716699231408,-0.0054321447625511115,0.1421411212867541,-0.10846182375893719,0.09415717588421928,-0.0894493170900083,-0.06518573715061333,0.06735859505563378,0.07858502756490608,0.11733432687110402,-0.05558894807010638,-0.07586895518363053,0.036033226924922376,-0.17817434821167646,0.07605002667571556,-0.12204218566531498,0.11280753956897809,-0.04001679975079319],[-0.17907970567210166,0.04472465854500415,-0.06717752356354875,0.06536680864269838,0.018469292192673778,-0.04852715987878994,-0.08818181664541305,-0.15916184154274757,0.17437184687789067,0.0713421678815046,0.03241179708322163,0.039654656766623116,0.1015811070597058,0.08347395785120208,-0.06808288102397393,-0.1671289871944892,-0.07242859683401483,0.10954825271144741,0.13851969144505336,0.10447825093306638,-0.09977039213885543,-0.1597050560190027,-0.16694791570240416,0.04762180241836475,-0.01358036190637778],[-0.059210377911807124,-0.016839648763908446,-0.028066081273180745,0.14196004979466906,-0.16767220167074431,0.12729325893578106,-0.03802501333785778,-0.1387007629371384,0.12240432864948506,-0.009053574604251853,-0.028247152765265782,-0.09488146185255943,-0.016839648763908446,0.07840395607282105,-0.17274220344912536,-0.12457718655450549,0.09886503467843025,-0.0405600142270483,0.04780287391044979,0.10302967899638608,-0.0986839631863452,0.014666790858888003,-0.15662684065355706,0.10991039569561749,0.00796714565174163],[-0.146486837096795,0.17509613284623082,-0.1314579032537369,0.14721112306513512,0.007605002667571557,-0.07659324115197068,-0.1191450417919544,-0.14666790858888004,0.15898077005066255,-0.044000372576664004,-0.17763113373542136,-0.021728579050204446,-0.06464252267435823,-0.17473398986206076,-0.15554041170104682,0.010321075048847113,0.1119021821085529,0.15717005512981216,0.11461825448982846,0.03186858260696652,0.16296434287653336,0.09180324648711378,-0.01104536101718726,-0.13942504890547855,0.03748179886160267],[0.057761805975126826,0.004526787302125927,0.052510732704660744,0.1740097038937206,0.15210005335143112,-0.068445024008144,0.046535373465854526,-0.09288967543962401,0.028790367241520894,0.13851969144505336,-0.031144296638626372,-0.027341795304840596,-0.060658949848487416,-0.016115362795568296,0.013218218922207705,-0.12910397385663142,-0.14087362084215885,-0.017020720255993483,0.07930931353324623,0.01973679263726904,0.1211368282048898,-0.02571215187607526,-0.0805768139778415,-0.054502519117596154,0.1387007629371384],[-0.03494679797241215,-0.09560574782089958,-0.05341609016508593,0.0713421678815046,0.09126003201085868,0.13453611861918255,-0.11226432509272298,0.07840395607282105,-0.17799327671959142,0.10465932242515141,0.161153627955683,0.09922717766260032,-0.049975731815470235,-0.055045733593851266,0.00018107149208503707,-0.14521933665219974,-0.1783554197037615,-0.007786074159656593,-0.16097255646359795,-0.12349075760199528,-0.10900503823519231,0.1504704099226658,0.07170431086567468,-0.02209072203437452,0.036033226924922376],[0.15554041170104682,-0.01176964698552741,0.09361396140796416,-0.16930184509950966,-0.1251204010307606,0.015210005335143113,0.007242859683401483,-0.030601082162371264,0.1377954054767132,-0.030420010670286227,-0.03331715454364682,-0.12240432864948506,-0.031144296638626372,0.10502146540932149,-0.13326861817458727,0.07188538235775972,0.10067574959928062,0.0566753770226166,-0.08238752889869187,0.16966398808367975,-0.13019040280914165,0.16930184509950966,0.161153627955683,-0.12149897118905988,-0.17419077538580566],[0.01484786235097304,0.14684898008096506,0.09288967543962401,-0.15843755557440742,0.13254433220624712,-0.11461825448982846,0.17256113195704031,0.18089042059295202,-0.0820253859145218,-0.0840171723274572,0.08238752889869187,-0.08437931531162728,0.10846182375893719,0.02136643606603437,0.15065148141475082,-0.0957868193129846,0.10647003734600179,0.00018107149208503707,-0.09940824915468535,0.1587996985585775,-0.06265073626142281,-0.12819861639620622,0.15807541259023736,0.1421411212867541,-0.08800074515332801],[0.17075041703618993,-0.08419824381954223,0.1432275502392643,-0.12059361372863468,0.03440358349615704,0.014123576382632891,0.07007466743690935,-0.05758073448304179,0.11715325537901898,-0.00036214298417007413,-0.17527720433831587,-0.16984505957576476,0.038387156322027854,0.1763636332908261,0.08854395962958313,0.12982825982497156,-0.17708791925916625,0.146486837096795,0.11516146896608358,-0.08075788546992653,-0.1444950506838596,-0.007786074159656593,0.005251073270466075,0.13797647696879825,-0.1740097038937206],[-0.17998506313252685,-0.08293074337494698,-0.02028000711352415,0.019193578161013927,-0.027341795304840596,-0.01593429130348326,-0.10683218033017186,0.1778122052275064,0.10284860750430104,0.15191898185934608,0.02969572470194608,-0.12077468522071973,-0.09542467632881453,-0.015210005335143113,-0.1803472061166969,0.13960612039756357,0.06971252445273927,0.1495650524622406,0.12349075760199528,-0.07641216965988563,0.07387716877069511,0.058486091943466975,0.0957868193129846,0.17093148852827497,-0.05015680330755527],[-0.04381930108457897,0.025168937399820155,0.11588575493442373,0.10574575137766164,-0.05088108927589542,0.11226432509272298,0.09995146363094047,-0.01665857727182341,-0.10538360839349156,0.003983572825870815,-0.11715325537901898,0.12675004445952592,0.1640507718290436,-0.1147993259819135,-0.11316968255314816,-0.1622400569081932,0.08619003023247764,-0.11316968255314816,-0.06428037969018816,-0.16495612928946876,-0.018650363684758815,-0.12439611506242047,-0.15843755557440742,0.0957868193129846,0.15662684065355706],[0.16042934198734285,-0.004526787302125927,-0.11172111061646786,-0.1763636332908261,-0.05939144940389216,0.17582041881457097,-0.1553593402089618,0.00796714565174163,0.04852715987878994,0.062107521785167714,0.1578943410981523,-0.1147993259819135,0.1231286146178252,-0.023720365463139857,0.1754582758304009,-0.12131789969697483,-0.1015811070597058,0.1769068477670812,-0.10701325182225689,-0.07442038324695023,-0.08419824381954223,-0.10429717944098134,0.06464252267435823,-0.07333395429444002,0.09343288991587913],[0.09126003201085868,-0.01104536101718726,-0.11244539658480801,0.06337502222976296,-0.1401493348738187,0.016115362795568296,0.022633936510629633,0.14286540725509425,-0.03711965587743259,0.0889061026137532,-0.15952398452691766,0.06862609550022905,-0.04744073092627971,0.049251445847130086,0.11172111061646786,-0.11081575315604268,0.07188538235775972,0.0937950329000492,0.023901436955224894,-0.1769068477670812,0.1176964698552741,0.10321075048847111,-0.09325181842379408,-0.009958932064677038,-0.02046107860560919],[0.024987865907735118,0.1352604045875227,-0.055045733593851266,-0.03802501333785778,0.09614896229715468,-0.1788986341800166,-0.05088108927589542,-0.025893223368160297,0.008148217143826667,-0.12892290236454637,0.15028933843058076,-0.17038827405201987,0.07876609905699113,0.1352604045875227,-0.11552361195025365,0.14051147785798876,0.0009053574604251854,-0.1010378925834507,0.04744073092627971,0.17419077538580566,-0.1597050560190027,-0.0707989534052495,0.055770019562191415,0.05486466210176623,0.07025573892899438],[0.14196004979466906,0.05323501867300089,-0.08437931531162728,0.12457718655450549,-0.027885009781095708,0.14920290947807052,-0.17183684598870017,-0.10429717944098134,0.04508680152917423,0.17038827405201987,-0.0937950329000492,0.024625722923565043,0.04273287213206874,0.046716444957939564,0.002535000889190519,-0.09850289169426017,0.1435896932234344,-0.01484786235097304,0.07188538235775972,-0.009053574604251853,-0.011950718477612447,-0.00036214298417007413,-0.08419824381954223,-0.1450382651601147,-0.11697218388693395],[0.062288593277252745,-0.020642150097694226,-0.16097255646359795,0.07152323937358965,0.08763860216915793,-0.08709538769290283,0.17745006224333632,-0.058486091943466975,-0.03947358527453808,0.1133507540452332,0.07188538235775972,0.08854395962958313,-0.15264326782768622,0.1597050560190027,0.0981407487100901,0.07061788191316445,-0.059934663880147274,0.17147470300453008,0.02281500800271467,-0.0908978890266886,-0.01647750577973837,-0.1387007629371384,-0.1656804152578089,0.13453611861918255,0.01973679263726904],[-0.17129363151244506,0.14684898008096506,0.09633003378923972,0.15409183976436652,-0.07876609905699113,-0.1352604045875227,-0.014485719366802966,-0.009958932064677038,0.04581108749751438,-0.08130109994618165,0.01358036190637778,0.06084002134057245,-0.09795967721800505,0.08763860216915793,-0.10067574959928062,0.166042558241979,-0.14286540725509425,0.09506253334464446,-0.06428037969018816,0.08818181664541305,-0.08474145829579735,-0.132001117729992,-0.15028933843058076,-0.10647003734600179,-0.1401493348738187],[0.04128430019538845,0.1216800426811449,-0.019555721145184002,0.02770393828901067,0.05196751822840563,-0.1119021821085529,0.14974612395432566,0.03730072736951763,-0.17419077538580566,0.02842822425735082,-0.08166324293035172,-0.1627832713844483,0.09107896051877364,-0.06880716699231408,0.05758073448304179,0.06482359416644326,0.1573511266218972,-0.018107149208503707,-0.026255366352330372,-0.09107896051877364,-0.17600149030665602,-0.047259659434194676,-0.044543587052919116,-0.04363822959249393,-0.009415717588421926],[-0.068445024008144,-0.043276086608323855,-0.15210005335143112,0.13073361728539676,0.02154750755811941,-0.08564681575622253,-0.06319395073767793,-0.03874929930619793,0.1358036190637778,0.08872503112166816,-0.016839648763908446,-0.10484039391723646,0.05196751822840563,-0.0497946603233852,-0.0048889302862960005,-0.1256636155070157,-0.019555721145184002,-0.07605002667571556,-0.051062160767980445,0.17183684598870017,-0.0454489445133443,0.13562254757169276,-0.14377076471551944,0.08872503112166816,-0.06464252267435823],[0.021185364573949338,0.1015811070597058,-0.1196882562682095,0.005070001778381038,0.057761805975126826,0.09759753423383498,-0.12023147074446461,-0.11226432509272298,-0.03096322514654134,-0.08347395785120208,-0.029333581717776006,0.11805861283944417,-0.003983572825870815,-0.05196751822840563,0.16350755735278846,0.17582041881457097,-0.03023893917820119,0.005251073270466075,0.024625722923565043,-0.00796714565174163,-0.0048889302862960005,-0.00742393117548652,-0.0595725208959772,-0.0454489445133443,0.16966398808367975],[-0.10321075048847111,0.030057867686116152,0.17111256002036002,-0.04381930108457897,0.06029680686431734,0.01647750577973837,-0.02281500800271467,0.021185364573949338,0.14141683531841395,0.1798039916404418,-0.01050214654093215,-0.0030782153654456304,0.1358036190637778,-0.06391823670601808,-0.13707111950837306,0.018650363684758815,0.07822288458073601,0.0581239489592969,-0.01720179174807852,-0.059753592388062236,-0.04001679975079319,-0.009234646096336889,-0.17907970567210166,-0.15644576916147201,-0.15843755557440742],[-0.02571215187607526,-0.11208325360063794,-0.13254433220624712,-0.015210005335143113,-0.10828075226685216,0.09053574604251853,-0.14721112306513512,-0.1444950506838596,-0.020098935621439114,-0.0210042930818643,-0.10809968077476712,-0.12928504534871646,0.16205898541610816,-0.06536680864269838,-0.08691431620081778,0.055226805085936304,0.17473398986206076,0.1593429130348326,0.08347395785120208,0.09633003378923972,0.14105469233424386,-0.17527720433831587,0.09995146363094047,0.009415717588421926,-0.015572148319313186],[0.17364756090955052,-0.049975731815470235,-0.1240339720782504,0.17093148852827497,0.055226805085936304,0.16767220167074431,0.05468359060968119,0.047259659434194676,0.136890048016288,0.13218218922207706,0.12874183087246135,0.05124323226006548,0.12005039925237958,0.07188538235775972,0.11842075582361425,-0.01720179174807852,-0.1530054108118563,0.1470300515730501,0.1559025546852169,0.07333395429444002,0.16441291481321366,-0.09107896051877364,0.09288967543962401,-0.1640507718290436,0.10321075048847111],[0.1495650524622406,0.15644576916147201,0.045992158989599415,0.10520253690140653,-0.17654470478291112,-0.10140003556762077,0.019374649653098965,0.13707111950837306,0.14087362084215885,-0.0005432144762551112,-0.017382863240163558,0.0840171723274572,0.16042934198734285,0.15698898363772712,0.07496359772320534,-0.06663430908729363,-0.1231286146178252,-0.10773753779059704,0.11733432687110402,-0.09922717766260032,0.18016613462461187,-0.058486091943466975,0.1294661168408015,-0.12023147074446461,-0.08039574248575646],[-0.14721112306513512,0.0054321447625511115,-0.1147993259819135,-0.17907970567210166,0.16586148674989395,-0.009958932064677038,0.03730072736951763,-0.047983945402534825,-0.027341795304840596,-0.06246966476933778,0.14485719366802965,0.10991039569561749,0.16930184509950966,0.10628896585391674,-0.04019787124287823,-0.06880716699231408,-0.055226805085936304,-0.15354862528811142,0.15173791036726106,-0.021909650542289483,-0.0966921767734098,0.0713421678815046,-0.07351502578652505,0.12675004445952592,0.1689397021153396]],[[-0.040600000000000004,0.1572,0.033600000000000005,0.0092,0.08760000000000001,0.1806,-0.10300000000000001,-0.15760000000000002,-0.1686,0.1516,-0.134,-0.1482,0.1318,0.10220000000000001,-0.0164,0.038400000000000004,0.1516,-0.1634,0.0364,-0.1502,-0.042800000000000005,-0.1472,0.0436,-0.028999999999999998,-0.19640000000000002],[0.1014,0.1652,0.12,0.0366,-0.10840000000000001,-0.18200000000000002,0.1774,0.0014000000000000002,-0.16200000000000003,-0.0038,-0.10420000000000001,-0.19740000000000002,-0.0752,-0.0868,0.0976,-0.15980000000000003,0.10260000000000001,-0.07940000000000001,-0.047,-0.10120000000000001,-0.1894,-0.13140000000000002,0.0582,0.1258,0.0302],[0.13660000000000003,0.1212,0.0362,0.051000000000000004,0.040600000000000004,-0.1756,-0.136,-0.014199999999999999,0.17520000000000002,0.034999999999999996,-0.10640000000000001,0.192,-0.0976,0.1902,-0.1322,0.1544,0.1926,0.09260000000000002,-0.1178,-0.199,-0.0024000000000000002,0.055200000000000006,0.0782,0.10320000000000001,-0.1382],[-0.057999999999999996,-0.1146,-0.16720000000000002,0.026400000000000003,0.1956,0.1494,0.09340000000000001,0.19740000000000002,-0.16140000000000002,0.0332,-0.08360000000000001,-0.0286,0.196,-0.0574,-0.0974,0.048,0.10520000000000002,0.1544,0.1376,-0.1764,-0.051800000000000006,-0.023200000000000002,-0.0028000000000000004,0.0414,0.08460000000000001],[-0.15900000000000003,0.004200000000000001,0.0882,0.0954,-0.1554,0.0172,0.1394,-0.1,0.145,-0.013000000000000001,0.1988,0.0636,-0.1154,0.05560000000000001,0.0512,0.1996,0.1626,-0.0466,-0.1776,0.10060000000000001,-0.1736,0.1264,-0.0696,-0.0694,0.1874],[0.18200000000000002,0.06520000000000001,0.143,-0.12660000000000002,-0.10320000000000001,-0.1196,-0.023000000000000003,0.10820000000000002,-0.15280000000000002,-0.0422,-0.18460000000000001,-0.17320000000000002,-0.0128,0.1908,-0.0118,0.18400000000000002,-0.1504,0.1422,0.1264,-0.037,0.1534,0.06860000000000001,-0.1658,0.0864,0.1582],[0.0386,-0.0772,-0.191,-0.0228,-0.13799999999999998,0.0242,0.05620000000000001,0.0862,0.0474,-0.18460000000000001,0.0362,-0.0296,-0.1544,0.0776,0.0644,0.014000000000000002,-0.046200000000000005,-0.0616,0.046400000000000004,-0.167,0.1734,0.014199999999999999,0.19240000000000002,-0.19140000000000001,-0.050600000000000006],[0.0344,-0.1254,0.0454,0.1532,0.1658,-0.039200000000000006,-0.07540000000000001,-0.06680000000000001,-0.0732,-0.141,-0.037200000000000004,0.0104,-0.013000000000000001,0.1172,0.15940000000000001,0.026800000000000004,0.164,0.0644,-0.039400000000000004,-0.039400000000000004,-0.073,0.123,-0.12860000000000002,-0.059,0.1756],[0.164,-0.0378,-0.0122,-0.1564,0.06580000000000001,0.0828,0.0854,-0.0304,0.0502,-0.0322,0.1038,0.1506,0.1654,-0.15700000000000003,0.1534,-0.0236,-0.18560000000000001,-0.0932,0.0208,-0.05260000000000001,0.199,-0.119,-0.1404,-0.1288,0.0818],[0.1034,0.0626,-0.027000000000000003,0.037,0.027400000000000004,0.18680000000000002,0.13060000000000002,-0.0344,0.0376,-0.14980000000000002,0.146,0.08020000000000001,-0.0466,0.17900000000000002,-0.06860000000000001,-0.0198,-0.04020000000000001,0.101,0.07700000000000001,-0.17400000000000002,-0.1928,0.0188,0.1746,0.13520000000000001,0.1592],[0.10900000000000001,0.0302,0.04020000000000001,-0.11200000000000002,0.1264,0.0068000000000000005,0.147,-0.0824,0.026600000000000002,0.0828,-0.054400000000000004,0.1254,0.16000000000000003,-0.1428,-0.11060000000000002,0.011600000000000001,0.026600000000000002,-0.12380000000000001,0.1804,0.0942,0.0236,-0.1258,-0.09000000000000001,0.1128,-0.1428],[0.1922,-0.0892,-0.1892,0.05620000000000001,-0.0476,-0.118,-0.051800000000000006,-0.1746,0.0146,-0.1482,0.1572,0.10880000000000001,0.1134,-0.064,-0.193,-0.0478,0.146,0.13560000000000003,-0.0734,-0.11200000000000002,-0.1892,-0.1272,-0.0108,0.1442,0.0776],[0.16180000000000003,-0.16820000000000002,0.009600000000000001,0.043800000000000006,0.06720000000000001,-0.0078000000000000005,-0.1252,0.149,-0.0426,0.1534,0.0588,0.16000000000000003,-0.046400000000000004,-0.13560000000000003,-0.0434,0.193,0.11299999999999999,-0.189,0.012,-0.08040000000000001,-0.044000000000000004,-0.0736,0.0086,-0.11220000000000002,-0.10600000000000001],[0.1912,0.043000000000000003,0.024800000000000003,-0.1208,0.003,0.17980000000000002,0.18280000000000002,-0.1246,-0.0172,-0.1004,0.1644,-0.13440000000000002,0.021,-0.1192,0.06899999999999999,-0.10520000000000002,-0.10880000000000001,0.0034000000000000002,-0.097,0.08080000000000001,-0.10320000000000001,0.0734,-0.1738,0.074,-0.009600000000000001],[-0.08700000000000001,0.038200000000000005,-0.032600000000000004,0.0454,-0.0884,-0.1132,-0.10160000000000001,-0.10120000000000001,-0.0222,-0.1236,0.1668,0.127,-0.1826,0.15500000000000003,-0.10800000000000001,0.10360000000000001,0.0082,0.1674,0.0166,-0.10460000000000001,0.1704,-0.11020000000000002,0.0484,-0.0016,0.040600000000000004],[0.1252,0.10660000000000001,-0.054200000000000005,-0.0976,-0.09280000000000001,-0.1894,-0.1764,0.1554,0.1,-0.18180000000000002,-0.026800000000000004,0.192,-0.05580000000000001,-0.144,-0.1726,-0.16920000000000002,-0.1544,-0.0566,-0.10300000000000001,-0.11240000000000001,-0.1572,0.11000000000000001,0.0656,-0.0864,-0.17800000000000002],[-0.028399999999999998,-0.09340000000000001,0.1434,-0.0422,-0.0524,-0.0368,0.09200000000000001,-0.1628,-0.04000000000000001,0.15760000000000002,-0.0824,0.133,-0.16820000000000002,-0.19,-0.15300000000000002,0.14780000000000001,-0.1264,-0.15400000000000003,0.0756,-0.05500000000000001,-0.1896,-0.1918,0.05160000000000001,0.018600000000000002,-0.18220000000000003],[-0.10640000000000001,-0.1674,-0.0344,0.16040000000000001,-0.1322,0.15880000000000002,0.0576,0.013600000000000001,0.1814,-0.0294,-0.199,-0.0842,-0.10460000000000001,-0.1654,0.0386,0.0832,0.1274,-0.07780000000000001,-0.0174,0.11160000000000002,0.0708,-0.0294,0.1684,-0.0522,0.1464],[-0.1642,0.1038,-0.05260000000000001,0.131,0.001,0.0724,-0.1184,-0.18300000000000002,0.057999999999999996,0.054200000000000005,0.0998,0.1734,0.0204,-0.096,0.0892,0.0632,-0.10980000000000001,0.0816,-0.1282,0.1542,0.12760000000000002,-0.13720000000000002,0.17020000000000002,-0.10820000000000002,-0.050800000000000005],[-0.0354,0.1996,-0.0664,-0.1168,-0.003,0.0034000000000000002,-0.040600000000000004,-0.084,0.1582,-0.0976,0.038200000000000005,0.0806,-0.0712,0.0762,-0.15480000000000002,0.149,-0.16920000000000002,0.0758,0.013400000000000002,0.1338,0.0724,0.118,0.08560000000000001,0.10520000000000002,0.04580000000000001],[0.1198,-0.08600000000000001,0.18580000000000002,-0.1152,0.188,-0.1448,-0.19640000000000002,-0.193,-0.0288,0.0944,0.032400000000000005,0.1486,-0.07900000000000001,-0.06480000000000001,0.18180000000000002,0.1874,-0.1694,-0.0064,0.0756,0.17820000000000003,0.1882,0.1014,0.0068000000000000005,-0.062400000000000004,0.17300000000000001],[-0.007000000000000001,0.1998,0.16080000000000003,0.1716,-0.046200000000000005,0.0128,0.127,0.0524,-0.026800000000000004,0.192,-0.09280000000000001,0.06680000000000001,0.1292,0.18700000000000003,-0.1694,-0.10200000000000001,-0.118,0.1898,0.1152,-0.0776,-0.0328,0.0512,0.1602,0.0456,0.024],[0.062400000000000004,-0.1658,-0.020000000000000004,0.15380000000000002,-0.05480000000000001,-0.198,-0.196,-0.05360000000000001,-0.013600000000000001,-0.1726,-0.0212,-0.0728,-0.0976,0.0632,0.07740000000000001,-0.195,0.033600000000000005,0.11120000000000002,-0.05500000000000001,-0.031,0.1158,-0.0664,0.0022,0.0688,-0.096],[0.08560000000000001,-0.2,-0.13040000000000002,-0.09060000000000001,-0.07940000000000001,0.0308,-0.10520000000000002,0.0446,-0.044800000000000006,0.038200000000000005,-0.1906,-0.199,0.10320000000000001,-0.07880000000000001,-0.046200000000000005,0.055400000000000005,-0.122,0.1936,0.065,-0.1396,-0.051800000000000006,0.15760000000000002,-0.10300000000000001,-0.17500000000000002,0.08360000000000001],[0.0946,-0.13740000000000002,0.073,-0.082,-0.1494,-0.05600000000000001,-0.057999999999999996,-0.0898,0.19540000000000002,0.1572,-0.1626,0.051800000000000006,0.13720000000000002,0.0572,-0.15980000000000003,-0.0218,-0.125,0.1688,0.1634,0.10840000000000001,0.13660000000000003,-0.1048,-0.0644,-0.1754,0.1506]],[[-0.1172,-0.040400000000000005,0.11499999999999999,0.0666,-0.0346,0.059,0.08040000000000001,0.0456,0.1466,-0.03900000000000001,0.1734,-0.008,-0.1612,0.027600000000000003,0.142,-0.1912,-0.1664,-0.008,-0.062400000000000004,0.06999999999999999,0.147,-0.1506,-0.004,0.1636,0.0902],[-0.10540000000000001,-0.16160000000000002,-0.10840000000000001,-0.0842,0.0228,0.0806,-0.0696,0.1182,-0.1226,-0.1172,-0.026400000000000003,-0.11020000000000002,0.1716,0.12940000000000002,0.2,-0.1644,-0.014199999999999999,0.0348,-0.0854,-0.1146,0.08560000000000001,-0.1318,-0.1288,-0.0862,-0.0708],[0.1312,-0.0044,-0.0912,-0.0414,0.0828,0.044800000000000006,0.0908,-0.0016,0.06280000000000001,0.06780000000000001,-0.026400000000000003,0.15360000000000001,-0.1756,0.1686,-0.0898,-0.06680000000000001,0.1332,-0.1494,-0.17420000000000002,0.0826,0.1128,-0.0256,0.1806,0.0236,-0.1484],[0.18200000000000002,-0.1246,0.0956,0.0348,0.0052,-0.1432,0.0412,-0.074,-0.1894,0.0592,0.0946,-0.05620000000000001,-0.0352,0.18020000000000003,-0.1496,0.07940000000000001,-0.144,-0.0074,-0.0102,-0.0814,0.1814,-0.11259999999999999,-0.1708,-0.0588,-0.0822],[0.03,-0.0818,-0.06420000000000001,-0.0616,-0.042,-0.10800000000000001,-0.10300000000000001,0.094,-0.1456,0.0286,0.1522,0.19640000000000002,0.13640000000000002,0.0308,0.18580000000000002,-0.0456,-0.0228,-0.1462,0.1386,-0.1668,-0.10760000000000002,0.038400000000000004,0.06520000000000001,0.1308,0.0038],[-0.11060000000000002,0.1704,-0.1024,0.1648,-0.027800000000000005,0.097,0.024800000000000003,-0.006600000000000001,-0.1748,-0.034999999999999996,-0.16000000000000003,0.006200000000000001,0.1988,-0.039400000000000004,-0.16080000000000003,0.18500000000000003,-0.09300000000000001,-0.0118,0.10800000000000001,0.0002,0.08460000000000001,0.1018,-0.0456,-0.1418,0.17400000000000002],[-0.1212,-0.1754,-0.0704,0.0868,-0.08080000000000001,0.044800000000000006,-0.1434,-0.1726,0.007000000000000001,0.09280000000000001,-0.16080000000000003,0.0222,-0.1182,0.013800000000000002,0.1694,0.165,0.0414,0.06820000000000001,0.0512,-0.15800000000000003,0.027400000000000004,-0.16100000000000003,0.0246,0.0158,0.07700000000000001],[-0.044800000000000006,-0.085,0.085,-0.09300000000000001,0.0826,-0.1168,-0.0524,-0.17700000000000002,-0.0922,0.0012000000000000001,0.0752,-0.027400000000000004,-0.061200000000000004,0.12240000000000001,-0.10540000000000001,0.0614,0.073,-0.1252,-0.0746,0.0488,0.17,-0.1646,-0.10460000000000001,0.046000000000000006,-0.19440000000000002],[-0.0818,0.0814,-0.0762,-0.13360000000000002,0.025,-0.1698,-0.0128,0.062400000000000004,-0.10700000000000001,-0.06520000000000001,-0.0108,0.18700000000000003,0.06820000000000001,0.10300000000000001,0.16140000000000002,-0.14780000000000001,0.10220000000000001,0.16920000000000002,0.003,-0.046000000000000006,0.014000000000000002,0.1038,0.04020000000000001,-0.1628,-0.10060000000000001],[0.054400000000000004,0.1632,-0.0834,0.1044,-0.031400000000000004,-0.0426,0.1514,-0.15360000000000001,0.0614,-0.1342,-0.13,0.008,-0.1834,0.032400000000000005,0.0696,0.046400000000000004,-0.1154,0.1524,0.0352,-0.0426,-0.13620000000000002,0.0758,0.1192,-0.14880000000000002,0.123],[-0.1724,0.18480000000000002,-0.05,0.1274,0.002,-0.024,0.007000000000000001,-0.0746,0.1048,-0.0346,-0.014199999999999999,-0.07900000000000001,0.1694,0.0398,-0.0146,0.054200000000000005,0.1544,-0.19840000000000002,0.1452,-0.18480000000000002,-0.167,-0.0636,-0.15960000000000002,0.1434,-0.1468],[0.1958,-0.0772,0.038200000000000005,0.1152,0.0572,-0.1456,-0.1754,0.1728,0.0294,0.0674,-0.0208,-0.1936,0.1262,0.0028000000000000004,-0.014199999999999999,-0.0146,-0.1484,-0.015600000000000001,0.05560000000000001,-0.1688,0.038200000000000005,-0.12140000000000001,0.197,0.18000000000000002,0.09960000000000001],[0.011600000000000001,-0.09920000000000001,0.049,-0.18460000000000001,-0.167,-0.15460000000000002,-0.1968,0.0108,0.0702,-0.028999999999999998,0.0242,0.17900000000000002,0.0868,-0.16140000000000002,-0.15360000000000001,0.15940000000000001,0.18120000000000003,0.15400000000000003,0.073,-0.1764,-0.07780000000000001,-0.0252,-0.013400000000000002,0.142,-0.0128],[0.062,-0.0636,0.1322,-0.12240000000000001,-0.10500000000000001,0.18700000000000003,-0.122,-0.1516,0.18080000000000002,-0.0704,0.068,0.0184,-0.1142,-0.11359999999999999,0.1878,0.1468,0.136,-0.06420000000000001,0.18700000000000003,-0.052000000000000005,0.18580000000000002,-0.09260000000000002,-0.013000000000000001,-0.05580000000000001,0.15300000000000002],[0.0184,0.021,0.0308,-0.1436,-0.06760000000000001,-0.013600000000000001,-0.1444,0.098,-0.1154,-0.1142,0.06680000000000001,-0.1966,0.14780000000000001,0.06999999999999999,0.0646,-0.13999999999999999,-0.08700000000000001,0.0614,0.1196,-0.028999999999999998,0.18000000000000002,-0.0614,-0.189,-0.1704,-0.10420000000000001],[-0.07980000000000001,-0.10360000000000001,-0.1434,0.1194,-0.164,0.195,0.033400000000000006,-0.1574,-0.0102,-0.0104,-0.1878,0.0064,-0.0102,-0.136,0.1628,-0.0182,0.141,0.1172,0.026600000000000002,-0.13540000000000002,0.0222,0.1936,0.1902,-0.0446,-0.1884],[-0.0348,0.0296,-0.15480000000000002,-0.0376,-0.1998,0.062400000000000004,-0.0358,0.0412,-0.0942,0.06280000000000001,-0.1638,0.05260000000000001,0.0874,0.164,-0.1252,-0.0704,0.125,0.025,0.0822,-0.0872,-0.0256,0.0572,-0.0328,-0.10260000000000001,0.0732],[0.17420000000000002,0.05600000000000001,-0.13640000000000002,0.004200000000000001,0.0966,-0.07540000000000001,0.005000000000000001,0.1472,-0.1826,0.15080000000000002,-0.1708,-0.15580000000000002,-0.10800000000000001,-0.1572,0.0034000000000000002,0.1482,-0.08940000000000001,0.073,0.1878,-0.064,-0.1698,-0.0772,-0.0182,-0.06,-0.0212],[0.1222,-0.1958,-0.099,-0.118,0.19920000000000002,-0.0036,-0.0032,0.0018,-0.036,0.1562,-0.0356,0.0152,0.1258,0.073,0.11359999999999999,-0.0882,0.11120000000000002,0.15760000000000002,0.1188,-0.14780000000000001,-0.0954,-0.08700000000000001,-0.039400000000000004,-0.0736,0.06680000000000001],[0.0474,0.10740000000000001,0.1134,0.08960000000000001,-0.18400000000000002,0.1186,-0.0882,0.1162,-0.0416,-0.07880000000000001,0.027200000000000002,0.003,0.0094,-0.0654,0.0806,-0.1378,-0.1436,0.0742,-0.0014000000000000002,0.0478,0.040600000000000004,0.001,-0.0016,-0.1816,-0.10920000000000002],[-0.1582,-0.025400000000000002,-0.1658,-0.18020000000000003,-0.0598,0.0164,0.0114,0.027400000000000004,0.030600000000000002,-0.1206,-0.037,0.0908,0.1758,-0.06,-0.15660000000000002,0.1404,0.009800000000000001,0.0698,-0.1756,-0.1436,-0.1,0.1424,-0.0822,0.0674,-0.0064],[0.10120000000000001,0.169,0.0064,-0.1222,-0.049600000000000005,-0.12440000000000001,0.018,0.015600000000000001,-0.18700000000000003,0.193,0.18500000000000003,-0.15800000000000003,0.048,-0.11060000000000002,0.05500000000000001,-0.1168,-0.030600000000000002,-0.1976,0.074,-0.053200000000000004,-0.18600000000000003,-0.15860000000000002,0.15300000000000002,-0.1966,0.17900000000000002],[0.05580000000000001,0.0818,-0.1656,-0.1958,0.0806,-0.05380000000000001,0.1008,0.0582,0.009800000000000001,0.1128,0.15300000000000002,0.031200000000000002,-0.1902,-0.18480000000000002,-0.11040000000000001,-0.08360000000000001,-0.0922,0.0052,-0.1582,-0.07700000000000001,-0.0882,-0.0632,0.0318,-0.13360000000000002,0.11080000000000001],[-0.1318,-0.013400000000000002,0.1644,-0.043800000000000006,0.0826,0.13440000000000002,0.027800000000000005,0.0166,-0.08020000000000001,0.024,0.0586,0.1176,0.0948,-0.08460000000000001,0.0864,0.1968,0.0108,-0.034999999999999996,-0.124,0.118,-0.1192,-0.06480000000000001,-0.0832,0.025800000000000003,-0.0002],[-0.16720000000000002,0.10600000000000001,0.0244,-0.1156,-0.18120000000000003,0.07780000000000001,-0.1424,0.08700000000000001,0.10740000000000001,-0.1028,-0.1288,0.0576,-0.1228,-0.11399999999999999,0.0052,0.0172,0.1166,0.1432,-0.127,0.11499999999999999,0.1986,-0.0364,-0.0058000000000000005,0.10600000000000001,0.1622]],[[-0.0898,0.1544,0.0456,-0.10300000000000001,-0.12860000000000002,0.142,-0.1468,-0.16080000000000003,-0.09140000000000001,-0.05500000000000001,-0.0608,0.124,0.07840000000000001,0.1456,0.17500000000000002,0.016,0.1438,-0.013800000000000002,0.027400000000000004,0.11160000000000002,-0.053200000000000004,-0.0792,0.0082,0.0436,0.018],[0.19440000000000002,-0.0184,0.16720000000000002,-0.0178,-0.0578,-0.07640000000000001,0.1492,0.17920000000000003,-0.06280000000000001,-0.0476,-0.0884,-0.18580000000000002,-0.015,-0.0838,0.10600000000000001,0.0736,0.0442,-0.1166,0.1776,0.17820000000000003,0.0166,0.19840000000000002,-0.0126,0.010000000000000002,-0.196],[-0.17920000000000003,0.038400000000000004,-0.010000000000000002,0.0616,-0.1414,-0.1646,0.022400000000000003,0.10300000000000001,-0.049600000000000005,-0.1158,0.0086,-0.0148,0.095,0.018600000000000002,0.0718,-0.1506,0.1632,-0.0994,0.0692,0.05500000000000001,0.1946,-0.0484,0.168,-0.1038,-0.0956],[0.0978,-0.19140000000000001,0.1904,-0.1774,-0.1162,-0.1282,-0.1562,0.0502,0.0592,0.1184,0.1734,-0.1916,-0.1446,-0.09300000000000001,-0.0484,-0.1408,-0.016,0.0666,0.13,-0.1778,0.19720000000000001,-0.0344,-0.165,0.1392,0.045200000000000004],[-0.0848,0.1472,-0.137,-0.08080000000000001,0.048,-0.1684,-0.1014,-0.1432,0.04020000000000001,-0.18560000000000001,-0.131,0.11160000000000002,0.0724,-0.13340000000000002,0.1376,0.0006000000000000001,0.1008,-0.18620000000000003,-0.10880000000000001,0.17920000000000003,0.0252,-0.0322,0.1428,-0.1504,-0.027600000000000003],[0.0474,0.18480000000000002,-0.15900000000000003,0.07500000000000001,-0.19540000000000002,0.11000000000000001,0.17500000000000002,0.1158,0.0228,-0.1154,-0.09720000000000001,0.1404,-0.023400000000000004,-0.003,-0.1406,-0.17200000000000001,0.0068000000000000005,0.19920000000000002,0.129,-0.07500000000000001,0.18320000000000003,0.0122,0.013200000000000002,-0.1726,-0.013600000000000001],[-0.17,-0.1486,-0.0474,0.0172,0.197,0.17500000000000002,0.1312,0.0978,-0.055200000000000006,-0.1144,-0.1898,0.1958,-0.06620000000000001,-0.18380000000000002,-0.137,-0.1474,0.15080000000000002,-0.1678,0.1952,0.0524,0.1178,0.136,0.1268,0.1688,0.1396],[0.0236,-0.1422,0.0106,0.0878,0.05260000000000001,0,0.0434,0.18220000000000003,0.19640000000000002,0.0298,0.0696,-0.19720000000000001,0.036,-0.050800000000000005,-0.030600000000000002,0.0704,-0.0984,-0.137,0.17900000000000002,0.0758,0.10940000000000001,0.1952,0.0872,0.013800000000000002,-0.099],[0.06999999999999999,-0.0414,-0.0256,-0.07640000000000001,-0.1188,0.08940000000000001,0.167,-0.08020000000000001,-0.042,0.15900000000000003,0.0172,-0.1552,-0.0388,-0.16140000000000002,0.0946,0.10500000000000001,0.013400000000000002,0.1766,-0.0818,0.054200000000000005,-0.037,-0.017,-0.0762,-0.015,0.1416],[0.0772,-0.026600000000000002,-0.1542,0.1228,-0.10260000000000001,-0.0422,0.034,0.0016,0.1956,0.0722,-0.074,-0.1028,0.0362,0.014199999999999999,0.11299999999999999,0.12040000000000001,0.05380000000000001,0.054000000000000006,0.0152,0.15800000000000003,-0.18620000000000003,0.17880000000000001,-0.08800000000000001,0.0242,-0.0776],[0.025800000000000003,0.018600000000000002,0.008400000000000001,-0.0604,0.10160000000000001,-0.0816,0.17200000000000001,-0.014199999999999999,-0.10120000000000001,0.1146,-0.1962,-0.0822,-0.06720000000000001,-0.13660000000000003,0.0488,0.005600000000000001,0.001,0.19640000000000002,-0.165,-0.010000000000000002,0.10400000000000001,-0.055200000000000006,0.0984,0.15480000000000002,-0.0374],[-0.09000000000000001,-0.060200000000000004,-0.09340000000000001,-0.024800000000000003,0.038000000000000006,-0.13360000000000002,0.0884,0.0396,-0.1816,-0.1466,0.05280000000000001,-0.0018,0.1572,0.1926,-0.1854,0.1612,0.009,-0.1948,0.0958,0.020000000000000004,-0.060200000000000004,-0.09620000000000001,0.040400000000000005,-0.1634,-0.16100000000000003],[0.1158,-0.131,-0.15980000000000003,-0.10620000000000002,0.0038,0.0724,-0.1024,0.0688,0.1272,0.0362,0.1706,-0.15600000000000003,-0.0748,0.1768,0.1462,-0.072,0.13799999999999998,-0.082,0.15080000000000002,-0.0828,-0.1638,0.019200000000000002,0.0408,0.042,0.15960000000000002],[-0.12140000000000001,0.0952,-0.143,0.031,0.062,0.0524,-0.13720000000000002,-0.0376,-0.0692,-0.11699999999999999,-0.0122,-0.1744,-0.143,-0.0872,0.0878,0.12960000000000002,0.17220000000000002,-0.0086,-0.0844,-0.0632,0.0104,-0.0176,-0.15960000000000002,0.1038,0.048600000000000004],[0.1218,-0.16060000000000002,0.0974,0.10720000000000002,-0.023000000000000003,0.06280000000000001,-0.05600000000000001,-0.074,-0.0216,0.09160000000000001,0.1198,-0.10540000000000001,0.0978,-0.1418,-0.0796,-0.06780000000000001,-0.1474,-0.030600000000000002,0.053200000000000004,0.1252,-0.038200000000000005,-0.13060000000000002,-0.0664,0.0586,0.08660000000000001],[-0.0752,0.05380000000000001,-0.051000000000000004,-0.06780000000000001,0.0666,0.1622,-0.18220000000000003,-0.17200000000000001,-0.1636,0.1738,0.094,-0.19240000000000002,0.1898,-0.0218,0.07640000000000001,-0.10540000000000001,0.0436,0.019200000000000002,0.004,0.1034,0.0288,0.0718,0.10740000000000001,0.0752,0.1888],[0.101,-0.1998,0.10420000000000001,-0.027200000000000002,-0.0004,0.0872,-0.0584,0.0766,-0.15760000000000002,-0.0494,0.094,0.0208,0.0286,0.041,0.1274,0.19840000000000002,0.1834,-0.1756,-0.038400000000000004,0.09060000000000001,-0.0566,0.18100000000000002,0.0742,0.0212,0.043800000000000006],[0.0842,-0.0086,-0.1068,-0.0058000000000000005,0.098,-0.0758,-0.1264,-0.10640000000000001,0.027600000000000003,-0.0472,0.1386,-0.0022,0.1348,0.1292,-0.16000000000000003,0.1554,-0.19,0.04680000000000001,0.1472,-0.08660000000000001,-0.014199999999999999,-0.051000000000000004,0.026000000000000002,-0.1532,0.1446],[-0.051800000000000006,-0.1142,-0.18100000000000002,0.18280000000000002,-0.1148,0.0908,0.1456,0.0148,-0.12560000000000002,0.1666,-0.034,-0.0946,-0.0108,0.0236,-0.18560000000000001,-0.045200000000000004,-0.1472,-0.097,0.055200000000000006,0.047,-0.0824,-0.1464,-0.13440000000000002,0.1654,0.0726],[0.12960000000000002,-0.0572,0.10220000000000001,0.10800000000000001,-0.0688,-0.07600000000000001,0.15600000000000003,0.054400000000000004,-0.037200000000000004,0.0024000000000000002,0.013800000000000002,0.0988,-0.18100000000000002,-0.0598,0.12380000000000001,0.0416,-0.1746,0.016800000000000002,-0.082,0.1484,-0.14780000000000001,0.0688,0.1318,-0.08900000000000001,-0.099],[0.010000000000000002,0.0222,0.1928,0.1968,-0.1386,-0.068,-0.1654,-0.15780000000000002,-0.036,-0.15200000000000002,0.18460000000000001,-0.028399999999999998,0.18420000000000003,0.09960000000000001,0.10940000000000001,-0.0912,0.1912,-0.053000000000000005,-0.17120000000000002,0.054000000000000006,-0.1404,-0.1158,-0.18420000000000003,0.0256,0.166],[0.0942,0.0514,-0.16160000000000002,-0.047,-0.17400000000000002,-0.09300000000000001,0.0632,0.0114,0.0188,0.0128,0.16920000000000002,-0.0666,0.0174,0.0592,-0.1466,-0.10900000000000001,-0.0282,0.0848,-0.016800000000000002,-0.0816,-0.1514,0.1278,0.0654,0.05480000000000001,-0.0988],[-0.025400000000000002,0.1458,-0.1948,0.0968,0.09260000000000002,0.199,0.17020000000000002,-0.1626,-0.169,-0.005000000000000001,0.18320000000000003,-0.09820000000000001,-0.1068,-0.001,-0.06899999999999999,-0.12340000000000001,-0.06,0.074,0.1678,-0.1206,-0.1428,-0.0376,0.1048,-0.09040000000000001,-0.0282],[-0.037,0.0052,-0.0908,0.054000000000000006,0.033600000000000005,-0.026000000000000002,-0.1272,0.013000000000000001,-0.1322,-0.09160000000000001,0.1926,-0.027000000000000003,-0.12860000000000002,0.0366,-0.0692,0.1298,0.0442,-0.0344,0.019000000000000003,0.0772,-0.031,-0.0446,0.13140000000000002,0.1878,0.006200000000000001],[0.1584,0.13260000000000002,0.08660000000000001,0.1946,-0.0242,0.1308,-0.132,0.048600000000000004,0.12240000000000001,0.1966,0.1718,0.0596,-0.0088,-0.1612,-0.021400000000000002,-0.129,-0.0792,0.1384,-0.1768,0.067,0.0956,-0.0984,0.0952,0.1638,0.023400000000000004]],[[0.15280000000000002,-0.0046,-0.048,-0.07980000000000001,-0.15480000000000002,-0.1282,-0.0614,-0.048600000000000004,0.1172,-0.09820000000000001,0.16820000000000002,-0.1308,0.09000000000000001,-0.094,0.065,0.0726,-0.0776,0.14880000000000002,-0.09340000000000001,-0.036,-0.09720000000000001,0.09260000000000002,0.0322,-0.1146,-0.1338],[0.1904,-0.0586,0.18700000000000003,0.071,-0.1258,0.10920000000000002,0.055200000000000006,0.1044,-0.13620000000000002,-0.0998,-0.0828,-0.17720000000000002,-0.1188,-0.1292,-0.0094,-0.15560000000000002,0.1804,0.0368,-0.0148,0.032400000000000005,0.1516,0.1512,0.0194,-0.1814,0.1156],[0.1966,-0.1158,0.1252,-0.1676,0.19640000000000002,-0.1928,-0.0378,-0.1966,0.1928,-0.12340000000000001,0.1328,-0.0256,0.0286,0.1612,0.1414,0.1328,-0.188,-0.0316,0.193,0.0976,0.1768,-0.18660000000000002,-0.17900000000000002,-0.0864,-0.06860000000000001],[-0.194,0.0482,-0.147,-0.095,-0.07900000000000001,-0.057999999999999996,0.1428,-0.0822,0.13340000000000002,0.10900000000000001,-0.0502,0.1318,-0.0358,-0.0148,0.1216,0.1574,0.1258,-0.0072,0.1814,0.17880000000000001,-0.19540000000000002,-0.1168,-0.18500000000000003,-0.09620000000000001,-0.1482],[-0.11599999999999999,0.1434,0.1358,0.1724,-0.024,0.0692,0.17,0.0236,-0.10620000000000002,0.1428,0.10260000000000001,-0.19540000000000002,-0.0292,-0.1976,0.061,-0.0024000000000000002,-0.05580000000000001,-0.0976,0.025,-0.0592,-0.1396,-0.1312,0.11000000000000001,0.09820000000000001,0.1302],[-0.12940000000000002,0.0898,0.1724,0.0218,0.0436,0.0702,-0.1926,0.09240000000000001,0.0938,-0.06999999999999999,0.0752,-0.1736,0.021,0.0596,-0.135,-0.1654,-0.0988,-0.1676,-0.131,0.18300000000000002,0.061200000000000004,-0.0956,-0.17220000000000002,-0.1942,-0.066],[-0.196,-0.169,0.1912,-0.1404,-0.0826,-0.1226,-0.0118,-0.1796,-0.05480000000000001,-0.1806,-0.0626,-0.013200000000000002,-0.1058,-0.09820000000000001,-0.0092,0.07640000000000001,0.16180000000000003,-0.11160000000000002,-0.004200000000000001,0.1484,0.0958,0.0942,0.198,0.18180000000000002,0.0236],[0.17500000000000002,-0.0472,0.15900000000000003,0.19240000000000002,0.011600000000000001,0.1784,0.16080000000000003,-0.132,-0.1338,-0.06420000000000001,-0.18320000000000003,0.1736,-0.1402,0.0244,0.0578,0.1434,-0.1424,0.18380000000000002,0.0106,0.17120000000000002,-0.0034000000000000002,0.07600000000000001,0.1078,0.07680000000000001,0.1194],[0.1564,-0.18220000000000003,-0.11499999999999999,-0.0944,0.1918,-0.038200000000000005,0.0964,0.08760000000000001,0.1644,0.10400000000000001,-0.0892,0.1544,0.0698,-0.054200000000000005,0.098,0.11699999999999999,0.1216,-0.11080000000000001,0.0814,-0.11259999999999999,0.0716,-0.13560000000000003,-0.0362,0.1796,0.10260000000000001],[-0.13640000000000002,-0.1998,0.05580000000000001,0.031200000000000002,-0.0922,0.1156,-0.014199999999999999,-0.11499999999999999,0.053200000000000004,-0.0332,0.1142,0.1,-0.0974,0.146,0.126,-0.1474,0.0736,0.0022,0.024800000000000003,-0.0442,-0.125,-0.07680000000000001,-0.1724,-0.1532,-0.08960000000000001],[0.1264,-0.137,0.0902,-0.18120000000000003,0.19720000000000001,0.1506,0.1888,0.1222,-0.1382,0.1406,0.023000000000000003,0.1938,-0.1494,-0.0444,-0.1192,0.0584,0.17320000000000002,-0.003,0.059,0.1626,-0.1956,0.0862,-0.163,-0.0522,-0.1332],[-0.08360000000000001,0.019600000000000003,0.098,0.094,0.07640000000000001,0.19940000000000002,-0.0166,-0.09300000000000001,0.06480000000000001,0.10800000000000001,0.18620000000000003,-0.1028,0.027400000000000004,-0.0024000000000000002,0.0674,0.13520000000000001,-0.143,0.008,0.059,-0.0034000000000000002,0,0.011000000000000001,-0.0016,0.023000000000000003,0.1958],[0.0432,0.0316,0.0834,0.1456,-0.038200000000000005,0.030600000000000002,0.1146,-0.15100000000000002,-0.0454,-0.1222,-0.10320000000000001,-0.11180000000000001,-0.0054,-0.1196,-0.127,0.051800000000000006,0.1172,-0.0014000000000000002,-0.19840000000000002,-0.0446,-0.1318,-0.1956,-0.15760000000000002,0.18560000000000001,-0.08900000000000001],[-0.1406,0.1146,-0.084,-0.097,0.0882,-0.1896,-0.19440000000000002,-0.1688,-0.0828,0.1302,-0.18300000000000002,0.094,-0.1154,-0.1554,0.1948,0.017,-0.033,0.0736,-0.19,0.1398,-0.10320000000000001,0.1502,0.1552,-0.12940000000000002,-0.0868],[0.0598,-0.0584,-0.011600000000000001,0.1482,-0.0144,0.15000000000000002,0.0078000000000000005,0.011600000000000001,0.19640000000000002,-0.045200000000000004,0.12380000000000001,-0.0416,-0.0872,0.1228,0.0636,0.042,0.0814,-0.056799999999999996,0.008400000000000001,-0.1816,-0.0282,0.0144,0.15380000000000002,0.055200000000000006,0.0246],[-0.1652,0.0298,-0.1168,-0.0014000000000000002,-0.15940000000000001,-0.13240000000000002,0.0212,0.012,0.1134,-0.065,0.123,0.18420000000000003,0.025800000000000003,0.0592,-0.04020000000000001,-0.10860000000000002,0.0478,-0.1574,0.0626,0.1154,0.032400000000000005,0.1154,0.07500000000000001,-0.0436,0.0074],[0.06520000000000001,-0.010000000000000002,0.15300000000000002,0.0208,0.011600000000000001,-0.015600000000000001,0.164,0.1912,-0.126,-0.1288,0.0852,0.0566,-0.061,0.10600000000000001,0.1724,-0.163,-0.011600000000000001,0.1376,0.128,0.04000000000000001,-0.11299999999999999,0.0822,0.10840000000000001,0.15380000000000002,0.11299999999999999],[-0.0114,0.07600000000000001,-0.1686,0.045200000000000004,-0.13040000000000002,0.17980000000000002,-0.09100000000000001,-0.05460000000000001,0.13460000000000003,-0.06380000000000001,-0.1396,0.1996,0.05580000000000001,-0.0792,-0.1216,-0.04000000000000001,0.1322,-0.13360000000000002,-0.1708,0.0128,-0.1554,0.0592,0.0158,-0.013400000000000002,0.1338],[0.1174,-0.0786,0.1882,0.15780000000000002,-0.0716,0.1184,0.026400000000000003,-0.1706,0.1936,0.1168,0.1146,-0.097,0.1526,0.1164,0.18420000000000003,-0.188,-0.008400000000000001,-0.0756,0.1154,-0.1014,-0.025,-0.10400000000000001,0.037200000000000004,-0.1,0.08860000000000001],[0.0088,-0.11240000000000001,-0.0354,0.1986,0.0898,-0.0824,-0.0024000000000000002,0.019600000000000003,-0.15080000000000002,0.1162,-0.0832,0.0898,-0.1854,0.1496,-0.05480000000000001,0.1844,-0.1218,0.05380000000000001,0.0596,-0.020200000000000003,0.018,-0.15560000000000002,0.1338,-0.05480000000000001,0.05580000000000001],[0.0884,-0.0068000000000000005,-0.0444,-0.0114,0.14880000000000002,-0.044000000000000004,-0.1146,0.18480000000000002,-0.17500000000000002,0.1574,-0.16920000000000002,-0.046400000000000004,0.099,0.0576,-0.0416,-0.0824,-0.0988,-0.0352,-0.17500000000000002,0.0026,0.12380000000000001,-0.1746,-0.10320000000000001,-0.17320000000000002,-0.1686],[-0.166,0.09160000000000001,-0.17,-0.15300000000000002,0.15280000000000002,0.0524,-0.0952,0.0076,0.041,0.09240000000000001,-0.13040000000000002,-0.0818,0.1942,0.1048,-0.0148,0.121,-0.17820000000000003,-0.15600000000000003,-0.0374,-0.015,-0.1452,-0.015600000000000001,0.1878,0.18620000000000003,-0.17500000000000002],[-0.034999999999999996,0.18120000000000003,0.0694,-0.0304,0.09280000000000001,0.0128,-0.1206,0.145,-0.17880000000000001,0.1242,0.07900000000000001,-0.004,-0.1152,0.0182,0.0106,-0.137,0.15480000000000002,0.0342,0.1636,0.0854,-0.08040000000000001,0.16200000000000003,0.0262,0.06580000000000001,-0.1952],[0.0006000000000000001,-0.028399999999999998,0.1912,-0.0586,-0.0838,0.0572,-0.0946,-0.1648,-0.17800000000000002,-0.07940000000000001,-0.0058000000000000005,0.1268,0.1282,0.0094,-0.1442,-0.0344,0.0434,-0.1462,-0.1406,0.0522,-0.006200000000000001,0.0172,0.17,-0.06,0.1864],[-0.1656,0.0216,-0.0958,0.061200000000000004,-0.0514,0.0582,-0.006200000000000001,-0.0436,-0.0206,0.0656,-0.04680000000000001,-0.002,0.0666,-0.0514,-0.165,0.005000000000000001,-0.003,0.1262,-0.18100000000000002,0.10620000000000002,-0.11100000000000002,-0.0118,0.1078,-0.0104,0.1898]],[[-0.034999999999999996,0.10620000000000002,-0.023000000000000003,-0.034,0.0044,0.0742,0.17900000000000002,-0.13520000000000001,-0.0362,-0.16180000000000003,-0.16820000000000002,-0.05620000000000001,-0.0414,0.1956,-0.144,-0.1148,-0.047,0.0966,-0.10900000000000001,-0.0654,-0.053200000000000004,-0.038000000000000006,-0.022000000000000002,-0.07900000000000001,-0.1416],[-0.12940000000000002,0.1746,0.1726,-0.1402,-0.1814,-0.0564,0.0606,0.1422,0.033800000000000004,0.1778,0.0188,-0.1962,0.07500000000000001,0.0004,-0.1338,-0.1428,-0.1452,-0.12,-0.0064,-0.1704,0.1,0.0832,-0.0026,0.0858,0.015600000000000001],[0.14880000000000002,0.05460000000000001,-0.006200000000000001,0.166,-0.1884,-0.1814,0.0834,-0.1398,-0.1172,-0.07500000000000001,-0.10020000000000001,-0.1418,-0.169,0.128,0.17520000000000002,0.1794,-0.1322,-0.0708,0.17820000000000003,-0.059,0.1834,-0.145,0.1388,-0.15960000000000002,0.1736],[-0.1154,0.18020000000000003,0.0054,-0.17320000000000002,0.13460000000000003,-0.1396,-0.024800000000000003,-0.0524,0.0122,-0.1638,0.068,-0.1932,-0.124,0.0442,-0.07440000000000001,-0.0172,-0.1292,0.0148,-0.048,-0.0016,0.08600000000000001,0.15400000000000003,-0.17720000000000002,-0.08100000000000002,0.040600000000000004],[-0.07940000000000001,-0.136,0.0932,-0.050800000000000005,-0.0514,-0.18460000000000001,0.008,0.1898,-0.18560000000000001,-0.12240000000000001,-0.0716,-0.045200000000000004,0.04020000000000001,0.1656,-0.1422,-0.166,0.15400000000000003,0.011000000000000001,0.0178,0.1426,-0.1686,-0.012,-0.0188,-0.05500000000000001,-0.0724],[-0.0884,0.13160000000000002,0.12040000000000001,-0.1484,-0.1174,0.0072,0.10200000000000001,-0.1966,0.14880000000000002,-0.1668,0.1888,-0.097,0.12440000000000001,-0.0396,-0.19720000000000001,-0.0488,-0.05580000000000001,0.1272,-0.17920000000000003,0.0966,-0.1068,-0.027400000000000004,0.0958,0.0028000000000000004,0.0576],[-0.124,-0.1154,0.027200000000000002,-0.033600000000000005,0.1998,0.06999999999999999,-0.0282,-0.0594,-0.0766,0.053000000000000005,0.19920000000000002,0.1696,0.0178,0.05500000000000001,-0.15560000000000002,0.17400000000000002,-0.18080000000000002,-0.08100000000000002,-0.009600000000000001,0.1454,-0.0948,0.098,-0.1138,0.0352,-0.025400000000000002],[0.11060000000000002,-0.1034,-0.09340000000000001,-0.0152,-0.08020000000000001,-0.119,-0.1756,-0.0216,-0.18300000000000002,0.11100000000000002,0.033,-0.1658,-0.0244,-0.1242,0.1686,0.0958,0.027200000000000002,0.18500000000000003,-0.056799999999999996,0.198,-0.0898,0.1018,-0.1484,-0.0366,-0.1654],[-0.004200000000000001,0.0102,0.13720000000000002,-0.071,-0.061,-0.17,-0.09100000000000001,0.1152,0.006,0.07900000000000001,0.1912,-0.1378,0.0488,-0.1338,-0.164,0.188,0.1188,0.0114,0.1834,0.08040000000000001,-0.1648,-0.0892,0.15200000000000002,-0.040400000000000005,0.16820000000000002],[0.18100000000000002,0.0792,0.1826,-0.037200000000000004,-0.1468,0.197,0.032400000000000005,0.094,0.1312,0.13799999999999998,0.0176,-0.0852,-0.059,-0.08600000000000001,0.04020000000000001,0.0842,-0.1028,-0.08760000000000001,-0.1322,-0.021400000000000002,-0.013200000000000002,-0.141,-0.1134,-0.0076,0.09360000000000002],[-0.049600000000000005,-0.1302,0.10320000000000001,0.09040000000000001,0.1976,-0.1176,-0.054200000000000005,-0.12940000000000002,-0.127,-0.05460000000000001,0.1298,-0.15700000000000003,0.05560000000000001,0.044000000000000004,0.17700000000000002,0.012400000000000001,-0.0512,-0.040600000000000004,-0.0348,-0.1078,-0.0838,0.0738,-0.12840000000000001,0.1696,-0.08460000000000001],[0.164,-0.06620000000000001,0.1044,-0.1634,0.018600000000000002,-0.056799999999999996,-0.0584,0.15400000000000003,-0.0522,0.07640000000000001,-0.0978,-0.10760000000000002,-0.09240000000000001,0.11140000000000001,0.16160000000000002,0.166,0.0752,-0.0822,0.014199999999999999,-0.118,-0.1748,-0.0064,0.05560000000000001,-0.0698,-0.051800000000000006],[-0.013600000000000001,0.17,-0.060200000000000004,-0.13060000000000002,0.15300000000000002,-0.1962,-0.033800000000000004,-0.18400000000000002,-0.10840000000000001,0.1392,-0.0126,0.0288,0.026400000000000003,-0.049,-0.0766,-0.1402,-0.11040000000000001,-0.040400000000000005,0.1754,-0.15660000000000002,0.0176,0.1734,0.084,0.1504,-0.12],[-0.040600000000000004,0.1976,0.1956,0.11180000000000001,0.1146,0.050800000000000005,-0.1696,-0.17820000000000003,0.0256,-0.08860000000000001,0.1192,-0.1426,-0.18560000000000001,-0.054400000000000004,-0.1184,0.0942,-0.18380000000000002,0.016,-0.013000000000000001,0.012400000000000001,0.17720000000000002,-0.0296,0.025800000000000003,0.0364,-0.07500000000000001],[0.1768,-0.15000000000000002,-0.12860000000000002,-0.056799999999999996,-0.1612,0.0122,-0.1634,-0.18680000000000002,-0.027600000000000003,-0.1622,-0.1524,-0.0082,0.10260000000000001,0.1564,-0.1728,0.0782,-0.056799999999999996,0.1212,-0.1694,-0.165,-0.027000000000000003,-0.0108,0.10500000000000001,0.0472,0.1192],[0.10160000000000001,-0.1158,-0.1216,-0.17020000000000002,0.10400000000000001,-0.08000000000000002,-0.046200000000000005,-0.1654,-0.1486,-0.0938,0.08700000000000001,0.0242,0.18000000000000002,-0.1376,0.1128,-0.1078,0.1734,-0.009800000000000001,0.0792,0.1008,-0.17700000000000002,0.10880000000000001,-0.0416,0.129,0.10500000000000001],[-0.0884,0.14880000000000002,0.0238,-0.1764,-0.10120000000000001,-0.048,-0.047,0.10320000000000001,0.1638,0.0608,-0.11060000000000002,-0.1154,-0.0698,0.1936,0.1768,-0.0016,0.13740000000000002,-0.18420000000000003,-0.0478,-0.13740000000000002,0.1898,-0.040400000000000005,0.06580000000000001,-0.1898,0.149],[-0.0692,-0.048,0.0492,0.012,0.06420000000000001,-0.036,-0.11020000000000002,-0.1826,0.1714,-0.16000000000000003,0.0772,0.1078,-0.044800000000000006,-0.0586,-0.036,0.05480000000000001,-0.0302,-0.09040000000000001,0.1958,0.042,-0.13660000000000003,0.032600000000000004,0.057999999999999996,0.0006000000000000001,-0.18220000000000003],[-0.1876,0.15480000000000002,-0.046000000000000006,-0.0456,-0.0216,0.1288,0.062,-0.0708,0.0646,0.07540000000000001,-0.09920000000000001,-0.1946,0.18000000000000002,0.0586,0.1734,-0.11140000000000001,-0.13,0.129,0.022400000000000003,-0.1534,0.0424,-0.16200000000000003,-0.1958,-0.0974,0.0474],[0.0104,0.16720000000000002,0.07640000000000001,0.0614,0.0378,-0.0176,-0.1438,-0.0236,-0.027400000000000004,0.0006000000000000001,0.013000000000000001,-0.0762,0.027200000000000002,0.0956,-0.097,0.016200000000000003,-0.0108,-0.0666,-0.1208,-0.0456,-0.18020000000000003,-0.1462,-0.0058000000000000005,-0.0852,-0.054000000000000006],[0.13040000000000002,-0.11259999999999999,0.012400000000000001,0.0352,0.0694,-0.026400000000000003,-0.11180000000000001,-0.12140000000000001,-0.1938,0.1486,0.1208,-0.144,-0.0008,-0.1844,-0.048,0.027200000000000002,0.0088,-0.025,0.1592,0.0564,0.09160000000000001,0.0102,-0.0456,-0.06999999999999999,0.1236],[0.12960000000000002,0.07800000000000001,-0.1592,0.1292,-0.16200000000000003,0.0978,-0.149,0.1698,0.061,-0.0864,0.0046,0.1706,-0.0466,0.0244,-0.15200000000000002,-0.10400000000000001,-0.13640000000000002,0.1028,0.006,0.1524,-0.08360000000000001,0.0106,0.026000000000000002,-0.0144,0.17820000000000003],[-0.15760000000000002,-0.16140000000000002,0.1404,0.19440000000000002,0.19820000000000002,0.1948,-0.0398,0.0708,-0.023200000000000002,0.0664,0.08960000000000001,-0.06620000000000001,-0.192,0.0144,-0.0608,-0.06420000000000001,-0.1164,0.042,-0.10960000000000002,-0.061200000000000004,0.15480000000000002,-0.1134,0.1504,-0.05500000000000001,0.17600000000000002],[0.026600000000000002,0.1786,-0.1754,0.0086,-0.033600000000000005,-0.1938,0.0408,0.1018,-0.13340000000000002,0.1418,-0.0348,0.1502,0.098,-0.0946,0,0.0478,0.13899999999999998,-0.0758,0.15500000000000003,-0.1424,-0.0398,-0.10540000000000001,-0.1978,0.1222,0.1728],[-0.018,0.0674,-0.1332,0.027600000000000003,-0.0666,0.06620000000000001,0.1418,0.062400000000000004,0.06380000000000001,-0.0524,0.10720000000000002,-0.12560000000000002,-0.0346,0.0746,-0.13640000000000002,0.0824,-0.1264,0.1552,-0.164,-0.1564,-0.0728,0.0244,0.1816,0.163,0.1942]],[[0.032600000000000004,-0.0776,0.023200000000000002,-0.0396,-0.10560000000000001,-0.083,0.0664,-0.042800000000000005,0.0608,0.1544,0.1014,-0.10860000000000002,0.1978,-0.0588,0.11240000000000001,0.0912,-0.1634,0.07600000000000001,-0.0514,0.17820000000000003,0.0122,-0.143,-0.194,0.1168,-0.16820000000000002],[-0.0442,-0.0832,-0.124,-0.0828,-0.0294,-0.0148,-0.193,-0.1212,-0.0976,0.0296,0.15380000000000002,-0.0862,-0.010000000000000002,0.07440000000000001,-0.0304,-0.1048,0.0024000000000000002,0.1916,-0.171,0.0534,-0.11499999999999999,-0.026800000000000004,0.05580000000000001,0.10460000000000001,-0.18000000000000002],[0.003,0.1878,-0.10020000000000001,-0.025800000000000003,0.0052,0.167,0.1902,0.0614,-0.1184,0.192,-0.10640000000000001,0.1236,0.11160000000000002,-0.1956,-0.094,0.0106,-0.09360000000000002,0.1166,-0.15600000000000003,-0.1824,-0.09200000000000001,0.1152,0.1168,0.0364,0.0308],[-0.1338,0.12440000000000001,-0.16080000000000003,0.1936,-0.08900000000000001,-0.028399999999999998,-0.15780000000000002,-0.0954,0.149,0.0878,0.1844,-0.1684,-0.12,0.06280000000000001,0.021400000000000002,0.0616,0.15660000000000002,0.0294,0.06,0.11060000000000002,0.1684,0.0316,-0.0874,0.18620000000000003,0.0256],[0.1634,-0.15360000000000001,0.13,-0.05460000000000001,0.0666,0.1748,-0.0664,0.1312,0.0956,0.0742,-0.13720000000000002,0.1516,0.18500000000000003,0.15200000000000002,-0.068,-0.1462,0.129,-0.1158,0.1164,0.1526,-0.1696,0.1456,-0.15400000000000003,-0.1424,-0.1754],[-0.10420000000000001,-0.1814,-0.08460000000000001,0.13260000000000002,-0.0442,0.071,0.1512,0.1664,0.021,-0.16620000000000001,0.0082,-0.1196,0.1426,0.0004,-0.1886,-0.136,-0.0644,0.08460000000000001,-0.18220000000000003,0.1486,0.18400000000000002,0.0716,-0.015600000000000001,0.0912,0.028999999999999998],[0.0364,-0.09240000000000001,0.1884,0.0738,-0.0594,0.050800000000000005,0.1882,-0.0884,0.0064,-0.0564,-0.0246,0.026600000000000002,0.06680000000000001,0.046400000000000004,0.059,0.0006000000000000001,-0.046400000000000004,-0.12940000000000002,-0.10220000000000001,0.1008,-0.1432,-0.1958,0.0828,-0.0698,0.1376],[-0.0806,-0.044800000000000006,-0.05480000000000001,-0.042800000000000005,-0.1714,0.0018,-0.012,-0.17300000000000001,-0.0446,0.062400000000000004,0.0036,-0.073,-0.0584,-0.027000000000000003,0.043800000000000006,-0.144,-0.1574,0.12340000000000001,0.147,-0.193,0.18080000000000002,0.0478,-0.0716,-0.135,-0.05260000000000001],[-0.001,-0.0898,0.1438,-0.0246,0.122,0.072,-0.10840000000000001,0.05480000000000001,-0.1564,-0.0656,0.0956,-0.002,0.12940000000000002,-0.05360000000000001,-0.17620000000000002,0.016200000000000003,-0.0646,-0.0204,0.133,-0.049600000000000005,-0.013800000000000002,0.1252,0.07440000000000001,-0.10980000000000001,-0.027600000000000003],[-0.054400000000000004,0.07940000000000001,-0.055400000000000005,0.13999999999999999,-0.05460000000000001,0.0736,-0.0522,-0.11220000000000002,0.05580000000000001,0.15940000000000001,0.004200000000000001,0.08660000000000001,-0.021,-0.09360000000000002,0.12040000000000001,-0.0596,0.1328,0.0696,0.1376,-0.0738,-0.097,-0.18460000000000001,-0.031200000000000002,0.08760000000000001,0.09340000000000001],[0.025400000000000002,0.169,-0.04000000000000001,-0.062200000000000005,0.0256,-0.09240000000000001,0.0918,0.0938,-0.019600000000000003,-0.0594,-0.06780000000000001,-0.0014000000000000002,0.1522,-0.0106,0.0236,0.0244,0.037200000000000004,-0.1446,0.1922,-0.1168,0.1222,-0.0978,-0.0888,0.18320000000000003,0.19340000000000002],[-0.13620000000000002,0.0878,0.1302,-0.040600000000000004,0.1892,0.13360000000000002,-0.1902,-0.0182,-0.1164,-0.1228,0.1312,-0.032,-0.0222,0.0288,-0.15800000000000003,0.142,0.1938,0.18400000000000002,0.05280000000000001,0.10980000000000001,-0.0154,-0.1626,0.0892,0.062400000000000004,-0.10600000000000001],[-0.15100000000000002,-0.1704,-0.1292,-0.071,-0.10400000000000001,-0.0044,-0.0152,-0.1402,0.0074,0.016800000000000002,-0.1928,-0.0616,-0.0966,-0.0316,0.0242,-0.0206,0.061,-0.005600000000000001,0.0732,0.142,0.1458,-0.062400000000000004,-0.09140000000000001,-0.1164,0.145],[0.1996,-0.18460000000000001,0.07900000000000001,0.0912,-0.13899999999999998,-0.048,-0.1048,-0.019600000000000003,0.11140000000000001,0.1524,-0.051800000000000006,-0.0236,-0.1268,-0.1646,-0.07780000000000001,-0.046200000000000005,-0.006600000000000001,0.11240000000000001,0.09040000000000001,-0.13040000000000002,0.13140000000000002,0.0868,-0.0304,-0.036,-0.0884],[-0.0722,0.06520000000000001,0.16100000000000003,-0.15400000000000003,0.0194,0.1274,-0.18600000000000003,-0.0664,-0.0358,-0.041,-0.0178,-0.12340000000000001,0.1892,0.191,-0.05,0.1826,0.0598,-0.15400000000000003,-0.08360000000000001,-0.09300000000000001,-0.021,-0.10320000000000001,0.1936,-0.1892,-0.0976],[0.1198,-0.0692,-0.0252,0.1896,-0.026400000000000003,0.0108,-0.15480000000000002,0.1814,0.06580000000000001,0.12,0.0586,0.143,0.15000000000000002,0.1048,-0.18680000000000002,-0.16140000000000002,0.168,0.0242,-0.0386,-0.1378,-0.028399999999999998,-0.0724,0.10640000000000001,0.1436,0.1516],[0.194,0.1826,-0.12440000000000001,0.0366,0.1298,0.1014,0.11080000000000001,-0.1268,-0.11060000000000002,0.11040000000000001,-0.18120000000000003,0.027400000000000004,-0.08000000000000002,-0.1496,0.0534,-0.08960000000000001,-0.0114,-0.19820000000000002,0.196,-0.13360000000000002,0.13799999999999998,0.054400000000000004,-0.0958,-0.050600000000000006,0.15900000000000003],[0.1246,-0.0766,-0.039400000000000004,0.11040000000000001,-0.1894,-0.12240000000000001,0.1892,0.034,-0.1194,-0.1432,-0.0724,-0.10200000000000001,-0.12760000000000002,0.126,-0.0172,-0.022400000000000003,0.18220000000000003,0.1532,-0.0454,0.1544,0.028399999999999998,-0.1456,-0.12560000000000002,0.0674,0.013600000000000001],[-0.0502,0.10520000000000002,-0.08600000000000001,-0.021400000000000002,-0.0348,0.0364,0.053000000000000005,0.1634,-0.0756,0.0758,0.10620000000000002,-0.18600000000000003,0.0296,-0.13799999999999998,0.0832,0.048600000000000004,0.009,-0.1242,0.006200000000000001,-0.031,-0.09200000000000001,0.1694,-0.17120000000000002,0.07900000000000001,-0.189],[0.0742,0.1454,-0.017,-0.1496,0.0108,0.0414,-0.13440000000000002,-0.0654,0.1854,-0.1738,-0.1158,-0.021400000000000002,-0.08940000000000001,-0.061200000000000004,0.0344,0.1514,-0.07940000000000001,0.13140000000000002,-0.013400000000000002,-0.1274,-0.191,0.197,-0.0176,-0.060200000000000004,0.067],[-0.10860000000000002,-0.08000000000000002,-0.12660000000000002,0.1408,-0.027200000000000002,-0.1654,-0.0074,0.1854,0.1242,-0.08900000000000001,0.0956,0.0978,-0.1168,0.1274,-0.1998,0.1524,0.11299999999999999,0.08960000000000001,-0.1632,0.1966,-0.046400000000000004,-0.0502,-0.10060000000000001,-0.0074,0.10820000000000002],[0.049800000000000004,0.193,-0.046000000000000006,0.0726,-0.06280000000000001,0.026800000000000004,0.0218,-0.020200000000000003,-0.18080000000000002,-0.11499999999999999,0.1874,0.1328,-0.005000000000000001,-0.19240000000000002,-0.17120000000000002,-0.0378,0.192,0.10500000000000001,0.045000000000000005,0.0356,0.10300000000000001,-0.018600000000000002,-0.1172,0.060200000000000004,-0.0318],[0.08460000000000001,-0.028999999999999998,0.1896,-0.16160000000000002,-0.15880000000000002,0.10600000000000001,-0.021400000000000002,0.1882,-0.1486,-0.0872,0.06899999999999999,0.137,0.135,0.10960000000000002,0.1686,0.0842,-0.1554,0.07500000000000001,0.1242,0.1706,-0.0594,-0.043800000000000006,-0.0608,0.1144,-0.0694],[-0.0872,-0.0858,-0.07780000000000001,-0.15960000000000002,0.1144,0.1512,-0.1444,0.12480000000000001,-0.0012000000000000001,0.027000000000000003,0.16100000000000003,-0.1418,-0.0594,0.1906,-0.0044,0.0902,-0.0586,0.193,0.09960000000000001,0.0228,-0.1196,-0.0008,0.1226,-0.15600000000000003,0.19940000000000002],[-0.12440000000000001,-0.025400000000000002,0.1442,-0.034,0.026600000000000002,0.15080000000000002,0.1058,0.0984,0.1894,0.0222,-0.1348,-0.11200000000000002,0.13,0.09280000000000001,0.0442,-0.0708,-0.023000000000000003,0.1766,-0.0912,0.13660000000000003,0.15700000000000003,0.146,0.16720000000000002,0.10460000000000001,0.12960000000000002]],[[-0.0596,-0.146,0.0826,0.0172,0.1836,0.1724,-0.1254,-0.0708,0.1274,0.045000000000000005,0.1888,0.11040000000000001,0.06820000000000001,-0.15200000000000002,-0.039400000000000004,0.1188,0.0688,-0.10120000000000001,0.013400000000000002,0.1164,0.019600000000000003,-0.1318,0.1602,0.0742,-0.13660000000000003],[0.0708,-0.10420000000000001,-0.006200000000000001,-0.1302,-0.12860000000000002,-0.1514,0.033800000000000004,-0.0618,0.0958,-0.09860000000000001,0.1922,-0.0426,-0.1338,0.012400000000000001,-0.0666,0.07440000000000001,0.0436,-0.11699999999999999,-0.0746,0.1824,-0.0286,-0.1784,0.048600000000000004,-0.06,0.1448],[-0.19920000000000002,-0.13340000000000002,-0.1736,-0.09260000000000002,0.0494,0.15880000000000002,-0.0718,-0.1184,-0.1166,0.031400000000000004,0.054200000000000005,0.0484,0.17500000000000002,-0.1646,-0.1472,-0.04680000000000001,-0.033800000000000004,0.0796,0.031,-0.033400000000000006,0.1298,-0.118,0.1562,-0.059,-0.09060000000000001],[-0.0738,-0.04020000000000001,0.1796,0.11259999999999999,-0.1412,0.1152,-0.0734,0.17500000000000002,0.0772,0.022000000000000002,0.10940000000000001,0.1626,0.15500000000000003,0.16820000000000002,-0.1516,0.1758,0.0758,-0.0596,-0.06760000000000001,0.1282,0.07880000000000001,0.0702,0.118,0.031,-0.0294],[-0.0482,0.1216,0.10960000000000002,-0.1292,0.1406,-0.131,0.12140000000000001,-0.194,-0.1332,-0.15360000000000001,-0.168,0.1014,-0.15900000000000003,-0.049600000000000005,0.08020000000000001,-0.101,-0.0884,0.11240000000000001,0.19240000000000002,0.0952,-0.0032,-0.10840000000000001,-0.10940000000000001,0.044800000000000006,-0.1778],[0.048,0.122,-0.0126,0.1408,-0.0776,0.13899999999999998,0.08080000000000001,-0.13440000000000002,-0.13360000000000002,-0.0346,-0.1628,0.1422,0.15200000000000002,-0.18300000000000002,-0.1176,0.08660000000000001,-0.07540000000000001,-0.0172,0.1402,0.0938,-0.123,0.1656,-0.1292,0.1172,0.0862],[-0.1308,0.041800000000000004,-0.1406,-0.0848,0.1632,-0.1486,-0.18000000000000002,0.085,0.17600000000000002,0.0072,0.074,0.0796,-0.17600000000000002,0.08760000000000001,-0.1684,0.07980000000000001,0.1966,-0.003,-0.144,0.11499999999999999,0.059,-0.0594,-0.026400000000000003,0.17980000000000002,0.006],[-0.0352,0.1952,0.0738,0.0024000000000000002,0.1024,0.06820000000000001,0.082,0.17820000000000003,-0.18700000000000003,0.1766,-0.021400000000000002,0.19840000000000002,-0.0068000000000000005,-0.0094,-0.003,0.0206,-0.135,0.09920000000000001,-0.08560000000000001,0.056799999999999996,0.0016,0.0878,-0.10660000000000001,0.1252,-0.0396],[-0.037,-0.0352,0.038400000000000004,-0.1804,-0.11140000000000001,-0.09240000000000001,0.0756,-0.0478,-0.197,-0.0262,0.17700000000000002,0.1834,0.1886,-0.0352,-0.0512,0.1494,-0.0838,-0.1438,-0.17820000000000003,0.1312,-0.0822,-0.124,-0.17880000000000001,0.198,-0.14880000000000002],[0.023400000000000004,-0.059,0.18460000000000001,0.036,0.0966,0.0078000000000000005,0.0118,-0.1554,-0.10360000000000001,-0.14980000000000002,-0.17320000000000002,-0.1896,-0.12940000000000002,-0.1526,-0.07780000000000001,-0.166,0.0174,0.0722,0.072,-0.08040000000000001,0.038200000000000005,-0.1242,-0.021,-0.099,-0.18720000000000003],[-0.1882,0.1436,-0.0586,0.0054,-0.0318,-0.08560000000000001,-0.1836,-0.19340000000000002,0.09620000000000001,0.043800000000000006,0.16180000000000003,0.10400000000000001,-0.0816,-0.15940000000000001,0.12140000000000001,-0.122,-0.1338,-0.1252,0.07600000000000001,-0.0316,0.07680000000000001,-0.0762,0.098,-0.1466,0.08940000000000001],[0.1028,0.026000000000000002,0.046400000000000004,-0.11120000000000002,-0.19840000000000002,0.0246,0.15300000000000002,0.1626,0.06580000000000001,-0.19940000000000002,-0.1652,0.123,-0.124,0.0776,-0.1274,0.19,0.04580000000000001,0.0994,0.1962,-0.06380000000000001,0.09100000000000001,0.0262,-0.0566,0.1664,0.09920000000000001],[-0.055400000000000005,0.08940000000000001,0.1904,0.13460000000000003,-0.1162,-0.07680000000000001,0.1418,-0.082,0.09300000000000001,-0.13240000000000002,0.064,-0.19340000000000002,0.10700000000000001,-0.12760000000000002,-0.163,0.1676,0.099,-0.0054,-0.0946,0.068,-0.0188,-0.084,-0.025800000000000003,-0.10540000000000001,-0.0108],[-0.0432,0.15500000000000003,-0.12480000000000001,0.0426,-0.11240000000000001,-0.1252,0.09280000000000001,0.08660000000000001,0.038200000000000005,0.14780000000000001,0.1446,-0.017,0.09160000000000001,-0.0078000000000000005,-0.1184,-0.060200000000000004,-0.0088,0.028999999999999998,-0.1216,-0.0888,0.12440000000000001,0.09300000000000001,0.032600000000000004,0.1506,0.0092],[-0.05360000000000001,0.12940000000000002,0.0282,0.13620000000000002,-0.1534,-0.13640000000000002,-0.0158,-0.1142,0.0206,-0.1474,0.0188,0.06580000000000001,-0.05160000000000001,0.09060000000000001,-0.1288,0.10620000000000002,-0.039400000000000004,-0.055200000000000006,-0.11599999999999999,0.15680000000000002,-0.1208,-0.134,0.0874,0.10300000000000001,0.042],[-0.1048,-0.062200000000000005,-0.1132,-0.1612,-0.18520000000000003,-0.17500000000000002,0.0988,0.04020000000000001,0.09300000000000001,-0.1406,0.1512,-0.09860000000000001,-0.1338,-0.0616,-0.1018,0.19340000000000002,0.1164,0.09360000000000002,0.16160000000000002,0.1172,0.016800000000000002,-0.1242,-0.10620000000000002,-0.0072,0.0714],[-0.0044,-0.0206,0.015,-0.082,-0.0762,0.08120000000000001,0.021400000000000002,0.11599999999999999,-0.05160000000000001,0.15300000000000002,-0.1,0.13740000000000002,0.013200000000000002,-0.096,0.098,-0.0592,0.0044,-0.1956,-0.0362,0.1878,0.043000000000000003,-0.05160000000000001,-0.1938,0.132,0.1332],[-0.0618,0.019000000000000003,-0.1628,0.16720000000000002,0.1078,0.0484,0.007000000000000001,-0.045200000000000004,-0.07500000000000001,-0.1476,-0.0426,0.16140000000000002,-0.15580000000000002,-0.0052,-0.0456,0.15400000000000003,0.1408,0.1572,0.0082,0.1526,0.1986,0.1368,0.15900000000000003,-0.0522,-0.044000000000000004],[-0.0688,0.1332,0.006200000000000001,0.0212,-0.1236,0.039400000000000004,-0.006600000000000001,0.1502,-0.1764,-0.11359999999999999,0.0414,0.12760000000000002,-0.006,0.142,0.1932,0.10260000000000001,-0.17,0.18720000000000003,-0.0732,0.1892,0.08360000000000001,-0.1968,-0.0834,0.197,0.0994],[-0.053200000000000004,0.0228,-0.072,0.05380000000000001,0.0072,0.1658,0.19240000000000002,-0.0578,0.0708,-0.17300000000000001,-0.1484,0.1896,0.15780000000000002,-0.06680000000000001,-0.0238,0.1978,0.1636,0.10600000000000001,0.0256,0.19940000000000002,-0.148,0.10760000000000002,-0.0772,-0.0932,-0.06999999999999999],[-0.055400000000000005,-0.04680000000000001,0.134,0.031,-0.1888,0.13999999999999999,-0.09100000000000001,-0.13,-0.006200000000000001,0.0762,-0.0092,-0.18600000000000003,0.15500000000000003,0.1514,-0.1768,-0.1386,-0.0048000000000000004,0.0432,-0.12380000000000001,0.1258,-0.1014,0.0408,0.0256,-0.024,-0.0654],[0.13060000000000002,-0.15560000000000002,-0.11299999999999999,-0.164,-0.0656,0.0948,0.023000000000000003,0.11100000000000002,0.0868,0.038200000000000005,-0.12840000000000001,0.1476,0.0456,-0.06620000000000001,0.1494,0.1144,0.05360000000000001,0.05260000000000001,-0.1956,-0.1986,0.1128,0.03,0.1078,-0.022400000000000003,-0.031200000000000002],[0.05260000000000001,0.1664,0.11120000000000002,0.1916,-0.05480000000000001,0.0944,-0.1962,0.0164,0.1004,-0.0524,0.012,0.0752,0.014000000000000002,0.18380000000000002,-0.011000000000000001,-0.0514,-0.164,-0.1274,-0.0874,-0.18520000000000003,0.10840000000000001,0.1258,-0.12380000000000001,-0.1978,0.163],[-0.0698,0.023400000000000004,-0.1736,0.0988,0.1698,0.026600000000000002,-0.07940000000000001,0.083,0.15100000000000002,0.0424,-0.1626,-0.1496,-0.07780000000000001,-0.13560000000000003,-0.1014,0.13660000000000003,-0.1292,0.095,-0.0938,0.1308,0.10940000000000001,-0.13,0.07880000000000001,-0.15300000000000002,-0.143],[-0.1882,0.0154,0.0208,-0.1926,0.18680000000000002,-0.12760000000000002,-0.1602,0.0386,0.0564,0.027400000000000004,0.1018,-0.101,0.15460000000000002,0.0076,-0.1462,0.1886,-0.0824,-0.17,-0.062200000000000005,0.13060000000000002,0.05600000000000001,0.1524,0.048600000000000004,-0.10460000000000001,0.0068000000000000005]],[[0.13921544877085512,-0.10235003376533251,0.00242535625036333,-0.19451357127913904,-0.16516676064974276,-0.07033533126053655,-0.038078093130704274,-0.0213431350031973,0.04098852063114027],[-0.1671070456500334,-0.1450363037717271,0.07664125751148122,-0.02619384750392396,0.005578319375835659,0.23016630815947997,-0.0897381812634432,0.12417824001860248,0.1920882150287757],[0.15328251502296245,0.05845108563375624,-0.07300322313593623,0.19354342877899372,0.040503449381067605,0.22070741878306302,0.12684613189400215,0.211248529406646,-0.034682594380195615],[0.14770419564712678,-0.23162152190969798,-0.1624988687743431,0.1360624856453828,0.21900966940780867,0.07494350813622688,-0.06111897750915591,-0.15085715877259911,-0.15764815627361645],[-0.07979422063695354,-0.1787487556517774,-0.1831143969024314,0.1758383281513414,-0.23477448503517032,0.23137898628466164,0.15692054939850744,0.07858154251177188,0.1421258762712911],[0.1367900925204918,-0.12975655939443814,-0.20081949753008368,-0.04123105625617661,0.1654092962747791,0.004365641250653993,0.07591365063637222,-0.2384125194107153,-0.17777861315163207],[0.1809315762771044,-0.04074598500610394,-0.1343647362701285,0.1823867900273224,0.18359946815250405,0.02546624062881496,-0.18942032315337606,0.202517246905338,-0.2146440281571547],[-0.09240607313884286,0.03249977375486862,-0.02934681062939629,-0.19766653440461135,-0.022313277503342634,-0.18214425440228607,0.08561507563782553,0.22919616565933465,0.1595884412739071],[0.12805881001918382,-0.004608176875690326,-0.198151605654684,-0.06888011751031856,-0.05820855000871991,0.06111897750915591,-0.1823867900273224,0.23137898628466164,-0.020615528128088305],[0.16759211690010606,-0.19984935502993836,0.16516676064974276,0.221435025658172,-0.15255490814785344,0.1377602350206371,-0.20081949753008368,0.07955168501191721,0.18626736002790373],[0.18723750252804905,0.0705778668855729,0.13290952251991048,-0.0038805700005813274,0.15764815627361645,-0.037835557505667944,0.2182820625326997,0.1574056206485801,-0.19839414127972035],[0.015764815627361643,0.04947726750741192,0.024253562503633298,-0.219252205032845,-0.214886563782191,0.0676674393851369,0.0235259556285243,-0.2398677331609333,-0.22070741878306302],[-0.22264770378335366,-0.15934590564887077,0.017462565002615973,0.21658431315744534,0.04171612750624927,-0.21294627878190034,0.11859992064276682,0.17826368440170473,-0.22192009690824469],[-0.2066403525309557,-0.11350667251700383,-0.1377602350206371,-0.1979090700296477,-0.1729279006509054,0.19427103565410273,-0.19596878502935705,0.006305926250944657,-0.21246120753182768],[0.06451447625966457,0.20057696190504737,-0.05287276625792059,0.1925732862788484,-0.15061462314756277,0.11035370939153151,-0.0019402850002906637,0.22604320253386234,0.03856316438077694],[-0.06451447625966457,0.11083878064160417,0.07373083001104522,0.03856316438077694,-0.09943960626489651,-0.08804043188818887,0.19427103565410273,-0.007033533126053656,-0.010186496251525986],[0.24253562503633297,-0.12757373876911116,0.1838420037775404,-0.07639872188644489,-0.03419752313012295,0.20421499628059236,0.1646816893996701,-0.010186496251525986,0.17608086377637774],[-0.22434545315860802,0.10356271189051418,-0.1132641368919675,-0.14261094752136377,0.09895453501482385,0.052145159382811584,-0.05626826500842925,0.043413876881503596,0.08367479063753487],[-0.060148835009010575,0.226528273783935,-0.007276068751089989,0.1823867900273224,-0.1962113206543934,0.19596878502935705,-0.20106203315512003,0.029831881879468954,-0.12490584689371148],[-0.17123015127565105,-0.20275978253037436,-0.15498026439821677,0.18869271627826706,0.16880479502528772,-0.21173360065671867,-0.20057696190504737,-0.1544951931481441,-0.12539091814378414],[-0.022313277503342634,0.20882317315628268,0.16492422502470644,0.20712542378102836,0.11083878064160417,-0.0676674393851369,-0.16831972377521506,-0.06524208313477357,-0.10671567501598651],[-0.21803952690766334,0.11374920814204016,-0.17195775815076006,-0.027891596879178294,-0.10647313939095017,-0.09749932126460586,0.19378596440403006,0.2015471044051927,-0.028376668129250958],[0.12927148814436548,-0.08779789626315253,-0.23137898628466164,0.2355020919102793,-0.11665963564247615,0.23865505503575163,0.16492422502470644,0.09749932126460586,-0.08804043188818887],[-0.005335783750799325,-0.16831972377521506,-0.14527883939676345,-0.018917778752833972,-0.22240516815831735,0.042928805631430936,0.10817088876620451,0.026436383128960295,-0.09434635813913353],[-0.04098852063114027,0.23501702066020663,-0.09095085938862486,-0.03274230937990495,-0.19475610690417539,-0.015279744377288977,-0.006790997501017323,0.03371245188005029,0.1486743381472721]]]}