{"name":"","initialization_type":"xavier","training_iterations":0,"input_dimensions":{"vertical":6,"horizontal":6},"output_dimensions":{"vertical":3,"horizontal":3},"deep_layers":8,"neurons_per_layer":25,"weights":[[[0.08039574248575646,-0.0030782153654456304,0.018831435176843853,-0.10067574959928062,0.1490218379859855,-0.08021467099367142,0.039654656766623116,0.1792607771641867,-0.16187791392402315,0.1225854001415701,-0.059210377911807124,0.09343288991587913,0.036938584385347556,-0.1792607771641867,-0.10484039391723646,-0.03386036901990193,-0.0307821536544563,0.0698935959448243,-0.07568788369154549,0.02842822425735082,-0.022633936510629633,0.02408250844730993,-0.11443718299774343,-0.06735859505563378,-0.1426843357630092],[-0.17382863240163557,0.16205898541610816,0.0957868193129846,-0.11715325537901898,-0.10991039569561749,0.013399290414292742,-0.13562254757169276,0.052510732704660744,-0.03874929930619793,-0.07098002489733453,0.0016296434287653334,-0.1426843357630092,-0.17437184687789067,-0.08184431442243675,0.1754582758304009,0.1231286146178252,0.09759753423383498,-0.060115735372232304,-0.0903546745504335,-0.04508680152917423,-0.030420010670286227,-0.063556093721848,0.055226805085936304,-0.038387156322027854,-0.15644576916147201],[-0.1749150613541458,-0.10610789436183171,-0.16187791392402315,0.06663430908729363,-0.09415717588421928,0.03313608305156178,0.15354862528811142,-0.031506439622796444,0.13254433220624712,-0.13670897652420297,0.1495650524622406,0.04182751467164356,0.0581239489592969,0.02426357993939497,0.039111442290368004,-0.047983945402534825,0.07496359772320534,-0.11588575493442373,0.13037147430122667,-0.07930931353324623,-0.04762180241836475,0.15463505424062166,0.03313608305156178,0.17654470478291112,0.1377954054767132],[-0.08781967366124298,0.14087362084215885,-0.14540040814428476,-0.12095575671280476,-0.09995146363094047,0.12294754312574017,-0.15119469589100595,0.04218965765581364,-0.009234646096336889,0.07496359772320534,-0.16767220167074431,0.15336755379602637,-0.05739966299095675,-0.014485719366802966,0.136890048016288,0.15861862706649246,0.0038025013337857783,0.044543587052919116,0.1778122052275064,0.0860089587403926,0.11986932776029455,0.0019917864129354074,0.1475732660493052,-0.10701325182225689,-0.14051147785798876],[0.02426357993939497,0.16549934376572387,-0.055045733593851266,-0.07876609905699113,-0.1694829165915947,0.13127683176165186,-0.007786074159656593,0.17672577627499617,-0.028247152765265782,-0.010140003556762076,0.09488146185255943,-0.16676684421031915,0.016296434287653334,0.14286540725509425,-0.10067574959928062,0.009234646096336889,0.14340862173134936,0.032049654099051555,0.07858502756490608,0.14105469233424386,0.0048889302862960005,-0.15572148319313187,0.009234646096336889,-0.1225854001415701,-0.05395930464134104],[0.13815754846088327,0.0727907398181849,-0.10991039569561749,0.07858502756490608,0.08003359950158638,0.01647750577973837,0.14485719366802965,-0.09506253334464446,0.1432275502392643,0.031506439622796444,-0.141778978302584,0.08818181664541305,-0.05794287746721186,-0.13906290592130846,0.180709349100867,-0.15753219811398225,0.12186111417322995,-0.09795967721800505,-0.05015680330755527,-0.08130109994618165,0.1147993259819135,0.02154750755811941,0.05432144762551112,0.161153627955683,-0.0805768139778415],[0.07007466743690935,-0.16622362973406402,-0.07061788191316445,0.1694829165915947,-0.0650046656585283,-0.16441291481321366,0.09922717766260032,-0.12620682998327082,-0.12493932953867556,-0.12005039925237958,0.10248646452013097,-0.07170431086567468,0.020642150097694226,-0.09307074693170905,-0.11226432509272298,0.09759753423383498,-0.024625722923565043,-0.006337502222976298,-0.11443718299774343,0.11009146718770253,-0.01593429130348326,0.1636886288448735,0.03730072736951763,-0.12638790147535586,-0.12385290058616535],[-0.08727645918498786,-0.1314579032537369,0.15843755557440742,0.11244539658480801,0.044000372576664004,-0.013942504890547854,-0.08039574248575646,0.06265073626142281,-0.11860182731569928,0.1444950506838596,0.13815754846088327,0.1798039916404418,0.05395930464134104,-0.11316968255314816,-0.08781967366124298,0.1265689729674409,0.10176217855179084,-0.07514466921529038,0.1392439774133935,-0.15861862706649246,-0.019193578161013927,0.11443718299774343,-0.12982825982497156,0.09506253334464446,0.10665110883808682],[-0.11588575493442373,-0.028790367241520894,-0.1294661168408015,0.17455291836997572,-0.04744073092627971,0.029333581717776006,0.11045361017187261,-0.030420010670286227,0.11787754134735913,-0.13399290414292742,0.10411610794889631,-0.04309501511623882,-0.006156430730891261,0.10991039569561749,0.10936718121936238,0.17654470478291112,-0.1740097038937206,0.005794287746721186,-0.17455291836997572,0.0615643073089126,-0.051786446736320595,0.0811200284540966,-0.14576255112845485,0.08999253156626343,0.17183684598870017],[-0.011407504001357335,-0.10357289347264119,-0.14232219277883915,0.08564681575622253,0.020642150097694226,-0.12330968610991025,-0.1524621963356012,-0.1626021998923633,-0.05468359060968119,0.1763636332908261,-0.11878289880778432,-0.11498039747399853,0.16242112840027825,-0.13272540369833216,0.10991039569561749,-0.07949038502533128,-0.014485719366802966,-0.11733432687110402,0.0012675004445952594,0.10212432153596089,0.021728579050204446,-0.11280753956897809,-0.17962292014835676,0.17274220344912536,-0.17962292014835676],[-0.09759753423383498,-0.13417397563501246,0.11407504001357335,0.11733432687110402,0.10936718121936238,-0.14196004979466906,0.04291394362415378,0.08383610083537216,0.10212432153596089,0.026074294860245335,-0.008872503112166816,-0.034041440511986966,0.049251445847130086,0.1627832713844483,-0.13363076115875736,0.1559025546852169,0.14431397919177455,-0.11878289880778432,0.003259286857530667,-0.17672577627499617,0.16839648763908446,-0.06898823848439913,0.05414037613342608,-0.07804181308865098,-0.06772073803980386],[-0.06953145296065423,0.0972353912496649,-0.024987865907735118,-0.10176217855179084,0.05142430375215052,0.09506253334464446,0.11262646807689305,0.12330968610991025,-0.11534254045816861,-0.1256636155070157,-0.1435896932234344,-0.08655217321664771,-0.13616576204794786,-0.10357289347264119,-0.05540787657802134,0.15499719722479172,0.05830502045138194,0.09071681753460356,0.14232219277883915,0.06319395073767793,-0.17075041703618993,0.08510360127996741,0.1671289871944892,-0.009596789080506964,0.17563934732248596],[0.146486837096795,0.1444950506838596,0.15155683887517601,0.1196882562682095,-0.0952436048367295,0.036214298417007414,-0.04472465854500415,-0.1626021998923633,-0.1441329076996895,0.015572148319313186,-0.053778233149256005,-0.1421411212867541,-0.051786446736320595,0.09506253334464446,0.05540787657802134,-0.006699645207146371,0.1421411212867541,0.1432275502392643,0.16205898541610816,-0.14992719544641067,-0.08619003023247764,0.05432144762551112,-0.030601082162371264,0.1432275502392643,-0.17527720433831587],[-0.17292327494121038,-0.025531080383990223,0.1553593402089618,-0.12675004445952592,0.1363468335400329,-0.06373716521393304,0.06174537880099764,0.032773940067391705,-0.11498039747399853,0.02915251022569097,0.0860089587403926,0.13743326249254312,-0.09922717766260032,-0.13616576204794786,-0.0210042930818643,-0.08637110172456268,-0.03331715454364682,-0.09886503467843025,0.05902930641972209,0.12765540191995112,0.16839648763908446,0.010864289525102223,-0.10737539480642697,-0.002535000889190519,-0.12276647163365513],[0.12005039925237958,-0.1559025546852169,-0.10302967899638608,0.04309501511623882,-0.06591002311895348,0.15572148319313187,-0.10502146540932149,-0.012493932953867559,0.03585215543283734,0.05088108927589542,-0.011588575493442372,0.09759753423383498,-0.11932611328403943,-0.11353182553731823,0.12149897118905988,-0.003259286857530667,0.13417397563501246,0.11461825448982846,0.14196004979466906,0.10357289347264119,-0.12602575849118577,-0.10991039569561749,0.02770393828901067,0.16205898541610816,0.1481164805255603],[0.15554041170104682,-0.08293074337494698,0.0693503814685692,0.0454489445133443,-0.17799327671959142,0.05323501867300089,-0.0012675004445952594,-0.11950718477612447,-0.08763860216915793,-0.0030782153654456304,0.09198431797919883,-0.13218218922207706,0.02353929397105482,-0.007061788191316446,0.12186111417322995,0.08763860216915793,0.0952436048367295,0.05323501867300089,0.033498226035731854,0.04961358883130016,0.13598469055586282,-0.1294661168408015,-0.06047787835640238,-0.05685644851470164,0.15137576738309097],[0.04617323048168445,-0.06446145118227319,-0.1383386199529683,-0.04128430019538845,0.15119469589100595,0.1211368282048898,0.1323632607141621,-0.04780287391044979,-0.10791860928268208,-0.04508680152917423,0.09542467632881453,-0.10085682109136565,0.12783647341203616,-0.08474145829579735,-0.12457718655450549,-0.12041254223654965,0.10248646452013097,-0.03259286857530667,0.0923464609633689,0.15753219811398225,-0.16296434287653336,0.12385290058616535,-0.14721112306513512,0.006337502222976298,0.13906290592130846],[0.1470300515730501,0.026798580828585484,-0.16586148674989395,0.11371289702940328,0.07876609905699113,0.034041440511986966,-0.1559025546852169,-0.07423931175486519,-0.14540040814428476,-0.07315288280235498,-0.09415717588421928,-0.053778233149256005,0.1182396843315292,-0.012131789969697484,-0.1559025546852169,-0.013761433398462817,-0.02643643784441541,-0.01285607593803763,0.1001325351230255,0.12602575849118577,0.10665110883808682,0.014304647874717928,-0.05160537524423556,0.09633003378923972,-0.16966398808367975],[-0.02408250844730993,0.11407504001357335,0.16731005868657425,0.08709538769290283,0.0009053574604251854,0.1680343446549144,0.0027160723812755558,-0.008691431620081779,-0.12620682998327082,0.07369609727861008,0.09198431797919883,-0.09596789080506965,0.005251073270466075,0.01647750577973837,-0.13037147430122667,0.07731752712031083,0.030057867686116152,0.10484039391723646,0.16495612928946876,-0.04780287391044979,-0.06246966476933778,0.10429717944098134,0.11298861106106313,0.10176217855179084,0.020823221589779263],[0.11081575315604268,-0.15861862706649246,0.01539107682722815,-0.12367182909408032,0.1593429130348326,-0.14395183620760446,0.06699645207146371,-0.16875863062325455,-0.09886503467843025,0.07749859861239586,0.1444950506838596,-0.07786074159656593,-0.03784394184577274,0.1461246941126249,-0.01176964698552741,-0.10628896585391674,0.0986839631863452,-0.05015680330755527,0.010683218033017186,-0.16549934376572387,0.026074294860245335,0.12693111595161097,0.04418144406874904,0.0036214298417007415,0.03096322514654134],[-0.0825686003907769,0.046535373465854526,-0.01973679263726904,-0.02154750755811941,-0.04617323048168445,0.06192645029308268,0.17871756268793157,0.00018107149208503707,0.05540787657802134,-0.08854395962958313,0.10538360839349156,0.018650363684758815,-0.13996826338173365,0.12765540191995112,-0.16350755735278846,0.16839648763908446,0.0007242859683401483,0.08003359950158638,0.009053574604251853,0.025350008891905192,-0.09470039036047438,-0.16821541614699945,-0.10140003556762077,0.0698935959448243,0.0027160723812755558],[0.03657644140117749,-0.021909650542289483,0.17382863240163557,0.034765726480327115,0.13942504890547855,-0.046716444957939564,0.06283180775350786,0.10592682286974668,-0.04490573003708919,0.030057867686116152,-0.06898823848439913,0.16133469944776802,-0.15010826693849572,0.11135896763229779,0.010140003556762076,-0.17093148852827497,0.08311181486703201,0.08184431442243675,-0.04381930108457897,-0.06301287924559289,-0.09886503467843025,0.05486466210176623,-0.12729325893578106,-0.07786074159656593,-0.068445024008144],[-0.17799327671959142,0.1510136243989209,0.06916930997648416,0.180709349100867,-0.03730072736951763,-0.15771326960606727,0.0776796701044809,0.0010864289525102223,0.10900503823519231,-0.04508680152917423,0.07949038502533128,0.028066081273180745,0.09325181842379408,-0.034041440511986966,-0.020823221589779263,0.07206645384984475,0.013218218922207705,-0.16006719900317276,-0.14884076649390046,0.08093895696201157,0.12982825982497156,0.013218218922207705,0.03241179708322163,0.0210042930818643,-0.0811200284540966],[0.07260966832609987,-0.09940824915468535,-0.025168937399820155,0.180709349100867,0.04617323048168445,0.1430464787471793,0.007786074159656593,-0.17111256002036002,0.016296434287653334,0.11570468344233868,0.1470300515730501,-0.09216538947128386,0.17853649119584655,0.17509613284623082,-0.03711965587743259,-0.06482359416644326,-0.013761433398462817,0.13363076115875736,0.05468359060968119,0.10828075226685216,0.02281500800271467,0.10683218033017186,0.16133469944776802,0.11661004090276388,-0.11371289702940328],[-0.031325368130711406,-0.1530054108118563,-0.025893223368160297,-0.09995146363094047,0.026074294860245335,-0.08691431620081778,-0.17038827405201987,0.05558894807010638,0.07677431264405571,-0.043276086608323855,0.03530894095658223,0.03530894095658223,-0.1778122052275064,0.1441329076996895,0.019555721145184002,0.01104536101718726,0.09560574782089958,0.07858502756490608,0.11642896941067883,-0.1783554197037615,0.1461246941126249,-0.01665857727182341,0.06953145296065423,0.15517826871687676,-0.015572148319313186],[-0.014666790858888003,-0.06246966476933778,-0.008872503112166816,0.1616968424319381,-0.1441329076996895,-0.05196751822840563,0.10321075048847111,0.029514653209861044,-0.10411610794889631,-0.11208325360063794,-0.04345715810040889,0.03440358349615704,-0.1265689729674409,0.17708791925916625,0.05142430375215052,-0.08093895696201157,-0.07116109638941957,-0.11932611328403943,0.01285607593803763,0.15898077005066255,0.04001679975079319,-0.161153627955683,0.06953145296065423,0.05033787479964031,0.011950718477612447],[-0.023358222478969782,0.11878289880778432,-0.13308754668250225,-0.09397610439213423,-0.15608362617730195,0.07858502756490608,-0.007786074159656593,0.11642896941067883,-0.08166324293035172,0.038930370798282966,0.05124323226006548,0.16042934198734285,-0.0019917864129354074,0.016296434287653334,-0.08365502934328713,0.062107521785167714,0.002535000889190519,-0.12186111417322995,0.14196004979466906,0.14377076471551944,0.0923464609633689,-0.0018107149208503707,-0.053053947180915856,-0.031144296638626372,0.17763113373542136],[-0.00742393117548652,0.12964718833288652,-0.055045733593851266,-0.032773940067391705,-0.13073361728539676,0.045992158989599415,0.05088108927589542,-0.04762180241836475,-0.0894493170900083,-0.14920290947807052,0.0566753770226166,0.12747433042786607,-0.10683218033017186,-0.0811200284540966,-0.004707858794210963,-0.0776796701044809,0.13272540369833216,0.04581108749751438,-0.06753966654771883,0.141597906810499,0.03748179886160267,-0.06047787835640238,-0.08293074337494698,-0.10121896407553573,-0.039654656766623116],[-0.17292327494121038,0.13182004623790697,-0.16875863062325455,0.12186111417322995,-0.1524621963356012,-0.03331715454364682,-0.016296434287653334,-0.12059361372863468,0.05269180419674578,0.15916184154274757,-0.10991039569561749,0.019917864129354076,0.0007242859683401483,0.14232219277883915,-0.022271793526459558,-0.1640507718290436,-0.0018107149208503707,-0.17147470300453008,0.14485719366802965,-0.012675004445952596,0.07369609727861008,0.01792607771641867,-0.1196882562682095,-0.02842822425735082,-0.1231286146178252],[0.17998506313252685,0.010321075048847113,-0.02154750755811941,-0.045267873021259265,0.019917864129354076,0.11099682464812771,-0.005070001778381038,-0.06609109461103853,-0.08727645918498786,0.07514466921529038,-0.031325368130711406,-0.07786074159656593,-0.18107149208503706,0.1622400569081932,0.018831435176843853,0.13453611861918255,-0.1642318433211286,0.17853649119584655,-0.06898823848439913,0.1412357638263289,0.13797647696879825,0.02353929397105482,0.06898823848439913,-0.023901436955224894,-0.1470300515730501],[-0.14576255112845485,0.08709538769290283,-0.06301287924559289,-0.004526787302125927,-0.1475732660493052,-0.039654656766623116,-0.0405600142270483,-0.08075788546992653,-0.016115362795568296,0.07405824026278016,-0.17745006224333632,-0.0747825262311203,-0.048708231370874974,-0.12493932953867556,0.06663430908729363,-0.06591002311895348,0.1225854001415701,0.10936718121936238,0.1788986341800166,-0.013037147430122667,0.1803472061166969,-0.031506439622796444,0.1656804152578089,-0.10067574959928062,0.12421504357033543],[0.03711965587743259,-0.055226805085936304,0.18089042059295202,0.027885009781095708,-0.09198431797919883,-0.17763113373542136,-0.16694791570240416,-0.0019917864129354074,0.12385290058616535,-0.05794287746721186,-0.023720365463139857,-0.0010864289525102223,-0.05902930641972209,-0.11932611328403943,0.11407504001357335,0.07260966832609987,0.0595725208959772,0.01484786235097304,-0.1645939863052987,-0.0038025013337857783,-0.042551800639983706,0.02969572470194608,0.08546574426413749,-0.07333395429444002,0.009234646096336889],[0.12023147074446461,-0.09343288991587913,-0.12638790147535586,0.1265689729674409,0.14847862350973037,0.1461246941126249,0.1694829165915947,-0.028247152765265782,-0.07315288280235498,-0.05758073448304179,0.08021467099367142,0.06518573715061333,0.17382863240163557,-0.11805861283944417,-0.08836288813749808,-0.03168751111488148,-0.08763860216915793,0.16676684421031915,0.07206645384984475,-0.12530147252284562,-0.03023893917820119,0.007242859683401483,-0.1348982616033526,-0.08673324470873275,0.0698935959448243],[0.1578943410981523,-0.09506253334464446,0.10502146540932149,-0.03186858260696652,0.049432517339215123,-0.12023147074446461,-0.13127683176165186,-0.01484786235097304,0.10429717944098134,0.028247152765265782,0.08727645918498786,0.15228112484351616,0.10918610972727734,-0.12584468699910076,-0.022452865018544595,-0.04816501689461986,-0.1587996985585775,0.060658949848487416,-0.16386970033695855,-0.15065148141475082,0.13272540369833216,-0.08564681575622253,-0.15626469766938697,-0.059934663880147274,-0.045992158989599415],[0.15481612573270667,-0.14992719544641067,0.04309501511623882,0.09759753423383498,-0.03386036901990193,-0.10212432153596089,-0.019374649653098965,-0.1314579032537369,0.17618256179874106,-0.03929251378245304,0.10954825271144741,-0.09288967543962401,-0.05214858972049067,-0.011588575493442372,-0.13851969144505336,-0.0820253859145218,-0.12367182909408032,-0.12186111417322995,0.1559025546852169,-0.029333581717776006,0.12457718655450549,0.01720179174807852,-0.03929251378245304,0.1240339720782504,0.03168751111488148],[-0.146486837096795,-0.07532574070737541,-0.034041440511986966,-0.05287287568883082,0.10321075048847111,0.14793540903347527,0.08528467277205246,-0.16061041347942787,-0.09415717588421928,-0.12385290058616535,0.00796714565174163,0.09288967543962401,0.002897143873360593,0.06753966654771883,-0.10230539302804594,0.10665110883808682,-0.12095575671280476,0.12765540191995112,0.13254433220624712,-0.04780287391044979,-0.038930370798282966,-0.17618256179874106,-0.03331715454364682,-0.16984505957576476,-0.036214298417007414]],[[0.1264,-0.13520000000000001,-0.16040000000000001,0.045000000000000005,-0.149,0.0572,-0.1308,-0.1416,-0.1428,-0.1496,0.0246,0.189,0.17220000000000002,0.0758,0.1844,-0.082,-0.0898,0.0204,-0.1574,0.022600000000000002,-0.1958,0.08700000000000001,-0.053000000000000005,-0.1422,-0.1836],[0.0262,0.18620000000000003,0.054000000000000006,-0.15400000000000003,-0.023000000000000003,-0.1668,0.06680000000000001,-0.1156,-0.1468,-0.025400000000000002,0.1044,-0.132,0.1502,0.1198,0.19840000000000002,-0.12840000000000001,-0.025800000000000003,0.020200000000000003,0.1378,-0.023000000000000003,-0.18020000000000003,-0.0412,-0.0208,0.046400000000000004,-0.1162],[-0.14780000000000001,-0.11399999999999999,0.0734,-0.0932,0.1378,0.17600000000000002,0.101,-0.019600000000000003,0.1696,-0.1386,0.10360000000000001,-0.1966,0.004,0.0206,0.022600000000000002,0.0848,0.0328,-0.194,0.026400000000000003,0.013600000000000001,0.1506,-0.0228,-0.12440000000000001,-0.1958,-0.0734],[-0.1194,-0.027000000000000003,0.099,0.0584,-0.1058,0.0608,-0.191,0.1926,0.1264,-0.18100000000000002,0.0834,0.165,0.023000000000000003,-0.11160000000000002,-0.028999999999999998,-0.10620000000000002,-0.027200000000000002,0.014199999999999999,-0.1206,0.10920000000000002,-0.1458,0.017,-0.11299999999999999,-0.048600000000000004,0.019600000000000003],[-0.19240000000000002,-0.10260000000000001,0.1188,0.0684,-0.1242,-0.11599999999999999,0.0294,-0.15180000000000002,0.08940000000000001,0.016,0.1962,0.1242,0.0122,0.0036,-0.1582,0.1,-0.0086,0.08960000000000001,0.027800000000000005,-0.019600000000000003,0.0322,-0.1312,0.09100000000000001,0.1388,-0.0974],[0.1358,-0.0722,0.1144,0.073,-0.074,-0.0814,0.13740000000000002,0.1318,0.1454,0.198,0.1328,0.10980000000000001,0.0256,-0.0608,0.16140000000000002,0.0714,-0.0594,0.0294,-0.0534,-0.11220000000000002,-0.0358,-0.0386,-0.0738,0.1174,-0.1676],[0.12,0.1704,-0.1996,0.0172,0.041800000000000004,-0.08940000000000001,0.1794,0.1746,-0.0736,-0.17700000000000002,-0.18720000000000003,-0.19940000000000002,-0.1666,0.19820000000000002,-0.0696,-0.0218,0.0018,0.0854,0.1816,-0.0366,-0.1328,0.1218,-0.0216,-0.1166,-0.0966],[0.067,-0.1658,0.1514,0.1936,0.0806,-0.0864,0.0144,0.1898,0.015,0.09100000000000001,-0.043000000000000003,-0.1134,0.0626,-0.10120000000000001,-0.048,-0.0364,-0.10320000000000001,0.1574,0.12480000000000001,-0.0696,-0.199,-0.001,0.0968,-0.122,-0.1198],[-0.0742,-0.0296,0.121,-0.1584,0.11240000000000001,-0.1188,0.064,0.15880000000000002,0.0474,0.043000000000000003,0.1796,0.10840000000000001,0.0714,-0.1172,-0.0606,0.011000000000000001,-0.07900000000000001,-0.13160000000000002,-0.1322,-0.0028000000000000004,-0.1454,-0.0614,0.0994,-0.192,0.1516],[0.0398,0.048600000000000004,-0.0476,0.048,0.0572,-0.052000000000000005,0.0444,0.07800000000000001,0.1814,-0.10120000000000001,0.13,0.06999999999999999,-0.10660000000000001,-0.1612,0.15360000000000001,-0.1998,0.1024,0.1004,0.12040000000000001,0.1622,-0.1438,-0.0206,0.10700000000000001,0.0512,-0.06280000000000001],[-0.1236,-0.1412,-0.15980000000000003,-0.13440000000000002,0.09240000000000001,0.1418,-0.1442,0.0174,0.07740000000000001,0.0818,0.012400000000000001,-0.1456,0.1678,0.10960000000000002,0.1048,-0.1318,0.004,-0.0484,-0.1738,-0.0938,-0.0822,-0.10120000000000001,0.09000000000000001,0.05600000000000001,0.1584],[0.1966,-0.06899999999999999,-0.0978,0.0244,-0.07740000000000001,0.0646,0.15480000000000002,0.0466,0.1024,0.0502,0.1514,-0.18080000000000002,0.09820000000000001,-0.1196,0.171,0.0328,0.1758,0.1506,0.0044,-0.1942,-0.0252,-0.1206,-0.013200000000000002,0.05460000000000001,0.15380000000000002],[0.1152,-0.0044,-0.09100000000000001,0.15780000000000002,-0.13,0.17880000000000001,0.0722,-0.0318,-0.1948,0.13160000000000002,-0.053200000000000004,-0.10800000000000001,0.1398,-0.0172,0.1928,0.1188,-0.07840000000000001,0.0302,0.0154,0.1196,-0.14980000000000002,-0.15560000000000002,0.0442,0.1542,0.033800000000000004],[-0.0344,0.10920000000000002,-0.0444,0.1986,0.1206,-0.0958,0.12940000000000002,0.13799999999999998,0.09060000000000001,-0.08960000000000001,-0.026800000000000004,0.031,-0.11040000000000001,0.05480000000000001,-0.03,-0.1956,-0.17920000000000003,0.1582,-0.08100000000000002,-0.11020000000000002,-0.004200000000000001,-0.015600000000000001,-0.040400000000000005,0.0864,0.15860000000000002],[0.1486,-0.0494,-0.1462,0.1718,-0.1452,-0.1168,-0.1148,-0.07640000000000001,0.0654,0.036,0.0328,0.023000000000000003,0.0748,-0.18100000000000002,-0.0204,-0.0474,-0.040400000000000005,-0.10560000000000001,0.0742,0.136,-0.05500000000000001,-0.05600000000000001,-0.1512,0.1656,0.127],[-0.08660000000000001,0.18660000000000002,-0.144,0.15280000000000002,0.042800000000000005,-0.05360000000000001,-0.08940000000000001,-0.19340000000000002,0.048600000000000004,0.10600000000000001,-0.123,0.18480000000000002,-0.08120000000000001,0.055400000000000005,0.0748,0.0006000000000000001,0.0688,-0.18400000000000002,-0.0424,-0.1952,0.15660000000000002,0.135,0.133,-0.13540000000000002,-0.013200000000000002],[-0.0592,0.0588,-0.1222,0.09920000000000001,-0.10420000000000001,-0.1486,0.0654,-0.18020000000000003,-0.023000000000000003,0.1034,-0.13620000000000002,-0.18320000000000003,0.1004,-0.0058000000000000005,0.0604,0.2,-0.0746,0.0706,0.0078000000000000005,-0.18120000000000003,-0.062200000000000005,-0.0884,0.09100000000000001,-0.1376,-0.0762],[-0.0908,0.0184,-0.0304,0.0004,-0.041800000000000004,0.05260000000000001,-0.197,-0.17220000000000002,0.1158,0.1226,0.10920000000000002,0.0288,-0.0514,0.1298,0.1166,0.10860000000000002,0.1758,0.055400000000000005,-0.0708,-0.026400000000000003,0.0328,0.0716,0.003,0.1668,-0.046000000000000006],[0.10720000000000002,0.0246,-0.0228,-0.11399999999999999,-0.025,-0.06520000000000001,-0.0596,0.12240000000000001,-0.0364,0.0592,-0.09140000000000001,-0.0068000000000000005,0.1496,0.10620000000000002,-0.0262,-0.18300000000000002,0.0864,0.12560000000000002,0.011200000000000002,0.0724,-0.165,0.11299999999999999,0.0742,0.08080000000000001,-0.08560000000000001],[-0.1154,0.10220000000000001,-0.12,0.1952,0.032600000000000004,-0.15100000000000002,-0.064,0.0704,-0.09160000000000001,-0.0006000000000000001,-0.09960000000000001,0.148,0.15180000000000002,-0.013800000000000002,-0.18460000000000001,0.028999999999999998,0.15300000000000002,-0.0868,-0.17800000000000002,-0.09100000000000001,-0.19,0.08600000000000001,0.0566,-0.0398,0.10920000000000002],[-0.1612,-0.0074,-0.06820000000000001,-0.19720000000000001,0.0212,0.10020000000000001,0.0684,0.007000000000000001,0.0838,-0.122,-0.0694,0.16720000000000002,0.146,-0.133,0.169,0.07980000000000001,0.1432,0.1794,-0.1502,-0.1532,-0.1434,-0.1908,-0.0358,-0.0722,-0.0634],[0.013200000000000002,0.1198,-0.1288,0.18600000000000003,-0.1526,-0.06280000000000001,-0.12760000000000002,-0.1956,0.15940000000000001,-0.1656,-0.10760000000000002,-0.033600000000000005,0.1426,0.1636,0.12240000000000001,0.15780000000000002,-0.055200000000000006,0.1258,-0.0592,-0.008400000000000001,0.004200000000000001,0.1744,0.062,-0.1424,0.191],[0.10520000000000002,-0.17600000000000002,0.010000000000000002,0.065,0.1882,-0.1642,-0.023400000000000004,-0.09160000000000001,-0.0978,0.039400000000000004,0.0576,-0.062400000000000004,0.1628,-0.1412,0.19920000000000002,0.1664,0.0524,-0.0762,-0.008400000000000001,0.0122,0.068,-0.13999999999999999,-0.12040000000000001,-0.0732,0.011600000000000001],[0.041800000000000004,0.0102,-0.062200000000000005,-0.15940000000000001,-0.19240000000000002,0.1638,0.1216,-0.05380000000000001,-0.15900000000000003,-0.15680000000000002,-0.0178,0.1758,0.1834,0.005000000000000001,-0.056999999999999995,0.1968,0.0416,0.0956,-0.041,0.0838,0.0424,0.0332,0.169,-0.1786,-0.09060000000000001],[0.18080000000000002,0.013000000000000001,-0.032400000000000005,0.1706,-0.1916,-0.1412,-0.0966,0.10060000000000001,-0.0796,0.0482,0.09960000000000001,-0.0878,-0.10400000000000001,-0.11200000000000002,-0.0378,-0.1338,-0.1646,-0.032,-0.1884,-0.10060000000000001,0.0296,0.0748,0.0478,-0.0332,0.0102]],[[0.18580000000000002,-0.1432,-0.0854,0.0024000000000000002,-0.11180000000000001,-0.1542,-0.165,0.10560000000000001,-0.1714,-0.041,-0.0188,-0.18300000000000002,-0.0974,0.023200000000000002,-0.1472,0.118,-0.1728,-0.19640000000000002,-0.1686,-0.13160000000000002,0.1814,-0.0848,0.1338,-0.1882,-0.16140000000000002],[-0.0398,-0.137,0.040400000000000005,0.0148,-0.11399999999999999,0.0828,0.0758,-0.0654,0.1264,0.165,-0.15960000000000002,-0.1504,0.013800000000000002,0.15980000000000003,0.16060000000000002,-0.09200000000000001,0.12760000000000002,0.10700000000000001,0.027000000000000003,0.1926,-0.007000000000000001,-0.10600000000000001,0.1386,-0.039400000000000004,0.13899999999999998],[0.1592,0.0832,0.0108,-0.0018,0.002,0.11220000000000002,-0.17120000000000002,-0.06780000000000001,-0.17900000000000002,-0.17520000000000002,0.0412,-0.0594,0.0222,-0.017,-0.0378,0.08800000000000001,0.1656,0.061200000000000004,-0.0858,0.05160000000000001,-0.1656,-0.0782,-0.1516,-0.1562,-0.1898],[0.0022,-0.11220000000000002,-0.1298,-0.1506,0.11259999999999999,0.17320000000000002,-0.11180000000000001,-0.1968,0.15560000000000002,-0.0534,0.026000000000000002,-0.1456,0.1876,-0.1786,0.18000000000000002,0.045000000000000005,0.0318,-0.18560000000000001,-0.0872,0.1816,0.0478,-0.038200000000000005,-0.1774,-0.08660000000000001,-0.03900000000000001],[-0.16200000000000003,0.17420000000000002,0.07880000000000001,-0.0436,-0.1894,0.0502,-0.06860000000000001,0.17720000000000002,0.11699999999999999,0.1902,0.023400000000000004,-0.0872,0.1652,-0.1648,-0.048,-0.0026,-0.07780000000000001,-0.027200000000000002,0.17520000000000002,-0.056799999999999996,0.1572,0.10840000000000001,-0.0262,0.07600000000000001,-0.18080000000000002],[0.1168,-0.1438,0.0576,0.039200000000000006,-0.12840000000000001,0.09140000000000001,-0.19,0.0454,-0.18000000000000002,-0.1494,0.1158,-0.0888,0.11240000000000001,0.0502,0.146,0.1884,-0.0396,-0.003,-0.0038,0.13140000000000002,-0.18300000000000002,0.03900000000000001,-0.0408,-0.0636,0.032400000000000005],[0.0158,0.137,0.0578,0.0318,0.1638,-0.1948,0.1986,0.0004,-0.0238,-0.1272,-0.19540000000000002,-0.13720000000000002,-0.1938,-0.05580000000000001,-0.1034,-0.024,0.1008,0.026400000000000003,-0.18680000000000002,-0.1264,-0.1134,0.08080000000000001,-0.09360000000000002,0.12440000000000001,-0.064],[0.1192,0.0878,-0.11200000000000002,-0.1654,-0.05560000000000001,-0.1998,-0.08940000000000001,0.07880000000000001,0.027800000000000005,-0.1718,0.12140000000000001,0.0356,0.0474,0.062400000000000004,-0.0728,-0.0158,-0.18580000000000002,0.10740000000000001,-0.12040000000000001,0.0218,0.0634,0.1268,0.040400000000000005,0.049600000000000005,-0.12],[-0.096,-0.1432,-0.0358,-0.0368,0.1218,0.008,-0.0714,0.15600000000000003,0.0702,-0.07600000000000001,0.06280000000000001,0.1162,0.0058000000000000005,-0.0534,0.19240000000000002,-0.1756,-0.0286,-0.1834,0.0786,0.0654,-0.0386,0.18400000000000002,-0.13740000000000002,0.0786,0.033400000000000006],[-0.0922,0.06420000000000001,0.15700000000000003,0.1756,-0.095,-0.1626,-0.037,0.10600000000000001,0.1164,-0.0048000000000000004,0.14980000000000002,-0.0378,-0.0442,-0.0884,-0.10560000000000001,0.085,-0.1996,-0.134,-0.1158,0.0748,-0.0022,0.1486,0.0616,-0.1018,-0.0618],[-0.06520000000000001,-0.009,-0.1816,-0.016,0.022000000000000002,0.1962,-0.08760000000000001,-0.0348,-0.0504,0.18120000000000003,0.016,-0.0088,-0.1078,-0.0208,0.0858,-0.05380000000000001,0.0702,0.0908,-0.1494,-0.11060000000000002,0.17400000000000002,0.0614,-0.0786,0.1542,0.009800000000000001],[0.18580000000000002,-0.018600000000000002,0.008400000000000001,-0.051800000000000006,-0.062,0.0522,0.0706,-0.0014000000000000002,0.18600000000000003,-0.1674,-0.122,-0.17220000000000002,0.0716,0.1406,-0.0034000000000000002,-0.038000000000000006,0.04680000000000001,-0.18620000000000003,-0.0102,0.019200000000000002,0.0748,-0.0564,-0.1554,-0.1398,-0.0316],[0.13640000000000002,0.032600000000000004,-0.1166,0.0416,0.0524,-0.08460000000000001,0.0412,-0.0328,0.15900000000000003,0.049,-0.1902,0.0348,0.0026,0.1888,-0.0684,0.1882,0.1794,0.07940000000000001,0.15080000000000002,-0.0412,-0.0218,-0.082,0.0862,-0.1188,-0.1668],[0.05380000000000001,-0.15980000000000003,0.0844,0.009,0.0776,0.15560000000000002,-0.1278,0.1408,0.056799999999999996,0.1686,-0.1806,-0.1458,0.18320000000000003,-0.054200000000000005,0.0752,-0.08900000000000001,0.15580000000000002,0.12940000000000002,0.0238,0.006,-0.057999999999999996,0.10960000000000002,0.0078000000000000005,-0.0742,-0.049800000000000004],[0.1274,-0.056999999999999995,-0.1512,-0.0734,-0.0108,-0.15660000000000002,0.1044,-0.17220000000000002,0.063,-0.015,0.1292,0.044000000000000004,0.147,0.0956,0.06420000000000001,-0.1262,-0.0726,-0.059,-0.1392,0.10940000000000001,-0.1322,0.043000000000000003,0.1242,-0.121,0.047],[-0.17900000000000002,0.07740000000000001,0.0188,0.0222,0.06820000000000001,0.0322,0.1144,0.122,0.1484,0.0088,-0.0282,-0.1888,0.038000000000000006,0.19740000000000002,0.0054,-0.1904,0.12840000000000001,-0.1884,-0.05600000000000001,-0.1666,0.06760000000000001,-0.1282,-0.1704,0.0104,-0.025],[-0.06760000000000001,0.1378,0.1142,-0.1406,0.032600000000000004,-0.0412,-0.084,0.10220000000000001,0.0832,-0.17720000000000002,-0.0842,-0.0844,0.12,0.1612,-0.013600000000000001,0.10060000000000001,-0.16100000000000003,0.039200000000000006,-0.1358,0.0238,0.1474,-0.1918,-0.13260000000000002,-0.0422,-0.053000000000000005],[-0.10720000000000002,0.1406,-0.002,0.0006000000000000001,-0.0322,-0.1554,-0.15380000000000002,-0.03,-0.10900000000000001,-0.17500000000000002,-0.0302,-0.19720000000000001,-0.08360000000000001,0.1298,-0.024,0.1148,-0.1864,0.0978,0.06860000000000001,-0.0708,0.0922,0.0636,0.1474,-0.039400000000000004,-0.1312],[0.1706,-0.0194,-0.1948,-0.0408,0.034999999999999996,0.10900000000000001,-0.08360000000000001,0.11000000000000001,0.1226,0.065,-0.1038,-0.0078000000000000005,-0.027800000000000005,-0.16920000000000002,0.1916,-0.073,0.0776,0.1008,-0.10880000000000001,-0.15940000000000001,0.1774,-0.050600000000000006,-0.1398,0.0922,-0.06480000000000001],[-0.1916,-0.062200000000000005,0.0956,0.18300000000000002,0.0256,0.09000000000000001,0.049800000000000004,-0.051000000000000004,0.030600000000000002,0.19940000000000002,-0.0216,-0.14880000000000002,-0.002,-0.030600000000000002,-0.0244,-0.1948,0.12240000000000001,0.0024000000000000002,0.0296,0.147,0.2,0.10700000000000001,0.1202,-0.06680000000000001,-0.0376],[0.0844,-0.1744,-0.1312,0.1416,-0.031,0.09280000000000001,0.013000000000000001,0.0466,0.164,0.1158,0.0426,-0.0118,-0.033600000000000005,-0.18580000000000002,-0.15900000000000003,-0.0414,-0.0398,0.1302,-0.046200000000000005,0.0944,-0.15460000000000002,0.0378,0.0422,-0.11180000000000001,0.066],[0.0148,-0.1202,-0.044000000000000004,0.05460000000000001,0.16920000000000002,0.020000000000000004,0.08660000000000001,0.0742,0.1426,-0.0958,-0.19820000000000002,-0.0482,0.1184,0.015,-0.1282,0.064,0.1912,-0.06899999999999999,-0.16620000000000001,0.0198,-0.16100000000000003,0.1424,0.0154,0.0236,0.0344],[-0.045000000000000005,0.0834,-0.0758,-0.1302,-0.1382,-0.0072,-0.0346,-0.0152,-0.1574,0.1824,0.13340000000000002,0.1664,0.0666,-0.06380000000000001,0.0416,0.12480000000000001,0.023400000000000004,0.0094,-0.191,0.14780000000000001,-0.0826,0.06899999999999999,0.1774,0.1966,-0.08600000000000001],[-0.0598,0.034,-0.0912,0.05620000000000001,-0.0766,0.1704,0.0838,0.18300000000000002,0.17920000000000003,0.1826,-0.169,0.18480000000000002,0.1432,0.1638,-0.07800000000000001,-0.122,0.1422,-0.18400000000000002,0.072,0.028000000000000004,-0.1166,0.1966,-0.0346,0.0068000000000000005,-0.1162],[0.09340000000000001,-0.1962,-0.196,0.163,-0.0092,0.1164,-0.0204,0.1038,0.08700000000000001,0.17620000000000002,-0.1462,-0.09620000000000001,0.1932,0.0592,-0.131,-0.0684,0.15360000000000001,-0.10020000000000001,-0.0082,-0.1746,0.19840000000000002,-0.08040000000000001,-0.0086,-0.1418,-0.13160000000000002]],[[0.1348,-0.1348,-0.084,0.18020000000000003,-0.1658,0.1666,-0.027800000000000005,0.0872,0.08700000000000001,0.18180000000000002,0.0122,-0.005000000000000001,-0.1708,0.0966,-0.016200000000000003,0.10820000000000002,-0.017,0.13560000000000003,-0.020200000000000003,-0.1744,-0.18520000000000003,0.1396,-0.1648,-0.0618,-0.15900000000000003],[0.10200000000000001,-0.10960000000000002,-0.1236,-0.1218,0.1414,-0.1996,-0.04000000000000001,0.1874,-0.1878,0.1572,-0.0482,0.1966,-0.1966,-0.15080000000000002,-0.05,-0.0346,-0.0478,0.13560000000000003,-0.09340000000000001,-0.0656,0.1524,-0.19140000000000001,0.11499999999999999,-0.0814,-0.0636],[-0.10220000000000001,-0.1664,0.17400000000000002,0.1164,0.017,-0.0092,0.1132,-0.12860000000000002,-0.18280000000000002,-0.0008,-0.1432,-0.0588,0.1632,0.1424,-0.10460000000000001,0.012,0.0054,-0.1332,0.1666,0.1384,-0.0614,0.0318,-0.0854,0.0068000000000000005,0.08600000000000001],[0.1134,-0.0732,0.0198,-0.0978,-0.1484,-0.17,0.11599999999999999,-0.054400000000000004,-0.10860000000000002,-0.1028,-0.15360000000000001,-0.13560000000000003,-0.0092,-0.19720000000000001,0.1898,-0.1612,0.17320000000000002,-0.118,0.0752,0.18380000000000002,-0.1216,-0.1572,0.0614,-0.13160000000000002,0.1582],[-0.064,0.0666,0.167,-0.0144,0.09280000000000001,-0.1708,0.11259999999999999,0.046400000000000004,-0.0094,0.1708,0.0064,0.0244,0.0712,0.0128,0.08080000000000001,-0.0252,0.0104,0.1918,0.016,0.145,0.07780000000000001,0.0674,-0.1626,-0.0152,-0.0834],[0.0714,-0.15880000000000002,0.18120000000000003,-0.005600000000000001,-0.034999999999999996,0.17320000000000002,0.1228,-0.0376,-0.1674,-0.1728,-0.1748,-0.0606,0.15800000000000003,-0.1132,0.0956,-0.13560000000000003,-0.1048,0.19840000000000002,-0.024800000000000003,0.032400000000000005,-0.1674,0.1376,-0.1412,-0.15500000000000003,0.123],[0.1358,-0.1408,0.131,-0.18660000000000002,0.0608,-0.1414,0.010000000000000002,-0.05260000000000001,-0.15100000000000002,0.0582,-0.10560000000000001,0.09060000000000001,0.1584,-0.055400000000000005,-0.12,-0.055400000000000005,0.013600000000000001,0.0176,-0.15100000000000002,-0.1562,0.0698,-0.1068,0.0716,0.10760000000000002,-0.1432],[-0.15100000000000002,0.1534,-0.1892,-0.17220000000000002,-0.1726,0.0816,0.168,0.0074,-0.08020000000000001,-0.0194,0.0318,-0.0654,0.1932,-0.0692,0.1638,0.1198,-0.1884,0.0576,0.17620000000000002,-0.0776,0.013200000000000002,-0.1434,0.11040000000000001,-0.1474,-0.0154],[-0.011000000000000001,0.1486,-0.1368,0.0028000000000000004,0.0726,0.142,-0.198,-0.0436,0.0356,0.1592,-0.0442,0.0158,0.027200000000000002,-0.031,-0.1426,0.0434,0.0088,0.0782,-0.1888,0.0872,-0.11040000000000001,-0.0086,-0.0586,0.0504,-0.015600000000000001],[0.0976,-0.144,-0.046200000000000005,0.12760000000000002,-0.1602,-0.0216,0.13140000000000002,-0.10640000000000001,-0.0882,0.1806,0.064,-0.1452,0.010000000000000002,-0.141,0.030600000000000002,0.17620000000000002,-0.1684,-0.18680000000000002,-0.0696,0.068,0.16920000000000002,-0.0832,-0.1554,-0.19240000000000002,0.1524],[0.053000000000000005,-0.006200000000000001,-0.1674,-0.15760000000000002,-0.08760000000000001,0.1182,0.026000000000000002,-0.042800000000000005,-0.1916,0.1552,-0.04680000000000001,0.167,-0.0328,0.09140000000000001,0.18120000000000003,-0.15080000000000002,-0.0222,-0.0976,-0.0148,-0.0184,0.0006000000000000001,0.050800000000000005,-0.0038,-0.1242,0.026400000000000003],[0.12340000000000001,-0.07740000000000001,0.08700000000000001,-0.15980000000000003,-0.17820000000000003,-0.189,-0.0654,0.1368,0.10460000000000001,-0.18020000000000003,0.0838,0.1884,0.051800000000000006,0.1678,-0.15280000000000002,-0.1342,0.1584,0.1432,-0.0426,0.16040000000000001,-0.039400000000000004,0.043000000000000003,0.03,0.038400000000000004,-0.129],[0.18600000000000003,0.012,0.17700000000000002,-0.019000000000000003,-0.0178,0.098,0.1942,-0.10360000000000001,0.15000000000000002,-0.09040000000000001,0.15700000000000003,0.10800000000000001,-0.0834,0.022000000000000002,0.0902,-0.0362,0.040600000000000004,0.15000000000000002,-0.0348,-0.10740000000000001,0.1668,0.0726,0.19840000000000002,0.11699999999999999,-0.1378],[0.13140000000000002,-0.10200000000000001,0.014199999999999999,0.08940000000000001,-0.1728,-0.11200000000000002,0.1976,0.18560000000000001,0.17300000000000001,-0.1512,-0.1708,-0.18620000000000003,-0.05,-0.1268,-0.0944,0.024800000000000003,-0.11140000000000001,0.19240000000000002,0.193,-0.023000000000000003,-0.0308,-0.0094,0.049600000000000005,-0.11140000000000001,0.0502],[-0.1444,0.13740000000000002,-0.025400000000000002,-0.1626,-0.1342,-0.1456,0.10560000000000001,-0.083,0.15880000000000002,-0.006600000000000001,-0.0118,-0.0702,-0.18580000000000002,-0.053200000000000004,-0.09240000000000001,0.09340000000000001,-0.15800000000000003,0.18680000000000002,-0.1966,0.056799999999999996,-0.0076,0.0286,0.15460000000000002,0.09860000000000001,0.1422],[-0.09040000000000001,-0.097,0.1442,0.0938,0.056799999999999996,0.015600000000000001,0.0408,0.13440000000000002,-0.06520000000000001,-0.0388,0.04680000000000001,-0.0834,-0.1758,0.0228,-0.1348,-0.1274,0.0674,-0.1708,-0.08800000000000001,0.18100000000000002,-0.13160000000000002,-0.0692,0.0354,0.097,0.1328],[0.1338,-0.1138,-0.0618,-0.023200000000000002,-0.1648,0.0918,0.0356,-0.199,0.0114,0.027800000000000005,-0.0956,0.12860000000000002,-0.038000000000000006,-0.1864,-0.0512,0.07700000000000001,0.042800000000000005,-0.11499999999999999,0.1246,-0.125,-0.1878,-0.166,0.0026,-0.012400000000000001,0.037200000000000004],[-0.19540000000000002,-0.1004,-0.15860000000000002,-0.1646,-0.1778,-0.0036,-0.0868,-0.07900000000000001,0.1674,0.095,0.0958,-0.055400000000000005,-0.05380000000000001,-0.046000000000000006,-0.0104,0.022400000000000003,0.0174,-0.143,-0.17900000000000002,-0.0364,0.1686,-0.196,0.19740000000000002,-0.0028000000000000004,0.0028000000000000004],[-0.09960000000000001,-0.12560000000000002,-0.1654,0.004200000000000001,-0.052000000000000005,-0.0204,0.031,0.06680000000000001,0.009,0.045200000000000004,-0.0952,-0.046200000000000005,0.0734,-0.1492,0.1584,0.1602,0.033400000000000006,0.0208,-0.051000000000000004,-0.11200000000000002,0.0104,-0.1774,-0.1686,-0.15360000000000001,0.0502],[-0.06780000000000001,-0.05480000000000001,-0.0772,0.053200000000000004,0.0082,0.061,0.1198,-0.0792,0.067,0.16820000000000002,-0.191,0.1698,-0.0608,-0.046000000000000006,-0.005600000000000001,0.049600000000000005,-0.0606,-0.0154,0.0944,0.18300000000000002,0.013200000000000002,-0.1168,0.1368,-0.10600000000000001,-0.16820000000000002],[0.1156,0.1486,0.1206,0.008,0.166,-0.1242,0.0494,-0.05260000000000001,-0.013400000000000002,0.027800000000000005,0.0242,-0.17620000000000002,-0.10420000000000001,-0.12040000000000001,-0.1282,-0.052000000000000005,-0.0494,-0.0584,-0.023200000000000002,-0.1932,0.1714,-0.049,-0.1404,0.1418,-0.053200000000000004],[-0.047,0.197,-0.0736,0.1698,0.12480000000000001,-0.13340000000000002,0.07800000000000001,-0.0834,-0.1894,0.1754,-0.188,-0.004,0.18180000000000002,0.0748,0.10260000000000001,-0.171,0.026600000000000002,-0.1318,-0.08100000000000002,-0.07680000000000001,-0.17,-0.0524,-0.0752,-0.0726,-0.015],[-0.08120000000000001,-0.0222,0.0332,0.1936,-0.1724,0.1746,-0.19140000000000001,-0.15700000000000003,0.0756,0.1236,-0.1562,-0.08860000000000001,0.13040000000000002,-0.028999999999999998,-0.0412,-0.0102,-0.1454,0.0454,0.18620000000000003,-0.051000000000000004,0.1628,-0.11599999999999999,0.171,-0.0114,-0.13660000000000003],[-0.1908,0.0826,0.026000000000000002,-0.009600000000000001,0.039400000000000004,0.06680000000000001,0.1958,-0.07840000000000001,-0.039200000000000006,0.1904,0.049600000000000005,0.0094,-0.1288,-0.1242,0.0826,-0.1886,0.18520000000000003,-0.07440000000000001,-0.1434,-0.1544,-0.1476,-0.039400000000000004,0.1998,0.0194,-0.192],[0.1844,0.0976,0.18120000000000003,0.06620000000000001,0.16720000000000002,0.18560000000000001,-0.16100000000000003,-0.09140000000000001,0.0342,0.0252,0.0902,-0.0842,-0.0174,-0.118,-0.1496,0.16620000000000001,0.1544,0.1728,0.0128,0.1904,0.10400000000000001,-0.15700000000000003,-0.18460000000000001,0.0422,0.17120000000000002]],[[0.118,-0.17800000000000002,0.08960000000000001,0.1882,-0.0304,0.09920000000000001,0.0238,-0.1134,-0.191,0.1764,0.1078,-0.0616,0.13040000000000002,-0.1628,0.1424,-0.09140000000000001,0.0364,-0.17900000000000002,0.0444,0.0048000000000000004,0.16080000000000003,0.19140000000000001,0.0514,-0.129,0.19720000000000001],[0.017,-0.1794,0.008,-0.12840000000000001,-0.0922,0.1154,-0.1768,-0.023400000000000004,-0.0524,-0.057999999999999996,-0.044800000000000006,-0.0708,-0.050600000000000006,0.131,-0.010000000000000002,0.1542,-0.09100000000000001,-0.0356,0.0158,0.0198,-0.027800000000000005,0.0088,0.0704,0.1252,-0.19440000000000002],[-0.09920000000000001,-0.0736,-0.1156,-0.1048,-0.06380000000000001,0.07440000000000001,-0.037200000000000004,0.18720000000000003,-0.192,0.023000000000000003,-0.0216,0.18020000000000003,-0.1228,-0.19440000000000002,0.0762,-0.1698,0.169,0.0796,-0.1652,-0.1562,0.10840000000000001,-0.1824,0.1416,-0.10540000000000001,-0.1388],[0.1504,-0.08800000000000001,0.18560000000000001,-0.057999999999999996,-0.0158,0.18100000000000002,-0.0044,-0.0128,0.1906,-0.18200000000000002,0.0944,-0.1482,0.11200000000000002,-0.1926,0.15900000000000003,0.0832,0.0374,-0.072,0.0482,0.1796,-0.198,-0.039400000000000004,-0.06780000000000001,-0.040600000000000004,-0.15000000000000002],[0.06899999999999999,-0.0456,-0.057999999999999996,0.131,0.1272,0.039400000000000004,0.13620000000000002,0.18520000000000003,-0.15940000000000001,0.0598,-0.13260000000000002,0.0688,-0.1526,-0.066,0.1038,0.1262,0.0872,-0.1452,0.123,-0.0086,0.1228,0.1706,-0.1844,-0.1542,0.0364],[0.099,-0.15400000000000003,0.118,0.0006000000000000001,-0.1392,0.1142,0.016200000000000003,0.025400000000000002,0.0416,-0.1894,-0.013600000000000001,-0.0396,-0.050800000000000005,-0.0596,0.0358,-0.008400000000000001,-0.05380000000000001,0.060200000000000004,0.0354,-0.10260000000000001,0.195,-0.0644,-0.098,0.1272,0.1018],[0.011000000000000001,-0.06520000000000001,-0.0206,-0.12340000000000001,-0.0782,-0.04680000000000001,-0.0656,-0.05600000000000001,0.135,-0.1068,-0.0006000000000000001,-0.1704,0.0734,-0.16180000000000003,-0.1688,0.13040000000000002,0.0368,-0.053200000000000004,-0.040600000000000004,0.1152,0.0122,0.18400000000000002,-0.0604,-0.0608,-0.1886],[0.0732,-0.027400000000000004,0.12,-0.0708,0.09860000000000001,0.10640000000000001,-0.1574,0.13520000000000001,-0.14980000000000002,-0.11599999999999999,-0.10940000000000001,-0.10520000000000002,-0.19540000000000002,-0.0776,0.0912,0.17820000000000003,-0.1252,0.09360000000000002,0.11399999999999999,0.043000000000000003,-0.0442,0.0792,0.10720000000000002,-0.0944,-0.1572],[-0.0304,-0.19740000000000002,0.1766,0.004,0.0068000000000000005,-0.1328,0.04020000000000001,-0.18220000000000003,0.037200000000000004,-0.16820000000000002,-0.0968,0.1484,0.09200000000000001,0.1368,0.0884,-0.0122,0.18700000000000003,0.0884,-0.0122,-0.1236,-0.1404,0.0246,0.0322,0.0386,0.0644],[-0.0036,0.0948,-0.15900000000000003,-0.1592,0.026800000000000004,-0.18500000000000003,0.0692,0.1554,0.136,0.05,0.13040000000000002,-0.17800000000000002,0.10220000000000001,0.09160000000000001,-0.1942,-0.07740000000000001,0.15480000000000002,-0.0908,0.0692,0.06999999999999999,-0.1172,0.1948,0.19720000000000001,0.055200000000000006,-0.16100000000000003],[-0.1474,-0.0006000000000000001,-0.15660000000000002,0.11259999999999999,-0.13540000000000002,0.022600000000000002,0.1554,-0.0944,-0.15600000000000003,-0.13540000000000002,0.1018,-0.08760000000000001,-0.1492,0.1552,0.031400000000000004,-0.17900000000000002,0.10360000000000001,0.031400000000000004,0.12660000000000002,-0.16160000000000002,-0.1274,-0.0082,-0.18460000000000001,-0.1562,-0.1278],[0.063,0.0898,0.046200000000000005,0.196,-0.0582,-0.0956,0.12240000000000001,0.1194,-0.0028000000000000004,-0.0154,-0.0618,-0.1684,-0.0578,-0.042800000000000005,0.048,0.10460000000000001,0.10200000000000001,-0.073,-0.122,0.0656,-0.0714,0.1698,0.1024,0.0456,0.13740000000000002],[-0.11180000000000001,0.0634,-0.0236,0.18720000000000003,0.12480000000000001,0.05,-0.1318,-0.1696,0.15680000000000002,0.0868,-0.12860000000000002,-0.1774,-0.193,0.1152,-0.0368,0.0332,0.0966,-0.034,-0.10900000000000001,0.1236,0.15200000000000002,0.1966,0.17600000000000002,-0.1428,0.1684],[0.0974,0.07940000000000001,-0.13340000000000002,0.17880000000000001,0.09360000000000002,0.119,0.1282,-0.0488,0.1034,-0.10220000000000001,0.07680000000000001,0.0054,0.11499999999999999,-0.1884,0.016800000000000002,0.0114,-0.08860000000000001,-0.1776,0.1212,-0.11120000000000002,0.1378,0.0244,0.1288,-0.055200000000000006,-0.0604],[-0.0964,-0.099,-0.1746,0.128,0.0444,-0.198,-0.10900000000000001,0.1638,-0.042,-0.0456,-0.0854,0.15100000000000002,-0.1028,-0.1794,0.027800000000000005,-0.0954,0.1824,-0.134,-0.11080000000000001,0.0178,-0.1034,0.0838,0.038200000000000005,-0.06480000000000001,-0.1878],[-0.0752,0.020000000000000004,0.06520000000000001,0.1882,0.0586,0.046400000000000004,-0.0586,0.13,0.1156,-0.1572,-0.0588,0.028999999999999998,-0.0008,0.05600000000000001,-0.0742,-0.027400000000000004,-0.10840000000000001,-0.1562,-0.0716,0.1674,0.17880000000000001,-0.013000000000000001,0.1816,-0.0588,0.09300000000000001],[-0.10980000000000001,-0.0032,0.1308,-0.1686,-0.0308,0.1622,-0.0576,0.1292,-0.0296,0.163,0.0262,0.0166,0.0126,0.198,-0.15100000000000002,-0.0566,-0.15960000000000002,0.134,-0.0492,-0.10720000000000002,-0.0828,0.17300000000000001,0.05560000000000001,0.043800000000000006,-0.17900000000000002],[0.15780000000000002,-0.12340000000000001,-0.07600000000000001,-0.17300000000000001,-0.0422,-0.0046,0.0198,0.082,0.1272,0.0574,0.1826,0.0912,-0.044800000000000006,-0.19440000000000002,0.024,0.1988,-0.0488,0.0582,0.1836,-0.0208,-0.07640000000000001,-0.013800000000000002,-0.1728,-0.1796,0.0356],[-0.1804,0.0108,0.0238,-0.1272,-0.15100000000000002,-0.0592,0.0854,-0.163,0.003,0.12,-0.006600000000000001,0.16000000000000003,-0.0228,-0.07700000000000001,0.1254,0.1426,0.0908,-0.025,-0.15480000000000002,-0.043000000000000003,-0.025800000000000003,0.1018,0.019200000000000002,-0.1242,0.0494],[0.12,0.1806,0.167,-0.12960000000000002,0.1158,-0.1184,0.074,-0.129,-0.05480000000000001,-0.037,0.122,-0.07600000000000001,0.11180000000000001,0.0364,-0.16920000000000002,-0.1676,-0.19140000000000001,0.045200000000000004,-0.09160000000000001,-0.1404,0.083,0.055200000000000006,-0.1634,0.11060000000000002,0.0606],[-0.013800000000000002,-0.09300000000000001,0.1898,0.1472,0.0618,0.0864,0.1312,0.12380000000000001,0.0908,-0.0238,-0.0218,0.12240000000000001,-0.15460000000000002,-0.027000000000000003,0.0702,-0.032,-0.1564,-0.06580000000000001,0.1946,-0.0356,-0.13,-0.027000000000000003,-0.037,0.0292,0.1176],[-0.11100000000000002,-0.09060000000000001,0.18380000000000002,-0.18720000000000003,0.0122,0.10460000000000001,-0.1786,-0.1988,0.026800000000000004,-0.006,-0.072,-0.17400000000000002,-0.127,-0.1774,-0.0238,-0.1476,-0.07840000000000001,-0.1386,0.0902,0.1302,-0.1342,0.06899999999999999,-0.1526,0.1736,-0.0022],[0.1748,0.145,-0.12140000000000001,0.0102,-0.0144,0.0826,0.0256,0.019000000000000003,-0.0176,-0.15660000000000002,0.1202,0.08940000000000001,-0.0688,0.1884,-0.0318,-0.026400000000000003,-0.1264,-0.17,-0.123,0.1754,0.0592,0.06720000000000001,0.072,-0.045000000000000005,0.10920000000000002],[0.1622,0.1348,0.0364,0.1274,-0.026000000000000002,0.0692,-0.0424,0.044800000000000006,-0.05160000000000001,0.11080000000000001,0.1144,-0.0104,-0.08000000000000002,0.094,-0.0902,-0.027200000000000002,-0.0752,0.027000000000000003,0.0722,-0.1164,0.0574,0.045200000000000004,-0.048600000000000004,-0.0246,0.0072],[-0.0708,-0.0356,0.06860000000000001,-0.1948,-0.037200000000000004,-0.09040000000000001,-0.0868,0.1208,0.0194,-0.19740000000000002,0.0828,-0.1398,0.0328,0.0294,-0.0054,0.10900000000000001,-0.1758,0.0204,0.0598,-0.09820000000000001,0.1444,-0.135,-0.1736,0.11399999999999999,0.038200000000000005]],[[0.07640000000000001,0.15860000000000002,-0.021400000000000002,-0.0026,-0.0826,-0.0454,-0.06380000000000001,0.07500000000000001,-0.11060000000000002,-0.096,-0.0128,0.022600000000000002,0.1168,-0.18280000000000002,-0.144,0.16820000000000002,0.0566,-0.1758,-0.10860000000000002,0.1708,0.13640000000000002,-0.14780000000000001,0.044800000000000006,-0.0786,0.001],[-0.0082,0.0712,0.18720000000000003,-0.1756,-0.1458,0.1718,0.12860000000000002,0.0364,0.1804,-0.0756,0.011600000000000001,0.026400000000000003,-0.09340000000000001,0.06680000000000001,0.1236,0.08000000000000002,-0.1024,0.0956,-0.1428,-0.0822,-0.11499999999999999,-0.1396,-0.129,0.031,0.0172],[0.12760000000000002,0.0414,0.18300000000000002,0.1758,0.0444,0.1408,-0.0898,-0.18100000000000002,0.0328,0.0494,0.07640000000000001,0.1744,-0.046400000000000004,-0.146,-0.1388,0.07440000000000001,-0.194,0.09060000000000001,-0.1278,0.0736,0.14880000000000002,0.0432,0.09000000000000001,-0.1542,-0.143],[-0.0616,-0.0302,0.1746,-0.18700000000000003,-0.05380000000000001,0.020200000000000003,0.05500000000000001,0.055200000000000006,0.10800000000000001,-0.19140000000000001,-0.11180000000000001,-0.1206,0.17300000000000001,-0.0954,-0.1128,0.032600000000000004,0.194,0.09280000000000001,-0.0208,0.08660000000000001,0.17220000000000002,0.1784,0.11020000000000002,0.1212,0.0922],[-0.061200000000000004,-0.05500000000000001,-0.1926,-0.055400000000000005,-0.10460000000000001,0.13140000000000002,0.005600000000000001,0.1148,0.11240000000000001,0.1376,0.05260000000000001,-0.0178,0.1878,-0.0522,0.1376,-0.046400000000000004,-0.12440000000000001,0.013400000000000002,0.15480000000000002,-0.0872,-0.0614,0.020200000000000003,0.1212,0.07940000000000001,-0.0608],[-0.05260000000000001,0.0082,-0.06760000000000001,0.1718,0.062,-0.131,-0.06999999999999999,0.18100000000000002,0.13160000000000002,-0.0618,0.0656,0.0416,-0.18300000000000002,0.1332,0.11599999999999999,-0.1274,-0.1694,0.10260000000000001,-0.023400000000000004,-0.0068000000000000005,-0.15100000000000002,0.09040000000000001,-0.1678,-0.05360000000000001,-0.17980000000000002],[-0.1216,0.1562,0.1378,-0.0698,0.0584,0.06620000000000001,-0.0016,0.11000000000000001,-0.0178,-0.0938,-0.1524,0.16620000000000001,0.12040000000000001,0.1976,-0.1824,0.0998,-0.14780000000000001,0.005000000000000001,-0.171,-0.1976,-0.1668,-0.050800000000000005,0.1976,0.0058000000000000005,0.15300000000000002],[0.05560000000000001,-0.0616,-0.0076,0.16140000000000002,0.0898,0.024800000000000003,0.17520000000000002,0.0316,-0.1236,-0.133,0.0954,-0.0892,-0.1694,0.009600000000000001,-0.0476,-0.019200000000000002,-0.10660000000000001,0.0174,0.023200000000000002,-0.012,0.0922,0.1138,-0.0456,-0.097,-0.0488],[0.11000000000000001,-0.0368,0.1946,-0.0902,-0.016,0.1394,-0.038000000000000006,-0.1962,-0.0858,-0.013800000000000002,-0.0244,0.0158,-0.15480000000000002,0.0684,-0.0298,-0.1786,-0.0482,0.1766,0.0942,0.068,-0.1696,0.1196,-0.0766,0.0864,-0.11080000000000001],[0.011600000000000001,0.0322,-0.018600000000000002,0.0434,0.09720000000000001,0.09000000000000001,0.05360000000000001,0.027200000000000002,-0.1158,0.0696,0.13660000000000003,0.059,-0.054200000000000005,-0.0198,-0.046200000000000005,0.1908,-0.1262,-0.13440000000000002,-0.1342,-0.049800000000000004,0.0304,-0.0154,-0.0262,-0.1634,-0.0604],[-0.1698,-0.0718,0.1206,-0.0796,-0.2,-0.08700000000000001,0.16620000000000001,-0.0724,-0.1192,-0.0002,0.09820000000000001,-0.15000000000000002,-0.0212,0.0946,-0.0606,-0.009600000000000001,-0.033600000000000005,-0.15180000000000002,-0.0722,0.0736,0.1178,0.15700000000000003,0.1342,-0.13360000000000002,-0.0078000000000000005],[-0.06720000000000001,-0.06,-0.17600000000000002,-0.056799999999999996,-0.0378,-0.024,-0.1634,0.1686,-0.031400000000000004,0.171,-0.0614,-0.1464,-0.013800000000000002,-0.1948,0.083,0.0424,-0.013400000000000002,-0.009600000000000001,0.18400000000000002,-0.1182,0.1476,0.15780000000000002,0.0086,-0.06280000000000001,0.0222],[0.18600000000000003,-0.0978,0.0046,0.10880000000000001,0.07900000000000001,0.05260000000000001,-0.1484,0.1152,-0.11220000000000002,-0.013400000000000002,0.06860000000000001,0.1438,-0.0286,0.1218,-0.094,-0.1836,-0.10920000000000002,-0.12480000000000001,0.1504,0.1892,0.042800000000000005,-0.0288,0.18000000000000002,0.062200000000000005,0.0472],[-0.19,0.1754,-0.027200000000000002,-0.1332,-0.1898,-0.11359999999999999,0.0714,0.13799999999999998,-0.14780000000000001,0.016800000000000002,-0.08020000000000001,0.06780000000000001,-0.1572,0.10540000000000001,-0.059,0.12340000000000001,0.17800000000000002,-0.1726,-0.0594,-0.0674,0.1358,-0.18680000000000002,-0.2,-0.1268,-0.1916],[-0.1298,0.011000000000000001,-0.1264,0.057999999999999996,-0.0292,0.10500000000000001,0.11020000000000002,-0.062200000000000005,0.11040000000000001,-0.1448,-0.0776,0.059,0.1678,-0.11399999999999999,0.0964,0.13520000000000001,0.0282,0.15800000000000003,0.1206,0.0608,0.07440000000000001,-0.1704,0.09060000000000001,-0.119,-0.18300000000000002],[-0.0292,0.1386,-0.009,0.0884,0.08660000000000001,0.1678,0.1406,0.0094,-0.073,0.17600000000000002,-0.15960000000000002,-0.1274,-0.19820000000000002,-0.0182,-0.010000000000000002,0.023200000000000002,-0.11020000000000002,-0.020000000000000004,0.1628,0.17700000000000002,0.1254,0.07940000000000001,-0.19240000000000002,0.18000000000000002,-0.0578],[-0.16040000000000001,0.019200000000000002,0.0864,-0.1738,0.0398,0.0434,-0.0998,-0.0956,0.06620000000000001,-0.143,-0.10820000000000002,0.137,0.15560000000000002,0.0722,-0.0316,-0.1246,0.009600000000000001,0.1718,-0.15480000000000002,0.10520000000000002,-0.0864,0.1448,-0.085,0.044000000000000004,0.1384],[0.0692,0.0144,0.05620000000000001,-0.1948,0.10600000000000001,0.0732,0.1874,-0.1068,-0.06480000000000001,-0.0816,0.0122,0.0488,-0.08760000000000001,-0.13040000000000002,0.056799999999999996,-0.1138,-0.12340000000000001,0.1494,-0.1774,-0.1622,-0.04000000000000001,-0.19840000000000002,-0.062200000000000005,0.046000000000000006,-0.0718],[0.1466,0.013000000000000001,0.062200000000000005,0.1408,0.15300000000000002,-0.0598,-0.007000000000000001,0.17,0.0358,-0.033400000000000006,-0.0174,0.062400000000000004,0.0716,-0.10860000000000002,-0.039400000000000004,0.066,0.135,-0.1582,-0.11240000000000001,0.0104,0.050800000000000005,-0.15500000000000003,0.19240000000000002,-0.0188,0.194],[0.1298,0.0456,-0.04020000000000001,-0.1902,0.0752,0.1976,0.15600000000000003,-0.1776,-0.1786,0.15600000000000003,-0.1342,0.13660000000000003,0.005000000000000001,-0.0948,-0.12340000000000001,0.0888,-0.011600000000000001,0.15400000000000003,-0.1674,-0.08560000000000001,-0.1844,0.06999999999999999,0.1882,-0.013200000000000002,-0.0086],[-0.19440000000000002,-0.085,-0.1894,0.10020000000000001,0.19540000000000002,0.1242,-0.0322,0.15880000000000002,0.134,-0.1754,0.18480000000000002,-0.05160000000000001,-0.11399999999999999,-0.17720000000000002,0.18320000000000003,0.18720000000000003,-0.11240000000000001,0.1756,0.1656,-0.022600000000000002,-0.1612,-0.1516,0.1368,0.18320000000000003,0.1626],[-0.18280000000000002,0.1628,-0.0474,0.1504,-0.15980000000000003,0.0294,0.1028,-0.18620000000000003,0.1968,-0.164,-0.1514,-0.0346,0.1678,-0.0646,-0.0342,-0.133,0.054400000000000004,0.09060000000000001,0.022400000000000003,-0.0332,0.0318,-0.13740000000000002,0.08940000000000001,0.1434,-0.1166],[0.1694,0.122,-0.13740000000000002,-0.062400000000000004,0.1686,-0.1494,0.012,0.18280000000000002,0.14980000000000002,-0.0994,-0.0732,0.1008,-0.08960000000000001,-0.0034000000000000002,-0.0164,0.050800000000000005,0.011000000000000001,-0.0302,0.1448,-0.1632,-0.038200000000000005,0.038200000000000005,0.0288,0.1542,0.08100000000000002],[0.011600000000000001,-0.19720000000000001,0.144,-0.09340000000000001,0.0698,-0.0238,0.04020000000000001,-0.07980000000000001,0.18220000000000003,-0.163,-0.1926,-0.1378,0.1476,-0.014000000000000002,-0.0748,-0.0318,0.1572,0.168,0.16060000000000002,0.1424,-0.015,0.0838,-0.1396,0.1408,0.1492],[-0.1378,-0.082,-0.0348,-0.054400000000000004,0.10300000000000001,-0.13460000000000003,-0.1626,-0.191,-0.13260000000000002,0.10060000000000001,-0.0146,-0.0964,0.001,0.15960000000000002,0.0976,-0.0188,0.13999999999999999,0.1262,-0.057999999999999996,0.1656,0.027000000000000003,0.10060000000000001,-0.06420000000000001,-0.1888,-0.027200000000000002]],[[-0.07700000000000001,-0.0898,-0.15800000000000003,0.1436,0.05580000000000001,0.0742,0.09360000000000002,0.09620000000000001,0.188,0.125,-0.1928,0.10900000000000001,0.12660000000000002,-0.15800000000000003,-0.0964,0.0032,0.16000000000000003,-0.1804,-0.0146,-0.0702,-0.07940000000000001,0.0964,0.0626,0.1854,0.10620000000000002],[-0.1666,0.0292,-0.197,-0.014000000000000002,-0.1986,0.0416,-0.0034000000000000002,0.06820000000000001,-0.0236,-0.026800000000000004,-0.1786,-0.1696,0.1816,0.1024,0.006600000000000001,0.10980000000000001,-0.1912,-0.0216,-0.18500000000000003,0.17320000000000002,0.0386,-0.09960000000000001,0.13640000000000002,0.1912,0.18120000000000003],[0.09860000000000001,-0.1038,0.10980000000000001,-0.0076,-0.046400000000000004,-0.0424,-0.066,-0.127,0.032600000000000004,0.0242,0.1998,-0.1902,0.1902,-0.1976,-0.13240000000000002,0.020200000000000003,-0.1148,-0.05280000000000001,0.0984,0.142,0.049,-0.0106,0.0104,-0.1766,-0.17400000000000002],[0.028399999999999998,0.0294,-0.0816,0.06680000000000001,0.07600000000000001,0.004,-0.125,-0.1704,0.027800000000000005,-0.11359999999999999,-0.034999999999999996,-0.18180000000000002,-0.10200000000000001,0.1512,-0.0378,0.16820000000000002,-0.07500000000000001,-0.1272,0.0352,-0.0088,-0.17420000000000002,-0.0074,0.195,0.1906,-0.18100000000000002],[0.005000000000000001,-0.097,0.08660000000000001,0.1412,-0.1196,-0.1312,0.15460000000000002,0.13240000000000002,0.1652,0.1698,-0.062400000000000004,0.045000000000000005,0.033400000000000006,-0.18620000000000003,0.1452,-0.028000000000000004,-0.10760000000000002,-0.0388,-0.1574,-0.0342,0.0114,-0.0796,-0.1622,-0.07640000000000001,0.054000000000000006],[0.1192,0.0206,-0.16100000000000003,-0.1348,0.0204,0.1774,-0.1242,0.06480000000000001,0.1562,-0.1232,-0.1516,-0.0822,-0.1282,-0.13540000000000002,0.0722,-0.0014000000000000002,0.164,-0.15460000000000002,0.1626,-0.0002,-0.1946,0.1442,-0.1724,-0.0712,-0.051000000000000004],[-0.131,-0.16060000000000002,-0.1252,-0.05600000000000001,0.18220000000000003,0.12,0.050800000000000005,-0.0872,-0.061200000000000004,-0.0478,-0.0868,-0.134,-0.056999999999999995,-0.1794,-0.0766,-0.1574,-0.08700000000000001,-0.06820000000000001,-0.10020000000000001,-0.0206,0.1602,-0.1282,-0.074,-0.0792,-0.027400000000000004],[0.16140000000000002,-0.0444,-0.08020000000000001,0.0814,-0.10940000000000001,-0.023200000000000002,-0.051000000000000004,0.0424,-0.1322,0.042,-0.1368,0.09720000000000001,0.18560000000000001,-0.062,-0.0718,-0.07780000000000001,-0.019600000000000003,0.0178,-0.0004,0.07540000000000001,-0.10800000000000001,0.1188,0.08000000000000002,-0.1252,0.0742],[-0.11160000000000002,-0.08020000000000001,-0.1684,0.0626,0.073,-0.1544,-0.1458,-0.011000000000000001,-0.1182,0.097,-0.08000000000000002,0.08460000000000001,0.18420000000000003,-0.08040000000000001,0.0364,-0.15500000000000003,-0.10860000000000002,0.010000000000000002,0.08700000000000001,0.1298,0.18380000000000002,-0.019600000000000003,0.06480000000000001,0.148,-0.06780000000000001],[0.19240000000000002,0.1462,0.13799999999999998,0.1482,0.1468,-0.0048000000000000004,0.0378,0.11359999999999999,-0.0716,-0.1194,-0.18580000000000002,-0.1894,-0.16060000000000002,0.1152,0.0698,0.0296,0.0318,-0.0436,0.0892,0.0582,-0.1758,0.0852,-0.1024,0.1318,0.1946],[0.1274,0.005600000000000001,-0.1908,-0.13140000000000002,-0.15100000000000002,0.0726,-0.0002,-0.1048,-0.0688,-0.1928,0.0844,-0.15400000000000003,-0.19740000000000002,-0.1232,0.061,0.16920000000000002,-0.0012000000000000001,0.1502,0.1734,0.06380000000000001,-0.097,0.08860000000000001,-0.1176,-0.0026,0.07980000000000001],[-0.015600000000000001,0.1806,0.1068,-0.0436,0.18220000000000003,-0.0386,0.009600000000000001,0.043800000000000006,-0.1902,-0.0838,-0.1744,-0.0158,0.10060000000000001,-0.009,-0.1544,0.0286,0.084,-0.1272,0.0984,-0.049800000000000004,-0.0176,-0.018600000000000002,0.0126,-0.1464,-0.0482],[-0.11080000000000001,-0.061200000000000004,-0.11000000000000001,0.013200000000000002,0.1554,-0.0584,-0.15780000000000002,0.09300000000000001,-0.13260000000000002,-0.0616,0.10920000000000002,0.16240000000000002,0.1412,0.11200000000000002,-0.1162,0.18480000000000002,-0.0504,-0.1216,-0.1904,-0.045000000000000005,0.16060000000000002,-0.1726,-0.1252,-0.1962,0.1184],[-0.1196,0.118,0.18080000000000002,0.0938,0.15000000000000002,-0.144,-0.0204,-0.18600000000000003,-0.0052,-0.05480000000000001,0.06520000000000001,0.1896,-0.1582,0.0236,0.17420000000000002,0.11399999999999999,-0.0858,-0.17500000000000002,-0.1442,-0.1028,0.10880000000000001,0.024,-0.1308,0.1174,0.12860000000000002],[-0.001,0.05560000000000001,0.0048000000000000004,0.0974,0.11000000000000001,-0.005000000000000001,-0.09960000000000001,-0.0114,-0.09160000000000001,-0.169,0.1358,0.135,0.0376,-0.1194,0.0288,0.1468,0.0164,-0.0806,0.166,0.11200000000000002,0.12440000000000001,-0.0742,0.169,0.0174,0.0706],[-0.09000000000000001,0.020200000000000003,0.1522,0.0984,0.1246,-0.1432,0.17600000000000002,0.0952,-0.054200000000000005,-0.1034,-0.05380000000000001,-0.15800000000000003,0.1274,-0.12660000000000002,-0.04000000000000001,0.0126,0.050600000000000006,0.063,-0.147,0.1192,-0.0364,-0.1908,-0.18220000000000003,-0.026400000000000003,-0.11140000000000001],[-0.1348,-0.03,0.0902,-0.0632,0.1512,0.1906,0.08860000000000001,0.0474,-0.05160000000000001,0.0746,0.0954,0.18720000000000003,-0.0398,-0.0734,0.0178,0.18720000000000003,0.1464,-0.13799999999999998,-0.16000000000000003,0.1922,0.0806,0.06620000000000001,0.05560000000000001,-0.1428,-0.0522],[-0.062200000000000005,0.1034,0.0092,0.084,-0.17200000000000001,0.055200000000000006,-0.0994,0.1302,0.19140000000000001,0.1676,-0.101,0.11160000000000002,0.037,-0.0722,0.1728,-0.1436,0.033800000000000004,0.15180000000000002,-0.1806,-0.14780000000000001,0.13440000000000002,0.064,-0.065,0.07680000000000001,0.04680000000000001],[-0.10660000000000001,-0.0344,0.08560000000000001,0.16080000000000003,0.196,0.10820000000000002,-0.122,0.0998,0.193,0.042,0.0746,-0.19740000000000002,-0.1392,-0.0198,0.0016,-0.16000000000000003,-0.07680000000000001,0.1668,-0.18420000000000003,0.0502,-0.05500000000000001,0.10400000000000001,0.1878,0.1444,0.038200000000000005],[-0.1734,0.08080000000000001,-0.07780000000000001,0.1704,-0.15500000000000003,0.1278,-0.0732,-0.025800000000000003,0.014000000000000002,-0.12760000000000002,0.008400000000000001,0.009800000000000001,0.0758,0.1482,0.1628,-0.18620000000000003,0.008400000000000001,-0.18100000000000002,0.09260000000000002,-0.016200000000000003,0.1038,0.0938,0.1784,-0.1932,0.1844],[0.052000000000000005,0.0396,-0.07800000000000001,0.15900000000000003,-0.11000000000000001,-0.005000000000000001,-0.0492,-0.1768,-0.13620000000000002,-0.18420000000000003,-0.15580000000000002,-0.127,0.0694,0.1748,-0.199,-0.1996,0.013200000000000002,-0.1746,-0.1776,0.0942,-0.0358,-0.13640000000000002,-0.1666,-0.16240000000000002,0.0252],[0.12860000000000002,0.0932,-0.17980000000000002,0.17320000000000002,-0.044000000000000004,0.1174,0.0974,-0.10520000000000002,0.0408,-0.1484,-0.08900000000000001,-0.009800000000000001,-0.1986,0.061,-0.05,0.0492,0.08900000000000001,0.05360000000000001,-0.0016,0.1038,0.10300000000000001,-0.1058,-0.0636,-0.1896,-0.1806],[0.0944,-0.015,0.045200000000000004,0.168,-0.0782,-0.1728,0.19740000000000002,-0.047,0.0888,0.10460000000000001,-0.013400000000000002,0.10860000000000002,-0.0646,-0.10820000000000002,0.15700000000000003,-0.0898,-0.09920000000000001,0.10840000000000001,-0.1272,0.1644,0.1724,-0.0146,-0.0024000000000000002,0.15780000000000002,0.143],[0.1658,0.0188,0.11160000000000002,0.1472,0.1446,-0.05580000000000001,0.06620000000000001,-0.07640000000000001,-0.07640000000000001,0.142,0.05380000000000001,0.15580000000000002,0.11080000000000001,-0.022000000000000002,0.1902,0.0342,-0.1386,-0.0348,0.1544,0.1318,0.045200000000000004,0.1602,-0.1008,0.1132,-0.0436],[0.0704,-0.08660000000000001,-0.1824,0.0888,0.0014000000000000002,0.0618,0.1278,-0.0888,-0.15580000000000002,0.13899999999999998,0.032,0.0572,-0.137,0.038400000000000004,-0.1918,-0.0332,-0.09140000000000001,-0.033,-0.1338,-0.07740000000000001,0.018,0.17880000000000001,-0.19440000000000002,-0.034999999999999996,0.013400000000000002]],[[-0.1986,0.085,0.0706,-0.17720000000000002,-0.1008,0.1376,-0.13060000000000002,-0.027000000000000003,-0.1156,-0.1024,-0.0872,0.1574,-0.0604,-0.1936,0.0242,-0.13060000000000002,-0.135,0.045200000000000004,-0.013600000000000001,-0.13640000000000002,0.034,0.053200000000000004,-0.0908,0.0028000000000000004,-0.10020000000000001],[0.163,-0.1666,0.0826,0.0666,-0.07500000000000001,0.1198,-0.0286,0.08940000000000001,-0.1348,0.10940000000000001,-0.0008,-0.1892,-0.0446,-0.0398,0.0288,0.05160000000000001,0.11499999999999999,-0.0712,0.13520000000000001,-0.0952,0.1376,0.006600000000000001,-0.10360000000000001,0.15700000000000003,-0.1178],[-0.1208,0.0252,-0.0922,-0.0222,0.1926,-0.0654,-0.167,-0.07640000000000001,-0.0322,0.0712,0.1998,0.0048000000000000004,0.17400000000000002,0.0954,0.055400000000000005,0.16060000000000002,-0.1416,-0.1486,0.0576,-0.1506,0.167,0.0432,-0.13720000000000002,-0.16060000000000002,0.0892],[-0.196,0.1656,-0.10220000000000001,0.061,-0.0128,-0.08860000000000001,0.05460000000000001,0.05,0.0396,-0.0898,-0.047,-0.0424,0.09360000000000002,0.07700000000000001,-0.0416,0.15180000000000002,0.0728,0.129,-0.09200000000000001,0.1756,0.050800000000000005,-0.1814,0.0408,-0.1184,-0.0332],[0.17820000000000003,0.0362,0.1438,0.1522,0.0698,-0.1644,0.0328,-0.0796,-0.2,-0.024800000000000003,0.005600000000000001,-0.11240000000000001,-0.033800000000000004,0.0348,0.032600000000000004,0.1998,0.1512,0.17920000000000003,-0.1392,0.1816,0.0702,-0.18200000000000002,0.1186,0.12140000000000001,0.1218],[-0.15360000000000001,-0.09360000000000002,0.0922,0.1292,0.15960000000000002,-0.1038,-0.1648,-0.1332,-0.0702,-0.09000000000000001,-0.10120000000000001,0.1976,0.1422,0.021,-0.13720000000000002,-0.18520000000000003,0.13899999999999998,-0.10940000000000001,0.051800000000000006,-0.1048,-0.08360000000000001,0.0228,0.0586,0.1948,-0.04680000000000001],[-0.0574,-0.1506,0.018600000000000002,-0.0106,0.0844,-0.19740000000000002,0.12480000000000001,-0.1884,-0.1358,0.0958,0.0396,0.1058,0.0994,0.1198,-0.15860000000000002,-0.124,0.1628,-0.17020000000000002,-0.17820000000000003,0.12560000000000002,0.020000000000000004,0.0012000000000000001,0.15660000000000002,-0.05560000000000001,-0.13160000000000002],[0.1632,0.0694,0.13360000000000002,-0.14980000000000002,-0.1748,0.061,-0.1018,-0.1516,0.15380000000000002,-0.10960000000000002,0.0616,-0.1668,-0.1504,0.0738,0.0674,0.0942,-0.034,0.19340000000000002,-0.13240000000000002,0.0302,0.10160000000000001,0.09340000000000001,0.0294,0.027800000000000005,-0.1194],[0.1884,0.05600000000000001,0.006600000000000001,-0.1998,0.11200000000000002,-0.18080000000000002,-0.11240000000000001,0.018,-0.1768,0.1432,-0.1078,-0.06860000000000001,-0.17600000000000002,-0.1134,-0.0792,0.1196,-0.19920000000000002,0.061200000000000004,-0.1804,-0.15400000000000003,0.11699999999999999,0.17020000000000002,-0.17320000000000002,0.041,-0.095],[-0.13799999999999998,0.0816,0.049800000000000004,-0.1906,0.08080000000000001,-0.12340000000000001,0.0892,-0.08700000000000001,0.0796,0.0864,-0.0256,-0.1426,-0.0364,0.0654,-0.167,-0.1038,-0.0466,-0.039400000000000004,-0.09620000000000001,0.167,0.08360000000000001,0.0114,-0.0816,-0.0422,0.13],[0.0874,0.05580000000000001,0.1902,-0.17300000000000001,-0.0054,-0.0786,-0.0912,-0.13,0.05480000000000001,-0.023400000000000004,-0.053200000000000004,0.1738,0.1534,-0.0476,0.06620000000000001,0.1634,-0.198,-0.18280000000000002,0.16060000000000002,-0.10320000000000001,-0.1688,0.1024,-0.1642,0.0988,-0.038200000000000005],[0.1456,-0.1322,-0.051000000000000004,-0.10920000000000002,0.10360000000000001,-0.198,0.027800000000000005,-0.18520000000000003,-0.1408,-0.14980000000000002,-0.164,-0.038000000000000006,0.004,-0.15800000000000003,0.013800000000000002,0.041800000000000004,-0.0436,0.13040000000000002,0.1674,-0.019600000000000003,-0.0726,0.1156,-0.0588,-0.1562,0],[-0.10860000000000002,0.15600000000000003,0.041800000000000004,0.0988,-0.16140000000000002,-0.0294,0.168,-0.0566,-0.126,0.1442,0.061,0.006,0.17420000000000002,-0.15280000000000002,-0.15680000000000002,0.1426,-0.1758,0.053200000000000004,0.1922,-0.1358,0.0644,0.16180000000000003,0.024,0.11299999999999999,0.1154],[0.0106,-0.19840000000000002,0.0474,0.0614,0.059,-0.1342,0.13899999999999998,-0.1472,-0.1144,0.1978,-0.1796,0.16000000000000003,-0.019600000000000003,-0.0478,-0.050600000000000006,0.0446,-0.15780000000000002,-0.15900000000000003,0.10960000000000002,0.024,-0.0102,-0.18320000000000003,-0.1464,-0.09100000000000001,-0.08660000000000001],[-0.054400000000000004,0.04000000000000001,0.0282,-0.0504,0.18620000000000003,0.008400000000000001,-0.1262,-0.1198,-0.121,0.1412,0.044000000000000004,-0.18200000000000002,-0.1636,0.0952,0.1154,-0.1024,-0.046400000000000004,0.1932,-0.0104,-0.041,0.16080000000000003,0.057999999999999996,-0.06280000000000001,0.0974,-0.14780000000000001],[-0.17600000000000002,0.0364,-0.0664,0.0434,0.020200000000000003,-0.142,0.0286,-0.1976,-0.010000000000000002,0.164,0.0832,-0.1754,-0.09280000000000001,0.1014,-0.084,-0.027800000000000005,0.13520000000000001,0.18400000000000002,-0.0068000000000000005,-0.004,-0.15580000000000002,-0.05,0.043800000000000006,0.1358,-0.119],[-0.09340000000000001,-0.011200000000000002,-0.1552,0.18620000000000003,-0.09060000000000001,0.098,-0.1414,0.013000000000000001,-0.08120000000000001,-0.1908,0.1632,-0.05580000000000001,-0.05620000000000001,-0.17120000000000002,0.1258,0.1796,0.0456,0.1654,-0.0634,0.0872,0.062200000000000005,-0.0954,-0.1154,-0.022400000000000003,-0.1298],[0.16060000000000002,-0.0656,0.0064,-0.073,0.08700000000000001,-0.028999999999999998,-0.06380000000000001,0.0082,-0.055200000000000006,-0.1622,-0.033400000000000006,-0.1958,-0.0918,-0.04680000000000001,-0.1966,-0.07440000000000001,0.09000000000000001,-0.08660000000000001,0.1774,0.1506,-0.0716,0.13999999999999999,-0.1308,0.0712,0.149],[0.0246,-0.1252,0.07800000000000001,-0.09240000000000001,-0.1844,0.1534,-0.1502,-0.006200000000000001,0.039200000000000006,-0.10920000000000002,0.17800000000000002,0.10260000000000001,-0.13640000000000002,0.1044,0.16080000000000003,-0.10740000000000001,-0.17300000000000001,-0.0726,0.12940000000000002,-0.06,0.1496,-0.06780000000000001,-0.0332,-0.17900000000000002,-0.018],[-0.13140000000000002,0.0938,-0.1394,0.1432,-0.1148,-0.031400000000000004,-0.024800000000000003,-0.1622,-0.1706,0.09620000000000001,0.11299999999999999,-0.18000000000000002,-0.09060000000000001,0.1646,0.1738,0.10520000000000002,0.1008,-0.18620000000000003,-0.0944,-0.06620000000000001,0,-0.0072,-0.082,-0.10560000000000001,-0.05580000000000001],[0.07500000000000001,0.042,-0.0002,0.1584,-0.1814,-0.020200000000000003,0.1322,0.0118,-0.0878,0.028999999999999998,0.0694,-0.09280000000000001,0.1864,0.066,0.1178,-0.119,-0.1704,-0.18720000000000003,0.06280000000000001,0.18680000000000002,-0.1486,0.0478,0.049600000000000005,-0.05260000000000001,-0.07980000000000001],[-0.0684,0.0862,-0.0046,0.0484,-0.0978,-0.1456,-0.004200000000000001,0.09000000000000001,0.16000000000000003,-0.0698,-0.18700000000000003,-0.09200000000000001,-0.18460000000000001,0.0434,-0.0182,-0.148,0.1414,-0.1674,0.1252,0.16160000000000002,-0.1402,-0.1774,0.0068000000000000005,-0.1472,0.0348],[0.1434,-0.0352,0.0882,-0.0388,-0.148,-0.18480000000000002,0.0974,0.09200000000000001,-0.0946,0.033600000000000005,-0.17800000000000002,-0.18620000000000003,0.1928,-0.0122,0.1534,-0.171,-0.03900000000000001,0.134,-0.0296,-0.1928,0.1078,0.0296,0.15360000000000001,0.15680000000000002,-0.18460000000000001],[-0.1188,-0.0732,0.1784,0.1916,-0.0208,0.15300000000000002,0.0664,0.1522,-0.06760000000000001,0.1378,-0.146,0.0944,0.1726,-0.17120000000000002,0.119,-0.1724,-0.1378,0.1302,0.004200000000000001,-0.020000000000000004,-0.0806,0.0244,-0.0664,0.1544,-0.14880000000000002],[-0.1666,0.094,-0.1288,0.0902,0.0352,-0.0644,0.12860000000000002,-0.1348,-0.1434,-0.025,0.0704,-0.18680000000000002,0.0244,0.073,0.0188,0.1698,-0.10520000000000002,0.12660000000000002,0.1524,-0.197,0.08560000000000001,-0.19720000000000001,0.0988,-0.0572,0.1936]],[[-0.0683950462602459,-0.03953330688092228,-0.19524117815424805,-0.19305835752892106,0.02764906125414196,-0.03759302188063161,-0.20858063753124634,-0.17389804315105073,-0.005093248125762993],[-0.21731192003255434,-0.18990539440344872,-0.0955590362643152,0.18966285877841238,0.12611852501889315,-0.046081768756903264,-0.10986863814145884,0.11229399439182217,0.11617456439240349],[0.22022234753299033,0.11787231376765782,-0.20494260315570134,0.025951311878887627,0.1273312031440748,-0.23380434253502497,-0.20494260315570134,0.006063390625908324,0.14721912439705412],[0.19087553690359405,0.11544695751729449,-0.10623060376591384,-0.04947726750741192,0.11399174376707649,0.005093248125762993,0.17123015127565105,0.23598716316035198,-0.17826368440170473],[-0.2296812369094073,0.1595884412739071,0.11423427939211282,-0.09507396501424253,-0.21609924190737267,0.15861829877376177,-0.0007276068751089989,0.0853725400127892,0.016734958127506975],[-0.02449609812866963,0.013339459376998314,0.1309692375196198,0.051902623757775254,-0.06427194063462824,0.1962113206543934,0.1654092962747791,-0.07809647126169922,-0.015037208752252644],[0.11423427939211282,0.12611852501889315,0.2384125194107153,0.11156638751671318,-0.22677080940897135,0.12151034814320281,-0.16565183189981544,-0.07276068751089988,0.14285348314640012],[0.0026678918753996624,-0.16298394002441577,-0.20882317315628268,0.06402940500959191,0.17996143377695906,0.06063390625908324,-0.10817088876620451,-0.06669729688499157,0.10841342439124084],[0.0029104275004359957,0.16686451002499708,-0.03104456000465062,-0.004608176875690326,0.10380524751555051,-0.1299990950194745,0.02449609812866963,0.04874966063230293,0.17244282940083272],[0.0014552137502179979,-0.16589436752485176,0.13994305564596413,0.05966376375893791,-0.03371245188005029,0.051175016882666256,-0.08658521813797086,0.18481214627768572,-0.11787231376765782],[-0.06815251063520956,0.23477448503517032,0.1404281268960368,-0.1964538562794297,0.23816998378567897,-0.04996233875748459,-0.09022325251351586,-0.11423427939211282,0.16346901127448843],[0.23865505503575163,0.18165918315221338,0.15134223002267178,-0.0021828206253269966,-0.020615528128088305,0.19984935502993836,0.043171341256467266,0.05068994563259359,0.1918456794037394],[0.13193938001976516,0.051902623757775254,-0.05141755250770259,0.1823867900273224,0.14527883939676345,-0.19281582190388472,-0.01697749375254331,0.15109969439763543,-0.1889352519033034],[0.14309601877143643,-0.17244282940083272,0.06742490376010057,-0.051902623757775254,-0.1413982693961821,-0.2318640575347343,0.01819017187772497,-0.001212678125181665,0.05311530188295692],[0.17996143377695906,0.21173360065671867,-0.09434635813913353,-0.1377602350206371,-0.18165918315221338,-0.202517246905338,0.23356180690998865,-0.12927148814436548,-0.09652917876446053],[-0.12151034814320281,-0.03880570000581328,0.0227983487534153,-0.09216353751380653,0.20081949753008368,0.13363712939501948,-0.20712542378102836,-0.19087553690359405,-0.16419661814959743],[0.15498026439821677,-0.1979090700296477,-0.12199541939327549,0.22094995440809934,-0.08270464813738955,0.004365641250653993,0.038078093130704274,-0.040260913756031275,-0.1714726869006874],[0.06087644188411957,0.051660088132738924,0.16492422502470644,0.10137989126518718,0.04729444688208493,-0.035167665630268276,0.05893615688382891,-0.13193938001976516,0.006790997501017323],[0.16953240190039673,0.11399174376707649,0.02619384750392396,0.20785303065613736,0.13339459376998314,-0.08779789626315253,-0.07761140001162656,0.1979090700296477,0.1993642837798657],[0.21197613628175502,-0.21973727628291767,-0.17608086377637774,-0.23356180690998865,0.20009189065497468,-0.15328251502296245,0.1964538562794297,0.1338796650200558,0.21997981190795401],[-0.010429031876562318,0.22313277503342635,-0.19451357127913904,-0.222162632533281,-0.12757373876911116,0.07130547376068189,0.16734958127506974,0.029831881879468954,0.05093248125762992],[-0.15619294252339844,0.017705100627652307,0.05093248125762992,-0.06063390625908324,-0.012854388126925647,0.01940285000290664,-0.07615618626140855,0.03589527250537728,-0.05093248125762992],[-0.1729279006509054,-0.16662197439996076,0.16734958127506974,0.1823867900273224,0,0.005093248125762993,0.16492422502470644,0.09749932126460586,-0.05311530188295692],[-0.020130456878015637,0.005578319375835659,-0.13897291314581878,0.05287276625792059,-0.051660088132738924,-0.03104456000465062,-0.2413229469111513,0.11884245626780315,-0.03541020125530461],[-0.009216353751380652,0.16686451002499708,-0.03541020125530461,0.23525955628524298,0.0031529631254723287,-0.08294718376242588,-0.19136060815366673,-0.1595884412739071,-0.13970052002092778]]]}