{"name":"","initialization_type":"xavier","training_iterations":0,"input_dimensions":{"vertical":6,"horizontal":6},"output_dimensions":{"vertical":3,"horizontal":3},"deep_layers":8,"neurons_per_layer":25,"weights":[[[-0.15554041170104682,0.07822288458073601,0.0698935959448243,0.05323501867300089,0.012312861461782522,0.1231286146178252,-0.1010378925834507,0.006699645207146371,0.15282433931977127,0.03512786946449719,-0.15916184154274757,0.14920290947807052,0.15065148141475082,0.1010378925834507,0.1734664894174655,0.08854395962958313,-0.1680343446549144,-0.014304647874717928,0.022271793526459558,-0.14865969500181542,0.061383235816827565,-0.04508680152917423,0.10846182375893719,0.15028933843058076,0.10647003734600179],[-0.1280175449041212,-0.060115735372232304,0.1461246941126249,0.1392439774133935,0.06391823670601808,-0.08872503112166816,0.10954825271144741,-0.1441329076996895,0.0923464609633689,-0.16151577093985306,-0.0679018095318889,-0.13326861817458727,0.008691431620081779,0.132001117729992,0.11534254045816861,-0.11280753956897809,-0.02716072381275556,0.17582041881457097,0.06084002134057245,-0.015210005335143113,0.01647750577973837,-0.1587996985585775,-0.11498039747399853,0.08419824381954223,0.043276086608323855],[0.06409930819810311,-0.1568079121456421,0.16640470122614906,-0.00742393117548652,0.10411610794889631,0.15065148141475082,0.12530147252284562,-0.05269180419674578,-0.03730072736951763,-0.008148217143826667,0.1607914849715129,0.10393503645681126,-0.060115735372232304,0.08329288635911705,0.09288967543962401,-0.11063468166395764,-0.06663430908729363,-0.13182004623790697,-0.05685644851470164,0.10339182198055616,-0.03874929930619793,-0.01050214654093215,-0.10194325004387586,0.12149897118905988,0.17853649119584655],[-0.12041254223654965,0.0005432144762551112,0.036757512893262526,-0.009777860572592001,0.044543587052919116,0.057218591498871714,0.0059753592388062235,0.1665857727182341,-0.08908717410583823,0.0966921767734098,-0.00796714565174163,-0.06663430908729363,0.12892290236454637,-0.1377954054767132,-0.0820253859145218,0.1406925493500738,0.1182396843315292,-0.0483460883867049,-0.1631454143686184,0.015210005335143113,-0.11805861283944417,-0.1778122052275064,0.03947358527453808,-0.08619003023247764,0.06554788013478341],[0.1640507718290436,-0.002535000889190519,0.0454489445133443,0.07786074159656593,0.16549934376572387,-0.07260966832609987,0.0698935959448243,0.1338118326508424,-0.03784394184577274,-0.16676684421031915,-0.15952398452691766,0.10755646629851201,-0.08637110172456268,0.08347395785120208,-0.05703752000678668,0.14485719366802965,-0.11932611328403943,0.004164644317955852,-0.07749859861239586,0.054502519117596154,-0.006699645207146371,0.1798039916404418,0.048708231370874974,0.01593429130348326,0.1256636155070157],[0.13073361728539676,-0.07387716877069511,-0.11371289702940328,0.05395930464134104,-0.1689397021153396,-0.09506253334464446,0.09832182020217513,-0.09596789080506965,-0.08637110172456268,-0.04019787124287823,0.0845603868037123,0.05323501867300089,-0.00018107149208503707,0.1593429130348326,0.059753592388062236,0.10665110883808682,-0.09506253334464446,0.061383235816827565,-0.1680343446549144,0.08908717410583823,-0.13906290592130846,-0.13960612039756357,0.10647003734600179,-0.02842822425735082,-0.04092215721121838],[-0.10737539480642697,0.036757512893262526,-0.07007466743690935,0.03802501333785778,-0.01901250666892889,0.15191898185934608,0.17219898897287023,-0.18107149208503706,0.055226805085936304,0.1788986341800166,-0.1256636155070157,0.14431397919177455,-0.0019917864129354074,-0.029876796194031118,0.12729325893578106,0.0664532375952086,-0.042370729147898675,-0.10972932420353246,-0.04961358883130016,0.17129363151244506,0.0972353912496649,-0.063556093721848,0.014485719366802966,0.036214298417007414,-0.14250326427092416],[-0.13453611861918255,0.009958932064677038,0.036757512893262526,-0.17455291836997572,0.15608362617730195,-0.039654656766623116,0.1352604045875227,0.03585215543283734,-0.011950718477612447,-0.12222325715740003,0.05540787657802134,0.10610789436183171,0.0454489445133443,0.12729325893578106,0.0054321447625511115,0.10683218033017186,0.07315288280235498,-0.11226432509272298,-0.141597906810499,0.07423931175486519,0.018288220700588744,0.06265073626142281,-0.018469292192673778,-0.09506253334464446,-0.03929251378245304],[0.14105469233424386,0.12385290058616535,0.17274220344912536,-0.008148217143826667,0.13960612039756357,0.1778122052275064,-0.04273287213206874,0.15083255290683587,0.0981407487100901,0.15155683887517601,-0.1481164805255603,-0.05685644851470164,-0.060115735372232304,-0.15318648230394136,-0.0805768139778415,-0.13562254757169276,-0.009596789080506964,-0.0805768139778415,-0.1426843357630092,-0.10121896407553573,-0.15807541259023736,-0.15481612573270667,-0.12023147074446461,-0.027341795304840596,0.05033787479964031],[-0.10864289525102223,0.02969572470194608,0.11226432509272298,-0.17871756268793157,0.17527720433831587,0.1015811070597058,0.08148217143826668,0.12620682998327082,-0.08075788546992653,0.14340862173134936,0.1421411212867541,-0.02716072381275556,-0.04273287213206874,0.12131789969697483,-0.13109576026956682,0.01050214654093215,0.1720179174807852,-0.1754582758304009,0.023720365463139857,-0.09741646274174995,0.17038827405201987,-0.11534254045816861,-0.12294754312574017,-0.005251073270466075,-0.0566753770226166],[-0.10701325182225689,-0.08619003023247764,-0.04780287391044979,0.013218218922207705,-0.06337502222976296,-0.13906290592130846,0.07804181308865098,-0.12149897118905988,0.03458465498824208,-0.05051894629172535,0.03820608482994282,-0.023177150986884745,0.08437931531162728,-0.07260966832609987,0.0048889302862960005,0.1656804152578089,-0.03820608482994282,-0.06808288102397393,0.1432275502392643,-0.12475825804659052,-0.10248646452013097,0.1323632607141621,-0.05595109105427645,-0.01720179174807852,0.1412357638263289],[-0.0981407487100901,0.04762180241836475,-0.08437931531162728,-0.14485719366802965,0.10610789436183171,-0.15336755379602637,-0.16785327316282936,-0.1470300515730501,-0.06609109461103853,0.058486091943466975,-0.15065148141475082,-0.02408250844730993,-0.03874929930619793,0.0903546745504335,-0.17020720255993482,-0.0016296434287653334,0.14884076649390046,0.07731752712031083,-0.13326861817458727,0.03856822781411289,0.12493932953867556,0.06880716699231408,-0.05269180419674578,-0.17437184687789067,-0.02028000711352415],[0.0957868193129846,-0.08274967188286193,0.04617323048168445,0.1559025546852169,0.0698935959448243,-0.07949038502533128,-0.02136643606603437,0.1481164805255603,-0.02408250844730993,0.01358036190637778,-0.17509613284623082,-0.03295501155947674,-0.08365502934328713,0.09542467632881453,-0.06808288102397393,-0.0889061026137532,-0.0972353912496649,0.022271793526459558,-0.13326861817458727,0.17563934732248596,0.14087362084215885,0.1285607593803763,-0.17944184865627172,-0.025893223368160297,0.0791282420411612],[-0.13417397563501246,-0.015210005335143113,-0.13851969144505336,-0.05540787657802134,0.13308754668250225,-0.06084002134057245,-0.03386036901990193,-0.013399290414292742,-0.02716072381275556,-0.07152323937358965,-0.057761805975126826,0.022271793526459558,0.10665110883808682,-0.11842075582361425,-0.15463505424062166,0.07659324115197068,-0.1191450417919544,0.057218591498871714,0.053778233149256005,-0.12131789969697483,-0.14847862350973037,-0.1689397021153396,0.16875863062325455,-0.01665857727182341,-0.006880716699231408],[-0.17310434643329542,0.1778122052275064,0.036938584385347556,0.01593429130348326,0.11642896941067883,-0.09198431797919883,-0.17274220344912536,0.010321075048847113,0.007786074159656593,-0.055770019562191415,-0.1387007629371384,0.11443718299774343,-0.039654656766623116,-0.05033787479964031,-0.14485719366802965,-0.006699645207146371,-0.09940824915468535,-0.06120216432474253,0.16586148674989395,-0.11099682464812771,-0.057761805975126826,-0.06572895162686845,-0.017563934732248595,-0.08781967366124298,0.10085682109136565],[0.15572148319313187,-0.11099682464812771,0.1001325351230255,-0.16133469944776802,-0.17020720255993482,-0.15028933843058076,0.12457718655450549,0.1459436226205399,0.0038025013337857783,0.18107149208503706,-0.16839648763908446,0.0030782153654456304,-0.12729325893578106,-0.14250326427092416,-0.05359716165717097,-0.16676684421031915,-0.027885009781095708,0.09053574604251853,0.02716072381275556,-0.007605002667571557,0.024987865907735118,0.09252753245545393,0.11316968255314816,0.006880716699231408,0.1430464787471793],[-0.14232219277883915,-0.11280753956897809,0.05051894629172535,0.13037147430122667,-0.051786446736320595,-0.026074294860245335,-0.11516146896608358,0.03802501333785778,-0.09288967543962401,-0.05595109105427645,-0.16151577093985306,-0.08437931531162728,-0.17726899075125127,-0.11860182731569928,-0.1426843357630092,0.1763636332908261,-0.12602575849118577,-0.0454489445133443,-0.04418144406874904,-0.07930931353324623,0.17998506313252685,0.1475732660493052,0.08148217143826668,0.05214858972049067,0.08093895696201157],[0.17256113195704031,0.17527720433831587,0.17998506313252685,-0.10864289525102223,0.006337502222976298,0.020642150097694226,-0.06826395251605898,-0.03023893917820119,-0.13254433220624712,-0.14051147785798876,-0.06681538057937868,0.06482359416644326,-0.166042558241979,0.03259286857530667,0.15155683887517601,0.010321075048847113,0.10538360839349156,0.08836288813749808,-0.05287287568883082,0.17219898897287023,-0.13037147430122667,0.11588575493442373,-0.11353182553731823,0.056494305530531565,-0.01358036190637778],[-0.01285607593803763,-0.022996079494799707,0.06971252445273927,-0.14033040636590371,0.03820608482994282,0.04363822959249393,-0.037662870353687705,-0.02426357993939497,0.127112187443696,0.13453611861918255,-0.17219898897287023,-0.10828075226685216,-0.0210042930818643,0.141778978302584,0.04273287213206874,0.1191450417919544,-0.0405600142270483,0.08963038858209335,-0.10031360661511055,-0.05902930641972209,0.02897143873360593,0.01104536101718726,0.030601082162371264,-0.06084002134057245,-0.006518573715061334],[-0.12548254401493067,-0.11751539836318906,0.08619003023247764,0.12041254223654965,0,0.13544147607960771,-0.05088108927589542,0.06627216610312356,0.12421504357033543,0.17002613106784978,0.15717005512981216,-0.12693111595161097,0.04563001600542934,0.0966921767734098,0.15228112484351616,-0.11534254045816861,0.09886503467843025,-0.053778233149256005,-0.11027253867978756,-0.17817434821167646,0.13562254757169276,0.06591002311895348,-0.08437931531162728,0.1426843357630092,0.009777860572592001],[0.009415717588421926,0.17763113373542136,0.1300093313170566,-0.05884823492763705,0.05794287746721186,-0.1461246941126249,-0.13163897474582195,-0.10357289347264119,0.006518573715061334,0.13652790503211795,-0.05884823492763705,-0.01901250666892889,0.09017360305834846,-0.06862609550022905,-0.16640470122614906,-0.009596789080506964,0.15807541259023736,0.17093148852827497,-0.1631454143686184,-0.08437931531162728,-0.09470039036047438,-0.15662684065355706,0.020823221589779263,-0.14431397919177455,-0.0615643073089126],[-0.1055646798855766,0.03367929752781689,-0.07514466921529038,-0.03096322514654134,0.14286540725509425,0.04490573003708919,-0.0986839631863452,0.0023539293971054816,-0.1582564840823224,0.07605002667571556,0.10248646452013097,0.11842075582361425,-0.09433824737630431,-0.09832182020217513,-0.018288220700588744,-0.04074108571913334,-0.021728579050204446,-0.04001679975079319,0.11950718477612447,0.17165577449661512,0.032049654099051555,-0.03820608482994282,0.013942504890547854,-0.08329288635911705,-0.028247152765265782],[0.05685644851470164,0.003259286857530667,-0.045267873021259265,-0.09940824915468535,-0.10719432331434194,-0.13055254579331171,0.09307074693170905,-0.07170431086567468,-0.1622400569081932,-0.15137576738309097,-0.05287287568883082,0.018831435176843853,0.020098935621439114,0.05214858972049067,0.16386970033695855,0.16984505957576476,0.02408250844730993,0.12964718833288652,0.1459436226205399,0.16839648763908446,-0.06808288102397393,-0.12874183087246135,0.05051894629172535,0.03874929930619793,0.031325368130711406],[0.14793540903347527,0.050700017783810385,-0.1573511266218972,-0.14793540903347527,0.08220645740660683,-0.026617509336500447,-0.06681538057937868,0.010683218033017186,-0.08637110172456268,0.14793540903347527,0.1455814796363698,0.03530894095658223,0.09343288991587913,0.13906290592130846,-0.02897143873360593,0.13254433220624712,0.06681538057937868,-0.18052827760878196,-0.09995146363094047,0.0820253859145218,-0.12294754312574017,0.056494305530531565,-0.062107521785167714,-0.12928504534871646,-0.01665857727182341],[-0.0014485719366802965,-0.1694829165915947,-0.1280175449041212,-0.05124323226006548,-0.0483460883867049,-0.03657644140117749,0.0722475253419298,-0.059210377911807124,0.019193578161013927,-0.09451931886838935,0.09633003378923972,0.03186858260696652,-0.07025573892899438,0.10484039391723646,-0.13616576204794786,0.02046107860560919,-0.11208325360063794,0.009958932064677038,0.0698935959448243,-0.08926824559792328,-0.060115735372232304,0.15662684065355706,0.05613216254636149,-0.16006719900317276,-0.1705693455441049],[0.02154750755811941,0.14540040814428476,-0.0010864289525102223,-0.10647003734600179,-0.005613216254636149,0.02046107860560919,-0.05088108927589542,0.02028000711352415,0.062288593277252745,-0.16731005868657425,-0.0986839631863452,0.01484786235097304,-0.04436251556083408,0.026074294860245335,-0.08673324470873275,-0.0957868193129846,0.13562254757169276,0.14033040636590371,0.08329288635911705,-0.08528467277205246,0.07840395607282105,0.07568788369154549,-0.047259659434194676,0.1343550471270975,-0.06880716699231408],[0.04581108749751438,-0.11063468166395764,0.1680343446549144,0.14141683531841395,0.06102109283265749,0.16839648763908446,-0.12240432864948506,0.12439611506242047,-0.09198431797919883,-0.17020720255993482,-0.1010378925834507,-0.021728579050204446,0.17455291836997572,0.08293074337494698,0.016115362795568296,0.1691207736074246,0.08021467099367142,-0.062288593277252745,-0.02915251022569097,0.06409930819810311,0.04291394362415378,-0.16930184509950966,-0.035490012448667264,0.03223072559113659,-0.16006719900317276],[0.03512786946449719,-0.0023539293971054816,-0.04363822959249393,0.1251204010307606,0.063556093721848,-0.07025573892899438,-0.0483460883867049,0.127112187443696,-0.16133469944776802,0.012131789969697484,0.08130109994618165,0.06102109283265749,0.10737539480642697,-0.1616968424319381,-0.17310434643329542,-0.12910397385663142,0.14992719544641067,0.1441329076996895,-0.07550681219946045,0.02969572470194608,-0.062107521785167714,0.14847862350973037,0.166042558241979,0.11172111061646786,-0.018107149208503707],[-0.11371289702940328,0.10972932420353246,0.1694829165915947,-0.1010378925834507,-0.07858502756490608,-0.15807541259023736,0.1642318433211286,0.016839648763908446,-0.16586148674989395,0.1225854001415701,-0.08365502934328713,-0.03820608482994282,0.01792607771641867,0.057218591498871714,0.018469292192673778,-0.04092215721121838,-0.04182751467164356,0.1602482704952578,-0.11805861283944417,0.04780287391044979,0.06808288102397393,-0.09614896229715468,0.02842822425735082,0.14105469233424386,-0.03458465498824208],[0.13851969144505336,-0.07423931175486519,-0.16549934376572387,0.16640470122614906,0.17745006224333632,-0.15354862528811142,0.17600149030665602,0.04961358883130016,0.061383235816827565,-0.15228112484351616,-0.011407504001357335,0.09633003378923972,0.17147470300453008,-0.1792607771641867,-0.03802501333785778,0.09162217499502875,-0.09633003378923972,0.017563934732248595,0.10647003734600179,-0.1769068477670812,-0.13037147430122667,0.17419077538580566,-0.013942504890547854,-0.08727645918498786,0.16966398808367975],[-0.06446145118227319,-0.1475732660493052,-0.1651372007815538,-0.12475825804659052,-0.034041440511986966,-0.10828075226685216,-0.10248646452013097,-0.14630576560470995,-0.0009053574604251854,-0.027522866796925633,0.12783647341203616,0.14395183620760446,-0.05395930464134104,0.0036214298417007415,-0.053778233149256005,0.030057867686116152,-0.0664532375952086,0.15644576916147201,-0.030057867686116152,0.1597050560190027,0.06518573715061333,0.03711965587743259,-0.10864289525102223,0.1231286146178252,-0.1568079121456421],[-0.12005039925237958,-0.00018107149208503707,-0.14920290947807052,-0.10683218033017186,0.10284860750430104,0.16151577093985306,-0.05142430375215052,0.16332648586070345,0.0825686003907769,-0.02154750755811941,0.06102109283265749,0.17219898897287023,-0.09633003378923972,0.14431397919177455,0.17147470300453008,0.04001679975079319,-0.12729325893578106,-0.0791282420411612,0.0860089587403926,0.06482359416644326,0.10465932242515141,-0.08836288813749808,0.057761805975126826,-0.16640470122614906,0.17473398986206076],[-0.08492252978788238,0.0957868193129846,-0.07206645384984475,-0.0059753592388062235,-0.08528467277205246,0.15155683887517601,-0.05359716165717097,0.062288593277252745,0.15210005335143112,0.11262646807689305,-0.009053574604251853,0.0845603868037123,-0.03874929930619793,-0.0483460883867049,-0.15662684065355706,0.012675004445952596,0.1461246941126249,-0.017020720255993483,0.02571215187607526,-0.15662684065355706,0.06446145118227319,0.16205898541610816,-0.07804181308865098,0.1256636155070157,0.17527720433831587],[-0.1685775591311695,0.05232966121257571,-0.058486091943466975,-0.15155683887517601,-0.04961358883130016,-0.1432275502392643,0.17292327494121038,0.0693503814685692,-0.15083255290683587,-0.14051147785798876,-0.06536680864269838,0.04074108571913334,-0.03983572825870815,-0.16767220167074431,-0.006518573715061334,0.04001679975079319,0.06301287924559289,0.02643643784441541,0.05939144940389216,0.17075041703618993,-0.06047787835640238,-0.015753219811398222,-0.031144296638626372,-0.15137576738309097,0.12475825804659052],[-0.1412357638263289,0.09759753423383498,-0.05613216254636149,0.13797647696879825,-0.13616576204794786,0.06301287924559289,-0.029333581717776006,-0.07949038502533128,-0.12928504534871646,-0.023358222478969782,0.06192645029308268,-0.13272540369833216,-0.17962292014835676,-0.11316968255314816,-0.11896397029986935,-0.127112187443696,0.13851969144505336,-0.11099682464812771,-0.11986932776029455,-0.1256636155070157,0.1329064751904172,0.13471719011126757,0.14630576560470995,-0.16622362973406402,0.020823221589779263],[-0.07061788191316445,-0.15083255290683587,0.015028933843058076,0.12131789969697483,0.03730072736951763,0.18107149208503706,-0.17183684598870017,-0.06174537880099764,0.02969572470194608,-0.05414037613342608,0.10031360661511055,-0.12240432864948506,0.12783647341203616,0.10230539302804594,-0.03530894095658223,0.15155683887517601,-0.012493932953867559,0.06735859505563378,0.10991039569561749,-0.05232966121257571,0.15318648230394136,0.13254433220624712,-0.16061041347942787,0.12928504534871646,-0.13851969144505336]],[[-0.0826,0.024800000000000003,0.1654,-0.16180000000000003,-0.0436,-0.0588,-0.1922,0.17120000000000002,-0.0182,-0.0736,0.1878,-0.05480000000000001,0.0968,0.0434,0.14780000000000001,0.062,-0.0484,-0.1492,-0.011600000000000001,0.18400000000000002,-0.0174,0.0762,-0.11499999999999999,0.1454,-0.0834],[0.051800000000000006,0.10860000000000002,0.027600000000000003,-0.1668,-0.0282,-0.12660000000000002,-0.0454,-0.0344,0.0762,0.10880000000000001,0.18280000000000002,-0.164,0.0246,0.14780000000000001,0.0696,0.0408,0.05260000000000001,0.15080000000000002,0.1764,-0.021,-0.0644,-0.031,-0.13240000000000002,-0.1654,0.0366],[0.10160000000000001,-0.1462,-0.0578,0.06280000000000001,-0.054200000000000005,-0.0584,0.17320000000000002,-0.10700000000000001,0.024800000000000003,-0.164,-0.17300000000000001,-0.071,-0.1652,0.0304,-0.015,-0.1492,-0.10560000000000001,0.05500000000000001,-0.1496,0.1768,-0.1986,0.013200000000000002,0.16100000000000003,0.15280000000000002,-0.05],[-0.027000000000000003,0.011200000000000002,0.1886,-0.18480000000000002,-0.0048000000000000004,-0.027200000000000002,0.10400000000000001,-0.0892,0.0634,-0.1574,-0.11259999999999999,-0.08900000000000001,0.09280000000000001,0.0586,0.11000000000000001,-0.15800000000000003,0.0064,0.142,-0.08760000000000001,-0.065,0.11060000000000002,0.15580000000000002,-0.10220000000000001,-0.0074,-0.0344],[-0.1836,-0.10740000000000001,0.0872,0.027400000000000004,0.1162,-0.1684,-0.036,0.062,0.08800000000000001,0.135,0.10840000000000001,0.1978,0.032600000000000004,-0.0796,0.1166,-0.1544,-0.1468,-0.1298,-0.1338,-0.0716,-0.09000000000000001,-0.143,0.1282,-0.1684,-0.0104],[0.054000000000000006,0.1068,0.1704,0.07900000000000001,-0.1148,0.07680000000000001,-0.005600000000000001,-0.1534,0.121,0.12560000000000002,0.1676,-0.1574,0.1166,0.0316,-0.11000000000000001,0.0514,-0.013400000000000002,0.1864,0.1278,0.0206,-0.15700000000000003,-0.16040000000000001,-0.041,-0.1264,-0.0094],[0.0144,-0.09060000000000001,-0.0948,0.0292,0.11599999999999999,0.17500000000000002,0.025800000000000003,-0.141,0.16040000000000001,-0.15080000000000002,-0.1502,-0.149,-0.0576,-0.1146,-0.13640000000000002,-0.0964,-0.0974,0.049,0.014199999999999999,0.05260000000000001,0.18500000000000003,-0.1958,0.1358,-0.1312,-0.06999999999999999],[0.0958,0.17920000000000003,0.0298,-0.067,0.18320000000000003,0.0244,-0.11299999999999999,0.050600000000000006,0.0842,-0.054200000000000005,-0.08560000000000001,0.11000000000000001,-0.15200000000000002,0.10720000000000002,0.1414,0.1562,0.10200000000000001,0.0038,0.1252,-0.1612,0.1,0.0238,-0.0064,-0.0848,-0.012400000000000001],[0.0148,0.028399999999999998,0.0238,-0.1532,-0.0368,0.0064,-0.0912,-0.16060000000000002,0.1524,-0.1898,-0.0478,-0.1746,-0.07980000000000001,0.19720000000000001,0.1602,0.1188,0.1144,0.083,-0.1216,-0.199,-0.06520000000000001,-0.1886,-0.127,-0.1184,-0.15940000000000001],[-0.1482,0.08760000000000001,-0.165,-0.0592,0.09720000000000001,0.11080000000000001,0.11220000000000002,0.026400000000000003,-0.0398,0.0238,0.0772,-0.1146,-0.0664,-0.1442,-0.149,-0.0524,0.13340000000000002,-0.1292,-0.13240000000000002,-0.0292,-0.10520000000000002,0.1664,-0.0828,0.0022,-0.012400000000000001],[-0.015,-0.1348,-0.055200000000000006,0.0618,0.127,-0.022600000000000002,0.0574,-0.0414,-0.17300000000000001,-0.18580000000000002,0.121,-0.1318,0.1562,-0.124,-0.15500000000000003,-0.0512,-0.1632,-0.0408,-0.0044,-0.08600000000000001,0.1484,-0.1034,0.07500000000000001,0.1044,0.1484],[0.15700000000000003,-0.027200000000000002,0.08900000000000001,-0.1168,0.056999999999999995,0.1776,0.0674,0.1438,0.10400000000000001,-0.10400000000000001,0.14780000000000001,0.014199999999999999,-0.131,-0.1226,-0.136,0.1544,0.0012000000000000001,-0.1476,0.19940000000000002,0.1766,0.1388,-0.19740000000000002,-0.0756,0.1628,0.19820000000000002],[0.1412,0.097,0.10880000000000001,0.11259999999999999,-0.18600000000000003,0.10300000000000001,-0.0864,0.07940000000000001,-0.10560000000000001,-0.0988,-0.1698,0.041,0.15940000000000001,0.1506,0.1138,0.0318,0.08760000000000001,0.0692,0.0726,0.1738,0.074,-0.10720000000000002,0.17320000000000002,-0.0318,-0.06760000000000001],[-0.137,0.033600000000000005,0.163,-0.168,-0.17200000000000001,-0.07900000000000001,-0.0386,-0.1602,-0.08020000000000001,0.026400000000000003,-0.17800000000000002,-0.10300000000000001,0.0782,-0.15000000000000002,0.17420000000000002,-0.0574,-0.1734,0.0852,0.13340000000000002,-0.1184,-0.1376,-0.1584,0.064,-0.095,-0.1922],[-0.1956,0.1882,0.0608,0.10600000000000001,-0.1724,-0.1444,0.0938,0.015600000000000001,-0.0206,0.0698,0.07940000000000001,-0.1402,-0.0852,0.0398,-0.08360000000000001,-0.11220000000000002,0.13160000000000002,0.040400000000000005,0.1948,-0.16200000000000003,0.073,0.049800000000000004,0.1704,-0.12760000000000002,-0.17800000000000002],[-0.16180000000000003,0.171,0.0286,0.07500000000000001,0.0176,0.1564,0.019200000000000002,0.054000000000000006,0.1726,-0.037,-0.10660000000000001,0.18500000000000003,0.1956,-0.0844,0.0626,0.0654,-0.0032,0.0488,0.013200000000000002,0.1542,-0.1028,0.072,-0.1506,0.1404,-0.06420000000000001],[-0.1916,-0.1592,0.19920000000000002,0.056799999999999996,-0.0446,-0.0534,0.0952,-0.10880000000000001,0.0758,-0.1636,-0.0478,-0.08960000000000001,0.0228,0.0218,0.002,0.1744,0.049800000000000004,-0.0728,-0.0634,0.1078,0.18480000000000002,-0.16140000000000002,0.1068,0.053200000000000004,-0.13620000000000002],[-0.11040000000000001,-0.0858,-0.046000000000000006,-0.0832,0.16060000000000002,-0.13260000000000002,-0.1708,-0.1532,0.020000000000000004,0.0512,-0.06580000000000001,0.1592,-0.18600000000000003,0.0514,-0.0504,0.1258,0.0206,-0.06899999999999999,-0.10600000000000001,0.1482,-0.10460000000000001,0.08080000000000001,0.12760000000000002,0.11060000000000002,-0.1888],[-0.07780000000000001,0.18720000000000003,0.0478,-0.1844,-0.0862,-0.15500000000000003,0.101,-0.0442,-0.19140000000000001,-0.12860000000000002,-0.014199999999999999,0.1202,-0.197,-0.0476,0.10740000000000001,0.1318,-0.1904,-0.0102,0.12380000000000001,0.1396,-0.1728,-0.1438,-0.0206,0.1926,0.16060000000000002],[-0.004,-0.1282,-0.13620000000000002,-0.0796,-0.17600000000000002,0.13899999999999998,0.003,0.071,-0.0998,-0.0128,-0.1232,0.051800000000000006,0.036,-0.17400000000000002,-0.07900000000000001,-0.143,-0.0332,-0.1562,-0.1648,-0.1534,0.0958,0.0868,0.037,-0.1928,-0.07840000000000001],[-0.027600000000000003,0.10320000000000001,-0.1602,0.1648,-0.1708,0.1758,-0.125,-0.12,0.1532,-0.18720000000000003,-0.1192,-0.0386,0.17920000000000003,-0.054400000000000004,-0.18660000000000002,0.17520000000000002,-0.0106,0.1198,0.0424,-0.0576,0.0832,0.1418,0.1634,0.09280000000000001,-0.0388],[0.1758,-0.06860000000000001,0.048,0.127,0.0758,-0.119,0.15480000000000002,0.16140000000000002,-0.18320000000000003,-0.10640000000000001,0.18300000000000002,0.0616,0.0094,-0.083,0.0956,-0.08120000000000001,-0.0206,-0.0294,0.10740000000000001,-0.13899999999999998,0.071,0.0144,0.084,0.16920000000000002,0.013600000000000001],[0.1948,0.045200000000000004,-0.1724,-0.1358,-0.1382,-0.084,-0.021400000000000002,-0.1458,0.06720000000000001,-0.1714,0.0184,-0.0046,-0.1218,-0.16000000000000003,0.1368,-0.121,0.041,0.1928,-0.05260000000000001,-0.0014000000000000002,-0.1756,-0.1572,-0.066,0.1464,0.015],[0.07840000000000001,0.12440000000000001,-0.1572,0.052000000000000005,-0.10800000000000001,0.012400000000000001,0.0832,0.0874,0.1928,0.08660000000000001,0.1878,0.15080000000000002,-0.09160000000000001,0.09060000000000001,-0.19820000000000002,-0.1186,-0.09040000000000001,-0.13240000000000002,-0.196,-0.15280000000000002,-0.1228,0.0716,-0.1896,0.123,-0.13540000000000002],[0.1592,0.1786,-0.05500000000000001,-0.0292,-0.056999999999999995,-0.096,0.07640000000000001,0.0302,0.1196,0.171,-0.0118,-0.1744,-0.1128,0.18080000000000002,-0.15100000000000002,-0.1454,0.15100000000000002,0.0034000000000000002,0.095,0.0256,0.0308,0.0048000000000000004,-0.14780000000000001,-0.028000000000000004,0.17620000000000002]],[[-0.08080000000000001,-0.18420000000000003,-0.1668,-0.136,0.023000000000000003,-0.0342,0.1718,-0.011600000000000001,0.1936,-0.0246,0.048600000000000004,-0.17980000000000002,-0.1918,0.142,-0.1216,0.0008,0.0296,-0.1778,0.15000000000000002,0.0572,0.0228,0.026600000000000002,-0.0282,-0.0158,0.05],[0.0076,-0.012400000000000001,-0.047,0.16140000000000002,0.054200000000000005,0.19920000000000002,0.0572,-0.09300000000000001,-0.1652,-0.118,0.1048,0.15500000000000003,0.015600000000000001,-0.028399999999999998,-0.08080000000000001,-0.1962,-0.066,-0.167,-0.1194,0.0656,-0.1764,-0.03900000000000001,0.07700000000000001,-0.19920000000000002,0.11499999999999999],[-0.1922,-0.1008,0.0482,0.18380000000000002,0.033400000000000006,0.10500000000000001,0.16720000000000002,0.123,0.0206,-0.040600000000000004,0.0782,0.0574,-0.1512,0.09000000000000001,0.10200000000000001,-0.1282,0.11699999999999999,0.10640000000000001,-0.0698,-0.17600000000000002,-0.038200000000000005,-0.1216,-0.1728,-0.0616,-0.12760000000000002],[0.11040000000000001,0.0058000000000000005,0.1242,0.118,-0.17600000000000002,-0.1836,-0.0504,0.0888,-0.1014,-0.13260000000000002,0.0184,0.12440000000000001,-0.098,0.18000000000000002,0.15940000000000001,0.164,-0.0102,0.2,0.094,0.0828,-0.0304,0.1426,-0.0772,-0.014199999999999999,0.08360000000000001],[0.0316,-0.0474,0.073,-0.004200000000000001,0.0298,-0.07640000000000001,-0.0014000000000000002,-0.1634,-0.12860000000000002,0.1786,-0.18420000000000003,0.050800000000000005,0.10560000000000001,-0.071,0.0618,0.0714,-0.0948,0.1676,0.148,0.0006000000000000001,0.0718,0.13360000000000002,0.027800000000000005,0.18000000000000002,-0.0108],[-0.054200000000000005,0.122,0.074,-0.0932,-0.10220000000000001,-0.1666,-0.0018,-0.07880000000000001,-0.032600000000000004,-0.1312,0.198,0.0776,-0.07440000000000001,-0.1908,-0.1474,-0.188,0.143,-0.032600000000000004,-0.1418,-0.191,-0.0728,0.0472,-0.0028000000000000004,-0.063,-0.1718],[-0.1814,-0.0408,0.0046,0.1544,0.12660000000000002,0.062400000000000004,-0.10200000000000001,0.019600000000000003,0.03,-0.17020000000000002,-0.0944,-0.013400000000000002,0.0766,0.016800000000000002,0.0472,-0.0512,-0.1274,0.1038,-0.0398,0.1184,-0.1738,0.066,0.1674,0.0998,0.1232],[-0.13999999999999999,-0.0702,0.08760000000000001,-0.1544,0.022600000000000002,-0.0592,-0.0426,0.0208,-0.131,0.134,-0.10740000000000001,-0.17420000000000002,-0.014199999999999999,-0.10720000000000002,-0.0256,-0.0878,0.1836,0.1794,-0.1644,-0.1936,-0.08460000000000001,-0.141,-0.0688,-0.0762,0.0212],[-0.0688,0.0456,-0.0888,0.0862,0.1926,-0.16820000000000002,0.0606,-0.10200000000000001,-0.025400000000000002,0.050800000000000005,-0.0454,-0.10960000000000002,0.033600000000000005,-0.17700000000000002,0.1628,-0.0102,0.006,-0.0978,0.10160000000000001,-0.0698,-0.1942,0.1166,-0.1678,-0.1462,0.045000000000000005],[-0.1774,0.1492,0.15300000000000002,-0.054200000000000005,0.0566,-0.148,-0.046400000000000004,0.0732,0.012400000000000001,0.1904,0.1182,0.1938,0.1786,0.0006000000000000001,0.08600000000000001,-0.033400000000000006,-0.1878,-0.018,0.0228,-0.1854,0.122,-0.045000000000000005,-0.13060000000000002,-0.005600000000000001,0.1564],[0.1268,-0.15680000000000002,0.048600000000000004,0.1398,0.1048,-0.137,0.0216,-0.020000000000000004,0.028000000000000004,0.13720000000000002,0.0984,-0.0424,0.1384,0.17320000000000002,-0.0022,0.1836,-0.06580000000000001,0.16160000000000002,0.1908,0.0174,0.09040000000000001,-0.10860000000000002,0.0584,-0.1148,0.1472],[-0.0044,-0.1232,-0.034999999999999996,0.1292,-0.15960000000000002,-0.1312,0.1192,-0.0824,0.049600000000000005,-0.1794,0.0922,0.049600000000000005,0.1814,-0.0242,0.10660000000000001,0.1404,-0.023400000000000004,-0.042,-0.0024000000000000002,0.15400000000000003,0.0786,0.18460000000000001,-0.0434,0.1886,0.0874],[-0.10520000000000002,-0.13620000000000002,-0.10820000000000002,-0.1206,-0.0752,-0.0814,-0.0386,0.05260000000000001,-0.0736,0.164,-0.0582,-0.12,0.0364,-0.18000000000000002,-0.0616,-0.17520000000000002,-0.05360000000000001,0.16620000000000001,0.064,-0.013000000000000001,0.1028,-0.034,0.1456,-0.08000000000000002,0.1342],[0.13540000000000002,-0.0942,-0.1278,0.13140000000000002,0.05580000000000001,-0.17300000000000001,-0.189,0.09720000000000001,0.0182,-0.0656,-0.0736,-0.1894,-0.1844,-0.07840000000000001,-0.15580000000000002,0.0244,0.1278,-0.1988,-0.03,0.1162,-0.06899999999999999,0.1966,-0.059,0.16920000000000002,-0.1854],[0.122,-0.19840000000000002,-0.146,0.1878,-0.1412,0.18420000000000003,0.08360000000000001,-0.19540000000000002,-0.0332,0.1476,-0.001,-0.1824,-0.004200000000000001,0.18580000000000002,-0.033400000000000006,0.0716,-0.0252,-0.1926,0.1004,-0.1996,0.10920000000000002,-0.1308,0.05260000000000001,0.1342,-0.1562],[0.0028000000000000004,0.0974,0.0022,0.136,-0.15860000000000002,0.09920000000000001,0.11599999999999999,-0.1986,-0.0726,-0.097,0.1632,-0.1472,-0.10500000000000001,-0.074,0.0502,-0.09860000000000001,0.1658,-0.0318,-0.13340000000000002,-0.1928,0.12860000000000002,0.0766,0.0882,0.143,0.1876],[-0.16620000000000001,-0.191,-0.0666,0.1898,-0.08560000000000001,0.0984,0.19540000000000002,0.027600000000000003,-0.147,-0.0738,0.014199999999999999,0.1298,-0.1698,-0.0738,-0.043800000000000006,0.046400000000000004,0.06580000000000001,-0.0524,0.013600000000000001,0.0006000000000000001,0.06620000000000001,0.0822,-0.11259999999999999,0.16080000000000003,-0.08560000000000001],[0.1496,-0.13620000000000002,-0.0048000000000000004,-0.032400000000000005,0.10160000000000001,-0.1918,-0.0158,-0.0988,0.06620000000000001,0.13640000000000002,0.1734,-0.0178,0.0046,0.194,-0.11080000000000001,-0.0834,0.0694,-0.1148,-0.17800000000000002,-0.0172,0.1388,-0.0218,-0.04580000000000001,0.054000000000000006,0.04680000000000001],[0.08360000000000001,0.1368,-0.06380000000000001,0.0378,0.0824,0.0874,0.051800000000000006,-0.05,-0.09240000000000001,-0.0354,0.08560000000000001,-0.09620000000000001,0.1998,-0.026600000000000002,-0.18000000000000002,-0.1928,-0.009600000000000001,-0.1534,0.033600000000000005,0.0208,-0.15460000000000002,0.12040000000000001,-0.016,0.024800000000000003,-0.17220000000000002],[-0.13720000000000002,0.15180000000000002,-0.004200000000000001,0.149,0.10860000000000002,0.1394,-0.11599999999999999,-0.0828,0.16180000000000003,0.1278,0.19540000000000002,0.08460000000000001,-0.040400000000000005,0.1646,0.13,0.0838,0.1658,0.1966,-0.1414,-0.054400000000000004,-0.1208,0.05280000000000001,-0.045000000000000005,0.10060000000000001,0.04680000000000001],[-0.15880000000000002,0.0446,0.1302,-0.124,-0.1462,0.08000000000000002,-0.1922,-0.1968,0.1938,-0.11299999999999999,0.1786,0.18580000000000002,0.15680000000000002,-0.191,-0.18300000000000002,-0.1694,0.1502,-0.18600000000000003,-0.13040000000000002,0.0476,0.016,-0.004200000000000001,-0.0288,-0.1208,-0.0786],[0.1024,-0.0956,-0.0146,0.18560000000000001,-0.19340000000000002,-0.013400000000000002,-0.15500000000000003,0.19840000000000002,0.0912,0.0182,-0.1746,0.149,-0.0072,0.13899999999999998,-0.0748,0.1392,0.0176,-0.0824,-0.0592,0.08000000000000002,-0.17,0.1572,0.0576,0.07880000000000001,0.1724],[-0.11699999999999999,-0.10420000000000001,0.1948,0.0776,0.1562,0.0922,0.144,-0.0786,0.1024,0.144,-0.036,0.10160000000000001,0.0674,0.1164,0.10640000000000001,-0.0422,0.031400000000000004,-0.022400000000000003,0.19640000000000002,-0.10920000000000002,-0.0006000000000000001,-0.0766,0.15900000000000003,-0.0396,0.06860000000000001],[-0.18380000000000002,-0.0888,0.0974,-0.1956,-0.1464,0.18280000000000002,0.0328,0.1468,0.18380000000000002,0.18000000000000002,0.1188,0.15400000000000003,0.1262,0.1552,0.0358,-0.1532,-0.09240000000000001,0.049800000000000004,-0.18300000000000002,0.16100000000000003,0.166,0.0482,-0.128,0.10540000000000001,-0.142],[-0.1198,0.046200000000000005,0.11080000000000001,-0.1422,0.0504,-0.0288,0.0396,0.17120000000000002,-0.1144,0.18400000000000002,-0.07500000000000001,0.068,-0.1166,0.18220000000000003,-0.023000000000000003,0.12860000000000002,0.07600000000000001,0.1758,-0.0956,-0.018,0.19740000000000002,-0.053000000000000005,0.0482,0.1268,-0.08120000000000001]],[[0.1206,0.1024,-0.10980000000000001,-0.0034000000000000002,-0.15700000000000003,-0.1664,0.06820000000000001,-0.15660000000000002,-0.09920000000000001,0.055200000000000006,-0.1452,-0.0852,0.11000000000000001,0.11200000000000002,-0.133,-0.19840000000000002,-0.1206,0.05620000000000001,0.0948,0.1552,-0.06620000000000001,-0.0522,-0.0102,-0.0016,0.0838],[-0.022000000000000002,-0.1394,0.15460000000000002,0.1014,-0.1656,0.18000000000000002,0.0074,0.0966,0.1018,-0.0636,-0.0388,0.08120000000000001,0.1172,0.0958,0.18380000000000002,-0.17500000000000002,0.040400000000000005,-0.08600000000000001,-0.067,-0.0286,0.045000000000000005,-0.0988,-0.1252,-0.1034,0.0088],[0.11120000000000002,-0.17300000000000001,-0.1402,-0.0378,0.1956,-0.0956,-0.101,0.1898,-0.11240000000000001,-0.1714,0.188,-0.0608,0.1646,0.18520000000000003,0.1484,-0.05280000000000001,-0.0908,0.10060000000000001,-0.13720000000000002,0.03900000000000001,0.1526,0.0012000000000000001,0.0374,-0.0046,0.15580000000000002],[0.05,-0.0616,0.0574,0.16000000000000003,-0.0858,-0.17420000000000002,-0.18420000000000003,-0.118,-0.09000000000000001,0.1786,-0.0968,0.0748,0.10120000000000001,-0.1652,0.1396,-0.09200000000000001,0.18380000000000002,-0.0122,0.13560000000000003,0.016800000000000002,0.0698,0.1134,-0.1966,0.1208,0.18020000000000003],[0.19840000000000002,-0.10200000000000001,-0.0282,0.005000000000000001,0.1176,-0.0488,-0.10800000000000001,-0.1674,-0.06680000000000001,-0.08460000000000001,0.13640000000000002,-0.13640000000000002,0.16060000000000002,-0.060200000000000004,-0.10980000000000001,-0.0432,-0.0378,-0.14880000000000002,-0.06420000000000001,0.11160000000000002,-0.006200000000000001,0.1378,-0.1278,-0.0018,-0.09960000000000001],[-0.10860000000000002,-0.1146,-0.15560000000000002,0.171,-0.15180000000000002,-0.18220000000000003,0.18020000000000003,-0.0814,-0.10260000000000001,0.09240000000000001,-0.1886,-0.0352,0.16160000000000002,-0.18500000000000003,-0.1004,0.1916,-0.17900000000000002,-0.062,0.05280000000000001,0.1886,0.0454,-0.1688,0.008,0.0368,0.0188],[-0.05280000000000001,-0.0208,0.009800000000000001,-0.011600000000000001,-0.1068,0.1376,0.06280000000000001,-0.0028000000000000004,0.142,0.10460000000000001,-0.0534,0.13160000000000002,-0.18180000000000002,-0.08080000000000001,0.050800000000000005,-0.1612,0.10820000000000002,0.099,-0.12560000000000002,0.1358,0.2,0.005600000000000001,-0.0318,0.17700000000000002,-0.011200000000000002],[-0.18380000000000002,0.10400000000000001,-0.1922,0.10740000000000001,-0.10520000000000002,0.1796,-0.19920000000000002,0.17300000000000001,-0.1888,-0.0828,-0.0634,0.14980000000000002,0.16820000000000002,0.1552,0.047,-0.05360000000000001,-0.15900000000000003,-0.0104,-0.16140000000000002,-0.1,-0.1506,-0.071,-0.0578,0.1486,-0.0674],[0.0706,0.1232,0.1078,0.0006000000000000001,-0.052000000000000005,-0.023000000000000003,-0.0434,-0.09720000000000001,-0.11000000000000001,-0.1462,-0.1416,0.09000000000000001,-0.13,-0.019200000000000002,-0.0094,0.1264,0.0456,-0.0576,-0.13740000000000002,0.15760000000000002,-0.0094,-0.0068000000000000005,0.1976,-0.17,0.12760000000000002],[-0.1922,0.1738,-0.1956,0.1584,0.1918,0.0144,-0.0374,0.07740000000000001,0.0008,-0.1134,-0.0854,0.0852,-0.0002,-0.15940000000000001,-0.062200000000000005,0.1422,-0.13360000000000002,0.0408,0.08020000000000001,0.006600000000000001,0.1938,0.1532,0.1734,0.06860000000000001,-0.16060000000000002],[-0.0674,-0.008400000000000001,0.003,0.1676,-0.0752,0.17900000000000002,-0.1264,-0.021,0.060200000000000004,-0.1932,0.0222,-0.1222,0.16820000000000002,-0.15360000000000001,0.14780000000000001,-0.025800000000000003,0.10260000000000001,0.0172,-0.043800000000000006,-0.16000000000000003,0.1766,-0.07500000000000001,-0.0816,0.1814,0.1132],[-0.1892,-0.1482,0.144,-0.0348,-0.1466,0.1322,-0.18580000000000002,0.07540000000000001,0.12,-0.095,0.0102,0.014199999999999999,-0.121,-0.054200000000000005,0.1414,-0.1202,-0.10160000000000001,-0.1706,0.08120000000000001,-0.0582,-0.1222,-0.0728,-0.193,0.09260000000000002,-0.194],[-0.10940000000000001,-0.16620000000000001,0.0106,-0.07440000000000001,0.1292,0.17,0.11499999999999999,-0.1338,-0.10940000000000001,0.164,-0.018600000000000002,-0.025800000000000003,0.0718,-0.1194,-0.19820000000000002,0.0144,0.189,-0.05460000000000001,-0.16040000000000001,0.13640000000000002,0.0816,0.0068000000000000005,0.1534,0.08760000000000001,-0.13740000000000002],[-0.1754,0.10900000000000001,-0.1386,-0.1698,-0.09920000000000001,-0.13460000000000003,0.1938,0.17320000000000002,0.0158,-0.12480000000000001,-0.09260000000000002,0.0852,-0.1584,0.054200000000000005,0.1246,-0.011600000000000001,0.11120000000000002,-0.0706,0.048,0.0976,-0.1264,0.18520000000000003,-0.0204,-0.03900000000000001,0.006200000000000001],[0.0488,-0.06280000000000001,-0.034999999999999996,0.19140000000000001,0.10920000000000002,0.1958,-0.1422,0.1162,0.10700000000000001,0.0604,0.028000000000000004,0.17220000000000002,0.020200000000000003,-0.198,-0.1038,-0.0902,-0.0442,-0.1654,-0.1474,-0.11599999999999999,0.0088,0.1172,0.023200000000000002,-0.12380000000000001,0.1892],[0.1194,-0.033600000000000005,-0.050800000000000005,-0.0082,-0.19,-0.0322,0.044000000000000004,-0.017,-0.0838,-0.051000000000000004,-0.1844,-0.0716,0.1882,0.0952,0.0374,0.1796,-0.1404,-0.13720000000000002,-0.0362,0.0304,0.0854,-0.10760000000000002,-0.0362,0.0054,0.17420000000000002],[0.07780000000000001,-0.1038,0.016,0.1128,0.0342,0.0826,-0.1676,-0.1414,0.04020000000000001,0.1976,0.0968,0.0218,0.0582,0.1778,-0.0974,-0.0582,-0.18320000000000003,-0.019000000000000003,0.1168,-0.1654,0.0034000000000000002,0.0364,0.1736,-0.0456,0.15780000000000002],[-0.1128,-0.064,-0.1216,-0.10020000000000001,0.0782,0.0844,0.07440000000000001,-0.056999999999999995,-0.19920000000000002,0.033800000000000004,-0.146,-0.1894,0.11259999999999999,0.118,-0.0818,-0.13720000000000002,0.0978,0.0828,-0.15980000000000003,0.0058000000000000005,-0.194,0.024800000000000003,0.19240000000000002,-0.1408,0.06],[0.003,0.1202,0.032400000000000005,0.11000000000000001,-0.0564,-0.18420000000000003,-0.015600000000000001,-0.0872,0.061,0.15400000000000003,-0.021,0.127,0.0956,-0.1208,0.1946,-0.09140000000000001,-0.1612,-0.10220000000000001,-0.008400000000000001,-0.09960000000000001,-0.2,0.0814,0.0072,-0.1996,0.1432],[-0.07640000000000001,-0.0574,0.006,-0.05280000000000001,0.12340000000000001,0.0524,0.0666,0.16160000000000002,0.13560000000000003,-0.1708,0.13740000000000002,-0.18180000000000002,0.0052,0.1514,-0.0674,0.1714,0.16200000000000003,-0.051000000000000004,0.0298,-0.18200000000000002,0.0978,-0.13460000000000003,0.1734,0.0726,0.1584],[-0.134,-0.10020000000000001,-0.13260000000000002,-0.1462,0.0698,-0.1938,-0.13440000000000002,0.0932,0.1736,-0.1976,-0.0724,-0.10660000000000001,-0.07540000000000001,0.09960000000000001,0.0748,0.16000000000000003,0.07540000000000001,-0.0922,-0.1134,-0.1878,-0.044000000000000004,-0.15940000000000001,0.1646,-0.08940000000000001,0.18400000000000002],[0.129,-0.164,-0.1058,-0.046000000000000006,-0.006,0.0364,-0.142,-0.09160000000000001,0.189,-0.0604,-0.0012000000000000001,0.07440000000000001,-0.0028000000000000004,-0.0118,0.1398,0.0256,0.1194,0.189,0.1684,0.1252,-0.11080000000000001,-0.14780000000000001,0.19440000000000002,-0.047,-0.011000000000000001],[-0.09100000000000001,-0.0592,0.10520000000000002,0.097,0.0564,0.11120000000000002,-0.0018,0.126,0.0022,-0.13620000000000002,-0.037,-0.1824,-0.0282,-0.18420000000000003,-0.018600000000000002,-0.0348,-0.059,0,-0.1694,0.08560000000000001,-0.0776,0.168,-0.062400000000000004,0.1582,0.1996],[0.18520000000000003,0.071,0.0178,-0.039200000000000006,0.045200000000000004,0.026800000000000004,-0.1028,0.1512,0.06520000000000001,-0.0356,0.1348,-0.0842,-0.006600000000000001,0.119,-0.13720000000000002,0.0488,0.10220000000000001,-0.1756,0.0148,-0.013600000000000001,0.0344,0.09620000000000001,0.0822,0.17600000000000002,0.1128],[-0.1376,-0.0046,-0.1404,-0.1384,-0.1424,0.1646,-0.0818,-0.16000000000000003,-0.031,0.10920000000000002,0.08020000000000001,0.1948,0.054000000000000006,-0.1208,0.19540000000000002,-0.1946,0.09620000000000001,-0.0174,-0.1768,0.18620000000000003,-0.1404,0.0874,0.1438,0.18380000000000002,-0.0154]],[[0.15880000000000002,-0.06520000000000001,0.0632,0.131,-0.0706,-0.0494,0.006600000000000001,0.0108,-0.15480000000000002,-0.14880000000000002,-0.1542,-0.0176,-0.0688,-0.1634,0.10560000000000001,-0.1454,-0.057999999999999996,0.009800000000000001,0.0128,-0.0872,0.019200000000000002,0.05160000000000001,0.16080000000000003,0.05580000000000001,0.038400000000000004],[0.10400000000000001,-0.0068000000000000005,-0.0964,0.07540000000000001,-0.0216,-0.15800000000000003,-0.0984,-0.1262,0.1416,-0.10940000000000001,0.124,-0.1746,0.04020000000000001,-0.0022,0.014199999999999999,0.18020000000000003,-0.1526,-0.11020000000000002,-0.18560000000000001,-0.0868,0.1996,0.1542,-0.1908,0.0436,0.10420000000000001],[-0.1906,-0.08860000000000001,-0.033,-0.0032,-0.18180000000000002,0.1998,-0.11359999999999999,-0.027200000000000002,-0.0564,-0.027200000000000002,-0.07680000000000001,-0.0082,-0.0616,0.0696,-0.001,0.050800000000000005,0.14980000000000002,-0.067,0.1716,-0.0126,-0.1774,-0.1592,-0.0092,0.0078000000000000005,0.0942],[-0.05480000000000001,0.0974,0.06720000000000001,-0.0656,-0.17900000000000002,0.0502,-0.037200000000000004,0.0944,-0.1728,0.13520000000000001,0.020000000000000004,0.1138,0.1396,0.0398,0.0036,0.07600000000000001,-0.1506,0.1512,0.1178,-0.1188,-0.1494,0.1318,0.1688,-0.1906,-0.057999999999999996],[0.15280000000000002,-0.1834,0.0706,0.0242,0.1406,-0.1684,-0.039200000000000006,-0.022600000000000002,-0.0052,-0.0702,-0.0158,-0.0426,0.1554,-0.1514,-0.0952,0.10740000000000001,0.0014000000000000002,0.0354,0.13740000000000002,-0.13660000000000003,0.1396,0.1128,-0.1058,0.0484,-0.0852],[0.015,-0.197,-0.101,0.0742,-0.1408,-0.15880000000000002,0.038200000000000005,-0.0998,0.1502,0.09360000000000002,-0.0004,0.1348,0.1696,0.048600000000000004,0.1886,-0.0318,0.013400000000000002,-0.04680000000000001,-0.1552,0.0726,0.06420000000000001,-0.0644,0.1408,-0.1592,0.049600000000000005],[-0.09960000000000001,0.15180000000000002,-0.1836,-0.119,-0.1068,-0.0832,-0.193,-0.15760000000000002,0.0456,-0.13440000000000002,0.1034,-0.063,0.032600000000000004,0.020000000000000004,-0.0884,0.2,-0.0826,-0.0838,0.10320000000000001,-0.16200000000000003,0.048600000000000004,-0.14980000000000002,0.0466,0.0574,0.10360000000000001],[-0.032,-0.0174,0.1476,0.0002,0.049,-0.17720000000000002,0.0088,0.1736,0.0036,0.0244,-0.18300000000000002,-0.1226,-0.09280000000000001,-0.0874,0.038000000000000006,-0.0086,0.11259999999999999,-0.0504,-0.10500000000000001,0.13540000000000002,-0.0994,0.06420000000000001,-0.09360000000000002,0.1028,-0.04580000000000001],[0.013400000000000002,-0.0634,0.13999999999999999,0.0076,-0.0618,0.1196,-0.1394,0.1476,-0.07540000000000001,0.09040000000000001,-0.0158,-0.14880000000000002,0.19740000000000002,-0.074,0.0908,-0.020000000000000004,-0.1358,0.0956,0.1206,0.025800000000000003,0.10400000000000001,-0.095,-0.0976,0.08560000000000001,-0.0146],[0.149,0.13460000000000003,-0.05560000000000001,-0.0636,-0.1504,0.051800000000000006,0.0414,-0.0792,0.023400000000000004,-0.1368,-0.1706,0.1468,0.18020000000000003,0.10820000000000002,0.0086,0.0578,0.1634,0.1048,0.021,0.0512,-0.08600000000000001,-0.0738,0.0968,-0.1694,-0.053000000000000005],[-0.16240000000000002,-0.1698,0.1424,-0.033,-0.1926,-0.0108,0.0424,0.0626,0.0188,-0.07980000000000001,0.049,-0.15800000000000003,0.13360000000000002,-0.1476,-0.0588,0.0176,0.0488,0.15700000000000003,-0.1502,-0.10120000000000001,0.049,0.0352,0.15940000000000001,-0.0874,-0.022600000000000002],[-0.0416,-0.15980000000000003,-0.1486,-0.1764,-0.09000000000000001,-0.08020000000000001,-0.13999999999999999,-0.10900000000000001,-0.1736,0.1134,0.0036,0.0786,-0.0586,0.17980000000000002,-0.1766,0.1378,-0.015600000000000001,-0.1426,-0.030600000000000002,0.11120000000000002,-0.1404,0.136,-0.0514,-0.033600000000000005,0.0436],[-0.11180000000000001,0.1522,-0.10880000000000001,0.13360000000000002,0.0816,-0.0922,-0.014199999999999999,0.19640000000000002,0.028999999999999998,-0.0952,-0.1504,-0.1774,0.1272,-0.1648,0.0344,-0.0832,-0.0318,-0.053000000000000005,0.17720000000000002,-0.1684,0.16820000000000002,-0.0434,-0.0976,-0.0636,0.073],[-0.072,-0.08800000000000001,-0.0898,0.13740000000000002,-0.10320000000000001,-0.19,0.050600000000000006,-0.0634,-0.1876,-0.049,-0.09140000000000001,-0.1674,0.14880000000000002,0.08760000000000001,0.0368,0.0282,-0.0228,0.1726,0.1754,0.0398,0.1282,-0.18600000000000003,-0.07680000000000001,-0.0932,0.0826],[0.0046,0.11080000000000001,0.1138,0.0166,0.004200000000000001,0.023200000000000002,-0.1728,0.1562,0.19,0.006200000000000001,0.11499999999999999,-0.0106,-0.0128,-0.1638,0.145,0.003,-0.19840000000000002,-0.08560000000000001,0.16140000000000002,0.0782,-0.09620000000000001,-0.1418,-0.0704,0.0726,-0.15860000000000002],[-0.0654,-0.1836,0.10120000000000001,-0.1402,0.0698,0.083,-0.0028000000000000004,0.04020000000000001,0.0874,0.194,0.1554,-0.11200000000000002,-0.1482,-0.1024,0.096,-0.1876,0.0322,0.0356,-0.1892,0.0164,-0.1704,0.1658,-0.10820000000000002,-0.0008,-0.13999999999999999],[0.1328,0.1902,-0.1216,-0.1906,0.1246,0.031,-0.17920000000000003,0.09160000000000001,-0.1298,0.124,0.1574,-0.0446,0.16620000000000001,0.1438,0.0466,-0.10560000000000001,0.040600000000000004,-0.013600000000000001,0.1446,-0.1444,0.1746,0.16920000000000002,-0.12840000000000001,-0.016,0.09620000000000001],[-0.19920000000000002,-0.037200000000000004,-0.1806,0.17900000000000002,-0.16040000000000001,-0.131,0.11399999999999999,0.10360000000000001,-0.046400000000000004,-0.13899999999999998,0.10820000000000002,0.09000000000000001,0.1542,-0.09200000000000001,-0.11100000000000002,-0.16060000000000002,0.0698,-0.0902,0.0978,0.061200000000000004,0.047,0.0822,-0.1144,0.12380000000000001,-0.129],[0.1466,0.0366,-0.167,-0.0414,0.0298,-0.15100000000000002,-0.1754,-0.0256,-0.0726,-0.020200000000000003,0.1918,-0.18520000000000003,0.1444,0.1676,-0.0222,-0.08560000000000001,-0.0582,-0.11220000000000002,-0.1418,-0.0756,0.09200000000000001,-0.0016,-0.122,-0.09860000000000001,0.027600000000000003],[-0.1166,0.193,0.1358,0.10600000000000001,-0.09280000000000001,0.1776,0.038200000000000005,-0.1168,0.16040000000000001,0.1612,-0.0034000000000000002,-0.10120000000000001,-0.0666,0.11040000000000001,0.15580000000000002,-0.12960000000000002,-0.06,-0.022400000000000003,0.19340000000000002,-0.047,-0.07780000000000001,-0.03900000000000001,-0.003,-0.0456,-0.1358],[0.1756,-0.13240000000000002,0.19940000000000002,0.13240000000000002,-0.131,0.1298,0.07540000000000001,0.1156,-0.1302,0.12380000000000001,-0.0388,0.06280000000000001,0.08460000000000001,-0.0364,-0.05280000000000001,-0.0104,0.032400000000000005,0.1572,-0.16060000000000002,0.1174,0.1282,-0.019200000000000002,-0.083,-0.07800000000000001,-0.1028],[0.15300000000000002,0.10300000000000001,0.15680000000000002,0.121,0.0726,-0.0694,0.08960000000000001,-0.027800000000000005,0.0118,-0.15560000000000002,0.0456,-0.07940000000000001,0.0646,-0.0328,0.1288,-0.005600000000000001,-0.0732,-0.1308,0.1428,-0.0524,-0.15660000000000002,-0.067,-0.1232,0.0014000000000000002,-0.0782],[0.1038,-0.11240000000000001,0.1058,0.08700000000000001,-0.15960000000000002,-0.188,0.188,0.0728,-0.063,-0.15080000000000002,0.1522,-0.0118,-0.017,0.1038,0.08020000000000001,-0.0796,0.0954,-0.0898,0.1,0.0664,0.1376,-0.126,-0.1178,-0.0244,-0.19340000000000002],[-0.10760000000000002,0.012,-0.0734,-0.0412,-0.0046,-0.15780000000000002,0.10880000000000001,0.13640000000000002,-0.06899999999999999,0.1384,0.199,-0.10300000000000001,0.0354,0.021,0.15800000000000003,0.13720000000000002,-0.0626,0.0814,0.014000000000000002,0.193,0.036,-0.1424,0.0706,0.1348,0.10460000000000001],[-0.196,-0.025,0.147,-0.0922,-0.0368,0.18560000000000001,0.18020000000000003,0.0188,-0.0834,0.0028000000000000004,-0.10760000000000002,0.037200000000000004,0.142,0.1422,-0.015600000000000001,0.07600000000000001,-0.1496,0.0164,0.0964,0.1734,0.049,0.1998,0.168,0.0198,-0.0704]],[[0.0216,0.1758,0.0292,0.15200000000000002,-0.1694,0.08100000000000002,-0.0086,-0.033800000000000004,0.18080000000000002,0.073,-0.1448,-0.0944,-0.11140000000000001,-0.1908,0.084,0.141,-0.15780000000000002,0.0022,0.17320000000000002,0.0158,0.1778,0.15580000000000002,-0.1406,0.18700000000000003,0.0848],[-0.0742,0.0844,-0.1638,-0.09300000000000001,0.10600000000000001,0.062200000000000005,0.0626,0.1384,-0.0148,0.06520000000000001,-0.12760000000000002,0.0976,0.0456,-0.0244,0.18700000000000003,0.1308,0.1468,0.1416,-0.1694,0.002,-0.1986,0.0386,0.13340000000000002,0.0722,0.0976],[-0.16620000000000001,0.17600000000000002,0.1506,0.008,-0.0594,-0.15700000000000003,-0.015600000000000001,-0.009600000000000001,-0.0104,0.18460000000000001,0.09040000000000001,0.031,0.05,0.1882,0.006200000000000001,0.15660000000000002,0.1342,0.0088,0.0396,-0.0484,0.0244,0.11499999999999999,0.0756,0.068,0.0684],[0.019000000000000003,0.0474,0.10840000000000001,-0.13620000000000002,-0.0874,0.15780000000000002,0.0766,-0.06520000000000001,-0.18680000000000002,0.05260000000000001,-0.17900000000000002,-0.18000000000000002,-0.1774,-0.1896,0.1514,-0.0024000000000000002,-0.0094,-0.005000000000000001,0.0626,0.0036,-0.006200000000000001,-0.10820000000000002,0.0724,0.12760000000000002,-0.0288],[-0.1382,-0.0978,-0.098,0.1218,0.0746,-0.1968,-0.1644,0.1208,0.16200000000000003,-0.0256,0.1968,0.18580000000000002,-0.0376,-0.0938,0.17300000000000001,0.030600000000000002,-0.060200000000000004,-0.09040000000000001,-0.0522,0.10720000000000002,-0.1186,-0.0878,-0.168,-0.0832,0.15660000000000002],[0.07780000000000001,-0.1206,-0.1428,-0.06420000000000001,-0.0416,0.08960000000000001,-0.09960000000000001,-0.0144,-0.141,-0.18560000000000001,0.101,0.10840000000000001,0.1888,0.1656,-0.033,0.0356,0.0118,0.0746,0.10260000000000001,0.05600000000000001,-0.034,0.0024000000000000002,-0.0688,0.09040000000000001,-0.08760000000000001],[0.054400000000000004,0.09360000000000002,-0.034999999999999996,-0.1414,0.18620000000000003,0.0044,-0.1998,0.1484,0.1146,0.1724,0.0454,-0.0346,-0.0948,-0.1968,-0.06480000000000001,0.032600000000000004,0.16200000000000003,0.17900000000000002,-0.166,0.0594,0.12840000000000001,0.1378,-0.1716,-0.1524,0.023400000000000004],[0.0364,0.13060000000000002,0.0444,0.1778,-0.1554,0.0244,0.13160000000000002,0.15560000000000002,-0.0012000000000000001,-0.18200000000000002,-0.10060000000000001,0.1634,-0.1394,0.1232,0.1298,-0.12960000000000002,0.11220000000000002,-0.0052,0.1454,-0.07800000000000001,-0.10120000000000001,0.1226,0.03900000000000001,0.15900000000000003,0.0466],[0.1208,-0.1442,-0.0256,-0.171,0.10560000000000001,-0.15080000000000002,0.07800000000000001,-0.1132,-0.10520000000000002,-0.0632,-0.125,-0.067,-0.011200000000000002,0.0104,0.1786,-0.09240000000000001,0.1176,-0.1988,-0.18460000000000001,0.0634,-0.1176,0.0834,0.1388,0,0.0572],[0.1768,-0.1942,-0.0684,0.0736,-0.0146,-0.1412,0.0144,-0.06860000000000001,0.012400000000000001,0.1836,0.0578,-0.1512,-0.0198,-0.1658,-0.0316,-0.0588,-0.1736,0.05380000000000001,0.1226,0.056999999999999995,-0.167,0.1806,0.08660000000000001,0.197,-0.134],[0.0052,0.196,0.0822,-0.15380000000000002,0.10020000000000001,-0.135,0.0244,-0.10120000000000001,-0.0834,0.0502,0.1288,0.0288,-0.1612,0.1896,0.10300000000000001,-0.142,-0.10820000000000002,0.0614,0.0322,0.07880000000000001,-0.19140000000000001,-0.18500000000000003,-0.0472,-0.1232,0.1834],[0.014000000000000002,0.1748,0.11499999999999999,0.0922,0.1442,-0.1794,0.15600000000000003,-0.167,-0.1854,0.017,-0.06620000000000001,-0.0414,0.0388,0.0238,0.036,-0.126,-0.0002,-0.141,0.16820000000000002,-0.0028000000000000004,-0.005000000000000001,-0.127,-0.18600000000000003,-0.11599999999999999,0.17620000000000002],[0.0736,0.0184,0.1164,0.19540000000000002,0.0178,0.0152,-0.1454,-0.051000000000000004,-0.030600000000000002,0.13260000000000002,0.1572,0.12140000000000001,0.05280000000000001,0.0534,-0.1806,0.1414,-0.1922,0.10500000000000001,-0.188,0.1826,-0.1058,-0.1726,0.1384,0.17400000000000002,-0.044000000000000004],[-0.08700000000000001,-0.1422,0.1946,0.0176,-0.0614,-0.10920000000000002,0.12840000000000001,-0.1988,0.1492,-0.1162,-0.0732,0.10160000000000001,0.032400000000000005,0.0902,0.18380000000000002,-0.05,0.030600000000000002,0.06820000000000001,-0.1512,-0.041800000000000004,0.1192,0.0068000000000000005,0.033600000000000005,-0.1778,-0.15080000000000002],[-0.1996,-0.0776,-0.2,-0.0834,-0.0002,-0.12340000000000001,0.1634,0.1434,-0.12380000000000001,-0.057999999999999996,-0.0852,0.1952,0.19740000000000002,-0.1384,-0.17120000000000002,0.1904,-0.1236,-0.073,-0.128,-0.049,0.045000000000000005,0.1448,0.0158,-0.1188,-0.121],[-0.125,-0.05,-0.06860000000000001,0.18620000000000003,0.022400000000000003,-0.0374,0.15780000000000002,0.19840000000000002,-0.15360000000000001,0.15940000000000001,0.1854,-0.1158,-0.044000000000000004,-0.026000000000000002,-0.0782,0.0294,0.16720000000000002,0.1472,-0.1272,0.08360000000000001,0.123,0.1794,0.0374,0.09040000000000001,0.145],[-0.0724,-0.1562,-0.131,-0.1458,0.0426,0.022000000000000002,0.1068,0.1472,0.0968,0.1048,0.06480000000000001,-0.10960000000000002,-0.10620000000000002,-0.16060000000000002,0.13060000000000002,-0.0412,-0.0864,0.0444,0.0728,-0.18420000000000003,0.19440000000000002,-0.1636,-0.0852,-0.1384,0.118],[-0.11060000000000002,0.0884,-0.1152,-0.11399999999999999,0.1268,0.1892,0.011200000000000002,-0.131,0.1714,0.0424,-0.053200000000000004,0.10880000000000001,-0.013200000000000002,-0.0076,0.07440000000000001,-0.13799999999999998,-0.0128,0.188,-0.034999999999999996,-0.0998,-0.15500000000000003,0.026000000000000002,-0.1186,-0.1308,0.09060000000000001],[0.1932,0.08960000000000001,0.16920000000000002,-0.009800000000000001,-0.034999999999999996,0.013200000000000002,-0.18280000000000002,0.1908,0.0892,0.026000000000000002,0.0302,-0.0076,0.1988,-0.007000000000000001,-0.07740000000000001,0.0012000000000000001,-0.15100000000000002,0.16920000000000002,0.07980000000000001,0.0976,-0.071,-0.15660000000000002,0.056999999999999995,-0.0008,0.196],[0.12,-0.07800000000000001,-0.125,-0.10740000000000001,0.13460000000000003,0.0724,0.1704,-0.1996,0.0288,0.17980000000000002,0.1226,-0.061,-0.18660000000000002,-0.006200000000000001,0.1716,0.0304,-0.1458,0.07840000000000001,0.1164,0.1348,-0.0882,0.0776,-0.18000000000000002,0.16920000000000002,0.12240000000000001],[-0.1892,0.1408,-0.12660000000000002,-0.032600000000000004,0.1328,0.0828,0.13720000000000002,-0.0466,0.0106,0.15400000000000003,-0.0474,-0.08100000000000002,0.014000000000000002,-0.083,0.1004,-0.1272,-0.1794,0.0216,0.0692,-0.0102,-0.19740000000000002,-0.0918,-0.002,-0.09260000000000002,0.1656],[-0.0474,0.07640000000000001,-0.13660000000000003,-0.1958,-0.084,-0.0756,-0.0976,-0.0522,0.033,-0.1302,-0.11160000000000002,-0.1766,0.05480000000000001,-0.12560000000000002,-0.0938,-0.0968,0.1736,0.1532,0.141,-0.020200000000000003,-0.0724,-0.15760000000000002,-0.17420000000000002,0.1666,0.17200000000000001],[0.1718,0.1144,0.0212,0.0626,0.1554,-0.002,0.1584,-0.128,0.1656,-0.1532,-0.007000000000000001,-0.08860000000000001,-0.07440000000000001,0.003,-0.046200000000000005,0.17820000000000003,0.0942,-0.1766,0.0692,0.033800000000000004,0.1406,-0.0942,-0.08000000000000002,-0.0484,-0.07940000000000001],[0.0752,-0.1212,-0.049,0.11040000000000001,-0.0344,-0.063,0.1432,0.17620000000000002,0.15760000000000002,0.1796,-0.19940000000000002,-0.19840000000000002,0.1694,0.032400000000000005,-0.048,0.167,0.0644,-0.1182,-0.06860000000000001,-0.0282,0.0984,0.13740000000000002,0.1758,-0.1512,-0.09060000000000001],[-0.10860000000000002,0.0944,-0.1048,-0.0148,-0.0358,0.19840000000000002,-0.13740000000000002,0.0158,0.1552,-0.0166,-0.1418,-0.06720000000000001,0.1242,0.15700000000000003,-0.15780000000000002,-0.10820000000000002,0.1452,-0.1278,0.1388,0.1154,-0.013400000000000002,0.0502,-0.0352,-0.0918,-0.0718]],[[0.15100000000000002,0.026800000000000004,-0.0576,0.0058000000000000005,-0.0106,0.038400000000000004,-0.0358,0.10920000000000002,0.19240000000000002,-0.046200000000000005,0.024,0.0002,-0.1188,0.18520000000000003,0.191,-0.002,-0.1456,-0.1298,-0.026400000000000003,0.1774,-0.18480000000000002,-0.1526,-0.08940000000000001,-0.1434,-0.0246],[0.10660000000000001,-0.0408,0.0378,0.11599999999999999,-0.10840000000000001,-0.1154,-0.0026,-0.1698,-0.1748,0.10880000000000001,-0.009,-0.16620000000000001,-0.068,0.004,-0.1274,0.1184,0.1986,0.0738,-0.147,-0.11040000000000001,-0.18120000000000003,0.1282,0.1564,0.1686,-0.0296],[-0.15300000000000002,0.1338,-0.16100000000000003,-0.148,0.016,-0.1394,-0.0766,-0.0364,-0.17720000000000002,-0.011600000000000001,0.1724,0.16060000000000002,0.0848,0.038200000000000005,0.1622,0.1396,-0.0164,0.15680000000000002,0.0436,0.073,-0.144,0.05,-0.051000000000000004,0.10540000000000001,-0.004200000000000001],[0.059,-0.07800000000000001,0.0522,0.0444,-0.0368,-0.0816,0.13460000000000003,-0.006600000000000001,-0.1228,-0.10840000000000001,0.1166,-0.16080000000000003,0.06580000000000001,0.06580000000000001,0.1638,-0.1148,-0.07980000000000001,-0.1466,-0.13040000000000002,-0.08100000000000002,-0.148,0.033400000000000006,-0.1784,0.1942,0.10720000000000002],[0.14880000000000002,-0.06580000000000001,-0.1506,-0.11399999999999999,-0.0332,-0.030600000000000002,0.0344,0.0342,-0.1642,-0.13720000000000002,-0.0514,0.07680000000000001,-0.1386,-0.0482,-0.0354,-0.1182,-0.1274,0.18000000000000002,-0.048600000000000004,-0.0814,-0.16060000000000002,-0.1938,-0.08800000000000001,-0.011600000000000001,-0.1956],[-0.0614,0.1218,0.1448,0.1656,0.13140000000000002,-0.17880000000000001,-0.038400000000000004,-0.1996,-0.1406,-0.1916,-0.0892,-0.005000000000000001,-0.1154,-0.1144,-0.1464,0.062400000000000004,-0.05,-0.1044,-0.0102,0.037200000000000004,0.10060000000000001,-0.1926,0.0762,0.1502,0.1708],[-0.12940000000000002,-0.053000000000000005,0.1328,0.1774,0.1986,0.0958,-0.16620000000000001,-0.0702,0.15100000000000002,0.016200000000000003,0.0946,-0.11399999999999999,0.0608,0.169,-0.1534,0.0352,-0.0726,0.0572,0.0048000000000000004,0.194,0.033800000000000004,-0.1416,0.1684,-0.1688,-0.1766],[0.17500000000000002,0.0782,0.1236,-0.194,-0.073,-0.07540000000000001,0.0436,0.1668,-0.0328,-0.0608,-0.19340000000000002,0.1784,-0.1688,-0.1448,0.06280000000000001,0.031,0.1754,0.127,-0.15880000000000002,0.15400000000000003,0.11220000000000002,-0.1068,-0.022600000000000002,-0.0842,-0.1162],[-0.168,-0.1902,-0.0912,0.1642,-0.032600000000000004,0.16820000000000002,-0.1186,-0.0342,-0.0534,0.12240000000000001,-0.0718,0.0724,-0.11080000000000001,0.009800000000000001,0.10820000000000002,-0.0938,0.0608,0.123,0.1932,-0.1274,-0.1646,-0.17520000000000002,-0.18300000000000002,0.1936,0.1262],[0.1926,-0.036,0.1876,0.166,-0.0842,-0.045200000000000004,0.0604,0.0514,-0.009,0.1926,-0.0356,-0.11259999999999999,-0.1302,-0.1454,-0.0292,-0.128,-0.14880000000000002,-0.0106,-0.044000000000000004,-0.0832,-0.17020000000000002,-0.018600000000000002,0.1658,-0.0584,0.06760000000000001],[-0.0252,-0.1242,-0.098,-0.09340000000000001,0.0114,0.028399999999999998,-0.12380000000000001,-0.13240000000000002,-0.0148,0.1764,0.014199999999999999,-0.1158,0.0114,-0.0654,-0.065,0.13540000000000002,-0.18420000000000003,0.03,-0.0698,0.1258,-0.0012000000000000001,-0.0456,-0.096,-0.18020000000000003,-0.1138],[-0.18720000000000003,0.0766,-0.15940000000000001,0.12240000000000001,-0.048600000000000004,0.1644,-0.1636,0.1996,0.0958,-0.0674,-0.05500000000000001,0.0374,0.05460000000000001,0.08120000000000001,0.0344,-0.09300000000000001,-0.0712,-0.0524,-0.1196,-0.039400000000000004,0.09200000000000001,0.15780000000000002,-0.06,0.171,-0.1582],[0.11599999999999999,0.043800000000000006,0.042,0.0236,-0.13340000000000002,0.1456,-0.119,-0.1432,0.13720000000000002,0.16000000000000003,-0.0008,-0.1654,-0.024,0.09240000000000001,-0.10600000000000001,0.15560000000000002,-0.019600000000000003,-0.0912,0.074,-0.15680000000000002,-0.0262,0.1376,0.1158,-0.1652,-0.024],[-0.0984,0.027400000000000004,-0.015,0.166,0.1218,0.16920000000000002,-0.1854,0.06480000000000001,0.038200000000000005,0.0388,-0.1444,-0.13540000000000002,-0.1774,-0.09160000000000001,-0.0942,-0.0732,0.12480000000000001,0.0052,0.0184,-0.0634,0.1922,0.0206,-0.072,-0.11240000000000001,-0.1004],[0.0106,-0.1734,-0.1988,0.1708,-0.039400000000000004,-0.0076,0.0714,0.041800000000000004,-0.0008,0.1674,0.0854,0.025400000000000002,0.0218,0.1748,0.1806,-0.10520000000000002,-0.1638,0.19,-0.1766,0.07700000000000001,0.073,0.17520000000000002,0.005600000000000001,0.08860000000000001,0.0726],[0.010000000000000002,0.11140000000000001,0.11240000000000001,0.064,-0.0968,0.0074,-0.15880000000000002,-0.0374,-0.15080000000000002,0.0412,-0.13040000000000002,0.13160000000000002,0.0318,0.0012000000000000001,0.1674,0.13260000000000002,0.0166,-0.141,0.05460000000000001,0.0422,0.167,-0.049600000000000005,-0.1068,-0.07740000000000001,0.06280000000000001],[-0.1948,0.0958,0.0296,0.1926,0.1018,0.0388,-0.0412,-0.07500000000000001,0.1348,-0.0988,0.1574,-0.066,0.10220000000000001,-0.0388,0.09200000000000001,0.13720000000000002,-0.0632,0.0598,0.16920000000000002,0.1486,-0.1646,-0.096,0.0998,-0.051000000000000004,0.0942],[0.0704,-0.0888,0.1176,0.125,0.16080000000000003,0.1174,0.07640000000000001,0.014199999999999999,0.0534,-0.0868,0.015600000000000001,0.0102,-0.041,-0.18020000000000003,0.1288,-0.1156,0.19640000000000002,0.0078000000000000005,0.1448,-0.13360000000000002,-0.1602,-0.0714,-0.030600000000000002,-0.057999999999999996,-0.1786],[-0.0482,-0.09100000000000001,-0.0832,0.047,-0.06720000000000001,-0.1726,0.15280000000000002,0.1776,0.0432,-0.0654,0.1854,0.0762,0.18400000000000002,0.048600000000000004,0.0146,0.15400000000000003,-0.1426,-0.1408,0.1482,-0.16920000000000002,0.027200000000000002,0.025800000000000003,0.08000000000000002,-0.11160000000000002,-0.08120000000000001],[0.145,-0.1406,0.045200000000000004,0.006,0.0762,-0.13720000000000002,0.0376,0.10160000000000001,0.10620000000000002,0.1166,0.0436,-0.053200000000000004,0.0932,0.0762,0.15660000000000002,-0.0844,0.09720000000000001,-0.001,0.0712,0.064,0.015,-0.1904,0.062,-0.0414,0.053200000000000004],[0.1492,-0.1626,-0.013800000000000002,0.0012000000000000001,0.033600000000000005,0.12240000000000001,-0.1734,-0.0456,0.1078,0.0102,-0.08560000000000001,-0.1824,-0.1376,0.18000000000000002,0.195,-0.14880000000000002,-0.06820000000000001,-0.0614,0.042,0.067,0.1404,-0.1444,0.13440000000000002,0.19820000000000002,-0.0318],[0.1962,0.06580000000000001,0.009,0.1834,-0.136,-0.0348,-0.12660000000000002,0.0766,0.08040000000000001,-0.0714,0.020000000000000004,-0.0118,-0.19340000000000002,0.08360000000000001,-0.0706,0.1408,0.068,0.2,-0.0006000000000000001,-0.0476,-0.04020000000000001,0.1312,0.1668,0.1652,0.068],[-0.07940000000000001,-0.1612,-0.17720000000000002,0.032,0.1428,-0.068,0.1834,0.0998,0.028399999999999998,-0.1008,-0.10520000000000002,-0.0282,0.147,-0.0216,-0.0198,-0.0598,-0.0594,-0.0922,0.0704,-0.1018,0.1686,-0.05160000000000001,0.0786,0.038400000000000004,-0.045200000000000004],[0.1928,-0.0034000000000000002,0.10300000000000001,0.0534,-0.16140000000000002,-0.19940000000000002,0.1176,0.18460000000000001,0.08460000000000001,0.043000000000000003,-0.04680000000000001,0.0318,0.2,0.12380000000000001,0.101,0.0016,-0.18280000000000002,-0.12560000000000002,-0.11160000000000002,-0.131,-0.1368,-0.1288,0.198,-0.1666,-0.0776],[-0.1206,0.0746,0.0772,-0.1522,-0.15560000000000002,-0.12,-0.07500000000000001,0.0746,0.15880000000000002,0.099,-0.17320000000000002,0.0938,0.12860000000000002,-0.06720000000000001,-0.0114,-0.18420000000000003,-0.1014,0.014000000000000002,-0.04580000000000001,0.0106,-0.13899999999999998,0.135,0.054200000000000005,0.0684,-0.1922]],[[-0.0912,-0.1786,-0.1708,-0.026400000000000003,0.1744,-0.1514,-0.1668,0.051800000000000006,-0.028999999999999998,-0.15580000000000002,-0.064,0.147,-0.16820000000000002,0.0534,0.10060000000000001,-0.0512,0.14880000000000002,0.023400000000000004,-0.12240000000000001,0.1864,0.049600000000000005,0.0028000000000000004,0.12240000000000001,-0.1228,0.060200000000000004],[0.10060000000000001,-0.095,-0.17900000000000002,-0.0188,0.1424,-0.0666,0.18020000000000003,0.054400000000000004,-0.1162,-0.012,0.1824,0.0646,-0.059,0.10300000000000001,-0.06420000000000001,0.030600000000000002,0.0388,-0.1288,-0.16140000000000002,-0.1686,-0.027800000000000005,0.132,0.038400000000000004,0.055400000000000005,-0.014199999999999999],[0.149,0.0204,0.0148,-0.1452,0.0592,-0.041,-0.10920000000000002,0.0656,0.044800000000000006,-0.1554,-0.1176,-0.0922,-0.0946,-0.1078,-0.10560000000000001,-0.0832,-0.1906,-0.0016,-0.11299999999999999,-0.17800000000000002,-0.15480000000000002,0.1774,-0.13360000000000002,-0.1494,0.0922],[0.191,-0.1384,-0.055400000000000005,0.0524,-0.15960000000000002,0.005600000000000001,-0.18460000000000001,-0.042800000000000005,-0.1784,0.09000000000000001,0.026800000000000004,-0.0782,-0.0074,0.0806,0.0664,0.07680000000000001,-0.0606,-0.1368,-0.18660000000000002,-0.17620000000000002,-0.09720000000000001,-0.198,-0.1562,0.0358,0.10920000000000002],[-0.026400000000000003,-0.14780000000000001,-0.16920000000000002,0.2,-0.1804,-0.15880000000000002,0.1392,-0.13140000000000002,0.17,0.049,0.1634,-0.0726,0.0364,-0.1778,0.17720000000000002,-0.1554,0.052000000000000005,-0.063,0.1028,-0.013400000000000002,0.1688,-0.1402,-0.1534,0.1516,0.12840000000000001],[-0.19920000000000002,0.11359999999999999,-0.13440000000000002,-0.1408,-0.18600000000000003,-0.1956,0.15980000000000003,0.1128,-0.0946,0.1948,-0.1154,-0.1168,-0.0076,0.0412,-0.0412,0.166,0.0604,0.1194,-0.13540000000000002,-0.12480000000000001,0.0704,0.10640000000000001,-0.0722,-0.13140000000000002,0.098],[-0.146,-0.1466,-0.16080000000000003,-0.08860000000000001,0.12,-0.1542,-0.1936,0.020000000000000004,-0.09300000000000001,-0.15400000000000003,0.1778,0.0698,-0.007000000000000001,-0.1942,0.1894,0.10260000000000001,0.18100000000000002,0.1194,0.1592,-0.15080000000000002,-0.027800000000000005,-0.1836,-0.062,-0.1208,0.0564],[0.1058,0.0488,0.0346,-0.1642,0.11359999999999999,-0.10620000000000002,0.145,0.0288,0.043000000000000003,0.1138,-0.0476,0.0256,0.0454,0.1444,0.1188,-0.1254,-0.1542,-0.10700000000000001,-0.1232,0.13,-0.1674,-0.13040000000000002,-0.0636,-0.1,-0.1628],[-0.1882,0.011600000000000001,0.0592,0.0442,-0.037200000000000004,-0.032,-0.07700000000000001,-0.0118,-0.015,-0.12860000000000002,-0.0604,0.10500000000000001,-0.1784,0.17300000000000001,-0.1184,0.0424,-0.0888,-0.05,0.098,0.1162,0.10020000000000001,0.0158,0.15980000000000003,-0.1262,0.062200000000000005],[-0.18080000000000002,0.0426,0.011600000000000001,-0.1014,0.132,-0.09620000000000001,0.0832,-0.0656,0.053200000000000004,-0.19740000000000002,-0.018,0.0328,0.0086,0.1826,0.1004,-0.13560000000000003,-0.16060000000000002,0.0364,-0.16620000000000001,0.14780000000000001,-0.056799999999999996,0.0422,0.0534,0.06380000000000001,0.0044],[0.1192,-0.06620000000000001,0.0036,0.032400000000000005,-0.1154,-0.0012000000000000001,0.19840000000000002,-0.0838,0.014000000000000002,0.0094,0.1948,0.1474,0.039400000000000004,0.05620000000000001,-0.18520000000000003,0.0078000000000000005,-0.0654,-0.0758,0.13740000000000002,-0.0436,-0.0832,-0.033,-0.0238,0.1048,0.0966],[-0.0942,0.0946,-0.0738,-0.1228,0.142,0.1384,0.0444,0.123,-0.17800000000000002,-0.1456,-0.004200000000000001,-0.064,-0.1038,0.0578,0.1738,0.1962,-0.1208,0.0722,0.048600000000000004,-0.1776,0.10820000000000002,0.13899999999999998,0.0128,-0.0058000000000000005,-0.11699999999999999],[0.12660000000000002,0.0882,-0.0824,-0.0814,-0.0386,0.0822,-0.1386,0.1484,0.0416,0.0824,0.07440000000000001,0.1268,0.19540000000000002,0.10160000000000001,-0.09240000000000001,0.1544,0.135,0.0854,-0.1674,0.0476,0.1978,0.1854,0.19640000000000002,0.0772,-0.09300000000000001],[0.12,-0.1494,0.14980000000000002,-0.1756,0.08000000000000002,0.067,-0.1018,0.1892,0.064,0.1166,-0.1496,-0.1874,-0.0626,-0.11060000000000002,0.0344,0.011600000000000001,-0.0036,-0.10740000000000001,0.1708,-0.0024000000000000002,-0.10600000000000001,0.06899999999999999,-0.0586,-0.16720000000000002,-0.119],[-0.027200000000000002,0.1178,-0.15800000000000003,0.0792,0.1018,0.1768,0.1686,-0.0966,-0.15200000000000002,0.095,-0.0614,0.040400000000000005,-0.0976,0.1912,-0.0322,0.0644,-0.0854,0.09360000000000002,-0.0166,0.095,0.0666,-0.144,0.1584,-0.144,0.022600000000000002],[-0.082,-0.0292,-0.050800000000000005,-0.0244,0.1706,0.1014,-0.0614,0.1926,0.15800000000000003,-0.10400000000000001,-0.17200000000000001,-0.038400000000000004,-0.17900000000000002,0.061200000000000004,0.18500000000000003,0.1932,0.0858,0.196,0.141,0.08460000000000001,0.1254,-0.10660000000000001,0.05,-0.0582,0.0878],[-0.0814,0.1784,-0.1804,0.1322,0.0834,0.129,0.09200000000000001,-0.12,-0.19,0.18200000000000002,0.0584,-0.0748,0.044800000000000006,-0.09860000000000001,-0.07900000000000001,0.13360000000000002,-0.0514,0.1138,0.1684,0.15980000000000003,-0.036,0.1796,0.1282,-0.08460000000000001,-0.0054],[0.009600000000000001,-0.12860000000000002,-0.1864,0.012400000000000001,0.025,-0.1444,0.0746,-0.09620000000000001,-0.062400000000000004,-0.1482,-0.08560000000000001,0.09960000000000001,-0.1874,0.032600000000000004,-0.09140000000000001,0.0158,0.0416,0.044800000000000006,-0.07440000000000001,-0.0482,-0.1194,-0.09280000000000001,0.0974,-0.15480000000000002,0.012],[0.0126,-0.032400000000000005,-0.1182,0.0514,-0.0246,0.0576,0.1898,-0.18580000000000002,0.013400000000000002,0.023200000000000002,0.0358,0.12340000000000001,0.0646,0.0968,-0.0174,0.019000000000000003,0.18500000000000003,-0.136,0.0378,0.13360000000000002,0.0952,-0.0684,0.0212,-0.11020000000000002,0.0892],[-0.0366,-0.1894,0.0724,0.199,0.0012000000000000001,-0.1068,-0.1796,0.1246,0.0956,-0.027200000000000002,0.0068000000000000005,0.13140000000000002,0.199,-0.0426,0.0038,-0.1384,-0.15940000000000001,-0.042800000000000005,-0.10320000000000001,-0.042,-0.1736,0.1358,-0.07840000000000001,0.19840000000000002,0.191],[-0.17500000000000002,-0.048600000000000004,-0.1816,-0.0826,0.06780000000000001,-0.1584,-0.083,0.0698,-0.13520000000000001,0.0478,0.09720000000000001,0.1678,-0.0664,0.15600000000000003,-0.06280000000000001,-0.1198,-0.1956,-0.1886,-0.0694,-0.17300000000000001,0.008400000000000001,0.17920000000000003,-0.1654,-0.0952,-0.16920000000000002],[-0.1272,0.023400000000000004,-0.0034000000000000002,-0.1684,0.013400000000000002,-0.17820000000000003,-0.17420000000000002,0.10640000000000001,-0.011200000000000002,0.06720000000000001,-0.050800000000000005,-0.0288,-0.0898,-0.0454,0.0358,-0.167,0.1666,0.1406,0.1778,0.1948,0.1476,-0.0414,-0.15960000000000002,-0.1874,-0.038200000000000005],[0.1884,-0.19540000000000002,0.15300000000000002,0.0378,0.1468,0.1342,0.1526,0.1386,0.10960000000000002,-0.0954,-0.0164,0.1452,-0.08860000000000001,0.1034,-0.026400000000000003,0.1554,0.0892,-0.0772,0.1408,-0.1382,0.10020000000000001,-0.0728,0.0494,0.013000000000000001,0.0994],[0.1996,-0.0566,-0.0586,0.1386,-0.027800000000000005,0.10500000000000001,0.0294,-0.1444,-0.0256,0.12940000000000002,0.08700000000000001,-0.18600000000000003,0.1938,0.15960000000000002,-0.11140000000000001,0.0666,-0.026400000000000003,0.0014000000000000002,-0.1626,0.18320000000000003,0.15360000000000001,-0.0724,-0.0006000000000000001,0.122,-0.1406],[0.0478,0.09960000000000001,-0.17420000000000002,0.027200000000000002,-0.0024000000000000002,-0.1034,-0.1706,0.13060000000000002,0.13440000000000002,-0.14780000000000001,-0.18520000000000003,0.0666,0.1278,-0.1308,0.124,-0.011200000000000002,0.1222,0.133,0.171,-0.050800000000000005,-0.1232,-0.0206,-0.0398,0.0502,0.0806]],[[0.22483052440868068,0.02934681062939629,-0.16637943877492442,-0.03613780813041361,0.21900966940780867,0.03904823563084961,0.09895453501482385,-0.24083787566107864,0.05020487438252092],[-0.1411557337711458,0.01552228000232531,0.16662197439996076,0.06402940500959191,-0.23428941378509763,-0.19063300127855773,0.06451447625966457,-0.14236841189632746,0.07882407813680822],[-0.0036380343755449945,-0.1443086968966181,-0.02619384750392396,-0.02667891875399663,0.012611852501889315,-0.0014552137502179979,0.21658431315744534,0.004608176875690326,-0.054327980008138585],[0.1692898662753604,-0.10283510501540517,-0.1273312031440748,-0.1258759893938568,0.12927148814436548,-0.009943960626489652,0.12684613189400215,0.1074432818910955,0.04462655500668527],[-0.15352505064799876,-0.16492422502470644,0.228711094409262,0.11568949314233082,0.09677171438949686,0.06912265313535489,0.22483052440868068,-0.14164080502121845,0.032257238129832284],[0.028619203754287288,0.18796510940315805,0.07300322313593623,0.10841342439124084,0.15158476564770812,0.19766653440461135,0.011884245626780317,0.10186496251525984,0.03662287938048628],[-0.14309601877143643,-0.1794763625268864,-0.07639872188644489,-0.17414057877608707,-0.18505468190272206,-0.016734958127506975,0.20275978253037436,0.13266698689487413,0.09725678563956952],[0.11593202876736715,-0.05554065813332025,-0.04729444688208493,-0.10235003376533251,-0.19039046565352138,0.17753607752659573,0.13339459376998314,0.1346072718951648,-0.07203308063579089],[0.1581332275236891,-0.10089482001511452,0.03856316438077694,-0.05044741000755726,0.2362296987853883,0.07421590126111789,-0.17123015127565105,-0.08634268251293453,-0.12151034814320281],[0.056753336258501916,0.2095507800313917,-0.13654755689545545,0.1273312031440748,-0.1338796650200558,0.0962866431394242,-0.12927148814436548,-0.0033954987505086616,0.20033442628001102],[-0.0919210018887702,-0.18529721752775838,-0.016734958127506975,0.06718236813506424,-0.022313277503342634,-0.05457051563317492,0.18966285877841238,0.03177216687975962,-0.043171341256467266],[0.09531650063927886,-0.21609924190737267,0.0705778668855729,0.11787231376765782,0.037107950630558946,0.23356180690998865,-0.07106293813564556,-0.07033533126053655,-0.17414057877608707],[-0.014794673127216312,-0.09095085938862486,0.16880479502528772,-0.017705100627652307,0.017705100627652307,-0.21755445565759068,-0.14164080502121845,0.2369573056604973,0.20421499628059236],[0.10210749814029618,0.20130456878015635,-0.07106293813564556,0.001212678125181665,0.06669729688499157,-0.01552228000232531,-0.11277906564189484,-0.04874966063230293,-0.025708776253851293],[-0.15837576314872542,-0.17705100627652307,0.14188334064625477,0.056995871883538246,-0.1758383281513414,-0.15764815627361645,-0.020615528128088305,0.21609924190737267,0.16686451002499708],[-0.09871199938978752,-0.1780211487766684,0.16346901127448843,0.23283420003487965,-0.05578319375835659,0.03346991625501395,-0.21294627878190034,-0.10089482001511452,0.1758383281513414],[0.0882829675132252,-0.06208912000930124,-0.11496188626722183,0.0213431350031973,0.008488746876271654,-0.0470519112570486,-0.2022747112803017,-0.11059624501656784,-0.13630502127041913],[0.20348738940548336,-0.19233075065381205,-0.10598806814087751,-0.0955590362643152,0.05311530188295692,0.08998071688847953,-0.16055858377405244,-0.0419586631312856,0.01067156750159865],[-0.12466331126867515,0.03856316438077694,-0.18990539440344872,0.07348829438600889,0.06815251063520956,0.16734958127506974,-0.015764815627361643,-0.18117411190214072,0.20858063753124634],[-0.10113735564015085,-0.16322647564945209,-0.15328251502296245,-0.19596878502935705,-0.01722002937757964,0.15643547814843478,0.2059127456558467,0.13848784189574612,-0.13800277064567346],[-0.05820855000871991,-0.016007351252397977,0.14164080502121845,0.00024253562503633296,-0.1299990950194745,0.1925732862788484,0.07542857938629956,0.07615618626140855,-0.05893615688382891],[0.24180801816122396,0.20324485378044702,0.16298394002441577,-0.0235259556285243,-0.20081949753008368,0.2095507800313917,-0.05626826500842925,0.12466331126867515,0.07203308063579089],[0.1700174731504694,-0.19742399877957503,0.028376668129250958,-0.046324304381939595,0.12369316876852982,0.056995871883538246,-0.07348829438600889,-0.23962519753589698,0.05457051563317492],[0.18359946815250405,-0.12369316876852982,-0.22192009690824469,-0.07470097251119055,0.03589527250537728,0.206882888155992,0.02546624062881496,0.06790997501017323,-0.09483142938920619],[0.07712632876155388,0.12951402376940183,-0.07712632876155388,0.23380434253502497,-0.05093248125762992,-0.04074598500610394,0.08367479063753487,-0.17632339940141406,-0.23938266191086063]]]}