{"name":"nn_45_square","initialization_type":"xavier","training_iterations":0,"input_dimensions":{"vertical":2,"horizontal":2},"output_dimensions":{"vertical":2,"horizontal":2},"deep_layers":8,"neurons_per_layer":25,"weights":[[[0.12474110320142921,0.06250187136106329,-0.14811364689896692,-0.03702841056850712,0.2074641779376303,-0.1373465007236506,0.18540465454267754,-0.2492195873695122,0.11817577282248592,0.21875655365338253,-0.17857675758702385,0.18015241780476476,0.018120285066026712,-0.18855604426600525,-0.22899841268927038,-0.2431795569789307,-0.12316542403515042,-0.04070502708524636,-0.0722185847388342,-0.23818984229526396,-0.04621983191246074,-0.13419515901119233,0.2316245118840102,-0.13314473532615811,0.1173879777933598],[-0.04149284120611164,-0.21455470761510903,-0.0026261155406290277,-0.12316542606190052,-0.21402947483893825,-0.08955096519910759,0.17857672138981742,0.13314473495962695,0.030988301216420152,-0.141810910596908,-0.23346284657089428,-0.08876315171036854,-0.09243972681744705,-0.17174882308808653,-0.22190786532602283,-0.07169335160812121,0.0005252349540540254,-0.2205948370824018,0.06539055984467232,-0.15599201764703263,-0.0898135733220697,-0.24239166730474843,-0.054623506532631684,0.10740865630987464,0.23976557556364994],[-0.2542092578399625,0.013130640299099171,-0.21429208269239874,0.12158976970483862,-0.10058071273170503,0.08246046401862417,0.14233614966813601,-0.12894290394871083,-0.13734655066839727,0.012342847806155344,-0.08062215859832385,0.005252260056539199,-0.061976638885791704,-0.2563101701067942,-0.023897770061276413,-0.04306854946515018,-0.10451991369039268,-0.21376690605866402,0.03519007688813772,0.22899844676615144,-0.042280642648174147,0.11791318330566211,-0.1097722184240186,0.12421586655406516,0.2066763522884675],[-0.15100240201935308,-0.22663491174491188,-0.06539058407970784,-0.12001406229446625,0.2494822339754558,-0.08456132461533888,0.04070497199055615,0.0380788684904834,-0.2599867591465883,-0.24816911460502697,-0.1809402733516584,0.22637229797389036,-0.23267499701901823,-0.2502700764233727,0.1833037809801882,-0.08561182965568837,0.1596686284587146,-0.19249526091472466,0.11686268107340249,0.08797533555285446,-0.04963380858849973,0.21035290442176213,0.21980693327143866,0.06460275267277234,0.16334523178978796]],[[0.15180015486790085,-0.02879988722228577,0.12140002040458313,-0.16959990117662507,0.048799720502814926,0.12160001183210387,0.17579991351610547,0.11479983357057827,-0.03080032603175402,-0.011000012542846199,-0.17160014919225075,-0.14559972909125207,0.1422001978459204,-0.0776000526334232,0.17799991929736533,0.17320001826547296,0.15679982057158487,0.10939988013540193,-0.06680017210413872,0.10159994570586002,0.16900012309547896,0.19940010487279283,-0.07299992275182268,-0.07419996975221725,-0.09040001031595088],[0.05920015458061,0.1852001105741781,0.08500001969482518,0.08580009718223572,0.010599721130704757,0.09600001226363554,0.06879991560126548,-0.15140016664809233,0.13639967451238968,0.17059998851416416,0.07559984712619221,0.08200027073925435,-0.19099980077944606,-0.17300005082075234,0.022399919183006843,0.04240001795419328,-0.17920017995699425,-0.16980011757606156,0.18779982936355988,-0.18200004942029502,-0.07839987693147273,0.09600010155356761,-0.15759992373860632,-0.15979997250602984,0.1561999917221091],[-0.10799985372828201,-0.006599891749377395,-0.10179998411722518,-0.06959990707200905,0.0901997282856696,0.18860001492980874,-0.07080008246421342,-0.1276001605794121,-0.13320031210074382,-0.1420000167365296,-0.1562001461045877,0.12760026301249788,0.05360019453060747,-0.1442000477799173,0.0047999208363062726,0.017800022225430867,0.1187998289413066,0.08719988548335288,0.10599983483312346,-0.16500005103356397,-0.14139988359831548,0.12340009911525927,0.050200075320127005,-0.15699996897573984,0.057399989634537435],[-0.14919983930835318,-0.15899988403595836,-0.05719998169601815,0.15300010070777617,-0.02360029478606547,0.06600001513670088,-0.04540008815581715,-0.11060017540361822,-0.013800341002592172,-0.17700001499127516,-0.04240016236388675,-0.03879971402121022,0.1776002120209864,-0.002400051541205108,-0.024400085884314478,0.17040002179856856,-0.01840018811395622,-0.007400122971119249,-0.05500017899355792,-0.012000051028184468,-0.056399871964513446,0.010000105485668286,-0.19919991926389607,-0.07819996997598837,-0.000800008918417004],[-0.17659982873548322,0.014000124891845144,-0.009599981525642586,0.14680010766178617,-0.09560031708026381,-0.15639998262611496,0.05619990512156822,-0.04780018802527453,0.022999635038647815,-0.033000018128533974,-0.18140017366713632,-0.05459969267060255,0.024600228236527646,0.16419994521871162,-0.1318000925370505,-0.08459997483409934,0.08039979920384094,0.14419986777477167,-0.09580019211696626,-0.13820005586489326,0.17440013644455157,0.16480011347791923,-0.09019991280046566,-0.0731999662034373,0.17479998960005996],[0.15920015598411918,0.11700011351764442,-0.05119998344349107,0.05540009780604849,-0.00700028914765709,0.0696000160754466,-0.13120008614750572,-0.025200171497341016,-0.011400332612522032,0.1971999834164845,-0.03460015905006427,-0.04159971969179144,0.12440020852014054,-0.14580004952964243,0.04839991553499815,0.0956000231166639,-0.02340018309465568,0.06679987983481252,-0.06300017492144366,-0.1256000501139518,0.04060012431097296,-0.07539989713732502,-0.1147999205997504,-0.055799969527591115,-0.036200009182853835],[-0.15479981045532923,-0.11219986200057559,-0.07059997736475426,-0.03919988005379512,0.10899965344555998,-0.060199983081992786,-0.08680010529717719,-0.12340020595785445,0.03719959849010735,0.054999982325971274,0.05259981228057244,-0.11799966407071281,0.16360024755377095,-0.11120006238719353,-0.16240010063505936,-0.04919997487593338,0.14459977901107918,0.043599853614569355,0.11359978842889795,0.14739993619785272,0.16780015084673444,-0.12579987324679132,0.0414000954853135,0.009000037043109681,0.1855999880689713],[0.1362001529685066,-0.14499988561808738,0.0948000146808281,0.14260009706033508,-0.005800288688105561,-0.15199998222649103,0.013999913147736319,0.020799830128314902,-0.03340032882371622,0.09079997955214689,0.1369998444860781,-0.18679972079320195,0.13820020778338743,0.15859995102462907,-0.10120008448781398,-0.145999973823883,-0.05280017975138838,-0.1568001206905913,-0.03940017435241803,0.15839994638913807,0.17320012179644867,0.1462001039426503,0.12880008021765224,-0.13219996590086902,-0.14940001136707776],[0.022000159238867407,-0.14479988473126576,0.08380002183707967,0.15160010156668313,0.05099971474783021,-0.09999998881390736,0.12679991149870923,-0.15080017025408968,0.041599665904019166,0.03739998855655709,0.04759984759263331,-0.04399972336875794,-0.15759979848496158,0.08259994553745453,0.1005999177978648,0.15880001738663121,-0.015400184149546328,-0.12160012266485416,0.13379982388090678,-0.02200005537627362,0.03520012655259922,0.08340010747597153,-0.10559992131051688,-0.012999969864371273,-0.003600010217365639],[-0.1829998350853111,0.03820011756504332,0.006600022771020165,-0.08679989581451576,-0.16620029384741972,-0.1297999888030233,-0.16020009007866498,-0.1822001760599937,-0.1814003452456769,-0.0834000101422126,-0.08220015977170952,0.010800285360940276,0.10420020850996047,-0.03060005550524617,0.012599915239304774,0.13660001684160553,0.10519980895493149,-0.01120012525393382,-0.16600018104097153,0.028199946139841284,-0.057999868814272375,-0.0903998910213163,-0.07439991958596423,0.1866000287369587,0.021799991034717],[0.05100013842687325,0.132800100512589,0.15120001519052984,0.05000008687318276,0.09719974451565806,0.035800013718723024,0.1589999236402173,0.05839984830249201,0.009999705430211982,-0.06240001402199767,-0.062000140350483096,-0.07879975227993184,-0.1503998160799136,0.06339995574642565,-0.19080007452932,0.19880001979890352,-0.12040016224565295,0.144799893525729,-0.1002001548673734,-0.15020004456407796,0.07020011029546043,-0.17219990868863122,-0.020199929868406918,-0.14519997328087142,0.005399991917360494],[-0.13779982139411678,0.012400130366006007,-0.16919998070985903,-0.16339988764210353,-0.10000033071039141,-0.06679998189100743,-0.027800099057969662,-0.04440019606909818,0.17359961938102075,-0.01580001898504709,-0.06600018090790429,0.13720032051390973,0.17300023795277822,-0.03200005721881451,0.03339990349907213,-0.052199973718595714,-0.1022002093608919,-0.13360013801590023,0.15939979957167733,0.01799994146998834,-0.0025998577179838773,-0.1893998814798919,-0.15399990900475405,0.02420003540925868,-0.1712000109631861],[-0.1655998466520567,-0.1565998892791886,-0.13159998045488622,0.03580009701582987,-0.13160027735450386,0.0046000122857128576,0.06819991535774461,-0.019000165376011267,-0.025200323222026647,0.05079998773208252,0.1693998496485688,-0.07699973095639638,0.13600019751833078,-0.17280005100771287,0.03499991969277663,0.06980001835802786,0.012199821722221704,-0.03840011766225649,-0.036800170006209325,-0.17940005111191124,0.06980012201073287,-0.11419989787149117,-0.10619992377289827,0.18880002867477066,0.1395999908438872],[0.17120013067133194,0.005800095579916128,-0.1953999846830266,0.08840008283020884,0.18759976022157013,-0.0977999879815656,0.0389999270783357,0.08319985770721512,0.14879972274904643,0.13559998714650925,0.11579987051691704,-0.00479976766755042,0.15620017128596458,0.08279995698555197,0.012199930332315546,-0.10539998209712619,-0.05140015241487004,-0.04300010132341518,-0.04480014628991593,-0.13800004456288584,0.16100010398341796,-0.01039991221359863,-0.043399933806139254,-0.11639997385069344,-0.15480000854960865],[0.008000149464793094,0.04440011041616272,0.04360001221868787,-0.048999906853686735,-0.05380028523362599,-0.11719998059012625,-0.12980008319211173,-0.014000167966333056,0.15499967686589966,-0.015600020959835802,-0.07860015827774164,-0.040999723817994084,-0.011599791915337518,0.0483999547451124,0.18939991592880356,-0.12099997261874947,-0.12220017720927888,-0.1626001163292675,0.08239982973101627,-0.13260004730097338,0.06580011928931365,-0.031399901666936486,0.17200007849647478,0.12780003153221828,-0.07240000926320912],[0.1306001455507712,0.05840010703922708,-0.022799985378484364,-0.01839990842891834,0.12219972782018385,0.03040001600343286,-0.07840008119075148,0.061799839104286526,0.14379968839282575,0.09859998273920663,0.06859985118738027,-0.05519973637794552,-0.15959980362190623,0.1565999538610679,-0.10420007962739251,0.1922000231585979,-0.16080017107409883,0.022799886866254004,0.09479983564713863,0.17139995190070245,-0.14939988402213306,-0.18459990307402757,0.0764000750533268,-0.12059997002388534,-0.07000000935428959],[-0.008799840843201087,0.10540011820301592,0.18180001511289387,0.05820010044349756,-0.10680030011717521,0.09800001855842111,-0.1328000896135031,0.1897998231459312,-0.08420034204214363,-0.0786000207461553,-0.007600163173311795,-0.1343997095629939,-0.038999783353742094,-0.19760005035767483,-0.061400087926782775,0.1396000269920499,-0.13680018730979096,0.18099987524744535,0.1403998191018594,-0.08640005396807644,0.11460012680104421,-0.09219989304352452,0.10140008307710278,0.05120003438112122,0.08179998895934497],[0.1304001399353247,-0.05979989847764278,-0.11379998291996188,0.035200088497395546,0.19219974510993149,0.13740001205993488,-0.04700007750174618,-0.10340015167342599,-0.010800295914183976,0.12059998762991195,0.08359986176462816,-0.17719975284924333,-0.007999818056699312,0.07619995382776293,-0.1328000739526182,-0.03219998208511636,0.1729998369835822,0.12099989223895148,0.08179984420913668,0.01659995321333547,0.1180001113635006,-0.023999906656775632,-0.035799929858235435,0.07380002684883508,0.04519999141517288],[-0.1821998307640731,-0.11419987522439841,0.0012000170384596678,0.007600106675521801,-0.0010003166208533522,-0.18659998139138687,0.07279990530611108,0.15139981293968052,0.1127996376234316,0.16759997969543436,-0.04380017254673416,-0.1423996934037116,0.06460022821556596,-0.10860005386073034,-0.031000092597906866,-0.18519997294571605,0.08699980118458621,-0.1924001318644723,0.00039980869115905504,0.11259994338832256,-0.1961998651770597,-0.1499998868491663,-0.0423999125704276,0.032200035287268405,-0.022600011179058598],[-0.1667998402308259,0.11300011669545076,-0.012799986118834924,-0.055999900870688415,-0.19120030238438973,-0.11139998027345917,-0.08900008792561663,-0.13620017866930395,-0.17080034410258674,-0.1378000204388984,0.08859983092386273,-0.10479970692985903,0.14700022066046778,-0.12620004832179524,-0.1482000890306034,-0.17299997242833082,0.006799810745456602,0.17439987687557423,0.04879981927708723,0.17559995122381616,-0.008199872453373147,0.178600103871079,-0.10479991717536527,0.15820003186826603,0.04719999108563692],[0.033200156290370986,0.1728001140134746,-0.1981999826190108,0.1484000984932781,-0.1716002883814291,0.03700001531580745,-0.11720008673648034,-0.1934001710820693,0.09459966749113442,0.18139998394526907,-1.5729538767643327e-7,0.04960027950020233,-0.003799792930459153,-0.13280005046472732,0.031599915965036085,-0.07379997763378522,0.02239981707765019,0.03819987923051364,0.011199824863808739,-0.12240005164207778,0.04560012446923805,-0.034999896039743655,0.0048000793848281985,-0.06779996911569819,0.14239999032242281],[0.19420016065790602,0.03780011754595437,0.16720001383904232,0.020800099749002886,0.044199695563698495,0.002600019986412187,-0.13060008856686794,-0.048200179790549864,-0.09660034620795052,0.009599979154837112,0.005399829977442433,-0.012399704984152585,-0.09599977785659505,-0.1348000486025757,-0.08920008964821093,-0.14959997202395228,0.12519980967004224,0.02339987600533332,0.015999818079836765,-0.006200049323043861,0.08720012824977612,-0.12399989536031407,-0.1351999165528611,0.1476000323238496,0.1313999908852846],[0.11660017735815406,0.03200012982534659,0.1918000200036683,-0.08299988785089377,0.07299967297370812,0.18900001714447814,-0.026800098884846236,-0.1350001938989704,0.1823996228244519,-0.04780001831768469,0.13319982266667066,0.1228003168563001,-0.19779976570866306,0.09619994223924196,0.1823999048007205,-0.0067999747126333485,0.1869997926892153,-0.13180013752366057,0.07059980105418594,-0.08040005980927381,-0.11559985880928599,0.08100011875562176,-0.17119990978033467,-0.11259996435546046,0.1877999885317171],[0.02880017001253811,0.11260012517795621,0.004000016952472729,0.031000106995477516,-0.13940031827049637,-0.16839998115611604,0.06079990505968899,-0.00860018806759664,0.19099963584085466,0.19479997958327036,0.12059982609061881,-0.01659969176781151,0.0490002296591834,0.10919994613054226,0.04559990686914828,0.11860002728199066,0.1515998001354455,-0.0822001322802037,0.12679980786761755,-0.13800005634543172,0.016400135467869396,0.19900011333190337,-0.14959991219745217,0.19600003522141313,-0.1432000110274012],[-0.042199805324896394,0.07860014266151147,0.13520002132849615,0.15020012292823362,-0.09920036027827299,0.15500001949360656,0.16499989145836266,0.1785997865499801,-0.12160041472420768,-0.18740002087452656,0.011199804185815676,0.1774003490444763,-0.06359974139446349,-0.1474000629504656,-0.04140010501808273,0.04160002859139156,0.01579977211455815,-0.17320015103344719,0.034999781258987055,0.025599934723152827,-0.12519984498463094,0.0056001301460975655,0.17140009937576225,0.13660003935959017,-0.045000012555422166]],[[0.08500146617749985,-0.09960075300567016,-0.02760103917695775,0.162000511561696,0.08859856272246491,-0.13539946009317802,0.08440145681887205,0.15199929580677896,-0.07159995741997877,0.19800162946169322,0.1900000395901861,-0.1640019251533475,-0.0405979739175623,-0.10620051576079252,-0.010999635075782773,0.0786002866059483,-0.15800085833960675,0.12079909350813907,-0.1661982966044976,-0.11560008056707025,-0.08979912750752117,0.12199960294479081,0.1118009465387753,-0.051003059093829635,-0.09439979960900279],[-0.07999833513328163,-0.08460085404485032,-0.06160117622273283,0.15860058110051292,-0.14980163155201215,0.006200616248774072,0.05340165692786517,0.1143991953923498,-0.028799949876201346,-0.1555981406919673,-0.10319995525648619,-0.09660218947204144,-0.1799976969036096,0.06459941167031902,-0.03599958776912935,0.03740032356602558,-0.0926009762391374,-0.060801031592280785,-0.060798063393286424,-0.14720009450471838,-0.0017990102489141484,-0.09620045709609663,-0.0017989236129349097,-0.17380347766635518,0.09220022809427234],[-0.0261983825276711,-0.005000830399707994,-0.1302011451044069,0.15260056442206735,-0.1498015853888481,-0.0957994032522496,0.1076016080737288,-0.004200778589740818,-0.054599952427350995,-0.023998199354877226,0.07660004359835311,-0.0514021249784611,-0.17959776400325295,-0.13800056987911782,0.14180040185285803,0.01580031554345671,-0.04600094745514691,-0.04900100074560108,-0.1473981199875662,0.1807999100631576,-0.0811990378029873,-0.1550004401881439,0.1130010447081951,0.04599662384990565,-0.15999977876791924],[0.006001770672690541,-0.17680090736446483,0.06279874524031363,0.0558006178970248,-0.04220173722937703,0.027800650672703778,-0.07059824031715893,0.18319914967740222,0.054200052239165776,-0.11259802751212328,-0.002999952004041306,0.15699767396119796,0.026202447166865404,-0.09060062442537192,-0.04059956010288784,0.06460034541361027,-0.0006010368379768566,-0.1480010982948266,-0.1343979438579365,0.1275999031779234,0.1930010531420681,-0.18100047953222953,0.0908011457130887,-0.189603694653284,0.16940024337853263],[-0.16119859236093106,0.15939927914420865,0.06019899917352261,0.12220049107850739,0.0863986174783338,0.01300051339559822,-0.02459860336125212,0.12039932869490476,0.01680004045729355,-0.02299843705801573,0.10940003847738057,-0.19620184671605226,-0.09699805661222081,-0.17800049500692697,0.07940035112371288,0.13000027583497917,0.16239917703481319,0.08259912651494072,-0.03739836831200652,0.07499992614531667,-0.029599162257379394,0.19579962452346347,-0.005399088845858159,0.1659970663821711,0.09260019392280583],[-0.047998505488914725,-0.1958007645119994,0.13419893814120323,0.1746005214536384,0.10479853177032442,0.09600054519065707,0.10220148340089305,0.05579928643637156,0.12100004352745244,-0.14839833753101128,0.14740004087508476,0.011998038370344109,0.17440206384981727,0.12459947347488633,-0.054999627844704434,-0.00019970770111263562,-0.1452008741071187,-0.1810009289338455,-0.1709982675288868,-0.08820007878366132,-0.13319911090476408,-0.08040039973915553,-0.16839903149743843,-0.0808031154449649,0.008000206430561946],[-0.19699855009133097,-0.1640007413025985,0.16419896787470586,-0.1463994941830286,0.005398574638089293,0.16240052655130863,0.16340143780625482,0.11599931051003391,-0.013599958361443605,-0.0225983899340596,-0.0717999601441196,0.18519809829102388,0.05560200106035909,-0.14260051007017568,0.06900036184319674,-0.01179971572914909,0.13819915273340036,-0.14060090162375782,-0.03499832100147584,-0.11960007456024038,-0.03859913716006889,0.03139961558926698,0.050600939943615815,-0.004803020386144965,0.18560020060767565],[-0.15899873257609834,0.07259934678849864,-0.17080089750974337,-0.1809995578409506,-0.008201240445673249,0.12660046936523134,-0.06539874028492439,0.04199938967762583,0.10940003628454482,0.0014014053202692682,-0.058799966070597495,-0.13320166381478624,-0.12879824825338493,-0.03560044464903647,-0.11299968413151866,-0.12759975188304296,-0.09760074213844223,0.05839922023685146,-0.03559852554211517,0.1153999288749833,0.005800754632758537,0.19059965498808407,-0.16319918461516678,0.034997354746391075,-0.16079982835587237],[0.00040174340837469135,-0.1374008940448848,-0.04040123543971677,-0.003799391645136752,-0.014401709985139689,0.11140064117191369,-0.0313982674609117,0.037999162628187186,-0.145599948800159,-0.12299805923604783,-0.05159995280909294,0.14579771006206582,0.006402409433279905,-0.18460061434935482,-0.18659956664905397,0.07380034029470468,0.06999897917425368,0.1259989197481648,-0.12279797513097944,-0.19080009555125993,-0.18419896291102061,0.054999527728946146,0.021201127240908498,0.18819636223588349,0.1214002391864833],[0.06540171294965304,0.028399122397354263,-0.03360121490755862,-0.06759940228702879,-0.11840168108568525,-0.18579937178982714,0.1522017016039207,-0.16220082111439102,0.15340005020846298,0.1804019066261906,0.17900004653640142,0.08299775054251843,-0.09679763325479318,0.1893993963497329,0.07420042599411167,-0.04779966546389868,0.17299899736977958,-0.1880010626628316,-0.18499801182132475,-0.04120009266860552,0.012201018967427847,0.1595995379228756,-0.13039889148797876,-0.013403573090157394,0.04900023560640437],[0.01760160979548436,-0.07280082513791412,-0.06040114102146876,0.134600561736147,-0.07480157931730552,-0.13639940855430932,-0.11779840039487403,-0.13040077274664855,-0.1337999526829273,-0.1829982076546966,0.09940004363559914,0.08019788560004132,0.11240222464264682,-0.00620056740366274,-0.010199599870176898,0.16740031420598078,0.045999057486784935,0.01959900189860569,-0.15179813075380627,0.08239991213831906,0.19580095756140525,0.01139956444667051,-0.003798958675127332,0.16039664131186165,0.1600002211301214],[-0.018398710260814074,-0.04400065985720279,0.08419908494718399,-0.08319954993719496,-0.08640126654804499,0.1324004719481976,0.1340012810529364,-0.021200617623746507,-0.02559996197967847,0.13080143690536045,0.09240003515665356,0.12359830614609749,0.1682017818858371,-0.16200045499952567,-0.16419967942817507,0.17040025173082635,-0.044200754858762875,0.17859919833057253,0.20000149618334145,0.1333999308102368,0.1620007670456421,-0.030200347219885425,-0.032599164215223325,-0.04160268997701315,0.13340017803408538],[0.09880176620656338,0.0645990949486977,-0.028001251980303333,-0.11279938367879828,0.08119826700575114,0.1494006486073887,-0.11599824502032954,-0.12980084764277225,0.1172000519720707,0.0026019668530424807,0.07480004790897551,-0.10960231987730738,0.1506024407544266,-0.028600622666672123,0.06160043896261593,0.07100034469570402,-0.14860103407051867,-0.10280109551350577,0.18140205063948836,-0.1870000962271323,-0.026598949445966937,-0.10400047766360478,-0.054998857176533994,0.05759631507548147,-0.12599975720499815],[-0.03499873229095127,0.0741993494781703,0.07379910033046959,-0.06599955771602196,0.18279875647193616,-0.0807995348365831,-0.15679874114377418,-0.03780060715322849,-0.013999963418146183,-0.11159859209888881,0.19040003438232517,0.003998336120765306,0.10900175113962812,-0.0734004457321313,-0.1345996841138821,-0.17599975187589176,0.04739925827291136,-0.027600784586224607,0.012801471577496901,0.03819993155744445,0.019000754473420894,-0.13100034123234786,-0.1461991809758881,-0.19500264376691506,0.048200173683830255],[0.1884014275789939,0.060799269644642294,-0.08380101487263608,-0.05799950193108689,0.15259859739914397,0.11340052024263765,-0.09039858343341937,0.1335993191569407,0.1622000413353409,0.02000158679320079,-0.1207999609175914,-0.03240187329064668,-0.08199802894459549,-0.15600050258883358,0.052000355788434614,-0.002799720528587694,-0.14580083472634922,0.12199911289190511,-0.14579834551401916,0.10859992522263708,-0.09039915059240475,0.07619961911390238,0.0936009249766562,0.0015970246861506743,-0.0281998028509579],[-0.18459832976296386,-0.031400851702098005,0.043398810892662974,0.12880058276706172,0.07459835628742228,-0.022599395365309662,0.08880165636641046,-0.10800079358605548,-0.15739995127688966,-0.17159814087228084,0.005000046149268543,-0.1098021915655348,0.1410023052339046,-0.18280058909561736,0.0062004161144082835,-0.04099967315851859,-0.17300097612310505,0.10339895748589126,0.09780193270045937,0.011199914993959014,0.1628009934241108,-0.14040044216667913,-0.011598914369814221,0.14579652078438962,-0.12719976737178776],[0.17400172559487007,0.18779911690080708,0.08979877456476414,-0.17539939790679712,-0.04000169475975704,0.14580063043056998,-0.06399828683937404,0.06939917518112636,-0.011999949650219065,-0.19079808013745767,0.12700004710654028,-0.0346022652582496,-0.06739761668243366,-0.17180060798778485,0.06680042953986966,-0.08759966264381552,-0.02780100947938096,0.11399892800471857,0.15540200105228696,-0.09420009163517383,-0.09379897345449932,0.11139953734427727,-0.0791988821785733,0.12639640219063183,0.07260023806983512],[-0.07859858525634843,-0.08720072484440958,-0.08060100196241546,0.018400493721509398,0.05359861207269733,-0.03699947961745827,-0.16559859363062088,-0.01640068016109416,0.056200041998460605,0.1490015773075823,0.06740003831268994,-0.09660185898387601,-0.05419804437728736,0.07879950070493749,-0.07659964884465228,0.161600275703952,-0.0042008286577109415,-0.01380087781994503,0.03740164320765367,-0.18880007782682193,-0.17039915869529526,0.0037996159074790113,0.03740091561602557,0.14799704741091474,-0.1797998054786151],[0.05720183491228884,0.16719905824283804,0.10719870060310147,-0.06559935970631914,-0.0488017988424215,0.12280067637952363,-0.1551981759739172,-0.023400882710260733,0.12260005393463562,-0.057197957372814676,0.0886000495161051,0.07319758951647491,-0.19559746361359595,-0.13640064649906816,-0.17839954405238947,-0.18179964197384937,-0.10580107470174396,0.18539886429390975,-0.011597867694375234,0.157599898380323,0.1960010915466905,0.06159950128952192,0.12100118547244658,-0.021803829636167203,-0.09619974882742216],[-0.1717986925825304,0.0947993287560471,0.015799073294590935,-0.03959954382412929,0.12059871816494261,0.1848004812114939,0.11380129905299884,-0.1674006278216015,0.12000003803089833,0.06080145339063996,-0.025399964669939757,0.01319828324812061,0.12260180668034285,0.09719953995484112,-0.04179967464364069,-0.19919974447501598,-0.052000765392497046,-0.14640080871855113,-0.14159848122477378,0.024399928279362205,0.07280077797163695,-0.051800353930630386,0.1290008443285683,0.13059727220515932,-0.049599821152653406],[0.08360173926943516,0.1885991086297033,0.10999876670947922,-0.1711993931028206,-0.10440170660538699,-0.11099936161248523,-0.11279827207512885,-0.09680083418538596,0.17480005098406165,-0.0865980641432396,-0.03199995280087217,-0.10160228412202753,0.03200240326574689,-0.1808006128726976,-0.008999567496903924,0.08440033964479193,-0.12000101812894443,-0.16420107853704,0.013402019119796741,-0.05740009444128887,0.15200103464020628,0.09739953028561117,-0.06939887479448989,-0.07140362829408242,-0.15439976097702487],[0.0932014989844076,-0.11060076850772645,-0.16720106416248218,-0.013799477015566032,0.1959985289623239,-0.1897994509035303,-0.13179851168164672,-0.013600717272430693,-0.17179995662997752,-0.12259833447854802,-0.00399995924574488,-0.15080196744697064,0.12580207043900557,0.1527994726492635,-0.15679962655386376,-0.07419970667006832,0.04459912304984089,-0.13600092887413462,-0.08219826064753391,-0.08180008037390087,-0.06339910798674984,0.10079959725832986,0.018600969296632335,-0.18040312570012781,-0.03379979414538392],[-0.1685988313234672,0.1273993974071043,-0.19180082803890766,0.1828004076788718,-0.09680114374519734,0.1512004325326221,-0.00879883876761442,0.05579943779978697,-0.15979996681129693,0.08660129442603645,-0.040599968703083356,-0.0868015337028227,-0.058198385042424014,-0.14320040957572647,0.018600291569992787,-0.027599770941786173,0.12879931588452947,0.1787992815250978,-0.07159864061841871,-0.012600065270615421,0.14660069599339456,-0.036800317406449935,-0.1221992485275428,-0.11580243867145763,-0.10359984189833231],[0.07640158996681064,-0.13500081498197322,0.0739988759245374,0.004000554946953154,-0.03960155889203528,-0.0577994127903881,0.04080158190110255,0.1289992327851762,-0.03759995218836564,-0.012998224432872324,0.13700004285741565,0.05219790935802841,0.14660219905174326,-0.009000561912361276,0.16020039382936335,0.056800309135317244,-0.12780093205810697,0.18879901381488548,-0.14999815149841927,0.1951999106467092,0.09000094521279235,-0.19040043510649873,-0.1375989712845836,-0.02300332039375792,-0.13359978170446885],[-0.14219828247969246,-0.1946008777717269,0.19859878232660086,-0.16119940058199142,0.10639831294032853,-0.051599371335500556,-0.13219829336438554,-0.06300082349278772,-0.08419994869786057,-0.10259808291732674,0.16940004683835969,-0.1082022567866908,0.12420237353215405,-0.10880060704201575,-0.1827995738497883,-0.01479966543108584,-0.04480100565170498,-0.16980106932792172,-0.04819800742446396,0.0037999073948239755,0.17020102105404072,-0.03320046371323272,0.16620111427315162,0.035996416869081393,0.19580023769638366]],[[0.03900066003099122,0.19839403040307307,0.11599381355309772,0.17580504530724791,-0.11480176255911186,0.09380932867421357,0.06681147121463786,0.0700024096569235,0.19540057348233986,0.028002968255271894,0.11061427022969919,0.11899768703942162,-0.05780298468738704,-0.052206257416594945,-0.09161327717719513,0.06520269811307888,-0.013408021696798876,0.10439417380662278,0.10861027590076305,0.07179786185903611,0.08659379670349988,0.024008259545584734,-0.06220963317709089,-0.06940488992408195,-0.016610670025147465],[-0.17219933096322187,0.0439939994743575,0.0029937790839802483,0.10960507316980103,-0.1570017679903088,-0.0979906172916598,-0.16338846266604318,0.18580242323495974,-0.06899942467505571,0.019802982832044534,-0.11658564494970691,0.12299767264822237,0.11979699985561791,0.05339370947331642,-0.06501334966738787,-0.04279728434548845,-0.08740807035046086,-0.1246058581554804,-0.1057896611693343,-0.15320215021874728,0.12499376746598033,-0.10199169673053911,-0.09380968253954093,0.053595085115819736,-0.1120107310933148],[0.15560077580731532,-0.16700698712298206,-0.09420724991746035,-0.18639408896765017,-0.13460206502491162,-0.07018907923837697,0.10621343520480087,-0.14659717051606572,0.12640066888866044,0.16280347989514266,-0.18858328361209992,0.04919729152729998,-0.1004034952836713,0.035992678431036776,0.18838445043980195,-0.03439683945433727,0.17739059604483978,0.1087931792494438,0.047612027774110145,0.02319749607891117,-0.024607263885266052,-0.034790321993630934,-0.1646112843531152,0.18939427103895579,-0.06441248910474748],[-0.12319928731617089,0.052193570594065444,-0.085806663276582,0.15080543418832537,-0.020201896861069754,-0.00018995085267416392,-0.053187643343245106,-0.032397404902072095,-0.0627993826109595,0.15360319624608804,-0.008784627531222432,-0.013602491904261015,-0.15420321446339985,-0.08340673979244681,-0.06761430061568624,0.16980290706400605,-0.04700864120513166,-0.043006275504845246,0.1832110708742575,0.13299769688926524,0.002393320139908498,-0.13659110458155513,0.0419896255888006,-0.050605266094506336,0.17598850605170835],[-0.15339923031717445,-0.016206891385109504,0.1481928478113098,-0.11339416877983062,0.13339796645242333,-0.13538922421189015,-0.03158674369340318,-0.04719720879809494,0.035600658899138,-0.1963965687146043,-0.157583504201159,-0.11620267331887509,-0.014403447308803406,0.1799927780665255,0.05058466083421391,-0.11959687990036143,0.010190719663449081,0.11759327129583733,0.18701187104098843,0.1775975296181559,-0.17540716179091365,0.03560954569334849,0.138588871148559,-0.10240564989704228,-0.11781232278310703],[0.01920080009411078,-0.08360718091159326,0.13159255270420356,-0.14359392723117345,0.02459788227010569,0.14081122734834137,0.07661380806682402,-0.041597096994659334,-0.15099931201447261,-0.12439642798515559,-0.04478281935659626,-0.12380278489422514,-0.0804035910312922,-0.09420752681319793,0.04998402193320846,0.13500324969017688,0.08859033869828177,0.18919298947874597,0.06781236965386858,0.16039742662467638,-0.19520746071706724,0.05420994036711123,0.133188409122758,-0.1618058839310075,-0.15221284032185198],[-0.11219935175488914,0.03719416546010158,-0.04500605110223504,0.1974049341756803,-0.002201722393405102,0.045409120261411605,-0.021588782463151962,-0.012597640628325909,-0.08939944083579089,0.1612029032966005,0.1550139567140032,0.11779773805982177,-0.0714029179684307,0.14119388498344676,-0.060612981933617346,0.10480263928129331,0.17019215114988892,-0.1028056955641554,0.11141004660027806,0.040197909355003926,-0.006806063434994526,-0.06919192247038401,-0.15160941899474265,0.14199521844562138,-0.11241043057865147],[0.019800766740648252,-0.11900690388400646,-0.1266071568534205,-0.16539416357303705,-0.09200203655204152,-0.1435892079656664,-0.07458672893659746,0.052602788254383546,0.17760066238266048,0.027203432898750938,0.08361651095288829,0.11719732359500183,-0.1948034519755193,0.10819276309531414,0.06678464192360554,0.08500312260016286,-0.16280928249021184,0.1297932608381627,0.004811889560703895,-0.10080247345883729,0.10099282715074313,0.015609553736114126,0.1693888585952514,-0.11800565554663359,0.10078765678660537],[-0.15399924596784995,0.04959320781391582,-0.19120704134523264,0.11500574216648823,0.09999799597090864,0.08821061704993621,0.023413056257974994,0.08120274353747008,-0.10919934835867509,0.1252033777360286,0.014016243643710244,0.0327973670296794,0.06459660376674743,-0.010807119627508615,-0.029215109785980735,-0.08119692808620933,0.1959908674869489,0.0017933699439471426,-0.09618830360961363,-0.03860243342515261,0.02459294277436698,-0.01399060033564593,0.028589038309655257,0.08519443562184834,-0.06201214303320882],[-0.16939944268633908,-0.1664050292403801,-0.13620521025105942,0.014204249545403324,-0.11680148284395557,0.13040786085468906,0.1140096643184254,0.013202027831937706,0.13300048339030346,0.020602498689807385,0.00241202259501298,0.00619805080013421,-0.005402513982198717,-0.07100527270951415,-0.11481118444305438,-0.015397726234109548,0.056593243495744315,0.04119509130429922,-0.1431913390520647,0.06219819866450512,-0.1258052240263351,0.13900695571625732,-0.18520811279440066,0.014795882136976827,0.13019100857518742],[-0.14619904296660402,-0.12400861634267879,-0.02960893439891418,0.05960728558269788,0.14219745710411574,0.1824134686293735,-0.11438343554845745,-0.09879651757423966,0.03280082616253486,-0.17599571374775425,0.031820608843568986,-0.05960334028166557,-0.15860430878503293,0.15719096887837034,-0.03061916976017949,0.031203897351385245,-0.09341158835009826,0.07939158907430645,-0.12578516273237358,-0.04140308722289889,-0.051808953457110785,0.1858119265339792,0.08958609219721558,0.12819293990343017,0.03538459594852193],[-0.18799935865561895,-0.058005792685144636,0.001793994834581086,-0.09599510290005106,0.1849982893029362,0.02020905280020733,0.06501113333826362,-0.09499765967378844,0.15420055591407975,-0.07459711845755682,0.09141385064245207,0.11599775526146551,0.17059710337100223,0.1733939285495518,0.18578711414435137,-0.1015973812038358,0.09779221252167547,0.09279434609184366,-0.12119002833646676,-0.11640207510579673,0.19099397989619393,-0.0013919828431628563,-0.10360934974847752,0.09059525376041888,0.11038964595573583],[-0.007599216134457337,-0.05480704622969015,-0.18420731195267093,0.07320596154385675,-0.04860208150893423,0.10321101467069119,0.15821355072513987,0.04600285373047617,0.17780067426363422,0.15300350915211264,-0.03918313919530693,0.0411972679436717,-0.04880352488611536,0.13159261632956382,-0.08081568214495316,0.15500318825960047,0.07779051451861586,-0.004806878922243545,0.19281213212313744,0.087597474635631,0.010192675413263184,0.07880976018965528,-0.028211379692625816,0.09519422264726442,-0.0626125962801761],[0.0998004572128281,-0.15220415717519098,0.00499569543090323,-0.11659648885686842,0.14699877236839812,0.07800649437469287,0.14480798389146973,0.030401674753549948,-0.05899959959473912,-0.09419793466713064,0.04640993039366321,-0.12880160970695753,0.09839792213409629,0.12759564172944782,0.14499075790893104,-0.11659812277246669,-0.030205579498438294,-0.11480405639424772,-0.15659284638599053,0.10439851169624086,-0.17600431951482565,-0.13019425193689532,0.09099329449588012,0.17039659648141825,-0.04260742902481417],[0.011200613793338362,0.07999446846200561,-0.029205735528051117,-0.13359532293157667,0.134598367069157,-0.024191354008517324,0.0422106334005437,-0.039397764390839494,-0.01559946951005438,-0.06919724816286904,0.01881322939595806,0.01639785586012574,0.058597233819056564,0.13039420227977053,-0.057212306304559854,0.13960250164765345,-0.006407438839325136,0.06759460052359105,-0.024990475833800617,0.07299801815987152,0.09159425168362734,0.012207656608527575,-0.194608928702708,0.010795467453797404,-0.15980988847403657],[0.1396007571584691,0.06259315740453725,0.12419290657706783,0.1886057845748804,-0.04800202103562123,0.06761069316571361,0.04021315075658684,0.12820276441423545,0.019600656774443784,0.051803403884662334,0.01081636024869142,0.14359734857446466,0.03719657834291037,0.11439282817162255,0.022584778877363567,0.10180309318720643,0.029790801577598527,0.0559933214721586,0.014811778278088855,0.14659754886806572,-0.008207111464464928,-0.12419052980384074,-0.07381104440837462,0.003794393481221171,-0.14821223023930302],[0.007200589896516869,-0.1120052979476683,-0.1726054936807945,-0.02739552014044525,-0.11880156234854253,-0.09319171696453273,-0.087989813546845,-0.034597858976369945,-0.19019949220900834,-0.06959736508061291,-0.019987325834923707,0.04439794552600674,-0.007602649236028124,-0.16740555333236842,0.19198821252282036,-0.07599760273601243,-0.08560712653554436,0.017994827924308766,0.03940912584127006,0.09999810153867793,0.16439449581596124,-0.10959266707268196,-0.1300085508084779,0.03579565938686885,0.07479052680342677],[-0.1015992929293547,0.16399363125535082,-0.12600660065716418,0.035605383111442374,0.06639812189220332,0.041409955507098944,0.07901224124315975,-0.19779742941372075,0.016000611381475283,0.07680316574495015,-0.0891847706424423,-0.09160246886798598,0.011796815929970275,-0.01780667642684334,0.10998583379157498,0.0924028803237078,0.16799143924189908,-0.03000621663888531,0.14241096849742158,-0.17180228156099467,0.18679338389008723,-0.07659118862809781,0.18278972385648273,-0.018405216163090453,-0.06301138674887453],[-0.08479948085100944,-0.18680468073733972,0.03979514459795651,-0.006196041028570826,0.18279861688732618,0.09720731554072146,-0.06799100101626357,-0.028398105909698663,0.012600448479233754,-0.07839766963783537,-0.003188803745572107,0.01899818577919668,-0.13600234125645802,-0.10640490514301458,-0.11981041534667354,-0.07619788314302262,-0.1942062974445504,-0.05260456903281658,0.08580805735235057,0.04219832282082561,0.14559513430452778,0.0508064817705932,-0.04200755809536223,0.05159616295247845,-0.19820836642784173],[0.18140070855018225,-0.11340639118435542,-0.17320662373055976,0.052805401926504625,-0.1492018855330057,0.12380998950806417,0.1612122833300213,0.13580257972248913,-0.123799386311863,0.002203177249693909,-0.19398471870033018,0.11219752286993775,0.07919680464353951,0.15099330026911933,0.10938578430977565,0.1398028898449336,-0.04240858999808936,-0.0046062382345593775,-0.08858899478371446,0.18859771055803484,0.10859335988865507,-0.007591157414405376,-0.14041031276286992,0.13999476519924703,-0.030811425718553293],[-0.05059915742928742,0.19859239941379714,-0.12960787894959983,-0.011393574732659614,0.11539775661910359,0.10601187943780613,0.0740146088088288,-0.10499693009323188,-0.11319927056883795,0.14140377998066575,0.1340181746720846,-0.13500294582675332,0.11639619952799493,-0.12360796682302184,0.008583092593370216,-0.002396563230474439,0.01938978197514935,0.03139258122298466,-0.1023869136511026,0.19279727716192513,0.09299210215815765,-0.053789481705904335,-0.1328122665404529,0.012193773222549227,-0.11481358700560645],[0.038800726381379845,0.026793497490951227,-0.033206744722688884,0.1596054997495976,-0.1120019165235211,-0.13098983145276594,0.018212505934986394,0.1060026293259874,0.04620062256781295,0.06740323443776434,0.008015561366737938,-0.19260252259952101,0.15419674818352977,0.05459318410558405,0.1357855300146102,0.1016029438873876,-0.14440875121333285,0.07919365117669173,0.04081120417383294,-0.18980233061536633,0.13839324497273336,-0.04039099817064801,-0.09901049590258738,0.025594671925765134,0.13558837087348913],[-0.08259928836608303,-0.04520642466693502,0.0697933394029972,-0.03839456843795455,0.17059810282713006,0.03041004077362748,-0.15918765151458852,0.04020259582308352,-0.030799383501323132,0.1256031959668922,0.026015362528678747,0.19519751020059467,0.051996787296707245,0.06059326616018188,-0.1886142920363398,-0.015597095265481807,-0.142408637677406,0.007793729145323542,-0.09458893992397102,0.0035976984400855243,0.07759332319023673,0.1458088920446578,-0.1926103699003832,-0.11300526411858887,-0.031211483950190397],[-0.08199924531955369,0.15799321469268734,0.04319296111365807,-0.18119426067601305,-0.1276020033336532,-0.18098939298524985,-0.041386952724744554,0.19060274559854434,-0.022999350223291345,-0.09859662257047361,-0.18658376610170177,0.1775973691801803,-0.06860339377693148,0.14859288893307654,0.11938490076904566,0.16120306993363123,0.17459086914589042,-0.06700662402622758,0.08681168410007256,0.00399756838070635,0.18839294800559658,-0.0017906042107983646,-0.11901095557715993,0.13039443825079503,0.18598786942920806],[0.05600071804385886,-0.14880646582950116,-0.11260670788838702,0.1982054693235066,-0.0036019102167291904,0.19081010631861342,0.002012432238805311,-0.08179738292688356,-0.08479938076833356,0.07460321928572947,-0.045984531699873425,-0.16340250648064583,0.05619676577549582,0.14039322421973532,0.16878561158775232,-0.19759707524398198,-0.07700870081044181,0.03939368816368689,-0.15358886854006584,-0.01740231701040173,-0.1558067211109589,0.11560895439708732,0.042989559055447574,0.058194699375359704,-0.0368115579135854]],[[0.015186615942949129,0.1570668257873652,0.06368640518506805,-0.0005753048428207795,0.1950778142857527,-0.18119966889805283,0.1597947738684329,-0.05082230692541274,-0.16597401747214413,-0.1387979759606362,0.17502903902288766,-0.06662669269322118,-0.1989912712948948,-0.10897557489655217,0.04693767425374852,0.010219025565152485,-0.09045333425893777,0.02521282059823097,0.04043537333212047,0.0885703697999948,0.15675755043350226,-0.032801878584193,-0.04105707044584883,-0.19894076965048366,-0.13391180260263602],[-0.06801533564750274,-0.018323441832604467,-0.07490101565632536,-0.1627717140444093,-0.110510861856773,-0.16799962621907263,0.09559401248509172,-0.014225554213627326,0.04022976227695988,-0.14759768047987845,-0.09856673402708697,0.07096941824575123,-0.142590005687726,0.09742797512477411,-0.17627139697073235,0.06142179450679285,0.05993890072832318,0.14801468663677406,0.16824052259998412,0.1943660515360692,0.16775137273012058,-0.037402144229375496,0.08933462137526209,-0.17193214209099372,0.1445010360308379],[-0.03441290147344558,-0.013135595831498596,-0.1889167268895497,-0.002576200864444228,-0.0005250091358118097,-0.10119968226939428,-0.021405036051254493,-0.08342149771704647,-0.008374961865487975,-0.11939805032396734,-0.15017201344112568,0.006174275384171944,0.011608408948581766,-0.013176462552123172,-0.045260065289791006,0.08341833433267867,-0.10705140040666968,0.03141235597397071,-0.16596590877400672,-0.12702855691671525,0.020359090267288753,-0.05380180768721118,0.16134499878501707,-0.020142916265701694,-0.0007150008366263],[0.124981785794187,-0.018509073515261796,-0.19428243556345925,-0.0439664033561191,0.10730587038176743,-0.011399554021592814,-0.03260711136687449,-0.1426303509916203,-0.15936465083215723,-0.03339724517393554,0.17863951109489443,0.0993636794377115,-0.13838812888409316,0.12443322804598693,0.07311520052956472,0.06102588519745918,0.10972743280223535,0.09881744409321638,0.07644812955944733,-0.13124031955088547,-0.19185775581491718,-0.009202549152119469,-0.09587765082663972,0.09228059294833792,0.10252000096128441],[-0.1838174231254672,0.0842869895972414,-0.16908752300564198,-0.12396785303383019,-0.020898706522905777,-0.12419956876466526,0.07519319731692621,-0.14582903754471271,0.06343382182971291,-0.1067973657900571,0.05463780136937621,-0.041834746290507416,0.006211361875671014,-0.07196820499195802,0.14151886833312832,-0.18777523417244424,-0.02506942705173319,-0.1275833108657621,0.16384604696719937,-0.07923857042327286,-0.19345525812255096,-0.08120244539656928,0.1299257093364332,-0.05972289799293985,0.07871480976891913],[0.03318039350806424,0.15409789597779275,0.0413265782393378,-0.19576382447667412,0.10631399279087902,-0.06719951606673372,-0.15920765685090094,-0.025832678711371702,-0.18156193660325062,0.05260296643690291,-0.09475745969700887,0.012360895434893935,-0.17158721283856074,-0.0851642194069756,-0.06389130338885803,0.18182787191816296,-0.19867813161332742,0.05861878142324106,-0.03354818037497788,0.16135659211492592,-0.14086218600726805,-0.04280275092683366,0.04891639502288563,0.19508676993748073,-0.011470796341621226],[-0.0994181402035811,-0.08530943530528232,0.15551709987119944,-0.12796653335022043,0.06490545497321673,-0.08619955219190253,0.000592916976603956,0.04436976874813489,-0.1343647885786668,0.088002743593787,0.19643935547406596,-0.040236175120696306,-0.03158817241046581,0.12023310057701096,-0.13088446596456701,0.08902578353765511,0.09512771986639303,0.14841737549761244,-0.17115206024731286,-0.04424015736187323,-0.08285752912357572,0.039197455812780696,-0.1246773442616354,0.16208027145558415,0.026119527679802242],[0.1573828136888431,0.01688578864635596,0.04131092095057085,0.15643169759033637,-0.05390011379508256,-0.05759958000935726,0.1125932907846948,0.1771713644054442,-0.19316664973159708,-0.05339740132673788,0.12043727841560406,0.09516573210846467,-0.06038880150543145,0.11063134910979704,-0.19708000686433216,-0.01197557841064233,-0.11426846614808431,-0.16118354158277984,0.14684540983498795,0.1651619584130475,0.16094550852489617,0.1149975964390826,0.005526737439798293,-0.08952396105644775,0.10271321910104929],[-0.18601696509601823,-0.04811530682730253,-0.09369049085228734,-0.17596870074694074,-0.1399013807771413,-0.14519957942743458,-0.05060662256584527,-0.18062827089995462,0.19403292780723183,-0.051997436246215424,0.1352368046572484,-0.14863382776683942,0.11461106040219614,0.1658309559151848,-0.19827899061358206,0.16122411100901837,0.0769324058482031,-0.012583750715131741,0.05784483247552568,0.11536244795113589,-0.18905379994292304,0.11899761908828355,0.19252766985962125,-0.05992493401363448,0.010311779428629922],[0.023381313627850356,0.13849328945555964,0.08832062236729954,-0.19756552632724575,-0.1450913730712463,-0.08719953882336075,0.13559270445367816,0.1559688596784862,0.035236269920911965,0.08380282529615037,0.09444053914517728,0.17056273709621658,0.13961218269568013,0.1574340959061296,-0.020687006436231243,-0.15197344133272644,-0.16627445442609218,0.1110178979900453,0.04544938174734297,-0.005041364963830244,-0.13945925929074487,-0.15560262033594316,0.07312032941217189,-0.041317313831712436,-7.68768419227689e-5],[-0.09161520955297399,0.1450759450037385,0.1958981932417677,0.050828060024828946,-0.13111157103191962,-0.1217996279203643,-0.058405941315050815,-0.05742535119641907,-0.0019704717191167953,-0.1879976964882126,0.12963300012688234,-0.18903033882835943,-0.03539008098988999,0.11302775430417851,-0.1998708281644185,-0.06657837717541223,0.06893938840762001,0.1150145693864354,0.11424019865514651,0.012766322790529255,-0.07204824029626429,0.14199786968651806,-0.158464857089733,-0.015332684593094207,-0.049099770129807645],[0.01638164679174514,-0.05150836637186884,-0.023281519249793863,-0.006366137965414639,-0.1814933001130344,-0.13939954677253094,0.01119283391435906,0.03596941238458952,0.11923562712908538,-0.18459722475391552,-0.059760181132938156,-0.09423660185658649,0.0044119679645948555,-0.17456650870530274,0.11591453798123812,-0.060573912045848034,-0.19747313315615864,-0.18938242018475443,-0.04695149534884471,0.15035936986977702,-0.1238582073739669,-0.18720257471598456,-0.1764782561515938,-0.15551878141148642,0.1515209379937298],[0.10118381047078746,0.12748082288212198,-0.13549550110304642,0.141629862133622,-0.11470589528175192,-0.05479960487397291,0.1681936788097169,-0.02362697801307775,-0.19056857910518013,0.03620244887997556,-0.11876488069369913,0.027167714629623564,-0.10058944815116971,0.12122953432808235,0.18152462507093164,0.10202300892972153,-0.1768645031635363,-0.18618449508107224,0.1486427801847774,-0.08763583942571411,0.19534866334798112,-0.06320226454535523,-0.14706902104482614,-0.16532836203069565,0.12370666504518342],[-0.15322180094341087,-0.1364911781649988,0.037940708758089685,-0.07075978242213116,-0.18467328563553287,0.1650005411914759,0.17159149197646636,0.1783636754675865,-0.06215769346375769,-0.06939670788259232,0.07044729104582925,0.17415653701161818,0.08761420899105678,0.15143977491419214,0.03509850532694784,-0.10236902172098537,0.1607131490944857,-0.11937912084634056,0.10085760590122922,-0.036448249509161694,-0.14286912722738482,-0.054403059010011565,0.18610706333568314,0.1592964507770235,0.060143624742890055],[-0.19501951162320263,-0.14470260770825666,-0.09327407301703698,-0.09496400959655099,-0.07148659890681669,-0.08059951868132233,-0.014607614555295226,0.128367491474374,-0.031962138808924984,-0.10879705325333254,-0.16975767771113076,0.12036110083444038,0.14401271431268975,0.17203559356359385,0.09490916872411662,-0.05017227606983496,-0.17747772767332914,0.1274186852401728,0.08445155375214412,0.06195681687305205,0.1889381359273252,-0.07120273371398338,0.15311682669888577,0.08268632135332017,-0.13307146365949818],[0.14478025635266717,0.19149855172087454,0.13432742465553477,0.03323641526845731,-0.1426852515871864,0.05840048416694641,0.015792293158367516,0.1851671040644416,0.09923831208540851,0.14840298439388908,0.10124282546928058,-0.05083936483418422,-0.045987135075270295,0.11863601473265802,0.034908088760788845,-0.19237194533916063,0.06132134745807104,-0.028981092484941153,0.18365216664078732,-0.03184370015390781,-0.08146259953715518,0.1937972369914682,0.12631583697807022,-0.11671264925748867,0.05873006466006406],[-0.04061769415056459,0.0212883289785351,0.060314209178806616,-0.17596735768164615,0.02230285097309861,-0.047599562168104036,-0.0964069063438713,-0.16222948392965672,0.16863433995502206,0.17260267307358748,-0.15656161597229895,-0.11783527957082415,0.117611533738657,-0.12256771659870742,0.18231761983159545,0.1082251452087497,-0.13727049525148055,-0.18858305350991483,-0.0715532435029033,0.043160836043617264,0.18494389167243716,-0.18100248172658207,-0.025275434158331764,-0.1963217116658063,-0.13928342339615782],[-0.04721987392776556,-0.1989008017543694,0.03692826309654748,-0.023963341970631758,-0.09768449561328495,0.1458004905923902,0.06839224401849008,-0.056633111666549996,-0.01896143656104302,-0.19259699833968028,0.045443107855810766,-0.18363962042264498,-0.01318705000906437,-0.08336374592525189,0.14990748353541983,-0.037571761954848265,-0.15627916919979665,-0.1303809677718898,0.040252510414236435,-0.12964398427422577,0.0631369880444318,-0.19580278470304133,-0.15708471637279492,-0.1547120779454378,-0.07806907950118232],[0.18698253732571266,0.1160871424506005,0.10211267898656515,0.009032204891433245,-0.14589853278183323,-0.06799956730064165,0.11279318723556242,0.035970912089026065,-0.11076612500885112,0.1892026355773054,-0.0759621280221152,-0.14023480297954025,-0.09018862662497232,-0.06896815078596101,-0.09368127532128402,-0.08637519562083797,-0.18986954767702027,0.07421672119681143,0.03424613153452609,-0.07643863899815734,-0.17945535596512235,0.14479755316645881,0.0617255771597486,0.18787723569131737,0.048515011273402374],[-0.08781998162958278,-0.10670024337904566,-0.03367101443462092,0.04403686567730292,0.10931615952529104,-0.14279950499335717,0.012592199381702243,-0.01563329910569175,0.1254387847400457,0.19060302005176577,-0.06955664994352552,0.16936015513946295,0.045413028216558605,-0.11056353850803198,-0.04509303933420213,-0.13177160023027612,-0.19207961637853396,0.04241913897668251,0.06485280575424825,-0.004644231009603923,-0.11386336836774781,0.06199719572196783,0.11031480571589347,-0.11211158260400356,-0.09966833993915528],[0.08217999813674896,-0.07490015162567969,-0.07147090004479478,0.1442368942847421,0.0761162585925592,-0.16459950959606592,-0.09800780819782093,0.05616667143218037,-0.1827611831399065,-0.17719697630551226,0.09044338782903051,0.03536011681056042,-0.15318696454673783,-0.12036351136089742,-0.19489311982292937,-0.10157157563092506,0.09012031256107697,-0.17558084444580116,-0.04114714794648584,0.04395572551362672,0.06973657740218722,0.11879720022082632,0.18331473040508794,-0.030511499892681697,0.04393177559080626],[-0.10841705989659273,-0.14151484817355134,-0.12568989656334503,0.13343146853167584,0.13489915141555034,-0.09859957746432496,0.09099334183309789,-0.11842842390630752,0.042833104127847986,0.044202577102364436,-0.058162994720486916,0.10516598995708563,-0.1951888826297431,0.18983112254927093,-0.08847941856651892,0.04662424008529474,-0.1464679596841082,-0.04818366180211131,0.18384507635407704,-0.1998377562971905,-0.01645409140520014,-0.15700239224830934,-0.12387272236629224,0.09087547227523146,-0.08148761561845629],[-0.012413321447684915,-0.10653350483613999,-0.10131402658093633,0.12242456786505782,-0.18752258006841505,-0.00759967568619112,0.034594800099475444,0.053977805206179674,-0.08857415142543903,0.15060201373144894,0.04202889356081836,0.08677343883293526,0.10720867868775222,-0.12577570304956498,-0.14626201159148572,0.07501892864077529,0.06154693233881383,0.16261275628160093,0.07143519630785508,0.0681705138818971,0.16055776506158626,0.1209981387664882,0.09274321536709211,0.14565893810296776,-0.08551224528482647],[-0.13501990570914466,0.08549937418226075,-0.09547150856305664,-0.12456327505793012,0.12971571414429248,0.13220049351588478,0.10239222973409055,-0.005633171267882741,-0.19476136453622012,-0.08439699224227733,-0.1243568158605186,-0.09043969137062953,0.03941297768921511,0.02163632184454639,-0.11929268275556797,0.10262829036314326,0.13472068894319164,0.07461906575253842,-0.17794739641003604,-0.1356440609852839,-0.062063125484595215,0.035797206296315096,0.0865151322926083,-0.0033119219838025943,-0.18546884457954016],[0.07638541835263157,-0.19712720462335614,0.11869411777687942,-0.03917310550451951,-0.13411524454087909,0.11780035424046467,-0.03640569328092294,-0.02982429784590018,-0.0405717010549714,-0.1615977942750587,0.17423163004698664,0.016970920785034187,0.06980950256002778,-0.052973401263652256,-0.16266788635230162,-0.1127792767469081,0.1417419041798523,-0.02698603577181907,-0.06176146996357554,0.007767719743060574,0.1839537638904696,-0.19300203743393735,-0.15606216427222142,-0.18693547696082294,-0.1611039312346999]],[[-0.06272766340168005,0.026472639377632806,0.11793349414038354,-0.15719942682707183,0.0046190083323257,-0.15709951356402885,-0.10535449010071447,-0.06378542128809624,0.13418306277625927,-0.13837204890845115,-0.1116186165021535,0.037524971363814136,0.008748390861860845,-0.037723384049160015,0.07095867461220787,-0.16684162504970304,-0.13107695900774222,0.1312526300646656,0.00037641903014128786,0.16552234560951629,-0.03608411355277122,0.14715410894059638,-0.047219210520721214,0.0674668824873882,0.049454453342594316],[0.06688057696421607,0.012080788855255285,-0.15671911031578478,0.0040006860456967145,0.14304369842287012,0.13044420989655958,0.022073179232830364,-0.06636121124775592,0.19875859469183782,-0.046146324421989134,0.02391162224418129,-0.07048341989814574,-0.12443489264649123,0.019930363802855372,-0.1600910486365698,0.07895364050487136,0.1601819959957623,0.1186811090456274,-0.17467128696961334,0.06455867857153481,-0.1651386969466083,-0.07689618172772139,-0.17479882441087372,-0.068280459240315,0.044460564152946365],[0.16667759467379079,-0.1161222455807836,-0.12409970315968402,0.1830006779196736,0.18243458342438057,0.0714650168439212,0.13426295528134582,-0.16137013806926698,0.16096761974702609,0.09744419430968608,-0.12866262992205074,-0.09508027760323776,0.0997589278107085,-0.022289475186553977,-0.10847267502490103,-0.11764463359730142,-0.06043977914124031,-0.1605294052154019,-0.13765364372564345,0.19394526121982156,-0.0933185485041418,-0.10107763092964747,-0.1524063437723986,0.1759001115153327,-0.15814170909870495],[-0.14873369766012662,-0.16133348101006917,-0.11462732675361237,0.05180054772236364,-0.043599390126073855,-0.16945752944842618,-0.12677511932070212,-0.13080343900870703,0.16360128206876032,0.16680881303738668,0.008033345671778583,0.16513130480633828,-0.19106408138954187,0.20003657953047907,-0.01560423913463227,0.16656185582286231,0.027079095025199177,0.19063140646056786,-0.13038797540812183,-0.02030473607749934,0.05815655297383416,-0.04660844588574901,-0.12383439316972195,-0.12077233099982558,-0.18595013305628655],[-0.10193529005036758,-0.022335160029351563,-0.12721671845750437,0.07900056753843307,0.08199562784466709,-0.13124614415287159,0.12601928919490418,0.11519168933235917,-0.14499379198368195,-0.113396354587874,-0.17955259625116887,-0.01866694604360781,-0.07866746439772442,-0.1189742498942887,0.14040582181256014,-0.1394372254629883,0.15086719139695098,-0.06717434038437589,-0.06877830946275541,0.04728792431319524,-0.13943243504693748,0.1278016876426002,-0.03663850519967231,0.15681706463235057,-0.1413513913830213],[0.0880579192802796,-0.04414185730215015,0.04282654869934753,0.12820047014973357,-0.0070246771388555035,-0.18219986711821368,-0.1310034675652045,-0.19382822747911937,-0.1337736697256514,-0.19841751394693363,-0.11589521975546051,0.16333994440238794,-0.09688120924250675,0.11358154582921538,-0.0397532886942584,-0.03203332515612214,0.1516187087102571,-0.07999775986334974,0.03586091728457249,-0.019941957245505744,-0.11398754056539064,0.17304305572542242,-0.11105527291005805,-0.19802624539909275,-0.019556414048417414],[0.023500562680962397,0.12730096677453703,0.03135151812355967,0.0896008117260317,-0.12709555465455902,-0.1700943732767992,-0.005058722690036692,-0.0945017219762834,-0.1755015743325561,-0.0008831169538768465,0.13394005484561997,-0.15690429159910269,0.16220628019715147,-0.13613744546079823,0.14978652157377229,0.008742129447853806,0.09692708516420198,-0.0512488128395418,-0.04578881587007546,-0.01975191466770798,0.045127043499443874,-0.13181982064549988,0.1538513104511109,-0.05215097861652557,-0.08012431327018789],[0.07988507738900275,0.12308545214154362,-0.06114876261852572,0.09560067290080673,-0.08934236946216514,-0.02518760864430548,-0.12871119805341374,-0.1409475911201403,-0.03705519683615882,-0.18933185179207793,0.02847229456273042,0.003911728910437767,0.06597456322883409,0.07576066825764417,0.039080847810846614,0.17815103909432875,0.025015282738127427,0.0638971844374385,0.006101714688514522,-0.0748208138222322,-0.17376947646370416,0.07807549263776227,-0.14378733398924004,-0.1552507853575631,0.155664056487269],[-0.14613484774891186,-0.08673463537569467,0.070380077644395,-0.10679945579299652,-0.15380286108655744,-0.1310496142696719,-0.15557901488751694,0.11439315277159026,0.191404715968311,0.09440520224516917,-0.18635685006085265,0.11813249316478813,-0.19966643142498466,0.05142903039139454,-0.0639972386620823,-0.04543748704642689,0.11787080765958023,0.0020274052370499902,0.17801873913970115,0.09009014890180218,0.02856423470062604,0.03219863434073789,0.03756273586565825,0.10742027123716019,-0.07355100018908854],[0.1302706675509972,0.05427094011934737,0.1487443484402492,0.11980057574235975,-0.05318608461821095,-0.18648788726986062,-0.14816020863402268,-0.02399041833799345,0.16218810035571676,-0.14417734441824062,0.011395771750988633,0.14612672607104799,-0.08445506003640861,0.17186553430774956,-0.08803105297533362,-0.03224066215500134,-0.07568912405781213,0.12884675846769295,0.1545862788061285,-0.08648515839721126,-0.1634728443995361,-0.10403551080944111,0.07417658264565084,-0.08314397284520175,0.058653178650138894],[-0.06430767846175267,-0.10170735266030653,0.06620487349412073,0.19220075660325542,-0.12612060925699498,0.0469627862616482,-0.13628681018430444,0.10427374886044313,-0.17547675462443996,0.1754908096062018,0.10621082089335394,0.19430432231289918,0.19318929835762252,-0.01839197093404132,-0.10416298633754938,-0.1084531212982692,-0.018332760688703757,0.08592228175075449,-0.09034034032935144,-0.0991887857814464,0.021982410218525313,-0.19536883304781452,0.1358306361083213,0.08759561617494184,0.11346945236168587],[0.04148547576036573,-0.15231414111720964,-0.03455135805006542,0.1634006735274406,-0.14654114989580566,-0.1815903922273527,-0.1991098314863245,0.1104536041211856,0.04474359617423812,-0.19173058465624226,-0.19393114835821865,-0.16368868999208058,0.16857539034286823,-0.134036678394793,-0.13152161076307872,-0.15044919129587872,0.01601819470117377,-0.0013014090747472719,0.005699354661081644,-0.15801901830718065,0.1702278267583773,0.1522730111220655,0.18121367222115572,-0.18664818645277934,-0.19253563887121092],[-0.08112595294801889,-0.07532567852125754,0.19672260400513786,-0.0029993935423551377,0.05482412301215961,-0.17571116768489783,0.06605123591409014,-0.14438041456326872,0.038177988255053266,0.07843328400558258,-0.10883306708238709,0.19472323472217434,-0.12584814538303865,-0.031312246962229735,0.07734838107403318,-0.0780426084588678,-0.14646474494881853,-0.15214146718708893,-0.16263345971145818,0.06332986510743936,-0.1214954096016741,0.11334370320013698,-0.1444149914378578,0.20027779215862718,0.19005571347299663],[-0.1803038491982392,0.13049648580215795,-0.08241980197945756,0.14560079250902783,0.16949097537014346,0.003136366613857067,0.053526174874100024,-0.059114906725650396,0.017111766626030093,0.05170287087694865,-0.1598219025248736,-0.011299648177623673,0.1033971476194107,0.02323324158264272,0.19341367236596607,-0.19725532386262376,0.01849490824399122,-0.043264353064962464,0.16823725480402366,-0.09037173878867846,-0.1854431901450813,0.19420758627297854,0.13524019763539002,0.13702031290352054,-0.13352767042291283],[-0.14433195580603644,-0.035531583068746174,0.16896078023466526,-0.07999948478357242,-0.09619378837299788,0.11732964366740457,-0.1485688358826662,-0.020397984400702212,0.00979573944204319,0.08861461759764414,0.17201754160234278,-0.1880706923256941,0.11613973177509804,-0.05915123425330074,-0.13501554829305193,0.12196082995061813,-0.19190750861521413,0.04263787404278472,0.10260113892086595,0.16670350505387985,0.06494419259671173,-0.038819799562739836,0.018770212163965422,0.10663959020545566,0.06405128370238468],[-0.07512301180476631,-0.13652273372040855,0.0021036811726298584,-0.041799369918711436,-0.024766994661238547,-0.1749314249171007,-0.10333880581916934,0.14682829567542496,0.12056919190515154,-0.010357470708467622,0.14354184125417807,0.07452020058063887,0.1913578712920553,0.06750708415260404,-0.07746951704864688,-0.060044301078288224,0.1025564654276593,0.0688687766650183,0.19854936546009672,-0.03705705882315247,-0.11471505114624464,0.08672561125338095,0.17779234271299957,0.027696730127699076,0.03565792148917835],[0.09966178435087197,0.06946211174943401,0.14740125039812457,0.12120046627301907,0.0029872065052847954,0.008572998629267027,0.19420986064313359,0.17478340867937084,0.061214568879343276,0.06199483602375119,0.07987122389035214,-0.03126416617222306,-0.1892731488649446,-0.09519259823685325,0.13202274678492035,0.18756443864171463,-0.09515290405282115,0.0402159473960197,-0.18196209603892094,-0.0999244607505882,0.053986189212866555,0.0786188754925597,-0.19764546884761067,0.029199076133153173,-0.17335344078033413],[0.10147779811069718,0.02267808402538167,-0.1393015574860119,-0.1511993651714629,-0.1157645353265752,0.00046296660831312376,0.023863949538026744,-0.0661692948790532,-0.005833243334359263,-0.05035491344139342,-0.18626510126669557,0.10471935718220957,0.19395953824992865,0.013312433027279936,0.10472552513729647,0.04995523470682676,0.014562337096706622,0.0232716133999309,0.12674460794298364,-0.1440534383048685,-0.029320487859325985,0.056520604905887,0.12419437386030452,0.039501970410738226,-0.17474146532142262],[-0.025895836199633,0.1009045232927715,-0.16187143707360757,0.17680085898516823,0.05271521536008424,0.033681083798261985,-0.1812466530747727,-0.015291154685839522,-0.09731224438927331,0.13612810163751193,0.1683096286843849,0.042292053321246,0.07021357067342496,0.02548599334690085,-0.0894351725405515,-0.1290599330083439,0.037552796803959454,-0.03183639223132983,0.08059037622602802,0.14646393889402828,-0.09209677370992407,-0.05064176796685107,-0.10433979115354772,0.1292719886002644,-0.14032164485236845],[-0.045116706394329784,0.16548367508248013,0.15586268579310644,0.01120065075054291,-0.15414774268073106,0.06242463862277721,0.08228278201789481,-0.00035285093149370415,0.02295012937698348,0.11826255215193374,0.01788746979922197,-0.19868643249324872,0.009570923238129279,0.16094897681074358,-0.01990832698882568,-0.042447940004959946,-0.12019754905178791,0.18829098443859837,-0.06068789645515496,0.10837128073424784,0.13584239439734946,0.07668642964975568,-0.10199177071635751,-0.10626223902762916,-0.19253727613567384],[-0.14612457916824145,0.08007578931797803,-0.0848866239332504,-0.16859942160581717,0.11582845713604531,0.1470789190638332,0.05505610488922259,-0.010376171771775916,0.14497370776328047,0.0038377749025124076,0.15955470213983455,-0.07687829235295643,0.13195479850448497,-0.026302825916073348,0.19593962352298522,-0.03744340526233479,0.17154561143398386,0.01466353016981769,0.01335812558186598,0.114336254661048,0.17409500316444257,-0.05646511665174917,0.0013885857944153665,-0.09571298326036269,-0.0523431865456831],[-0.09512556825754712,-0.06672527102820151,-0.19967995927725454,-0.14539940195278528,-0.15537467421542944,0.18488608255965386,0.10425258755666314,0.09842076700834212,-0.15102319813900947,0.118634529611435,0.14156353879152064,0.102922815043545,-0.05944732919814566,-0.11650963342855647,0.018545950031137026,0.1417571694538902,0.07633812711440519,-0.05774008158211848,-0.09123579311684868,0.08993164030966169,0.052901925493002135,-0.07525874922088992,0.09878600301085214,-0.04811964754513706,0.1684560193108986],[-0.057103663946236415,-0.09690319282928342,0.07577840408714014,-0.06979924993264469,0.08349183162695185,-0.10866563121456471,0.13352714050839617,0.055285901912961136,-0.12548907510311283,-0.1440962614273068,0.17257569584363627,-0.19970001533480203,-0.09360225678646385,-0.13336490146316415,0.02461192485907967,0.08934455112461528,0.034696970079396976,-0.19626336033660405,0.07503555002828263,-0.09837048005735616,0.03695493606989294,0.08220588514840793,0.04524088969740895,0.031822118122974086,-0.13432743412355339],[0.05547157209873994,0.06307174935958837,-0.19186105933263886,0.03780061782458087,-0.13998355413243554,-0.19209362943249106,0.19904262537435288,0.15241207711545976,-0.015214414098531553,0.05842531068696529,-0.15581139407176375,-0.07707409191735386,0.11434664367139896,-0.09492894813167643,-0.12923613229096031,-0.045441173573793625,-0.17588308767899363,-0.12895032422067496,-0.08941858129945894,0.010918563196474697,-0.02307844501776332,-0.015640687287627828,0.17837867814991512,-0.18993856066534542,-0.14494621228820462],[-0.08952007884056942,-0.15071990924198755,-0.1743147063924785,0.08400069438095575,0.12324162556377344,-0.1815510461064563,-0.18452914759594882,0.18683676387087733,-0.15943935463153586,-0.09114847560724192,-0.15648252387737413,-0.06748269078866122,0.16996369860709362,0.014125850826467083,-0.1628868669514211,0.060754027406544675,-0.07002296011404928,-0.12112128273793184,0.12773273525377718,0.035555627853229785,0.10246588221987595,-0.17209197273071303,0.020599470372918986,0.17571512474745068,-0.1795399573164095]],[[0.16905117176913578,0.11023339041689169,-0.0476072781068261,0.16717954932226092,0.17128140796310556,0.061324809920744607,0.020176573198766562,-0.10273354787099272,0.07937779124102358,0.07190554196055757,0.10772739894759358,0.02579489922404355,0.14441301733604428,0.13590201261926202,-0.059362641753483346,-0.14527100650432792,0.15956258481855826,0.07431478814707239,0.10568685075384125,0.17785396390414895,-0.1322839223727575,0.13032712335746982,0.11643164698832235,0.18934173533541013,0.09367606670964189],[0.19663251207109117,0.14083753070341382,0.019538425369469033,0.009979373898993043,0.15524331253649223,-0.04763934064854393,-0.08889722843709567,0.13800382478448428,-0.08982238243770604,-0.09908369439199755,0.04094353128201381,-0.10055524979821687,0.03714886053836076,-0.0966116745717094,0.17066724099940422,0.08757809095522683,-0.12921687105354493,-0.17344280264925876,-0.1460718610970377,-0.12856477944998254,-0.09129203210062685,0.07126728309968146,-0.14413656739991804,-0.11329097195345325,-0.1794180288259884],[-0.07135600380252392,-0.000566827489843705,-0.06288032656343763,-0.07596387436230541,-0.1506725010024403,-0.1463796557581825,-0.01473144479083525,-0.12363790624072188,0.11763363787622048,-0.03754954063746086,-0.09246926528621935,0.14820883645049893,-0.13037787036379878,-0.15273088820842784,0.1566456932535747,-0.14888558830423995,0.04336812412298562,-0.17081832122942614,0.017611978297020107,0.026448836556026357,0.18197083244058876,0.07070974891840123,-0.1435032975058458,0.01213086969406421,0.14379027878826126],[0.07299004433028657,-0.12095316073252992,0.19177046255144953,0.12922634408289144,-0.06299393989299715,0.12414709563388983,0.12743169592888087,-0.04884164688110544,0.023223870636561873,0.01589330297404313,-0.14122059374582324,0.05715652891897843,0.20399366236099478,0.17533415792926793,0.05533447057202413,0.07422955375507834,-0.12417089169928702,0.1940987002797759,-0.06268523757069056,0.141194061424886,-0.16166301677734554,0.026933415836368758,-0.17561837083945395,0.03963574429610529,0.18772406271133818],[0.10184172586816481,-0.19516396506824182,-0.18634443242439508,0.17488749477301166,0.19916873142714664,0.07992839395812315,-0.1800470263469373,-0.16575132159318232,-0.1895139708412466,0.12640372942257178,0.015736500385643788,-0.11797814901104035,-0.06378958328442208,0.04064079058242321,0.15605349661867174,0.1972791991111473,0.16277375962302215,0.19784633111419878,0.04832523097530258,-0.19335629732974263,-0.04618036881122617,0.12849492269149643,0.10115705591295188,0.09432455427993126,-0.19308205440404366],[0.0956742618514225,0.06742643781031776,0.10192916936755517,0.056914041332575493,0.13806632223602974,0.1748068804096152,-0.04765694087139216,-0.1411816400003385,-0.12508819523742468,-0.03204468566237819,0.03610476270227588,-0.08607161541544343,-0.10536341725821712,0.01945225986242005,-0.015202603414590175,-0.1419315736377691,0.05733498898829025,0.053591148695703604,0.20030090163478162,-0.13212124632490038,-0.037338355197517964,0.11980618205048478,0.006123194368211953,0.03858356175562299,0.1402642118054838],[0.017850796006697783,0.08383413579218402,0.039775564646812256,-0.10020687689683783,0.11749213363797682,-0.1970997512303662,0.09759907404236147,-0.12511064312524517,0.16439183863857434,0.03449312476964634,-0.0730710110734421,-0.1042017384442372,0.037463062082952164,-0.12690548884412098,-0.151160694635586,-0.1148273554037621,-0.17223592822001907,0.08873208707515366,0.055916889601923606,-0.08054760157257874,0.07552902534179151,-0.19727677876127364,-0.03875233485499156,-0.11025988442028181,-0.11874299564576428],[-0.03137560838993466,0.1566398527960057,-0.11717719537864074,-0.19352935279470204,0.06651733399479091,0.18699497943529045,0.05605170230933928,-0.006042140779030156,0.05706893751728202,-0.05476960394424897,-0.08924877663180049,0.15766764026735614,0.09308444515293979,0.07613665325381222,0.15008102003069868,0.18087396729682956,-0.12980739417914278,0.1504682769680691,-0.12547046923477007,-0.07697320548403926,-0.15500456278727182,-0.023359917144723734,0.036569409974135415,-0.014505451345182092,0.017448395096146315],[0.06082139419454751,-0.056960880323053215,-0.13199777060449866,-0.17671374859098496,-0.10146976264389432,0.09656560654606347,-0.16452318906061186,0.10138428704852172,-0.14711610023267946,0.06141449620053754,-0.13804848487286378,-0.05152857256359509,-0.07025761672340329,-0.20007276775523786,0.08168330422877507,-0.051274137304968465,0.13559399712105427,0.04128578794285183,0.1639640893336662,-0.17097444819266241,-0.1145892767148999,0.0578350695239115,0.0599870470896434,-0.052309252996370945,-0.007976521800092975],[0.161427613029721,0.11963925106523833,0.13806495404119246,0.005037545733302644,0.128090478742394,-0.16734465351062333,0.08619771681781928,-0.11709802848610183,0.0832359024777909,0.10266182012799871,-0.14505136884944916,-0.1931406183299221,0.07256255523460745,0.02955551232110286,-0.11352393478399865,0.12276636206036566,-0.18201078584445957,-0.02057175020898916,-0.046343558384162174,-0.011970140970238083,-0.014636370150011872,-0.14394998650380408,0.10553106033459,-0.022899936366188967,0.08209725495825408],[-0.19817129503368527,0.16743595884562193,0.05232288227211513,-0.1170092884985323,0.11225303352549623,0.10293853720323191,-0.060679437022176735,-0.13077690435954803,0.13358775905773065,-0.002096313111746529,-0.1332572476967783,-0.13175255404812478,-0.10480871674796842,0.08518096607204463,0.07826891987531384,-0.07158305483593393,0.11558393869364149,-0.03683159843409611,-0.1080467105068466,0.12203464339478967,-0.08208064264591668,0.1304633088937351,0.05607575495897787,-0.15089499292370862,0.03496191722559965],[0.01823160371216403,-0.1289627320584628,0.15873562498905822,-0.10841839586304458,0.15284538185505656,0.14975660139713087,0.17370607751777983,-0.023192417901596908,0.19737942676465467,0.09211393232454572,0.19174334974826693,0.19784535366768707,0.0015568696164364748,-0.06621307681788156,0.11826767455495073,-0.13601443330645893,0.0041832968582220555,0.04375924916286934,0.20053295523090356,0.08743531261994943,0.12611013370693916,0.1978664999196613,-0.011334203413629264,-0.04309175778904045,0.1781780648904669],[-0.1896065778224413,-0.17135347152418565,0.11980817390124215,-0.032403274616016366,0.11018185316041985,-0.13699886933160998,-0.05781638576204155,-0.11689165163986273,-0.15880539979648267,0.07712161888993903,0.11937734689995119,0.14734911009253904,0.16428471140116344,0.09955113469206994,-0.10127002929787292,0.08713308616051005,0.05782611796971205,-0.1543366522344595,0.1576494286221142,-0.1260033972717266,-0.08409150353250382,0.09214238507990279,0.0017474700799788188,0.1444409862772317,0.07936824063377607],[0.09663399356107576,0.10523866479615775,-0.11646152726715378,-0.05822000215292699,0.1786436042196594,-0.1482393983744311,0.15450409095946852,-0.15419522090147508,-0.058821166682031606,-0.05268307965376943,-0.022655418477982234,-0.014554964699273039,0.1061505312913562,0.17298854129778507,-0.09533258313410564,0.1761787855169802,-0.043816589012281776,-0.033440616604433086,-0.013270636095702136,-0.037164991668416865,0.038708213268155656,-0.17493256122019452,0.06366461618724019,-0.08048976979483825,0.13138309868256018],[0.14423005214886678,0.048836434117483306,-0.1784691899517364,0.10698487154143684,-0.16835179139047318,0.07834979096068131,0.015911150082323283,0.016413173088561765,0.045382201547626365,0.15530987195736748,0.19754280852214462,0.00024606316271398143,-0.07383062729717663,0.1121846078196895,-0.0795319053477285,-0.14320276767347836,-0.18841654393684015,0.039562059951601135,-0.09805972111898154,-0.03716485493891372,-0.08368645562460132,0.017465243945159855,-0.11853079081883364,-0.12409333832173479,-0.08842838097482997],[-0.038158586875136076,-0.18376487998676838,0.10826476606993685,-0.15252019144437212,0.13716263862412784,-0.11405834405683975,0.10094023375402604,-0.015964229797207446,-0.1223220476041413,0.1792101890880079,0.06313520895566473,0.06921983974849845,-0.16561744583428856,-0.18075522900044352,-0.18654771583561247,0.1460551345969506,-0.13942718056065767,-0.14716394449685347,-0.04069163185664736,0.12544451489999212,0.1150124887528786,-0.06750301091157421,0.16574783479981792,0.010924934356131928,-0.0502721236831072],[0.15942160563874244,-0.17015842640429257,0.055768785124175685,-0.04068648417610429,-0.176448151514068,-0.1754824365877918,0.10352198315209966,0.18183017589080175,-0.18148767838269572,0.07779066767756142,-0.1684445500983806,0.14867840483342348,0.14624196478361143,0.016712670748999296,-0.10811254375104738,0.09041227599008357,0.003397171643981337,0.1073214173328816,0.04482413864988956,0.12522257877074136,-0.053963637451242025,-0.1649725011684744,-0.1353804925724404,0.032688513742439106,-0.14041317307511217],[0.15402844986095338,-0.03976095403795098,0.10407609798255135,0.07382871111606769,0.17448327962455484,-0.0991286558389443,-0.0322166486821362,0.1724870714769766,-0.06417288929616158,-0.15172986559104823,-0.10465208809351094,-0.05474284736164507,0.14913014548566045,-0.046639501465553686,-0.0757252838844636,-0.13346226678621637,0.08978829290897102,-0.18058244345691687,0.11143698273180867,0.08783062474379572,0.1329551682205059,0.16165264040718524,-0.06587917026462513,0.16110148632269333,0.0015102015180671299],[0.1306191782288123,-0.03996111940271038,0.033584154594942024,-0.06589969649216589,-0.062058134736586196,0.16293970986999143,0.19609942756637347,0.12000802968612317,0.07429749569731284,0.12520067791763786,0.03655212134511399,-0.19412506731372503,-0.17100585792558345,0.030319003991560914,0.1840854507238235,-0.1734279651595949,-0.19340465498557105,0.11470198330956571,0.08479507705055762,-0.0209755073373896,-0.0575756653272782,0.16683069861481756,-0.03459694131459658,-0.10331220299609077,-0.018198188389019647],[-0.15938487723360054,-0.0651577116758577,-0.020107890907181587,0.05537357295306236,-0.02859927875003921,0.020607777882800913,0.00561974322622631,0.10333159985432375,-0.07282803916033073,0.17713326515955488,0.01935977968591362,-0.14930662601735753,0.0936632111209306,-0.1257217497697259,-0.06210353229935024,0.16640791733033486,0.019203245130243785,-0.09180654494229723,-0.046043243690700425,0.05481716050585814,0.1460941647815357,-0.01579065517089478,0.16368890049685664,0.09607803478992717,0.09049744092650015],[0.18864386685203904,-0.0641667922071437,0.009518553928983268,0.011837029956473951,-0.16227173493188446,-0.08918124311256798,-0.09592999192606515,-0.0384363805631507,0.1382345086245885,-0.03435037548845629,0.03853080085834028,0.12040908093640719,-0.1309745724808794,-0.10833141284132314,-0.11935413759458931,0.05371732779510486,-0.14563178372893282,-0.13841726281195302,-0.13818603103692945,0.08484878546215778,-0.19402830752859004,-0.1980905320896324,-0.15890225098825764,0.05653071362137819,0.0671889309524766],[0.07921325977414527,-0.06155988327991088,0.11470406445757213,-0.07163686263644141,-0.07580725431688992,0.11502506616371791,-0.11639795832069624,0.17411413367221035,-0.07203965264521775,-0.1556589232538585,-0.1800428519364053,-0.1571094195039055,-0.03777433179898421,-0.016116805087424288,-0.04190518035890995,0.07717626017798813,0.0460017851152779,-0.14222182874652237,-0.14686610630277736,-0.12058145390867321,-0.055515289356690346,0.10081185158399834,-0.025324059430396756,-0.19832256308619067,0.17050919836730685],[-0.001581287967406989,-0.1953590345480257,-0.00565177460699321,-0.13927075076481968,0.16576488823049007,0.06508817175229144,0.09814727395509396,0.07585679873808997,-0.0582725782782468,-0.025225187830017592,-0.01244415788407783,0.0010822727276534655,-0.18429979921333697,-0.0010967269973382048,0.17048981070331454,0.17346441245717595,0.010398613852231191,0.10493916928622722,0.10465891947077667,-0.10957861963099615,-0.08414827143578806,-0.07817749767314498,0.13103731823462247,0.14248482365005893,-0.010838050111630752],[-0.12418195295537603,0.06644218569945412,-0.0668759532629758,0.14934870644438833,0.019980475232123773,-0.14714653332035388,0.080379284164662,-0.10431041783097886,-0.13705266015356568,0.19615725597197117,0.08095815050709786,0.1666872125185773,0.19797143753882307,0.14649261670688932,-0.17830723257833442,0.06752666300504943,0.17240077292894282,0.13596384291894573,-0.03209820535360587,-0.03538058633972282,0.185070164202027,-0.09398307267046813,-0.06353976615255645,-0.061917404394617605,0.0601348096804776],[0.0006785074091482749,-0.1531728073111295,-0.07744006142664067,0.11989037395208785,0.11184667739941198,0.024250870495874564,0.08610502927612408,0.04817832604001257,0.048289082576800584,-0.10742100834036135,-0.02249593515861979,0.19892252685302395,0.0641491249211113,-0.025933653149347428,0.1397937999005602,-0.17620979780846446,-0.13826719936120074,0.09656433048146007,-0.1735513811968946,0.043280516962689565,-0.013961402271849999,-0.05478631967642292,-0.18330364497158186,-0.02821103363904394,-0.19749858813240787]],[[0.08868840838799036,-0.09550770913679575,0.028523724387857084,0.07972856888440918,0.12432834500535893,0.0561143012884725,0.1595103272049843,-0.14443644551890203,0.17895090694539517,-0.12698158683727778,-0.03643147294156032,0.19461359830568617,-0.009714504438606818,0.02197332482636536,0.13440916037636488,-0.08637718032810822,0.17637864386755095,0.001904385089328537,0.04667375648351874,-0.038203472358943565,-0.027971577892690704,-0.03561629895672716,0.07641228989345346,0.056215339119505464,-0.04427221955543665],[-0.06130630248039927,0.01887476713895212,-0.07782656141793624,0.03184849315126712,0.16851767946293433,-0.09871795743998012,0.14289228429779463,-0.15614977467280736,0.1107769317084599,0.14269471570372771,0.11494101009493546,0.09529667430930165,-0.11411583641725281,-0.06195050885636079,-0.03857690892579626,0.08464460471609539,0.10283439663426669,-0.12054888430668062,-0.005333449373246871,0.04702138158102586,0.20323453336496644,0.17911948649659193,-0.03362260326114646,-0.12035496294583628,-0.03427054234286579],[-0.10855588227051492,-0.15896573098802497,0.059972469417344104,0.009392294041733636,-0.07358199748374492,-0.052945472439282576,-0.12233656193854194,0.09134581214862152,0.09672819464592164,0.1165957757454659,-0.04390369844532512,-0.008340992849956295,-0.016775984054354726,0.20026609071688503,-0.1421013256438017,-0.17036199777784375,-0.14964578261353317,-0.14729817232586787,0.01055837991155553,-0.12008612399434253,0.09570191915047428,-0.029871501590299065,0.18360544194867845,-0.04206258811804965,0.08994605846997976],[0.205366669948286,-0.04055078133482444,-0.08953836117817558,-0.1019199711556443,-0.11179537450988204,0.14299989442209313,0.11674747119966758,0.12929390473794325,-0.09164705056885045,-0.11379018787990479,-0.043251342765355735,0.17398641556236008,0.03528624003402428,0.023042033270730195,0.04776728201944117,0.025226191815422967,0.014914031242975908,0.020185494466616636,-0.14459176303464302,-0.16937536489828933,0.10598430672817549,-0.06490936182684456,-0.11963515649356463,0.22119965323175841,0.07145135132025224],[-0.029840893782184758,-0.2023084610229015,-0.009038457794333756,0.21929789475398306,-0.08111603164241422,0.0024287789805726417,-0.05654120885790234,0.14240034384781355,0.05050991936013553,-0.022554255419126253,-0.005210724290913681,0.10005211523612303,-0.10069487570682256,-0.04523661343873585,0.09273139169778546,0.20635356978258496,-0.12563547832948688,-0.024527507688960875,-0.1644119170289647,-0.13764208291519045,0.03794795012590861,-0.07077978373423062,0.044850999429393974,0.1121137523736789,0.005490291809773172],[-0.1843041865930689,0.15462453959986888,-0.10651396226451997,0.10904450526217484,-0.029707068527436344,-0.034831040442031835,0.09997610182104857,-0.06778568818025214,-0.10135495022549612,-0.022130860861454115,0.12915146616656775,-0.08342534146246418,0.07188563245157654,-0.02637153022834849,-0.04061696153094808,0.005080317140041139,0.12435283761562105,-0.13607572018213981,-0.022359184695032668,-0.1650053573065544,0.14578022275411087,-0.09690918986384785,-0.04790018630786777,-0.12405339510384933,0.016181021782485754],[0.11018927132661335,-0.17267830868912426,0.09806591228232237,-0.09866738538067167,-0.06046194198926136,0.05404376474359037,-0.013420736469364217,-0.1518452651118335,0.20283913176479634,0.14179552500770273,0.14771425039627406,-0.11422005417753311,-0.08016258542230992,0.007061165514523079,-0.11170700517603684,0.19805801470588566,0.13890767956675898,0.04965273719593581,0.0023424851351849527,0.05401345234923916,-0.018681047240449195,0.18982396172161847,0.18394616570313815,0.1696667226127757,-0.04591213350229661],[0.027278413152948124,0.110560957835721,-0.13670236281905365,0.07771673179087665,-0.07961959813688341,0.11840357305290783,0.11091376399862386,0.2036901161865896,0.12537016629211928,0.018751018165048584,0.11604433893179898,-0.00997375977936787,0.20937974648000088,-0.07474344342331922,-0.177221054000994,0.1584516488204472,0.21456572663187717,-0.13882155094529217,-0.11478178146918949,0.11184827633086547,-0.175199423909019,0.07656793122929687,-0.09103946186639036,0.022223977455567073,-0.13356022894739794],[0.19793221242141515,-0.13094987181185985,0.08164128210590231,-0.12245213968966978,-0.10752488425309345,0.15152956407336465,0.14422834079572633,-0.1540851389197998,0.11063476324703425,-0.024370583260129933,-0.014835399094725362,0.047570123665416054,0.14690340005585595,-0.07491472451548001,0.04868813198575527,0.07393815881858354,0.12356566418698504,-0.11535592798359247,0.026530262627255764,-0.04270394539047357,-0.07929196283472534,0.18948643505988713,0.06274188306578664,0.1003525073916162,0.1407134969981885],[-0.009046481330329972,-0.08539165808152747,-0.0043163595378236394,-0.08014245467182055,-0.12626110250416248,0.15206981106801518,0.15652990529728117,-0.1313019575300789,0.034503651741214975,-0.14017263638034216,-0.017762385193423984,0.06256570976325704,0.04595770083980142,-0.04825815929389126,0.04375796065510872,0.11875470950439904,-0.018305084678375813,0.20409513221952622,0.06062216181621155,-0.11065596837890387,0.11616674364680103,0.08908181838188924,0.01662594104554329,-0.15086342310529013,-0.12527714947955187],[0.11809535534568967,0.1090446409778044,-0.06317681802701011,0.10870707943684968,0.1726484976997526,0.12328763147622009,0.08819741956617057,-0.016142850859706195,-0.10260622497012144,0.14018489025270578,-0.15807211425669984,0.032142922700681385,-0.12133268061609423,0.1822509216160229,0.18764915047013572,0.21349712623103964,-0.15707157496356713,-0.13398477099760037,-0.16370485662713544,-0.14693554568715556,0.18926260854337568,0.1480492691691381,-0.11667780071940745,-0.1482949793069443,-0.09551405473858353],[-0.03891432386344451,-0.016335042413831293,-0.10926116590287775,0.0266866781157515,-0.14598677952796824,0.15067325546513902,-0.0776977019865855,-0.07631026577609867,-0.08071897377724158,0.014627130430141348,0.05480633646387742,-0.04795263524697414,-0.041861891896614885,-0.050221122579613336,-0.07391624867712585,0.04539025591506908,-0.050006690662382176,0.11985519982583526,-0.00466790263816976,0.19661256078956865,-0.13070413749539372,0.05146916430926822,0.015670897520312994,0.2235404328487492,0.1753074303272582],[0.1088408479944329,0.07382953221338627,-0.09094166456062878,-0.10147982096834365,0.17345262534649655,0.17066694995418485,0.19253151465145366,0.17656386494976456,-0.1489277142139391,-0.08167753965097434,0.04675664293957492,-0.11600306492697632,0.18148213660548007,0.17771945138371328,0.2096874862560873,0.2002290140186473,0.1884499963247711,0.1059369317464637,-0.1310760726961291,-0.17780413312728668,0.1751256439846798,-0.1682480503382031,-0.1843218299282322,0.2278207932293604,0.18897683607640395],[-0.04803758507367295,0.12427094910112661,-0.03506890688661181,-0.04499100160494901,-0.004550506538733969,-0.16474386712657818,-0.14646981483697152,-0.013792689676089865,-0.01140640511181414,0.09966016839598413,0.17235459797837682,0.18603223985726086,-0.14591420777268346,0.19082106197662793,0.20927219283282406,-0.07121712042779352,0.0429237402156542,-0.178703599193375,0.2221261696198509,0.06773821973556411,0.03268173706752838,-0.1590654636917099,-0.021630623700694226,-0.08479841084678076,-0.1654513106864862],[-0.003958681101704477,0.07892911156143012,0.08493246074895473,-0.15317545159563833,-0.115612406296714,0.1723895739123187,-0.11972250613431897,-0.02944779467755909,-0.04297770893856978,0.18592497355626417,0.04673706433016443,-0.16656057393679907,-0.15393051457243143,0.12014759071081511,-0.15200034125794493,0.15170363320617541,-0.11907000199527817,-0.029373198476567622,0.20224792280298318,-0.01584615729046185,0.002209490213569345,0.13482837618524127,-0.08630369236112623,-0.00877287420484416,0.08947964117613287],[0.0976277283386498,-0.15072753148758067,0.004266408167177662,-0.03100881007406896,0.05615249577868331,-0.08654043346717337,0.15201981632010914,0.20722022792828917,0.19793089095246602,0.14981064445640593,0.20827567889098383,-0.03400377959811516,-0.019199681471205522,-0.16616088201673632,0.21108936708475395,0.1564375457120697,-0.07926258939517009,-0.15015384886094038,-0.13667317500584464,0.04326860204811175,-0.06707852730694279,-0.08848798047818682,-0.06448898330617711,0.18816647176685486,0.11248336235439686],[0.07436386189568862,-0.20652118203525388,-0.03378541344269786,0.16431582015285245,0.10937718576847891,0.02742015606507171,0.15433220205874376,-0.055592158207394424,-0.1351860042718388,0.20925271458430994,-0.13549174706032616,-0.06886540958102842,-0.08235120114169153,0.07456460874580113,0.20137737023568208,-0.008781648701859124,-0.14606956751255748,0.015135873444256123,0.11902056818498345,-0.10132245917909714,-0.08581168097218093,0.03093206582230517,0.09282795386965319,-0.11726472843274724,-0.04339240268668278],[0.07021884585328834,-0.05230009212269328,-0.14423654880665734,0.10307203982294802,0.17189237047795397,-0.13608885680034244,0.1663818836636989,0.11708010278078654,0.1556538232553252,-0.029484411633139015,0.0698061613917796,0.04088361508506492,0.0721352832504656,0.1850764688065673,-0.0504800172497025,-0.07476349040873201,0.14797673184251225,0.08434411260579845,0.1757699753340404,0.20438086818009785,-0.02965344284411689,0.12619701468844396,0.14541372735648628,-0.1623416082448391,-0.10120473548871783],[0.048145403131711485,-0.0056920384171081535,-0.06962396969845631,0.06914786017273081,0.14805979615230014,0.1567257292126936,-0.14144116322611033,0.09795164637007145,0.0741429954807575,0.1986766103013576,0.14325500461322463,-0.19309601942072135,0.06038523567854396,0.17043943560390107,0.06792907833731998,0.11383974529535397,-0.17815451706167565,0.07290567092387797,-0.11443022521583023,-0.17514596371600266,0.0013557210178579563,0.0793327052515456,0.008126435023297896,0.0617907924313441,0.12215573001018361],[0.08892709812558908,-0.19785715456460828,-0.049928015805847756,0.11900764493569013,-0.14140543940843217,0.0635636366358084,0.0629141079552402,0.18137897888559446,-0.01714602902322233,-0.15923710642886305,-0.14603026814470832,-0.1038189032360896,0.1657060708925921,0.11626990130312552,-0.017250463499736142,-0.17397755484493738,0.20187193928911376,-0.0020056370844703303,-0.12060442424092702,0.008555740963906855,-0.01324330992048438,0.02499975628468497,-0.12996973423838412,-0.12333539454796895,-0.13094377537578963],[0.1270880419835655,-0.07732147496893732,-0.01897611525338696,0.025794579009497193,0.10414208822796453,-0.003564162328028089,0.11390618270546532,-0.048712577259588774,0.10230179291292933,0.21161718498380458,0.20455940089571642,-0.06124710350001765,-0.031899818168202684,-0.19167595863378906,0.002586590533881564,-0.049375932019113,0.04639979856362254,0.1908963418076414,0.0010245229221668695,0.02695093957630736,-0.14639777021051786,-0.13553091104221826,-0.08966620550179057,0.07467097704352758,-0.12383201386462322],[0.023695126028656564,0.09276845644935733,0.13737719859117814,-0.11043385132708572,-0.12365683598603841,0.11831879849748146,-0.08219818686108056,0.08497381689804197,0.20591546025335783,-0.15622737837318898,-0.004975735251015452,-0.19232404747129708,0.007552551482117656,0.016577864582695105,-0.0954469865550884,0.053686367846503366,-0.05448766983840138,0.036619069820644085,-0.11139233482552402,0.14428191992046432,-0.11483658595280836,0.03420278807653134,-0.07742696793568621,0.1982635174539215,-0.06393566454975647],[-0.059707271719407644,-0.05075714356385863,0.1990737894362873,0.010259236194614146,-0.14452543373606805,0.18024767274620368,-0.13938697222094779,0.015106433772444897,0.023922842221866827,-0.0034844432732763185,-0.11464770136798526,-0.046199659401414184,0.21468900703702193,-0.001272631056252745,-0.16258152072440682,0.04788359568911489,0.11909882008944214,0.06066284994196741,-0.12133969020139179,0.21279849357133818,0.1702382969160813,0.08620318151569552,0.17367605786908719,0.10733961619179921,-0.024272659374544404],[0.10288262819685635,-0.029275357181030817,-0.08810163735282629,0.03672109139325339,0.05758863641039711,-0.06532027773299784,-0.17070712843645056,-0.1308214452053209,0.12413804817833823,0.07345040737038383,0.005757614003990722,0.15140830428998425,0.0004911160112438327,0.12010542181881627,-0.1189233276147878,0.09296790027377856,-0.0683969342212832,0.20160990933920178,-0.09607141928881964,-0.08014341486951404,0.10849069252622856,0.022316588360406703,0.05455470660782573,0.1346523656911913,0.022868514015964417],[-0.17747058896894738,0.11223729332549057,-0.00717703803819926,0.12217789786481065,0.09279201463929682,-0.09076215269048664,0.06380676144761883,0.02925801975994856,0.18426180009204488,-0.15349056849095227,-0.13017053320463057,-0.0006939278419334496,0.08615262613195104,0.14111962964399768,0.1543054638512277,-0.15052299416889942,0.03617867451791433,-0.11048477497654316,-0.15962738652643632,0.02208091213755578,0.116514272458963,0.036533833865369986,0.0824705795065593,-0.04575392128356211,0.01795201772782794]],[[-0.1513011036490349,-0.07328075558122747,0.02800440860113856,-0.4473253384083076],[0.08292693678108921,0.03820929209762538,0.026988680156422754,0.035430562645687204],[-0.019325304446294603,-0.2813832134535435,-0.04310270425462142,0.009969979942638367],[-0.2882640554235251,-0.044916755265588776,-0.3397045440750855,-0.09607807064818026],[-0.16652615033882814,-0.17954232955957208,0.059986044057815234,-0.18337402233407446],[-0.37368305461480694,-0.30670452680373594,0.05552839567460373,-0.327166119776997],[-0.13016212487935958,-0.18247162273442455,-0.04395149307145767,-0.1865576013907281],[-0.38959330034072687,-0.0589247702960201,-0.36562145627713255,-0.4271273087019609],[-0.19369665333884906,-0.12025236994037113,-0.029984619276296767,-0.47618635175967694],[-0.20633023484726276,-0.3435790142170503,-0.19918995038308795,-0.2839620844977888],[-0.13359148614635125,-0.3955126082102567,-0.34765434602186607,0.02689093206327163],[0.04407847311007559,0.04518758915505557,-0.3328248709141325,-0.12719888817220776],[0.0137109834860813,-0.37841095340395775,-0.3553597256331969,-0.1013167903014953],[-0.15367357929261086,-0.10380894940509172,0.058826956946356444,-0.39184928385221585],[-0.18562063358726028,-0.381504538719609,0.08211985868001044,-0.4044876791155424],[-0.13249697134552033,-0.46486965215170595,-0.3313512409955437,-0.10126743608777969],[-0.3352381736604403,-0.2125339465035118,0.014920884254971716,-0.22323669433289328],[-0.29311203235508876,-0.050765303904941494,0.03063704135516099,-0.16180562372214388],[-0.28524996721623447,-0.24006502693912213,-0.1453942361915123,-0.17546482025031335],[-0.001839650484526068,-0.24142966794048792,-0.1533199896547538,-0.28578162513400807],[-0.41663001791909204,-0.10262283748124151,-0.2906429694428213,-0.12507095128999868],[-0.3604683552870326,0.01653110420453966,-0.23458173492591503,-0.05148090351173807],[-0.01252740372666242,0.009786644954988736,0.05727179033132096,-0.20077572035839228],[-0.36142287081971647,-0.32939689271562017,0.00022094898502479548,-0.4245517130127601],[-0.020918707470861168,-0.19584935796610617,-0.357944135852072,0.054967979540284435]]]}