{"name":"xxxx","initialization_type":"xavier","training_iterations":0,"input_dimensions":{"vertical":6,"horizontal":6},"output_dimensions":{"vertical":3,"horizontal":3},"deep_layers":8,"neurons_per_layer":25,"weights":[[[0.11154003912438283,-0.10991039569561749,0.15517826871687676,0.07423931175486519,-0.02028000711352415,-0.1510136243989209,-0.0210042930818643,0.03730072736951763,0.13562254757169276,-0.16549934376572387,-0.13218218922207706,-0.01358036190637778,-0.09614896229715468,-0.09777860572592002,-0.14648665409810382,-0.11878271580909316,-0.15535915721027063,0.16984505957576476,-0.14105469233424386,0.09307074693170905,-0.03639536990909245,-0.021366253067343206,0.11769665285396526,-0.023901436955224894,0.04291394362415378],[0.16694791570240416,0.08238752889869187,0.12874183087246135,0.12367182909408032,0.0727907398181849,0.05758073448304179,0.05323501867300089,-0.07514466921529038,0.09162217499502875,0.15608362617730195,-0.0894493170900083,0.01593429130348326,0.08836288813749808,0.022452865018544595,-0.1676330815985781,-0.07275161974601868,0.07898629062124239,0.08655217321664771,-0.07188538235775972,0.0615643073089126,0.05794287746721186,-0.012816955865871402,0.11103594472029395,-0.04381930108457897,-0.055045733593851266],[-0.1225854001415701,-0.14051147785798876,0.12783647341203616,0.07405824026278016,0.12892290236454637,0.1689397021153396,0.008148217143826667,-0.10954825271144741,0.12837968788829127,0.17075041703618993,-0.08329288635911705,0.0048889302862960005,0.15336755379602637,0.10773753779059704,-0.14919636498881644,-0.13434850263784343,-0.0007177414790860702,0.09886503467843025,-0.09596789080506965,-0.10791860928268208,-0.146486837096795,-0.09487491736330535,-0.13199457324073793,0.04001679975079319,0.015753219811398222],[0.1740097038937206,0.06699645207146371,-0.07695538413614075,0.054502519117596154,-0.09107896051877364,-0.11280753956897809,-0.11154003912438283,-0.17708791925916625,0.10194325004387586,0.12186111417322995,0.01358036190637778,0.14974612395432566,-0.043276086608323855,-0.04418144406874904,0.17745006266509666,0.11172111103822821,-0.13598469013410247,-0.13254433220624712,-0.1470300515730501,0.013399290414292742,-0.13544147607960771,0.12222325757916037,0.11172111103822821,-0.14938398097015557,0.12675004445952592],[-0.059210377911807124,-0.17817434821167646,-0.03820608482994282,-0.06753966654771883,0.1338118326508424,-0.11009146718770253,-0.17075041703618993,0.012131789969697484,0.16205898541610816,0.1461246941126249,0.1010378925834507,-0.11787754134735913,0.16350755735278846,-0.028790367241520894,0.027888970800468083,0.07714041664759816,-0.12221929613802765,-0.08166324293035172,0.045992158989599415,0.11009146718770253,0.029514653209861044,-0.07296785029089757,-0.0682599914966866,-0.14033040636590371,-0.09470039036047438],[-0.1573511266218972,-0.166042558241979,-0.146486837096795,0.13453611861918255,-0.10230539302804594,0.029333581717776006,-0.10900503823519231,-0.10538360839349156,0.13471719011126757,-0.0016296434287653334,0.09795967721800505,-0.02209072203437452,-0.04074108571913334,0.11986932776029455,0.04577010273305101,0.07130118311704124,-0.06395922147048144,0.1553593402089618,-0.07460145473903526,0.12819861639620622,-0.15916184154274757,-0.16318639913308178,0.043235101843860486,0.013218218922207705,-0.018469292192673778],[0.10411610794889631,-0.07568788369154549,-0.0966921767734098,-0.06699645207146371,-0.16531827227363885,0.04563001600542934,-0.0566753770226166,0.13851969144505336,-0.030601082162371264,0.11878289880778432,-0.014123576382632891,0.08981146007417838,0.1441329076996895,-0.1294661168408015,-0.17745003889582375,0.0027160957287881084,0.039473608622050634,0.10592682286974668,0.08963038858209335,0.0923464609633689,-0.0405600142270483,0.08492255313539493,0.14033042971341628,0.1665857727182341,0.018469292192673778],[0.07351502578652505,0.03929251378245304,0.1685775591311695,-0.05287287568883082,0.09542467632881453,0.0937950329000492,-0.132001117729992,0.08311181486703201,0.1627832713844483,0.034222512004072,0.06916930997648416,-0.02571215187607526,-0.06428037969018816,0.0966921767734098,-0.16307931559490854,0.12917007263034128,0.03700468315905741,-0.005070001778381038,0.025893223368160297,0.0019917864129354074,0.07405824026278016,0.05565504684381623,0.11414113878728321,0.1763636332908261,-0.09795967721800505],[-0.10628896585391674,-0.12819861639620622,0.1459436226205399,-0.053778233149256005,-0.06391823670601808,0.06482359416644326,-0.09397610439213423,0.036033226924922376,0.0952436048367295,0.12421504357033543,-0.10502146540932149,-0.08419824381954223,-0.13616576204794786,0.10991039569561749,-0.0371196592503761,0.1506514780418073,0.1426843323900657,-0.1734664894174655,0.1133507540452332,0.11751539836318906,-0.044543587052919116,0.16042933861439934,0.0874575273041294,-0.15427291125645157,-0.03168751111488148],[0.06554788013478341,-0.16441291481321366,0.04418144406874904,0.0054321447625511115,0.16531827227363885,-0.08383610083537216,-0.1343550471270975,0.1182396843315292,-0.11588575493442373,0.12023147074446461,-0.17075041703618993,0.09922717766260032,-0.11461825448982846,0.07460145473903526,0.02897143873360593,0.00796714565174163,0.005794287746721186,-0.08981146007417838,0.16097255646359795,-0.13598469055586282,0.12530147252284562,-0.05395930464134104,-0.035490012448667264,0.10864289525102223,0.15264326782768622],[-0.07605002667571556,-0.10230539302804594,-0.007605002667571557,0.04218965765581364,-0.07442038324695023,-0.09705431975757987,-0.09759753423383498,-0.09850289169426017,-0.045267873021259265,0.11697218388693395,-0.05884823492763705,0.03186858260696652,-0.13996826338173365,-0.16586148674989395,-0.10918610972727734,0.05160537524423556,0.1240339720782504,-0.07188538235775972,-0.03639536990909245,-0.16042934198734285,0.056494305530531565,0.13851969144505336,0.047259659434194676,-0.12005039925237958,-0.17328541792538046],[0.017563934732248595,-0.008510360127996741,0.10918610972727734,-0.12548254401493067,0.11280753956897809,-0.15554041170104682,-0.055045733593851266,-0.1441329076996895,0.17274220344912536,-0.1573511266218972,0.10809968077476712,0.09415717588421928,0.15354862528811142,-0.08293074337494698,-0.004707858794210963,-0.019374649653098965,0.14340862173134936,0.015572148319313186,-0.1432275502392643,0.02915251022569097,0.14847862350973037,-0.12620682998327082,-0.1636886288448735,-0.027522866796925633,0.09488146185255943],[-0.0210042930818643,-0.07786074159656593,-0.11226432509272298,0.1323632607141621,0.12204218566531498,-0.05088108927589542,0.006337502222976298,0.05758073448304179,0.10936718121936238,-0.12131789969697483,0.021909650542289483,-0.12783647341203616,0.1383386199529683,0.16242112840027825,0.05142430375215052,0.12620682998327082,-0.08763860216915793,-0.08311181486703201,0.06301287924559289,0.13652790503211795,0.10230539302804594,0.1010378925834507,0.10411610794889631,0.13797647696879825,-0.02716072381275556],[-0.07442038324695023,-0.02915251022569097,0.06482359416644326,0.0727907398181849,-0.12892290236454637,0.1530054108118563,-0.05142430375215052,0.14739219455722016,-0.180709349100867,-0.038930370798282966,-0.15119469589100595,0.1383386199529683,-0.1015811070597058,0.019193578161013927,-0.0952436048367295,0.01720179174807852,0.007061788191316446,-0.1734664894174655,0.09596789080506965,-0.023901436955224894,0.07098002489733453,-0.018107149208503707,-0.03223072559113659,0.0059753592388062235,0.014123576382632891],[0.07260966832609987,0.17726899075125127,-0.13272540369833216,-0.03168751111488148,-0.006518573715061334,0.0986839631863452,0.006880716699231408,0.14884076649390046,0.06916930997648416,0.1734664894174655,-0.10719432331434194,-0.022633936510629633,-0.14540040814428476,-0.01104536101718726,-0.031325368130711406,0.16296434287653336,-0.11208325360063794,-0.05142430375215052,-0.045267873021259265,-0.017020720255993483,-0.0845603868037123,-0.06753966654771883,-0.1430464787471793,-0.18089042059295202,-0.01176964698552741],[-0.07405824026278016,0.1162478979185938,0.15065148141475082,0.13163897474582195,0.1231286146178252,0.05287287568883082,0.06102109283265749,-0.09633003378923972,-0.07840395607282105,-0.08800074515332801,0.041103228703303414,-0.09596789080506965,-0.17310434643329542,-0.010864289525102223,0.003259286857530667,-0.06880716699231408,-0.13037147430122667,0.13182004623790697,-0.13109576026956682,0.05359716165717097,0.043276086608323855,0.08492252978788238,-0.0581239489592969,-0.10230539302804594,0.12457718655450549],[0.127112187443696,0.02426357993939497,-0.07387716877069511,0.1182396843315292,0.13562254757169276,-0.15988612751108772,-0.1778122052275064,0.0796714565174163,-0.005613216254636149,0.11787754134735913,-0.07043681042107942,0.036033226924922376,0.13670897652420297,-0.005070001778381038,0.12294754312574017,-0.041103228703303414,-0.0483460883867049,-0.013399290414292742,0.14630576560470995,-0.0693503814685692,-0.1435896932234344,-0.09633003378923972,-0.10339182198055616,0.1001325351230255,-0.15427291125645157],[-0.06446145118227319,-0.0566753770226166,-0.0405600142270483,-0.11932611328403943,-0.06627216610312356,0.17509613284623082,-0.006699645207146371,-0.1694829165915947,0.12095575671280476,0.11950718477612447,-0.12439611506242047,-0.15119469589100595,-0.0727907398181849,-0.14540040814428476,0.0796714565174163,-0.16694791570240416,-0.08238752889869187,0.12041254223654965,0.12439611506242047,0.16984505957576476,-0.08419824381954223,0.03748179886160267,0.02770393828901067,0.1490218379859855,-0.07442038324695023],[0.05160537524423556,-0.024444651431480006,0.1674911301786593,-0.1055646798855766,0.10085682109136565,-0.046716444957939564,0.1455814796363698,-0.09397610439213423,0.044543587052919116,-0.08854395962958313,-0.17763113373542136,0.07188538235775972,0.03874929930619793,0.07605002667571556,-0.136890048016288,0.15463505424062166,-0.0454489445133443,0.0016296434287653334,0.10176217855179084,0.1597050560190027,0.05142430375215052,0.012675004445952596,0.09180324648711378,-0.07043681042107942,-0.1314579032537369],[-0.10846182375893719,-0.14051147785798876,0.051062160767980445,0.10809968077476712,0.1329064751904172,-0.06572895162686845,0.026617509336500447,-0.002535000889190519,-0.1225854001415701,-0.06428037969018816,0,0.00036214298417007413,-0.16187791392402315,0.013942504890547854,0.1636886288448735,0.053778233149256005,0.01593429130348326,0.03802501333785778,0.09071681753460356,-0.07713645562822578,0.03512786946449719,0.08437931531162728,0.015028933843058076,-0.024444651431480006,0.0483460883867049],[-0.09361396140796416,0.08311181486703201,-0.08383610083537216,-0.048708231370874974,-0.023177150986884745,-0.004526787302125927,0.13109576026956682,0.010321075048847113,0.025168937399820155,0.12783647341203616,-0.04001679975079319,0.008872503112166816,-0.17310434643329542,-0.049432517339215123,0.0307821536544563,0.027341795304840596,0.10393503645681126,0.1010378925834507,-0.09922717766260032,0.17672577627499617,0.15499719722479172,0.09343288991587913,-0.030601082162371264,-0.1769068477670812,-0.04273287213206874],[-0.10719432331434194,0.10773753779059704,0.1256636155070157,-0.07568788369154549,-0.0791282420411612,0.1421411212867541,-0.07351502578652505,0.14105469233424386,-0.0966921767734098,0.08564681575622253,-0.0036214298417007415,0.13743326249254312,0.0059753592388062235,-0.014666790858888003,0.0036214298417007415,0.12982825982497156,-0.08872503112166816,-0.005251073270466075,0.018650363684758815,-0.01176964698552741,0.1225854001415701,-0.1265689729674409,0.12077468522071973,0.09451931886838935,-0.08093895696201157],[-0.0986839631863452,0.13761433398462816,0.05703752000678668,0.13254433220624712,-0.03983572825870815,-0.15988612751108772,-0.013218218922207705,-0.09397610439213423,-0.08365502934328713,0.15843755557440742,-0.05939144940389216,0.15807541259023736,-0.17455291836997572,0.08546574426413749,0.13996826338173365,0.1587996985585775,-0.11534254045816861,0.17998506313252685,-0.14377076471551944,0.09886503467843025,0.07387716877069511,0.009596789080506964,-0.10991039569561749,0.16966398808367975,0.004707858794210963],[-0.14829755201764536,0.061383235816827565,0.1435896932234344,-0.026798580828585484,0.047983945402534825,0.029876796194031118,0.10429717944098134,-0.15354862528811142,-0.16061041347942787,0.11896397029986935,-0.011407504001357335,0.06627216610312356,-0.09198431797919883,0.17473398986206076,-0.006156430730891261,0.015210005335143113,0.002897143873360593,-0.08709538769290283,-0.0894493170900083,-0.1622400569081932,0.009958932064677038,-0.14974612395432566,-0.04490573003708919,0.017382863240163558,-0.1470300515730501],[0.12131789969697483,-0.04744073092627971,0.17093148852827497,-0.0762310981678006,-0.1504704099226658,-0.003983572825870815,0.024987865907735118,-0.15608362617730195,-0.026255366352330372,-0.06319395073767793,0.1446761221759446,0.13471719011126757,-0.14087362084215885,-0.07532574070737541,-0.05088108927589542,-0.14775433754139022,0.12059361372863468,0.12638790147535586,0.08691431620081778,-0.07749859861239586,-0.1421411212867541,-0.0811200284540966,0.00742393117548652,-0.09995146363094047,0.13326861817458727],[-0.04363822959249393,0.028247152765265782,-0.05323501867300089,0.08872503112166816,0.17509613284623082,-0.05432144762551112,-0.15608362617730195,0.014666790858888003,0.17256113195704031,-0.07695538413614075,-0.09488146185255943,-0.09216538947128386,-0.02028000711352415,-0.12095575671280476,-0.1430464787471793,0.02897143873360593,0.07496359772320534,0.03367929752781689,-0.17111256002036002,0.036757512893262526,0.10411610794889631,0.00036214298417007413,0.1285607593803763,-0.021909650542289483,-0.08274967188286193],[0.09922717766260032,0.0707989534052495,-0.141778978302584,-0.11751539836318906,0.14739219455722016,-0.05703752000678668,-0.028247152765265782,-0.01901250666892889,-0.059753592388062236,0.02046107860560919,0.032049654099051555,0.029876796194031118,0.059210377911807124,0.032773940067391705,0.16042934198734285,-0.11588575493442373,-0.13037147430122667,-0.17998506313252685,0.0016296434287653334,0.10900503823519231,0.18107149208503706,-0.1432275502392643,-0.17093148852827497,0.01792607771641867,-0.10284860750430104],[0.10140003556762077,0.008148217143826667,-0.10429717944098134,-0.11642896941067883,-0.010683218033017186,-0.08673324470873275,-0.09596789080506965,0.13073361728539676,0.03331715454364682,0.17183684598870017,0.0894493170900083,-0.09307074693170905,-0.15626469766938697,0.09922717766260032,-0.09741646274174995,0.06862609550022905,-0.10375396496472623,-0.17473398986206076,0.05214858972049067,-0.17038827405201987,-0.036757512893262526,0.08564681575622253,0.11407504001357335,-0.16332648586070345,-0.12385290058616535],[0.16386970033695855,-0.07514466921529038,0.11244539658480801,0.0972353912496649,-0.17328541792538046,0.10284860750430104,-0.041103228703303414,-0.15119469589100595,-0.16839648763908446,-0.05269180419674578,-0.1616968424319381,-0.10936718121936238,0.053053947180915856,0.11154003912438283,0.136890048016288,-0.12349075760199528,-0.08963038858209335,-0.019917864129354076,-0.12095575671280476,-0.0791282420411612,0.17726899075125127,0.08274967188286193,-0.1119021821085529,-0.17582041881457097,0.13562254757169276],[-0.0894493170900083,-0.014123576382632891,0.057218591498871714,0.10628896585391674,0.10194325004387586,0.15318648230394136,0.07695538413614075,-0.14847862350973037,-0.161153627955683,-0.06663430908729363,0.09107896051877364,-0.141597906810499,0.12910397385663142,-0.07532574070737541,-0.0840171723274572,0.15517826871687676,0.11950718477612447,-0.07043681042107942,0.06536680864269838,-0.1444950506838596,-0.09415717588421928,-0.055045733593851266,0.0952436048367295,-0.17183684598870017,0.044543587052919116],[-0.17020720255993482,0.14485719366802965,0.03386036901990193,0.0581239489592969,0.08546574426413749,-0.029876796194031118,0.13562254757169276,-0.13073361728539676,0.09777860572592002,0.17708791925916625,-0.09488146185255943,0.09777860572592002,-0.10502146540932149,-0.0356710839407523,-0.06826395251605898,0.05214858972049067,0.1265689729674409,0.06102109283265749,0.10574575137766164,-0.1182396843315292,0.05214858972049067,0.02353929397105482,0.018831435176843853,0.06120216432474253,0.08963038858209335],[-0.17437184687789067,0.038930370798282966,-0.12222325715740003,0.10465932242515141,-0.05269180419674578,0.018288220700588744,0.12729325893578106,-0.15065148141475082,0.022996079494799707,-0.1524621963356012,0.05414037613342608,0.16694791570240416,-0.1383386199529683,-0.09162217499502875,-0.16839648763908446,0.07532574070737541,0.09922717766260032,-0.0937950329000492,-0.1685775591311695,0.03259286857530667,-0.03313608305156178,0.16350755735278846,-0.1240339720782504,-0.021185364573949338,-0.12294754312574017],[-0.06319395073767793,-0.06373716521393304,0.13544147607960771,-0.10628896585391674,0.03168751111488148,0.024987865907735118,-0.1377954054767132,0.1401493348738187,0.005070001778381038,0.13272540369833216,0.17944184865627172,0.07423931175486519,0.12204218566531498,-0.09687324826549483,0.035490012448667264,-0.13797647696879825,-0.13453611861918255,0.1783554197037615,0.1119021821085529,-0.0747825262311203,-0.030601082162371264,-0.034222512004072,0.0707989534052495,0.05739966299095675,-0.16350755735278846],[-0.009958932064677038,0.07152323937358965,-0.032049654099051555,-0.026617509336500447,0.06699645207146371,0.01720179174807852,-0.12892290236454637,-0.0908978890266886,-0.025168937399820155,0.12186111417322995,-0.10610789436183171,-0.052510732704660744,-0.08528467277205246,0.09542467632881453,0.06627216610312356,0.07749859861239586,0.0016296434287653334,0.08148217143826668,-0.1251204010307606,0.16133469944776802,-0.0762310981678006,0.0021728579050204447,-0.1481164805255603,-0.09415717588421928,-0.038930370798282966],[0.009234646096336889,-0.06717752356354875,-0.009777860572592001,-0.07749859861239586,0.0019917864129354074,-0.15843755557440742,0.14033040636590371,-0.13507933309543765,0.018288220700588744,-0.01593429130348326,-0.1778122052275064,-0.1530054108118563,0.03929251378245304,-0.0650046656585283,-0.141597906810499,0.027885009781095708,0.05232966121257571,-0.12475825804659052,-0.09614896229715468,-0.0845603868037123,0.0889061026137532,0.05341609016508593,-0.10936718121936238,-0.10194325004387586,0.09216538947128386],[-0.1231286146178252,-0.09198431797919883,0.09741646274174995,0.09506253334464446,0.11751539836318906,0.07333395429444002,0.08365502934328713,-0.09126003201085868,0.12837968788829127,-0.1430464787471793,-0.1314579032537369,0.11842075582361425,-0.044000372576664004,0.17093148852827497,0.04418144406874904,-0.11534254045816861,-0.07532574070737541,-0.17799327671959142,0.03440358349615704,-0.06301287924559289,-0.11570468344233868,0.03856822781411289,-0.1256636155070157,-0.14232219277883915,0.08818181664541305]],[[0.1526001426819908,0.15500016470142686,-0.16739987251958105,0.15500020251304988,-0.09479984342994398,0.17160016434778005,-0.16259982234541415,0.18720018494770563,0.14800021197622917,-0.06259983396047543,-0.1569998086620019,0.1930001555457422,0.15460019491829827,-0.13599984029006176,-0.09919984617939974,0.012400155667994227,-0.00439984408745704,-0.026199838863167974,0.14500017653292646,0.11340019804211873,0.07680018904660114,-0.1965998266812107,0.19540017707078539,-0.01839984547751492,-0.19659984286385215],[0.088163469369065,0.10115783176976227,0.1537673614020215,0.1315481509232997,0.19035991363100108,0.11335792231335608,0.029754515394172412,0.12495264814894515,0.11414572808135673,-0.14264251082116033,0.09355101205306046,-0.15423982411564902,0.07535009539482478,0.09295910973221808,0.1643606175695478,0.09596014458437119,0.12156008197296839,-0.16164125559300407,0.14975480257074508,0.1073492956083001,-0.06644840128440845,0.03435562548089561,0.12315466486363094,-0.08163956213284213,0.1305597686954603],[-0.14979758634774537,0.1062027861397787,-0.05659784350219026,0.19500342577277416,0.19260264858701967,-0.01679721984261867,0.05920300525938364,0.15520312863203112,0.12800358585481403,0.12000280877544993,0.12260323673217667,0.12420263125941342,-0.14319670270237014,0.05560270170222905,0.18280260207638419,-0.11439736667253397,0.10100263746432735,-0.1443972741599988,0.13320298628504995,0.16180335014113406,-0.08719680202979663,-0.10379706808627873,0.08880299538363591,-0.010197386050317524,0.03800265816320235],[-0.12180000084037332,-0.13060000097006416,0.09319999924916143,0.015999998807231644,0.04739999907782828,-0.17640000096798122,-0.17600000104635613,-0.042400001089311384,-0.1420000012485049,0.10599999902205469,0.07939999887305087,-0.07940000091613869,0.08439999885196348,-0.03540000094066511,0.08139999909402211,0.18359999908314129,-0.18140000091829908,0.09179999905093073,-0.11440000103974973,-0.15760000116643533,0.15619999888654681,0.13879999897918102,-0.09200000104291764,0.14059999908988813,0.019999999074494092],[0.06919741419382389,-0.01520298486139969,0.05139768968982818,0.09739632988373523,-0.18260283749768025,0.035197021547692574,-0.11220321960972633,-0.055003351781936806,-0.05940384161616772,0.08499699088843816,0.184996532407667,0.03379718106581881,-0.08460353247762153,-0.07720289440133574,0.09159721233032975,0.1331971788502622,-0.18420282558166107,-0.18780292026073622,-0.18240319928204687,0.056596410909807535,0.08079657393434082,-0.10920314103267931,-0.11340320902959017,-0.05820280038983244,-0.1406028477568848],[0.042020300249074764,0.0942234330903945,-0.10818186257254649,-0.010971187216197125,-0.0641777238100095,-0.12477661722512046,0.07162527601642057,-0.10897368634633565,0.08603015916884063,-0.18177637653016554,-0.06617277715990444,-0.05317786954547007,-0.1789722677684698,-0.1689772770795505,0.20002188500792037,-0.19637785215191925,-0.02037781735845854,-0.14577707406654983,0.11022511643100409,-0.09797182332321269,0.15362689682887706,-0.14457534086416426,0.06862519295551636,-0.06417801513058856,0.06242235673137462],[-0.12580004548411916,0.1477999474965321,0.17699995936183305,0.0053999354429550535,0.040399950088647864,-0.18520005239073253,0.14779994336732824,-0.08860005895757016,0.1005999324262858,0.045199947069973725,-0.05080006099466555,0.01419995041517829,-0.1862000621359925,-0.1584000509122828,0.1101999509651185,-0.08220004962379317,0.18239995029824968,0.008199948632852476,-0.10760005627510957,-0.02880006313180296,0.03299993973578525,-0.19480005525050795,-0.013400056446568052,0.05179995074137188,-0.057600050091810705],[-0.11468926899607881,-0.01273391051057929,-0.11485844980579361,0.07418943139001895,0.09688257477574368,0.13906680646183034,0.05643982866082454,0.1218250428184096,0.10177024603683585,-0.058736623328006936,0.19401208733962527,0.04968465143747417,-0.02179517124860041,0.14367620907693282,0.14048814893615408,0.1946844035875602,0.12128390779711896,-0.03592668376278942,0.1334421026779094,0.1295984956156407,0.06681673284606923,-0.18655138108114377,-0.16275898776037856,-0.10451327404309924,-0.00511857290107725],[-0.0690000016758026,0.08259999806557872,-0.12240000149725987,0.10039999762148051,0.03879999816108182,-0.0386000019302677,0.09799999791344363,-0.06780000217221421,0.1611999975103353,-0.08200000195013726,-0.010000002247268304,-0.0310000018268876,-0.12440000228931901,0.14219999812420384,0.16319999819337425,0.01239999817167655,0.19059999816880432,0.16339999810744493,0.12339999792661754,-0.026600002326008326,-0.0974000022203558,-0.12400000203563236,0.10339999792030038,0.11399999818513057,0.14419999815443305],[-0.1456,0.1448,0.038000000000000006,-0.1632,0.15380000000000002,-0.0748,-0.0302,0.1038,0.0574,-0.09280000000000001,0.1708,0.18300000000000002,-0.0082,-0.13460000000000003,0.11060000000000002,-0.18520000000000003,-0.12140000000000001,0.1544,-0.17900000000000002,-0.0884,-0.18560000000000001,0.19440000000000002,0.0534,0.046200000000000005,0.1308],[-0.021400000000000002,-0.0296,0.193,-0.054400000000000004,0.1436,-0.031,0.13720000000000002,0.07980000000000001,0.032600000000000004,-0.0086,-0.11259999999999999,-0.1454,-0.13460000000000003,0.0724,0.144,0.07940000000000001,0.1376,-0.1252,0.055200000000000006,-0.0598,-0.085,0.15580000000000002,0.062400000000000004,0.031,0.1516],[-0.1474,-0.11259999999999999,0.1422,0.17880000000000001,-0.0922,0.1466,-0.1684,-0.0474,-0.062400000000000004,-0.1524,0.025400000000000002,0.15980000000000003,-0.1534,-0.1444,-0.016200000000000003,-0.09820000000000001,0.17500000000000002,0.19840000000000002,-0.1166,0.10720000000000002,0.0952,-0.1632,0.13240000000000002,-0.044000000000000004,-0.06520000000000001],[0.015,-0.17700000000000002,0.0656,-0.13740000000000002,-0.008,0.09000000000000001,0.07880000000000001,-0.06680000000000001,-0.1936,0.0342,0.0968,-0.1186,0.0204,0.1378,-0.06520000000000001,-0.17880000000000001,-0.0036,-0.0932,-0.1038,-0.013400000000000002,0.0524,0.10400000000000001,0.067,0.122,-0.0364],[-0.0702,0.10880000000000001,-0.1262,-0.0822,0.0292,-0.062200000000000005,0.11120000000000002,-0.19540000000000002,0.133,0.1198,0.1448,0.0756,-0.1766,-0.129,0.0716,-0.0614,-0.0396,-0.0746,-0.0048000000000000004,-0.013800000000000002,0.17900000000000002,0.18080000000000002,-0.12040000000000001,-0.1676,-0.0864],[0.1268,-0.031400000000000004,-0.0178,-0.15700000000000003,-0.013800000000000002,0.18280000000000002,-0.2,0.0108,0.122,0.10220000000000001,-0.1698,-0.1896,0.11299999999999999,0.12660000000000002,-0.1162,-0.1278,0.0442,-0.14880000000000002,-0.0286,0.1908,0.1426,0.1634,0.1768,0.1916,-0.15200000000000002],[0.001,0.10660000000000001,-0.0318,0.10940000000000001,-0.0514,0.032,0.034999999999999996,0.19940000000000002,-0.1474,0.1038,-0.061,-0.1462,0.0442,0.0954,0.006600000000000001,0.1552,-0.021,0.17880000000000001,0.10260000000000001,-0.0246,0.12,0.0288,0.06899999999999999,0.042800000000000005,0.0898],[0.145,0.1946,-0.10960000000000002,-0.1612,-0.009,-0.1394,-0.10360000000000001,0.0018,0.1496,-0.10120000000000001,0.0102,0.10740000000000001,-0.034,-0.1178,-0.1446,0.1132,0.0718,-0.0026,-0.0094,-0.053200000000000004,0.0074,0.0734,-0.07540000000000001,0.198,-0.1078],[0.1834,0.097,-0.0432,0.0762,0.033,0.1864,-0.1418,-0.03,0.118,-0.1424,0.1496,-0.099,-0.06480000000000001,-0.0964,0.054400000000000004,-0.0806,-0.04680000000000001,-0.189,0.1178,0.0172,0.15000000000000002,0.027600000000000003,-0.1786,-0.1836,-0.19640000000000002],[0.19240000000000002,-0.0472,-0.038400000000000004,0.09360000000000002,0.10880000000000001,0.1384,0.10920000000000002,-0.0912,-0.1878,-0.08120000000000001,-0.005600000000000001,-0.0704,0.0058000000000000005,-0.034999999999999996,-0.1228,0.11160000000000002,0.022600000000000002,-0.1816,0.11120000000000002,0.18620000000000003,0.097,0.1806,0.1184,-0.0666,0.0606],[0.1766,0.0146,-0.0434,0.0586,0.18380000000000002,-0.044800000000000006,-0.164,-0.0078000000000000005,-0.11180000000000001,0.0878,0.13,0.191,0.0302,0.08660000000000001,-0.1482,0.11100000000000002,-0.1444,0.013000000000000001,0.10520000000000002,-0.18020000000000003,-0.0052,0.0152,0.1288,0.027800000000000005,0.1404],[-0.1622,0.1938,-0.04580000000000001,-0.023400000000000004,-0.024,0.1894,-0.0344,0.0176,-0.13999999999999999,0.149,-0.17220000000000002,0.097,-0.1206,-0.0944,-0.040400000000000005,-0.144,0.04680000000000001,0.07980000000000001,-0.0034000000000000002,0.0722,-0.0832,0.10020000000000001,0.1908,0.1998,0.096],[-0.1544,-0.050600000000000006,0.18320000000000003,0.0912,-0.0256,0.0512,-0.11100000000000002,0.18120000000000003,0.124,0.17400000000000002,-0.1756,-0.043000000000000003,0.0782,-0.1926,0.0512,-0.1728,-0.1864,-0.0148,-0.15280000000000002,0.0182,0.026400000000000003,-0.0902,-0.1468,0.1264,0.1632],[-0.0736,-0.1454,0.1738,0.14880000000000002,-0.19440000000000002,-0.05360000000000001,-0.0176,0.0082,-0.05460000000000001,0.0598,-0.1668,0.1592,-0.0244,0.1876,0.15760000000000002,0.07680000000000001,-0.1168,0.011200000000000002,0.15360000000000001,0.09920000000000001,-0.1592,-0.15780000000000002,-0.0534,-0.051000000000000004,0.17980000000000002],[-0.06280000000000001,-0.11160000000000002,-0.1154,0.0702,0.06780000000000001,-0.004200000000000001,-0.0322,-0.15200000000000002,-0.0848,-0.0386,-0.10660000000000001,-0.005000000000000001,0.1928,-0.0954,-0.0586,0.0444,-0.15880000000000002,-0.09620000000000001,-0.053000000000000005,-0.1938,0.1502,-0.1158,-0.11100000000000002,0.1778,-0.1208],[0.19,-0.043800000000000006,0.15600000000000003,0.1416,-0.07640000000000001,-0.13720000000000002,-0.11080000000000001,-0.1474,-0.1458,0.0198,-0.12440000000000001,0.007000000000000001,0.1446,0.0884,-0.046400000000000004,-0.13340000000000002,0.0738,0.1882,0.1322,-0.1434,0.16100000000000003,-0.1768,-0.13999999999999999,0.16100000000000003,0.0728]],[[0.049998808614552366,-0.18340141548101832,0.07159867750418657,0.15919904915190763,-0.04900086080531606,-0.1118008146230448,-0.023000948982776152,-0.1814012787664415,-0.03560122992386169,0.04299895790988554,0.0413988434472,0.056399038520100225,0.000599074661760645,-0.08200097272482801,0.06259888275678185,0.19179872407901435,0.12319901154715207,-0.14280097053172025,-0.14300117450436528,-0.014601163308571892,0.1221989103343095,0.10679903622289748,0.007998961893832325,-0.06740077166750309,-0.16980101677012568],[-0.11671011618244034,0.0438691713363101,0.0976777656798162,-0.18248788403637126,-0.09027956165270977,0.14032470683606474,0.05751228836921048,0.07288180745446579,0.0698863218275747,-0.12809631726272225,-0.18770689670532695,0.15491113329756878,-0.16308552623719383,0.10911009396259014,0.18389673656138403,0.15088207045141144,0.1785086402688969,0.08271029666496134,0.06389144408535403,-0.07750752112105364,-0.11510071453047573,0.1077109209740109,0.11170405096152633,-0.08067132291209587,-0.023693977012124952],[0.008349158739187883,0.014539595670091793,0.026943563726829864,-0.18244057655392107,-0.07843673406257298,0.11576523672270353,0.1549595030467058,-0.007854570163080324,0.16374751414837643,-0.1592444702219624,-0.19804935481012,0.15955896974363176,-0.15143948794477874,-0.10784151012317392,-0.19824767731044324,0.15814555126408877,-0.04904218130172878,0.02515858346565104,0.19674987912360473,0.17815035689362682,-0.027446500465217828,0.08215887171265082,-0.06504430021075562,-0.08163293018969042,-0.04484338971509821],[-0.1600000651027527,0.06099992265163988,-0.18640007226722302,-0.1326000519586909,0.09039995296165847,-0.1212000445147309,0.13659994814323856,0.08519993012234997,-0.11900006720866796,-0.18280005694457252,-0.10580006319933742,-0.03700005253966148,-0.02880005056471577,0.07519994684586419,-0.07480006105128198,0.07999993027783871,0.0997999459864132,-0.06760005303429438,0.19179993581970692,0.10099993643149631,0.17339994045568033,0.13399994733480886,0.1079999432731286,-0.07580004216744354,-0.026600055560972436],[-0.00819001730439442,-0.19458813959313556,0.17901108127782775,0.054607967217571864,0.10100721274333416,0.15360682577910068,-0.07319204841203322,-0.09178928513340394,0.18581030561146575,-0.0737912682596326,0.029209690830601546,0.07400805630217269,-0.05039224653113398,-0.13079184947584746,0.06260936145307659,-0.06758930897566214,0.011408282310247216,0.10200813214796092,-0.1871901587520737,0.07740974743765051,-0.18719086962080855,-0.14619192444941712,0.006208698358619995,-0.006193534148157176,-0.18079148041745388],[0.006033092781170426,-0.017798301901825374,0.14781472486627065,0.1750667908770068,-0.10172059457461183,-0.006914124666427848,0.0024670521985992837,-0.13437914886462932,-0.12937230626035742,0.08745400832021255,0.04663797266312033,0.03026530141328328,-0.11752963531853923,0.11086372605435901,0.05804347974144937,-0.14737875023031613,-0.1885384773635764,0.019064033297929217,0.1986354577374595,-0.07276297378716538,0.004447343216910574,0.18326497958652044,-0.18254543354851308,-0.11150810680712799,-0.03294244447437311],[0.17059985565579994,-0.1446001714948556,-0.1448001602290851,-0.14220011520151393,-0.11360010429223807,-0.1466000986969515,0.1671998850244814,-0.047400154930983436,0.14539985098661706,0.017599873743913644,0.1653998598760048,0.0987998835103725,0.1097998878891729,0.10859988214797534,-0.12580013536138024,-0.1328001545862377,-0.030600119757577964,0.1997998824136848,-0.03340014229894566,0.1727998590574985,-0.16480013202018098,0.004399883232051245,0.09059987422659507,0.03739990650739552,0.1775998768115972],[-0.15433722578147568,0.17377362725147988,0.12249360458923039,0.10557313575992158,0.15008931652867175,0.12134890478215728,-0.00042445745209118756,0.06695002790555483,-0.11158695128699944,0.04385540762332527,-0.004692281767690421,-0.038040582292852794,0.1566060507194013,-0.11585509144572505,-0.19664156123656315,0.11815369935216968,-0.11847538506083288,-0.012452261713490355,-0.05971544438816552,0.0754990013667943,0.14499402161076197,0.022356453662808726,-0.16853945195320796,0.046004329637534536,-0.138911922395991],[-0.17100005991807543,-0.027000071188462642,0.17759993348802097,-0.13300004782078534,-0.06160004329228459,0.1229999590303498,-0.047000047726973394,0.09539993568729226,0.02459993814372094,-0.09860005240959945,0.06559994183375495,0.054399951644511634,0.09679995346217588,0.10039995107897302,0.06079994381074273,-0.0906000641696019,0.16319995028796733,-0.1410000488107295,-0.09820005906907903,-0.13160005850601159,0.01959994519769302,0.028399951528978933,0.0671999477907643,-0.02000003880929699,-0.018400051136187038],[-0.0892,-0.026600000000000002,0.188,0.1756,0.1736,0.10720000000000002,-0.1678,0.1144,0.0718,0.0288,0.0752,0.043000000000000003,-0.1302,-0.15600000000000003,-0.028399999999999998,-0.1018,-0.0736,0.044800000000000006,0.09140000000000001,0.09260000000000002,-0.0728,-0.031,0.1734,-0.18480000000000002,0.0998],[0.18460000000000001,-0.0974,0.0974,0.1882,0.1738,-0.16140000000000002,0.1966,0.1904,0.11140000000000001,-0.10620000000000002,0.0454,0.1438,-0.1826,-0.127,0.064,0.009,0.1684,-0.0606,-0.0938,-0.04580000000000001,-0.16720000000000002,0.0188,0.10300000000000001,0.04000000000000001,-0.056999999999999995],[-0.0786,0.19740000000000002,0.1532,0.18600000000000003,-0.0756,0.1492,0.0244,-0.09960000000000001,0.1942,-0.0362,-0.1544,0.0456,-0.07440000000000001,0.027200000000000002,0.1686,0.11499999999999999,0.15660000000000002,0.1254,0.1322,-0.0246,0.0574,0.039400000000000004,-0.1068,0.028999999999999998,0.0424],[0.1938,-0.0206,0.17500000000000002,-0.13899999999999998,0.0848,0.0964,-0.1956,-0.0742,0.11040000000000001,-0.08040000000000001,0.1392,-0.0842,0.04580000000000001,-0.09860000000000001,0.1622,0.18480000000000002,0.1844,0.1402,-0.1946,-0.13260000000000002,0.146,-0.1502,-0.08600000000000001,-0.15380000000000002,-0.0476],[0.045000000000000005,-0.1636,0.17120000000000002,0.0008,0.025400000000000002,-0.0952,-0.1794,-0.1216,-0.15180000000000002,-0.1664,0.1654,-0.0212,0.0522,-0.0776,-0.0378,-0.1686,-0.12960000000000002,-0.1676,0.0006000000000000001,0.121,-0.11000000000000001,-0.015,0.18220000000000003,-0.1394,0.0828],[0.0696,-0.18380000000000002,0.1938,-0.10600000000000001,-0.1562,0.0178,-0.171,0.1774,-0.032400000000000005,0.15780000000000002,0.0092,0.042800000000000005,-0.0184,0.06680000000000001,-0.0286,0.09360000000000002,0.10600000000000001,-0.18320000000000003,0.1746,0.15980000000000003,-0.09280000000000001,-0.0366,-0.1328,0.0582,-0.16060000000000002],[-0.0824,-0.0364,-0.1376,0.149,-0.1458,-0.1492,0.17520000000000002,0.022600000000000002,-0.03,-0.0792,-0.1634,0.1474,0.026400000000000003,0.0708,-0.06580000000000001,0.013200000000000002,-0.0194,-0.07540000000000001,0.05,0.1714,-0.0888,0.1044,-0.016200000000000003,-0.014199999999999999,0.013800000000000002],[-0.10920000000000002,-0.0564,0.1246,-0.19340000000000002,-0.065,0.1014,0.1502,0.08360000000000001,0.18620000000000003,0.1368,-0.09280000000000001,0.1756,-0.0414,-0.13560000000000003,-0.07700000000000001,0.1592,-0.0302,-0.1632,-0.15200000000000002,0.0346,0.0822,0.12380000000000001,0.09300000000000001,0.044000000000000004,-0.0444],[-0.18520000000000003,0.0082,0.0374,-0.030600000000000002,0.015,0.0832,0.16920000000000002,-0.0534,0.0228,0.0398,0.0388,-0.038200000000000005,-0.050600000000000006,-0.15860000000000002,0.165,0.1698,-0.057999999999999996,-0.134,-0.0874,-0.17600000000000002,-0.13740000000000002,0.11699999999999999,-0.12840000000000001,0.013400000000000002,-0.1176],[-0.014199999999999999,0.09340000000000001,-0.1774,-0.0414,0.0016,-0.009800000000000001,0.14980000000000002,-0.051800000000000006,-0.05380000000000001,-0.18000000000000002,-0.09360000000000002,0.07600000000000001,0.1728,-0.1494,0.1668,0.08020000000000001,-0.1264,0.1602,0.11180000000000001,0.1458,-0.0728,-0.1154,0.166,-0.0374,0.13540000000000002],[0.15100000000000002,-0.141,0.0332,-0.1142,-0.1408,-0.1396,0.0786,0.055400000000000005,-0.13260000000000002,0.09200000000000001,0.15100000000000002,0.0426,-0.0698,-0.1948,0.0964,-0.1814,0.09160000000000001,0.043800000000000006,0.1804,0.10940000000000001,-0.0182,-0.019000000000000003,0.17700000000000002,-0.021400000000000002,0.0362],[0.0378,0.15380000000000002,0.0262,-0.1958,0.0218,0.1748,0.1398,-0.18500000000000003,-0.06999999999999999,0.0588,0.1716,0.1318,0.0534,0.0746,0.15700000000000003,0.148,-0.027400000000000004,-0.06420000000000001,-0.0082,-0.1446,-0.13160000000000002,-0.195,0.0736,-0.0332,-0.14780000000000001],[-0.11299999999999999,0.0424,-0.11180000000000001,0.15280000000000002,-0.1348,0.046000000000000006,-0.188,-0.1368,-0.15560000000000002,0.0074,0.1448,0.0198,-0.1438,0.11040000000000001,0.15600000000000003,-0.0586,0.12240000000000001,0.17,0.0706,0.1202,-0.1318,0.013600000000000001,0.1674,-0.1228,-0.0398],[-0.1254,0.1302,-0.07500000000000001,0.0594,0.0388,-0.013800000000000002,0.007000000000000001,-0.0942,0.1496,0.0178,-0.1552,0.024800000000000003,0.10600000000000001,-0.0806,0.1318,0.0374,-0.0104,0.1216,-0.0948,0.05580000000000001,-0.119,0.0666,0.10820000000000002,0.1452,-0.1402],[-0.11200000000000002,0.1282,-0.1882,-0.0694,-0.1704,-0.0492,-0.13999999999999999,-0.1158,-0.1626,0.1768,-0.1628,-0.0806,0.15180000000000002,-0.0356,0.15280000000000002,0.0356,-0.18300000000000002,0.0308,-0.0008,-0.0594,0.0024000000000000002,0.1632,-0.0842,0.03900000000000001,-0.1664],[-0.08360000000000001,-0.0294,-0.06820000000000001,-0.0242,0.1348,-0.1904,0.07800000000000001,0.06860000000000001,-0.1694,0.197,0.04580000000000001,-0.046400000000000004,-0.19240000000000002,0.0756,-0.0188,-0.16820000000000002,-0.098,0.1312,-0.031200000000000002,-0.1496,-0.0734,-0.0238,0.1058,-0.0352,0.0344]],[[-0.019650622076553714,0.18393982284442612,0.04674645426183733,0.0803465680743955,-0.10264716519877157,-0.03865080309367021,-0.16425804638028843,0.1953431788610594,0.07254663070934794,-0.048859804470362055,0.19813788194131773,-0.12166980647663385,-0.09005771072998289,-0.02744119550163117,-0.0440551042564321,-0.12385021131471066,0.08154185416788222,-0.03744638521931573,-0.08105752941525254,0.12394392406315198,-0.04825636383399414,0.11934718144178352,0.13094386017135562,-0.1870404810441722,-0.08004485785332353],[-0.10311721907870533,-0.16550159391478111,-0.018712438093451043,0.01568737579193138,-0.11132287201803717,0.19508307693372037,0.14669492168566017,-0.07270708191858692,-0.14591272663332305,-0.13790220335689193,0.03590157999190929,-0.18068584734484464,0.012894372805736297,0.10046736589666776,0.196090110509589,-0.02231789078650783,-0.1747049156834361,0.07107585250252106,-0.04930592369336932,-0.08570830052754125,-0.17690782973707558,-0.007313627231273723,-0.13430819604700378,-0.14813380243641355,-0.12232664515803728],[0.18335757283499024,-0.12585043542823934,-0.09344487753216103,0.17635521785594854,0.06676047009907081,-0.07864257887832525,-0.004848649591687581,0.05535237730251311,-0.11084472964870468,0.18014987692514592,-0.00045206212990893857,-0.10705850591489964,0.19835163172215547,0.06676547339689809,0.008153816248965924,-0.13984208289899616,0.15435126705615734,0.05316112381221987,0.05935178368490585,-0.06764699813179738,0.11155276057703967,0.0015557319288818446,0.10915294831947506,0.13556607219502273,0.14516240392187543],[-0.1579997743778221,0.1672002682090864,0.10700023865291367,0.10560023814565203,-0.12679978978509782,-0.050999773571030256,0.035000258712238504,-0.015599746748652084,-0.026199762133511453,0.06080026654803147,-0.09779972314032445,-0.06559968887310902,0.04540025721624786,0.1278001836080112,0.06660024559921673,-0.1827997762085842,-0.14179974084450553,0.006000206738540166,-0.0365997435918704,-0.18239975007001166,0.10920025121314356,-0.17339976458812137,0.18380025021475357,0.07800018042368023,-0.06979980006891748],[-0.009609850000548599,-0.19921170921968773,-0.11981041888413484,0.16918960326141583,0.09559082263578655,0.06159011477729502,-0.17181129461524713,0.00838894379117097,-0.16761038455112845,-0.04701163670291656,-0.07661208687896177,-0.02681358288477972,0.1241887706953035,0.12519198421437264,-0.11581072213929254,0.12179022992514105,-0.1750113139664994,0.1771909744035249,-0.1518111940246307,0.05018908879195957,-0.10521096722682198,-0.11961027739008012,-0.16121092364005177,-0.0634078767671034,-0.049808728402900994],[0.1763525751870969,-0.18458087511754062,-0.17442706194735186,0.0869721453652138,-0.12527150144929955,-0.13904616405577777,0.1438042843514878,0.16659575072887,0.08237170912214377,0.11861652918573498,-0.10336735701786617,0.032086191662517784,0.015201946597343185,-0.1679130794964575,-0.1724162071008532,-0.13805028570766534,0.0014049770185954084,0.08792306611052238,-0.11319931623261813,0.061990560507822076,-0.18380743433164193,0.1843678733531527,0.17299100550462174,-0.06551805558573373,-0.13988757176502775],[-0.11540064773050851,-0.051600769991715756,0.12319931486002611,-0.055200683683694914,0.12419939650167944,0.12159934995330225,-0.0994007427275604,0.08759927294991188,0.16139931711774536,-0.014000765223053574,-0.12200079482637767,0.16659910679711926,-0.12180073843277525,-0.08160052711356461,0.027199294918137117,-0.10320064247464002,0.05459925599991212,-0.00460059351815927,0.03499926388722208,0.14659928248508236,-0.008800721198681284,0.12239932416459574,-0.06700071833243974,-0.1286005179717845,-0.015400573974876612],[0.16121610705389805,0.09455489282967601,0.10033618076574699,-0.028660707856626323,0.04831061026482793,0.022211158455822003,0.19681314340112763,0.06604663872518227,0.06994100444114587,-0.04923491880052761,-0.06229816706639374,-0.08270835100380183,-0.0979776806795541,0.17387380826707077,0.029293574405315832,0.10622733635257217,-0.1449895753866922,-0.17406806686300832,0.08702727605461089,-0.1087329891370162,0.1174591404069132,0.11255606021887474,0.12706526420594552,0.08569333991620705,0.019373687864703983],[0.04739981155840238,0.19879977598944754,-0.13600019932498097,-0.017000198901311644,0.0667998244266926,0.11899981088456288,-0.18880021607870284,-0.10880021151771974,-0.1532001986681519,0.09699977737677498,-0.0856002312355995,0.13879974014412533,0.0515997851707615,0.1521998466489984,-0.10880020512659347,-0.007200186912529211,0.01759978355108591,0.06319982733018026,-0.14200021415429112,0.09099979125630858,-0.09940020981539377,-0.06420019661804043,-0.0614002089815298,0.19639984930857926,0.19199983301582785],[0.10840000000000001,0.0376,-0.064,-0.0296,-0.04020000000000001,0.10300000000000001,-0.1494,0.13340000000000002,-0.0844,-0.0038,-0.0072,-0.1948,-0.1184,-0.145,0.1696,0.0216,-0.1844,-0.1178,0.1068,0.16720000000000002,-0.0746,0.084,0.008400000000000001,0.053200000000000004,-0.0386],[-0.1938,-0.027000000000000003,-0.0606,0.1978,0.1416,0.011000000000000001,-0.1666,0.033800000000000004,0.1312,0.03900000000000001,0.05360000000000001,0.1976,-0.0238,0.1158,-0.10020000000000001,0.1444,0.1154,0.07700000000000001,-0.04020000000000001,0.1836,0.10880000000000001,0.09140000000000001,0.1958,0.0938,-0.0758],[0.026600000000000002,0.1886,-0.10360000000000001,-0.07780000000000001,0.10960000000000002,-0.1028,0.0512,0.11180000000000001,-0.08080000000000001,-0.09360000000000002,-0.141,-0.10400000000000001,0.0908,-0.0616,-0.013000000000000001,-0.017,-0.053000000000000005,0.061,0.1834,-0.1176,-0.144,-0.10980000000000001,-0.07640000000000001,-0.07980000000000001,-0.1192],[0.043800000000000006,-0.036,-0.0346,0.08900000000000001,-0.0814,-0.06420000000000001,-0.027200000000000002,0.121,0.0166,-0.013000000000000001,-0.05580000000000001,-0.0564,-0.1688,-0.17600000000000002,-0.1034,-0.10200000000000001,-0.13520000000000001,0.1432,-0.08700000000000001,0.19340000000000002,-0.016,-0.017,0.061,-0.17400000000000002,0.082],[0.1302,-0.041800000000000004,0.0956,0.121,-0.0566,0.18580000000000002,-0.0832,-0.038200000000000005,-0.0012000000000000001,0.1754,-0.10920000000000002,-0.118,0.1928,-0.007000000000000001,0.1612,-0.13240000000000002,0.10620000000000002,0.17120000000000002,0.1882,-0.134,-0.18180000000000002,0.0118,-0.0918,-0.031,0.1132],[-0.0708,-0.004200000000000001,-0.0434,0.13240000000000002,-0.166,0.1816,0.1172,0.07740000000000001,-0.056799999999999996,0.1492,-0.08860000000000001,0.0488,0.083,-0.134,0.1886,0.1228,-0.0878,-0.1482,-0.08860000000000001,-0.041,0.0478,-0.07540000000000001,0.0164,-0.09100000000000001,-0.1706],[0.17820000000000003,0.1044,0.0412,-0.0854,0.03900000000000001,-0.10500000000000001,-0.0466,-0.014000000000000002,-0.168,0.0854,-0.1892,-0.17320000000000002,-0.19540000000000002,-0.0454,0.1014,0.17520000000000002,0.141,0.15000000000000002,-0.16040000000000001,0.037,-0.13999999999999999,-0.023400000000000004,0.0582,-0.15900000000000003,-0.0964],[-0.0724,-0.1382,-0.1674,-0.1786,-0.1322,0.1018,0.016800000000000002,-0.121,-0.0872,-0.1456,-0.10300000000000001,0.008400000000000001,0.1216,0.038400000000000004,-0.06860000000000001,0.0158,-0.0726,-0.0656,-0.1684,-0.0988,0.0606,-0.038000000000000006,-0.074,0.013200000000000002,-0.009800000000000001],[-0.053000000000000005,0.1038,-0.1526,0.0826,-0.1784,0.0206,-0.141,0.0054,-0.12840000000000001,0.0566,-0.001,0.101,0.1646,0.06420000000000001,0.019200000000000002,-0.10660000000000001,-0.021400000000000002,-0.1764,-0.13720000000000002,0.0702,-0.19820000000000002,0.1388,-0.021400000000000002,0.08660000000000001,-0.1774],[-0.0964,-0.062400000000000004,-0.1912,-0.0884,0.0154,0.147,0.1258,-0.13,-0.1976,-0.171,-0.0694,-0.036,-0.136,0.10880000000000001,0.10200000000000001,0.033800000000000004,-0.1494,0.1132,-0.0246,-0.1652,0.0158,0.1182,0.08000000000000002,0.1584,-0.11160000000000002],[0.19840000000000002,-0.0246,0.0298,0.07780000000000001,-0.033400000000000006,-0.0654,-0.0038,0.1774,0.124,-0.055200000000000006,-0.08560000000000001,-0.13360000000000002,-0.1142,-0.149,0.0952,0.0724,0.1312,-0.0346,-0.16920000000000002,-0.10520000000000002,-0.1726,-0.1422,-0.0954,0.1258,0.0054],[0.0878,0.0852,-0.1206,-0.1844,0.0946,0.0714,-0.022400000000000003,0.0878,0.1946,-0.18020000000000003,-0.0304,-0.10560000000000001,-0.15960000000000002,-0.17800000000000002,0.007000000000000001,-0.1552,0.1854,-0.17800000000000002,-0.0368,0.05580000000000001,-0.1794,0.10860000000000002,-0.0064,-0.0068000000000000005,-0.15560000000000002],[-0.1966,-0.014199999999999999,-0.0282,-0.1132,0.0022,0.004200000000000001,0.030600000000000002,0.17500000000000002,0.1246,-0.11160000000000002,-0.18280000000000002,-0.0416,-0.15460000000000002,-0.0932,-0.06899999999999999,0.18020000000000003,0.0878,0.1754,-0.015600000000000001,-0.0718,0.046200000000000005,0.122,-0.19820000000000002,0.0474,0.1422],[-0.0632,0.13540000000000002,-0.06480000000000001,-0.14880000000000002,0.1644,-0.17700000000000002,0.0762,0.17820000000000003,0.0492,-0.0014000000000000002,0.18660000000000002,0.0378,0.0864,0.1172,0.1472,0.19440000000000002,-0.0752,0.022400000000000003,-0.135,0.038000000000000006,0.094,0.0004,-0.004200000000000001,-0.1202,0.09360000000000002],[0.189,-0.0942,-0.0716,0.0746,0.1622,0.0814,0.0898,0.18220000000000003,-0.167,-0.19140000000000001,-0.0956,0.18580000000000002,-0.045000000000000005,0.1246,0.04680000000000001,0.023200000000000002,-0.047,-0.09340000000000001,0.1774,-0.1948,-0.061200000000000004,-0.08460000000000001,0.09060000000000001,0.12860000000000002,0.044000000000000004],[0.0368,-0.1014,0.0826,0.19140000000000001,0.0708,-0.0054,-0.071,-0.0792,0.0296,0.05580000000000001,0.10200000000000001,0.0292,0.11100000000000002,-0.1038,-0.1644,-0.1666,0.052000000000000005,-0.012,-0.164,0.1758,0.10980000000000001,-0.0848,0.13260000000000002,-0.1322,0.08360000000000001]],[[0.05937110041959205,-0.022558766218373515,0.1381278105653531,0.028591547945863036,0.05943133747003524,-0.16500487598625835,0.18036415853388263,-0.06966778730566056,0.14896946158054195,0.00359437900388981,-0.018290477716799848,-0.07798510043588444,0.10221026752766157,0.143746372880757,-0.13982418569976668,-0.14479172931190817,-0.017545566577626504,0.12160602391375529,0.1408195691412177,-0.1627982922729429,-0.1059836711806266,-0.03440782607464033,-0.1180701952042128,0.15275613530116017,0.030764065831940107],[-0.11186659665004745,-0.08844619186398478,-0.11267919151487077,-0.07946064759260935,-0.16624907112308446,-0.057659607161951336,-0.11886861634065778,0.06252208925219331,0.04273292654177971,0.11414017608290958,-0.17888451235610753,0.048146146389039884,-0.12445520126791164,-0.06447379094567435,-0.0016652251811313562,-0.13605578223370365,0.08235764847444667,-0.18985643591617857,-0.047652495031833025,-0.048057691678965744,-0.08505343777965076,-0.169660465468477,0.16572138869181244,0.09212904935876852,-0.17046864331160638],[-0.1542476980219108,-0.04549436237030695,-0.10821889442856196,-0.18426130310887753,0.17891222229808104,-0.0804636825025432,-0.09424307912779427,-0.08082182345513,-0.1532466075942715,-0.10326318679838363,0.09039327397097283,0.1335231595203457,0.011926241519505632,0.11436875483951928,0.175349165522597,0.0603275701484872,-0.0381031449613115,-0.08747093492445718,-0.14527994745708184,0.016531936919041916,0.021122208542617496,0.11173828038570377,-0.00022022132151361672,0.14576225925776382,-0.08184301744708176],[0.11320142804575684,-0.17319900949829586,-0.0035983018799487943,0.04080130047888635,0.10440105224225324,0.20000127816871632,-0.14979852864559923,-0.09919832934370217,-0.01719856172994678,0.11980128281664164,0.05320181221595161,-0.19719884520586897,0.12220118369221811,0.06720158231452766,-0.13299860136293512,0.1930011961499879,0.16940090815253198,0.01920121016703655,-0.0751988743381625,0.036601237094618023,-0.14439885412262582,0.030801296573560868,0.02380168567855916,-0.09439847859070864,-0.03579852806725556],[0.1427869912749484,-0.04580902293520428,0.023784531044089435,0.039388153340194514,0.14919041464176164,0.014788356573785919,0.12878659675660817,0.14598478122403963,-0.14641310186286588,0.10018831423369817,-0.14901650830789964,0.043189480449579404,-0.09001078279637569,0.1521855859698214,0.01958725917223801,0.009189103720074521,0.022591727221248404,0.13518897603233676,0.05018974582902886,-0.11621126926337731,0.15398956167641542,-0.09401181108440101,0.10138464437935794,-0.001413859216392403,0.027786591488210232],[-0.05799931530870464,-0.01807696766149024,-0.12927483445766247,-0.06656364459995721,0.07630576822334163,0.007442593850311504,0.1803885745719578,-0.16266715494382497,0.08659782573663918,0.03864129418065528,-0.19030673836513387,-0.015322907702866151,0.03646901170972838,-0.15264245249919586,-0.1717910919441178,0.05146552822318027,0.001946059111255635,-0.1595383912745584,-0.0231147616258015,-0.1465459208620777,-0.12112041436712702,0.1198374474212492,0.002128644477248676,-0.15182542195719997,0.002788412853422876],[0.1392022826795857,0.16940158328121413,-0.0931972856164052,-0.06739792123145122,-0.06899831802874717,0.12980204310654744,0.07100235190688953,0.1342026704837766,-0.09139770097724564,-0.18639794946391175,-0.14839710323822758,0.0032018458967270676,0.18580189208927594,0.07140252927264633,0.053602235670853385,0.08860191200257117,-0.18839854835096456,-0.18159806559168262,-0.14159820067019238,-0.1857980225489158,-0.02519816835638687,0.07060207252602699,0.04440269449631895,-0.08899756808217504,-0.00019764716864904036],[-0.008884722689023123,0.14024762937960297,0.07931013282353912,0.12441217524168084,-0.1249992678392628,0.10002912172082473,0.1634823806978847,0.04333099388926494,0.1227075110848522,-0.02137440877533611,0.090823467244864,-0.1370771647470654,0.1669008846882849,0.1441980970069752,0.1921376157236373,0.029691421948406693,0.1557101806074371,0.15008077480307067,-0.1514550362826015,-0.04673967899432494,-0.0050703917088456415,0.1084151416698484,-0.10948041680090682,0.05844435973446547,0.08728194139651001],[-0.1767996859916951,-0.161999782201824,-0.15799962660594297,-0.19519971404195652,-0.03239976862589683,0.14980028105233328,0.16120032353130082,0.09780036735514226,-0.08759968374350806,-0.07139971792564964,-0.04339960151776905,0.03380025392389976,-0.1501997397217945,0.1834003479299597,-0.16559969245827605,0.04080026301750368,-0.19499980030931377,0.0838002660996666,0.17640024751809513,-0.09799972797931569,-0.19939974803677674,0.11620028509931428,0.09720037065833811,-0.0021996654622932392,-0.05119967634152912],[-0.0038,-0.12940000000000002,-0.0932,-0.009800000000000001,-0.002,0.0482,-0.1544,0.0028000000000000004,0.1854,-0.1746,0.0816,0.13799999999999998,-0.11699999999999999,0.040400000000000005,0.026800000000000004,-0.0376,0.133,0.1996,0.049,-0.2,-0.10020000000000001,-0.057999999999999996,-0.0734,-0.1928,0.0094],[-0.13460000000000003,0.16160000000000002,-0.09280000000000001,-0.1542,0.043000000000000003,-0.17500000000000002,0.18020000000000003,0.0126,0.10840000000000001,-0.042800000000000005,0.0176,-0.0766,0.027600000000000003,0.0144,-0.034,-0.0998,-0.1202,-0.1216,0.0948,-0.04020000000000001,0.1438,0.15360000000000001,0.1716,0.15480000000000002,-0.1208],[0.10840000000000001,-0.1332,0.0262,-0.036,0.145,0.195,0.098,0.0436,-0.18660000000000002,-0.11359999999999999,-0.1386,0.0242,0.0862,-0.1176,-0.1736,0.1378,-0.1916,-0.04580000000000001,-0.16240000000000002,-0.06580000000000001,0.015600000000000001,0.0636,-0.0654,-0.1264,0.1986],[-0.10500000000000001,-0.0252,-0.1896,0.1916,0.044000000000000004,-0.07840000000000001,0.026600000000000002,-0.013200000000000002,-0.1894,-0.1738,0.0502,-0.0566,0.0432,0.1368,-0.0456,0.05500000000000001,-0.14780000000000001,-0.018,-0.1916,-0.1138,0.1014,-0.0006000000000000001,0.0484,-0.1452,-0.18680000000000002],[-0.013800000000000002,-0.1758,0.10860000000000002,-0.15700000000000003,-0.1416,-0.045200000000000004,-0.032600000000000004,0.1894,0.1194,-0.09960000000000001,0.1532,0.0126,-0.1936,0.0022,0.062400000000000004,0.1584,0.06620000000000001,0.0708,0.07600000000000001,-0.1522,0.11499999999999999,-0.0292,-0.05600000000000001,0.0256,-0.0994],[-0.0176,0.0048000000000000004,0.014199999999999999,-0.053200000000000004,-0.17620000000000002,0.09280000000000001,-0.10900000000000001,-0.18500000000000003,0.0022,0.0422,-0.1318,-0.1996,-0.1774,0.0014000000000000002,-0.074,0.008,0.0994,0.073,0.11100000000000002,-0.030600000000000002,-0.18700000000000003,-0.018600000000000002,-0.1666,0.083,-0.0688],[0.026000000000000002,0.191,0.15940000000000001,-0.1758,-0.08860000000000001,0.0478,0.16160000000000002,-0.0282,-0.17520000000000002,-0.1584,-0.0666,0.027000000000000003,0.12940000000000002,0.0304,-0.12240000000000001,0.191,0.0488,0.12440000000000001,0.18580000000000002,0.056799999999999996,-0.1496,0.1068,-0.06,-0.09240000000000001,0.0198],[-0.0964,0.1226,-0.0416,0.15980000000000003,-0.1384,-0.05360000000000001,-0.1622,0.0178,-0.074,-0.06820000000000001,0.1804,0.13460000000000003,-0.164,0.062400000000000004,-0.0782,0.1178,0.0024000000000000002,0.149,-0.13060000000000002,-0.1024,0.0582,0.064,0.10460000000000001,-0.0522,0.1168],[-0.0862,0.08960000000000001,0.15300000000000002,0.1282,-0.13260000000000002,-0.0208,0.0036,-0.0644,-0.09720000000000001,-0.09240000000000001,-0.0092,-0.1432,0.020000000000000004,-0.15480000000000002,0.0584,-0.0146,0.17120000000000002,0.1228,-0.067,0.07540000000000001,-0.0748,0.1756,-0.0864,0.0356,0.040600000000000004],[-0.026800000000000004,-0.0908,-0.09260000000000002,-0.0946,0.1494,-0.037,0.16200000000000003,0.194,0.1998,0.019200000000000002,0.074,-0.0608,0.1432,0.0322,-0.0944,0.0174,0.0052,0.14780000000000001,0.19820000000000002,-0.016,-0.1634,0.1664,0.015,-0.1738,0.0114],[0.022600000000000002,-0.03,0.0822,0.1824,0.0842,-0.06580000000000001,0.0952,-0.07640000000000001,-0.096,-0.1602,-0.0902,-0.1014,-0.1966,0.08960000000000001,0.17820000000000003,-0.191,0.045200000000000004,-0.0026,-0.1876,0.141,0.010000000000000002,-0.09920000000000001,-0.1018,-0.1456,0.020000000000000004],[-0.1438,0.0484,0.0862,-0.1138,-0.0422,0.12940000000000002,-0.052000000000000005,0.0474,0.1998,-0.0166,0.1898,-0.07500000000000001,0.1414,-0.0702,0.0286,-0.11259999999999999,-0.1148,-0.0346,-0.0964,-0.18480000000000002,-0.18180000000000002,-0.031200000000000002,0,-0.13640000000000002,0.13640000000000002],[-0.09920000000000001,-0.0626,-0.05160000000000001,0.1946,-0.192,0.10300000000000001,-0.1462,-0.0944,-0.07840000000000001,0.08560000000000001,0.1836,-0.144,-0.1912,0.0408,-0.0198,0.1824,-0.0414,-0.1896,0.1464,-0.0092,0.0144,-0.09000000000000001,-0.06380000000000001,0.1854,-0.026600000000000002],[-0.054200000000000005,-0.10020000000000001,0.0988,0.046000000000000006,-0.08040000000000001,0.0362,0.0048000000000000004,0.0206,0.0874,0.0844,-0.1422,0.0884,-0.1048,-0.15100000000000002,-0.0514,-0.047,-0.06420000000000001,0.1232,-0.0948,-0.14980000000000002,0.06680000000000001,-0.0222,0.1544,0.0974,-0.004200000000000001],[0.06820000000000001,-0.0308,0.1922,-0.1664,0.1264,-0.05480000000000001,0.0194,-0.0206,0.1698,-0.0398,0.0374,0.10960000000000002,0.10980000000000001,0.1078,0.1758,-0.126,0.18120000000000003,-0.18580000000000002,0.015,0.1216,0.10540000000000001,0.12380000000000001,0.0708,-0.1542,-0.0328],[0.0294,-0.027200000000000002,-0.11220000000000002,-0.16240000000000002,0.0488,-0.0824,-0.09060000000000001,-0.1176,0.0588,-0.10120000000000001,0.0816,-0.036,0.046400000000000004,0.011600000000000001,-0.1768,0.0026,-0.06720000000000001,-0.045000000000000005,0.085,-0.016200000000000003,-0.17500000000000002,-0.051000000000000004,-0.13140000000000002,-0.08000000000000002,-0.0872]],[[-0.13798875733524343,0.08454907708527618,0.19106570766777184,-0.11417231864175913,-0.0936317970354374,-0.1222671006310698,0.16506179722473194,0.09651831596509663,0.12748365478208637,0.08507896686938528,0.06722792911302074,-0.09912486611507566,0.12052154212576059,-0.09237262483687113,0.10653670009678567,-0.08478557486375442,0.009022211540141436,0.14004120118197508,-0.10542238199795918,0.0930889057967828,0.09525734168772033,0.16926244904347879,0.016845661913512278,0.01555879862377494,-0.12785642807186448],[-0.11040529775901971,-0.11567432969263602,0.12956742440676164,0.19138646921186417,-0.16678374208580354,-0.06726622736930743,0.03956938288305022,0.058441242936243,0.11515843591173043,0.0043607837699589005,-0.19601365487173886,0.031962703452487126,-0.14326053929477864,-0.0780133774357253,-0.15666813089668488,0.02239310835637778,0.10418920867359302,-0.09842030195292188,0.11381154255906424,-0.1436441939661809,0.1927716143600213,-0.12243094356884977,0.03717746396852071,0.004420967912080241,0.0009284274680270956],[-0.12676640355821586,-0.012636494698511946,0.059684929674867784,-0.04855091009934311,0.060593031549842656,0.004148257813413623,-0.13091875591538127,-0.14385398691760723,0.12010184481947964,0.1926974264645354,-0.05775067659060984,-0.1983061861210489,0.18893755361845288,-0.12315119868805481,0.11475183999716632,-0.12316340408072235,0.18724393460033778,-0.03153816767348108,-0.06419809478291041,-0.18649320610227907,-0.020122955256375794,0.1376818584234016,-0.18473396343664925,0.034784167964220236,-0.09024168330585645],[0.03900406787121657,0.06740262560216836,-0.0847965020385909,-0.19619610413965502,0.10260451822916924,0.051002794882232576,0.09020353887942464,-0.16239495976424514,-0.16699668983324614,0.1814033592200409,0.17920389326789352,-0.1429966006724531,0.08700291372192613,0.08900389906430328,-0.10499724488774743,0.19240403457053515,0.09200395309531806,0.12100375439188424,-0.01939558028771132,0.11540325522129148,0.03520358550118357,-0.14979646794106333,-0.11619629228422905,0.14160461663412197,-0.07439731679307865],[0.04497750340375655,0.1139854796013116,0.14538065518269716,-0.14102154532248842,0.1735750127838507,-0.013215456570227253,-0.1722195711066876,0.17597212592466366,0.06478169374569745,-0.14941857753427518,-0.06862153098542328,-0.0894187993412895,-0.005016113790788416,0.16817843695862325,-0.15161523662983709,0.025777687566908354,-0.014221861849736036,-0.07002076295778877,0.18517555761291904,0.15078199761123717,0.10698017106044833,0.07498046661273751,0.12257949517567199,0.010574468573778098,-0.08621483897093442],[-0.16537223313109609,-0.03749843686674003,0.07673595692990247,-0.022539579075237414,0.0017422721928448278,0.1984694274861216,0.18072818916991726,-0.0669568240564246,-0.11482839266552682,0.09736229519763284,0.09706091306840091,0.09815468130247673,0.14684686729584764,-0.16594018730558735,0.16067697730629527,0.03323408857578835,-0.16435044440014457,0.06348727689600128,0.018960974357954186,-0.08101796197482895,-0.07408066137252986,0.18072948395199892,0.03869613775692831,-0.10887640872420541,0.13069062761037592],[0.16499269583177695,0.018995285534152008,0.10099371914763038,-0.07760699530978699,0.12479188718025584,0.18779498157908558,-0.11680635432373904,0.09719094987823422,-0.0050059436529647835,-0.147806031731825,-0.07520699065484565,0.08599389625213633,-0.1846052318065078,0.06979299893726534,-0.09540494701092904,0.006192755625650946,-0.11820709807947884,-0.14080674129254295,-0.14800793592528755,0.11659415500573875,0.06279356196339203,-0.10740634207704079,-0.12880665748207662,0.04759171048677404,-0.06420481789950752],[0.07317711106120399,-0.19806022233072657,-0.13467958193443838,0.1740203641556384,-0.15473613396150393,0.10689721125160082,0.1713101290020028,-0.17286739543316598,0.14936764008056017,-0.12424469464244899,0.10602101604204894,0.03794522010113982,0.16066732834686762,0.19021955850243324,0.09130721163520851,-0.03261451529645147,0.13920597210197427,0.10405593719027587,0.1440886386583845,0.1427814564239793,0.18369840570031196,-0.042688155948207004,-0.07813232584032269,-0.06356087843651774,0.11012529263237512],[0.0709874978917413,-0.13880806946946095,0.048389249440335444,-0.06201197345373068,-0.1668138862287433,0.17439141026881588,-0.023810876316217016,-0.0064154905526015975,-0.10901017339559395,0.02678967584508455,0.15078803451385425,0.06478955257953471,0.10719104502944739,-0.13681198330070743,0.03939153249702047,-0.15941239976265778,0.022587850641529173,-0.06941153866759384,0.06378641655092708,-0.14621000452738683,-0.11781101960253221,0.17818914464572455,0.10518860478577294,0.09618581133558292,-0.03860824651067487],[-0.1384,0.0742,0.1956,-0.017,-0.025800000000000003,-0.1486,0.0942,0.049600000000000005,-0.054000000000000006,0.122,0.024800000000000003,0.0854,0.1268,0.0388,-0.013200000000000002,-0.10460000000000001,-0.0294,0.0724,0.037,-0.1138,-0.014000000000000002,-0.0688,-0.0082,0.018,-0.05260000000000001],[-0.18120000000000003,-0.15580000000000002,0.18100000000000002,0.0594,0.10720000000000002,-0.041,0.0354,0.0818,0.0726,0.12840000000000001,-0.023400000000000004,0.0596,-0.1282,0.1524,-0.1652,0.1976,0.0884,0.1368,-0.1342,0.06720000000000001,-0.17400000000000002,0.17600000000000002,0.11499999999999999,-0.0436,-0.16080000000000003],[0.0714,0.136,-0.121,0.08560000000000001,0.1654,-0.006,0.04000000000000001,-0.122,-0.1666,-0.09140000000000001,-0.16620000000000001,0.1184,0.13140000000000002,-0.1622,0.1196,0.0018,0.0038,0.1962,-0.062200000000000005,-0.19440000000000002,-0.13040000000000002,-0.05,-0.1664,-0.0922,-0.1382],[0.0584,-0.053200000000000004,-0.1744,-0.165,-0.09200000000000001,-0.0728,-0.1902,-0.18660000000000002,0.027000000000000003,-0.08860000000000001,0.0444,0.0064,0.0884,-0.06580000000000001,0.039200000000000006,-0.0618,0.131,-0.06420000000000001,0.1416,-0.0918,-0.1034,0.066,-0.10980000000000001,0.125,-0.08660000000000001],[0.1394,-0.196,-0.021,-0.0342,-0.0286,-0.1318,0.07500000000000001,0.1942,-0.12660000000000002,-0.1264,-0.038200000000000005,-0.10840000000000001,-0.09260000000000002,0.0834,0.15760000000000002,-0.19640000000000002,-0.1926,0.028000000000000004,-0.194,0.0882,-0.1686,-0.1938,-0.1628,0.0724,-0.0456],[-0.18720000000000003,0.1428,0.0122,0.13520000000000001,0.16000000000000003,0.17700000000000002,0.1764,-0.15960000000000002,-0.15940000000000001,-0.1892,-0.1328,0.0816,-0.1584,-0.10520000000000002,-0.0172,0.0222,0.003,-0.1502,0.15460000000000002,0.1408,-0.1458,-0.062200000000000005,-0.016200000000000003,-0.0978,-0.1896],[0.0752,-0.1514,-0.028399999999999998,0.0616,-0.1162,-0.0422,-0.09920000000000001,0.1458,-0.0522,0.027200000000000002,0.0586,-0.11020000000000002,-0.1206,0.1524,-0.0674,-0.10360000000000001,-0.1322,-0.0572,-0.06860000000000001,0.149,-0.0578,-0.1526,0.1922,0.0286,0.15380000000000002],[-0.14980000000000002,0.0534,-0.008,0.1274,0.118,0.0488,-0.16140000000000002,-0.0966,0.05500000000000001,0.0396,-0.0822,0.1738,0.1386,0.007000000000000001,0.0594,-0.0766,0.012400000000000001,0.0978,0.1308,-0.1814,0.16180000000000003,0.13160000000000002,-0.0118,0.0756,0.15500000000000003],[-0.17400000000000002,0.15200000000000002,-0.16000000000000003,0.071,-0.0166,0.1168,-0.07500000000000001,-0.10800000000000001,0.051800000000000006,0.020200000000000003,-0.0594,-0.033600000000000005,-0.1734,-0.145,0.0492,0.0786,-0.062,-0.1884,0.10200000000000001,-0.0722,0.13040000000000002,-0.024,-0.023400000000000004,0.19440000000000002,-0.10900000000000001],[-0.1904,0.0292,-0.013600000000000001,-0.10460000000000001,0.1876,-0.19540000000000002,0.1794,-0.123,-0.16240000000000002,-0.1696,-0.10940000000000001,-0.08700000000000001,-0.0534,-0.10500000000000001,-0.034,0.041,-0.0524,-0.18120000000000003,0.0978,-0.1898,0.1634,-0.05380000000000001,-0.1688,-0.034999999999999996,-0.1044],[-0.0702,-0.10960000000000002,-0.0154,-0.08000000000000002,-0.1768,-0.171,-0.0848,-0.0822,-0.1584,0.07900000000000001,-0.11160000000000002,0.0828,-0.1404,0.1806,0.144,0.1524,0.0088,-0.1688,0.053000000000000005,0.1756,-0.063,-0.025400000000000002,-0.0246,-0.10220000000000001,0.034],[-0.121,-0.1414,-0.148,-0.17420000000000002,0.13340000000000002,-0.1162,0.148,-0.15800000000000003,-0.19540000000000002,0.08660000000000001,-0.1758,0.1774,-0.0524,0.0034000000000000002,-0.143,-0.009600000000000001,-0.1534,0.09260000000000002,-0.0958,-0.1196,-0.08800000000000001,0.1674,0.1348,-0.1694,-0.0618],[-0.16200000000000003,0.053000000000000005,-0.1834,0.06780000000000001,0.0416,0.097,0.0358,0.15000000000000002,-0.0374,-0.12660000000000002,-0.053000000000000005,-0.1146,0.053000000000000005,-0.167,0.1408,0.0514,-0.189,0.038200000000000005,-0.1804,0.074,-0.11220000000000002,-0.0732,-0.0444,-0.0154,-0.18320000000000003],[-0.16200000000000003,-0.0222,-0.10660000000000001,-0.0194,0.016200000000000003,-0.007000000000000001,-0.0152,0.1252,-0.18420000000000003,-0.0654,0.0978,0.129,-0.0854,0.017,-0.0412,0.033,0.1134,-0.094,0.12960000000000002,0.0922,0.1694,-0.13240000000000002,0.1198,0.121,0.13660000000000003],[0.1962,0.10980000000000001,-0.012400000000000001,-0.0034000000000000002,0.13720000000000002,0.013600000000000001,0.121,0.1758,0.0868,-0.08760000000000001,-0.023400000000000004,0.12240000000000001,0.0762,0.1252,0.1496,-0.08080000000000001,-0.0302,-0.192,-0.0596,-0.15380000000000002,-0.021400000000000002,0.053200000000000004,0.15760000000000002,-0.1218,0.1142],[0.1652,0.0748,-0.15760000000000002,0.164,0.1562,0.0776,0.1308,-0.1768,-0.07940000000000001,-0.1698,-0.011000000000000001,-0.10560000000000001,0.0728,-0.18320000000000003,-0.119,-0.10560000000000001,0.1626,0.1378,0.1288,0.18700000000000003,-0.1406,0.0436,0.0618,-0.17920000000000003,-0.1128]],[[0.07695370267652109,-0.17457255007877243,0.13325560761630548,0.13196563457451882,-0.14386980178805914,-0.11042559959207912,0.05362830432141443,0.013110963803051552,0.1324085105271599,0.17678951921897829,-0.11585464313476462,-0.08393344147533975,0.023084867320498137,-0.09409430032130103,0.13306069214830185,-0.1953740707495261,0.03913514328461908,0.02424844861109423,0.07292793564114124,0.01747168293439189,0.1641137001996719,0.15928517409386858,0.16115776169170937,0.15312756508024467,0.15540265797497016],[-0.12814201090788488,-0.10431854468341116,-0.17090958496164813,-0.1057382142020157,-0.09214948998109186,-0.01473542493151303,-0.17731827281499554,-0.06615561033119324,0.13147542883960853,0.01926938584366183,0.018855333471802477,-0.035906100404704086,-0.1853002745828082,-0.19729364576845987,0.043492032926174616,-0.046119028557776866,-0.03954791646894279,-0.11331186294266236,-0.09488657033007385,-0.10590446982786646,-0.16669110001882806,0.06389982303185936,0.12245928066255861,0.038849672161715004,-0.033326433430690215],[-0.12574828022207826,-0.012422923486217693,-0.027651423293629088,0.0006396429089150126,-0.035724490181309965,-0.08176922942822298,-0.055223788267255706,0.1100949779231461,-0.15440375398097503,0.06121546806913136,0.19166016698972926,-0.13406250725409632,0.1889189615005773,-0.1891021239680666,-0.11105656960202802,-0.19762138433951212,0.060070504664021855,-0.18204417730743552,-0.17272463009456093,-0.1606676939247398,0.17908977830567108,-0.10328134900004969,0.1220476114462268,-0.04852182505740606,0.03820216967896278],[-0.12913769294222818,-0.1787479887105304,0.01424808022593495,-0.09073935874083096,0.16066558848913037,0.16245941747121545,0.05045189200763885,0.07706827378290837,0.1722546553965665,-0.07774269324866667,0.1176634722069192,-0.0031534486178282093,-0.01895600468782906,-0.019758913069478818,0.0022473703802509772,0.03125222358857048,0.14986489811320194,0.056849079686446626,0.10983798259329214,-0.0801541640307971,-0.11676003001304142,-0.1569560475161077,0.03546174038331395,-0.01673404390237171,-0.18174452753533069],[0.10451441867065141,0.1475285603356486,0.001533959814537171,0.09131670671415643,0.06150991148851389,-0.1010816123623069,0.15472872417419287,-0.09189377687391938,0.1681249285448309,0.0793212867990378,-0.1362871817100517,0.09233605974488691,0.11293957061309996,-0.09705643460401764,-0.019065065182960077,-0.18087173126597608,-0.14308914025150052,0.1357325870140507,-0.10825217066801571,-0.16026295760571352,0.09394509956431438,0.08933962943951786,0.12991519702153406,-0.018290593437012337,-0.1330761937321135],[0.12117434015143128,0.15290906506391802,-0.07036313243907642,-0.006771503201374896,-0.08693234220505494,0.16906828327241225,0.13351294302612404,-0.08381964357960574,0.13122310270631288,-0.051863095279719086,-0.14546353992074434,-0.03791342831988806,0.19536967187062024,0.09846422603740189,-0.14734005470194478,-0.18769783697543233,0.08189010255238707,0.13940437417893542,0.011565150900590555,-0.18409016958519506,0.18990053890160682,-0.07742893574258652,0.03759276326010577,0.021255706504017674,-0.04780346093043507],[0.05698908361361426,0.07099088746359442,-0.021008423802095447,-0.08061062453339446,-0.07681149130315905,0.0865895898779842,-0.18740909163786537,0.13418803822518835,0.06019042420797383,0.11338995968253938,-0.08341112052406684,-0.13360815594400943,0.1257922918872437,-0.14820719855542874,0.14819170056503145,0.18039085026814503,0.18698862965280738,-0.0686085989106227,0.0011933453339134131,0.10979196939852279,-0.007807002863513001,0.1331922993908886,0.17278918289670608,-0.02881155570928806,-0.04360971894484759],[0.1491253368366433,0.061902916766245736,-0.10662928081578468,0.11255406829115241,0.037468739180932825,-0.1830248239903878,0.10010497412209184,0.061022423620397614,0.026057311587657218,0.1390115814023008,0.0919052405118723,0.13279708846136548,0.02704117518879421,0.09269133853682815,-0.05881703749960968,0.07369925506191415,0.1596806466855667,0.10855348063318208,0.16114488169848598,0.06780942780126922,0.04891060341861202,-0.1375580861152214,-0.06146488924388005,-0.19493760127752238,0.06504321891463616],[-0.053934899933974954,-0.11034565722568833,-0.09314976450510105,-0.0727366404045236,0.07666852859251526,-0.17873791905062617,-0.11354578185450782,0.016071334258654785,0.04245710540751474,-0.1597401243867245,0.10186631744474804,0.04304863811839807,-0.16535403253131273,-0.07375707128557585,0.08684949382930685,-0.16274543540995864,-0.026532192730560004,0.13825127975774212,-0.18856031477942392,0.08484789063595907,0.13024176170217433,0.19024592272056617,0.18726450798952618,0.061668912679621,0.03985795910193307],[0.15700000000000003,0.0362,-0.1894,0.05560000000000001,-0.16100000000000003,0.1786,-0.046200000000000005,-0.13720000000000002,0.0206,-0.19,0.0068000000000000005,-0.10620000000000002,-0.18660000000000002,0.0888,-0.0512,0.1432,-0.027800000000000005,0.1442,-0.0862,0.05,-0.0012000000000000001,0.18380000000000002,0.17520000000000002,0.0368,0.0122],[-0.046000000000000006,0.07900000000000001,0.0172,0.15980000000000003,-0.040400000000000005,-0.13,-0.18020000000000003,0.0956,-0.0942,0.0932,-0.08560000000000001,-0.06620000000000001,0.1948,-0.1748,0.1048,-0.020000000000000004,-0.0948,0.053000000000000005,0.15100000000000002,0.0786,0.1738,-0.10740000000000001,0.043800000000000006,0.0354,-0.060200000000000004],[0.15600000000000003,0.11220000000000002,0.1634,0.027000000000000003,-0.0004,0.1236,-0.015,-0.0878,-0.10400000000000001,-0.1688,-0.073,-0.053200000000000004,0.025,0.1512,0.1428,-0.1678,0.10400000000000001,0.18480000000000002,0.15080000000000002,-0.165,-0.0184,0.0704,0.1726,-0.0024000000000000002,0.0762],[0.0724,0.0166,0.068,0.1302,0.1824,0.0732,0.1472,-0.1378,0.0868,0.0504,0.0172,-0.0246,0.09340000000000001,0.020200000000000003,0.001,-0.001,0.18280000000000002,-0.0022,0.064,-0.1904,0.0592,0.019000000000000003,-0.0872,0.061,0.1414],[-0.09280000000000001,-0.13240000000000002,-0.03900000000000001,-0.09860000000000001,0.0058000000000000005,-0.0158,0.195,0.0618,-0.083,0.15180000000000002,-0.1184,-0.11060000000000002,0.1874,-0.08460000000000001,-0.0104,0.12840000000000001,0.18400000000000002,-0.1504,0.0706,-0.0104,0.0832,-0.12,0.027800000000000005,-0.0144,-0.10800000000000001],[-0.016800000000000002,0.1278,-0.0436,0.0616,0.1384,-0.1602,-0.1718,0.09360000000000002,-0.0964,0.1246,0.1188,-0.0978,0.011200000000000002,-0.10060000000000001,-0.0046,-0.034999999999999996,0.011000000000000001,-0.169,-0.048600000000000004,-0.0054,0.1436,-0.11240000000000001,-0.0938,-0.1658,-0.12660000000000002],[0.11399999999999999,-0.009600000000000001,-0.0854,0.032,-0.1874,0.0776,-0.15960000000000002,0.018600000000000002,-0.0822,-0.034999999999999996,0.1166,0.16040000000000001,-0.06720000000000001,0.0712,0.0166,-0.1048,0.0746,-0.0666,0.0222,0.1622,-0.05,0.1978,0.1952,0.0976,-0.1312],[0.032,0.025800000000000003,0.167,0.10500000000000001,0.0702,-0.16720000000000002,0.1408,0.1034,-0.18560000000000001,-0.118,0.06899999999999999,-0.1318,-0.011000000000000001,-0.0908,-0.17220000000000002,0.15500000000000003,-0.0046,0.11699999999999999,-0.0848,0.0154,-0.008,0.12960000000000002,-0.037200000000000004,0.1394,0.1826],[0.0026,0.0974,-0.1452,-0.119,-0.0732,-0.0674,0.08080000000000001,0.0374,-0.0746,-0.0024000000000000002,0.1582,0.07640000000000001,-0.0736,-0.0358,0.18120000000000003,-0.0698,-0.0868,-0.13540000000000002,-0.1402,-0.1384,0.07880000000000001,0.08460000000000001,0.004,-0.052000000000000005,0.0206],[-0.0796,0.1766,0.0578,0.1034,0.1482,0.08560000000000001,0.0484,-0.0048000000000000004,0.08020000000000001,-0.1678,0.1664,0.1328,0.007000000000000001,0.19540000000000002,0.06760000000000001,-0.14880000000000002,0.067,0.0122,-0.1638,-0.07880000000000001,0.1636,-0.1298,-0.1916,0.0596,-0.046400000000000004],[0.006200000000000001,0.1678,-0.17400000000000002,0.056799999999999996,-0.022000000000000002,0.04000000000000001,-0.072,-0.1714,0.0584,-0.17720000000000002,0.0828,0.13460000000000003,0.0434,0.041,0.1638,0.1472,0.06899999999999999,-0.1562,0.062200000000000005,-0.0716,0.1272,-0.0872,0.1262,-0.043800000000000006,-0.0656],[-0.1206,0.0952,0.1422,-0.13640000000000002,0.0014000000000000002,0.0022,-0.1688,-0.037200000000000004,-0.0946,0.1844,-0.0346,-0.1348,0.194,-0.0092,-0.17820000000000003,-0.095,0.1308,-0.16000000000000003,-0.122,-0.15500000000000003,-0.05380000000000001,0.141,-0.0524,-0.1048,0.1926],[-0.063,0.0038,-0.15760000000000002,-0.0174,-0.027200000000000002,0.0296,0.04680000000000001,0.056999999999999995,-0.1152,0.1268,-0.08860000000000001,-0.0726,-0.047,0.0378,-0.123,-0.0688,0.10220000000000001,-0.063,-0.1398,0.18480000000000002,-0.17620000000000002,0.0256,-0.1926,0.0598,-0.122],[-0.045000000000000005,-0.11120000000000002,-0.0574,-0.1892,-0.13899999999999998,0.1754,0.033,0.11359999999999999,0.0512,-0.0036,-0.023200000000000002,-0.06,0.0762,-0.07780000000000001,-0.013000000000000001,0.127,0.10640000000000001,-0.1806,-0.0626,-0.13540000000000002,-0.1794,-0.0014000000000000002,-0.0474,0.0228,-0.1632],[-0.0646,0.07900000000000001,-0.095,0.0656,0.0726,0.1406,0.15600000000000003,-0.05580000000000001,0.0286,-0.1962,-0.1968,-0.1394,0.0832,-0.1836,-0.1376,0.0948,-0.146,-0.067,0.10120000000000001,-0.12040000000000001,-0.131,0.09920000000000001,0.13740000000000002,-0.19740000000000002,0.129],[-0.15180000000000002,0.1018,0.0492,0.12660000000000002,0.09920000000000001,-0.0772,-0.165,0.0574,0.0598,-0.0604,0.131,0.044800000000000006,-0.10520000000000002,-0.16200000000000003,-0.036,0.1178,0.068,0.09000000000000001,0.171,-0.06899999999999999,-0.13440000000000002,0.074,0.15940000000000001,0.15460000000000002,0.1552]],[[0.1743864546749312,-0.0049527827803886445,0.10657660301769437,-0.07833135828783408,-0.005136079289040715,-0.13154840674515897,0.02920061031339358,-0.05122326001467515,0.08711208977107983,0.1474777593102688,0.12948100372461513,0.04840346796640694,0.1271615228488945,-0.008496239916480314,-0.1958404620410387,0.037044726774487,0.06802661488242139,0.11253998533452565,0.13362243412506172,-0.1709337170352692,-0.03823880688591855,0.12557921427460655,0.06357438831100895,-0.01563881099161806,0.07859085726617122],[0.16860721522736932,-0.08448085319688158,-0.07025700436728761,0.10117945785572689,-0.15421894770080094,0.18878521570248494,-0.08859756561558181,0.02941049621009927,-0.1230352160388311,-0.03642362146879366,0.08657528278158691,0.1952014692573205,-0.06778436444280364,-0.09663240281863175,0.06454875908633342,-0.11981246525240191,-0.14540634824738352,0.0337553626759177,-0.17460493626272408,-0.18361974551464186,0.09134820008387586,-0.16085788627800013,-0.11785625638514086,0.1295482014705109,-0.19719427167817385],[0.011149879763305939,0.14826117002841835,-0.04440648792859201,-0.13280415158052628,0.1570046963130657,0.1774277998911458,0.0875233498859855,0.005568086608878161,0.17731441997130748,-0.011221239383366756,0.13917268007743236,0.07791799419792735,0.02399660589917634,-0.16386996889326585,-0.030174505343288267,-0.19075933125225691,0.18107461326220764,0.15806213932865276,0.055682448654454555,0.040000269080558704,-0.07117760736248716,-0.14521138183187418,-0.14540233722236842,-0.15617759966776507,0.09734162861972095],[-0.0717114416905884,-0.06746407792195724,-0.08967690397688693,-0.14149651359644497,0.060102628901534824,0.08730038979629788,0.17749112947769724,0.13148679377566158,-0.16208862188096723,-0.023294857515785274,-0.1986942682145471,0.07849164852929767,0.08208402980152561,-0.04029013484900046,-0.10388000359955128,0.04209914259882479,-0.026304147166069637,-0.17508355505277493,0.02889509345944071,0.058703057970982735,-0.15767970296441117,-0.011476429679597106,-0.08167730624652715,-0.18247970371015249,0.1836893579768375],[-0.0024407924956075626,0.15192153904553282,-0.040814100604847955,0.14148429925212874,-0.06591139785581888,0.1050998378356447,0.010746305541107554,-0.19463193817448618,0.05384469911241095,0.043675989141900795,0.02127303206476943,0.16154370097230927,-0.1120180687233804,0.154652291092339,-0.14459854689020538,-0.1326939038046452,0.10612260403193674,-0.1317807259177878,-0.04247358547388452,-0.08791355089974627,0.0871999445412728,-0.12881648059928608,0.010987917959303551,0.02479994828335653,-0.14184480517724593],[0.16467519256558344,-0.16359174802168072,0.1180097403191714,-0.012893762054322942,0.08329296619924464,0.1776583110774608,0.14911498709984408,0.07924788249056312,-0.026971620246760083,0.17713186946848286,-0.021059009787284907,0.1015230205750594,0.10080510385796143,-0.02279503678412588,0.0005617667808380045,-0.1661609920707811,-0.03821190848202204,0.16350680016205524,-0.07602366148718862,0.02529960700099247,0.1403664197766961,0.1730170811221265,0.03380351430391226,-0.05763359176530538,0.12248756919334225],[-0.06242172034767136,0.03601750723550535,0.16966104422398723,0.08232760746463397,0.013930518184709764,0.09613811864326428,-0.18183044796693154,0.17198426921700563,-0.1270991803144408,-0.10847801396494836,0.040119985700470345,0.12176779015510415,0.1611936512998659,-0.04209404466889759,-0.04532843436183076,0.17014235215250137,-0.13724648101115638,-0.0359163792459796,-0.006843903376911814,-0.08787093825623908,0.026070545156914145,-0.057340565739150834,-0.06193759030480677,-0.05952945231172832,-0.09842443475297374],[0.13469702999944158,0.09485080452775282,0.09790084301235719,-0.18952843156048532,0.0020615425739534776,-0.060964636918985314,0.08712709195493477,-0.1335236008302699,0.01696383793458573,-0.134709068758228,0.04269782131882078,-0.06746683932284331,0.176444082939041,-0.15485385160286397,0.19446460239788524,-0.19417921908194083,0.13998231717128998,-0.04817692099416247,0.09477343860731649,0.18726655922989108,-0.07533188259290573,0.14450638846968744,0.16589613969826902,0.17366810868792867,0.16390637966616728],[-0.06766223676377615,-0.10418077989881891,0.053343001900758975,-0.0015735272987393244,0.18282137703769172,-0.1959919287350227,0.0975530422772686,-0.14207272241877686,0.11127336883224215,0.029836313879107467,-0.12076018422727643,0.17495612671586872,-0.09688914719910169,-0.14973562190586262,-0.04427541745443331,-0.14939934014464867,0.06778111058931127,0.14430347820950457,-0.06102340195623489,-0.04237607323822282,0.14112636905509665,0.14374582038906988,-0.046259388566787824,0.04692636462356559,-0.09105748477943872],[0.0194,-0.042800000000000005,0.1254,0.0364,0.199,0.053000000000000005,0.0218,0.05460000000000001,0.16240000000000002,0.0308,0.07800000000000001,0.1626,0.17600000000000002,0.0172,0.049,-0.131,-0.18480000000000002,-0.165,-0.1408,0.0948,-0.039200000000000006,-0.0208,0.1216,0.12040000000000001,0.1592],[-0.0188,-0.10200000000000001,-0.1736,0.047,-0.1398,0.027600000000000003,-0.0158,0.1936,0.12560000000000002,0.17120000000000002,0.10960000000000002,-0.0208,0.1674,-0.1486,-0.07440000000000001,-0.10060000000000001,0.1312,-0.19540000000000002,-0.1996,0.0932,-0.1874,-0.1128,0.19720000000000001,0.10860000000000002,0.0346],[-0.1958,0.196,-0.09820000000000001,-0.0932,-0.09960000000000001,0.0072,-0.0872,0.0482,0.1418,-0.0348,-0.0106,-0.148,-0.004,-0.11100000000000002,-0.017,-0.049600000000000005,0.1524,0.0396,-0.062,-0.07880000000000001,-0.005000000000000001,-0.0932,0.192,-0.019000000000000003,-0.14980000000000002],[0.027600000000000003,-0.1008,0.0636,-0.12760000000000002,0.0968,-0.054200000000000005,0.099,0.137,-0.0946,-0.163,-0.018600000000000002,-0.1646,0.10300000000000001,0.11220000000000002,-0.1656,-0.009,0.06480000000000001,0.13340000000000002,0.1156,0.0534,-0.053200000000000004,-0.0958,-0.18560000000000001,0.0864,-0.0816],[-0.1976,0.0118,0.1406,-0.19940000000000002,0.0688,0.167,0.027000000000000003,0.0522,-0.08900000000000001,0.131,0.047,-0.09340000000000001,0.11399999999999999,-0.1698,-0.1632,-0.0674,-0.0722,-0.1462,-0.0588,-0.131,0.0864,-0.015600000000000001,0.026600000000000002,-0.0974,-0.018],[0.046200000000000005,0.08360000000000001,-0.1776,0.0376,-0.1208,-0.17,0.1584,0.1416,-0.18400000000000002,-0.06760000000000001,-0.1486,-0.1268,0.1814,0.05280000000000001,0.021,0.0446,-0.1322,-0.09280000000000001,-0.10960000000000002,0.027400000000000004,0.0358,-0.1216,-0.0954,-0.1308,-0.0414],[0.1542,-0.15280000000000002,-0.171,-0.0636,-0.0016,0.0144,-0.0044,0.065,0.18320000000000003,0.0188,0.013800000000000002,0.1912,0.034999999999999996,0.1514,0.10980000000000001,-0.143,-0.0758,-0.10920000000000002,0.021400000000000002,0.040600000000000004,-0.1514,0.0684,-0.1544,0.1182,0.0524],[-0.0664,0.123,0.1912,0.061200000000000004,-0.1152,-0.0296,0.065,-0.10360000000000001,-0.10060000000000001,-0.005000000000000001,0.0238,0.1378,0.13999999999999999,0.1666,-0.1942,0.1432,-0.1592,0.05480000000000001,0.0822,0.119,0.188,-0.1946,-0.12440000000000001,0.06820000000000001,-0.131],[-0.1412,-0.009,0.1754,-0.145,-0.011000000000000001,0.0444,-0.1724,0.10660000000000001,-0.066,-0.1996,0.1388,0.133,-0.0576,0.13620000000000002,0.1388,0.0332,-0.10020000000000001,0.1494,-0.1236,0.06760000000000001,-0.08080000000000001,-0.10500000000000001,-0.1482,0.0714,-0.1582],[0.0834,0.13340000000000002,-0.18560000000000001,0.10500000000000001,-0.002,-0.0388,-0.18080000000000002,-0.1188,-0.1044,-0.1412,-0.1024,0.037,-0.006,0.1158,-0.049800000000000004,-0.1592,0.051800000000000006,-0.0442,0.027800000000000005,-0.08700000000000001,0.054200000000000005,0.0082,0.0218,0.0762,0.0572],[-0.1926,0.12860000000000002,0.16620000000000001,-0.1902,-0.030600000000000002,-0.0104,0.06899999999999999,-0.1918,0.08020000000000001,0.1246,0.13040000000000002,0.0302,-0.1486,0.009,-0.06999999999999999,-0.1892,-0.1766,0.1432,-0.1172,0.17720000000000002,-0.169,0.129,-0.18020000000000003,0.022600000000000002,0.013000000000000001],[-0.1754,0.1654,-0.10840000000000001,0.0328,0.1394,0.0614,0.1164,0.09000000000000001,0.0892,0.0362,0.0984,0.0756,-0.1634,0.0172,0.0434,-0.0918,0.196,0.0576,-0.033800000000000004,-0.0706,-0.15600000000000003,-0.12440000000000001,-0.16040000000000001,-0.19820000000000002,-0.1406],[-0.07880000000000001,0.1522,-0.1904,0.07740000000000001,-0.15960000000000002,-0.0436,0.15460000000000002,-0.19740000000000002,-0.0862,0.05600000000000001,-0.15700000000000003,-0.15500000000000003,-0.0016,-0.195,0.040600000000000004,0.09960000000000001,-0.1274,-0.19,-0.1448,0.0016,-0.09100000000000001,0.09860000000000001,-0.1034,-0.04000000000000001,0.1602],[0.041,0.10560000000000001,0.1506,-0.1506,-0.10500000000000001,-0.0636,-0.135,-0.1194,-0.0758,0.136,0.010000000000000002,-0.1874,-0.0172,0.0616,-0.122,0.10860000000000002,-0.101,0.022600000000000002,0.0368,-0.0706,-0.04000000000000001,0.0354,0.1164,0.1988,-0.18680000000000002],[0.05620000000000001,-0.1638,-0.1506,0.1816,-0.1156,0.0424,0.008400000000000001,-0.0828,0.15980000000000003,0.05500000000000001,-0.16100000000000003,0.08600000000000001,-0.0736,0.05500000000000001,-0.15200000000000002,-0.0038,-0.10920000000000002,0.1164,-0.1922,-0.134,0.0884,-0.1422,-0.06780000000000001,0.124,-0.0094],[-0.1902,-0.13040000000000002,0.0756,-0.1338,0.0444,-0.1736,-0.0342,-0.0386,0.0208,-0.19340000000000002,-0.0722,0.0704,-0.0826,0.0304,-0.1876,-0.16060000000000002,-0.163,0.010000000000000002,0.10400000000000001,-0.1738,0.15360000000000001,-0.0832,-0.0104,0.1506,-0.027800000000000005]],[[0.2133766434212639,-0.05892021783166298,-0.0037339042470361473,-0.025464106613186765,0.10349875294319931,-0.1369207788118401,-0.11882931710392308,0.1920400655395987,0.001120059809042239],[0.19298013107784964,0.21116988486970018,-0.03942391042762653,0.028786792434151554,-0.15754214780964493,-0.10126981393454004,-0.23943079508868362,0.18352735111068896,-0.1716359166037624],[-0.18849114705051304,-0.19537334755434965,-0.07869498675393727,-0.1868585432377803,-0.05934061958810461,-0.08107431384128244,0.037776455041654194,0.14766876670050744,0.1584321690256957],[0.23502140304557953,-0.08216372136390629,0.14451074213378887,-0.22090318182899343,-0.038823802880633106,-0.048330319256222824,-0.13406015785787445,0.16299475874153868,-0.007564838680964203],[0.23754032430666133,-0.12740307691607808,-0.2215107132180006,-0.17593170573183695,0.0686011934986601,0.22059493733726707,-0.10394152168779469,0.1342144941099084,0.19183400279055732],[-0.03397536012411015,0.13227909864295095,-0.08778761826546441,-0.19657202160580295,-0.11573811512269803,0.15092939392542246,-0.15170184907402903,0.047024639201970045,-0.22921463210855705],[0.03520444790399356,0.05650984809944125,0.014284251366812006,-0.13702069217505203,0.07077312798153229,-0.10138592069425811,0.08299423486138752,-0.21266108657482724,0.03703500112082727],[0.23324353925108243,0.07621597223748357,-0.14046973293787018,0.053440386741524695,-0.23753396061831114,0.04585061178866288,-0.020535892852173165,-0.20599526396000298,-0.170807002818522],[-0.057211275432975925,-0.1280933765351891,-0.021515644206739733,0.13240148617367833,-0.21266118345416124,0.05636863866748066,0.08436643693076441,-0.08753472931615872,0.05051838271058754],[-0.21270374315686402,0.1610436550241251,0.226528273783935,-0.17535325690126874,-0.03444005875515928,-0.01819017187772497,0.08197704126228054,-0.00970142500145332,0.22289023940839],[-0.214886563782191,0.20761049503110102,-0.12757373876911116,-0.04074598500610394,0.18287186127739505,-0.11156638751671318,0.09822692813971486,-0.14527883939676345,-0.19330089315395738],[-0.019887921252979304,0.07276068751089988,-0.06257419125937391,-0.11447681501714915,0.008003675626198989,0.18990539440344872,0.06596969000988258,0.07082040251060923,0.16274140439937942],[0.18917778752833972,0.10040974876504184,-0.23040884378451632,0.1370326281455281,-0.0007276068751089989,0.17195775815076006,-0.046324304381939595,-0.00242535625036333,0.202517246905338],[0.1309692375196198,-0.10356271189051418,-0.18990539440344872,-0.1794763625268864,0.08440239751264386,-0.22846855878422564,-0.1299990950194745,-0.005578319375835659,0.16904733065032407],[0.07712632876155388,0.1780211487766684,-0.08513000438775287,0.15692054939850744,-0.15934590564887077,-0.16492422502470644,0.15134223002267178,0.225073060033717,-0.10598806814087751],[-0.034925130005231945,0.1661369031498881,0.20106203315512003,-0.11787231376765782,0.03686541500552261,0.17123015127565105,-0.24180801816122396,-0.13218191564480147,-0.1343647362701285],[0.21270374315686402,0.10016721314000551,-0.13630502127041913,-0.15134223002267178,-0.11957006314291216,0.06305926250944657,-0.012854388126925647,0.05263023063288425,-0.07106293813564556],[-0.06621222563491891,0.0213431350031973,0.18699496690301273,0.2059127456558467,-0.11035370939153151,0.12296556189342081,-0.0676674393851369,-0.0853725400127892,-0.1110813162666405],[-0.045839233131866934,-0.11981259876794849,0.18626736002790373,-0.18917778752833972,0.1787487556517774,0.1302416306445108,0.1110813162666405,0.21876713378277235,0.10550299689080483],[-0.025951311878887627,-0.19233075065381205,0.02667891875399663,-0.19912174815482936,0.23744237691056996,-0.1889352519033034,-0.027891596879178294,-0.23816998378567897,0.11593202876736715],[-0.023768491253560634,0.12611852501889315,0.0426862700063946,0.01139917437670765,-0.17026000877550573,0.13412220064509214,0.09070832376358853,-0.1132641368919675,0.10162242689022351],[0.02692145437903296,-0.12442077564363882,-0.23089391503458898,-0.14552137502179976,0.20809556628117368,0.16080111939908875,-0.21997981190795401,0.12805881001918382,0.016007351252397977],[-0.17050254440054208,-0.04923473188237559,-0.17996143377695906,-0.12442077564363882,0.08585761126286187,-0.15061462314756277,0.23501702066020663,0.24229308941129662,0.008731282501307986],[-0.06524208313477357,-0.16201379752427042,0.014067066252107312,0.03856316438077694,-0.028134132504214624,0.0031529631254723287,0.09919707063986018,-0.07421590126111789,0.214158956907082],[0.1530399793979261,-0.14285348314640012,0.11205145876678584,0.22628573815889869,-0.00242535625036333,0.07494350813622688,0.0853725400127892,-0.0441414837566126,0.10477539001569584]]]}