{"name":"zzz","initialization_type":"xavier","training_iterations":0,"input_dimensions":{"vertical":6,"horizontal":6},"output_dimensions":{"vertical":3,"horizontal":3},"deep_layers":8,"neurons_per_layer":25,"weights":[[[0.0860089587403926,0.01593429130348326,0.10683218033017186,-0.10665110883808682,-0.02154750755811941,-0.0036214298417007415,0.0776796701044809,-0.11986932776029455,0.026617509336500447,0.16839648763908446,-0.18107149208503706,-0.025350008891905192,-0.028066081273180745,0.02154750755811941,-0.17256113195704031,0.16930184509950966,0.09777860572592002,-0.08655217321664771,0.10737539480642697,-0.03820608482994282,-0.034041440511986966,-0.07260966832609987,-0.08274967188286193,0.17020720255993482,-0.1734664894174655],[0.0995893206467704,0.07749859861239586,0.14431397919177455,0.0762310981678006,-0.166042558241979,0.15282433931977127,0.13652790503211795,0.02028000711352415,-0.17563934732248596,0.10284860750430104,0.17075041703618993,-0.052510732704660744,-0.08582788724830756,0.05232966121257571,0.12602575849118577,0.14992719544641067,-0.1685775591311695,-0.13127683176165186,-0.07586895518363053,-0.010864289525102223,0.003440358349615704,-0.14250326427092416,-0.031144296638626372,-0.14033040636590371,-0.13960612039756357],[0.04092215721121838,0.03530894095658223,-0.041103228703303414,-0.1441329076996895,-0.0038025013337857783,-0.06319395073767793,-0.0860089587403926,0.04617323048168445,0.0747825262311203,0.11353182553731823,0.14232219277883915,0.17600149030665602,-0.0018107149208503707,0.1680343446549144,-0.16586148674989395,0.16694791570240416,0.0016296434287653334,-0.17799327671959142,0.06808288102397393,-0.17147470300453008,0.0018107149208503707,0.12059361372863468,-0.13598469055586282,-0.14739219455722016,0.12421504357033543],[0.08184431442243675,0.15065148141475082,0.17672577627499617,-0.11389396852148831,0.019193578161013927,0.11371289702940328,-0.15372969678019646,0.14974612395432566,0.12982825982497156,0.13308754668250225,-0.16097255646359795,-0.0860089587403926,0.05758073448304179,0.1401493348738187,0.17962292014835676,-0.07351502578652505,-0.132001117729992,0.02408250844730993,-0.07858502756490608,0.12964718833288652,-0.08093895696201157,-0.06174537880099764,0.10085682109136565,-0.05015680330755527,-0.10737539480642697],[0.03711965587743259,0.0860089587403926,0.15318648230394136,0.12095575671280476,0.1607914849715129,0.03711965587743259,0.03947358527453808,-0.02571215187607526,0.09741646274174995,-0.16495612928946876,-0.005794287746721186,-0.03331715454364682,-0.17745006224333632,0.02969572470194608,-0.04418144406874904,-0.029333581717776006,0.08166324293035172,-0.023177150986884745,-0.1470300515730501,-0.017563934732248595,0.1587996985585775,0.07242859683401483,0.1352604045875227,-0.17998506313252685,0.16622362973406402],[0.08926824559792328,-0.05758073448304179,0.10520253690140653,0.1294661168408015,0.0805768139778415,-0.11950718477612447,0.15282433931977127,0.012675004445952596,0.12874183087246135,0.0986839631863452,-0.03367929752781689,-0.07315288280235498,0.10085682109136565,-0.11353182553731823,0.0903546745504335,0.09832182020217513,-0.028066081273180745,0.022452865018544595,-0.146486837096795,-0.04436251556083408,-0.1401493348738187,0.10176217855179084,-0.1225854001415701,0.011407504001357335,-0.00796714565174163],[-0.1196882562682095,0.08582788724830756,0.11172111061646786,-0.07152323937358965,0.0566753770226166,-0.17563934732248596,-0.16495612928946876,-0.057761805975126826,0.07605002667571556,0.01484786235097304,0.03730072736951763,-0.01901250666892889,-0.0722475253419298,-0.06409930819810311,-0.15028933843058076,0.013399290414292742,0.17020720255993482,-0.1348982616033526,-0.1441329076996895,-0.023358222478969782,-0.07586895518363053,0.04472465854500415,-0.13363076115875736,-0.1133507540452332,0.14141683531841395],[0.02716072381275556,-0.14829755201764536,0.05414037613342608,0.0894493170900083,0.14630576560470995,-0.10465932242515141,0.039654656766623116,0.15083255290683587,0.12421504357033543,-0.07496359772320534,-0.05866716343555201,-0.045267873021259265,-0.16441291481321366,0.13851969144505336,0.037662870353687705,0.11027253867978756,0.04635430197376949,0.13037147430122667,-0.14232219277883915,0.08039574248575646,-0.1430464787471793,-0.052510732704660744,0.13906290592130846,0.04309501511623882,0.03259286857530667],[-0.04363822959249393,-0.012675004445952596,0.10900503823519231,-0.029514653209861044,0.12439611506242047,0.12747433042786607,-0.12240432864948506,0.08021467099367142,0.14576255112845485,-0.14377076471551944,0.09542467632881453,0.032773940067391705,0.08437931531162728,-0.003259286857530667,-0.015572148319313186,0.08166324293035172,-0.15318648230394136,0.16586148674989395,0.03168751111488148,0.068445024008144,0.02028000711352415,0.07043681042107942,-0.07152323937358965,-0.019374649653098965,-0.1191450417919544],[0.04907037435504505,-0.05160537524423556,0.05323501867300089,-0.042370729147898675,-0.11498039747399853,0.07876609905699113,0.0036214298417007415,0.0307821536544563,0.13906290592130846,0.18107149208503706,-0.14721112306513512,-0.136890048016288,-0.059753592388062236,-0.05884823492763705,-0.05232966121257571,0.09795967721800505,0.09850289169426017,-0.034765726480327115,0.08365502934328713,-0.07876609905699113,0.0776796701044809,0.06102109283265749,0.12675004445952592,0.16531827227363885,-0.06572895162686845],[0.08329288635911705,0.01792607771641867,0.0356710839407523,0.029514653209861044,-0.10683218033017186,0.03241179708322163,0.02842822425735082,0.04146537168747349,-0.0776796701044809,0.008691431620081779,-0.011407504001357335,-0.013399290414292742,-0.15354862528811142,-0.10339182198055616,-0.09977039213885543,-0.13019040280914165,0.013399290414292742,0.11950718477612447,-0.12475825804659052,-0.1309146887774818,-0.0059753592388062235,-0.1674911301786593,0.06808288102397393,-0.0009053574604251854,0.16694791570240416],[0.1640507718290436,0.025350008891905192,-0.025531080383990223,-0.05088108927589542,-0.09741646274174995,0.06681538057937868,0.09216538947128386,0.0036214298417007415,0.17147470300453008,0.0581239489592969,0.0995893206467704,0.042370729147898675,-0.059934663880147274,0.06174537880099764,0.07731752712031083,0.14666790858888004,0.03856822781411289,0.036033226924922376,0.13055254579331171,-0.00742393117548652,0.12095575671280476,0.05613216254636149,-0.11842075582361425,0.11787754134735913,-0.11244539658480801],[-0.04019787124287823,0.043276086608323855,0.0903546745504335,-0.02643643784441541,0.1314579032537369,-0.17654470478291112,0.1504704099226658,-0.1133507540452332,-0.13254433220624712,0.010683218033017186,0.0713421678815046,-0.16875863062325455,0.0923464609633689,-0.10628896585391674,0.08437931531162728,0.07315288280235498,-0.1412357638263289,-0.16133469944776802,0.12457718655450549,0.1348982616033526,-0.17002613106784978,0.003259286857530667,0.10882396674310726,-0.08021467099367142,-0.059753592388062236],[-0.10701325182225689,0.023901436955224894,-0.10846182375893719,-0.10972932420353246,0.11009146718770253,0.13652790503211795,0.06120216432474253,-0.16821541614699945,-0.13326861817458727,-0.14974612395432566,0.11172111061646786,-0.11534254045816861,0.1231286146178252,0.1553593402089618,-0.0845603868037123,-0.1211368282048898,0.017382863240163558,0.1441329076996895,0.16549934376572387,0.13182004623790697,-0.13417397563501246,0.15318648230394136,0.06554788013478341,0.12276647163365513,0.08220645740660683],[-0.044000372576664004,-0.18016613462461187,0.15354862528811142,0.1010378925834507,0.10918610972727734,0.04563001600542934,0.17563934732248596,0.1430464787471793,-0.0405600142270483,-0.06591002311895348,-0.016839648763908446,0.13707111950837306,-0.17871756268793157,0.11389396852148831,-0.11154003912438283,0.17998506313252685,-0.0405600142270483,-0.07007466743690935,0.03820608482994282,0.12367182909408032,-0.06772073803980386,-0.02028000711352415,0.010864289525102223,-0.03313608305156178,0.11787754134735913],[-0.059753592388062236,-0.15083255290683587,-0.053053947180915856,-0.0019917864129354074,-0.08274967188286193,0.10266753601221601,-0.08130109994618165,-0.011226432509272298,-0.015210005335143113,-0.02353929397105482,-0.16042934198734285,-0.042370729147898675,-0.14521933665219974,-0.14739219455722016,-0.05540787657802134,-0.09886503467843025,-0.047259659434194676,0.0595725208959772,0.01539107682722815,0.03585215543283734,0.17708791925916625,0.09940824915468535,0.07098002489733453,0.1495650524622406,0.07496359772320534],[0.10411610794889631,-0.013399290414292742,0.09216538947128386,0.12439611506242047,0.13037147430122667,0.044543587052919116,-0.1470300515730501,0.16694791570240416,-0.003983572825870815,0.07749859861239586,0.00742393117548652,-0.018650363684758815,0.11244539658480801,0.17907970567210166,0.15916184154274757,0.10357289347264119,0.1689397021153396,-0.0054321447625511115,-0.17853649119584655,0.1524621963356012,-0.07532574070737541,0.14485719366802965,0.0566753770226166,-0.1778122052275064,-0.0698935959448243],[0.11262646807689305,0.06862609550022905,0.1705693455441049,-0.11407504001357335,-0.14051147785798876,0.09687324826549483,-0.09252753245545393,-0.14250326427092416,0.12602575849118577,-0.1694829165915947,-0.06391823670601808,-0.03748179886160267,-0.10321075048847111,-0.10067574959928062,-0.0356710839407523,-0.06120216432474253,-0.020823221589779263,0.10212432153596089,0.002535000889190519,0.04218965765581364,-0.026074294860245335,-0.014304647874717928,-0.10574575137766164,0.10791860928268208,0.1265689729674409],[-0.13652790503211795,0.06591002311895348,0.15952398452691766,0.02136643606603437,0.1636886288448735,-0.014304647874717928,-0.045267873021259265,-0.042370729147898675,-0.10031360661511055,-0.12294754312574017,-0.05432144762551112,-0.16676684421031915,-0.08474145829579735,-0.026255366352330372,0.10520253690140653,0.1119021821085529,-0.05088108927589542,-0.17038827405201987,0.010321075048847113,-0.01484786235097304,0.0981407487100901,-0.0023539293971054816,0.16984505957576476,-0.13055254579331171,0.0356710839407523],[-0.16386970033695855,-0.13453611861918255,0.018288220700588744,0.10755646629851201,0.10665110883808682,-0.11316968255314816,0.049432517339215123,-0.05540787657802134,-0.18052827760878196,0.09633003378923972,0.04309501511623882,0.036214298417007414,0.05196751822840563,0.12005039925237958,-0.08908717410583823,-0.062288593277252745,0.060658949848487416,-0.008148217143826667,-0.0845603868037123,-0.0019917864129354074,0.0707989534052495,0.10882396674310726,-0.1294661168408015,-0.0048889302862960005,-0.141778978302584],[-0.1348982616033526,0.04472465854500415,0.016296434287653334,0.09596789080506965,-0.03512786946449719,-0.1593429130348326,-0.0664532375952086,0.037662870353687705,0.13109576026956682,0.09325181842379408,0.10447825093306638,0.005613216254636149,0.13363076115875736,-0.0483460883867049,-0.0018107149208503707,-0.1597050560190027,-0.13761433398462816,0.049432517339215123,-0.12928504534871646,0.021185364573949338,0.04617323048168445,0.03929251378245304,0.11154003912438283,-0.05196751822840563,0.07188538235775972],[0.11932611328403943,-0.04581108749751438,0.025893223368160297,-0.08872503112166816,0.10067574959928062,0.17310434643329542,-0.06862609550022905,0.10773753779059704,-0.11099682464812771,-0.015753219811398222,0.051062160767980445,0.12928504534871646,-0.0566753770226166,-0.15282433931977127,0.16042934198734285,-0.028609295749435857,0.0454489445133443,0.0713421678815046,0.15662684065355706,0.11316968255314816,-0.18089042059295202,0.05269180419674578,0.07369609727861008,-0.036757512893262526,0.052510732704660744],[0.15318648230394136,-0.1430464787471793,-0.06681538057937868,0.004164644317955852,-0.08365502934328713,0.028790367241520894,-0.055770019562191415,-0.053053947180915856,-0.008510360127996741,0.1377954054767132,-0.15952398452691766,0.15807541259023736,0.13743326249254312,0.14684898008096506,0.09542467632881453,-0.15028933843058076,-0.08818181664541305,-0.09777860572592002,-0.1435896932234344,-0.0036214298417007415,-0.11280753956897809,0.1544539827485366,0.14847862350973037,0.013037147430122667,0.17002613106784978],[0.06446145118227319,0.07098002489733453,0.00742393117548652,0.016296434287653334,0.12638790147535586,0.14666790858888004,-0.0210042930818643,-0.1294661168408015,-0.11715325537901898,0.06572895162686845,0.05287287568883082,0.08546574426413749,0.042370729147898675,0.0018107149208503707,-0.11950718477612447,-0.11244539658480801,0.07260966832609987,0.034041440511986966,0.1769068477670812,-0.04472465854500415,0.04291394362415378,0.12005039925237958,0.02281500800271467,-0.09614896229715468,-0.11063468166395764],[-0.053778233149256005,-0.07333395429444002,0.08274967188286193,0.06663430908729363,-0.025893223368160297,-0.09705431975757987,0.05595109105427645,0.13761433398462816,0.1680343446549144,-0.11262646807689305,-0.16205898541610816,-0.1788986341800166,-0.1459436226205399,0.16242112840027825,-0.13308754668250225,0.09107896051877364,-0.17183684598870017,-0.17600149030665602,0.04001679975079319,-0.09542467632881453,0.10918610972727734,-0.16930184509950966,-0.08781967366124298,-0.15427291125645157,0.16694791570240416],[0.07098002489733453,-0.08582788724830756,0.04563001600542934,-0.026255366352330372,0.05794287746721186,0.1803472061166969,-0.1010378925834507,-0.13308754668250225,0.14974612395432566,0.05758073448304179,-0.013761433398462817,0.03331715454364682,0.09107896051877364,-0.05595109105427645,-0.04146537168747349,0.025350008891905192,-0.11009146718770253,0.045992158989599415,0.136890048016288,-0.015210005335143113,-0.0007242859683401483,-0.04707858794210964,-0.07731752712031083,-0.05214858972049067,-0.023720365463139857],[0.07496359772320534,0.05341609016508593,0.07387716877069511,-0.09850289169426017,-0.01539107682722815,0.17763113373542136,-0.12349075760199528,0.12910397385663142,0.11606682642650876,-0.02353929397105482,-0.00742393117548652,-0.12367182909408032,-0.058486091943466975,-0.005794287746721186,-0.14884076649390046,-0.038930370798282966,0.05359716165717097,-0.062288593277252745,-0.15083255290683587,-0.06265073626142281,0.14051147785798876,-0.08347395785120208,0.08383610083537216,0.12367182909408032,-0.04816501689461986],[-0.1656804152578089,-0.030420010670286227,0.04146537168747349,-0.09886503467843025,-0.006156430730891261,0.03929251378245304,-0.1691207736074246,-0.15861862706649246,0.10538360839349156,-0.14377076471551944,0.11661004090276388,-0.1010378925834507,-0.01593429130348326,-0.13707111950837306,-0.005613216254636149,-0.14340862173134936,-0.09506253334464446,-0.08383610083537216,0.03367929752781689,0.1133507540452332,-0.0012675004445952594,-0.11986932776029455,-0.12530147252284562,-0.13888183442922342,0.049975731815470235],[-0.057761805975126826,0.026617509336500447,0.024444651431480006,-0.0952436048367295,0.08963038858209335,0.15010826693849572,-0.1176964698552741,0.036938584385347556,-0.11226432509272298,-0.13761433398462816,-0.0707989534052495,0.12330968610991025,-0.018469292192673778,0.027522866796925633,0.0952436048367295,-0.014123576382632891,0.023177150986884745,0.019374649653098965,0.16242112840027825,-0.1256636155070157,0.1338118326508424,-0.1444950506838596,-0.07949038502533128,-0.10647003734600179,0.1459436226205399],[0.09633003378923972,0.14920290947807052,-0.1798039916404418,0.08510360127996741,0.1191450417919544,0.020098935621439114,0.013218218922207705,0.12005039925237958,0.06609109461103853,-0.05341609016508593,0.04635430197376949,0.06862609550022905,-0.05414037613342608,-0.07840395607282105,0.13507933309543765,0.16386970033695855,-0.013399290414292742,0.17274220344912536,0.13399290414292742,-0.025893223368160297,-0.1119021821085529,0.1510136243989209,0.17853649119584655,0.031144296638626372,-0.13163897474582195],[0.04617323048168445,-0.12077468522071973,-0.15463505424062166,-0.0747825262311203,-0.023177150986884745,-0.0005432144762551112,-0.1323632607141621,0.1444950506838596,-0.04291394362415378,-0.03096322514654134,-0.15717005512981216,0.0650046656585283,-0.1778122052275064,-0.047259659434194676,-0.12330968610991025,0.035490012448667264,0.1251204010307606,0.1450382651601147,0.0820253859145218,-0.10972932420353246,-0.13254433220624712,0.031325368130711406,0.1803472061166969,0.03223072559113659,-0.039111442290368004],[0.07804181308865098,-0.07351502578652505,-0.0713421678815046,0.03983572825870815,0.1167911123948489,0.0722475253419298,-0.16731005868657425,0.048708231370874974,-0.16767220167074431,-0.10429717944098134,-0.12765540191995112,-0.015572148319313186,0.03259286857530667,0.12041254223654965,0.11172111061646786,0.051786446736320595,0.007786074159656593,-0.05051894629172535,-0.14540040814428476,-0.1444950506838596,-0.15698898363772712,0.07152323937358965,0.10357289347264119,-0.1196882562682095,-0.11135896763229779],[0.10864289525102223,0.05341609016508593,-0.020642150097694226,-0.1455814796363698,0.12982825982497156,-0.060115735372232304,0.04291394362415378,-0.1568079121456421,0.034765726480327115,-0.09687324826549483,0.09542467632881453,0.12530147252284562,-0.009415717588421926,-0.13182004623790697,0.04472465854500415,-0.14920290947807052,0.09542467632881453,0.12222325715740003,0.1225854001415701,-0.03386036901990193,0.0966921767734098,-0.1627832713844483,-0.11516146896608358,0.07804181308865098,-0.026617509336500447],[-0.016296434287653334,0.1383386199529683,0.07061788191316445,-0.08926824559792328,0.008148217143826667,-0.012675004445952596,-0.10538360839349156,0.05595109105427645,-0.12421504357033543,0.10212432153596089,0.1176964698552741,0.057761805975126826,-0.15228112484351616,0.019555721145184002,0.063556093721848,-0.17437184687789067,0.03458465498824208,-0.05758073448304179,0.06663430908729363,-0.08075788546992653,0.09270860394753898,0.16097255646359795,0.16930184509950966,0.17799327671959142,0.17708791925916625],[-0.17219898897287023,-0.013399290414292742,-0.17944184865627172,-0.141778978302584,-0.15843755557440742,-0.09777860572592002,-0.04363822959249393,-0.16731005868657425,-0.01104536101718726,0.15807541259023736,-0.08727645918498786,-0.11443718299774343,-0.17129363151244506,-0.11642896941067883,-0.12910397385663142,-0.015210005335143113,0.07170431086567468,-0.09107896051877364,-0.15644576916147201,-0.17726899075125127,-0.055770019562191415,-0.1763636332908261,0.1573511266218972,0.11950718477612447,-0.06337502222976296],[0.07351502578652505,-0.04707858794210964,-0.08474145829579735,0.10972932420353246,-0.11661004090276388,-0.0966921767734098,0.09180324648711378,-0.14521933665219974,0.009415717588421926,-0.16097255646359795,-0.06627216610312356,-0.05033787479964031,0.06880716699231408,-0.141597906810499,0.08166324293035172,-0.063556093721848,-0.08872503112166816,-0.025893223368160297,-0.17509613284623082,-0.10719432331434194,0.05196751822840563,0.10194325004387586,0.0048889302862960005,0.024987865907735118,0.10828075226685216]],[[0.10860000000000002,0.0576,-0.11399999999999999,-0.0396,-0.0688,-0.0964,-0.12660000000000002,-0.07940000000000001,0.0046,-0.0354,-0.011000000000000001,0.17820000000000003,-0.10760000000000002,0.022400000000000003,0.1778,-0.141,-0.13799999999999998,0.0318,-0.18220000000000003,0.18080000000000002,0.169,-0.0228,0.15480000000000002,0.1188,-0.1512],[-0.1322,0.071,-0.0408,-0.0858,0.015,0.0044,0.1172,-0.10980000000000001,0.1068,-0.1996,0.046400000000000004,-0.09160000000000001,-0.126,-0.08020000000000001,-0.1684,0.11499999999999999,-0.0892,0.09360000000000002,0.06780000000000001,-0.10560000000000001,0.1636,0.15700000000000003,0.19340000000000002,-0.1206,-0.13560000000000003],[0.18680000000000002,-0.0852,0.1338,-0.062,0.17700000000000002,-0.16820000000000002,0.15760000000000002,0.1312,-0.033,-0.027400000000000004,0.05260000000000001,-0.1278,-0.028399999999999998,0.0942,0.0262,0.13620000000000002,-0.0364,0.0946,0.0834,0.17420000000000002,-0.1428,0.013200000000000002,-0.18560000000000001,0.1968,-0.0704],[0.0944,-0.17880000000000001,-0.068,0.10060000000000001,0.09360000000000002,0.12660000000000002,0.0824,0.1506,-0.19440000000000002,-0.028000000000000004,-0.1734,0.11060000000000002,-0.129,-0.1514,0.009600000000000001,-0.039200000000000006,-0.030600000000000002,0.0444,-0.13560000000000003,0.021400000000000002,0.1474,0.19540000000000002,-0.0444,-0.06999999999999999,-0.15080000000000002],[-0.0946,-0.0966,0.013600000000000001,-0.11399999999999999,-0.0888,-0.0912,-0.19840000000000002,-0.0426,-0.15000000000000002,0.022600000000000002,-0.0908,-0.0646,-0.1338,0.1308,0.0424,0.1368,0.0898,-0.1428,-0.062,-0.12940000000000002,-0.1342,0.0854,0.005600000000000001,-0.10700000000000001,-0.1794],[-0.0474,0.1138,0.0064,0.1724,0.1864,-0.1466,0.0424,0.006200000000000001,0.18000000000000002,-0.0728,-0.072,0.19140000000000001,-0.12560000000000002,-0.1758,-0.012400000000000001,0.1926,-0.0308,0.023000000000000003,0.18600000000000003,-0.1474,0.12440000000000001,0.0376,0.194,0.0416,0.05600000000000001],[0.12940000000000002,-0.042800000000000005,-0.11040000000000001,-0.1776,-0.002,0.1264,-0.0194,0.1144,0.0472,0.1632,-0.0198,0.197,0.1436,-0.1004,-0.0702,0.028399999999999998,-0.1154,-0.1458,0.1504,-0.123,-0.0086,0.17700000000000002,0.0316,0.05360000000000001,-0.0206],[-0.13340000000000002,0.1636,0.0048000000000000004,-0.1474,-0.08760000000000001,-0.0146,-0.1404,0.18700000000000003,-0.1164,0.1826,-0.046200000000000005,0.004200000000000001,-0.1878,0.0892,0.0408,-0.1728,0.1442,0.0434,0.06720000000000001,0.1298,0.1942,0.137,0.1292,0.0604,0.1024],[0.17600000000000002,0.1384,0.13999999999999999,0.004200000000000001,0.10540000000000001,0.0588,-0.019600000000000003,0.19720000000000001,-0.0572,-0.10640000000000001,0.16040000000000001,-0.10420000000000001,-0.0302,-0.10860000000000002,0.09060000000000001,0.195,-0.1572,-0.09160000000000001,-0.0204,0.0094,0.1222,0.0912,-0.011000000000000001,-0.0776,-0.037200000000000004],[0.05160000000000001,-0.13740000000000002,0.15800000000000003,0.18000000000000002,-0.17300000000000001,0.1724,0.1918,-0.1422,-0.0634,-0.128,-0.0014000000000000002,0.13060000000000002,-0.0218,-0.0878,0.1172,0.169,-0.17320000000000002,-0.0346,-0.1906,-0.14780000000000001,-0.060200000000000004,-0.11359999999999999,0.1476,-0.1138,0.071],[-0.10460000000000001,0.0434,0.1698,-0.039200000000000006,-0.0118,0.165,0.17020000000000002,-0.0872,0.1378,0.07940000000000001,-0.0008,-0.1222,-0.073,0.1262,0.1584,-0.0502,0.1644,-0.1232,-0.0698,-0.0514,-0.0028000000000000004,-0.068,-0.09160000000000001,0.062,0.054000000000000006],[-0.0632,-0.195,0.0456,0.12860000000000002,-0.1562,-0.0488,0.08900000000000001,-0.1382,0.1212,0.1288,0.18220000000000003,0.05600000000000001,-0.05360000000000001,0.0176,0.033400000000000006,-0.19340000000000002,0.023200000000000002,0.1764,-0.005000000000000001,-0.028999999999999998,0.0292,0.18500000000000003,-0.05,0.1764,-0.0294],[-0.1768,0.134,-0.13160000000000002,0.15700000000000003,0.04020000000000001,-0.1328,0.10520000000000002,0.1312,0.0616,-0.1154,-0.0968,-0.1686,0.163,-0.19740000000000002,0.011600000000000001,0.0966,-0.1446,-0.1386,-0.0158,-0.1678,-0.0884,0.10300000000000001,0.1786,-0.1694,0.10420000000000001],[-0.0188,0.1574,-0.06680000000000001,0.0318,0.027200000000000002,0.0218,0.17980000000000002,0.17300000000000001,-0.16080000000000003,0.025800000000000003,-0.0222,0.013400000000000002,-0.0718,0.18580000000000002,-0.0984,-0.18620000000000003,0.1472,0.0588,0.10400000000000001,0.168,-0.0806,-0.12440000000000001,-0.019600000000000003,-0.019600000000000003,0.1208],[-0.141,-0.07440000000000001,0.10900000000000001,-0.167,0.07500000000000001,-0.008,-0.1634,0.028999999999999998,-0.0782,-0.0718,0.0604,-0.12840000000000001,0.0922,-0.1696,0.19340000000000002,-0.1162,0.0948,-0.141,-0.04020000000000001,-0.17220000000000002,0.0246,0.1446,0.031200000000000002,-0.13040000000000002,0.15500000000000003],[0.05460000000000001,0.123,0.1666,-0.08360000000000001,0.19440000000000002,-0.11180000000000001,0.18460000000000001,-0.023400000000000004,0.0636,-0.044000000000000004,0.09200000000000001,0.1916,-0.1626,-0.017,-0.1142,0.0158,0.13460000000000003,0.15880000000000002,0.15580000000000002,-0.013400000000000002,0.1796,-0.07700000000000001,-0.1424,0.038400000000000004,-0.1526],[0.1018,0.1142,0.18280000000000002,-0.192,-0.0656,-0.0702,-0.041,-0.10720000000000002,0.17500000000000002,0.1166,-0.0082,0.10520000000000002,-0.1438,-0.0122,-0.1018,0.15600000000000003,0.032600000000000004,-0.0008,-0.08460000000000001,0.0352,-0.1,-0.0574,-0.10660000000000001,-0.06899999999999999,-0.023400000000000004],[0.09860000000000001,-0.1222,0.18520000000000003,-0.07440000000000001,-0.10740000000000001,0.0566,0.17900000000000002,0.06520000000000001,0.12140000000000001,0.0454,0.0322,0.010000000000000002,-0.10980000000000001,0.1472,0.0512,-0.0046,0.037200000000000004,-0.136,0.050600000000000006,0.1636,-0.098,0.1168,-0.07900000000000001,-0.011000000000000001,0.038200000000000005],[-0.11180000000000001,0.1826,0,0.1678,-0.165,0.1164,-0.0294,-0.195,0.1156,-0.10760000000000002,-0.0236,0.0782,0.073,0.1472,-0.0244,-0.1402,-0.1684,-0.0608,-0.0078000000000000005,-0.0374,-0.16720000000000002,0.1476,0.13620000000000002,0.143,0.0882],[-0.0674,0.0044,0.0826,-0.0024000000000000002,0.1278,-0.0712,-0.0868,0.016800000000000002,-0.1728,-0.010000000000000002,-0.05380000000000001,-0.1164,0.074,-0.19440000000000002,-0.0308,0.1434,-0.11040000000000001,-0.05,-0.121,-0.006600000000000001,0.10500000000000001,0.054200000000000005,-0.0674,-0.027800000000000005,-0.06820000000000001],[0.0412,-0.1554,0.1232,-0.046000000000000006,-0.1048,0.1744,0.084,-0.18220000000000003,-0.0978,0.1806,-0.0154,-0.071,0.11259999999999999,0.10520000000000002,-0.1744,0.1896,-0.13899999999999998,0.13140000000000002,-0.0176,-0.1562,-0.0442,-0.1824,-0.1212,-0.1966,-0.13160000000000002],[0.0364,0.143,-0.1388,0.1434,0.1746,0.0922,-0.0944,-0.15100000000000002,-0.123,0.045200000000000004,0.05480000000000001,0.0212,0.1192,0.0758,0.09820000000000001,0.197,0.0004,0.1322,-0.1196,0.15700000000000003,0.121,0.0932,0.1804,-0.1744,0.1492],[0.1396,0.1464,-0.1252,-0.051000000000000004,-0.084,-0.128,-0.0308,-0.013000000000000001,0.10760000000000002,-0.0814,0.05360000000000001,-0.1454,-0.1332,-0.1162,-0.0204,-0.13440000000000002,-0.1636,0.0776,-0.0356,0.1492,-0.0106,-0.18420000000000003,0.2,-0.16040000000000001,-0.0434],[-0.1804,0.1736,0.08960000000000001,0.0954,-0.0108,-0.1228,-0.1218,0.0344,-0.16620000000000001,-0.1414,0.0146,-0.1302,-0.025,0.0598,-0.148,-0.051800000000000006,-0.13160000000000002,-0.166,0.10960000000000002,0.083,-0.038200000000000005,0.1632,-0.13640000000000002,-0.17,0.1218],[-0.005000000000000001,0.0664,-0.06999999999999999,-0.147,-0.1166,0.146,-0.0328,-0.19140000000000001,0.07440000000000001,0.188,0.1554,0.0434,-0.132,0.18460000000000001,-0.1156,-0.049800000000000004,0.0442,0.17020000000000002,-0.13340000000000002,0.015600000000000001,-0.018,0.05500000000000001,-0.1018,0.1648,-0.0664]],[[0.0006000000000000001,-0.001,-0.0828,-0.1458,-0.16100000000000003,0.0386,0.165,-0.023200000000000002,0.1636,0.12560000000000002,-0.0632,0.0016,0.1956,-0.101,0.1978,-0.13160000000000002,0.0102,0.0028000000000000004,-0.0478,0.032,0.1916,-0.0182,0.0872,-0.006,-0.05500000000000001],[-0.083,-0.022600000000000002,0.194,-0.0332,0.1716,-0.1876,0.1694,0.129,-0.021,-0.0088,-0.1448,-0.03,-0.0288,-0.041800000000000004,-0.1826,-0.0748,-0.07900000000000001,0.0898,0.0858,-0.028399999999999998,-0.1882,-0.0974,0.11299999999999999,-0.0286,0.1442],[0.1592,-0.1844,-0.0006000000000000001,-0.0198,-0.18080000000000002,-0.0218,0,-0.1966,-0.122,0.0694,0.0446,0.026400000000000003,0.17400000000000002,0.15880000000000002,-0.1864,-0.10700000000000001,-0.0492,0.0362,0.097,-0.1734,0.1756,0.06860000000000001,0.0118,0.017,-0.0938],[0.1936,-0.08800000000000001,0.0122,0.1426,-0.06899999999999999,-0.1564,-0.027000000000000003,0.1778,0.020200000000000003,0.012,-0.18420000000000003,-0.1976,0.08040000000000001,-0.1932,0.1268,0.013800000000000002,-0.1318,-0.0776,0.008,0.0576,-0.026000000000000002,0.17720000000000002,0.0882,-0.145,-0.1544],[-0.07640000000000001,0.0634,-0.191,-0.1034,-0.1668,0.0252,0.0346,0.1494,-0.1144,-0.1384,0.0594,0.07540000000000001,0.0304,-0.033800000000000004,-0.0348,-0.1504,-0.07740000000000001,-0.1442,0.1414,0.023200000000000002,0.0198,0.0044,0.15180000000000002,0.07740000000000001,0.0008],[0.049800000000000004,-0.165,-0.10880000000000001,0.061,0.0332,-0.1416,0.0694,0.0566,-0.0362,-0.1246,0.188,0.0482,0.18580000000000002,0.146,-0.1476,-0.166,-0.0606,0.0948,0.16160000000000002,0.003,-0.1208,-0.11080000000000001,0.0352,-0.018600000000000002,0.09340000000000001],[0.13899999999999998,-0.11020000000000002,-0.17700000000000002,-0.15900000000000003,0.0342,0.1874,-0.17900000000000002,-0.1292,-0.1384,-0.1428,-0.1196,0.06520000000000001,0.1328,-0.10300000000000001,-0.1652,0.038200000000000005,0.1028,0.1302,-0.1216,-0.18420000000000003,-0.0598,-0.006,0.163,-0.1382,-0.1382],[-0.1892,0.1936,-0.143,-0.0014000000000000002,0.08100000000000002,0.164,-0.031,0.1474,-0.1776,0.0206,-0.0694,-0.1774,-0.0182,-0.063,-0.0534,-0.1816,0.0634,0.0048000000000000004,-0.0126,-0.0594,0.033400000000000006,-0.0796,-0.0218,0.12380000000000001,0.1882],[-0.1492,0.0454,-0.0218,-0.0198,0.1894,-0.0974,-0.028399999999999998,-0.004,0.09920000000000001,0.1746,0.07640000000000001,-0.0862,0.10740000000000001,-0.10660000000000001,-0.0128,-0.13040000000000002,-0.16000000000000003,0.1198,-0.0594,0.12140000000000001,0.0512,0.0598,-0.0938,-0.1636,-0.10420000000000001],[0.18720000000000003,-0.0854,0.18700000000000003,-0.0878,-0.0732,-0.17500000000000002,-0.0984,-0.022400000000000003,-0.18380000000000002,-0.0144,0.1018,0.0948,-0.1494,-0.08900000000000001,-0.12940000000000002,0.1146,-0.1674,-0.0024000000000000002,-0.05,-0.06760000000000001,0.0626,0.040600000000000004,-0.1008,0.15360000000000001,0.1466],[0.1836,0.0574,-0.0796,-0.101,-0.09260000000000002,0.1894,-0.0564,0.1714,-0.0022,-0.12440000000000001,0.10220000000000001,-0.09260000000000002,0.1716,0.018,-0.168,0.0332,0.1166,-0.0396,-0.1654,-0.136,0.141,-0.13660000000000003,0.013400000000000002,-0.0994,0.13740000000000002],[0.09720000000000001,-0.08040000000000001,-0.033800000000000004,-0.0912,0.0188,0.1582,0.0108,0.14880000000000002,-0.14980000000000002,0.0512,0.1404,-0.194,-0.18300000000000002,-0.1562,-0.1666,0.019600000000000003,0.060200000000000004,-0.1886,-0.0694,-0.0964,-0.1328,0.0442,0.0388,0.0446,0.1486],[-0.1884,-0.16000000000000003,-0.049800000000000004,-0.1038,0.08760000000000001,-0.031,0.0716,-0.15500000000000003,0.1292,-0.16140000000000002,-0.09140000000000001,-0.0826,0.15980000000000003,-0.168,-0.024800000000000003,0.1776,0.1612,-0.15760000000000002,-0.18180000000000002,0.11240000000000001,0.08860000000000001,0.198,0.08560000000000001,0.18320000000000003,-0.0146],[-0.0076,-0.0294,0.1904,0.1308,-0.023200000000000002,-0.0722,0.1918,-0.07780000000000001,0.1254,0.1506,0.0828,0.11120000000000002,-0.0826,-0.054400000000000004,0.1048,0.1292,0.0108,-0.0912,0.0038,0.0256,-0.0006000000000000001,-0.07780000000000001,-0.11160000000000002,0.1128,0.13740000000000002],[-0.1308,0.1422,0.1418,0.1446,0.0102,-0.1844,0.059,-0.1836,0.09620000000000001,-0.1652,-0.1404,-0.1784,-0.1226,-0.1734,0.005600000000000001,-0.1398,-0.1708,-0.0948,0.032400000000000005,0.1686,-0.06280000000000001,-0.0298,0.0184,-0.132,0.1628],[-0.0122,-0.1426,0.0636,0.0022,0.046000000000000006,-0.0814,0.0478,-0.1906,0.0938,0.046000000000000006,0.043800000000000006,0.0854,-0.1468,0.18100000000000002,0.073,-0.0366,0.19840000000000002,-0.15860000000000002,-0.0814,-0.0716,0.036,-0.1008,0.1174,0.0792,0.1754],[0.147,0.0104,0.05,0.051800000000000006,-0.122,-0.12,-0.055400000000000005,0.062200000000000005,-0.08460000000000001,-0.064,-0.1278,-0.1146,-0.08940000000000001,0.0068000000000000005,0.15680000000000002,-0.048600000000000004,0.1844,-0.012,-0.1892,0.1724,-0.016800000000000002,-0.0058000000000000005,0.1298,-0.1758,0.17900000000000002],[-0.1646,-0.141,-0.1504,0.026600000000000002,-0.064,0.0854,-0.0164,0.08700000000000001,-0.15680000000000002,-0.0164,-0.08960000000000001,0.022000000000000002,0.0346,-0.071,-0.0044,-0.040400000000000005,0.027800000000000005,0.0758,0.15100000000000002,0.012,-0.0594,0.1192,0.0606,-0.009,0.028999999999999998],[-0.11499999999999999,0.055400000000000005,0.048,-0.14980000000000002,0.0282,-0.0762,0.0454,0.19920000000000002,0.07640000000000001,-0.1192,-0.09860000000000001,-0.121,-0.06899999999999999,-0.15000000000000002,0.13340000000000002,0.0582,0.07540000000000001,-0.1482,0.061,0.1174,-0.1216,0.1986,0.18320000000000003,0.0592,0.13740000000000002],[-0.1268,0.1188,0.0806,0.16080000000000003,0.1836,-0.0626,0.0012000000000000001,0.054400000000000004,-0.1514,-0.0238,-0.0654,0.1254,0.19440000000000002,0.0584,0.0174,0.1228,0.07440000000000001,0.0198,-0.18680000000000002,-0.0748,0.08020000000000001,-0.1402,-0.2,-0.1696,-0.0862],[-0.0978,0.0204,-0.1966,0.067,0.10620000000000002,-0.1216,-0.0728,0.09140000000000001,-0.1918,0.08960000000000001,0.0918,0.13040000000000002,-0.0964,0.0146,-0.1764,-0.0606,0.1148,0.1434,0.0594,0.129,-0.0032,-0.06680000000000001,-0.166,-0.1348,-0.06760000000000001],[0.009600000000000001,0.18460000000000001,0.1966,0.13620000000000002,0.1482,-0.014199999999999999,0.07500000000000001,0.137,0.17300000000000001,0.0342,-0.07440000000000001,0.0814,0.19340000000000002,0.0432,-0.1312,-0.0862,0.19740000000000002,-0.1878,-0.0524,0.1884,-0.0878,-0.08760000000000001,-0.0786,0.12940000000000002,-0.1794],[0.0702,0.05480000000000001,0.0352,-0.07700000000000001,0.0694,-0.041,-0.18660000000000002,-0.17200000000000001,-0.004,-0.1236,0.1132,-0.1188,0.0692,0.131,0.1178,-0.15380000000000002,-0.13040000000000002,0.061200000000000004,0.191,0.09140000000000001,-0.1,0.14980000000000002,-0.0692,0.119,-0.10940000000000001],[-0.1348,-0.1386,0.1144,0.15100000000000002,0.0362,0.1882,-0.04020000000000001,0.030600000000000002,-0.0748,0.0146,-0.0244,-0.1542,-0.05580000000000001,0.163,0.10540000000000001,-0.149,0.1504,0.11200000000000002,-0.195,-0.1166,0.046200000000000005,0.1318,0.052000000000000005,-0.0572,0.0908],[0.06420000000000001,-0.1696,0.17820000000000003,-0.1208,-0.1958,0.08360000000000001,0.11060000000000002,-0.016200000000000003,-0.168,-0.15660000000000002,0.1218,-0.0656,-0.0966,0.08000000000000002,0.10160000000000001,-0.06280000000000001,-0.1968,0.1186,-0.0984,-0.028000000000000004,0.0262,0.053200000000000004,-0.1516,-0.006200000000000001,-0.13460000000000003]],[[0.1986,0.097,0.08360000000000001,-0.16000000000000003,0.18720000000000003,0.16180000000000003,-0.15300000000000002,-0.0466,0.0818,0.1408,-0.16080000000000003,0.020000000000000004,0.15180000000000002,-0.1298,-0.0374,0.0868,0.04000000000000001,-0.1636,-0.1246,-0.19840000000000002,-0.07600000000000001,-0.18720000000000003,-0.19440000000000002,0.13060000000000002,0.05460000000000001],[0.11499999999999999,-0.0238,-0.09920000000000001,0.0684,-0.0454,-0.0014000000000000002,-0.171,0.0244,0.1678,0.09260000000000002,-0.127,-0.0478,0.06780000000000001,0.043000000000000003,-0.13520000000000001,-0.09000000000000001,0.0944,-0.1678,0.1564,0.0362,-0.12040000000000001,-0.0102,-0.1178,-0.15600000000000003,-0.145],[-0.0718,0.0646,-0.0564,0.1886,0.1936,0.132,0.1674,-0.0032,0.1834,-0.039400000000000004,0.17120000000000002,-0.1584,0.053000000000000005,0.18020000000000003,0.13799999999999998,0.0956,-0.1942,-0.16820000000000002,-0.038200000000000005,-0.1552,-0.122,-0.16140000000000002,0.0352,0.1642,-0.0632],[-0.0582,0.1018,-0.18560000000000001,0.1382,-0.128,-0.1504,-0.18220000000000003,0.1878,0.1476,0.0244,0.10600000000000001,0.1652,-0.1876,0.006200000000000001,-0.033800000000000004,0.1406,0.032600000000000004,-0.016,-0.0208,-0.1236,0.085,0.067,0.1874,0.062400000000000004,0.1168],[0.0746,0.1642,-0.122,-0.13560000000000003,-0.0574,0.1378,-0.19840000000000002,-0.033800000000000004,0.1676,0.11080000000000001,0.054000000000000006,0.0912,0.0104,-0.1876,0.0308,-0.0298,-0.0634,-0.0838,-0.0446,-0.12480000000000001,0.032600000000000004,0.17420000000000002,0.0146,-0.1058,0.053200000000000004],[0.164,-0.044000000000000004,-0.128,-0.1638,0.1,0.1758,0.0474,-0.16060000000000002,-0.1652,0.0434,0.1432,0.12440000000000001,0.13440000000000002,0.194,0.022600000000000002,-0.164,-0.1936,-0.0256,-0.1038,-0.16100000000000003,-0.13260000000000002,-0.0844,0.07980000000000001,0.1004,-0.1246],[0.0684,-0.0842,0.1946,-0.0476,0.1456,0.1582,0.0086,-0.1962,-0.11399999999999999,-0.033400000000000006,-0.1686,-0.0958,-0.08800000000000001,-0.10880000000000001,0.0698,-0.1564,-0.030600000000000002,0.09340000000000001,-0.1766,-0.1512,-0.1044,-0.149,-0.12040000000000001,0.17020000000000002,0.027000000000000003],[-0.0748,-0.08360000000000001,0.15860000000000002,0.06480000000000001,-0.026800000000000004,-0.021,0.1274,-0.0644,0.1552,0.10860000000000002,-0.1416,0.0436,-0.128,0.022400000000000003,-0.042,-0.027200000000000002,0.18480000000000002,-0.0892,0.0344,-0.0288,0.0298,0.17900000000000002,-0.054000000000000006,-0.1936,0.0172],[-0.09280000000000001,0.0122,-0.0154,0.1438,0.013200000000000002,0.007000000000000001,0.0698,-0.1948,0.126,-0.1584,-0.1496,0.05560000000000001,-0.18100000000000002,0.0702,0.0146,0.1,-0.048,0.1472,0.08560000000000001,0.10060000000000001,-0.1034,0.004,0.1152,-0.061200000000000004,0.0944],[-0.0908,-0.0222,-0.0052,-0.0492,-0.122,-0.18560000000000001,0.10200000000000001,0.16000000000000003,-0.014199999999999999,-0.0014000000000000002,0.0484,-0.1876,0.0368,-0.19540000000000002,0.060200000000000004,0.1444,-0.0596,-0.1898,-0.1814,-0.0354,0.1444,-0.1746,-0.1898,-0.0762,-0.163],[0.1322,-0.0206,0.07840000000000001,0.06760000000000001,0.18220000000000003,-0.07980000000000001,-0.053200000000000004,-0.15660000000000002,-0.1998,0.0146,0.1664,-0.028999999999999998,0.16240000000000002,0.1816,-0.0244,0.0582,-0.011200000000000002,0.1458,-0.0574,0.15660000000000002,0.1534,0.0262,0.0832,0.05160000000000001,0.119],[0.1512,0.031200000000000002,0.09240000000000001,0.19820000000000002,0.119,-0.1274,-0.1174,0.0732,0.09040000000000001,0.0634,-0.17900000000000002,-0.1734,-0.1646,-0.188,-0.049,0.09300000000000001,-0.0212,-0.1602,-0.010000000000000002,0.001,-0.1288,0.1368,-0.12340000000000001,-0.0444,-0.1038],[0.1418,0.0704,-0.05380000000000001,-0.0958,-0.09860000000000001,0.1456,0.0656,0.11240000000000001,-0.18600000000000003,-0.1904,0.033,-0.10900000000000001,0.13360000000000002,-0.12840000000000001,-0.1302,-0.10360000000000001,-0.1758,0.021400000000000002,-0.09340000000000001,0.034999999999999996,0.17420000000000002,0.18720000000000003,0.0122,-0.0388,-0.015600000000000001],[0.1784,-0.042800000000000005,-0.0332,-0.0034000000000000002,0.10740000000000001,-0.0782,0.1768,0.1176,0.0358,-0.1512,0.0262,-0.05160000000000001,0.1796,0.0742,0.0122,-0.1436,0.0656,0.0842,-0.10260000000000001,0.19240000000000002,0.1634,0.05460000000000001,0.0478,0.0008,-0.1462],[-0.1152,-0.1418,0.1328,-0.1656,-0.05600000000000001,0,-0.13040000000000002,-0.18520000000000003,0.013200000000000002,0.1318,-0.014000000000000002,0.15000000000000002,-0.0082,0.08860000000000001,0.0026,-0.1646,-0.1028,-0.1172,0.0922,-0.1758,-0.101,0.0304,0.19,0.1312,0.14780000000000001],[0.08040000000000001,0.0684,0.0712,0.12940000000000002,0.06899999999999999,-0.1864,0.11180000000000001,0.054200000000000005,-0.16060000000000002,-0.1156,0.06760000000000001,-0.1194,-0.17880000000000001,0.0318,-0.1232,-0.16820000000000002,0.052000000000000005,-0.1288,0.13999999999999999,0.0862,0.16820000000000002,0.11000000000000001,0.1506,-0.1916,-0.194],[-0.0796,0.1534,-0.051000000000000004,-0.19540000000000002,0.0512,-0.0626,-0.062400000000000004,0.1956,0.0816,0.1824,0,0.0964,-0.06420000000000001,-0.056999999999999995,0.0396,-0.04680000000000001,-0.03,-0.171,-0.1806,-0.0864,-0.0598,-0.0174,0.0352,0.11699999999999999,0.1186],[-0.143,0.0586,-0.1668,-0.0018,0.1192,-0.17320000000000002,0.10520000000000002,0.12760000000000002,-0.0298,0.0888,-0.043000000000000003,-0.1382,-0.046000000000000006,0.1254,0.083,-0.052000000000000005,0.0388,0.137,-0.1422,-0.0072,-0.04680000000000001,-0.0144,0.0104,0.07540000000000001,-0.0208],[-0.0288,0.1438,-0.1754,0.1612,0.17500000000000002,0.0444,0.1464,0.1938,0.07900000000000001,0.11180000000000001,0.1236,-0.1438,-0.13260000000000002,-0.1268,-0.036,0.13620000000000002,-0.14780000000000001,0.015,-0.10700000000000001,0.1892,0.1986,-0.0564,0.10820000000000002,-0.1714,0.09100000000000001],[-0.067,-0.0216,-0.1938,-0.1138,-0.0968,0.0534,0.056999999999999995,0.0298,-0.1908,-0.026000000000000002,0.16100000000000003,0.1392,-0.13140000000000002,-0.0316,0.061200000000000004,-0.16080000000000003,-0.0164,-0.042800000000000005,-0.1152,0.032,0.09140000000000001,-0.046200000000000005,0.098,-0.1318,-0.045200000000000004],[0.15400000000000003,-0.12240000000000001,-0.07740000000000001,0.0198,0.010000000000000002,-0.1894,0.0068000000000000005,0.051000000000000004,-0.1494,0.025400000000000002,-0.0634,-0.0736,-0.0034000000000000002,-0.1018,0.12480000000000001,0.1746,-0.1996,-0.046200000000000005,-0.18320000000000003,0.1232,0.1422,0.19240000000000002,-0.15200000000000002,0.15880000000000002,-0.06280000000000001],[-0.05500000000000001,0.13720000000000002,-0.1342,-0.18480000000000002,0.1272,-0.033,0.08940000000000001,0.05560000000000001,-0.1908,-0.06620000000000001,0.0092,0.17020000000000002,0.09160000000000001,-0.0854,0.0818,-0.1008,-0.1826,-0.054400000000000004,0.18000000000000002,-0.1246,-0.13040000000000002,0.053200000000000004,0.0026,-0.0154,-0.149],[0.0366,0.026600000000000002,0.1458,-0.1408,-0.12440000000000001,0.0708,0.1188,0.0998,-0.1484,0.0398,0.1312,0.1484,-0.041800000000000004,-0.13620000000000002,-0.07500000000000001,0.032,0.18460000000000001,0.044000000000000004,-0.071,-0.031400000000000004,0.0068000000000000005,-0.098,0.043800000000000006,-0.15080000000000002,-0.143],[-0.062400000000000004,0.07780000000000001,0.09340000000000001,0.007000000000000001,0.1486,0.0436,0.011200000000000002,0.0938,0.17800000000000002,0.057999999999999996,-0.10120000000000001,-0.013400000000000002,0.09340000000000001,-0.0586,-0.06780000000000001,-0.0432,0.1274,-0.1704,-0.144,0.0164,0.09240000000000001,-0.1912,-0.042,-0.0076,0.0182],[-0.197,-0.023400000000000004,-0.13360000000000002,-0.060200000000000004,-0.19820000000000002,-0.137,0.1444,0.11599999999999999,0.10360000000000001,0.05500000000000001,0.1522,-0.1318,-0.0968,-0.10880000000000001,0.054000000000000006,0.1816,-0.0994,0.0296,0.0946,0.0478,-0.1908,-0.0738,-0.17620000000000002,-0.1718,0.050600000000000006]],[[-0.10060000000000001,-0.05360000000000001,-0.17300000000000001,-0.1322,0.13899999999999998,0.18560000000000001,-0.033800000000000004,0.149,-0.014199999999999999,0.13,0.0978,-0.16820000000000002,0.1454,-0.1704,-0.1634,0.125,-0.1468,0.08900000000000001,-0.11599999999999999,-0.083,0.1966,-0.1878,0.0756,-0.033,0.0332],[0.1708,0.0692,0.1474,0.064,0.1704,0.1532,-0.064,-0.025400000000000002,-0.04580000000000001,-0.0822,-0.042,0.0108,-0.1468,-0.1874,-0.09860000000000001,0.15360000000000001,-0.0738,-0.012400000000000001,-0.18600000000000003,-0.1138,-0.1448,-0.03,0.1424,0.163,0.050600000000000006],[-0.08000000000000002,0.10600000000000001,0.1024,-0.10560000000000001,-0.048,0.1388,0.0522,0.0316,-0.17720000000000002,-0.06520000000000001,0.0738,0.1574,0.046000000000000006,-0.013400000000000002,0.16820000000000002,-0.19,-0.1004,0.122,-0.062,0.0146,0.164,-0.0354,0.11699999999999999,-0.13520000000000001,-0.039400000000000004],[-0.0594,-0.1048,-0.015,-0.037,0.195,-0.12960000000000002,0.008400000000000001,0.0108,-0.09260000000000002,0.1912,-0.1564,-0.1462,-0.1492,0.1668,-0.0752,0.193,-0.018,0.0842,0.07680000000000001,-0.143,-0.1794,-0.1652,0.006600000000000001,0.1932,-0.1628],[0.10720000000000002,-0.15280000000000002,-0.11140000000000001,-0.1184,0.0758,-0.0852,-0.165,-0.11020000000000002,-0.1406,-0.06520000000000001,-0.027000000000000003,-0.0238,0.1968,0.131,-0.18120000000000003,0.1748,-0.1226,-0.024,-0.0228,0.0256,-0.0262,0.11599999999999999,0.019600000000000003,-0.05160000000000001,0.019600000000000003],[-0.1024,0.1902,-0.15600000000000003,-0.1154,0.1778,0.1396,-0.1282,-0.1664,-0.0332,0.2,0.18080000000000002,-0.15860000000000002,0.1674,-0.1946,0.16140000000000002,0.18420000000000003,0.119,0.0748,0.1996,0.14880000000000002,0.032400000000000005,0.0366,-0.038200000000000005,0.1968,-0.0666],[-0.0304,0.1378,0.1854,-0.0534,-0.1004,0.191,0.193,-0.18120000000000003,-0.0366,-0.033800000000000004,0.0694,-0.08460000000000001,0.072,0.17520000000000002,-0.0058000000000000005,-0.18580000000000002,0.0298,-0.0718,0.08900000000000001,0.15800000000000003,-0.1398,0.0044,0.0862,-0.06620000000000001,-0.1308],[0.0594,0.1438,-0.062400000000000004,-0.17620000000000002,0.168,-0.0636,-0.17720000000000002,0.0068000000000000005,-0.004,0.09620000000000001,-0.13360000000000002,-0.07980000000000001,-0.0122,0.1728,0.04000000000000001,-0.188,-0.016,0.0494,-0.006,-0.1998,-0.142,0.09820000000000001,-0.11060000000000002,0.1758,-0.037],[-0.0002,0.1956,-0.0596,0.133,0.045000000000000005,0.0412,0,0.17500000000000002,0.1928,-0.1386,-0.025,-0.08860000000000001,0.123,0.1008,-0.0582,-0.1308,-0.0398,0.142,0.09360000000000002,-0.009800000000000001,-0.12660000000000002,-0.038200000000000005,0.0978,-0.1592,0.0608],[0.17120000000000002,0.14880000000000002,0.0398,-0.0256,0.084,-0.0806,-0.0238,-0.0108,0.0246,0.062,-0.18500000000000003,0.15800000000000003,-0.1376,-0.0022,0.10020000000000001,0.1744,-0.0946,0.1612,-0.1884,0.1388,0.06480000000000001,0.127,0.0352,0.1684,-0.10420000000000001],[-0.0594,-0.061,-0.07500000000000001,0.051800000000000006,0.1152,-0.1786,-0.10640000000000001,-0.12040000000000001,-0.094,-0.1068,0.0736,0.08900000000000001,0.1768,0.0008,-0.13460000000000003,-0.12040000000000001,0.061,0.0734,0.0908,0.12480000000000001,0.17900000000000002,-0.033600000000000005,0.17820000000000003,-0.09260000000000002,-0.18500000000000003],[-0.16620000000000001,0.0444,-0.1428,-0.1906,0.038400000000000004,0.0166,0.0854,-0.041800000000000004,0.1768,-0.11060000000000002,-0.0604,-0.0376,-0.0446,-0.0878,0.0942,-0.0252,-0.1644,-0.026600000000000002,0.13540000000000002,0.059,0.1926,0.1532,0.0002,-0.053000000000000005,-0.0724],[0.085,-0.041,0.10740000000000001,0.012,-0.1368,0.1814,-0.021400000000000002,-0.0702,-0.137,0.1532,-0.169,0.1246,0.0844,-0.05280000000000001,0.1302,-0.10620000000000002,-0.063,-0.033,0.13520000000000001,0.0102,-0.005000000000000001,-0.0482,-0.031,-0.15760000000000002,-0.1288],[0.099,-0.0256,-0.064,-0.1178,-0.18480000000000002,-0.1172,-0.0044,0.1438,0.1876,-0.16060000000000002,0.1144,0.0998,0.05360000000000001,-0.054000000000000006,0.15400000000000003,0.1182,0.11100000000000002,0.1906,0.0902,-0.1882,0.032,-0.1724,-0.1128,0.13160000000000002,0.1572],[0.1128,0.1942,-0.042800000000000005,-0.1168,0.122,0.05,0.0614,0.11000000000000001,-0.145,0.1452,0.08760000000000001,0.1038,0.0814,0.19440000000000002,0.050600000000000006,0.1472,-0.006200000000000001,0.1162,0.193,-0.031,-0.0732,-0.0252,0.0994,-0.008,0.1794],[0.17980000000000002,0.018600000000000002,-0.11399999999999999,-0.05460000000000001,0.1468,-0.0436,-0.027600000000000003,0.0024000000000000002,0.1678,0.15880000000000002,-0.08600000000000001,-0.033800000000000004,0.18180000000000002,0.0364,-0.19740000000000002,0.028999999999999998,-0.0868,0.06280000000000001,-0.134,0.10660000000000001,0.1524,0.0466,-0.011000000000000001,-0.1444,0.1028],[-0.055400000000000005,-0.149,0.038000000000000006,0.16000000000000003,-0.0908,0.1656,0.0012000000000000001,0.040600000000000004,-0.1376,0.1806,0.1592,-0.0918,-0.0692,0.17,0.18400000000000002,0.17880000000000001,0.0586,0.004200000000000001,0.13799999999999998,0.0598,0.1268,0.0848,0.19440000000000002,0.18520000000000003,-0.13040000000000002],[0.1318,-0.055200000000000006,0.011600000000000001,0.016200000000000003,-0.045200000000000004,0.1676,0.1348,-0.125,0.1956,0.0072,0.0948,0.13899999999999998,-0.1584,0.1694,0.06280000000000001,0.041800000000000004,0.15380000000000002,-0.1912,-0.1264,0.0644,-0.1572,-0.1428,-0.10260000000000001,0.056999999999999995,-0.0348],[0.06680000000000001,-0.0028000000000000004,-0.032400000000000005,0.1382,0.1686,-0.1582,0.0724,-0.0884,-0.1892,0.1968,-0.09720000000000001,0.0586,-0.08360000000000001,0.0598,0.16100000000000003,-0.013800000000000002,-0.1302,-0.11240000000000001,0.1674,-0.049,-0.063,-0.12,-0.1424,-0.13660000000000003,0.025],[0.016,-0.0182,0.18520000000000003,-0.11000000000000001,0.10980000000000001,0.054400000000000004,-0.037200000000000004,0.10540000000000001,0.0828,0.0342,-0.06680000000000001,-0.17020000000000002,0.10800000000000001,-0.19240000000000002,-0.0286,0.0478,-0.0432,-0.0004,0.1774,0.013800000000000002,-0.08560000000000001,-0.0618,-0.10700000000000001,-0.10900000000000001,-0.037],[-0.0664,0.056999999999999995,0.15560000000000002,0.0302,-0.073,-0.1058,0.10900000000000001,-0.15080000000000002,0.1068,0.022000000000000002,0.1886,-0.0984,0.0948,-0.13999999999999999,0.09920000000000001,-0.191,-0.038000000000000006,0.1292,0.1,0.19840000000000002,-0.1206,0.1368,-0.08940000000000001,0.0946,-0.1442],[-0.11699999999999999,0.0956,0.17700000000000002,0.125,-0.17920000000000003,-0.15000000000000002,-0.11180000000000001,-0.1716,0.1206,0.1948,-0.0492,0.0346,0.038000000000000006,0.06380000000000001,-0.19640000000000002,0.12,0.14780000000000001,-0.1178,-0.1918,-0.1684,-0.042800000000000005,0.05600000000000001,-0.0152,0.039200000000000006,-0.1044],[-0.1222,-0.0434,-0.011200000000000002,0.0064,0.0322,-0.045000000000000005,-0.1676,-0.0446,0.1308,0.0758,0.0858,0.10940000000000001,0.05560000000000001,-0.1666,-0.1602,0.0194,-0.1574,-0.009,0.0082,0.033800000000000004,0.1542,-0.1902,0.06380000000000001,0.0362,-0.18720000000000003],[0.046200000000000005,0.024800000000000003,-0.1976,-0.025400000000000002,-0.16000000000000003,-0.15500000000000003,-0.1506,0.127,0.10520000000000002,0.0048000000000000004,0.15280000000000002,0.1584,0.1044,-0.10640000000000001,-0.0412,0.1236,0.1186,0.1302,0.07640000000000001,0.10760000000000002,0.0598,0.0724,0.0702,-0.03,-0.0086],[-0.1988,-0.009,-0.1978,0.0104,0.1424,0.0922,-0.08700000000000001,0.168,0.0422,-0.15200000000000002,-0.0482,-0.016,0.0006000000000000001,0.13360000000000002,0.0434,0.0858,-0.1658,-0.1194,-0.0758,0.017,0.045000000000000005,0.083,-0.122,0.1014,0.11160000000000002]],[[-0.0166,-0.0814,-0.05500000000000001,-0.1178,-0.0634,-0.08600000000000001,0.1626,0.13540000000000002,-0.05160000000000001,0.1652,-0.0144,-0.10520000000000002,-0.0902,0.1408,-0.1058,-0.0064,0.1148,0.0712,-0.062,-0.08700000000000001,-0.11499999999999999,-0.0242,0.0776,0.12040000000000001,-0.132],[-0.1704,-0.1464,0.1704,-0.033600000000000005,0.0036,0.1894,-0.006200000000000001,0.09160000000000001,-0.1968,-0.1348,-0.18100000000000002,0.10620000000000002,0.1898,-0.044800000000000006,0.05360000000000001,-0.143,0.17800000000000002,0.18660000000000002,0.15560000000000002,0.07800000000000001,0.013200000000000002,-0.1886,-0.1242,0.18620000000000003,0.18280000000000002],[-0.07980000000000001,0.0126,0.0822,-0.1182,0.136,0.17720000000000002,0.1696,0.164,0.0654,-0.08460000000000001,-0.0728,0.1348,0.0472,0.18180000000000002,0.0366,-0.194,-0.0014000000000000002,0.1834,-0.10020000000000001,0.13740000000000002,-0.1894,-0.0008,-0.025800000000000003,0.1018,0.0436],[-0.13720000000000002,0.1322,-0.10700000000000001,-0.0472,0.1664,0.0578,0.037,0.048,-0.1188,-0.16040000000000001,-0.026000000000000002,0.12040000000000001,0.0154,-0.1128,-0.09000000000000001,-0.0172,0.1246,0.05500000000000001,0.07780000000000001,0.025800000000000003,-0.0742,-0.0426,-0.0454,-0.0636,0.125],[0.11220000000000002,0.146,0.15780000000000002,-0.025400000000000002,0.014199999999999999,0.0416,0.11200000000000002,0.13060000000000002,0.0246,-0.0154,-0.1482,0.11699999999999999,-0.1194,0.021,-0.07700000000000001,-0.0176,-0.0954,-0.0322,-0.049800000000000004,-0.0488,0.0598,0.1976,-0.1416,-0.0514,0.12660000000000002],[-0.1218,-0.0244,-0.1386,-0.1078,0.012,-0.1904,0.19940000000000002,-0.13460000000000003,0.08080000000000001,0.0644,-0.1678,-0.0718,-0.098,0.07540000000000001,-0.1416,0.11220000000000002,0.16140000000000002,-0.08040000000000001,0.19940000000000002,-0.0376,0.053000000000000005,0.056999999999999995,-0.125,0.052000000000000005,-0.1342],[-0.15860000000000002,-0.08660000000000001,0.022600000000000002,-0.063,0.1514,0.006200000000000001,0.026800000000000004,-0.0746,-0.0816,-0.0882,-0.08700000000000001,0.141,0.1396,-0.036,-0.1146,-0.0944,0.126,-0.16200000000000003,0.06760000000000001,-0.0826,-0.0848,0.1272,-0.0726,0.0256,-0.0492],[-0.08600000000000001,-0.13240000000000002,-0.18460000000000001,-0.08360000000000001,0.1298,-0.0252,-0.1464,0.099,-0.0038,0.16160000000000002,0.17700000000000002,0.1622,0.05620000000000001,0.1184,0.197,0.191,-0.050600000000000006,0.09200000000000001,0.0074,-0.17220000000000002,-0.126,-0.0072,0.04020000000000001,-0.014199999999999999,0.0478],[0.1406,0.0356,0.1716,-0.08020000000000001,-0.0912,0.033600000000000005,-0.0386,0.1778,-0.0618,-0.19720000000000001,-0.192,-0.15380000000000002,-0.08960000000000001,0.194,0.0566,-0.0158,-0.1926,-0.1574,0.1358,-0.12940000000000002,0.1198,-0.15680000000000002,0.004200000000000001,-0.171,-0.15500000000000003],[0.061,-0.1942,-0.073,-0.0718,0.10700000000000001,-0.0974,-0.13160000000000002,-0.009800000000000001,0.0852,-0.0564,0.1322,-0.1708,-0.0872,0.0588,0.196,-0.12660000000000002,-0.0734,0.1552,-0.0786,-0.0654,0.10940000000000001,0.099,0.0584,-0.1584,0.0832],[0.022400000000000003,0.1612,0.144,0.1396,0.18660000000000002,0.0786,0.15460000000000002,0.12940000000000002,0.074,0.0034000000000000002,0.16100000000000003,0.0228,-0.1826,-0.12960000000000002,-0.0238,0.0582,-0.051800000000000006,-0.1926,-0.0864,-0.0576,-0.0736,0.021,-0.0842,-0.17420000000000002,-0.1328],[-0.0016,0.050600000000000006,-0.0786,0.1554,0.1418,-0.142,-0.1644,0.1644,-0.13140000000000002,0.0482,-0.1228,0.001,-0.0828,0.13440000000000002,-0.127,0.0868,0.1622,0.06520000000000001,0.025400000000000002,0.19,-0.012,0.1188,-0.0378,0.0596,0.0954],[0.013200000000000002,0.0844,0.0158,0.1894,-0.028399999999999998,-0.18320000000000003,0.0472,0.0474,-0.1004,0.1626,-0.0492,-0.15880000000000002,0.18320000000000003,0.09860000000000001,0.003,-0.0912,-0.038200000000000005,-0.0614,-0.016800000000000002,0.1938,-0.1254,0.197,0.10460000000000001,-0.17980000000000002,-0.062],[-0.0994,0.08080000000000001,0.1148,-0.1382,-0.0806,0.145,-0.0504,0.023000000000000003,0.1948,-0.021400000000000002,-0.10060000000000001,0.020000000000000004,-0.08080000000000001,-0.0966,0.1168,0.1446,0.18500000000000003,0.0114,0.066,-0.171,0.12960000000000002,0.19640000000000002,0.1514,-0.05560000000000001,0.016],[0.05580000000000001,-0.11699999999999999,-0.07440000000000001,-0.033,0.0152,0.07740000000000001,-0.13899999999999998,0.08000000000000002,0.10060000000000001,-0.06999999999999999,-0.13060000000000002,-0.049800000000000004,-0.10560000000000001,0.0822,0.0342,-0.1506,-0.1652,0.15600000000000003,0.001,-0.049,-0.13720000000000002,0.17980000000000002,0.1892,-0.1282,-0.164],[-0.10640000000000001,0.0598,0.1502,0.0826,0.1746,0.1988,-0.1134,-0.11599999999999999,0.11259999999999999,-0.0616,0.17500000000000002,-0.1428,0.11060000000000002,0.1704,0.15660000000000002,-0.05480000000000001,0.1404,0.1288,-0.0844,-0.1918,-0.0442,0.0368,-0.0732,-0.1452,0.021],[0.1584,-0.062400000000000004,0.040600000000000004,-0.05160000000000001,0.1466,0.0318,-0.13520000000000001,-0.12560000000000002,-0.1028,0.14880000000000002,0.08760000000000001,0.1602,-0.0842,-0.1194,-0.1232,0.08940000000000001,-0.133,0.1262,-0.0954,-0.0012000000000000001,-0.05500000000000001,-0.126,0.0166,-0.0752,0.05560000000000001],[0.17500000000000002,0.031400000000000004,0.15880000000000002,-0.022600000000000002,-0.1206,-0.15900000000000003,0.013400000000000002,0,-0.1378,0.0978,-0.0376,-0.07640000000000001,0.08960000000000001,0.1816,-0.1526,0.1648,0.1272,-0.059,-0.0082,-0.17120000000000002,0.197,-0.127,0.085,-0.0076,-0.0596],[0.1342,-0.037,0.048600000000000004,0.1918,0.0128,0.15800000000000003,-0.04020000000000001,-0.1686,-0.1754,-0.0614,0.1202,0.0086,-0.1394,0.1648,0.165,0.1148,0.1676,-0.0108,-0.1786,0.011000000000000001,0.08020000000000001,0.1258,-0.10660000000000001,0.196,0.041800000000000004],[0.056999999999999995,0.1718,0.1656,-0.1978,-0.141,0.15100000000000002,-0.1572,0.045200000000000004,0.033,-0.07600000000000001,-0.0332,-0.1446,0.1706,0.06999999999999999,-0.005600000000000001,0.13799999999999998,-0.13040000000000002,-0.0868,-0.13660000000000003,-0.0466,0.132,-0.07700000000000001,-0.006,-0.06,-0.040600000000000004],[0.13660000000000003,0.11060000000000002,0.048,-0.038000000000000006,0.057999999999999996,0.0964,-0.199,0.18480000000000002,-0.0396,0.13799999999999998,-0.1916,0.0918,0.1664,0.05380000000000001,-0.044000000000000004,-0.1456,0.08760000000000001,0.1288,-0.19540000000000002,0.1776,-0.028000000000000004,-0.1242,-0.005000000000000001,-0.18460000000000001,0.005000000000000001],[0.08360000000000001,0.1442,0.0318,0.1438,0.031400000000000004,-0.0656,-0.1432,-0.101,0.0454,0.0976,0.1318,0.021400000000000002,-0.011200000000000002,0.056799999999999996,0.13140000000000002,-0.12560000000000002,-0.0692,0.18400000000000002,-0.146,0.1422,-0.0728,0.134,0.1178,-0.0942,-0.146],[-0.09860000000000001,0.0052,0.09720000000000001,-0.0108,0.1252,0.020000000000000004,0.0756,0.023200000000000002,-0.08560000000000001,-0.06760000000000001,0.18120000000000003,0.0696,-0.1728,0.0304,0.1418,0.11140000000000001,0.1706,0.0088,0.043800000000000006,0.1414,0.0608,-0.1274,-0.05260000000000001,0.16100000000000003,0.09160000000000001],[-0.041,-0.10020000000000001,0.0872,-0.020200000000000003,0.0198,0.065,-0.07880000000000001,0.0716,-0.019000000000000003,0.1468,-0.07440000000000001,-0.10920000000000002,0.1878,-0.0184,0.0474,0.1422,-0.07980000000000001,0.1492,-0.1734,-0.17,0.1034,0.061200000000000004,-0.11220000000000002,0.019200000000000002,0.0874],[0.1936,-0.0058000000000000005,-0.042,0.1028,0.18680000000000002,0.0004,0.061,-0.019600000000000003,0.0966,0.0422,-0.10740000000000001,0.16060000000000002,-0.13620000000000002,-0.166,-0.0182,-0.12240000000000001,-0.062,-0.1134,0.09200000000000001,0.0674,-0.0388,0.07680000000000001,0.1966,0.0838,-0.1]],[[0.06,0.0424,0.17020000000000002,-0.005600000000000001,-0.1452,0.0966,0.0302,0.127,0.1474,-0.1886,0.1406,0.1634,0.0442,0.08860000000000001,-0.1888,0.1368,-0.0872,0.0666,-0.053000000000000005,-0.1652,-0.1376,0.129,-0.13740000000000002,-0.09720000000000001,-0.07680000000000001],[-0.1416,0.08760000000000001,-0.0688,0.15880000000000002,-0.1522,0.0912,-0.094,0.1138,0.19740000000000002,0.0022,0.1658,-0.08000000000000002,-0.10360000000000001,0.1564,-0.1806,-0.022400000000000003,0.1128,-0.1908,-0.074,-0.1184,-0.062200000000000005,-0.013800000000000002,0.1958,0.0732,0.0716],[0.028999999999999998,-0.12660000000000002,-0.195,0.0692,-0.06899999999999999,-0.012400000000000001,-0.16140000000000002,-0.1636,0.1146,0.034,0.037,0.0426,-0.1158,-0.0412,0.0478,0.15580000000000002,-0.08900000000000001,0.026000000000000002,-0.0666,-0.1186,-0.15780000000000002,0.044800000000000006,-0.006600000000000001,0.0874,-0.0208],[-0.0054,0.1394,-0.083,-0.1128,0.020000000000000004,-0.11240000000000001,-0.1938,0.1146,-0.0188,0.08080000000000001,0.0908,0.0582,-0.0792,-0.0666,0.17300000000000001,0.061200000000000004,-0.0952,0.09200000000000001,0.0494,0.039200000000000006,-0.0236,0.052000000000000005,0.171,0.0626,0.0954],[0.0948,-0.1222,-0.16200000000000003,-0.0842,0.1398,0.14980000000000002,0.046000000000000006,-0.1976,-0.0216,-0.1164,0.1708,-0.10020000000000001,-0.031200000000000002,0.143,-0.0964,-0.1186,0.0374,0.1034,0.169,-0.043000000000000003,0.196,0.1268,-0.1796,0.1416,0.0572],[-0.17600000000000002,0.1258,0.1152,-0.15600000000000003,0.1986,0.11299999999999999,0.1544,-0.08100000000000002,-0.0776,0.1132,-0.1932,0.13999999999999999,0.06760000000000001,-0.17,-0.0776,-0.1976,-0.118,0.1778,-0.060200000000000004,-0.042800000000000005,0.15940000000000001,-0.0174,-0.0824,-0.022400000000000003,0.1996],[0.119,-0.167,-0.0444,-0.10920000000000002,-0.0012000000000000001,-0.09140000000000001,-0.031200000000000002,0.145,-0.1328,-0.11499999999999999,0.0654,0.1268,0.0356,0.10200000000000001,0.06999999999999999,-0.039200000000000006,-0.09060000000000001,-0.1462,-0.15940000000000001,-0.040400000000000005,-0.163,-0.011200000000000002,-0.0822,0.17220000000000002,0.0828],[0.1192,0.0294,0.0842,0.0014000000000000002,0.0046,0.17720000000000002,-0.188,-0.1978,0.1776,-0.085,-0.164,-0.07700000000000001,0.119,0.0422,0.0288,-0.06280000000000001,0.1756,-0.17720000000000002,0.164,0.027800000000000005,0.0704,0.0666,0.0616,0.0198,0.1726],[-0.13560000000000003,-0.1678,0.1292,-0.12240000000000001,-0.028399999999999998,0.038000000000000006,-0.053200000000000004,-0.1226,-0.1816,-0.0746,0.060200000000000004,-0.1516,0.0858,-0.04020000000000001,0.1922,-0.0034000000000000002,0.1678,-0.08700000000000001,0.046200000000000005,-0.1668,-0.0198,0.17800000000000002,-0.0864,0.1704,0.0994],[-0.1754,-0.10900000000000001,0.0014000000000000002,-0.0704,0.13640000000000002,-0.1756,0.1218,-0.15940000000000001,-0.1582,-0.07840000000000001,0.1212,0.027000000000000003,-0.12660000000000002,-0.10720000000000002,0.196,-0.096,-0.0078000000000000005,0.13040000000000002,0.1864,-0.11699999999999999,0.038200000000000005,0.013600000000000001,0.031200000000000002,-0.0634,0.1454],[0.10060000000000001,0.165,-0.08660000000000001,-0.1574,-0.18660000000000002,-0.0588,-0.1504,-0.1482,0.121,-0.011600000000000001,0.0684,-0.08560000000000001,0.1278,-0.0748,-0.1492,0.0246,0.0446,-0.054200000000000005,-0.019200000000000002,-0.031200000000000002,0.0378,-0.0932,0.1806,-0.031200000000000002,0.12],[0.008400000000000001,0.1384,0.15940000000000001,0.006600000000000001,-0.127,-0.0058000000000000005,-0.17200000000000001,-0.0256,0.0656,-0.062,0.022600000000000002,-0.1382,0.06,-0.005000000000000001,0.13540000000000002,0.009,0.0946,0.023400000000000004,-0.197,-0.1432,-0.0834,-0.038400000000000004,0.0368,0.0052,0.0492],[-0.0998,0.17920000000000003,0.061,0.023000000000000003,-0.0282,-0.1816,-0.123,0.0666,-0.10460000000000001,0.1,0.0722,0.15900000000000003,0.020000000000000004,-0.0484,-0.1402,0.0592,-0.038200000000000005,0.1222,-0.0298,0.0362,0.1936,-0.0626,0.1258,0.1388,0.144],[-0.16060000000000002,0.0352,-0.0164,0.043000000000000003,-0.0838,0.1542,0.0244,-0.11220000000000002,-0.1642,0.1232,0.1726,-0.0956,-0.15900000000000003,-0.027400000000000004,0.049800000000000004,-0.1166,0.085,0.065,0.18560000000000001,-0.15600000000000003,0.041800000000000004,0.046000000000000006,0.1664,0.0028000000000000004,0.131],[0.1834,-0.18720000000000003,0.10660000000000001,0.197,0.18720000000000003,0.044800000000000006,0.10220000000000001,0.1438,-0.0492,-0.193,-0.15660000000000002,0.08900000000000001,-0.0604,0.019600000000000003,0.07840000000000001,0.026600000000000002,-0.0354,0.06820000000000001,-0.1278,0.1338,-0.16620000000000001,0.0474,-0.0436,-0.0146,-0.033800000000000004],[-0.12380000000000001,0.016200000000000003,0.0582,-0.07700000000000001,-0.08100000000000002,-0.16040000000000001,0.1254,-0.048,-0.0712,-0.18580000000000002,-0.13720000000000002,-0.18560000000000001,0.15960000000000002,0.043800000000000006,0.1158,0.1776,0.15900000000000003,0.06860000000000001,-0.023000000000000003,0.027000000000000003,-0.15000000000000002,0.17620000000000002,-0.0502,-0.197,0.013000000000000001],[-0.1436,0.10700000000000001,-0.064,0.0348,0.0048000000000000004,0.194,-0.052000000000000005,0.007000000000000001,0.0408,0.16200000000000003,-0.0984,-0.1,0.18000000000000002,-0.1502,-0.1532,0.07540000000000001,0.16160000000000002,-0.024,0.1436,0.0978,0.021400000000000002,0.0574,-0.1966,-0.149,-0.019600000000000003],[0.0674,0.0644,-0.1434,0.164,0.1462,0.13620000000000002,-0.1182,-0.021,0.13660000000000003,0.13799999999999998,0.08760000000000001,0.0204,-0.0374,0.10800000000000001,0.0332,-0.1132,-0.0752,0.1158,-0.1394,0.1854,-0.169,0.051000000000000004,0.18100000000000002,-0.10520000000000002,0.1],[0.1436,-0.1486,-0.1958,0.0068000000000000005,-0.0322,-0.09820000000000001,-0.17020000000000002,-0.099,0.0738,-0.13640000000000002,0.0176,0.0738,-0.0146,0.12440000000000001,0.15980000000000003,0.0862,0.062,0.16080000000000003,0.0128,0.0446,-0.0822,-0.063,0.11120000000000002,-0.05560000000000001,0.1552],[0.0826,-0.10420000000000001,0.0772,0.031200000000000002,0.0184,-0.13,0.17700000000000002,0.1526,0.1202,-0.0362,-0.1254,-0.0296,0.022600000000000002,-0.013400000000000002,0.097,-0.0688,-0.0818,-0.08860000000000001,-0.11160000000000002,0.0344,-0.1174,-0.1956,-0.054400000000000004,0.005600000000000001,0.0564],[0.0128,-0.028999999999999998,-0.05460000000000001,-0.17980000000000002,-0.051800000000000006,0.1876,0.008,0.16060000000000002,-0.1686,-0.13999999999999999,-0.13060000000000002,-0.1192,-0.1978,0.195,0.0482,0.0026,-0.09060000000000001,-0.009800000000000001,-0.1164,-0.1138,0.1282,-0.0874,-0.16820000000000002,-0.1308,0.1436],[-0.062,-0.1278,-0.1078,-0.0968,0.009800000000000001,-0.060200000000000004,0.0978,-0.018,0.0242,0.13899999999999998,-0.1196,-0.1182,0.08560000000000001,0.1024,-0.165,-0.1916,-0.1582,-0.004,-0.0646,-0.0786,0.060200000000000004,-0.1646,0.0822,0.0018,-0.1764],[0.11240000000000001,-0.1884,0.07800000000000001,0.05500000000000001,0.1332,0.08000000000000002,-0.0236,0.0144,-0.062200000000000005,-0.0346,-0.194,0.0318,0.032,0.18400000000000002,0.13660000000000003,-0.1638,-0.0504,-0.1438,-0.1948,-0.0902,-0.1534,-0.1268,0.12960000000000002,-0.1652,-0.1684],[0.1634,-0.09280000000000001,0.09300000000000001,-0.1486,0.033800000000000004,-0.0302,0.1182,0.0342,-0.1656,0.0816,-0.141,-0.09260000000000002,0.018600000000000002,0.1486,0.127,-0.033800000000000004,-0.07900000000000001,-0.09920000000000001,0.0386,0.188,-0.0908,-0.041,-0.10840000000000001,-0.1268,0.006600000000000001],[0.0434,0.10020000000000001,0.10500000000000001,-0.013200000000000002,0.0514,-0.1534,-0.033800000000000004,0.1836,-0.0478,0.0772,-0.0302,-0.1482,0.1746,0.15180000000000002,0.0386,0.15300000000000002,-0.07440000000000001,0.11160000000000002,0.09260000000000002,-0.17600000000000002,-0.07500000000000001,0.021,-0.062200000000000005,-0.0218,0.0944]],[[0.0522,0.11160000000000002,-0.004,0.013000000000000001,0.027800000000000005,0.0834,0.0108,-0.1958,-0.0242,-0.06620000000000001,-0.1462,-0.1738,-0.039200000000000006,-0.0596,-0.0304,0.05260000000000001,-0.025400000000000002,-0.0474,0.0692,-0.15760000000000002,-0.056999999999999995,-0.1748,0.1916,0.0738,0.1288],[0.0244,0.15460000000000002,-0.17800000000000002,0.006200000000000001,0.0974,-0.15960000000000002,0.09340000000000001,0.0618,-0.0572,-0.0706,0.06580000000000001,0.11599999999999999,0.12960000000000002,0.07500000000000001,-0.19840000000000002,-0.049,-0.199,0.1378,-0.0588,-0.09820000000000001,0.18020000000000003,0.189,-0.18220000000000003,-0.09040000000000001,-0.1458],[0.1758,-0.0436,-0.1636,0.003,-0.031,-0.0708,0.16720000000000002,-0.002,0.18200000000000002,-0.13520000000000001,-0.1398,-0.1504,-0.08940000000000001,-0.1704,0.027000000000000003,-0.1182,0.10920000000000002,-0.1172,-0.0582,0.0878,0.05,0.17520000000000002,0.13720000000000002,0.18220000000000003,0.051000000000000004],[-0.1926,-0.1706,-0.0946,0.1452,-0.083,0.0206,0.0822,-0.05260000000000001,-0.1844,-0.08360000000000001,-0.10320000000000001,0.1644,-0.0696,-0.13240000000000002,0.04680000000000001,0.1734,0.0208,0.16920000000000002,-0.1482,0.1358,-0.013400000000000002,0.1644,-0.13440000000000002,-0.16100000000000003,-0.1186],[0.1384,-0.1482,0.19140000000000001,0.0036,0.0594,0.0494,-0.1328,-0.16820000000000002,0.06280000000000001,-0.189,0.0118,-0.067,-0.0064,0.011600000000000001,0.1664,0.06899999999999999,-0.0588,0.019200000000000002,0.18580000000000002,-0.1,-0.1592,0.09360000000000002,0.16200000000000003,0.0818,-0.09040000000000001],[0.013800000000000002,-0.0584,-0.13060000000000002,0.1794,0.017,-0.054000000000000006,-0.1942,0.126,0.014000000000000002,-0.1778,-0.071,0.05460000000000001,0.0014000000000000002,-0.013800000000000002,-0.072,-0.1796,-0.0342,-0.11359999999999999,0.09040000000000001,-0.0742,-0.1636,-0.0654,0.06820000000000001,0.1144,-0.07540000000000001],[0.1272,0.055200000000000006,0.19140000000000001,0.19540000000000002,-0.0616,-0.015,0.1044,-0.1132,-0.0968,-0.013400000000000002,-0.05160000000000001,0.1784,0.049,-0.10960000000000002,-0.1778,-0.1504,-0.1028,-0.1704,0.016,-0.1162,-0.07940000000000001,-0.18080000000000002,0.05620000000000001,-0.07900000000000001,-0.1676],[-0.163,-0.0262,-0.045000000000000005,-0.145,0.1952,-0.171,-0.031200000000000002,0.0158,-0.121,-0.11259999999999999,-0.1014,0.135,0.15200000000000002,-0.1394,0.0976,0.07600000000000001,-0.032400000000000005,0.025400000000000002,-0.0578,0.1552,0.1786,0.048,0.0756,-0.18400000000000002,-0.099],[0.0154,-0.16620000000000001,0.0024000000000000002,0.1228,0.1208,-0.1456,0.0892,0.084,-0.022000000000000002,0.0692,-0.11359999999999999,0.17420000000000002,-0.1308,-0.062200000000000005,-0.1552,-0.1338,-0.15280000000000002,0.10920000000000002,-0.1642,-0.09100000000000001,0.15980000000000003,0.13660000000000003,-0.18660000000000002,-0.0576,0.0304],[0.083,0.0416,0.003,-0.07940000000000001,0.13260000000000002,-0.0824,0.0006000000000000001,-0.042,-0.0044,-0.1246,0.148,-0.1906,-0.0664,-0.1254,-0.132,-0.013000000000000001,0.0814,-0.1188,0.1194,-0.1794,-0.1494,0.13240000000000002,-0.08460000000000001,-0.2,0.1308],[-0.046200000000000005,0.11120000000000002,-0.0898,-0.18700000000000003,0.1658,0.095,0.0666,0.16060000000000002,-0.0082,-0.09360000000000002,-0.122,-0.0408,0.0838,0.17020000000000002,-0.1448,-0.0848,0.1946,-0.046400000000000004,0.2,0.08600000000000001,0.0614,0.0978,0.1796,-0.188,0.1152],[0.038000000000000006,0.1748,-0.0342,0.16080000000000003,0.1464,-0.1456,0.0814,0.0884,-0.0492,0.05380000000000001,-0.0786,0.17020000000000002,-0.0364,0.032,0.1428,-0.1342,0.0444,-0.1202,0.17420000000000002,0.1958,0.0608,-0.1028,0.0968,0.0534,-0.11200000000000002],[0.0796,-0.1716,-0.15800000000000003,0.1938,-0.10200000000000001,0.1928,0.030600000000000002,0.1378,0.16620000000000001,0.11180000000000001,0.09200000000000001,-0.096,0.1386,0.18200000000000002,-0.1308,0.12940000000000002,-0.1208,-0.009,0.068,-0.10200000000000001,0.16620000000000001,0.1886,0.16000000000000003,-0.0376,-0.06999999999999999],[-0.059,0.032,-0.1396,-0.17980000000000002,0.1896,0.009600000000000001,-0.07900000000000001,0.0074,0.1864,0.1222,-0.11140000000000001,0.037,0.0242,0.1158,0.1636,0.0512,0.020200000000000003,0.0288,0.0574,0.062400000000000004,-0.10360000000000001,0.0864,-0.06899999999999999,0.19240000000000002,0.055200000000000006],[0.0882,0.082,0.0606,0.0342,0.03900000000000001,-0.05360000000000001,-0.0072,0.0088,0.1068,0.0724,-0.028000000000000004,0.16820000000000002,0.1744,0.0212,0.18620000000000003,-0.1456,0.1148,-0.1636,-0.0076,-0.0204,-0.1438,0.011600000000000001,-0.18480000000000002,0.05600000000000001,-0.15000000000000002],[-0.012400000000000001,0.0862,0.0032,-0.163,-0.15980000000000003,0.1854,-0.11140000000000001,0.019600000000000003,-0.17400000000000002,0.15980000000000003,-0.1646,-0.0144,0.1176,0.0702,0.037,-0.0716,0.1394,0.17500000000000002,-0.055200000000000006,-0.163,0.0946,0.18320000000000003,0.09340000000000001,-0.0504,0.023000000000000003],[0.10860000000000002,0.0946,-0.07980000000000001,0.09200000000000001,-0.13340000000000002,0.0634,0.16240000000000002,0.1402,0.1044,-0.0708,-0.10520000000000002,-0.12660000000000002,0.1816,0.1252,0.022600000000000002,0.0006000000000000001,0.0164,0.08100000000000002,0.16180000000000003,0.15660000000000002,0.1392,-0.1544,-0.09060000000000001,0.049800000000000004,-0.125],[0.0606,0.1648,0.12240000000000001,-0.15380000000000002,0.074,0.0024000000000000002,0.1768,-0.019600000000000003,-0.05,0.0586,0.1252,0.0206,-0.0736,0.14880000000000002,-0.1696,-0.049600000000000005,-0.13040000000000002,-0.023400000000000004,0.1522,0.0942,-0.0308,0.19140000000000001,-0.013000000000000001,0.0988,0.015600000000000001],[-0.0028000000000000004,0.134,0.0932,-0.0762,-0.0994,-0.0848,-0.0364,-0.10420000000000001,0.08100000000000002,0.0576,0.054200000000000005,0.149,0.0944,0.06,0.096,-0.10840000000000001,-0.0446,-0.009,0.0878,-0.0868,0.056799999999999996,0.19440000000000002,-0.0746,-0.10960000000000002,-0.19640000000000002],[0.15300000000000002,-0.12380000000000001,-0.14880000000000002,-0.09340000000000001,0.18320000000000003,0.027600000000000003,0.0206,0.17700000000000002,-0.1202,0.04020000000000001,-0.19140000000000001,0.0474,-0.05620000000000001,0.196,-0.1494,0.121,0.0318,-0.13240000000000002,-0.071,-0.1148,0.046400000000000004,0.1,-0.036,-0.1394,-0.049800000000000004],[-0.1444,0.04000000000000001,-0.0726,-0.062200000000000005,0.1758,-0.1382,0.1938,0.1796,-0.11040000000000001,-0.1162,0.1716,-0.11299999999999999,-0.042,-0.0574,0.1592,0.0002,-0.0922,0.0884,-0.10060000000000001,-0.07740000000000001,-0.1452,0.17200000000000001,-0.17220000000000002,0.1184,-0.07640000000000001],[-0.1554,-0.0286,-0.05260000000000001,-0.0362,0.1726,-0.0732,-0.167,0.0816,-0.1148,-0.12340000000000001,0.1764,0.046000000000000006,0.012,-0.1068,-0.13999999999999999,-0.004,0.1836,0.195,0.0842,0.12860000000000002,-0.097,-0.16160000000000002,-0.0076,-0.1698,0.0308],[0.1482,0.0966,-0.1946,0.09920000000000001,0.1656,-0.0016,0.0944,0.1552,0.0578,-0.1804,0.19840000000000002,0.1834,0.15180000000000002,-0.1998,0.1658,-0.15680000000000002,-0.0118,0.1206,0.031,0.0046,0.0494,-0.08700000000000001,-0.033400000000000006,0.024,-0.0182],[-0.1996,0.0282,0.061200000000000004,0.0102,-0.13440000000000002,-0.1676,0.038000000000000006,-0.0492,-0.018,0.1962,-0.1312,-0.10020000000000001,-0.039400000000000004,-0.0206,0.1892,0.0666,0.0724,-0.0606,-0.0212,-0.1786,0.006600000000000001,-0.15660000000000002,0.12340000000000001,0.0718,0.1966],[-0.0732,-0.1168,-0.0442,0.07740000000000001,0.016800000000000002,0.09960000000000001,0.0946,-0.0588,0.0038,-0.1484,0.0714,-0.0994,-0.163,-0.1938,-0.1464,-0.1894,0.0472,-0.0206,0.0586,-0.1444,-0.1754,0.094,0.0822,-0.18300000000000002,0.1206]],[[-0.1993642837798657,-0.04171612750624927,-0.18505468190272206,0.009216353751380652,0.21173360065671867,0.20470006753066503,-0.06305926250944657,0.20397246065555602,0.17850622002674107],[-0.18602482440286738,-0.16565183189981544,-0.16662197439996076,0.12223795501831182,0.18165918315221338,-0.007033533126053656,-0.15085715877259911,-0.14018559127100044,-0.24083787566107864],[-0.226528273783935,-0.1413982693961821,0.06136151313419224,0.221435025658172,0.00654846187598099,0.0669398325100279,0.06136151313419224,-0.018432707502761304,0.19087553690359405],[-0.01722002937757964,-0.00970142500145332,0.05820855000871991,-0.09216353751380653,0.0882829675132252,-0.21803952690766334,0.0861001468878982,-0.14382362564654544,0.24180801816122396],[0.05505558688324758,0.06063390625908324,-0.02037299250305197,0.20785303065613736,-0.014309601877143644,-0.11035370939153151,-0.1993642837798657,-0.16419661814959743,0.0441414837566126],[-0.23089391503458898,0.15061462314756277,-0.1406706625210731,0.04462655500668527,0.16759211690010606,0.23719984128553365,0.22119249003313568,-0.07203308063579089,-0.12951402376940183],[-0.004608176875690326,0.18481214627768572,-0.2095507800313917,-0.05529812250828392,0.09313368001395186,-0.0633017981344829,0.00897381812634432,-0.08488746876271654,0.08124943438717155],[0.19087553690359405,0.1595884412739071,-0.1964538562794297,-0.21367388565700934,0.19524117815424805,-0.22483052440868068,-0.011156638751671317,-0.018432707502761304,0.11859992064276682],[0.04680937563201226,0.034682594380195615,0.056510800633465585,-0.1882076450281944,0.03953330688092228,0.09604410751438786,0.03419752313012295,0.0235259556285243,-0.0882829675132252],[0.1765659350264504,0.08949564563840687,0.23501702066020663,-0.17462565002615973,0.21585670628233636,0.07542857938629956,-0.043898948131576264,0.13824530627070977,-0.09095085938862486],[0.09943960626489651,-0.019160314377870306,0.1302416306445108,-0.14964448064741745,0.07833900688673555,0.12951402376940183,-0.08804043188818887,0.11350667251700383,0.013339459376998314],[-0.12757373876911116,0.22749841628408032,0.009943960626489652,0.19912174815482936,0.22749841628408032,0.06888011751031856,-0.23574462753531564,-0.06354433375951923,-0.1406706625210731],[-0.02037299250305197,-0.19330089315395738,0.03322738062997762,0.05554065813332025,-0.23647223441042464,-0.202517246905338,0.04244373438135827,-0.038078093130704274,0.11132385189167683],[-0.09531650063927886,-0.029831881879468954,-0.16831972377521506,-0.14382362564654544,0.15643547814843478,-0.12320809751845715,-0.1751107212762324,0.11035370939153151,-0.03444005875515928],[0.01067156750159865,0.07712632876155388,-0.010429031876562318,-0.025708776253851293,-0.11471935064218548,0.051660088132738924,-0.06427194063462824,-0.17899129127681374,0.09386128688906085],[0.211248529406646,-0.1671070456500334,-0.21270374315686402,0.14891687377230844,0.13145430876969247,-0.1494019450223811,-0.18068904065206806,0.1661369031498881,0.2398677331609333],[-0.060148835009010575,0.15764815627361645,0.14915940939734476,-0.1316968443947288,-0.0019402850002906637,-0.03371245188005029,0.06742490376010057,-0.040260913756031275,-0.11447681501714915],[-0.03177216687975962,-0.16831972377521506,0.10477539001569584,0.0021828206253269966,0.2325916644098433,0.23477448503517032,0.11544695751729449,0.06912265313535489,0.23574462753531564],[-0.16346901127448843,0.10380524751555051,-0.1877225737781217,-0.1889352519033034,-0.09507396501424253,0.006063390625908324,-0.08779789626315253,-0.10404778314058684,-0.0933762156389882],[0.1986366769047567,0.07009279563550022,0.2102783869065007,0.16492422502470644,0.06936518876039123,-0.0846449331376802,-0.13290952251991048,-0.2318640575347343,-0.1530399793979261],[-0.049719803132448254,0.2139164212820457,-0.07712632876155388,0.17123015127565105,0.1925732862788484,0,0.21343135003197303,-0.17486818565119605,0.06208912000930124],[-0.19499864252921173,-0.03177216687975962,-0.20712542378102836,-0.0882829675132252,-0.17850622002674107,-0.01236931687685298,-0.08998071688847953,-0.2369573056604973,0.15692054939850744],[-0.08513000438775287,-0.17996143377695906,0.08925311001337054,0.05942122813390158,-0.2066403525309557,-0.21294627878190034,0.219252205032845,-0.01139917437670765,0.02934681062939629],[-0.10380524751555051,-0.22798348753415298,0.17462565002615973,0.0058208550008719915,0.14915940939734476,-0.05311530188295692,0.038078093130704274,0.23137898628466164,-0.07833900688673555],[-0.04802205375719393,-0.16953240190039673,-0.13412220064509214,0.07979422063695354,0.11884245626780315,0.08246211251235322,0.21634177753240902,0.18335693252746774,0.023768491253560634]]]}